<HMMNAME> 0
<HMMSTATES> 25
<STATE> 1
<MEAN> 36
-1.802780e+001 -9.260514e+000 1.683200e+001 -1.413133e+001 4.406719e+000 8.122241e+000 -1.062151e+000 6.198505e+000 -6.449020e+000 7.961660e+000 8.186551e-001 -2.626590e+000 -5.489013e-002 -1.024217e-001 2.565168e-001 -7.823479e-001 4.885070e-001 -5.163192e-001 3.503335e-001 8.088486e-001 2.437856e-001 1.755158e-001 -3.467172e-001 -1.641897e-002 1.145232e-001 1.414303e-001 -1.445031e-002 3.451789e-002 5.008238e-002 -1.170838e-001 2.263527e-001 -7.789166e-002 -2.421704e-001 -1.637578e-001 -3.624685e-001 -2.229026e-001 
<VARIANCE> 36
4.059172e+001 1.090186e+001 9.840849e+001 1.616490e+001 1.088884e+001 1.724562e+001 7.973381e+000 9.639783e+000 3.543159e+001 2.740843e+001 1.414667e+001 6.603214e+000 7.779300e-001 1.887914e-001 1.371368e+000 1.384827e+000 1.202164e+000 1.187735e+000 1.679376e+000 1.612695e+000 5.429608e-001 2.679291e+000 2.801029e-001 9.552433e-001 5.000000e-002 5.000000e-002 7.675295e-002 3.165101e-001 1.345099e-001 1.039310e-001 9.996361e-002 1.211991e-001 2.203811e-001 3.390128e-001 8.154594e-002 5.000000e-002 
<GCONST> 7.326406e+001
<STATE> 2
<MEAN> 36
-2.232509e+001 -1.021547e+001 2.255611e+001 -1.748621e+001 7.029927e+000 5.014389e+000 1.510506e+000 4.109854e+000 -6.338500e+000 9.202135e+000 -2.342884e+000 -1.420379e+000 -7.864917e-002 -2.525534e-001 1.566630e-001 -2.141142e-001 1.810215e-001 -3.182495e-001 1.946635e-001 -1.580558e-001 -1.049067e-001 -2.289141e-001 -2.554222e-001 7.373797e-002 1.036105e-001 -2.090709e-002 -1.562914e-001 1.378411e-001 -7.554731e-002 2.413334e-002 -5.929610e-002 5.706605e-003 -1.902334e-002 -6.073298e-002 9.540470e-002 2.363590e-002 
<VARIANCE> 36
1.489613e+001 8.713962e+000 3.651019e+001 1.663627e+001 1.434295e+001 1.564121e+001 9.688900e+000 1.390655e+001 1.207951e+001 1.571145e+001 1.116716e+001 1.280106e+001 3.472476e-001 2.862562e-001 8.518845e-001 4.609789e-001 9.046529e-001 8.251831e-001 8.760801e-001 1.068271e+000 7.057750e-001 1.079553e+000 1.133213e+000 8.019587e-001 5.000000e-002 7.271371e-002 9.025422e-002 1.697760e-001 1.633781e-001 1.789228e-001 2.412697e-001 2.526189e-001 1.326162e-001 2.582164e-001 1.699661e-001 1.516043e-001 
<GCONST> 7.083579e+001
<STATE> 3
<MEAN> 36
-1.998165e+001 -1.359355e+001 1.955414e+001 -1.464319e+001 6.200796e+000 2.399788e+000 3.401495e+000 7.102228e+000 -7.162398e+000 6.820576e+000 -5.450603e-001 -4.175868e-002 9.328072e-001 5.437108e-002 -1.151026e+000 7.823835e-001 -1.705642e-001 -1.266226e-001 4.000054e-002 5.376926e-001 -5.223766e-002 -1.396900e-001 -1.532028e-001 -2.642832e-001 1.659166e-001 1.982210e-001 -2.341928e-001 1.195951e-002 8.799644e-002 -3.609269e-002 -7.501140e-002 5.561824e-002 3.574190e-002 2.171926e-002 -1.439023e-001 -7.312240e-002 
<VARIANCE> 36
2.523038e+001 7.886871e+000 3.643236e+001 3.003907e+001 2.165380e+001 2.052701e+001 1.290991e+001 3.542473e+001 2.153630e+001 1.798548e+001 1.865345e+001 1.305381e+001 4.704373e-001 8.822602e-001 1.416395e+000 2.118556e+000 1.464770e+000 9.210429e-001 1.405382e+000 2.495457e+000 1.105114e+000 1.210771e+000 9.261325e-001 8.301667e-001 6.153374e-002 1.079643e-001 2.741731e-001 4.687487e-001 2.234066e-001 2.622609e-001 2.475580e-001 4.927559e-001 1.500194e-001 2.427985e-001 2.132888e-001 1.959004e-001 
<GCONST> 8.543899e+001
<STATE> 4
<MEAN> 36
-1.254927e+001 -8.588948e+000 1.034385e+001 -1.053640e+001 5.344614e+000 3.630710e+000 8.624209e-001 8.206491e+000 -5.515874e+000 7.438365e+000 -3.838113e+000 -5.283306e+000 2.166274e+000 1.198241e+000 -2.754476e+000 1.620027e-001 4.243147e-001 -9.803430e-001 6.727247e-002 7.909009e-001 -3.075872e-001 -8.252400e-001 -1.243530e+000 -7.591711e-001 1.539162e-001 -1.227667e-001 -2.420478e-002 -3.428163e-001 1.634319e-001 -1.955161e-001 -4.190224e-002 -1.423886e-001 -4.237416e-001 -5.418601e-001 -1.300035e-001 1.297982e-001 
<VARIANCE> 36
2.376599e+001 9.802955e+000 3.997820e+001 8.561011e+000 8.047719e+000 1.298130e+001 1.987717e+001 2.024923e+001 3.037730e+001 1.930131e+001 1.746906e+001 8.765563e+000 6.228058e-001 6.122460e-001 1.448983e+000 1.310064e+000 1.458274e+000 1.412539e+000 7.953683e-001 3.598063e-001 1.376859e+000 1.925068e+000 2.119596e+000 1.249705e+000 7.547626e-002 1.606502e-001 1.396292e-001 6.874833e-002 1.464899e-001 1.391262e-001 2.171241e-001 1.084950e-001 2.238596e-001 4.648950e-001 3.587042e-001 2.096872e-001 
<GCONST> 7.904885e+001
<STATE> 5
<MEAN> 36
-5.314991e+000 -8.013717e+000 2.466225e+000 -1.156674e+001 7.210803e+000 -4.853624e-001 1.366673e+000 1.118541e+001 -1.000957e+001 3.557316e-001 -7.635394e+000 -5.771935e+000 1.910686e+000 -3.147669e-001 -2.092964e+000 -4.342801e-001 6.185574e-001 -1.513242e+000 -6.796124e-001 -1.253447e-001 -1.785819e+000 -1.824209e+000 -6.224918e-001 -1.259740e-001 -3.993793e-001 -3.348268e-001 3.903603e-001 -2.118680e-002 -1.423883e-001 3.830415e-002 -1.480353e-001 -4.394740e-001 7.822871e-002 4.035783e-001 2.898972e-001 3.656814e-002 
<VARIANCE> 36
5.800128e+000 1.261438e+001 1.203651e+001 1.199415e+001 2.915821e+001 2.136677e+001 1.224443e+001 9.267439e+000 2.234125e+001 1.109222e+001 1.732315e+001 2.320264e+001 4.115879e-001 6.735731e-001 5.585048e-001 6.700320e-001 1.151501e+000 8.724965e-001 4.084164e-001 6.781670e-001 1.087478e+000 2.309485e+000 1.988591e+000 1.089343e+000 5.497169e-002 1.077417e-001 7.360694e-002 9.656721e-002 3.792120e-001 1.912515e-001 8.963796e-002 5.000000e-002 3.253083e-001 2.607021e-001 2.797106e-001 2.020856e-001 
<GCONST> 7.280526e+001
<STATE> 6
<MEAN> 36
-1.929175e+000 -9.071575e+000 -1.791762e+000 -1.231735e+001 8.189800e+000 -4.810833e+000 -1.761243e+000 8.213332e+000 -1.456666e+001 -1.057100e+000 -9.769000e+000 -7.515182e+000 5.815012e-001 -2.688859e-001 -8.952368e-001 -2.298733e-002 1.896636e-001 -6.696907e-001 -5.287886e-001 -3.408484e-001 -7.018785e-001 -4.537168e-001 -4.175697e-001 -2.164279e-001 -1.573483e-001 2.957676e-002 1.731027e-001 3.301423e-002 2.921649e-002 8.167933e-002 2.531380e-003 1.339854e-001 5.911565e-002 2.032272e-002 3.296668e-002 2.195916e-002 
<VARIANCE> 36
4.128872e+000 1.120739e+001 9.328341e+000 1.047646e+001 7.477836e+000 2.214809e+001 1.216474e+001 1.113384e+001 1.947310e+001 1.521426e+001 1.621891e+001 1.163216e+001 7.805174e-002 2.480677e-001 1.625717e-001 3.750124e-001 6.173853e-001 5.508419e-001 3.664173e-001 8.095294e-001 7.829129e-001 5.249361e-001 5.564729e-001 4.598070e-001 5.000000e-002 7.699915e-002 6.058592e-002 8.793345e-002 8.560008e-002 1.511361e-001 5.361472e-002 1.315374e-001 1.592265e-001 1.738915e-001 1.230812e-001 8.310431e-002 
<GCONST> 5.597583e+001
<STATE> 7
<MEAN> 36
1.437931e-001 -9.477582e+000 -6.672736e+000 -9.458825e+000 8.686961e+000 -9.366344e+000 -3.511392e+000 1.065536e+001 -1.674413e+001 -9.457851e+000 -7.086532e+000 -5.079545e+000 3.020443e-002 2.513151e-002 -1.696311e-001 8.024565e-002 1.473089e-001 -2.203548e-001 -8.502912e-002 1.495000e-001 -1.828525e-001 -2.116714e-001 1.535164e-001 9.519834e-002 -1.748568e-002 9.781772e-003 9.359797e-003 -4.709494e-003 9.027337e-003 -7.671319e-003 2.960553e-002 2.934487e-002 3.452033e-003 6.292958e-002 8.886909e-003 -1.890530e-002 
<VARIANCE> 36
2.002459e+000 3.386652e+000 4.487478e+000 7.704145e+000 6.130496e+000 1.509000e+001 1.126300e+001 1.525043e+001 1.661022e+001 2.722429e+001 1.939488e+001 1.237306e+001 5.184506e-002 1.213943e-001 1.839476e-001 2.727291e-001 4.682801e-001 5.346754e-001 5.361596e-001 5.321827e-001 1.213256e+000 1.153864e+000 7.805192e-001 4.920398e-001 5.000000e-002 5.000000e-002 5.000000e-002 5.000000e-002 9.668377e-002 9.549152e-002 9.511489e-002 9.763945e-002 2.519521e-001 2.379474e-001 1.510216e-001 9.869568e-002 
<GCONST> 5.320152e+001
<STATE> 8
<MEAN> 36
1.411339e+000 -1.174241e+001 -9.321959e+000 -1.585699e+001 1.091228e+001 -8.563744e+000 -5.582402e+000 1.176871e+001 -2.198031e+001 -6.532776e+000 -8.224552e+000 -8.213146e+000 -1.585225e-002 2.284838e-002 -8.073479e-002 -1.313441e-001 1.629690e-001 -5.312550e-002 -2.126830e-001 2.372802e-001 -1.206904e-001 -2.554134e-001 6.635431e-002 2.215704e-002 1.358991e-003 2.169613e-002 6.985271e-003 2.068110e-002 -1.374339e-002 6.096847e-002 -6.892138e-003 -2.972509e-002 7.072893e-002 1.447357e-002 -4.221006e-003 5.959591e-004 
<VARIANCE> 36
2.204358e+000 3.623860e+000 2.895136e+000 7.359587e+000 1.705949e+001 2.700525e+001 1.389167e+001 1.941324e+001 1.844113e+001 2.786944e+001 9.089268e+000 1.182225e+001 5.000000e-002 1.364878e-001 1.990357e-001 3.651812e-001 3.982811e-001 6.241365e-001 4.227144e-001 5.208322e-001 8.378397e-001 6.616430e-001 6.307261e-001 4.579728e-001 5.000000e-002 5.000000e-002 5.000000e-002 7.468557e-002 7.036060e-002 1.189166e-001 7.758015e-002 9.079346e-002 1.679630e-001 1.290035e-001 1.267136e-001 9.979259e-002 
<GCONST> 5.208054e+001
<STATE> 9
<MEAN> 36
8.338832e-001 -9.379988e+000 -9.390410e+000 -1.272258e+001 1.371616e+001 -8.755639e+000 -8.166946e+000 1.529933e+001 -1.789381e+001 -1.113539e+001 -6.792326e+000 -4.943983e+000 2.633655e-001 5.122545e-001 -4.735879e-001 -1.453726e-002 1.100895e-001 8.938473e-001 -5.151036e-001 -8.513300e-001 8.974827e-001 3.001631e-001 -1.561373e-002 -5.515288e-001 -1.852365e-002 1.613250e-001 1.026639e-002 -8.002872e-002 -1.774726e-001 6.137224e-001 -3.651280e-002 -5.579073e-001 3.578584e-001 1.557107e-001 1.241455e-001 -2.714866e-001 
<VARIANCE> 36
1.170887e+000 5.637077e+000 2.486466e+000 2.810171e+001 5.199287e+000 3.135588e+001 1.443497e+001 7.838385e+000 1.136465e+001 1.404316e+001 1.032505e+001 1.272582e+001 5.000000e-002 1.321478e-001 1.410203e-001 4.491428e-001 4.592933e-001 7.270815e-001 4.346492e-001 8.013613e-001 1.375444e+000 9.473671e-001 5.123321e-001 9.660287e-001 5.000000e-002 5.000000e-002 5.000000e-002 9.483994e-002 5.000000e-002 8.947166e-002 1.697271e-001 1.039417e-001 3.812382e-001 1.730269e-001 1.130909e-001 7.821479e-002 
<GCONST> 5.346560e+001
<STATE> 10
<MEAN> 36
1.071105e+000 -7.346440e+000 -9.972368e+000 -1.389507e+001 1.286057e+001 -5.406867e+000 -9.458759e+000 9.330366e+000 -1.555434e+001 -9.194396e+000 -6.814177e+000 -8.760146e+000 1.620330e-002 8.713415e-001 -2.879493e-001 -2.378514e-001 -3.960597e-001 2.606262e+000 -3.333719e-001 -1.779370e+000 1.287303e+000 1.247892e+000 4.821174e-001 -1.487074e+000 -1.985115e-001 -2.535777e-002 -1.007944e-002 3.615563e-001 -2.999320e-001 2.800522e-001 6.038105e-001 -1.172890e-002 1.022169e-001 3.025052e-001 2.104243e-001 3.239243e-001 
<VARIANCE> 36
1.981811e+000 6.448515e+000 1.933192e+000 2.623756e+001 8.185176e+000 3.737987e+001 1.935108e+001 5.913647e+000 4.100871e+001 1.230571e+001 4.042248e+000 1.254181e+001 5.000000e-002 1.084276e-001 1.141268e-001 7.662655e-001 6.940672e-001 5.144863e-001 2.208249e+000 9.753155e-001 2.877401e+000 8.037954e-001 8.900651e-001 4.699531e-001 5.000000e-002 5.000000e-002 5.000000e-002 1.114253e-001 1.065280e-001 1.379622e-001 1.500319e-001 1.052070e-001 5.469217e-001 5.299789e-002 6.424470e-002 1.976799e-001 
<GCONST> 5.784364e+001
<STATE> 11
<MEAN> 36
1.606987e+000 -5.455105e+000 -1.119094e+001 -1.409780e+001 1.207727e+001 1.902330e+000 -8.268282e+000 6.021168e+000 -1.449864e+001 -5.755960e+000 -5.396033e+000 -1.004368e+001 -5.704016e-001 6.382843e-001 -2.702132e-001 1.011890e+000 -1.095565e+000 1.994775e+000 1.625351e+000 -1.277362e+000 1.652125e+000 1.237435e+000 4.957578e-001 -5.802756e-002 -5.034079e-001 -3.148457e-001 8.862735e-002 6.586479e-001 -1.177213e-001 -5.850983e-001 4.821587e-001 4.833972e-001 4.734269e-001 8.127760e-003 2.001807e-001 6.810327e-001 
<VARIANCE> 36
1.306726e+000 6.554224e+000 4.469943e+000 1.664134e+001 1.055609e+001 2.877799e+001 1.363608e+001 1.457965e+001 2.269884e+001 7.936058e+000 7.055566e+000 6.420466e+000 1.618819e-001 2.077283e-001 2.412652e-001 7.432247e-001 6.385952e-001 7.351155e-001 1.095509e+000 1.116420e+000 1.857414e+000 2.758959e-001 3.810146e-001 2.100103e-001 5.000000e-002 5.000000e-002 5.000000e-002 1.542660e-001 1.456860e-001 8.914268e-002 5.872507e-001 2.301865e-001 4.116158e-001 1.918343e-001 1.821143e-001 1.942489e-001 
<GCONST> 6.069442e+001
<STATE> 12
<MEAN> 36
-1.940525e+000 -5.683939e+000 -1.065494e+001 -8.679996e+000 8.598083e+000 1.959353e+000 -2.792637e+000 5.115326e+000 -9.593309e+000 -3.868562e+000 -4.213267e+000 -9.071714e+000 -1.784727e+000 -4.798994e-001 -1.135661e-001 1.907624e+000 -4.428273e-001 7.747624e-001 1.654181e+000 5.963536e-002 2.571837e+000 1.388029e+000 1.529591e+000 1.583918e+000 -3.837409e-002 -3.625210e-001 -5.571704e-002 -1.853265e-001 2.887436e-001 -3.851840e-001 -3.757758e-001 2.949918e-001 -1.897517e-001 5.638690e-002 1.091157e-001 1.619826e-001 
<VARIANCE> 36
3.686202e+000 7.363120e+000 4.049781e+000 1.874037e+001 1.605148e+001 2.416434e+001 1.910354e+001 1.271206e+001 2.063534e+001 2.166900e+001 1.368316e+001 1.054283e+001 9.844459e-002 3.839912e-001 3.965170e-001 1.349495e+000 8.272868e-001 1.573440e+000 2.323706e+000 1.942881e+000 1.918866e+000 1.356446e+000 1.273473e+000 8.022346e-001 1.165060e-001 7.505192e-002 1.190921e-001 3.374509e-001 3.329634e-001 1.234957e-001 5.703848e-001 3.971059e-001 3.019396e-001 1.990700e-001 2.206134e-001 2.361410e-001 
<GCONST> 7.677373e+001
<STATE> 13
<MEAN> 36
-4.811532e+000 -7.400599e+000 -1.179681e+001 -6.008674e+000 9.446727e+000 3.846015e+000 -2.333433e+000 4.199308e+000 -5.045786e+000 1.869065e+000 -2.316307e-001 -6.403584e+000 5.072863e-001 5.806026e-001 -1.391075e-001 -5.530338e-001 -5.673397e-001 6.367070e-002 -8.051015e-002 -3.776854e-001 1.834118e-002 2.383074e-001 2.716271e-002 -2.904136e-001 4.075974e-001 4.020766e-001 5.338824e-002 -5.695951e-001 -2.201824e-001 -4.728292e-002 -9.637975e-002 -5.097260e-002 -4.864025e-001 -3.639776e-001 -2.755439e-001 -2.485456e-001 
<VARIANCE> 36
3.858277e+000 9.570137e+000 5.379464e+000 9.532149e+000 8.433622e+000 1.146385e+001 1.010710e+001 1.696700e+001 1.314799e+001 1.733820e+001 7.919689e+000 1.179152e+001 9.981812e-001 2.212541e+000 6.313935e-001 2.321540e+000 2.443715e+000 9.637148e-001 1.511168e+000 8.605032e-001 1.036614e+000 1.954220e+000 1.246542e+000 1.347737e+000 1.228172e-001 2.566113e-001 1.221616e-001 2.328187e-001 3.891200e-001 2.611500e-001 3.346894e-001 1.576378e-001 2.296381e-001 2.419936e-001 2.263808e-001 3.410478e-001 
<GCONST> 7.921316e+001
<STATE> 14
<MEAN> 36
1.761227e+000 -4.548165e-001 -1.305123e+001 -1.752699e+001 3.458526e+000 5.425671e+000 -1.604351e+000 2.018841e+000 -1.145639e+001 -2.288207e+000 -1.763601e+000 -8.124196e+000 7.618624e-001 5.967532e-001 -3.476040e-001 -1.526769e+000 -3.656598e-001 3.943481e-001 -5.215933e-001 -1.081220e+000 -9.583370e-001 -3.949386e-001 6.459725e-002 3.744736e-002 -1.548155e-001 -2.910731e-001 -4.617465e-002 2.755399e-001 2.664730e-001 -5.798023e-002 -2.304974e-001 -1.177988e-001 1.981807e-001 1.234462e-001 1.270119e-001 1.226791e-001 
<VARIANCE> 36
4.713609e+000 3.293680e+000 3.579771e+000 2.573294e+001 4.365151e+000 1.515954e+001 1.969431e+001 1.934755e+001 3.801668e+001 2.175153e+001 1.150050e+001 1.241014e+001 1.486316e-001 4.232498e-001 3.118130e-001 7.692513e-001 7.621116e-001 1.019141e+000 1.328367e+000 1.104173e+000 1.792303e+000 1.088149e+000 7.596869e-001 4.832284e-001 5.000000e-002 6.212476e-002 5.910316e-002 8.100620e-002 1.510753e-001 1.817235e-001 1.263674e-001 2.437172e-001 3.148459e-001 2.073228e-001 1.363235e-001 8.463177e-002 
<GCONST> 6.546243e+001
<STATE> 15
<MEAN> 36
2.870460e+000 1.186996e+000 -1.313379e+001 -1.952113e+001 2.723552e+000 4.141778e+000 -9.120874e+000 -6.612648e+000 -1.177059e+001 4.339854e-002 1.991996e+000 -4.261706e+000 -1.521534e-002 1.588378e-002 8.687963e-002 1.613411e-001 -9.025727e-002 -4.943134e-001 -6.984591e-001 -4.535489e-001 2.753538e-001 3.485317e-001 2.292200e-001 3.086567e-001 -2.994862e-002 -1.291385e-002 2.490064e-002 9.412973e-002 8.728872e-003 -7.178097e-002 5.221121e-002 8.741022e-002 4.633298e-002 2.772170e-002 -2.016349e-002 5.817859e-003 
<VARIANCE> 36
2.728744e+000 3.173212e+000 7.505665e+000 2.893456e+001 5.776549e+000 2.341567e+001 2.083678e+001 1.552869e+001 2.711302e+001 2.375539e+001 9.251806e+000 1.096843e+001 5.114722e-002 1.229628e-001 2.051641e-001 5.287408e-001 3.576134e-001 5.225740e-001 4.392767e-001 6.833940e-001 7.967510e-001 7.078182e-001 4.245662e-001 5.810813e-001 5.000000e-002 5.000000e-002 5.000000e-002 9.465734e-002 6.864228e-002 1.024859e-001 5.936169e-002 1.248584e-001 1.548003e-001 1.086315e-001 7.893013e-002 1.155735e-001 
<GCONST> 5.334538e+001
<STATE> 16
<MEAN> 36
4.420311e+000 -7.026122e-001 -1.548232e+001 -1.823198e+001 3.028893e+000 -4.211045e+000 -1.870983e+001 -6.630519e+000 -4.236037e+000 5.246996e+000 1.094446e+000 -5.110919e+000 -1.196786e-001 8.065302e-002 1.538826e-001 4.013883e-001 -1.213735e-001 -3.307393e-001 -4.874758e-001 -2.806208e-001 3.307384e-001 5.335989e-001 5.049312e-001 3.260103e-001 -2.779011e-002 3.226228e-002 5.365074e-002 6.381404e-002 -3.184150e-002 3.076837e-002 5.317109e-002 5.984283e-003 -5.075821e-002 -1.982479e-002 3.407031e-002 4.127502e-002 
<VARIANCE> 36
2.909853e+000 2.116274e+000 6.561944e+000 2.972874e+001 4.427701e+000 7.074850e+000 2.193915e+001 2.935498e+001 4.316872e+001 1.372222e+001 2.057655e+001 1.686677e+001 5.646934e-002 6.744938e-002 2.893137e-001 4.445954e-001 3.644347e-001 7.082734e-001 5.469483e-001 5.003408e-001 1.120498e+000 6.726130e-001 4.328361e-001 7.204895e-001 5.000000e-002 5.000000e-002 5.000000e-002 6.018202e-002 6.796369e-002 8.633955e-002 8.279572e-002 9.457857e-002 2.101678e-001 1.627262e-001 7.714200e-002 1.481031e-001 
<GCONST> 5.404799e+001
<STATE> 17
<MEAN> 36
8.999619e-001 2.570505e+000 -8.847129e+000 -1.253239e+001 -7.194029e-001 -4.121878e+000 -1.520054e+001 -9.064335e+000 -6.574399e+000 2.891389e+000 4.946382e+000 7.859574e-001 -3.127390e-001 2.736821e-001 7.004853e-001 4.724142e-001 -5.630599e-001 -7.458911e-001 -2.063215e-001 8.489079e-002 4.157260e-001 -1.206308e-001 9.927505e-002 5.399714e-001 -2.991647e-002 -2.474339e-002 6.894151e-002 -6.930988e-002 4.394461e-003 7.092988e-002 -1.169639e-001 -5.674398e-002 9.011623e-002 6.152690e-002 -1.526998e-002 -1.329474e-001 
<VARIANCE> 36
2.119167e+000 1.377081e+000 8.258694e+000 7.192528e+000 4.745438e+000 9.940516e+000 4.545358e+001 1.704034e+001 2.132267e+001 2.581562e+001 1.718832e+001 7.956455e+000 5.000000e-002 1.126140e-001 1.382496e-001 2.917426e-001 2.540674e-001 5.252823e-001 9.196225e-001 8.912457e-001 6.657792e-001 6.699142e-001 5.164819e-001 6.864370e-001 5.000000e-002 5.000000e-002 5.000000e-002 5.558369e-002 5.225694e-002 1.241186e-001 1.525134e-001 8.010096e-002 1.069646e-001 1.544131e-001 1.087730e-001 1.560009e-001 
<GCONST> 5.110663e+001
<STATE> 18
<MEAN> 36
9.306060e-001 5.602232e-001 -9.334376e+000 -9.123222e+000 2.392853e+000 -6.081319e+000 -2.256725e+001 -1.206598e+001 -2.373148e-001 8.988842e+000 8.273026e+000 -1.856906e+000 -3.691287e-001 -9.348032e-003 5.484442e-001 6.290066e-001 6.806478e-002 3.620526e-002 3.365788e-002 4.512851e-002 3.271219e-001 -3.027534e-003 6.979442e-002 -2.239046e-001 -3.716849e-002 2.749913e-002 -5.261560e-002 -3.945832e-002 -4.893077e-002 1.437697e-001 2.362158e-001 1.796580e-001 -4.755692e-002 -1.036155e-001 -1.104036e-001 2.827471e-002 
<VARIANCE> 36
1.721354e+000 4.344347e+000 9.232276e+000 8.661854e+000 8.659051e+000 5.641938e+000 2.451253e+001 1.853510e+001 2.737315e+001 1.447618e+001 1.157400e+001 1.416087e+001 5.000000e-002 2.296701e-001 1.834769e-001 8.653568e-001 4.496001e-001 4.449995e-001 1.073743e+000 9.134336e-001 6.856791e-001 1.135473e+000 1.013526e+000 1.001333e+000 5.000000e-002 5.000000e-002 5.000000e-002 1.470835e-001 6.810029e-002 6.855479e-002 9.473202e-002 1.948644e-001 1.515793e-001 2.137082e-001 1.858406e-001 1.838449e-001 
<GCONST> 5.840573e+001
<STATE> 19
<MEAN> 36
-1.960066e+000 4.817274e+000 -2.253572e+000 -9.546126e+000 -5.107516e+000 -8.062697e+000 -1.637193e+001 -7.885856e+000 -4.208401e+000 3.753729e+000 6.618096e+000 1.509541e+000 -4.024394e-001 1.135652e-001 4.288108e-001 6.283541e-001 -2.002859e-001 6.217454e-002 1.721720e-001 1.553366e-001 2.453349e-001 2.300856e-001 4.607510e-003 -9.364218e-002 -3.809276e-002 -8.907107e-002 -7.217303e-002 1.311266e-001 2.120848e-001 1.927315e-001 1.281826e-001 1.396169e-002 3.570747e-002 -2.275475e-002 -9.764902e-002 -5.113690e-002 
<VARIANCE> 36
1.600561e+000 4.651217e+000 8.381371e+000 9.745926e+000 1.237857e+001 5.743504e+000 2.590423e+001 2.308770e+001 1.616090e+001 1.748018e+001 1.611801e+001 1.318113e+001 5.016778e-002 1.378764e-001 1.513805e-001 1.324942e-001 5.853243e-001 1.011282e+000 7.367893e-001 7.966421e-001 6.973281e-001 8.544037e-001 6.276259e-001 5.564720e-001 5.000000e-002 5.000000e-002 5.000000e-002 5.907655e-002 1.086362e-001 1.035342e-001 1.869701e-001 1.192589e-001 1.368101e-001 1.380121e-001 9.111441e-002 1.192505e-001 
<GCONST> 5.412539e+001
<STATE> 20
<MEAN> 36
-3.363349e+000 3.192351e+000 -3.626389e+000 -5.113342e+000 -8.033544e-001 -5.003819e+000 -1.729222e+001 -1.077857e+001 -2.800780e+000 5.537420e+000 6.522180e+000 3.338074e-001 -6.409984e-001 -3.517511e-001 1.807502e-001 1.076622e+000 6.314245e-001 5.269435e-001 8.448621e-001 6.043976e-001 8.907494e-001 1.580999e-001 -1.656863e-001 1.385176e-001 1.002108e-002 -6.757612e-002 -4.285223e-002 -2.800753e-002 -7.219386e-002 -2.199026e-001 1.055666e-001 9.244991e-002 1.957672e-001 2.465955e-001 2.527518e-001 -3.158237e-002 
<VARIANCE> 36
2.316398e+000 6.772861e+000 1.145447e+001 1.020984e+001 2.139845e+001 9.340365e+000 1.897054e+001 2.091874e+001 2.404071e+001 1.441392e+001 1.021593e+001 1.685557e+001 7.542092e-002 1.420049e-001 1.596917e-001 6.258212e-001 1.005801e+000 1.003989e+000 1.309152e+000 5.533220e-001 1.182353e+000 1.021378e+000 1.663053e+000 9.782013e-001 5.000000e-002 5.000000e-002 5.000000e-002 9.972588e-002 1.651412e-001 1.441901e-001 2.392357e-001 1.074538e-001 1.617384e-001 1.901228e-001 1.263372e-001 2.050927e-001 
<GCONST> 6.365276e+001
<STATE> 21
<MEAN> 36
-5.802328e+000 -6.737789e-001 -6.365809e+000 -3.071395e+000 1.529233e+000 -3.469510e+000 -1.210886e+001 -4.013593e+000 4.956100e+000 1.038377e+001 6.204647e+000 -2.647883e+000 -4.889975e-001 -3.069514e-002 2.171300e-001 1.523582e-001 -4.204867e-001 6.920401e-002 1.091821e+000 6.712394e-001 1.945891e-001 9.476209e-002 4.690084e-002 1.934015e-001 4.777369e-002 6.383703e-002 2.573610e-002 -1.180191e-001 -8.254921e-002 3.367497e-002 -6.946412e-002 -9.762233e-002 -9.862911e-002 -1.288543e-001 -7.828518e-002 8.437520e-002 
<VARIANCE> 36
3.224045e+000 3.343742e+000 7.791706e+000 3.272776e+000 1.069071e+001 1.068395e+001 2.061537e+001 2.056489e+001 3.358215e+001 2.393100e+001 2.621453e+001 3.007548e+001 5.717695e-002 2.115717e-001 2.978807e-001 3.777818e-001 6.776546e-001 7.515003e-001 9.726032e-001 1.147210e+000 1.300776e+000 1.759755e+000 1.227967e+000 1.032736e+000 5.000000e-002 5.000000e-002 5.000000e-002 9.650740e-002 1.685643e-001 1.789670e-001 1.743965e-001 2.567835e-001 2.675965e-001 2.290825e-001 2.596280e-001 2.045245e-001 
<GCONST> 6.616832e+001
<STATE> 22
<MEAN> 36
-7.400812e+000 2.054459e+000 -1.888617e+000 -3.312497e+000 -2.921255e+000 -3.758089e+000 -8.749938e+000 -3.315902e+000 2.685040e+000 6.449364e+000 6.518698e+000 2.058728e+000 -4.064750e-001 -1.006890e-001 2.310361e-001 2.471234e-001 -1.184218e-001 1.739573e-001 5.825109e-001 3.170066e-001 1.055357e-001 -4.203017e-001 -2.532380e-001 2.749300e-001 -3.010246e-002 -3.763659e-002 -3.896183e-002 7.093089e-002 1.229016e-001 5.854868e-002 9.038549e-002 -3.774159e-002 -3.019865e-001 -1.826537e-001 -9.814140e-002 -3.115396e-003 
<VARIANCE> 36
1.635893e+000 2.968940e+000 4.794333e+000 3.286782e+000 2.974637e+000 6.663333e+000 1.230975e+001 1.657606e+001 1.501519e+001 1.002409e+001 1.381615e+001 1.290397e+001 1.077192e-001 1.922647e-001 2.465051e-001 4.976771e-001 4.472387e-001 9.464472e-001 7.450428e-001 9.736689e-001 1.182910e+000 7.635987e-001 1.134898e+000 5.023350e-001 5.000000e-002 5.000000e-002 5.000000e-002 6.913757e-002 1.002364e-001 2.143314e-001 1.488826e-001 1.422116e-001 1.004223e-001 1.855514e-001 1.538919e-001 5.387131e-002 
<GCONST> 5.305434e+001
<STATE> 23
<MEAN> 36
-1.041589e+001 8.651293e-001 -9.524961e-001 -1.735120e-002 -1.085981e+000 -4.452255e-001 -2.140975e+000 -4.463238e-001 4.983094e-001 3.076906e+000 3.628975e+000 2.516868e+000 -2.558698e-001 -5.197228e-002 7.668903e-002 2.002781e-001 1.779879e-001 2.920026e-001 5.083787e-001 2.412244e-001 -6.964520e-002 -2.149912e-001 -2.711821e-001 -6.646484e-002 2.673314e-002 1.069041e-003 -6.593427e-003 -9.209908e-003 1.628458e-002 -3.847683e-002 -7.794123e-002 -3.425743e-002 7.440712e-002 8.382541e-002 7.300549e-002 -3.968273e-002 
<VARIANCE> 36
2.190184e+000 2.282987e+000 4.805322e+000 6.365981e+000 5.912043e+000 8.072408e+000 1.114188e+001 1.080830e+001 8.832506e+000 9.964389e+000 1.049273e+001 1.282781e+001 1.358107e-001 2.048250e-001 5.324547e-001 4.902399e-001 5.173231e-001 1.026799e+000 7.753399e-001 1.095939e+000 7.036057e-001 1.127124e+000 1.107360e+000 1.473860e+000 5.000000e-002 5.000000e-002 1.179757e-001 1.231084e-001 1.132390e-001 1.919877e-001 1.427170e-001 2.049574e-001 1.306320e-001 2.237039e-001 1.975773e-001 3.110627e-001 
<GCONST> 5.986123e+001
<TRANSP> 25
0.000000e+000 1.000000e+000 0.000000e+000 0.000000e+000 0.000000e+000 0.000000e+000 0.000000e+000 0.000000e+000 0.000000e+000 0.000000e+000 0.000000e+000 0.000000e+000 0.000000e+000 0.000000e+000 0.000000e+000 0.000000e+000 0.000000e+000 0.000000e+000 0.000000e+000 0.000000e+000 0.000000e+000 0.000000e+000 0.000000e+000 0.000000e+000 0.000000e+000 
0.000000e+000 2.731831e-001 7.268169e-001 0.000000e+000 0.000000e+000 0.000000e+000 0.000000e+000 0.000000e+000 0.000000e+000 0.000000e+000 0.000000e+000 0.000000e+000 0.000000e+000 0.000000e+000 0.000000e+000 0.000000e+000 0.000000e+000 0.000000e+000 0.000000e+000 0.000000e+000 0.000000e+000 0.000000e+000 0.000000e+000 0.000000e+000 0.000000e+000 
0.000000e+000 0.000000e+000 8.477551e-001 1.522450e-001 0.000000e+000 0.000000e+000 0.000000e+000 0.000000e+000 0.000000e+000 0.000000e+000 0.000000e+000 0.000000e+000 0.000000e+000 0.000000e+000 0.000000e+000 0.000000e+000 0.000000e+000 0.000000e+000 0.000000e+000 0.000000e+000 0.000000e+000 0.000000e+000 0.000000e+000 0.000000e+000 0.000000e+000 
0.000000e+000 0.000000e+000 0.000000e+000 7.915669e-001 2.084330e-001 0.000000e+000 0.000000e+000 0.000000e+000 0.000000e+000 0.000000e+000 0.000000e+000 0.000000e+000 0.000000e+000 0.000000e+000 0.000000e+000 0.000000e+000 0.000000e+000 0.000000e+000 0.000000e+000 0.000000e+000 0.000000e+000 0.000000e+000 0.000000e+000 0.000000e+000 0.000000e+000 
0.000000e+000 0.000000e+000 0.000000e+000 0.000000e+000 6.011988e-001 3.988012e-001 0.000000e+000 0.000000e+000 0.000000e+000 0.000000e+000 0.000000e+000 0.000000e+000 0.000000e+000 0.000000e+000 0.000000e+000 0.000000e+000 0.000000e+000 0.000000e+000 0.000000e+000 0.000000e+000 0.000000e+000 0.000000e+000 0.000000e+000 0.000000e+000 0.000000e+000 
0.000000e+000 0.000000e+000 0.000000e+000 0.000000e+000 0.000000e+000 5.573974e-001 4.426026e-001 0.000000e+000 0.000000e+000 0.000000e+000 0.000000e+000 0.000000e+000 0.000000e+000 0.000000e+000 0.000000e+000 0.000000e+000 0.000000e+000 0.000000e+000 0.000000e+000 0.000000e+000 0.000000e+000 0.000000e+000 0.000000e+000 0.000000e+000 0.000000e+000 
0.000000e+000 0.000000e+000 0.000000e+000 0.000000e+000 0.000000e+000 0.000000e+000 8.160318e-001 1.839681e-001 0.000000e+000 0.000000e+000 0.000000e+000 0.000000e+000 0.000000e+000 0.000000e+000 0.000000e+000 0.000000e+000 0.000000e+000 0.000000e+000 0.000000e+000 0.000000e+000 0.000000e+000 0.000000e+000 0.000000e+000 0.000000e+000 0.000000e+000 
0.000000e+000 0.000000e+000 0.000000e+000 0.000000e+000 0.000000e+000 0.000000e+000 0.000000e+000 9.260730e-001 7.392700e-002 0.000000e+000 0.000000e+000 0.000000e+000 0.000000e+000 0.000000e+000 0.000000e+000 0.000000e+000 0.000000e+000 0.000000e+000 0.000000e+000 0.000000e+000 0.000000e+000 0.000000e+000 0.000000e+000 0.000000e+000 0.000000e+000 
0.000000e+000 0.000000e+000 0.000000e+000 0.000000e+000 0.000000e+000 0.000000e+000 0.000000e+000 0.000000e+000 9.262589e-001 7.374093e-002 0.000000e+000 0.000000e+000 0.000000e+000 0.000000e+000 0.000000e+000 0.000000e+000 0.000000e+000 0.000000e+000 0.000000e+000 0.000000e+000 0.000000e+000 0.000000e+000 0.000000e+000 0.000000e+000 0.000000e+000 
0.000000e+000 0.000000e+000 0.000000e+000 0.000000e+000 0.000000e+000 0.000000e+000 0.000000e+000 0.000000e+000 0.000000e+000 6.481572e-001 3.518429e-001 0.000000e+000 0.000000e+000 0.000000e+000 0.000000e+000 0.000000e+000 0.000000e+000 0.000000e+000 0.000000e+000 0.000000e+000 0.000000e+000 0.000000e+000 0.000000e+000 0.000000e+000 0.000000e+000 
0.000000e+000 0.000000e+000 0.000000e+000 0.000000e+000 0.000000e+000 0.000000e+000 0.000000e+000 0.000000e+000 0.000000e+000 0.000000e+000 4.666420e-001 5.333580e-001 0.000000e+000 0.000000e+000 0.000000e+000 0.000000e+000 0.000000e+000 0.000000e+000 0.000000e+000 0.000000e+000 0.000000e+000 0.000000e+000 0.000000e+000 0.000000e+000 0.000000e+000 
0.000000e+000 0.000000e+000 0.000000e+000 0.000000e+000 0.000000e+000 0.000000e+000 0.000000e+000 0.000000e+000 0.000000e+000 0.000000e+000 0.000000e+000 4.285529e-001 5.714471e-001 0.000000e+000 0.000000e+000 0.000000e+000 0.000000e+000 0.000000e+000 0.000000e+000 0.000000e+000 0.000000e+000 0.000000e+000 0.000000e+000 0.000000e+000 0.000000e+000 
0.000000e+000 0.000000e+000 0.000000e+000 0.000000e+000 0.000000e+000 0.000000e+000 0.000000e+000 0.000000e+000 0.000000e+000 0.000000e+000 0.000000e+000 0.000000e+000 5.816038e-001 4.183961e-001 0.000000e+000 0.000000e+000 0.000000e+000 0.000000e+000 0.000000e+000 0.000000e+000 0.000000e+000 0.000000e+000 0.000000e+000 0.000000e+000 0.000000e+000 
0.000000e+000 0.000000e+000 0.000000e+000 0.000000e+000 0.000000e+000 0.000000e+000 0.000000e+000 0.000000e+000 0.000000e+000 0.000000e+000 0.000000e+000 0.000000e+000 0.000000e+000 8.363216e-001 1.636784e-001 0.000000e+000 0.000000e+000 0.000000e+000 0.000000e+000 0.000000e+000 0.000000e+000 0.000000e+000 0.000000e+000 0.000000e+000 0.000000e+000 
0.000000e+000 0.000000e+000 0.000000e+000 0.000000e+000 0.000000e+000 0.000000e+000 0.000000e+000 0.000000e+000 0.000000e+000 0.000000e+000 0.000000e+000 0.000000e+000 0.000000e+000 0.000000e+000 8.260300e-001 1.739700e-001 0.000000e+000 0.000000e+000 0.000000e+000 0.000000e+000 0.000000e+000 0.000000e+000 0.000000e+000 0.000000e+000 0.000000e+000 
0.000000e+000 0.000000e+000 0.000000e+000 0.000000e+000 0.000000e+000 0.000000e+000 0.000000e+000 0.000000e+000 0.000000e+000 0.000000e+000 0.000000e+000 0.000000e+000 0.000000e+000 0.000000e+000 0.000000e+000 9.113195e-001 8.868046e-002 0.000000e+000 0.000000e+000 0.000000e+000 0.000000e+000 0.000000e+000 0.000000e+000 0.000000e+000 0.000000e+000 
0.000000e+000 0.000000e+000 0.000000e+000 0.000000e+000 0.000000e+000 0.000000e+000 0.000000e+000 0.000000e+000 0.000000e+000 0.000000e+000 0.000000e+000 0.000000e+000 0.000000e+000 0.000000e+000 0.000000e+000 0.000000e+000 8.817328e-001 1.182671e-001 0.000000e+000 0.000000e+000 0.000000e+000 0.000000e+000 0.000000e+000 0.000000e+000 0.000000e+000 
0.000000e+000 0.000000e+000 0.000000e+000 0.000000e+000 0.000000e+000 0.000000e+000 0.000000e+000 0.000000e+000 0.000000e+000 0.000000e+000 0.000000e+000 0.000000e+000 0.000000e+000 0.000000e+000 0.000000e+000 0.000000e+000 0.000000e+000 7.713000e-001 2.287000e-001 0.000000e+000 0.000000e+000 0.000000e+000 0.000000e+000 0.000000e+000 0.000000e+000 
0.000000e+000 0.000000e+000 0.000000e+000 0.000000e+000 0.000000e+000 0.000000e+000 0.000000e+000 0.000000e+000 0.000000e+000 0.000000e+000 0.000000e+000 0.000000e+000 0.000000e+000 0.000000e+000 0.000000e+000 0.000000e+000 0.000000e+000 0.000000e+000 7.510817e-001 2.489183e-001 0.000000e+000 0.000000e+000 0.000000e+000 0.000000e+000 0.000000e+000 
0.000000e+000 0.000000e+000 0.000000e+000 0.000000e+000 0.000000e+000 0.000000e+000 0.000000e+000 0.000000e+000 0.000000e+000 0.000000e+000 0.000000e+000 0.000000e+000 0.000000e+000 0.000000e+000 0.000000e+000 0.000000e+000 0.000000e+000 0.000000e+000 0.000000e+000 7.260524e-001 2.739476e-001 0.000000e+000 0.000000e+000 0.000000e+000 0.000000e+000 
0.000000e+000 0.000000e+000 0.000000e+000 0.000000e+000 0.000000e+000 0.000000e+000 0.000000e+000 0.000000e+000 0.000000e+000 0.000000e+000 0.000000e+000 0.000000e+000 0.000000e+000 0.000000e+000 0.000000e+000 0.000000e+000 0.000000e+000 0.000000e+000 0.000000e+000 0.000000e+000 6.639892e-001 3.360108e-001 0.000000e+000 0.000000e+000 0.000000e+000 
0.000000e+000 0.000000e+000 0.000000e+000 0.000000e+000 0.000000e+000 0.000000e+000 0.000000e+000 0.000000e+000 0.000000e+000 0.000000e+000 0.000000e+000 0.000000e+000 0.000000e+000 0.000000e+000 0.000000e+000 0.000000e+000 0.000000e+000 0.000000e+000 0.000000e+000 0.000000e+000 0.000000e+000 8.144348e-001 1.855653e-001 0.000000e+000 0.000000e+000 
0.000000e+000 0.000000e+000 0.000000e+000 0.000000e+000 0.000000e+000 0.000000e+000 0.000000e+000 0.000000e+000 0.000000e+000 0.000000e+000 0.000000e+000 0.000000e+000 0.000000e+000 0.000000e+000 0.000000e+000 0.000000e+000 0.000000e+000 0.000000e+000 0.000000e+000 0.000000e+000 0.000000e+000 0.000000e+000 7.581352e-001 2.418648e-001 0.000000e+000 
0.000000e+000 0.000000e+000 0.000000e+000 0.000000e+000 0.000000e+000 0.000000e+000 0.000000e+000 0.000000e+000 0.000000e+000 0.000000e+000 0.000000e+000 0.000000e+000 0.000000e+000 0.000000e+000 0.000000e+000 0.000000e+000 0.000000e+000 0.000000e+000 0.000000e+000 0.000000e+000 0.000000e+000 0.000000e+000 0.000000e+000 8.803255e-001 1.196745e-001 
0.000000e+000 0.000000e+000 0.000000e+000 0.000000e+000 0.000000e+000 0.000000e+000 0.000000e+000 0.000000e+000 0.000000e+000 0.000000e+000 0.000000e+000 0.000000e+000 0.000000e+000 0.000000e+000 0.000000e+000 0.000000e+000 0.000000e+000 0.000000e+000 0.000000e+000 0.000000e+000 0.000000e+000 0.000000e+000 0.000000e+000 0.000000e+000 0.000000e+000 
