<HMMNAME> 1
<HMMSTATES> 25
<STATE> 1
<MEAN> 36
-8.098751e+000 -1.061484e+001 -7.139472e+000 7.638009e+000 2.856879e+001 8.546604e+000 -8.681890e+000 3.217584e+000 -6.732855e+000 -2.008178e-001 1.430998e+000 -1.204873e-001 3.144865e-001 -5.028302e-001 -3.343477e-001 -1.881710e-001 8.249207e-001 -1.330123e-001 -4.814384e-001 3.088549e-001 -6.499595e-001 -3.701115e-001 -6.898717e-002 3.837211e-002 1.677532e-003 6.425041e-002 2.381385e-002 -1.445824e-001 -1.531804e-001 1.307365e-003 8.666990e-002 1.018117e-001 -6.619915e-005 -5.790775e-002 -5.053068e-002 -1.287796e-001 
<VARIANCE> 36
6.819605e+000 8.717681e+000 1.284190e+001 2.032843e+001 3.280782e+001 2.888242e+001 1.192744e+001 3.503829e+001 4.289235e+001 2.224713e+001 2.784486e+001 1.128654e+001 1.552151e-001 2.152128e-001 5.376284e-001 7.863822e-001 2.112316e+000 1.369714e+000 8.148499e-001 8.866922e-001 1.497439e+000 6.911314e-001 7.723324e-001 8.330898e-001 5.000000e-002 5.000000e-002 5.000000e-002 1.149255e-001 1.854115e-001 1.791981e-001 2.114372e-001 1.726929e-001 3.191150e-001 1.719687e-001 1.314259e-001 1.716789e-001 
<GCONST> 7.282532e+001
<STATE> 2
<MEAN> 36
-4.502747e+000 -1.408463e+001 -9.003081e+000 2.023604e+000 3.283749e+001 1.373862e+001 -1.109744e+001 6.488451e+000 -9.452387e+000 -7.921766e+000 1.319828e+000 1.569366e+000 3.826951e-001 -2.083872e-001 -2.925365e-001 -7.264624e-001 1.006259e-001 -5.669881e-001 5.679632e-002 6.910255e-001 -9.724709e-001 -8.855116e-001 -1.799876e-001 -4.392095e-001 -2.782096e-002 3.772996e-002 7.761137e-003 -3.858914e-003 -1.489030e-001 -1.219369e-001 8.801080e-002 -8.581056e-002 -3.911572e-002 7.949674e-002 -6.796229e-002 -6.795754e-002 
<VARIANCE> 36
3.857765e+000 6.061759e+000 5.262407e+000 1.606014e+001 1.760658e+001 6.909088e+001 2.146827e+001 2.857473e+001 6.160621e+001 3.836859e+001 2.770796e+001 1.725526e+001 7.260083e-002 1.721718e-001 2.412879e-001 4.815983e-001 8.422935e-001 8.301805e-001 5.755412e-001 1.098695e+000 7.542937e-001 7.422850e-001 4.976718e-001 6.556588e-001 5.000000e-002 5.000000e-002 5.857001e-002 7.140216e-002 1.547777e-001 6.281159e-002 1.230370e-001 1.701713e-001 1.724313e-001 1.367248e-001 8.516491e-002 1.195707e-001 
<GCONST> 6.386022e+001
<STATE> 3
<MEAN> 36
-2.719262e+000 -1.266339e+001 -1.090712e+001 -4.057172e+000 2.692263e+001 5.604723e+000 -6.681410e+000 6.810194e+000 -1.989522e+001 -1.053079e+001 -2.527200e+000 -2.927131e+000 3.673867e-001 9.573545e-002 -1.782004e-001 -7.899396e-001 -6.202449e-001 -7.729852e-001 1.265299e-001 -1.965730e-001 -7.408700e-001 -4.333199e-001 -9.601966e-001 -5.365862e-001 1.574162e-002 4.612449e-002 5.549199e-002 1.008898e-001 1.358666e-002 -3.578591e-002 -4.418416e-002 5.945750e-002 8.661974e-002 6.112205e-003 -5.315483e-003 2.621384e-002 
<VARIANCE> 36
2.343716e+000 1.377289e+001 9.096365e+000 1.787980e+001 1.897629e+001 2.024417e+001 2.602681e+001 1.933072e+001 2.311923e+001 1.843376e+001 3.586587e+001 1.483854e+001 7.529589e-002 1.115287e-001 2.600025e-001 4.374973e-001 7.760170e-001 8.336786e-001 5.515034e-001 8.621984e-001 1.417367e+000 1.058676e+000 6.423351e-001 7.805350e-001 5.000000e-002 5.000000e-002 5.000000e-002 5.833099e-002 1.394844e-001 8.991781e-002 9.343344e-002 1.692454e-001 2.135572e-001 1.737112e-001 1.574143e-001 1.101212e-001 
<GCONST> 6.311265e+001
<STATE> 4
<MEAN> 36
7.016573e-001 -1.231650e+001 -1.411154e+001 -7.358173e+000 2.496872e+001 -2.462752e+000 -7.578492e+000 9.621853e+000 -2.254130e+001 -1.270489e+001 -8.236786e+000 -5.617420e+000 2.922860e-001 1.342701e-001 -1.085681e-001 -5.786867e-001 -6.153675e-001 -9.136890e-001 -2.833821e-002 9.780584e-002 -4.307044e-001 7.108574e-002 -3.371515e-001 -3.103504e-001 -4.337374e-002 -3.044189e-002 2.886338e-002 -5.881414e-002 -2.939451e-002 1.372168e-001 8.528494e-003 -1.028430e-001 1.279672e-001 1.500844e-001 1.055612e-001 1.343650e-001 
<VARIANCE> 36
3.327906e+000 6.403088e+000 4.804613e+000 1.659495e+001 2.132588e+001 1.677918e+001 3.455306e+001 1.893577e+001 1.151890e+001 9.169359e+000 5.709454e+000 9.354171e+000 5.585708e-002 1.956983e-001 2.199562e-001 1.617974e-001 2.459347e-001 5.088058e-001 5.138707e-001 5.725896e-001 9.348763e-001 5.793797e-001 8.658175e-001 7.558279e-001 5.000000e-002 5.000000e-002 5.000000e-002 5.000000e-002 5.000000e-002 8.069128e-002 5.322069e-002 1.056472e-001 1.226310e-001 1.183481e-001 1.212884e-001 1.534408e-001 
<GCONST> 5.151852e+001
<STATE> 5
<MEAN> 36
-5.240942e-001 -1.157715e+001 -1.096322e+001 -9.162050e+000 2.133580e+001 -6.319314e+000 -6.023362e+000 9.773724e+000 -2.680348e+001 -7.572481e+000 -6.323984e+000 -8.505140e+000 -1.131789e-002 1.864330e-001 2.214815e-001 -2.257288e-001 -4.287804e-001 4.380399e-002 1.024145e-001 -3.221580e-002 1.511503e-001 2.971583e-001 -1.763782e-002 -1.083322e-001 -7.684975e-003 4.781850e-002 2.376426e-002 6.081086e-002 2.027483e-002 1.540908e-001 -8.311137e-003 -5.119679e-002 1.371837e-001 -3.112366e-002 -3.314972e-002 -2.442862e-002 
<VARIANCE> 36
3.091134e+000 2.711681e+000 8.314320e+000 2.236141e+001 3.377602e+001 1.443755e+001 2.548071e+001 1.222782e+001 2.065349e+001 1.906476e+001 1.124171e+001 1.054278e+001 5.000000e-002 2.243793e-001 1.991250e-001 4.200918e-001 4.529458e-001 8.594095e-001 7.571924e-001 1.010886e+000 1.117853e+000 7.151704e-001 4.216168e-001 4.710037e-001 5.000000e-002 5.000000e-002 5.000000e-002 6.409341e-002 8.390448e-002 1.196665e-001 1.290223e-001 1.416712e-001 1.462813e-001 1.199600e-001 7.683701e-002 8.313315e-002 
<GCONST> 5.674064e+001
<STATE> 6
<MEAN> 36
3.730740e-001 -8.719779e+000 -1.263785e+001 -1.081521e+001 1.624855e+001 6.618879e-001 -3.468316e+000 5.063875e+000 -1.736619e+001 -9.425812e+000 -1.124553e+001 -5.434517e+000 -6.765252e-002 2.682729e-001 2.722500e-001 -1.988126e-001 -3.352278e-001 2.130236e-001 2.141271e-001 7.105932e-002 4.388167e-001 2.685225e-001 -1.934873e-001 -3.445026e-001 -6.161001e-002 3.792633e-002 6.501980e-002 8.453535e-002 7.656180e-002 2.069378e-002 9.850081e-002 1.093842e-001 -1.086238e-001 2.470864e-002 9.607145e-002 -7.652852e-002 
<VARIANCE> 36
4.197055e+000 4.578587e+000 1.101323e+001 2.767941e+001 1.293091e+001 2.655100e+001 1.748408e+001 2.605660e+001 1.444006e+001 2.093828e+001 2.176373e+001 1.890020e+001 5.000000e-002 1.724804e-001 3.205064e-001 3.971880e-001 3.920170e-001 8.301741e-001 4.435426e-001 6.692827e-001 9.629466e-001 5.467842e-001 9.870177e-001 3.481436e-001 5.000000e-002 5.000000e-002 5.239894e-002 5.795949e-002 5.000000e-002 1.214591e-001 8.245617e-002 1.126596e-001 1.906808e-001 1.015469e-001 2.007885e-001 6.691580e-002 
<GCONST> 5.784389e+001
<STATE> 7
<MEAN> 36
-6.153410e-001 -7.861903e+000 -8.922350e+000 -1.034655e+001 1.751097e+001 -3.663663e-001 -4.239713e+000 9.738495e+000 -1.800099e+001 -6.226841e+000 -9.054349e+000 -1.059235e+001 -6.437482e-001 6.133214e-001 3.493207e-001 4.666628e-001 -3.301213e-001 1.007630e+000 1.042991e+000 4.088638e-002 1.188219e+000 9.738272e-001 2.643808e-001 1.928505e-001 -2.077388e-001 1.012603e-002 -4.442824e-002 1.036534e-001 -2.133244e-001 5.440660e-002 1.141408e-001 -1.046091e-001 2.992349e-001 1.227611e-001 1.340227e-001 3.881800e-001 
<VARIANCE> 36
3.146270e+000 4.672579e+000 6.743961e+000 1.587080e+001 2.212680e+001 1.681395e+001 4.696992e+001 1.348511e+001 4.346164e+001 3.806517e+001 1.511391e+001 2.261249e+001 1.625233e-001 1.372653e-001 2.058039e-001 2.613690e-001 6.030450e-001 4.199900e-001 4.657069e-001 6.835281e-001 1.201937e+000 5.713633e-001 4.861475e-001 1.569916e+000 5.000000e-002 5.000000e-002 5.000000e-002 6.888639e-002 9.142905e-002 8.385610e-002 7.753073e-002 1.144768e-001 2.027481e-001 1.308670e-001 1.540046e-001 2.299425e-001 
<GCONST> 6.102273e+001
<STATE> 8
<MEAN> 36
-5.593578e+000 -4.745501e+000 -6.872959e+000 -6.413801e+000 1.283089e+001 4.452425e+000 1.307745e+000 7.525354e+000 -1.126059e+001 -3.120422e+000 -6.663516e+000 -6.034362e+000 -9.780268e-001 4.781239e-001 5.298349e-001 1.179344e+000 -1.220448e+000 2.093561e-001 4.218542e-001 -3.557886e-001 1.478571e+000 2.116472e-001 7.033255e-001 7.965500e-001 8.640412e-002 -1.747297e-002 4.845315e-002 2.603164e-002 -7.319898e-003 -2.007776e-001 -1.863324e-001 6.755769e-003 -2.464974e-002 -1.192397e-001 -3.547819e-003 -3.247187e-002 
<VARIANCE> 36
4.010237e+000 3.940921e+000 6.525708e+000 2.563976e+001 2.158586e+001 2.533018e+001 1.764878e+001 1.524987e+001 2.721430e+001 2.448887e+001 1.552476e+001 1.083602e+001 1.789589e-001 3.326418e-001 3.599805e-001 8.806409e-001 8.311684e-001 1.449940e+000 1.071961e+000 1.414176e+000 9.836985e-001 1.514455e+000 1.599309e+000 1.149564e+000 5.000000e-002 5.544562e-002 6.915576e-002 1.776574e-001 1.695372e-001 2.167792e-001 1.418319e-001 2.436012e-001 1.244645e-001 3.001352e-001 2.298181e-001 2.220204e-001 
<GCONST> 7.199141e+001
<STATE> 9
<MEAN> 36
-9.530750e+000 -2.268720e+000 -3.371161e+000 -1.388383e+000 6.960742e+000 3.596504e+000 1.649363e+000 5.820018e+000 -3.958537e+000 -1.342448e+000 -3.105976e+000 -2.200684e+000 -1.949473e-001 1.822724e-001 3.656974e-001 7.036763e-002 -5.473223e-001 -3.177159e-002 7.863224e-003 -1.033234e-001 4.121819e-001 1.348536e-001 2.170551e-001 1.593240e-001 7.458392e-002 -7.920897e-002 -4.378652e-002 -1.670848e-001 6.748153e-002 2.827891e-002 -2.170714e-002 3.171149e-002 -1.587072e-001 -3.499105e-003 -6.862006e-002 -8.341533e-002 
<VARIANCE> 36
1.832496e+000 2.293619e+000 5.008025e+000 4.701451e+000 1.243082e+001 8.303978e+000 1.164723e+001 1.156093e+001 1.218205e+001 1.078618e+001 1.305737e+001 1.149731e+001 1.313490e-001 1.996593e-001 4.130005e-001 5.189996e-001 5.982368e-001 6.307032e-001 7.847631e-001 9.230925e-001 1.144592e+000 1.333476e+000 1.382868e+000 1.352955e+000 5.000000e-002 5.000000e-002 1.004909e-001 8.562670e-002 1.295901e-001 1.285758e-001 1.504967e-001 1.984872e-001 1.805892e-001 2.855345e-001 2.717620e-001 2.831227e-001 
<GCONST> 6.087660e+001
<STATE> 10
<MEAN> 36
-9.869271e+000 -3.562432e+000 -1.224759e+000 -5.727517e+000 3.211653e+000 3.762977e+000 2.336974e-001 5.367447e+000 -3.572809e+000 -3.337563e-001 -1.304277e+000 -1.594472e+000 2.107849e-001 -1.201220e+000 1.739299e-001 -1.930778e+000 3.310640e-001 5.188054e-001 -1.109345e+000 4.601309e-002 -1.004957e-001 6.550763e-001 4.009030e-001 2.340654e-001 5.979777e-002 -4.429712e-002 -4.381026e-002 2.247854e-002 3.856244e-001 1.350404e-001 -1.237573e-001 2.798975e-002 -4.224276e-002 -9.270102e-002 -1.683603e-001 -1.276121e-001 
<VARIANCE> 36
1.536480e+000 1.289703e+001 4.846526e+000 2.723059e+001 6.584740e+000 1.493078e+001 1.614654e+001 7.246841e+000 1.642465e+001 1.501502e+001 1.186169e+001 7.930303e+000 1.760471e-001 8.648817e-001 5.431842e-001 1.550206e+000 4.835731e-001 1.403478e+000 2.067631e+000 6.474628e-001 8.256150e-001 1.175383e+000 1.111105e+000 1.416699e+000 5.000000e-002 3.297003e-001 1.177714e-001 7.085155e-001 5.773968e-002 2.258047e-001 4.583786e-001 1.102264e-001 3.209105e-001 4.198498e-001 3.668448e-001 4.690486e-001 
<GCONST> 7.403024e+001
<STATE> 11
<MEAN> 36
-8.862804e+000 -5.053813e+000 -1.034709e+000 -8.382944e+000 8.287251e+000 7.095780e+000 -1.435822e+000 6.877571e+000 -4.260281e+000 -9.554785e-001 -3.624225e+000 -3.795076e+000 8.609415e-001 4.452409e-001 -5.930846e-001 1.162171e-001 1.594078e+000 -1.407061e-001 2.454270e-001 1.038301e+000 -1.171002e+000 -1.089587e+000 -1.318960e+000 -1.040091e+000 3.274525e-001 5.585685e-002 -3.315884e-001 -3.884068e-002 9.902084e-002 -5.058530e-001 -1.022801e-001 1.495544e-001 -4.291524e-001 -2.846750e-001 -1.454547e-001 -7.444310e-002 
<VARIANCE> 36
3.278536e+000 1.139910e+001 1.527061e+001 1.027404e+001 1.218267e+001 1.949449e+001 2.774515e+001 1.996747e+001 1.471778e+001 1.048310e+001 1.815256e+001 1.213416e+001 7.035415e-001 7.791657e-001 7.566930e-001 1.524229e+000 9.798611e-001 2.478461e+000 1.931461e+000 1.150564e+000 2.322142e+000 1.508011e+000 9.815237e-001 1.761765e+000 7.740308e-002 3.524190e-001 1.053883e-001 5.437650e-001 1.797812e-001 3.211785e-001 7.439167e-001 3.478278e-001 2.594553e-001 3.694730e-001 3.414046e-001 4.033738e-001 
<GCONST> 8.509722e+001
<STATE> 12
<MEAN> 36
-2.154151e+000 -5.281308e+000 -6.640044e+000 -1.123495e+001 1.402004e+001 1.525769e+000 -4.522417e+000 1.004365e+001 -1.240344e+001 -5.756525e+000 -8.476871e+000 -7.584963e+000 1.156917e+000 -7.082118e-001 -1.097234e+000 -1.085358e+000 5.214040e-001 -1.236100e+000 -1.270695e+000 -1.217701e-001 -1.370796e+000 -8.285913e-001 -6.600735e-001 -4.575530e-001 -2.854796e-001 -6.485872e-002 1.412790e-001 4.048238e-002 -2.838961e-001 1.621024e-001 2.552446e-003 -2.725654e-001 3.931718e-001 1.400811e-001 2.487428e-001 2.368764e-001 
<VARIANCE> 36
4.417842e+000 7.110537e+000 1.361932e+001 1.392691e+001 1.968747e+001 2.618578e+001 2.001297e+001 1.481301e+001 3.977412e+001 2.288976e+001 2.597717e+001 1.753491e+001 5.206819e-001 3.937299e-001 7.228842e-001 1.046095e+000 1.424790e+000 1.094550e+000 1.285181e+000 1.973591e+000 1.634795e+000 9.654165e-001 2.475753e+000 1.377543e+000 5.000000e-002 9.208637e-002 9.840613e-002 2.036348e-001 2.694733e-001 2.294821e-001 1.726923e-001 4.058659e-001 2.760811e-001 2.123177e-001 3.092053e-001 2.146666e-001 
<GCONST> 8.064147e+001
<STATE> 13
<MEAN> 36
3.450156e-001 -9.346595e+000 -7.773496e+000 -1.727275e+001 1.041034e+001 8.264475e-001 -8.207904e+000 7.654146e+000 -1.545347e+001 -9.835923e+000 -7.993961e+000 -5.627846e+000 2.038635e-001 -2.010715e-001 -4.080091e-001 -4.880502e-001 9.081051e-003 -4.257902e-001 -7.523069e-001 -1.240914e-001 -2.023425e-002 -4.003039e-001 -1.362737e-001 1.993324e-001 -7.508742e-002 9.086626e-002 1.081650e-001 8.775404e-002 -3.096623e-002 -1.647585e-002 8.230795e-002 9.074656e-002 7.290492e-002 8.725559e-002 -1.192865e-003 -2.810953e-003 
<VARIANCE> 36
2.414101e+000 1.084533e+001 1.030954e+001 1.258028e+001 3.902198e+001 1.463226e+001 2.840886e+001 2.543284e+001 2.701679e+001 8.259640e+000 1.794750e+001 1.000021e+001 7.699268e-002 1.122349e-001 2.380384e-001 6.391356e-001 2.837368e-001 8.320623e-001 4.138653e-001 8.404313e-001 1.387572e+000 6.656268e-001 6.965414e-001 5.021107e-001 5.000000e-002 5.000000e-002 5.000000e-002 1.252534e-001 5.371818e-002 1.146778e-001 1.207424e-001 9.372758e-002 2.059396e-001 6.711749e-002 1.776876e-001 9.100744e-002 
<GCONST> 5.851626e+001
<STATE> 14
<MEAN> 36
2.168354e-001 -8.017344e+000 -1.176479e+001 -1.343181e+001 1.585717e+001 -7.860191e+000 -9.826354e+000 9.685987e+000 -1.433933e+001 -5.437042e+000 -1.155113e+001 -7.182354e+000 -3.592451e-002 8.398562e-003 -2.728240e-004 -1.130409e-001 -6.923923e-002 -1.720524e-001 -1.181407e-001 -7.456480e-002 6.711504e-002 2.567384e-001 9.994210e-002 1.541690e-001 -2.068166e-002 4.091442e-002 5.805102e-002 3.383818e-002 -7.904357e-002 6.553797e-002 1.113325e-001 -1.972807e-002 2.746807e-002 7.125068e-002 2.176936e-002 -1.170140e-002 
<VARIANCE> 36
1.421345e+000 7.935133e+000 4.957349e+000 1.248255e+001 1.275802e+001 1.399232e+001 1.073691e+001 1.842084e+001 1.998108e+001 2.335524e+001 2.011932e+001 1.389941e+001 5.000000e-002 1.548763e-001 2.508993e-001 3.991656e-001 5.159173e-001 5.771675e-001 6.019332e-001 1.092340e+000 1.374937e+000 9.063472e-001 6.484648e-001 8.962929e-001 5.000000e-002 5.000000e-002 6.018715e-002 1.020266e-001 1.053922e-001 8.236393e-002 1.417493e-001 2.040291e-001 2.544280e-001 2.107781e-001 1.295317e-001 1.517943e-001 
<GCONST> 5.961851e+001
<STATE> 15
<MEAN> 36
1.008327e+000 -9.326982e+000 -1.043890e+001 -2.047732e+001 1.467294e+001 -2.671380e+000 -1.519851e+001 9.273134e+000 -1.155828e+001 -8.793799e+000 -8.671496e+000 -5.228148e+000 -1.332395e-001 2.838505e-001 2.738253e-001 -1.651639e-001 -4.124871e-001 2.408378e-001 2.609808e-001 -4.931681e-003 3.209503e-001 3.627413e-001 -1.114315e-002 -1.388400e-001 -3.137665e-002 3.060878e-002 3.743824e-002 6.874443e-002 -8.063245e-002 6.411396e-002 8.191642e-002 2.545131e-002 2.596870e-002 3.893158e-002 3.755647e-002 -4.234968e-002 
<VARIANCE> 36
2.417091e+000 7.695310e+000 7.843489e+000 1.799915e+001 1.031855e+001 1.513619e+001 1.740229e+001 2.061719e+001 1.241445e+001 1.337771e+001 8.692305e+000 6.149891e+000 6.608582e-002 2.200664e-001 2.338213e-001 4.612300e-001 6.298324e-001 7.430446e-001 8.268686e-001 9.715529e-001 4.708070e-001 4.663149e-001 4.576195e-001 4.740690e-001 5.000000e-002 5.000000e-002 5.000000e-002 7.504010e-002 1.084901e-001 1.537453e-001 1.355887e-001 2.056683e-001 5.855752e-002 7.345479e-002 8.003629e-002 8.777733e-002 
<GCONST> 5.392440e+001
<STATE> 16
<MEAN> 36
-1.866142e+000 -4.830655e+000 -6.155696e+000 -1.594507e+001 7.571329e+000 -2.567811e-001 -6.770496e+000 6.381013e+000 -1.041435e+001 -3.589675e+000 -8.610389e+000 -8.503457e+000 -3.279418e-001 3.806236e-001 2.860142e-001 5.487862e-001 -4.406134e-001 2.534725e-001 6.829552e-001 1.215660e-001 7.105766e-001 2.156645e-001 2.700821e-001 1.641497e-002 -4.463634e-002 1.840404e-002 -1.404152e-003 1.556995e-001 -2.308178e-003 6.360435e-002 1.253207e-001 6.100359e-002 1.525952e-001 -7.802501e-002 -1.104606e-002 1.274552e-001 
<VARIANCE> 36
2.867772e+000 9.963709e+000 4.671308e+000 1.551352e+001 2.935796e+001 2.228082e+001 2.101052e+001 2.537593e+001 2.524252e+001 1.311634e+001 1.939179e+001 1.109774e+001 8.971523e-002 2.798285e-001 2.431408e-001 8.266706e-001 9.018508e-001 8.532275e-001 1.108547e+000 8.601257e-001 9.317261e-001 6.340075e-001 6.744846e-001 8.909849e-001 5.000000e-002 5.000000e-002 5.321498e-002 8.612570e-002 1.960466e-001 1.486998e-001 1.533477e-001 1.331007e-001 1.898897e-001 1.249912e-001 1.232934e-001 1.818388e-001 
<GCONST> 6.475844e+001
<STATE> 17
<MEAN> 36
-4.355799e+000 -2.190933e+000 -5.852728e+000 -5.453542e+000 5.417500e+000 2.767490e+000 1.769453e+000 9.990666e+000 -1.885831e+000 -5.787106e+000 -6.659396e+000 -4.083369e+000 -2.271376e-001 2.288651e-001 8.804544e-002 8.553291e-001 -3.439865e-001 4.163771e-001 7.195009e-001 8.181293e-002 6.433925e-001 -1.224846e-001 1.789078e-001 4.692077e-001 5.380987e-002 -2.836714e-002 -2.799910e-002 -1.430043e-001 4.153600e-002 2.966056e-003 -9.662110e-002 -5.466638e-002 -1.288707e-001 8.614583e-002 4.673602e-002 -9.347825e-002 
<VARIANCE> 36
2.537400e+000 3.294476e+000 3.909916e+000 1.732117e+001 6.473186e+000 1.328111e+001 1.528957e+001 1.995579e+001 1.260235e+001 1.636893e+001 1.278154e+001 1.146310e+001 2.535748e-001 2.984565e-001 4.071480e-001 1.216608e+000 1.075099e+000 1.170927e+000 1.343369e+000 1.146584e+000 1.139231e+000 1.110329e+000 9.587674e-001 8.539887e-001 5.000000e-002 6.327000e-002 7.694633e-002 1.407840e-001 1.650442e-001 2.236203e-001 1.980498e-001 2.355861e-001 2.147012e-001 1.932704e-001 1.950172e-001 1.407300e-001 
<GCONST> 6.698377e+001
<STATE> 18
<MEAN> 36
-5.895393e+000 7.675327e-001 -4.241115e+000 -6.585604e+000 1.137423e+000 5.365263e+000 7.372313e+000 1.272844e+001 2.376276e+000 -3.569337e+000 -5.106236e+000 -3.326763e+000 -1.206287e-001 1.864790e-001 1.407319e-001 3.525491e-001 -2.696592e-001 -1.979765e-002 4.328528e-001 -4.237354e-003 2.531240e-001 1.615273e-001 2.247475e-001 -3.481507e-002 -1.169272e-002 -2.563573e-002 3.438088e-002 5.296290e-002 1.304880e-001 -2.024359e-001 -2.860430e-001 -1.418990e-001 -7.260806e-002 -5.729675e-002 -8.769901e-002 -5.850320e-002 
<VARIANCE> 36
8.002527e-001 2.778816e+000 3.174202e+000 7.153318e+000 9.213208e+000 1.093564e+001 1.222987e+001 1.551575e+001 1.333298e+001 1.045712e+001 1.491528e+001 7.396227e+000 9.576664e-002 2.223385e-001 3.893518e-001 6.280378e-001 5.469398e-001 1.477535e+000 1.160565e+000 1.406124e+000 1.012797e+000 7.969543e-001 1.577070e+000 4.804582e-001 5.000000e-002 5.000000e-002 8.527971e-002 1.086524e-001 1.096638e-001 2.765820e-001 1.926981e-001 2.071097e-001 2.034137e-001 1.483878e-001 3.956489e-001 9.660204e-002 
<GCONST> 5.995744e+001
<STATE> 19
<MEAN> 36
-7.124603e+000 1.200325e-001 -3.466068e+000 -1.987500e+000 3.503043e+000 3.471897e+000 3.987899e+000 9.481829e+000 2.372193e+000 -1.764465e+000 -3.983325e+000 -2.895364e+000 -2.368066e-001 1.131824e-001 2.661996e-001 4.469149e-001 -7.703133e-002 3.851339e-002 -1.785864e-002 -2.695206e-001 2.502434e-001 1.344988e-001 1.862861e-001 9.400023e-002 -1.247161e-002 -1.344446e-002 5.164568e-002 9.842034e-003 1.842063e-002 -9.114582e-003 -6.127982e-002 -1.256132e-001 -1.203240e-001 -9.037818e-002 -1.174783e-002 8.373078e-002 
<VARIANCE> 36
1.127906e+000 2.178757e+000 2.109889e+000 5.582701e+000 5.221148e+000 6.306564e+000 8.657543e+000 1.009429e+001 1.034332e+001 1.301963e+001 1.492836e+001 7.747479e+000 5.495816e-002 1.286247e-001 3.194281e-001 4.796581e-001 5.276129e-001 4.365484e-001 6.473180e-001 1.047772e+000 8.419891e-001 9.162451e-001 9.425890e-001 8.359195e-001 5.000000e-002 5.000000e-002 6.554580e-002 1.049277e-001 9.236149e-002 1.063801e-001 1.087597e-001 2.147705e-001 1.952956e-001 1.964476e-001 1.456065e-001 1.957304e-001 
<GCONST> 5.179589e+001
<STATE> 20
<MEAN> 36
-8.114253e+000 5.714223e-001 -1.804931e+000 2.550196e-001 2.071631e+000 2.736410e+000 2.344478e+000 5.121859e+000 1.443347e+000 -2.594034e+000 -1.765865e+000 -1.062299e+000 -3.807049e-001 3.698298e-002 7.846319e-001 1.130274e+000 1.502089e-001 -3.444896e-001 -6.808784e-001 -1.324052e+000 -6.201796e-001 -5.100297e-001 -2.628266e-001 6.157165e-001 -4.990036e-003 -6.155766e-002 -1.020868e-001 -1.754158e-001 1.349498e-002 1.352337e-001 1.441872e-001 3.614062e-001 2.081628e-001 2.476235e-001 -1.654497e-001 -1.799628e-001 
<VARIANCE> 36
1.496770e+000 2.864740e+000 5.127975e+000 1.424333e+001 2.679051e+000 1.037256e+001 1.064716e+001 9.846979e+000 1.796168e+001 8.043894e+000 9.346792e+000 8.247599e+000 5.072565e-002 1.926122e-001 2.227417e-001 3.745483e-001 2.336480e-001 1.167849e+000 7.908823e-001 1.330872e+000 1.341034e+000 6.833250e-001 2.064577e+000 8.176361e-001 5.000000e-002 5.000000e-002 5.000000e-002 1.108630e-001 5.000000e-002 1.890585e-001 1.976940e-001 1.464179e-001 3.250003e-001 1.698593e-001 2.808428e-001 7.537842e-002 
<GCONST> 5.513975e+001
<STATE> 21
<MEAN> 36
-9.322440e+000 6.026101e-001 -6.828341e-001 2.250951e+000 3.568958e+000 5.008826e+000 4.935600e+000 5.518091e+000 2.348000e+000 -2.568359e+000 -2.803544e+000 -9.312386e-002 -2.334264e-001 -1.461755e-002 6.149167e-002 7.985511e-002 -3.503633e-003 1.707413e-001 -2.253062e-001 7.868510e-003 1.578847e-001 3.206228e-001 -3.545290e-002 -5.580573e-002 5.843769e-002 -1.926417e-002 -1.761699e-001 -2.694349e-001 -8.068550e-002 3.679705e-002 5.987970e-002 3.183165e-001 7.227676e-002 2.331649e-001 1.460141e-001 -2.028906e-001 
<VARIANCE> 36
1.758591e+000 2.270095e+000 5.507545e+000 7.701440e+000 5.265068e+000 8.656192e+000 4.596611e+000 8.944790e+000 1.046606e+001 1.484276e+001 2.149317e+001 6.796897e+000 7.337943e-002 9.617609e-002 2.200374e-001 3.018844e-001 5.862560e-001 7.245577e-001 7.512998e-001 5.678449e-001 1.623025e+000 9.102777e-001 1.049758e+000 7.122175e-001 5.000000e-002 5.000000e-002 8.784709e-002 1.293775e-001 1.999626e-001 2.031687e-001 1.504591e-001 1.173424e-001 2.509123e-001 1.020573e-001 3.143818e-001 7.601946e-002 
<GCONST> 5.447960e+001
<STATE> 22
<MEAN> 36
-8.829154e+000 6.630399e-001 -1.035433e+000 5.283168e-001 1.973789e+000 3.692683e+000 1.923386e+000 7.146379e+000 3.240221e+000 -2.180063e+000 -5.089846e+000 -1.400734e+000 -1.129412e-001 -9.231298e-002 -1.560522e-001 -3.354836e-001 -3.881951e-001 3.081550e-001 1.860205e-001 5.988035e-001 2.788313e-001 6.696770e-001 7.232351e-001 -2.322874e-001 1.211243e-002 -3.964095e-002 -1.461635e-001 -1.333416e-001 -5.905766e-002 -5.608523e-002 2.013423e-001 7.694801e-002 -1.522825e-002 2.718951e-002 4.576640e-001 -4.759461e-002 
<VARIANCE> 36
1.675266e+000 4.747260e+000 4.692614e+000 1.183951e+001 1.694575e+000 1.519394e+001 1.181188e+001 6.479627e+000 1.104034e+001 1.638180e+001 7.933736e+000 9.340678e+000 5.051985e-002 1.562480e-001 2.055127e-001 3.719720e-001 4.001129e-001 1.083809e+000 2.966446e-001 6.770750e-001 1.029850e+000 1.022993e+000 8.719791e-001 6.121902e-001 5.000000e-002 5.000000e-002 8.175289e-002 5.051057e-002 6.052207e-002 1.424011e-001 1.803591e-001 1.836401e-001 2.119363e-001 2.746712e-001 2.850078e-001 9.861141e-002 
<GCONST> 5.285672e+001
<STATE> 23
<MEAN> 36
-1.099761e+001 1.920822e-001 -1.262643e+000 1.019385e+000 1.493670e+000 3.327194e+000 3.075109e+000 5.129042e+000 2.842283e+000 8.180929e-001 -1.573072e-001 -1.444361e+000 -1.066525e-001 -2.982788e-002 -8.170330e-002 6.224734e-002 7.994568e-002 -5.533217e-002 5.676097e-002 -7.718754e-002 1.034669e-001 2.050128e-001 2.849769e-001 -7.932305e-002 1.973197e-002 -2.539348e-002 -1.809924e-002 4.918466e-002 3.156693e-002 1.156546e-002 -2.461188e-002 -5.966758e-002 -4.154459e-002 -5.835141e-002 -4.616122e-002 4.222879e-002 
<VARIANCE> 36
2.381216e+000 2.730969e+000 4.107977e+000 7.373534e+000 8.080317e+000 7.712009e+000 9.612786e+000 1.086228e+001 9.644062e+000 1.360920e+001 1.408672e+001 1.051337e+001 1.112863e-001 3.171373e-001 3.588743e-001 5.017036e-001 6.828449e-001 9.634651e-001 1.265727e+000 9.766811e-001 1.257692e+000 1.216893e+000 1.404692e+000 1.092806e+000 5.000000e-002 6.279950e-002 5.696280e-002 7.523533e-002 1.110148e-001 1.924025e-001 2.820395e-001 2.184837e-001 2.646213e-001 2.568507e-001 2.933652e-001 2.421856e-001 
<GCONST> 6.250902e+001
<TRANSP> 25
0.000000e+000 1.000000e+000 0.000000e+000 0.000000e+000 0.000000e+000 0.000000e+000 0.000000e+000 0.000000e+000 0.000000e+000 0.000000e+000 0.000000e+000 0.000000e+000 0.000000e+000 0.000000e+000 0.000000e+000 0.000000e+000 0.000000e+000 0.000000e+000 0.000000e+000 0.000000e+000 0.000000e+000 0.000000e+000 0.000000e+000 0.000000e+000 0.000000e+000 
0.000000e+000 7.590136e-001 2.409865e-001 0.000000e+000 0.000000e+000 0.000000e+000 0.000000e+000 0.000000e+000 0.000000e+000 0.000000e+000 0.000000e+000 0.000000e+000 0.000000e+000 0.000000e+000 0.000000e+000 0.000000e+000 0.000000e+000 0.000000e+000 0.000000e+000 0.000000e+000 0.000000e+000 0.000000e+000 0.000000e+000 0.000000e+000 0.000000e+000 
0.000000e+000 0.000000e+000 7.946056e-001 2.053945e-001 0.000000e+000 0.000000e+000 0.000000e+000 0.000000e+000 0.000000e+000 0.000000e+000 0.000000e+000 0.000000e+000 0.000000e+000 0.000000e+000 0.000000e+000 0.000000e+000 0.000000e+000 0.000000e+000 0.000000e+000 0.000000e+000 0.000000e+000 0.000000e+000 0.000000e+000 0.000000e+000 0.000000e+000 
0.000000e+000 0.000000e+000 0.000000e+000 8.075452e-001 1.924548e-001 0.000000e+000 0.000000e+000 0.000000e+000 0.000000e+000 0.000000e+000 0.000000e+000 0.000000e+000 0.000000e+000 0.000000e+000 0.000000e+000 0.000000e+000 0.000000e+000 0.000000e+000 0.000000e+000 0.000000e+000 0.000000e+000 0.000000e+000 0.000000e+000 0.000000e+000 0.000000e+000 
0.000000e+000 0.000000e+000 0.000000e+000 0.000000e+000 7.788354e-001 2.211646e-001 0.000000e+000 0.000000e+000 0.000000e+000 0.000000e+000 0.000000e+000 0.000000e+000 0.000000e+000 0.000000e+000 0.000000e+000 0.000000e+000 0.000000e+000 0.000000e+000 0.000000e+000 0.000000e+000 0.000000e+000 0.000000e+000 0.000000e+000 0.000000e+000 0.000000e+000 
0.000000e+000 0.000000e+000 0.000000e+000 0.000000e+000 0.000000e+000 8.700216e-001 1.299784e-001 0.000000e+000 0.000000e+000 0.000000e+000 0.000000e+000 0.000000e+000 0.000000e+000 0.000000e+000 0.000000e+000 0.000000e+000 0.000000e+000 0.000000e+000 0.000000e+000 0.000000e+000 0.000000e+000 0.000000e+000 0.000000e+000 0.000000e+000 0.000000e+000 
0.000000e+000 0.000000e+000 0.000000e+000 0.000000e+000 0.000000e+000 0.000000e+000 8.327705e-001 1.672294e-001 0.000000e+000 0.000000e+000 0.000000e+000 0.000000e+000 0.000000e+000 0.000000e+000 0.000000e+000 0.000000e+000 0.000000e+000 0.000000e+000 0.000000e+000 0.000000e+000 0.000000e+000 0.000000e+000 0.000000e+000 0.000000e+000 0.000000e+000 
0.000000e+000 0.000000e+000 0.000000e+000 0.000000e+000 0.000000e+000 0.000000e+000 0.000000e+000 7.388988e-001 2.611011e-001 0.000000e+000 0.000000e+000 0.000000e+000 0.000000e+000 0.000000e+000 0.000000e+000 0.000000e+000 0.000000e+000 0.000000e+000 0.000000e+000 0.000000e+000 0.000000e+000 0.000000e+000 0.000000e+000 0.000000e+000 0.000000e+000 
0.000000e+000 0.000000e+000 0.000000e+000 0.000000e+000 0.000000e+000 0.000000e+000 0.000000e+000 0.000000e+000 8.074071e-001 1.925929e-001 0.000000e+000 0.000000e+000 0.000000e+000 0.000000e+000 0.000000e+000 0.000000e+000 0.000000e+000 0.000000e+000 0.000000e+000 0.000000e+000 0.000000e+000 0.000000e+000 0.000000e+000 0.000000e+000 0.000000e+000 
0.000000e+000 0.000000e+000 0.000000e+000 0.000000e+000 0.000000e+000 0.000000e+000 0.000000e+000 0.000000e+000 0.000000e+000 9.051229e-001 9.487721e-002 0.000000e+000 0.000000e+000 0.000000e+000 0.000000e+000 0.000000e+000 0.000000e+000 0.000000e+000 0.000000e+000 0.000000e+000 0.000000e+000 0.000000e+000 0.000000e+000 0.000000e+000 0.000000e+000 
0.000000e+000 0.000000e+000 0.000000e+000 0.000000e+000 0.000000e+000 0.000000e+000 0.000000e+000 0.000000e+000 0.000000e+000 0.000000e+000 7.197098e-001 2.802902e-001 0.000000e+000 0.000000e+000 0.000000e+000 0.000000e+000 0.000000e+000 0.000000e+000 0.000000e+000 0.000000e+000 0.000000e+000 0.000000e+000 0.000000e+000 0.000000e+000 0.000000e+000 
0.000000e+000 0.000000e+000 0.000000e+000 0.000000e+000 0.000000e+000 0.000000e+000 0.000000e+000 0.000000e+000 0.000000e+000 0.000000e+000 0.000000e+000 7.546549e-001 2.453451e-001 0.000000e+000 0.000000e+000 0.000000e+000 0.000000e+000 0.000000e+000 0.000000e+000 0.000000e+000 0.000000e+000 0.000000e+000 0.000000e+000 0.000000e+000 0.000000e+000 
0.000000e+000 0.000000e+000 0.000000e+000 0.000000e+000 0.000000e+000 0.000000e+000 0.000000e+000 0.000000e+000 0.000000e+000 0.000000e+000 0.000000e+000 0.000000e+000 7.743337e-001 2.256663e-001 0.000000e+000 0.000000e+000 0.000000e+000 0.000000e+000 0.000000e+000 0.000000e+000 0.000000e+000 0.000000e+000 0.000000e+000 0.000000e+000 0.000000e+000 
0.000000e+000 0.000000e+000 0.000000e+000 0.000000e+000 0.000000e+000 0.000000e+000 0.000000e+000 0.000000e+000 0.000000e+000 0.000000e+000 0.000000e+000 0.000000e+000 0.000000e+000 7.705252e-001 2.294748e-001 0.000000e+000 0.000000e+000 0.000000e+000 0.000000e+000 0.000000e+000 0.000000e+000 0.000000e+000 0.000000e+000 0.000000e+000 0.000000e+000 
0.000000e+000 0.000000e+000 0.000000e+000 0.000000e+000 0.000000e+000 0.000000e+000 0.000000e+000 0.000000e+000 0.000000e+000 0.000000e+000 0.000000e+000 0.000000e+000 0.000000e+000 0.000000e+000 8.475557e-001 1.524443e-001 0.000000e+000 0.000000e+000 0.000000e+000 0.000000e+000 0.000000e+000 0.000000e+000 0.000000e+000 0.000000e+000 0.000000e+000 
0.000000e+000 0.000000e+000 0.000000e+000 0.000000e+000 0.000000e+000 0.000000e+000 0.000000e+000 0.000000e+000 0.000000e+000 0.000000e+000 0.000000e+000 0.000000e+000 0.000000e+000 0.000000e+000 0.000000e+000 8.572771e-001 1.427229e-001 0.000000e+000 0.000000e+000 0.000000e+000 0.000000e+000 0.000000e+000 0.000000e+000 0.000000e+000 0.000000e+000 
0.000000e+000 0.000000e+000 0.000000e+000 0.000000e+000 0.000000e+000 0.000000e+000 0.000000e+000 0.000000e+000 0.000000e+000 0.000000e+000 0.000000e+000 0.000000e+000 0.000000e+000 0.000000e+000 0.000000e+000 0.000000e+000 8.925188e-001 1.074811e-001 0.000000e+000 0.000000e+000 0.000000e+000 0.000000e+000 0.000000e+000 0.000000e+000 0.000000e+000 
0.000000e+000 0.000000e+000 0.000000e+000 0.000000e+000 0.000000e+000 0.000000e+000 0.000000e+000 0.000000e+000 0.000000e+000 0.000000e+000 0.000000e+000 0.000000e+000 0.000000e+000 0.000000e+000 0.000000e+000 0.000000e+000 0.000000e+000 8.775781e-001 1.224219e-001 0.000000e+000 0.000000e+000 0.000000e+000 0.000000e+000 0.000000e+000 0.000000e+000 
0.000000e+000 0.000000e+000 0.000000e+000 0.000000e+000 0.000000e+000 0.000000e+000 0.000000e+000 0.000000e+000 0.000000e+000 0.000000e+000 0.000000e+000 0.000000e+000 0.000000e+000 0.000000e+000 0.000000e+000 0.000000e+000 0.000000e+000 0.000000e+000 7.612455e-001 2.387545e-001 0.000000e+000 0.000000e+000 0.000000e+000 0.000000e+000 0.000000e+000 
0.000000e+000 0.000000e+000 0.000000e+000 0.000000e+000 0.000000e+000 0.000000e+000 0.000000e+000 0.000000e+000 0.000000e+000 0.000000e+000 0.000000e+000 0.000000e+000 0.000000e+000 0.000000e+000 0.000000e+000 0.000000e+000 0.000000e+000 0.000000e+000 0.000000e+000 8.291068e-001 1.708932e-001 0.000000e+000 0.000000e+000 0.000000e+000 0.000000e+000 
0.000000e+000 0.000000e+000 0.000000e+000 0.000000e+000 0.000000e+000 0.000000e+000 0.000000e+000 0.000000e+000 0.000000e+000 0.000000e+000 0.000000e+000 0.000000e+000 0.000000e+000 0.000000e+000 0.000000e+000 0.000000e+000 0.000000e+000 0.000000e+000 0.000000e+000 0.000000e+000 4.174305e-001 5.825695e-001 0.000000e+000 0.000000e+000 0.000000e+000 
0.000000e+000 0.000000e+000 0.000000e+000 0.000000e+000 0.000000e+000 0.000000e+000 0.000000e+000 0.000000e+000 0.000000e+000 0.000000e+000 0.000000e+000 0.000000e+000 0.000000e+000 0.000000e+000 0.000000e+000 0.000000e+000 0.000000e+000 0.000000e+000 0.000000e+000 0.000000e+000 0.000000e+000 5.236809e-001 4.763190e-001 0.000000e+000 0.000000e+000 
0.000000e+000 0.000000e+000 0.000000e+000 0.000000e+000 0.000000e+000 0.000000e+000 0.000000e+000 0.000000e+000 0.000000e+000 0.000000e+000 0.000000e+000 0.000000e+000 0.000000e+000 0.000000e+000 0.000000e+000 0.000000e+000 0.000000e+000 0.000000e+000 0.000000e+000 0.000000e+000 0.000000e+000 0.000000e+000 9.925913e-002 9.007408e-001 0.000000e+000 
0.000000e+000 0.000000e+000 0.000000e+000 0.000000e+000 0.000000e+000 0.000000e+000 0.000000e+000 0.000000e+000 0.000000e+000 0.000000e+000 0.000000e+000 0.000000e+000 0.000000e+000 0.000000e+000 0.000000e+000 0.000000e+000 0.000000e+000 0.000000e+000 0.000000e+000 0.000000e+000 0.000000e+000 0.000000e+000 0.000000e+000 8.682517e-001 1.317483e-001 
0.000000e+000 0.000000e+000 0.000000e+000 0.000000e+000 0.000000e+000 0.000000e+000 0.000000e+000 0.000000e+000 0.000000e+000 0.000000e+000 0.000000e+000 0.000000e+000 0.000000e+000 0.000000e+000 0.000000e+000 0.000000e+000 0.000000e+000 0.000000e+000 0.000000e+000 0.000000e+000 0.000000e+000 0.000000e+000 0.000000e+000 0.000000e+000 0.000000e+000 
