<HMMNAME> 3
<HMMSTATES> 25
<STATE> 1
<MEAN> 36
-1.315746e+001 -1.100542e+001 1.536778e+000 -2.892969e+000 5.063447e+000 1.978592e+000 -1.453481e+000 9.066786e+000 -2.441024e+000 1.092699e+000 3.213959e+000 -3.543906e-001 -1.939259e-002 -1.923602e+000 3.239374e-001 -1.302255e+000 5.015731e-001 -2.637010e-001 -8.191270e-001 7.357669e-001 -8.509816e-001 9.730100e-002 2.021418e-001 5.331402e-002 -1.073448e-001 -5.008862e-002 2.096818e-001 1.002205e-001 4.572501e-002 6.483066e-002 1.155428e-001 3.681353e-003 -6.894940e-002 6.045620e-003 -1.042248e-001 5.670411e-002 
<VARIANCE> 36
3.779700e+000 8.167591e+001 9.606000e+000 3.573028e+001 1.430034e+001 1.733629e+001 2.609517e+001 2.857391e+001 1.854110e+001 1.235352e+001 1.793306e+001 1.199249e+001 3.976547e-001 2.295443e+000 9.382225e-001 1.950598e+000 9.244446e-001 1.662766e+000 1.571566e+000 1.697131e+000 1.933007e+000 8.963383e-001 1.102669e+000 1.157941e+000 1.100461e-001 2.438806e-001 1.871650e-001 5.587342e-001 2.256789e-001 3.552763e-001 4.120751e-001 3.524375e-001 3.719094e-001 1.286470e-001 3.411860e-001 2.814477e-001 
<GCONST> 8.767298e+001
<STATE> 2
<MEAN> 36
-1.570862e+001 -2.420179e+001 7.545795e+000 -7.424559e+000 7.658864e+000 2.764524e+000 -4.182046e+000 1.238032e+001 -6.709583e+000 2.117791e+000 2.898702e+000 6.944857e-001 -6.269997e-001 -9.302845e-001 8.096718e-001 1.188108e+000 4.227193e-001 4.808920e-001 2.614694e-001 -3.418279e-001 1.552459e-001 1.164287e-003 -4.519576e-001 2.067849e-001 2.160299e-001 3.569127e-001 -4.151267e-001 2.687274e-001 -1.988573e-001 -4.103886e-002 -5.592618e-002 -2.557143e-001 2.900011e-001 -1.676072e-001 -9.287271e-002 -1.579203e-001 
<VARIANCE> 36
3.602592e+000 6.628556e+000 1.549841e+001 2.190844e+001 1.763947e+001 2.618465e+001 1.418041e+001 2.687277e+001 2.552552e+001 2.493303e+001 1.901232e+001 1.138515e+001 6.980176e-001 4.508774e-001 1.608931e+000 9.123732e-001 1.461794e+000 2.033699e+000 1.323034e+000 1.359201e+000 1.125073e+000 1.524824e+000 2.106929e+000 1.270145e+000 1.239022e-001 1.688988e-001 1.965094e-001 3.541254e-001 3.148088e-001 4.054077e-001 1.967982e-001 2.040382e-001 2.548792e-001 2.408871e-001 3.582274e-001 2.729447e-001 
<GCONST> 8.458300e+001
<STATE> 3
<MEAN> 36
-1.552480e+001 -2.711162e+001 7.109657e+000 -3.890605e+000 7.831674e+000 5.069427e+000 -5.293502e+000 9.615762e+000 -4.749004e+000 -1.231736e+000 -2.213913e-001 7.845748e-001 9.195057e-002 -6.984985e-001 -2.922896e-001 5.914578e-001 5.064439e-002 8.886250e-002 1.339686e-002 -4.921614e-001 6.852404e-001 2.294535e-001 -7.059428e-001 -3.581038e-001 -2.727303e-002 -5.864749e-002 -5.107170e-002 -3.150329e-002 1.180413e-001 -1.043575e-001 8.418390e-002 6.045578e-002 -1.333007e-002 3.081184e-001 -4.959730e-002 -1.956105e-001 
<VARIANCE> 36
2.580344e+000 7.855266e+000 8.289928e+000 1.607282e+001 1.609889e+001 1.762762e+001 1.746953e+001 1.276483e+001 1.504189e+001 1.624457e+001 1.525684e+001 1.311005e+001 1.470610e-001 2.917081e-001 2.865213e-001 6.950254e-001 1.013608e+000 9.734477e-001 1.620964e+000 1.445198e+000 9.987747e-001 1.455168e+000 1.500919e+000 1.370309e+000 5.000000e-002 5.540770e-002 7.524922e-002 9.095145e-002 1.919454e-001 1.751804e-001 3.222846e-001 2.408052e-001 2.128431e-001 2.200356e-001 2.494133e-001 2.456196e-001 
<GCONST> 7.041195e+001
<STATE> 4
<MEAN> 36
-1.538228e+001 -3.011179e+001 5.430298e+000 1.811849e-001 7.985938e+000 4.073924e+000 -3.990370e+000 1.027106e+001 -7.914514e-001 2.551831e+000 -2.454074e+000 -2.693560e+000 4.491829e-002 -9.992764e-001 -6.548043e-001 7.029857e-001 1.250446e+000 -8.332163e-002 -2.932482e-002 -9.810818e-001 -1.342650e-001 1.448290e+000 -6.387330e-001 -8.264276e-001 5.785706e-002 7.049479e-002 -1.688371e-001 -1.124544e-001 3.009556e-001 1.419591e-001 -1.031436e-001 -3.383134e-001 -4.323909e-001 9.027795e-002 2.158836e-001 7.276073e-002 
<VARIANCE> 36
1.723363e+000 3.476488e+000 8.568899e+000 1.262519e+001 1.389524e+001 8.692175e+000 1.431511e+001 1.308284e+001 1.031286e+001 1.280616e+001 9.651968e+000 6.205129e+000 1.022258e-001 3.120595e-001 5.178463e-001 3.830136e-001 7.241020e-001 5.922307e-001 1.116108e+000 7.845314e-001 6.563009e-001 5.731610e-001 9.200458e-001 1.072037e+000 5.000000e-002 5.000000e-002 1.213532e-001 8.179292e-002 1.753209e-001 1.610792e-001 1.951572e-001 3.573691e-001 1.350914e-001 1.266007e-001 2.803392e-001 2.004978e-001 
<GCONST> 6.082503e+001
<STATE> 5
<MEAN> 36
-1.542462e+001 -3.202346e+001 3.756922e+000 2.909496e-001 1.160055e+001 3.785126e+000 -4.366590e+000 6.252074e+000 -3.058811e+000 6.759622e+000 -4.254831e+000 -3.377957e+000 1.056213e-001 -6.428963e-001 -8.095854e-001 4.136464e-001 1.566985e+000 -4.468863e-002 -3.356375e-001 -1.536638e+000 -1.026370e+000 1.553568e+000 5.746436e-001 -6.600385e-001 5.966666e-002 2.190290e-001 1.088233e-001 -1.099852e-001 2.524288e-002 1.177642e-001 -6.939825e-002 5.606670e-002 -2.133012e-001 -1.777194e-001 3.668389e-001 7.479862e-002 
<VARIANCE> 36
2.191304e+000 4.019018e+000 6.189664e+000 1.447917e+001 8.690950e+000 1.216485e+001 1.277214e+001 8.792067e+000 1.055479e+001 9.490623e+000 9.928309e+000 1.191362e+001 1.325011e-001 2.416852e-001 9.177773e-001 4.368409e-001 7.398305e-001 8.323048e-001 1.052589e+000 1.777859e+000 5.734267e-001 1.231807e+000 1.190696e+000 8.823164e-001 5.000000e-002 5.000000e-002 7.813487e-002 1.461350e-001 6.325751e-002 1.497328e-001 1.725869e-001 1.228894e-001 1.357550e-001 1.801772e-001 1.800501e-001 1.189376e-001 
<GCONST> 6.055364e+001
<STATE> 6
<MEAN> 36
-1.479571e+001 -3.203964e+001 3.077491e+000 2.036829e+000 1.507393e+001 4.220891e+000 -6.738922e+000 2.420213e+000 -4.873005e+000 9.385794e+000 -9.510677e-001 -4.624201e+000 2.218347e-001 5.451221e-003 -4.574461e-001 -1.933547e-001 7.934339e-001 4.018130e-001 -3.469948e-002 -6.909324e-001 -7.585345e-001 5.074032e-001 3.479562e-001 -3.621298e-001 -4.419715e-002 6.652165e-002 7.605910e-002 -1.980311e-001 -4.633177e-001 1.266813e-001 4.257428e-001 4.213032e-001 1.760289e-001 -4.331306e-001 -1.884393e-001 1.544711e-001 
<VARIANCE> 36
2.951828e+000 4.373054e+000 8.482637e+000 1.273463e+001 1.265663e+001 1.576136e+001 1.291220e+001 1.145434e+001 1.144168e+001 1.503204e+001 9.222850e+000 1.719190e+001 1.107577e-001 2.910296e-001 3.750676e-001 8.540811e-001 1.044462e+000 9.050056e-001 1.499139e+000 1.708377e+000 1.031863e+000 1.440175e+000 8.703392e-001 1.146701e+000 5.000000e-002 5.920135e-002 1.263076e-001 1.421262e-001 1.531411e-001 1.819237e-001 1.731843e-001 3.094568e-001 1.740257e-001 1.972018e-001 1.580518e-001 2.077757e-001 
<GCONST> 6.747708e+001
<STATE> 7
<MEAN> 36
-1.446423e+001 -3.248441e+001 1.124404e+000 -1.225068e+000 1.582464e+001 5.415374e+000 -3.056295e+000 3.606985e+000 -6.998283e+000 8.842517e+000 -1.522049e+000 -4.754210e+000 2.056827e-002 -1.666593e-001 -1.705891e-001 -8.397335e-002 4.991906e-002 1.597084e-001 3.617162e-001 -2.220704e-001 -1.041910e-001 1.493503e-001 5.740667e-002 7.581723e-002 -2.602256e-002 1.617741e-002 5.760932e-002 4.295750e-002 -2.174121e-002 -1.131669e-002 -7.778168e-002 -5.730783e-002 5.316873e-002 4.125641e-002 5.205611e-002 9.417854e-002 
<VARIANCE> 36
1.902163e+000 3.494941e+000 7.810600e+000 1.030246e+001 1.740946e+001 7.891448e+000 2.398437e+001 1.270608e+001 1.213646e+001 8.014884e+000 1.098674e+001 1.417449e+001 9.678806e-002 2.332802e-001 3.629225e-001 5.866890e-001 8.249804e-001 5.408427e-001 9.353143e-001 1.648451e+000 9.622737e-001 1.047287e+000 1.316089e+000 8.952057e-001 5.000000e-002 5.000000e-002 8.269412e-002 1.245610e-001 1.857780e-001 9.652237e-002 1.954738e-001 3.726141e-001 1.850954e-001 1.908560e-001 2.959871e-001 1.992508e-001 
<GCONST> 6.379224e+001
<STATE> 8
<MEAN> 36
-1.502013e+001 -3.437007e+001 1.577754e+000 -2.657451e+000 1.731564e+001 4.625710e+000 1.788372e+000 -1.259026e+000 -8.454034e+000 1.041599e+001 -2.732653e+000 -7.813971e-001 5.178636e-002 4.094288e-002 -4.507644e-002 6.201274e-002 6.199399e-003 -4.171722e-003 -3.168008e-002 -1.623722e-001 -1.982853e-002 8.574973e-002 4.848183e-002 6.738851e-002 2.333606e-002 3.390521e-002 -2.234245e-003 3.524324e-003 -2.042424e-002 -2.111741e-002 -6.355066e-002 7.158679e-003 2.488383e-002 -1.408404e-002 -5.700650e-004 -6.247118e-002 
<VARIANCE> 36
1.713637e+000 3.003957e+000 6.488307e+000 1.645655e+001 6.517598e+000 1.129325e+001 2.970120e+001 1.018884e+001 1.554639e+001 9.845403e+000 9.540520e+000 1.260112e+001 1.310263e-001 2.650709e-001 4.837946e-001 5.840117e-001 4.462441e-001 8.781604e-001 1.083122e+000 8.907740e-001 9.199086e-001 8.178286e-001 8.894590e-001 8.755692e-001 5.000000e-002 5.339527e-002 1.055106e-001 1.156744e-001 8.434929e-002 1.968359e-001 2.216956e-001 1.552061e-001 1.810477e-001 1.742747e-001 1.751206e-001 1.535528e-001 
<GCONST> 6.130151e+001
<STATE> 9
<MEAN> 36
-1.332918e+001 -3.232494e+001 -4.347475e-001 1.143469e+000 1.509644e+001 8.502613e+000 -4.980776e+000 -1.423176e+000 -5.984960e+000 1.026338e+001 7.689852e-001 -4.147542e+000 1.588026e-001 1.704258e-001 -3.803128e-001 8.426750e-002 -6.432108e-002 2.243656e-001 1.330916e-002 4.126787e-002 4.949837e-002 -9.751033e-002 8.464172e-002 -1.784012e-001 2.808110e-002 4.533893e-002 -7.193896e-002 -7.812047e-003 -2.481941e-002 3.326249e-002 7.395698e-002 9.662899e-002 3.247463e-002 -7.688307e-002 -6.217428e-002 -3.900944e-002 
<VARIANCE> 36
2.110121e+000 2.455812e+000 6.200176e+000 8.610859e+000 7.694043e+000 1.173807e+001 1.821034e+001 1.840249e+001 1.965757e+001 1.420956e+001 1.490554e+001 1.103285e+001 2.110186e-001 3.085051e-001 3.893308e-001 4.546082e-001 4.557247e-001 6.446937e-001 9.660089e-001 1.136749e+000 5.830956e-001 7.817407e-001 9.658724e-001 8.382561e-001 5.000000e-002 5.771217e-002 6.916541e-002 9.238670e-002 1.006677e-001 1.124341e-001 2.073690e-001 2.431251e-001 1.060767e-001 1.418510e-001 2.063154e-001 1.742903e-001 
<GCONST> 6.035584e+001
<STATE> 10
<MEAN> 36
-1.049906e+001 -2.660143e+001 -6.799816e+000 2.702414e+000 1.385787e+001 9.542496e+000 -2.476820e+000 -2.771194e-001 -4.653791e+000 8.357151e+000 5.853806e-001 -7.317009e+000 4.136699e-001 1.339508e+000 -6.254015e-001 1.058462e-001 -1.664227e-001 8.175296e-002 2.202385e-001 -1.665202e-002 3.569463e-001 -3.206705e-001 -1.164238e-001 -3.726264e-001 2.160992e-002 2.078957e-001 1.363625e-001 -5.794132e-002 -7.687006e-003 -9.242338e-002 2.193271e-002 2.238443e-002 -8.354753e-002 -1.104161e-003 -6.119022e-003 7.308543e-002 
<VARIANCE> 36
2.390404e+000 1.502960e+001 1.062828e+001 1.705146e+001 1.244716e+001 1.201920e+001 1.516141e+001 1.862746e+001 2.355416e+001 9.606359e+000 2.200807e+001 1.256221e+001 1.700260e-001 6.011948e-001 6.600759e-001 7.097557e-001 1.025392e+000 8.278703e-001 9.131757e-001 1.372195e+000 1.338245e+000 9.896938e-001 1.411929e+000 1.394484e+000 5.000000e-002 5.939631e-002 1.358728e-001 1.673972e-001 1.777111e-001 1.532706e-001 1.517801e-001 2.571594e-001 2.636370e-001 2.061615e-001 2.870104e-001 2.485532e-001 
<GCONST> 7.261958e+001
<STATE> 11
<MEAN> 36
-7.654473e+000 -1.489811e+001 -7.234971e+000 1.352206e+000 1.245997e+001 8.981011e+000 -3.076277e-001 1.276409e+000 -4.497661e+000 5.499207e+000 -8.682494e-001 -8.124765e+000 1.517585e+000 2.488420e+000 2.048493e-001 -1.371227e+000 -4.908298e-001 1.628070e-001 3.959782e-001 8.694551e-001 -4.644199e-001 -1.399004e+000 -9.138128e-001 -5.162267e-001 4.014132e-001 -1.359248e-001 -2.532878e-001 -4.700614e-001 4.957335e-003 7.119078e-002 -1.360163e-001 2.583175e-002 -1.937464e-002 -3.245081e-001 -2.598516e-001 -1.441874e-001 
<VARIANCE> 36
3.980078e+000 1.801391e+001 8.000254e+000 9.752452e+000 1.262618e+001 9.854699e+000 1.864233e+001 2.831826e+001 1.742408e+001 1.186685e+001 1.427590e+001 1.570656e+001 9.706975e-001 4.802689e-001 9.881971e-001 1.367588e+000 6.910983e-001 7.605864e-001 1.106983e+000 2.128558e+000 1.316423e+000 1.262500e+000 1.806672e+000 1.257862e+000 8.329030e-002 1.025878e-001 1.613761e-001 1.472171e-001 2.132110e-001 1.519148e-001 2.520585e-001 4.836608e-001 2.989898e-001 2.198473e-001 2.487641e-001 2.709731e-001 
<GCONST> 7.825496e+001
<STATE> 12
<MEAN> 36
-7.313696e-001 -9.089808e+000 -8.054169e+000 -6.015093e+000 1.048278e+001 9.932822e+000 6.139780e-001 3.988940e+000 -5.979626e+000 -1.104255e+000 -6.152822e+000 -1.128206e+001 2.315010e+000 1.638686e+000 -1.243758e+000 -2.470757e+000 -2.856502e-001 -2.519196e-002 -1.605586e-001 6.381959e-001 -3.125288e-001 -1.797023e+000 -1.365654e+000 -6.392395e-001 -4.206559e-001 -7.066965e-001 -3.442502e-001 2.549736e-001 2.305935e-001 -2.123233e-001 -4.424884e-001 -4.096807e-001 -1.336961e-002 5.513971e-001 4.377739e-001 3.122260e-001 
<VARIANCE> 36
2.753023e+000 5.055590e+000 9.530173e+000 1.048613e+001 1.561878e+001 5.134775e+000 1.006519e+001 9.667592e+000 1.958070e+001 5.032669e+000 1.490819e+001 4.213420e+000 2.139399e-001 1.951896e-001 4.949605e-001 5.689151e-001 1.534289e+000 3.860790e-001 1.980421e+000 1.765611e+000 1.306895e+000 1.012472e+000 3.500629e-001 1.560391e+000 5.000000e-002 7.219219e-002 1.357816e-001 1.395949e-001 1.373821e-001 1.387274e-001 5.945172e-002 1.120479e-001 2.504415e-001 1.106858e-001 4.024586e-001 9.998381e-002 
<GCONST> 6.169468e+001
<STATE> 13
<MEAN> 36
5.474875e-001 -7.902596e+000 -1.068338e+001 -8.942700e+000 1.165295e+001 9.327334e+000 -1.681528e+000 3.683143e+000 -6.692037e+000 -3.135741e-003 -5.546211e+000 -1.037772e+001 5.354206e-001 2.709345e-001 -7.375772e-001 -8.514783e-001 4.782236e-002 -4.338594e-001 -8.498963e-001 -1.630399e-001 -3.147972e-002 -2.978951e-002 -1.018508e-001 2.475347e-002 -3.100227e-001 -2.685554e-001 8.016587e-002 3.660459e-001 1.291915e-001 -1.046982e-001 -1.223770e-001 -7.649785e-002 1.850762e-001 2.026059e-001 5.676990e-002 5.245232e-002 
<VARIANCE> 36
2.444236e+000 6.616952e+000 7.130156e+000 1.652333e+001 1.467469e+001 7.373671e+000 2.115708e+001 7.038298e+000 1.190270e+001 7.124039e+000 9.948879e+000 9.688060e+000 4.131938e-001 1.754558e-001 6.990232e-001 8.528103e-001 6.482894e-001 5.167275e-001 7.548986e-001 7.451466e-001 1.074651e+000 7.688176e-001 9.857062e-001 6.074462e-001 9.214648e-002 6.496138e-002 1.008189e-001 1.470659e-001 1.352078e-001 8.944044e-002 1.790855e-001 2.606980e-001 1.858260e-001 2.589839e-001 2.346157e-001 1.779708e-001 
<GCONST> 6.387881e+001
<STATE> 14
<MEAN> 36
3.525506e-002 -6.897943e+000 -1.091038e+001 -7.138383e+000 1.166732e+001 4.155329e+000 -6.550581e+000 5.034234e+000 -3.641648e+000 -2.389069e+000 -6.760633e+000 -1.005581e+001 1.639350e-001 -9.050724e-002 -4.567520e-001 -1.415079e-001 4.747789e-001 -8.500381e-001 -8.695520e-001 7.922697e-001 4.122926e-001 -6.629708e-001 -8.223577e-001 -7.873702e-002 -5.533714e-002 1.568012e-002 4.169349e-002 -1.167385e-001 1.031654e-001 -6.263943e-002 8.386253e-002 2.686977e-001 -2.725587e-001 -4.673362e-003 1.771729e-002 -1.793012e-002 
<VARIANCE> 36
6.382082e+000 8.071029e+000 9.876084e+000 2.613286e+001 1.650561e+001 3.909950e+001 1.966131e+001 4.956347e+001 8.536905e+000 1.806909e+001 1.382468e+001 5.183508e+000 5.892870e-002 1.494183e-001 3.650638e-001 7.649688e-001 1.043979e+000 8.289798e-001 1.192730e+000 1.946985e+000 1.119796e+000 8.524302e-001 6.940809e-001 4.379619e-001 5.000000e-002 5.000000e-002 7.566712e-002 1.251112e-001 1.621351e-001 1.407684e-001 1.225535e-001 1.672778e-001 1.430538e-001 1.339524e-001 1.411318e-001 8.811182e-002 
<GCONST> 6.511285e+001
<STATE> 15
<MEAN> 36
2.100880e+000 -7.743457e+000 -1.504318e+001 -1.126988e+001 1.507534e+001 4.030102e+000 -7.095170e+000 6.013378e+000 -5.977997e+000 -1.621003e+000 -9.917524e+000 -1.134983e+001 1.360058e-002 -2.442692e-002 -1.173195e-001 -2.718083e-001 4.585220e-001 -5.479097e-001 -4.071853e-001 6.729624e-001 -3.887993e-001 -3.648950e-001 -3.186985e-001 4.287074e-002 -2.110130e-002 -2.179531e-002 6.893620e-002 7.236566e-002 -8.330074e-002 6.368638e-002 1.148451e-001 1.008564e-002 -4.217043e-002 -7.518885e-002 8.295585e-002 7.204671e-002 
<VARIANCE> 36
1.945440e+000 5.003832e+000 5.982300e+000 1.104930e+001 1.469300e+001 8.613674e+000 2.290106e+001 1.632068e+001 1.801896e+001 1.121324e+001 1.204613e+001 1.066230e+001 5.000000e-002 1.151372e-001 2.023981e-001 3.450351e-001 4.839061e-001 5.728533e-001 5.375633e-001 4.655746e-001 5.341466e-001 6.310782e-001 5.074940e-001 7.742264e-001 5.000000e-002 5.000000e-002 5.000000e-002 5.000000e-002 9.342862e-002 8.405881e-002 8.260390e-002 7.319350e-002 1.036984e-001 1.253916e-001 7.410409e-002 1.234101e-001 
<GCONST> 5.007482e+001
<STATE> 16
<MEAN> 36
2.243780e+000 -1.118730e+001 -1.451204e+001 -1.264111e+001 1.693287e+001 -3.654194e-001 -9.887254e+000 1.314567e+001 -1.179049e+001 -7.399269e+000 -6.853508e+000 -1.106022e+001 -4.545205e-002 -9.946568e-002 -2.786684e-002 6.297516e-002 7.224796e-002 -3.433169e-001 9.582451e-003 3.310042e-001 -1.705380e-001 -4.775917e-001 5.877814e-002 3.227460e-001 -1.549564e-002 1.507183e-002 1.631746e-002 3.107270e-002 -3.708392e-003 7.403535e-004 3.288398e-002 -5.406554e-002 4.974192e-002 2.792841e-002 -1.211305e-002 4.134130e-002 
<VARIANCE> 36
1.868579e+000 1.148734e+001 4.876806e+000 9.545202e+000 1.456951e+001 1.087261e+001 1.660279e+001 1.192795e+001 4.703609e+001 1.217507e+001 2.640059e+001 8.509459e+000 5.000000e-002 1.150758e-001 2.033706e-001 2.937003e-001 3.548760e-001 3.206604e-001 4.016439e-001 4.242566e-001 7.702413e-001 5.739348e-001 5.404940e-001 6.883818e-001 5.000000e-002 5.000000e-002 5.000000e-002 6.135908e-002 5.000000e-002 5.000000e-002 8.314100e-002 7.786778e-002 1.484890e-001 1.025434e-001 1.086548e-001 1.228299e-001 
<GCONST> 5.015437e+001
<STATE> 17
<MEAN> 36
2.171565e+000 -1.265113e+001 -1.601527e+001 -6.838940e+000 1.646727e+001 -7.950086e+000 -8.248504e+000 1.470723e+001 -1.351880e+001 -9.542597e+000 -7.154902e+000 -9.005593e+000 -2.011669e-001 6.714165e-004 2.997097e-001 2.332335e-001 2.221950e-001 -1.533423e-001 9.281932e-002 4.299011e-001 -3.387749e-001 -3.551826e-001 1.346894e-001 2.824040e-001 -3.675229e-002 1.257128e-002 9.134315e-002 -3.383970e-002 1.427060e-002 1.557292e-001 -3.090715e-002 -2.377773e-002 3.543909e-002 4.209177e-002 5.568720e-002 -2.429964e-002 
<VARIANCE> 36
4.236542e+000 1.161804e+001 1.577835e+001 2.010623e+001 1.411714e+001 3.313637e+001 8.205568e+000 2.326849e+001 4.178460e+001 1.508248e+001 1.630961e+001 8.332329e+000 5.000000e-002 1.198490e-001 2.440600e-001 2.785529e-001 4.048919e-001 6.419717e-001 4.123096e-001 5.681889e-001 7.754369e-001 6.164264e-001 5.102378e-001 3.832055e-001 5.000000e-002 5.000000e-002 5.000000e-002 5.681200e-002 5.012729e-002 1.019351e-001 6.314513e-002 1.002549e-001 1.641129e-001 8.988515e-002 6.468556e-002 8.324916e-002 
<GCONST> 5.396813e+001
<STATE> 18
<MEAN> 36
3.859508e-001 -9.423154e+000 -1.145730e+001 -1.169590e+001 1.833093e+001 6.230269e-001 -1.146768e+001 1.447294e+001 -7.631149e+000 -1.245215e+001 -9.817979e+000 -4.439875e+000 -2.568970e-001 1.429667e-002 3.694523e-001 -6.230684e-002 -5.585166e-002 1.760277e-001 -8.357546e-002 8.906932e-002 -5.412108e-002 -3.288029e-001 2.876867e-001 2.589519e-001 -1.596233e-002 3.129119e-002 1.175035e-002 2.470417e-002 -3.413696e-002 2.472059e-002 1.344548e-002 -5.296462e-002 -9.438784e-003 5.314341e-002 4.058799e-002 -5.411683e-002 
<VARIANCE> 36
1.995783e+000 5.599010e+000 6.334115e+000 1.254720e+001 1.473211e+001 1.406350e+001 2.579340e+001 2.078323e+001 1.976284e+001 2.007452e+001 1.118506e+001 6.542368e+000 6.025151e-002 1.328660e-001 2.307163e-001 4.414591e-001 4.478429e-001 6.392751e-001 6.923928e-001 9.689017e-001 6.888693e-001 6.561922e-001 5.291738e-001 5.915802e-001 5.000000e-002 5.000000e-002 5.000000e-002 6.432530e-002 1.023470e-001 1.097942e-001 1.225109e-001 1.897977e-001 1.361222e-001 1.087672e-001 1.027284e-001 1.087969e-001 
<GCONST> 5.544188e+001
<STATE> 19
<MEAN> 36
-1.902874e+000 -6.608056e+000 -9.625422e+000 -1.184213e+001 1.619264e+001 3.022220e+000 -7.683441e+000 1.268981e+001 -1.059515e+001 -9.774869e+000 -6.238904e+000 -6.770065e+000 -4.049014e-001 3.072352e-001 6.256619e-001 3.262423e-001 -4.732201e-001 4.017709e-001 4.419865e-001 -3.251863e-001 4.526142e-002 2.134014e-002 2.833281e-001 2.612666e-001 -2.139209e-002 -1.222631e-002 2.907842e-002 1.357488e-001 -1.385434e-001 -1.761935e-001 7.637178e-002 -2.572682e-002 1.234574e-001 -7.691947e-002 -8.414137e-002 1.906358e-001 
<VARIANCE> 36
1.389129e+000 1.204787e+001 5.701733e+000 4.122291e+001 2.154741e+001 2.991141e+001 1.579773e+001 2.560474e+001 2.443577e+001 2.921790e+001 9.749937e+000 1.385107e+001 5.302778e-002 1.386430e-001 1.829840e-001 7.064114e-001 6.423544e-001 1.274498e+000 6.077880e-001 7.236864e-001 1.059491e+000 8.307465e-001 7.624635e-001 1.358351e+000 5.000000e-002 5.000000e-002 5.000000e-002 1.176153e-001 1.431543e-001 2.397663e-001 1.349669e-001 1.327017e-001 1.983583e-001 1.539445e-001 1.760419e-001 2.299901e-001 
<GCONST> 6.509839e+001
<STATE> 20
<MEAN> 36
-3.592469e+000 -8.596904e+000 -6.978858e+000 -6.838045e+000 1.486964e+001 -2.196781e+000 -8.417809e+000 1.641889e+001 -9.877044e+000 -1.540954e+001 -5.859602e+000 -1.618019e+000 -4.441310e-001 1.088608e-001 2.970196e-001 5.313461e-001 -1.268985e-002 1.911215e-001 -1.239188e-001 -2.946592e-001 3.794788e-001 -3.268659e-001 3.054198e-001 5.913610e-001 -3.437243e-002 -2.902562e-003 -3.188652e-002 -5.751223e-002 1.710335e-001 1.513603e-001 -2.244686e-002 -3.080910e-002 -1.083479e-001 1.174681e-001 1.140691e-001 -1.173382e-001 
<VARIANCE> 36
1.609635e+000 7.251867e+000 4.825959e+000 1.144979e+001 1.691653e+001 4.133195e+001 1.907636e+001 5.264730e+001 2.973814e+001 2.940507e+001 1.307327e+001 1.225993e+001 1.339057e-001 1.126013e-001 5.429390e-001 4.326953e-001 1.054755e+000 1.184469e+000 7.427883e-001 9.063214e-001 1.132146e+000 7.654967e-001 1.049551e+000 4.945880e-001 5.000000e-002 5.000000e-002 9.019482e-002 5.000000e-002 1.570818e-001 1.565318e-001 1.345184e-001 1.607546e-001 2.253776e-001 1.791119e-001 2.324177e-001 1.371320e-001 
<GCONST> 6.574229e+001
<STATE> 21
<MEAN> 36
-6.038857e+000 -6.158231e+000 -5.161221e+000 -6.686009e+000 1.475228e+001 3.795741e+000 -6.464582e+000 1.177207e+001 -8.814134e+000 -1.080341e+001 -2.595913e+000 -2.314018e+000 -4.838938e-001 1.428790e-001 1.148153e-001 5.221037e-001 -2.365768e-001 5.209933e-001 7.059985e-001 -3.425218e-001 1.889985e-001 8.391356e-001 6.704773e-001 8.825946e-002 4.519905e-002 -5.769949e-002 -1.594177e-001 -1.025080e-002 -1.783218e-001 7.779175e-003 1.511578e-001 5.306750e-002 2.064990e-001 1.043977e-001 -2.323426e-002 5.120469e-002 
<VARIANCE> 36
2.480712e+000 1.125178e+001 9.314356e+000 1.604318e+001 2.556564e+001 1.974275e+001 3.104416e+001 3.051600e+001 2.393889e+001 2.659643e+001 1.561990e+001 1.517301e+001 9.621659e-002 1.662454e-001 5.242002e-001 6.119311e-001 1.292538e+000 1.329712e+000 1.107063e+000 1.374185e+000 1.902146e+000 1.086944e+000 1.526955e+000 1.158349e+000 5.000000e-002 5.000000e-002 9.037188e-002 1.082250e-001 2.507406e-001 2.781900e-001 2.298563e-001 2.286045e-001 3.567356e-001 2.290308e-001 2.766862e-001 2.110204e-001 
<GCONST> 7.491384e+001
<STATE> 22
<MEAN> 36
-8.452533e+000 -8.445733e+000 -8.292718e+000 -1.684382e+000 1.139656e+001 6.090994e+000 -1.348609e+000 7.251179e+000 -3.938251e+000 -3.840022e+000 2.358134e-001 -1.314744e+000 -2.549290e-001 -1.121564e-002 -5.480512e-002 3.187143e-001 -7.195063e-001 5.549207e-002 5.894662e-001 -3.952452e-001 5.346965e-001 5.883309e-001 3.718181e-002 -6.251978e-002 1.140694e-002 6.295335e-002 1.115155e-001 2.123255e-003 -3.935623e-002 -1.422502e-001 -2.671862e-002 -2.010113e-002 -4.614555e-002 -6.328491e-002 -1.242526e-001 -5.466826e-002 
<VARIANCE> 36
2.641253e+000 2.849948e+001 7.093451e+000 2.091198e+001 1.437791e+001 1.489208e+001 2.287292e+001 4.569182e+001 2.495461e+001 4.340113e+001 1.604410e+001 2.086618e+001 1.134162e-001 6.826348e-001 6.862654e-001 7.329760e-001 1.208989e+000 1.174743e+000 1.524411e+000 1.630697e+000 2.271244e+000 1.388453e+000 1.650935e+000 9.299499e-001 5.000000e-002 5.901519e-002 1.074598e-001 1.463124e-001 2.002376e-001 2.185786e-001 3.025350e-001 3.492429e-001 4.197534e-001 2.676018e-001 3.237562e-001 1.983393e-001 
<GCONST> 7.991005e+001
<STATE> 23
<MEAN> 36
-1.056306e+001 -2.633630e+000 -3.782069e+000 -4.937023e-001 4.470438e+000 3.951549e+000 1.572221e+000 5.014983e+000 -4.895120e-001 -2.727364e+000 -1.022196e+000 -5.844899e-001 -1.904063e-001 2.422958e-001 3.141822e-001 2.870540e-001 -4.001545e-001 -1.996969e-001 1.338014e-001 -3.283142e-001 2.360450e-001 2.670791e-001 3.173926e-003 7.579666e-002 1.447912e-002 -1.976639e-002 -2.402991e-002 -8.606724e-004 9.194077e-002 3.221252e-002 -6.818629e-002 3.468304e-002 -2.238099e-002 -1.468593e-002 4.887283e-002 1.923215e-002 
<VARIANCE> 36
2.128605e+000 1.047362e+001 9.271590e+000 8.586064e+000 8.737527e+000 7.786230e+000 9.472990e+000 1.934519e+001 1.529657e+001 1.529383e+001 1.090500e+001 1.063997e+001 7.524255e-002 1.958897e-001 4.587081e-001 4.993915e-001 6.143339e-001 7.202635e-001 1.039302e+000 1.186983e+000 1.528057e+000 1.246480e+000 1.270317e+000 9.842915e-001 5.000000e-002 5.000000e-002 9.826032e-002 1.148001e-001 1.233091e-001 1.543466e-001 2.078734e-001 2.499121e-001 3.492985e-001 2.476660e-001 2.228397e-001 1.695112e-001 
<GCONST> 6.473730e+001
<TRANSP> 25
0.000000e+000 1.000000e+000 0.000000e+000 0.000000e+000 0.000000e+000 0.000000e+000 0.000000e+000 0.000000e+000 0.000000e+000 0.000000e+000 0.000000e+000 0.000000e+000 0.000000e+000 0.000000e+000 0.000000e+000 0.000000e+000 0.000000e+000 0.000000e+000 0.000000e+000 0.000000e+000 0.000000e+000 0.000000e+000 0.000000e+000 0.000000e+000 0.000000e+000 
0.000000e+000 7.499957e-001 2.500043e-001 0.000000e+000 0.000000e+000 0.000000e+000 0.000000e+000 0.000000e+000 0.000000e+000 0.000000e+000 0.000000e+000 0.000000e+000 0.000000e+000 0.000000e+000 0.000000e+000 0.000000e+000 0.000000e+000 0.000000e+000 0.000000e+000 0.000000e+000 0.000000e+000 0.000000e+000 0.000000e+000 0.000000e+000 0.000000e+000 
0.000000e+000 0.000000e+000 6.036745e-001 3.963255e-001 0.000000e+000 0.000000e+000 0.000000e+000 0.000000e+000 0.000000e+000 0.000000e+000 0.000000e+000 0.000000e+000 0.000000e+000 0.000000e+000 0.000000e+000 0.000000e+000 0.000000e+000 0.000000e+000 0.000000e+000 0.000000e+000 0.000000e+000 0.000000e+000 0.000000e+000 0.000000e+000 0.000000e+000 
0.000000e+000 0.000000e+000 0.000000e+000 7.546560e-001 2.453440e-001 0.000000e+000 0.000000e+000 0.000000e+000 0.000000e+000 0.000000e+000 0.000000e+000 0.000000e+000 0.000000e+000 0.000000e+000 0.000000e+000 0.000000e+000 0.000000e+000 0.000000e+000 0.000000e+000 0.000000e+000 0.000000e+000 0.000000e+000 0.000000e+000 0.000000e+000 0.000000e+000 
0.000000e+000 0.000000e+000 0.000000e+000 0.000000e+000 5.287981e-001 4.712019e-001 0.000000e+000 0.000000e+000 0.000000e+000 0.000000e+000 0.000000e+000 0.000000e+000 0.000000e+000 0.000000e+000 0.000000e+000 0.000000e+000 0.000000e+000 0.000000e+000 0.000000e+000 0.000000e+000 0.000000e+000 0.000000e+000 0.000000e+000 0.000000e+000 0.000000e+000 
0.000000e+000 0.000000e+000 0.000000e+000 0.000000e+000 0.000000e+000 3.849938e-001 6.150062e-001 0.000000e+000 0.000000e+000 0.000000e+000 0.000000e+000 0.000000e+000 0.000000e+000 0.000000e+000 0.000000e+000 0.000000e+000 0.000000e+000 0.000000e+000 0.000000e+000 0.000000e+000 0.000000e+000 0.000000e+000 0.000000e+000 0.000000e+000 0.000000e+000 
0.000000e+000 0.000000e+000 0.000000e+000 0.000000e+000 0.000000e+000 0.000000e+000 5.735030e-001 4.264970e-001 0.000000e+000 0.000000e+000 0.000000e+000 0.000000e+000 0.000000e+000 0.000000e+000 0.000000e+000 0.000000e+000 0.000000e+000 0.000000e+000 0.000000e+000 0.000000e+000 0.000000e+000 0.000000e+000 0.000000e+000 0.000000e+000 0.000000e+000 
0.000000e+000 0.000000e+000 0.000000e+000 0.000000e+000 0.000000e+000 0.000000e+000 0.000000e+000 8.430929e-001 1.569071e-001 0.000000e+000 0.000000e+000 0.000000e+000 0.000000e+000 0.000000e+000 0.000000e+000 0.000000e+000 0.000000e+000 0.000000e+000 0.000000e+000 0.000000e+000 0.000000e+000 0.000000e+000 0.000000e+000 0.000000e+000 0.000000e+000 
0.000000e+000 0.000000e+000 0.000000e+000 0.000000e+000 0.000000e+000 0.000000e+000 0.000000e+000 0.000000e+000 9.133912e-001 8.660883e-002 0.000000e+000 0.000000e+000 0.000000e+000 0.000000e+000 0.000000e+000 0.000000e+000 0.000000e+000 0.000000e+000 0.000000e+000 0.000000e+000 0.000000e+000 0.000000e+000 0.000000e+000 0.000000e+000 0.000000e+000 
0.000000e+000 0.000000e+000 0.000000e+000 0.000000e+000 0.000000e+000 0.000000e+000 0.000000e+000 0.000000e+000 0.000000e+000 9.057062e-001 9.429380e-002 0.000000e+000 0.000000e+000 0.000000e+000 0.000000e+000 0.000000e+000 0.000000e+000 0.000000e+000 0.000000e+000 0.000000e+000 0.000000e+000 0.000000e+000 0.000000e+000 0.000000e+000 0.000000e+000 
0.000000e+000 0.000000e+000 0.000000e+000 0.000000e+000 0.000000e+000 0.000000e+000 0.000000e+000 0.000000e+000 0.000000e+000 0.000000e+000 8.751493e-001 1.248506e-001 0.000000e+000 0.000000e+000 0.000000e+000 0.000000e+000 0.000000e+000 0.000000e+000 0.000000e+000 0.000000e+000 0.000000e+000 0.000000e+000 0.000000e+000 0.000000e+000 0.000000e+000 
0.000000e+000 0.000000e+000 0.000000e+000 0.000000e+000 0.000000e+000 0.000000e+000 0.000000e+000 0.000000e+000 0.000000e+000 0.000000e+000 0.000000e+000 7.302814e-001 2.697186e-001 0.000000e+000 0.000000e+000 0.000000e+000 0.000000e+000 0.000000e+000 0.000000e+000 0.000000e+000 0.000000e+000 0.000000e+000 0.000000e+000 0.000000e+000 0.000000e+000 
0.000000e+000 0.000000e+000 0.000000e+000 0.000000e+000 0.000000e+000 0.000000e+000 0.000000e+000 0.000000e+000 0.000000e+000 0.000000e+000 0.000000e+000 0.000000e+000 0.000000e+000 1.000000e+000 0.000000e+000 0.000000e+000 0.000000e+000 0.000000e+000 0.000000e+000 0.000000e+000 0.000000e+000 0.000000e+000 0.000000e+000 0.000000e+000 0.000000e+000 
0.000000e+000 0.000000e+000 0.000000e+000 0.000000e+000 0.000000e+000 0.000000e+000 0.000000e+000 0.000000e+000 0.000000e+000 0.000000e+000 0.000000e+000 0.000000e+000 0.000000e+000 7.849066e-001 2.150934e-001 0.000000e+000 0.000000e+000 0.000000e+000 0.000000e+000 0.000000e+000 0.000000e+000 0.000000e+000 0.000000e+000 0.000000e+000 0.000000e+000 
0.000000e+000 0.000000e+000 0.000000e+000 0.000000e+000 0.000000e+000 0.000000e+000 0.000000e+000 0.000000e+000 0.000000e+000 0.000000e+000 0.000000e+000 0.000000e+000 0.000000e+000 0.000000e+000 6.310308e-001 3.689692e-001 0.000000e+000 0.000000e+000 0.000000e+000 0.000000e+000 0.000000e+000 0.000000e+000 0.000000e+000 0.000000e+000 0.000000e+000 
0.000000e+000 0.000000e+000 0.000000e+000 0.000000e+000 0.000000e+000 0.000000e+000 0.000000e+000 0.000000e+000 0.000000e+000 0.000000e+000 0.000000e+000 0.000000e+000 0.000000e+000 0.000000e+000 0.000000e+000 8.544672e-001 1.455328e-001 0.000000e+000 0.000000e+000 0.000000e+000 0.000000e+000 0.000000e+000 0.000000e+000 0.000000e+000 0.000000e+000 
0.000000e+000 0.000000e+000 0.000000e+000 0.000000e+000 0.000000e+000 0.000000e+000 0.000000e+000 0.000000e+000 0.000000e+000 0.000000e+000 0.000000e+000 0.000000e+000 0.000000e+000 0.000000e+000 0.000000e+000 0.000000e+000 8.569644e-001 1.430356e-001 0.000000e+000 0.000000e+000 0.000000e+000 0.000000e+000 0.000000e+000 0.000000e+000 0.000000e+000 
0.000000e+000 0.000000e+000 0.000000e+000 0.000000e+000 0.000000e+000 0.000000e+000 0.000000e+000 0.000000e+000 0.000000e+000 0.000000e+000 0.000000e+000 0.000000e+000 0.000000e+000 0.000000e+000 0.000000e+000 0.000000e+000 0.000000e+000 7.690993e-001 2.309008e-001 0.000000e+000 0.000000e+000 0.000000e+000 0.000000e+000 0.000000e+000 0.000000e+000 
0.000000e+000 0.000000e+000 0.000000e+000 0.000000e+000 0.000000e+000 0.000000e+000 0.000000e+000 0.000000e+000 0.000000e+000 0.000000e+000 0.000000e+000 0.000000e+000 0.000000e+000 0.000000e+000 0.000000e+000 0.000000e+000 0.000000e+000 0.000000e+000 8.742764e-001 1.257235e-001 0.000000e+000 0.000000e+000 0.000000e+000 0.000000e+000 0.000000e+000 
0.000000e+000 0.000000e+000 0.000000e+000 0.000000e+000 0.000000e+000 0.000000e+000 0.000000e+000 0.000000e+000 0.000000e+000 0.000000e+000 0.000000e+000 0.000000e+000 0.000000e+000 0.000000e+000 0.000000e+000 0.000000e+000 0.000000e+000 0.000000e+000 0.000000e+000 7.119125e-001 2.880875e-001 0.000000e+000 0.000000e+000 0.000000e+000 0.000000e+000 
0.000000e+000 0.000000e+000 0.000000e+000 0.000000e+000 0.000000e+000 0.000000e+000 0.000000e+000 0.000000e+000 0.000000e+000 0.000000e+000 0.000000e+000 0.000000e+000 0.000000e+000 0.000000e+000 0.000000e+000 0.000000e+000 0.000000e+000 0.000000e+000 0.000000e+000 0.000000e+000 7.744646e-001 2.255354e-001 0.000000e+000 0.000000e+000 0.000000e+000 
0.000000e+000 0.000000e+000 0.000000e+000 0.000000e+000 0.000000e+000 0.000000e+000 0.000000e+000 0.000000e+000 0.000000e+000 0.000000e+000 0.000000e+000 0.000000e+000 0.000000e+000 0.000000e+000 0.000000e+000 0.000000e+000 0.000000e+000 0.000000e+000 0.000000e+000 0.000000e+000 0.000000e+000 8.155151e-001 1.844849e-001 0.000000e+000 0.000000e+000 
0.000000e+000 0.000000e+000 0.000000e+000 0.000000e+000 0.000000e+000 0.000000e+000 0.000000e+000 0.000000e+000 0.000000e+000 0.000000e+000 0.000000e+000 0.000000e+000 0.000000e+000 0.000000e+000 0.000000e+000 0.000000e+000 0.000000e+000 0.000000e+000 0.000000e+000 0.000000e+000 0.000000e+000 0.000000e+000 8.765594e-001 1.234405e-001 0.000000e+000 
0.000000e+000 0.000000e+000 0.000000e+000 0.000000e+000 0.000000e+000 0.000000e+000 0.000000e+000 0.000000e+000 0.000000e+000 0.000000e+000 0.000000e+000 0.000000e+000 0.000000e+000 0.000000e+000 0.000000e+000 0.000000e+000 0.000000e+000 0.000000e+000 0.000000e+000 0.000000e+000 0.000000e+000 0.000000e+000 0.000000e+000 9.044573e-001 9.554276e-002 
0.000000e+000 0.000000e+000 0.000000e+000 0.000000e+000 0.000000e+000 0.000000e+000 0.000000e+000 0.000000e+000 0.000000e+000 0.000000e+000 0.000000e+000 0.000000e+000 0.000000e+000 0.000000e+000 0.000000e+000 0.000000e+000 0.000000e+000 0.000000e+000 0.000000e+000 0.000000e+000 0.000000e+000 0.000000e+000 0.000000e+000 0.000000e+000 0.000000e+000 
