<HMMNAME> 4
<HMMSTATES> 25
<STATE> 1
<MEAN> 36
-1.064017e+001 -1.709027e+001 -6.452440e+000 -1.103371e+000 9.162696e+000 7.591882e+000 -3.236684e+000 2.462854e+000 -3.354686e+000 2.907152e+000 5.839991e+000 -1.207681e+000 -1.401791e-001 -1.971444e+000 1.985376e-001 -2.084787e-002 1.119442e+000 2.670062e-001 -7.634383e-001 9.276147e-002 -5.362287e-001 5.321416e-001 2.996032e-001 -3.151777e-001 -5.583868e-002 7.480945e-002 1.667766e-001 7.677828e-002 8.022111e-003 -7.866398e-002 4.087967e-002 -3.684061e-002 4.677139e-003 2.548522e-002 -1.763849e-001 -8.483284e-003 
<VARIANCE> 36
8.086412e+000 9.217718e+001 3.985837e+001 2.900189e+001 3.660225e+001 1.611934e+001 2.660501e+001 2.002937e+001 2.081869e+001 1.112345e+001 1.288104e+001 2.105809e+001 1.014926e+000 2.919828e+000 3.790707e+000 3.444775e+000 1.978027e+000 1.709414e+000 1.882370e+000 1.142770e+000 1.089637e+000 1.048827e+000 1.245214e+000 1.009609e+000 1.736882e-001 3.805560e-001 6.256366e-001 7.271138e-001 4.328089e-001 3.485852e-001 2.519565e-001 2.428966e-001 2.856111e-001 1.694992e-001 2.208849e-001 2.279746e-001 
<GCONST> 9.533300e+001
<STATE> 2
<MEAN> 36
-1.594426e+001 -2.917665e+001 5.513618e+000 -9.291470e-001 1.385568e+001 2.912112e+000 -7.720539e+000 8.290105e+000 -4.206330e+000 5.391523e+000 5.353787e-001 -2.979637e+000 -4.810500e-001 7.203456e-001 1.144190e+000 -2.969859e-001 -5.315290e-001 -7.272934e-001 3.459557e-001 8.142411e-001 1.690379e-001 -1.273549e-001 -3.255676e-001 1.633748e-001 1.148080e-001 3.139728e-001 -2.820957e-001 1.081498e-001 -7.541177e-002 1.192559e-001 5.862545e-002 -1.113823e-001 6.883713e-002 -4.775530e-002 1.169352e-001 -2.452078e-002 
<VARIANCE> 36
6.535097e+000 1.593602e+001 3.313227e+001 1.338159e+001 3.038918e+001 1.843881e+001 1.443481e+001 2.669271e+001 1.636350e+001 1.584624e+001 2.047798e+001 2.043684e+001 2.355945e-001 1.434793e+000 1.637376e+000 1.019922e+000 1.237216e+000 1.214463e+000 1.368896e+000 9.760153e-001 2.154142e+000 1.757304e+000 1.868781e+000 1.085232e+000 9.548635e-002 5.947070e-002 4.596760e-001 3.408878e-001 2.017084e-001 2.486322e-001 2.096872e-001 2.696195e-001 4.896347e-001 3.214044e-001 2.109848e-001 2.165411e-001 
<GCONST> 8.511918e+001
<STATE> 3
<MEAN> 36
-1.577162e+001 -1.709514e+001 5.684337e+000 3.044975e+000 9.075279e+000 1.614797e+000 -4.334499e+000 8.492261e+000 -2.541691e+000 3.889809e+000 2.563801e+000 -3.831817e+000 1.080177e+000 2.158224e+000 -2.097856e+000 1.469725e+000 -9.235921e-001 6.125982e-001 2.398791e-001 -1.738755e+000 1.064794e+000 -4.573552e-001 -3.007793e-001 -2.187039e-001 -4.820945e-002 -3.929477e-001 2.239467e-001 -3.293725e-001 -1.653808e-001 -5.504733e-002 1.682194e-002 1.112217e-001 -3.061861e-003 -2.728596e-001 -3.283759e-001 2.514758e-001 
<VARIANCE> 36
3.761714e+000 1.182612e+001 1.634758e+001 1.281739e+001 8.507148e+000 1.402958e+001 7.565764e+000 2.334335e+001 1.224393e+001 1.841472e+001 8.041451e+000 1.200996e+001 3.212690e-001 8.005218e-001 1.129842e+000 1.661490e+000 9.771196e-001 9.575571e-001 7.562921e-001 1.881512e+000 4.340196e-001 1.487723e+000 2.128993e+000 9.098590e-001 1.358478e-001 1.018741e-001 4.030066e-001 2.775704e-001 2.673408e-001 1.871730e-001 1.926144e-001 5.004735e-001 1.127160e-001 5.064835e-001 3.735703e-001 9.664744e-002 
<GCONST> 7.704059e+001
<STATE> 4
<MEAN> 36
-1.402538e+001 -9.707603e+000 2.137103e+000 3.690306e+000 4.972875e+000 2.438781e+000 -2.587593e+000 4.730089e+000 1.528692e-001 2.275356e+000 1.650617e+000 -1.043516e+000 8.960884e-002 6.396618e-001 -1.092251e-001 -2.053477e-001 -1.988777e-001 -4.001864e-004 2.086101e-001 -6.838647e-002 5.687201e-004 -1.420521e-001 -4.128668e-002 1.666842e-001 1.319512e-002 -5.182691e-002 6.490550e-002 -9.793147e-002 4.160068e-002 -2.089089e-002 -2.936699e-002 3.505028e-002 -1.089950e-001 -2.705886e-002 1.307538e-002 -2.421840e-002 
<VARIANCE> 36
8.830262e-001 8.944683e+000 2.760350e+000 5.003240e+000 5.826844e+000 7.185318e+000 1.032282e+001 8.496116e+000 8.392595e+000 1.067671e+001 1.398929e+001 9.832073e+000 1.168463e-001 2.288405e-001 2.845899e-001 5.020309e-001 6.050669e-001 6.039412e-001 8.405787e-001 7.444586e-001 1.027655e+000 1.391329e+000 1.414854e+000 8.451495e-001 5.000000e-002 7.639110e-002 7.008734e-002 8.994636e-002 1.516721e-001 1.291365e-001 1.819842e-001 1.353043e-001 2.046910e-001 2.734177e-001 3.147359e-001 2.051219e-001 
<GCONST> 5.808261e+001
<STATE> 5
<MEAN> 36
-1.179964e+001 -4.799939e+000 1.065407e+000 2.931141e-001 2.914310e+000 1.554746e+000 -1.450258e+000 4.653229e+000 -2.509203e+000 -4.941341e-001 8.202394e-001 -1.253368e+000 7.128477e-001 -6.276027e-001 -4.654661e-001 -1.918133e+000 -3.214763e-005 -1.058498e+000 -5.387626e-001 2.828544e-001 -9.871819e-001 -4.205365e-001 -3.248936e-001 -9.775065e-002 -1.056832e-003 -5.731279e-001 -4.609587e-002 -3.328907e-001 3.021568e-001 -1.781211e-001 -2.283130e-001 1.604208e-001 -1.392515e-001 8.614340e-002 7.674590e-002 2.064949e-003 
<VARIANCE> 36
1.183872e+000 2.975556e+000 2.973531e+000 7.561329e+000 5.308888e+000 5.070766e+000 1.074334e+001 7.258551e+000 8.288381e+000 6.477044e+000 9.728918e+000 9.552218e+000 1.287597e-001 1.328338e+000 6.775170e-001 1.774148e+000 1.091597e+000 5.277016e-001 1.633037e+000 8.320144e-001 8.441009e-001 1.028783e+000 9.621319e-001 1.759953e+000 5.000000e-002 8.404359e-002 1.843023e-001 2.142432e-001 1.862148e-001 2.466490e-001 2.975665e-001 1.676466e-001 1.751463e-001 2.209414e-001 1.846627e-001 2.333025e-001 
<GCONST> 6.407929e+001
<STATE> 6
<MEAN> 36
-9.728737e+000 -1.047066e+001 1.088947e-001 -8.285607e+000 6.185690e+000 -1.091545e+000 -4.021329e+000 7.228863e+000 -7.025250e+000 -2.642085e+000 1.045938e+000 -8.603970e-001 1.672526e-001 -1.443395e-001 2.484325e-001 3.209909e-002 7.983765e-001 7.324228e-001 -1.039950e-001 6.443375e-001 -3.283804e-001 -4.669494e-001 6.053064e-002 -4.447507e-001 7.055361e-002 5.611718e-001 -6.620946e-002 8.127867e-001 -2.728768e-002 3.217273e-001 2.808356e-001 2.848625e-002 2.763700e-001 -1.295157e-003 -2.232726e-001 -2.732669e-001 
<VARIANCE> 36
3.966222e+000 3.817064e+000 1.682997e+001 4.020187e+001 7.693253e+000 2.023732e+001 2.131163e+001 1.204400e+001 2.451145e+001 1.422611e+001 1.892793e+001 2.128763e+001 3.578177e-001 1.572635e+000 1.095679e+000 4.398440e+000 9.114372e-001 1.917288e+000 1.346940e+000 1.862688e+000 2.167428e+000 1.132861e+000 1.310087e+000 1.451313e+000 1.677286e-001 1.001016e-001 3.353174e-001 6.462281e-001 2.375623e-001 5.123507e-001 3.025656e-001 3.642206e-001 3.507485e-001 2.760386e-001 3.581345e-001 3.368556e-001 
<GCONST> 8.748552e+001
<STATE> 7
<MEAN> 36
-6.776062e+000 -7.663939e+000 -7.992965e-001 -3.812359e+000 8.111033e+000 1.940117e+000 -2.070253e+000 8.199836e+000 -7.630966e+000 -4.288785e+000 -1.944677e+000 -5.648757e+000 1.889514e+000 -6.487114e-002 -9.035102e-001 -3.417498e-001 6.544955e-001 -4.393848e-001 -3.393238e-002 5.268501e-001 -1.673147e+000 -1.384692e+000 -1.338344e+000 -1.650416e+000 2.446453e-001 -2.594946e-001 -2.507124e-001 -4.212558e-001 3.012372e-003 -4.676862e-001 -3.093436e-001 -1.335711e-001 -5.094623e-001 -3.096582e-001 -1.137738e-001 -3.214347e-002 
<VARIANCE> 36
1.146734e+001 1.690731e+001 1.002588e+001 3.142721e+001 1.152147e+001 1.810578e+001 1.561471e+001 3.777155e+001 2.435043e+001 1.146532e+001 1.338008e+001 1.600388e+001 5.690394e-001 1.045898e+000 8.264028e-001 1.883356e+000 1.639029e+000 1.172542e+000 1.085149e+000 2.130770e+000 1.522610e+000 1.882391e+000 1.227136e+000 1.163964e+000 1.905547e-001 2.340500e-001 1.956656e-001 3.586561e-001 2.313289e-001 1.507094e-001 1.725678e-001 3.797609e-001 2.849994e-001 2.359089e-001 2.198390e-001 3.075690e-001 
<GCONST> 8.548499e+001
<STATE> 8
<MEAN> 36
2.407778e-001 -8.689880e+000 -6.516828e+000 -7.568794e+000 1.102653e+001 -4.133180e+000 -5.625481e+000 1.091870e+001 -1.560226e+001 -1.088134e+001 -6.905108e+000 -9.453556e+000 9.350356e-001 1.092450e-001 -1.421219e+000 -6.004369e-001 2.637220e-001 -9.720613e-001 -5.430058e-001 -4.482221e-001 -1.558560e+000 -5.915989e-001 -4.358906e-001 -4.032803e-001 -3.462664e-001 1.046712e-001 1.294796e-001 1.103943e-001 -1.328586e-001 2.087749e-001 1.387753e-001 -1.280000e-001 1.994458e-001 4.623465e-001 4.154432e-001 2.484324e-001 
<VARIANCE> 36
2.443316e+000 4.813740e+000 1.344321e+001 2.141964e+001 1.082070e+001 2.856178e+001 3.543000e+001 2.565028e+001 1.527248e+001 1.063964e+001 1.583643e+001 5.550910e+000 3.360682e-001 6.111115e-001 6.187635e-001 1.017936e+000 9.434149e-001 8.819722e-001 1.441368e+000 1.015823e+000 8.128356e-001 8.804969e-001 8.744994e-001 6.454454e-001 5.000000e-002 7.938901e-002 1.170208e-001 2.221486e-001 2.551381e-001 1.167237e-001 2.240624e-001 2.930191e-001 7.757524e-002 1.155124e-001 1.587778e-001 1.584215e-001 
<GCONST> 6.983577e+001
<STATE> 9
<MEAN> 36
1.252731e+000 -9.882887e+000 -1.301578e+001 -5.358882e+000 8.629582e+000 -4.954118e+000 -2.809314e-001 5.517791e+000 -2.343253e+001 -9.214058e+000 -3.289616e+000 -1.031982e+001 5.541114e-003 -8.279082e-002 -8.667210e-002 -6.790429e-002 5.910717e-002 -7.074279e-002 2.972514e-002 9.052491e-002 -1.516528e-001 -7.838405e-002 3.714544e-002 1.211440e-001 -2.902668e-002 -1.431475e-002 6.179816e-002 1.632362e-002 -5.950263e-004 2.719884e-002 -7.849336e-003 5.198664e-002 9.549009e-002 -4.199603e-002 -1.514906e-002 1.177374e-002 
<VARIANCE> 36
8.045332e-001 1.891927e+000 7.866165e+000 1.073947e+001 4.486325e+000 7.006010e+000 9.681274e+000 2.504790e+001 1.373111e+001 1.143802e+001 5.236987e+000 6.568017e+000 5.000000e-002 1.452907e-001 2.091210e-001 3.778907e-001 3.990818e-001 4.652667e-001 5.454030e-001 4.205158e-001 8.981715e-001 6.026273e-001 4.601497e-001 5.566833e-001 5.000000e-002 5.000000e-002 5.105148e-002 8.803424e-002 8.453123e-002 8.128339e-002 1.064277e-001 9.933514e-002 1.748273e-001 9.685080e-002 6.598945e-002 1.191880e-001 
<GCONST> 4.610846e+001
<STATE> 10
<MEAN> 36
8.469801e-001 -1.083176e+001 -7.559680e+000 -1.252128e+001 1.452429e+001 -4.616868e+000 -1.250134e+001 1.221530e+001 -1.759120e+001 -1.477085e+001 -6.493157e+000 -6.012970e+000 -8.590802e-002 -9.904606e-002 5.630412e-002 -1.315962e-003 6.282327e-002 1.510924e-001 -6.926760e-002 6.364871e-002 1.815786e-001 -2.598799e-001 -1.544684e-002 2.317861e-001 -5.780383e-003 1.020499e-002 6.233184e-003 7.119887e-003 -1.979033e-002 4.885699e-002 2.306127e-002 -2.871461e-002 5.484490e-002 -1.079425e-002 -3.987658e-002 -6.495686e-003 
<VARIANCE> 36
1.375003e+000 4.683864e+000 8.883018e+000 9.532524e+000 1.065509e+001 1.475357e+001 1.486640e+001 1.996694e+001 1.183993e+001 2.280330e+001 1.278531e+001 8.330599e+000 5.209053e-002 1.603682e-001 2.825186e-001 3.307922e-001 5.565942e-001 5.992980e-001 6.177192e-001 7.859711e-001 5.020895e-001 5.743798e-001 9.121104e-001 4.154311e-001 5.000000e-002 5.000000e-002 5.000000e-002 6.375455e-002 1.133908e-001 9.840828e-002 1.308093e-001 1.476285e-001 9.185253e-002 9.435367e-002 1.902282e-001 8.944911e-002 
<GCONST> 5.328820e+001
<STATE> 11
<MEAN> 36
-1.672217e-001 -1.143148e+001 -7.672510e+000 -1.015087e+001 1.279835e+001 -1.351632e+000 -7.962851e+000 1.106791e+001 -1.604119e+001 -1.690983e+001 -7.592364e+000 -5.114486e+000 4.775575e-002 4.981157e-001 -4.517013e-001 -6.893359e-002 4.663979e-001 5.404510e-001 -2.559593e-001 -2.669708e-001 9.107168e-001 2.590117e-001 -5.722348e-001 -5.216496e-001 -1.891669e-004 2.612686e-001 -1.135284e-001 -1.633617e-001 1.258944e-001 2.220747e-001 3.351910e-003 -2.649281e-001 8.701859e-002 5.376396e-001 8.353461e-002 -2.146862e-001 
<VARIANCE> 36
3.025321e+000 8.279729e+000 1.922717e+001 2.128039e+001 1.667799e+001 2.076780e+001 4.470471e+001 1.613614e+001 2.028452e+001 1.168968e+001 1.998931e+001 1.183042e+001 9.254110e-002 1.968463e-001 4.382397e-001 3.783890e-001 1.155737e+000 5.755498e-001 7.340448e-001 8.675961e-001 5.081068e-001 6.577938e-001 5.582487e-001 2.176546e-001 5.000000e-002 5.000000e-002 7.551188e-002 5.000000e-002 2.792711e-001 1.935537e-001 1.239014e-001 2.279679e-001 1.245430e-001 1.362112e-001 8.607155e-002 5.101671e-002 
<GCONST> 6.133658e+001
<STATE> 12
<MEAN> 36
-6.160429e-001 -6.456175e+000 -7.847673e+000 -1.405283e+001 1.429136e+001 1.494909e+000 -9.432967e+000 9.646266e+000 -1.451484e+001 -1.443846e+001 -5.654457e+000 -6.482429e+000 -1.858035e-002 4.598932e-001 -9.494937e-002 -2.298798e-001 -6.798477e-002 1.068556e+000 2.818156e-001 -7.978389e-001 3.660360e-001 6.276736e-001 4.267043e-002 -6.974310e-001 -5.488621e-002 -1.202004e-002 1.885115e-002 3.248174e-002 -9.498446e-002 1.386271e-001 1.297509e-001 6.377566e-003 6.380610e-002 1.120156e-001 8.128681e-002 -3.866983e-002 
<VARIANCE> 36
1.131578e+000 3.382721e+000 9.109136e+000 2.076728e+001 7.448227e+000 1.561084e+001 3.324318e+001 1.115663e+001 8.492567e+000 6.298985e+000 8.221860e+000 9.855582e+000 5.000000e-002 2.142632e-001 9.309739e-002 4.506406e-001 6.816122e-001 1.116982e+000 5.001327e-001 7.407734e-001 8.641708e-001 1.036840e+000 3.626449e-001 4.784091e-001 5.000000e-002 5.000000e-002 5.000000e-002 9.700840e-002 2.046302e-001 1.519695e-001 1.384216e-001 1.205181e-001 1.445637e-001 1.619153e-001 1.143453e-001 7.695110e-002 
<GCONST> 5.358821e+001
<STATE> 13
<MEAN> 36
-8.679264e-001 -6.031898e+000 -1.041955e+001 -1.143853e+001 1.261574e+001 7.338507e+000 -4.307150e+000 5.639939e+000 -1.056853e+001 -9.745502e+000 -7.413834e+000 -1.168532e+001 -9.772371e-001 4.209215e-001 2.617007e-002 9.081646e-001 -9.619969e-001 9.310931e-001 1.271351e+000 -2.316116e-001 1.864392e+000 1.594832e+000 4.112785e-001 -1.179594e-001 -2.724819e-001 -2.089731e-001 1.787264e-001 5.424545e-001 -2.446627e-001 -6.208515e-001 3.226483e-002 1.521608e-001 7.029272e-002 1.541554e-002 1.001368e-001 5.482724e-001 
<VARIANCE> 36
2.513761e+000 7.611159e+000 8.594489e+000 2.578610e+001 1.495334e+001 2.007098e+001 4.558005e+001 9.906905e+000 1.910150e+001 9.229454e+000 1.078318e+001 1.126922e+001 2.934889e-001 3.564292e-001 6.104257e-001 1.870633e+000 4.939254e-001 1.494319e+000 9.663793e-001 8.381954e-001 1.251664e+000 1.185144e+000 1.191032e+000 1.330921e+000 5.000000e-002 5.000000e-002 7.262206e-002 1.182880e-001 9.868673e-002 1.224999e-001 2.323000e-001 1.374581e-001 2.661148e-001 2.957247e-001 2.448995e-001 1.057962e-001 
<GCONST> 6.971733e+001
<STATE> 14
<MEAN> 36
-5.161291e+000 -6.013912e+000 -9.575411e+000 -5.616911e+000 1.028913e+001 7.183125e+000 -1.222169e+000 6.203314e+000 -3.714148e+000 -3.515325e+000 -4.532992e+000 -7.850093e+000 6.401829e-002 2.927383e-001 -1.009541e-001 -3.717219e-001 6.468716e-002 4.491364e-001 1.344556e-001 3.088397e-001 2.384451e-001 3.020190e-001 3.036533e-001 1.913360e-001 2.780938e-001 4.466917e-002 -1.529790e-001 -4.160057e-001 1.875132e-001 1.715810e-001 -1.538859e-001 -1.167461e-002 -3.377677e-001 -2.486297e-001 -9.858507e-002 -2.648427e-001 
<VARIANCE> 36
2.847018e+000 6.819447e+000 5.973832e+000 1.453103e+001 2.238087e+001 2.185782e+001 3.594119e+001 1.102718e+001 1.692444e+001 2.077195e+001 1.888193e+001 1.080739e+001 7.595195e-001 4.514566e-001 6.199305e-001 2.811517e+000 1.247485e+000 1.652105e+000 9.455557e-001 1.266095e+000 2.241755e+000 1.792791e+000 1.067873e+000 1.424233e+000 5.000000e-002 7.770820e-002 9.229696e-002 3.124341e-001 2.602970e-001 2.855480e-001 2.659712e-001 2.980480e-001 3.069776e-001 2.891196e-001 1.594377e-001 1.634496e-001 
<GCONST> 7.884778e+001
<STATE> 15
<MEAN> 36
-1.105958e+000 -2.484226e+000 -1.328790e+001 -1.188601e+001 1.148866e+001 1.186828e+001 1.055803e-001 3.611866e+000 -7.346515e+000 -5.155359e+000 -7.591973e+000 -1.147658e+001 1.396684e-001 4.774591e-002 -1.928732e-001 -2.441771e-001 4.067573e-001 1.442127e-001 -3.057878e-001 -2.139091e-001 -3.031843e-001 -1.766739e-001 -2.192563e-001 -1.191968e-001 -6.677601e-002 -2.234940e-002 5.471901e-002 1.030908e-001 8.599064e-003 -9.796785e-002 2.499915e-002 6.997931e-002 4.705679e-002 -3.833953e-002 4.265713e-002 1.190957e-001 
<VARIANCE> 36
1.381091e+000 4.453898e+000 3.108053e+000 2.500401e+001 1.860166e+001 1.602308e+001 1.861155e+001 9.931525e+000 2.375900e+001 6.962338e+000 1.435310e+001 9.315960e+000 1.063601e-001 1.293559e-001 2.092227e-001 5.737076e-001 5.062380e-001 5.386824e-001 5.642615e-001 5.617568e-001 6.920574e-001 6.329225e-001 3.934999e-001 8.351233e-001 5.000000e-002 5.000000e-002 5.000000e-002 9.823053e-002 1.318456e-001 1.045535e-001 1.408079e-001 7.425134e-002 1.521198e-001 1.049751e-001 5.670018e-002 1.584891e-001 
<GCONST> 5.345983e+001
<STATE> 16
<MEAN> 36
-2.238819e+000 -6.523593e+000 -1.190410e+001 -1.456177e+001 2.074705e+001 1.012346e+001 -1.070773e+001 9.249301e+000 -6.971815e+000 -7.200270e+000 -7.018102e+000 -7.306855e+000 -7.474590e-002 -1.065338e-001 2.079742e-002 6.594240e-002 5.659387e-001 -1.219033e-001 -2.393088e-001 4.211733e-002 -2.771920e-001 -2.459314e-001 -2.203722e-001 2.064898e-001 -2.653217e-002 2.723202e-003 3.331559e-002 5.514966e-002 -7.911129e-002 1.991274e-002 8.509358e-002 -6.828308e-002 -1.554650e-002 7.676038e-002 -1.507440e-002 2.734173e-003 
<VARIANCE> 36
1.817710e+000 3.044462e+000 2.219524e+000 8.303866e+000 2.028788e+001 1.049076e+001 1.701235e+001 1.277276e+001 2.085039e+001 7.656551e+000 1.910731e+001 1.329862e+001 5.000000e-002 9.661972e-002 1.238517e-001 4.449570e-001 5.931022e-001 8.010994e-001 7.002484e-001 7.704043e-001 1.070060e+000 7.635365e-001 8.709790e-001 8.028103e-001 5.000000e-002 5.000000e-002 5.000000e-002 8.782335e-002 1.189558e-001 1.450206e-001 8.968174e-002 8.990197e-002 2.338824e-001 1.533706e-001 1.567572e-001 1.503393e-001 
<GCONST> 5.461282e+001
<STATE> 17
<MEAN> 36
-2.644992e+000 -5.226250e+000 -1.211254e+001 -1.043459e+001 2.006014e+001 7.910720e+000 -6.025079e+000 8.738199e+000 -9.851223e+000 -8.867001e+000 -8.012650e+000 -7.432017e+000 -2.037123e-001 1.048266e-001 3.710096e-001 3.369060e-001 -8.949682e-001 -1.967253e-001 5.324193e-001 -2.584696e-001 -6.343844e-001 -2.928744e-001 5.624840e-002 4.480519e-001 -6.355423e-002 -1.095199e-001 1.137851e-001 1.058494e-001 -7.933439e-002 -1.973073e-002 -2.491167e-002 -2.115027e-002 9.430045e-002 7.791858e-002 -1.442924e-001 9.956766e-002 
<VARIANCE> 36
2.208966e+000 1.464578e+001 1.858013e+000 1.778363e+001 4.430473e+001 2.791689e+001 4.050181e+001 4.652100e+001 1.397584e+001 1.048892e+001 1.237693e+001 1.144295e+001 5.000000e-002 5.596280e-002 7.006919e-002 2.322338e-001 2.106803e-001 3.578522e-001 8.478760e-001 2.417720e-001 5.039939e-001 4.454301e-001 4.498148e-001 2.455515e-001 5.000000e-002 5.000000e-002 5.000000e-002 5.390087e-002 1.198599e-001 5.000000e-002 8.105947e-002 1.379121e-001 5.000000e-002 2.050548e-001 1.469340e-001 5.000000e-002 
<GCONST> 4.886407e+001
<STATE> 18
<MEAN> 36
-2.636253e+000 -4.297837e+000 -1.259866e+001 -1.132588e+001 1.602011e+001 1.047725e+001 -4.017611e+000 6.130920e+000 -1.211118e+001 -1.006721e+001 -9.175780e+000 -7.410782e+000 -4.158592e-001 -1.593670e-001 4.902963e-001 5.872484e-001 -6.268230e-001 1.547919e-001 5.724070e-001 -3.663919e-001 -2.896394e-001 1.756780e-001 -4.779144e-001 5.877132e-001 -8.363296e-002 -1.308774e-001 7.503959e-002 2.013433e-001 2.071854e-001 -9.759401e-002 3.828966e-003 4.371521e-002 4.079932e-001 2.006812e-001 8.101469e-002 -1.430584e-001 
<VARIANCE> 36
1.927387e+000 1.202855e+001 6.211825e+000 2.656417e+001 3.909832e+001 3.041914e+001 5.006250e+001 2.618109e+001 1.669080e+001 1.221491e+001 1.517151e+001 1.450680e+001 5.000000e-002 1.698979e-001 2.016957e-001 4.003572e-001 4.046212e-001 1.411628e-001 1.469702e+000 3.232349e-001 3.633738e-001 1.008551e+000 8.970884e-001 3.209937e-001 5.000000e-002 5.000000e-002 5.000000e-002 5.000000e-002 9.731777e-002 5.000000e-002 1.441842e-001 6.779463e-002 5.000000e-002 5.000000e-002 1.507471e-001 7.889550e-002 
<GCONST> 5.388402e+001
<STATE> 19
<MEAN> 36
-3.170400e+000 -2.590770e+000 -1.151639e+001 -9.935673e+000 1.342868e+001 1.148382e+001 1.710757e+000 3.210724e+000 -1.326518e+001 -8.217369e+000 -7.675235e+000 -9.061786e+000 -3.829712e-001 -2.501700e-001 3.070043e-001 5.581837e-001 -1.893322e-001 -1.440130e-001 5.912779e-001 2.693601e-001 2.960382e-001 2.370902e-002 1.330014e-001 2.151747e-001 -3.200452e-002 -1.767027e-002 -1.176149e-002 6.105080e-002 -2.993779e-002 4.203138e-002 8.314043e-002 7.425554e-002 1.669443e-001 -2.524814e-002 6.874640e-002 3.616885e-002 
<VARIANCE> 36
2.709234e+000 3.972537e+000 2.743549e+000 1.506641e+001 1.692907e+001 8.165699e+000 3.299680e+001 1.386233e+001 2.417399e+001 1.193596e+001 1.003529e+001 1.513087e+001 8.080078e-002 8.716341e-002 1.455089e-001 3.691639e-001 5.078132e-001 6.058192e-001 1.039775e+000 1.010706e+000 8.527187e-001 6.725526e-001 7.157349e-001 9.630905e-001 5.000000e-002 5.000000e-002 5.000000e-002 5.889753e-002 1.006021e-001 1.288382e-001 2.705968e-001 1.987702e-001 1.653978e-001 1.774534e-001 1.134629e-001 1.415958e-001 
<GCONST> 5.731943e+001
<STATE> 20
<MEAN> 36
-7.477145e+000 -8.467951e+000 -9.640388e+000 -5.382483e+000 1.978503e+001 8.900002e+000 -3.905103e+000 8.804502e+000 -7.105437e+000 -7.062898e+000 -3.543461e+000 -1.581625e+000 -3.258987e-001 5.128747e-002 -5.815267e-002 5.366932e-001 -7.379441e-001 6.411686e-002 7.413841e-001 -3.338311e-001 4.467902e-001 2.310371e-001 4.426746e-001 4.266788e-001 3.128013e-003 8.058203e-002 1.408544e-003 -2.865378e-002 -8.741712e-002 -6.298039e-003 -1.114858e-002 -1.188630e-001 -2.988769e-002 7.732654e-002 -1.162198e-002 -6.053163e-002 
<VARIANCE> 36
2.436065e+000 6.428059e+000 4.068127e+000 1.402423e+001 2.792414e+001 2.924830e+001 3.725720e+001 2.269852e+001 1.716393e+001 2.352298e+001 1.612149e+001 2.118657e+001 1.007303e-001 3.547487e-001 2.998590e-001 8.789769e-001 1.121021e+000 1.433110e+000 8.391331e-001 1.004463e+000 8.072530e-001 1.708952e+000 1.192229e+000 7.288390e-001 5.000000e-002 5.000000e-002 8.981117e-002 1.827356e-001 1.181265e-001 2.945922e-001 1.263231e-001 1.877835e-001 1.245421e-001 3.626666e-001 2.459116e-001 1.391519e-001 
<GCONST> 7.038457e+001
<STATE> 21
<MEAN> 36
-7.006769e+000 -4.433797e+000 -1.009227e+001 -3.639015e+000 9.715460e+000 1.244674e+001 7.706429e+000 2.414685e+000 -8.209473e+000 -6.363252e+000 -5.821013e+000 -5.339172e+000 -6.440531e-001 -8.080300e-002 4.531300e-001 6.691065e-001 -1.858747e-001 -7.916076e-002 5.589962e-002 -6.996809e-001 6.775469e-001 1.369205e+000 1.195374e+000 4.015279e-001 3.309166e-002 1.432349e-002 5.571423e-003 -7.506151e-002 1.739028e-001 -2.877487e-001 -4.674252e-001 1.813588e-002 1.110262e-001 3.229202e-001 3.683735e-001 1.200919e-001 
<VARIANCE> 36
3.415112e+000 1.909291e+000 2.190073e+000 3.851638e+000 7.722504e+000 6.335732e+000 1.345387e+001 5.298443e+000 1.102624e+001 7.126534e+000 2.276095e+001 1.906554e+001 5.000000e-002 3.557035e-001 2.746916e-001 3.850023e-001 9.355392e-001 8.565374e-001 1.506792e+000 9.630300e-001 1.618589e+000 1.516891e+000 1.701864e+000 1.186099e+000 5.000000e-002 5.000000e-002 7.954755e-002 1.085699e-001 1.721996e-001 7.437510e-002 1.736064e-001 1.648461e-001 2.895084e-001 2.247635e-001 2.862456e-001 9.920725e-002 
<GCONST> 5.929202e+001
<STATE> 22
<MEAN> 36
-9.346000e+000 -4.309955e+000 -8.739118e+000 -2.053184e+000 8.508975e+000 9.925980e+000 4.594917e+000 1.926221e+000 -3.694428e+000 -2.033988e+000 -8.078918e-001 -1.393537e+000 -2.395481e-001 3.550718e-001 5.056662e-001 2.985602e-001 -5.865172e-001 -3.686027e-001 -3.415901e-001 -3.666997e-002 4.884452e-001 3.293762e-001 1.943238e-001 3.026457e-001 4.354472e-002 3.571503e-002 8.647558e-002 -4.262084e-003 -2.542299e-002 -7.438951e-003 -2.989340e-002 4.304251e-002 -5.691076e-002 -1.085183e-001 -1.252583e-001 -6.686273e-002 
<VARIANCE> 36
1.538986e+000 3.025450e+000 5.332604e+000 4.539161e+000 7.935135e+000 1.072084e+001 1.322514e+001 8.532700e+000 9.595113e+000 1.071766e+001 9.016155e+000 9.269650e+000 8.899162e-002 2.390539e-001 7.468496e-001 3.992881e-001 3.818647e-001 9.039802e-001 7.954504e-001 1.050046e+000 9.026166e-001 1.191874e+000 1.259373e+000 9.466006e-001 5.000000e-002 5.000000e-002 1.096712e-001 6.805030e-002 8.786479e-002 2.065583e-001 1.905635e-001 2.392497e-001 2.138621e-001 2.783763e-001 2.619601e-001 1.920008e-001 
<GCONST> 5.926429e+001
<STATE> 23
<MEAN> 36
-1.143456e+001 -1.387955e+000 -3.149223e+000 8.768442e-001 3.510120e+000 5.051113e+000 2.927526e+000 2.335906e+000 -8.622264e-001 1.056062e-001 2.383633e-001 2.660126e-001 -1.433030e-001 1.318928e-001 3.230405e-001 2.647128e-001 -1.227331e-001 -3.574747e-001 -8.950111e-002 -1.313455e-002 2.012320e-001 1.399350e-001 1.456260e-002 4.855801e-002 1.421569e-003 -2.728648e-002 -5.667784e-002 -2.230783e-002 3.550028e-002 3.207814e-002 3.112642e-002 2.201944e-002 -1.557533e-002 -7.035253e-002 -5.454249e-002 -1.003321e-002 
<VARIANCE> 36
1.353120e+000 2.077934e+000 4.305614e+000 5.611608e+000 6.917799e+000 7.698095e+000 1.119169e+001 9.629470e+000 9.936974e+000 7.693588e+000 9.456801e+000 7.294816e+000 8.535913e-002 2.040504e-001 2.919261e-001 6.513853e-001 5.511946e-001 7.795616e-001 1.086163e+000 1.062026e+000 1.084746e+000 8.407203e-001 8.806370e-001 8.532969e-001 5.000000e-002 5.000000e-002 6.654387e-002 1.418434e-001 1.087326e-001 1.419655e-001 2.644740e-001 2.539523e-001 1.915689e-001 1.790730e-001 1.725404e-001 1.739686e-001 
<GCONST> 5.641326e+001
<TRANSP> 25
0.000000e+000 1.000000e+000 0.000000e+000 0.000000e+000 0.000000e+000 0.000000e+000 0.000000e+000 0.000000e+000 0.000000e+000 0.000000e+000 0.000000e+000 0.000000e+000 0.000000e+000 0.000000e+000 0.000000e+000 0.000000e+000 0.000000e+000 0.000000e+000 0.000000e+000 0.000000e+000 0.000000e+000 0.000000e+000 0.000000e+000 0.000000e+000 0.000000e+000 
0.000000e+000 8.299254e-001 1.700744e-001 0.000000e+000 0.000000e+000 0.000000e+000 0.000000e+000 0.000000e+000 0.000000e+000 0.000000e+000 0.000000e+000 0.000000e+000 0.000000e+000 0.000000e+000 0.000000e+000 0.000000e+000 0.000000e+000 0.000000e+000 0.000000e+000 0.000000e+000 0.000000e+000 0.000000e+000 0.000000e+000 0.000000e+000 0.000000e+000 
0.000000e+000 0.000000e+000 8.595869e-001 1.404131e-001 0.000000e+000 0.000000e+000 0.000000e+000 0.000000e+000 0.000000e+000 0.000000e+000 0.000000e+000 0.000000e+000 0.000000e+000 0.000000e+000 0.000000e+000 0.000000e+000 0.000000e+000 0.000000e+000 0.000000e+000 0.000000e+000 0.000000e+000 0.000000e+000 0.000000e+000 0.000000e+000 0.000000e+000 
0.000000e+000 0.000000e+000 0.000000e+000 6.491300e-001 3.508700e-001 0.000000e+000 0.000000e+000 0.000000e+000 0.000000e+000 0.000000e+000 0.000000e+000 0.000000e+000 0.000000e+000 0.000000e+000 0.000000e+000 0.000000e+000 0.000000e+000 0.000000e+000 0.000000e+000 0.000000e+000 0.000000e+000 0.000000e+000 0.000000e+000 0.000000e+000 0.000000e+000 
0.000000e+000 0.000000e+000 0.000000e+000 0.000000e+000 9.193422e-001 8.065765e-002 0.000000e+000 0.000000e+000 0.000000e+000 0.000000e+000 0.000000e+000 0.000000e+000 0.000000e+000 0.000000e+000 0.000000e+000 0.000000e+000 0.000000e+000 0.000000e+000 0.000000e+000 0.000000e+000 0.000000e+000 0.000000e+000 0.000000e+000 0.000000e+000 0.000000e+000 
0.000000e+000 0.000000e+000 0.000000e+000 0.000000e+000 0.000000e+000 7.228552e-001 2.771448e-001 0.000000e+000 0.000000e+000 0.000000e+000 0.000000e+000 0.000000e+000 0.000000e+000 0.000000e+000 0.000000e+000 0.000000e+000 0.000000e+000 0.000000e+000 0.000000e+000 0.000000e+000 0.000000e+000 0.000000e+000 0.000000e+000 0.000000e+000 0.000000e+000 
0.000000e+000 0.000000e+000 0.000000e+000 0.000000e+000 0.000000e+000 0.000000e+000 7.416704e-001 2.583296e-001 0.000000e+000 0.000000e+000 0.000000e+000 0.000000e+000 0.000000e+000 0.000000e+000 0.000000e+000 0.000000e+000 0.000000e+000 0.000000e+000 0.000000e+000 0.000000e+000 0.000000e+000 0.000000e+000 0.000000e+000 0.000000e+000 0.000000e+000 
0.000000e+000 0.000000e+000 0.000000e+000 0.000000e+000 0.000000e+000 0.000000e+000 0.000000e+000 7.398019e-001 2.601981e-001 0.000000e+000 0.000000e+000 0.000000e+000 0.000000e+000 0.000000e+000 0.000000e+000 0.000000e+000 0.000000e+000 0.000000e+000 0.000000e+000 0.000000e+000 0.000000e+000 0.000000e+000 0.000000e+000 0.000000e+000 0.000000e+000 
0.000000e+000 0.000000e+000 0.000000e+000 0.000000e+000 0.000000e+000 0.000000e+000 0.000000e+000 0.000000e+000 7.574949e-001 2.425052e-001 0.000000e+000 0.000000e+000 0.000000e+000 0.000000e+000 0.000000e+000 0.000000e+000 0.000000e+000 0.000000e+000 0.000000e+000 0.000000e+000 0.000000e+000 0.000000e+000 0.000000e+000 0.000000e+000 0.000000e+000 
0.000000e+000 0.000000e+000 0.000000e+000 0.000000e+000 0.000000e+000 0.000000e+000 0.000000e+000 0.000000e+000 0.000000e+000 9.196754e-001 8.032466e-002 0.000000e+000 0.000000e+000 0.000000e+000 0.000000e+000 0.000000e+000 0.000000e+000 0.000000e+000 0.000000e+000 0.000000e+000 0.000000e+000 0.000000e+000 0.000000e+000 0.000000e+000 0.000000e+000 
0.000000e+000 0.000000e+000 0.000000e+000 0.000000e+000 0.000000e+000 0.000000e+000 0.000000e+000 0.000000e+000 0.000000e+000 0.000000e+000 9.377570e-001 6.224299e-002 0.000000e+000 0.000000e+000 0.000000e+000 0.000000e+000 0.000000e+000 0.000000e+000 0.000000e+000 0.000000e+000 0.000000e+000 0.000000e+000 0.000000e+000 0.000000e+000 0.000000e+000 
0.000000e+000 0.000000e+000 0.000000e+000 0.000000e+000 0.000000e+000 0.000000e+000 0.000000e+000 0.000000e+000 0.000000e+000 0.000000e+000 0.000000e+000 6.337998e-001 3.662002e-001 0.000000e+000 0.000000e+000 0.000000e+000 0.000000e+000 0.000000e+000 0.000000e+000 0.000000e+000 0.000000e+000 0.000000e+000 0.000000e+000 0.000000e+000 0.000000e+000 
0.000000e+000 0.000000e+000 0.000000e+000 0.000000e+000 0.000000e+000 0.000000e+000 0.000000e+000 0.000000e+000 0.000000e+000 0.000000e+000 0.000000e+000 0.000000e+000 7.804790e-001 2.195210e-001 0.000000e+000 0.000000e+000 0.000000e+000 0.000000e+000 0.000000e+000 0.000000e+000 0.000000e+000 0.000000e+000 0.000000e+000 0.000000e+000 0.000000e+000 
0.000000e+000 0.000000e+000 0.000000e+000 0.000000e+000 0.000000e+000 0.000000e+000 0.000000e+000 0.000000e+000 0.000000e+000 0.000000e+000 0.000000e+000 0.000000e+000 0.000000e+000 7.266273e-001 2.733728e-001 0.000000e+000 0.000000e+000 0.000000e+000 0.000000e+000 0.000000e+000 0.000000e+000 0.000000e+000 0.000000e+000 0.000000e+000 0.000000e+000 
0.000000e+000 0.000000e+000 0.000000e+000 0.000000e+000 0.000000e+000 0.000000e+000 0.000000e+000 0.000000e+000 0.000000e+000 0.000000e+000 0.000000e+000 0.000000e+000 0.000000e+000 0.000000e+000 8.646051e-001 1.353949e-001 0.000000e+000 0.000000e+000 0.000000e+000 0.000000e+000 0.000000e+000 0.000000e+000 0.000000e+000 0.000000e+000 0.000000e+000 
0.000000e+000 0.000000e+000 0.000000e+000 0.000000e+000 0.000000e+000 0.000000e+000 0.000000e+000 0.000000e+000 0.000000e+000 0.000000e+000 0.000000e+000 0.000000e+000 0.000000e+000 0.000000e+000 0.000000e+000 9.015993e-001 9.840074e-002 0.000000e+000 0.000000e+000 0.000000e+000 0.000000e+000 0.000000e+000 0.000000e+000 0.000000e+000 0.000000e+000 
0.000000e+000 0.000000e+000 0.000000e+000 0.000000e+000 0.000000e+000 0.000000e+000 0.000000e+000 0.000000e+000 0.000000e+000 0.000000e+000 0.000000e+000 0.000000e+000 0.000000e+000 0.000000e+000 0.000000e+000 0.000000e+000 8.732649e-001 1.267351e-001 0.000000e+000 0.000000e+000 0.000000e+000 0.000000e+000 0.000000e+000 0.000000e+000 0.000000e+000 
0.000000e+000 0.000000e+000 0.000000e+000 0.000000e+000 0.000000e+000 0.000000e+000 0.000000e+000 0.000000e+000 0.000000e+000 0.000000e+000 0.000000e+000 0.000000e+000 0.000000e+000 0.000000e+000 0.000000e+000 0.000000e+000 0.000000e+000 4.551672e-001 5.448328e-001 0.000000e+000 0.000000e+000 0.000000e+000 0.000000e+000 0.000000e+000 0.000000e+000 
0.000000e+000 0.000000e+000 0.000000e+000 0.000000e+000 0.000000e+000 0.000000e+000 0.000000e+000 0.000000e+000 0.000000e+000 0.000000e+000 0.000000e+000 0.000000e+000 0.000000e+000 0.000000e+000 0.000000e+000 0.000000e+000 0.000000e+000 0.000000e+000 8.816813e-008 9.999999e-001 0.000000e+000 0.000000e+000 0.000000e+000 0.000000e+000 0.000000e+000 
0.000000e+000 0.000000e+000 0.000000e+000 0.000000e+000 0.000000e+000 0.000000e+000 0.000000e+000 0.000000e+000 0.000000e+000 0.000000e+000 0.000000e+000 0.000000e+000 0.000000e+000 0.000000e+000 0.000000e+000 0.000000e+000 0.000000e+000 0.000000e+000 0.000000e+000 8.108214e-001 1.891786e-001 0.000000e+000 0.000000e+000 0.000000e+000 0.000000e+000 
0.000000e+000 0.000000e+000 0.000000e+000 0.000000e+000 0.000000e+000 0.000000e+000 0.000000e+000 0.000000e+000 0.000000e+000 0.000000e+000 0.000000e+000 0.000000e+000 0.000000e+000 0.000000e+000 0.000000e+000 0.000000e+000 0.000000e+000 0.000000e+000 0.000000e+000 0.000000e+000 8.466560e-001 1.533440e-001 0.000000e+000 0.000000e+000 0.000000e+000 
0.000000e+000 0.000000e+000 0.000000e+000 0.000000e+000 0.000000e+000 0.000000e+000 0.000000e+000 0.000000e+000 0.000000e+000 0.000000e+000 0.000000e+000 0.000000e+000 0.000000e+000 0.000000e+000 0.000000e+000 0.000000e+000 0.000000e+000 0.000000e+000 0.000000e+000 0.000000e+000 0.000000e+000 5.693821e-001 4.306179e-001 0.000000e+000 0.000000e+000 
0.000000e+000 0.000000e+000 0.000000e+000 0.000000e+000 0.000000e+000 0.000000e+000 0.000000e+000 0.000000e+000 0.000000e+000 0.000000e+000 0.000000e+000 0.000000e+000 0.000000e+000 0.000000e+000 0.000000e+000 0.000000e+000 0.000000e+000 0.000000e+000 0.000000e+000 0.000000e+000 0.000000e+000 0.000000e+000 8.577385e-001 1.422615e-001 0.000000e+000 
0.000000e+000 0.000000e+000 0.000000e+000 0.000000e+000 0.000000e+000 0.000000e+000 0.000000e+000 0.000000e+000 0.000000e+000 0.000000e+000 0.000000e+000 0.000000e+000 0.000000e+000 0.000000e+000 0.000000e+000 0.000000e+000 0.000000e+000 0.000000e+000 0.000000e+000 0.000000e+000 0.000000e+000 0.000000e+000 0.000000e+000 9.052579e-001 9.474209e-002 
0.000000e+000 0.000000e+000 0.000000e+000 0.000000e+000 0.000000e+000 0.000000e+000 0.000000e+000 0.000000e+000 0.000000e+000 0.000000e+000 0.000000e+000 0.000000e+000 0.000000e+000 0.000000e+000 0.000000e+000 0.000000e+000 0.000000e+000 0.000000e+000 0.000000e+000 0.000000e+000 0.000000e+000 0.000000e+000 0.000000e+000 0.000000e+000 0.000000e+000 
