<HMMNAME> 7
<HMMSTATES> 25
<STATE> 1
<MEAN> 36
-1.251368e+001 -2.287912e+001 -3.482027e+000 8.987990e+000 1.206769e+001 7.670992e+000 -7.600379e+000 4.272418e-001 2.755440e+000 -1.252859e+000 -9.772910e-001 1.365112e+000 -8.997902e-002 -1.259179e+000 3.027618e-001 -2.520964e-001 2.079113e-001 5.126995e-001 -2.821512e-001 -2.123863e-002 -1.788718e-001 -3.852937e-002 3.604268e-002 -1.798827e-001 -1.670753e-002 5.950851e-002 1.024709e-002 -8.331209e-002 -2.372269e-002 2.004633e-002 -8.847238e-003 -2.183781e-002 -2.259116e-003 8.450344e-002 -3.831467e-002 -1.092772e-002 
<VARIANCE> 36
3.487674e+000 4.765651e+001 3.879017e+001 7.335367e+000 7.125911e+000 1.182878e+001 2.817749e+001 1.244340e+001 1.378838e+001 1.193950e+001 2.344409e+001 1.109887e+001 1.436950e-001 3.722400e-001 1.183179e+000 5.869912e-001 8.391942e-001 9.521749e-001 8.349126e-001 1.702043e+000 1.402362e+000 1.123100e+000 1.296425e+000 8.267434e-001 5.000000e-002 5.000000e-002 1.455927e-001 1.159157e-001 1.881288e-001 1.664128e-001 1.832727e-001 3.314216e-001 3.045349e-001 2.409536e-001 2.315735e-001 2.206497e-001 
<GCONST> 7.332018e+001
<STATE> 2
<MEAN> 36
-1.407831e+001 -3.132975e+001 1.460806e+000 6.095549e+000 1.336931e+001 1.146041e+001 -1.098538e+001 4.559087e-001 9.205709e-001 -1.126937e+000 7.189844e-002 1.988835e+000 -1.582120e-001 -3.252226e-001 2.399717e-001 -4.356495e-001 1.681078e-001 4.062971e-002 1.928791e-001 3.237252e-001 -4.796738e-001 1.074733e-001 -8.064503e-002 1.149747e-001 9.973186e-003 9.655502e-002 -2.717853e-003 5.918372e-002 -1.895596e-002 -1.162478e-001 7.851911e-002 9.046630e-002 -2.818983e-004 -2.664513e-002 -2.157952e-002 -7.543509e-002 
<VARIANCE> 36
2.326542e+000 2.988689e+000 1.327474e+001 5.554469e+000 5.634236e+000 5.800896e+000 1.640828e+001 7.570887e+000 8.899061e+000 8.470482e+000 1.120736e+001 6.178076e+000 1.546749e-001 1.995104e-001 3.984285e-001 4.104343e-001 4.608031e-001 4.729500e-001 9.295806e-001 6.298528e-001 6.113163e-001 9.936979e-001 7.242131e-001 6.915725e-001 5.000000e-002 5.000000e-002 5.983387e-002 9.208311e-002 6.911511e-002 8.953079e-002 1.751230e-001 1.123505e-001 1.605023e-001 1.701971e-001 1.663356e-001 1.418501e-001 
<GCONST> 5.318121e+001
<STATE> 3
<MEAN> 36
-1.518848e+001 -3.232869e+001 3.862329e+000 4.460191e+000 1.385742e+001 9.493186e+000 -8.620193e+000 3.681708e+000 -1.437311e+000 6.105058e-001 -3.466283e-001 9.984986e-001 1.112525e-001 8.614010e-002 4.467838e-002 -1.092513e-001 8.757688e-002 -5.387553e-001 -1.417537e-001 5.095837e-002 7.191613e-002 3.374087e-001 -3.925586e-001 -5.219560e-001 7.978177e-002 5.114140e-003 -7.209537e-002 3.165909e-002 -9.836289e-002 7.156198e-002 8.194375e-003 -1.912420e-001 -7.376796e-002 -1.978110e-001 -8.399797e-002 7.350148e-002 
<VARIANCE> 36
7.866234e-001 9.394907e-001 5.634891e+000 4.035176e+000 4.687848e+000 5.381820e+000 8.550961e+000 4.823752e+000 5.865036e+000 9.086953e+000 1.496444e+001 4.694341e+000 6.303329e-002 5.000000e-002 2.462620e-001 3.821161e-001 6.010158e-001 3.671306e-001 4.840908e-001 5.305702e-001 6.317333e-001 1.205027e+000 1.552911e+000 4.331733e-001 5.000000e-002 5.000000e-002 5.000000e-002 6.669314e-002 1.307452e-001 1.166996e-001 1.480112e-001 1.415893e-001 1.387636e-001 4.117685e-001 3.795395e-001 1.033800e-001 
<GCONST> 4.665451e+001
<STATE> 4
<MEAN> 36
-1.394277e+001 -3.239867e+001 8.660287e-001 1.587433e+000 1.437019e+001 1.042043e+001 -5.721653e+000 3.980919e+000 -3.722920e+000 -1.704685e+000 -3.078218e+000 1.089888e+000 1.320709e-001 3.068837e-001 -3.229157e-001 -4.060027e-002 -1.249403e-001 2.758267e-001 4.343172e-001 1.223966e-001 -2.414681e-001 -3.742731e-001 -7.028911e-002 -3.403242e-002 4.712349e-002 1.554955e-001 -9.055713e-002 5.445677e-002 -5.401583e-002 1.446974e-002 3.856039e-002 -2.507225e-002 3.204565e-002 -1.515733e-002 3.162208e-002 -2.236605e-002 
<VARIANCE> 36
1.779747e+000 4.407400e+000 8.720845e+000 9.533505e+000 7.051779e+000 9.538939e+000 1.551462e+001 1.270370e+001 1.079694e+001 1.461525e+001 1.989463e+001 8.653984e+000 2.142083e-001 5.129781e-001 4.188073e-001 6.818368e-001 6.094090e-001 9.872705e-001 7.775968e-001 8.473603e-001 7.944179e-001 1.170065e+000 1.161705e+000 8.257556e-001 5.000000e-002 7.614551e-002 8.135577e-002 1.252666e-001 1.232409e-001 2.157070e-001 1.297028e-001 1.752672e-001 1.343950e-001 2.533536e-001 2.561089e-001 1.416123e-001 
<GCONST> 6.357921e+001
<STATE> 5
<MEAN> 36
-9.338243e+000 -1.855222e+001 -3.906126e+000 3.242926e+000 1.323046e+001 1.041915e+001 -1.774956e+000 2.531918e+000 -7.407310e+000 -4.972482e+000 -3.375620e+000 -1.237793e+000 1.087820e+000 1.706076e+000 -4.407423e-001 -2.192720e-001 5.561804e-001 -6.646177e-001 1.722944e-001 -1.873688e-001 -1.053396e+000 -3.329026e-001 -4.672391e-001 -4.788781e-001 1.200990e-001 -1.911733e-001 -1.518783e-002 -1.332527e-001 1.352223e-001 -1.854733e-001 -1.732645e-001 5.701724e-002 -1.580959e-001 -7.335705e-002 -1.236069e-001 -2.819643e-002 
<VARIANCE> 36
8.614375e+000 2.823619e+001 5.176731e+000 9.198298e+000 1.274846e+001 1.353449e+001 8.333761e+000 1.760103e+001 2.930690e+001 7.810853e+000 1.320309e+001 8.647739e+000 6.640227e-001 8.536484e-001 7.039207e-001 7.015609e-001 1.041415e+000 9.910034e-001 9.786153e-001 1.409871e+000 1.556721e+000 1.151485e+000 1.959474e+000 8.087594e-001 9.148908e-002 1.316772e-001 1.525800e-001 1.175449e-001 1.854162e-001 2.249813e-001 1.888890e-001 2.457888e-001 2.734180e-001 2.296171e-001 3.554159e-001 1.650981e-001 
<GCONST> 7.566459e+001
<STATE> 6
<MEAN> 36
-1.468778e+000 -1.245331e+001 -6.956123e+000 1.334408e+000 1.761808e+001 5.608786e+000 -2.418351e+000 2.704861e+000 -1.515744e+001 -1.012091e+001 -8.780476e+000 -5.736949e+000 1.586807e+000 -2.017827e-001 -1.644379e+000 -1.004961e+000 7.752320e-002 -2.072744e+000 -1.044282e+000 6.724577e-002 -1.493571e+000 -1.364540e+000 -1.179904e+000 -1.132775e-001 -4.995780e-001 -1.326570e-001 3.039106e-002 -1.726615e-001 -4.909923e-001 -5.855842e-002 -2.928915e-001 -3.454466e-001 4.999402e-001 4.865207e-001 3.574912e-001 4.789063e-001 
<VARIANCE> 36
2.084693e+000 3.942277e+000 7.338439e+000 1.080981e+001 7.833719e+000 1.159279e+001 1.072654e+001 7.356620e+000 2.221179e+001 8.943290e+000 8.727250e+000 1.193170e+001 2.320399e-001 1.659369e-001 6.456036e-001 5.794870e-001 5.377126e-001 5.052678e-001 4.924489e-001 8.317095e-001 7.371862e-001 3.977971e-001 5.218431e-001 2.916502e-001 5.000000e-002 5.000000e-002 5.000000e-002 5.000000e-002 9.516792e-002 1.872362e-001 2.932775e-001 2.131541e-001 1.898447e-001 1.496921e-001 3.167904e-001 9.985829e-002 
<GCONST> 5.611557e+001
<STATE> 7
<MEAN> 36
-8.919931e-002 -1.078531e+001 -8.630116e+000 -6.223307e+000 1.340392e+001 3.187010e-001 -5.836184e+000 1.880529e+000 -1.671841e+001 -8.567046e+000 -1.026041e+001 -4.412051e+000 2.300415e-001 3.129593e-001 -2.924358e-001 -7.835263e-001 -3.986479e-001 -7.967407e-001 -4.114977e-001 -5.541981e-002 -2.638633e-001 1.698950e-001 -3.023255e-001 -2.000388e-001 -1.234018e-001 3.305538e-002 1.091493e-001 4.112356e-002 1.587959e-002 9.599232e-002 9.583452e-002 4.297051e-002 3.708520e-002 1.348932e-001 9.635866e-002 -6.916677e-002 
<VARIANCE> 36
3.149158e+000 7.601328e+000 1.197455e+001 3.159038e+001 2.511632e+001 1.096522e+001 1.323236e+001 1.191669e+001 1.817482e+001 1.336861e+001 1.186381e+001 5.959909e+000 1.351756e-001 1.543005e-001 2.749647e-001 6.015849e-001 7.175863e-001 8.565957e-001 8.039340e-001 9.874493e-001 1.173437e+000 1.197844e+000 7.450001e-001 7.722592e-001 5.000000e-002 5.000000e-002 6.427931e-002 6.923170e-002 1.498555e-001 1.241113e-001 1.079329e-001 1.467724e-001 1.487762e-001 2.394620e-001 1.162073e-001 1.124334e-001 
<GCONST> 6.189730e+001
<STATE> 8
<MEAN> 36
2.003747e+000 -9.041891e+000 -1.094595e+001 -7.071551e+000 1.377435e+001 -7.244925e+000 -6.151387e+000 4.895414e+000 -1.922446e+001 -6.546461e+000 -1.051807e+001 -8.888067e+000 -6.295519e-002 2.430844e-001 2.124357e-002 4.838906e-002 -9.804089e-003 -5.733728e-002 1.917543e-001 3.044026e-001 2.577092e-001 1.744179e-001 1.402976e-001 -1.478084e-001 -4.474669e-002 9.204766e-003 2.056162e-002 5.477712e-002 -2.833722e-002 1.033795e-001 5.912858e-002 1.147197e-002 1.368052e-001 2.234970e-002 4.753962e-002 8.224607e-002 
<VARIANCE> 36
1.693106e+000 6.721395e+000 5.781610e+000 2.745516e+001 1.296542e+001 9.135110e+000 1.605566e+001 1.045182e+001 2.114758e+001 1.941489e+001 1.195258e+001 8.547864e+000 7.122697e-002 1.373187e-001 1.904424e-001 3.435830e-001 4.297601e-001 7.900002e-001 3.894127e-001 5.301122e-001 9.648886e-001 4.895079e-001 6.422208e-001 5.008121e-001 5.000000e-002 5.000000e-002 5.000000e-002 5.777086e-002 8.603095e-002 9.451221e-002 7.961338e-002 1.054855e-001 1.353229e-001 1.168268e-001 1.234138e-001 9.029819e-002 
<GCONST> 5.223327e+001
<STATE> 9
<MEAN> 36
-3.741648e+000 -3.887810e+000 -7.444254e+000 -3.980103e+000 1.096901e+001 -4.818953e-001 -9.103065e-001 6.485136e+000 -9.333529e+000 -3.296581e+000 -7.904942e+000 -7.347678e+000 -1.018223e+000 5.196884e-001 6.189473e-001 9.141500e-001 -8.265900e-001 9.182004e-001 8.280937e-001 -3.237390e-001 1.198862e+000 1.855773e-001 3.727601e-001 4.998430e-001 1.521130e-002 -1.077897e-002 2.319068e-002 -8.686764e-003 -1.137310e-001 -1.059316e-001 -1.273100e-001 -1.424914e-001 -8.534145e-002 -5.369020e-002 -1.744550e-002 5.101142e-002 
<VARIANCE> 36
7.586280e+000 3.668349e+000 6.694808e+000 2.449967e+001 1.021023e+001 9.825790e+000 1.905291e+001 1.293663e+001 2.100530e+001 1.899655e+001 1.089047e+001 6.119523e+000 2.746889e-001 1.426128e-001 4.558655e-001 8.060171e-001 6.823012e-001 4.189829e-001 1.136917e+000 1.152513e+000 1.561984e+000 2.388633e+000 7.650378e-001 5.856218e-001 7.994522e-002 5.000000e-002 9.190703e-002 1.935472e-001 1.060555e-001 1.035879e-001 2.443373e-001 2.578453e-001 3.393636e-001 4.867974e-001 1.745880e-001 1.590011e-001 
<GCONST> 6.797277e+001
<STATE> 10
<MEAN> 36
-9.285114e+000 -1.493497e+000 -3.110944e+000 2.222075e-001 4.759717e+000 3.047996e+000 1.025107e+000 3.567150e+000 -2.893284e+000 -1.778444e+000 -2.688478e+000 -1.767264e+000 -1.698053e-001 -1.180092e-002 1.761679e-001 -1.747202e-001 -1.224139e-001 1.447737e-001 -1.584773e-001 -7.280644e-002 2.988416e-001 1.752258e-001 3.926354e-001 2.845686e-001 6.745034e-002 -4.403974e-002 -5.822523e-002 -1.162229e-001 9.622505e-002 -3.001532e-003 -5.086130e-003 5.250115e-002 -5.344005e-002 -3.462987e-002 -4.376221e-002 -8.623963e-002 
<VARIANCE> 36
2.488579e+000 3.293314e+000 4.941291e+000 7.970465e+000 7.209154e+000 8.805875e+000 8.831204e+000 1.079871e+001 1.342468e+001 8.662893e+000 1.133917e+001 9.829947e+000 1.619387e-001 3.269581e-001 5.343060e-001 1.079363e+000 7.921494e-001 7.494678e-001 8.830918e-001 1.069574e+000 1.434794e+000 9.578485e-001 1.117678e+000 1.005746e+000 5.000000e-002 5.097468e-002 9.521827e-002 2.041105e-001 1.583345e-001 1.773802e-001 2.039482e-001 1.787107e-001 2.964920e-001 1.682223e-001 2.353096e-001 1.951614e-001 
<GCONST> 6.361027e+001
<STATE> 11
<MEAN> 36
-7.507098e+000 -2.570061e+000 -5.204538e+000 -7.316273e+000 6.991672e+000 4.402720e+000 3.744061e-001 4.177234e+000 -4.285992e+000 -1.723930e+000 -2.907186e+000 -3.013801e+000 8.845602e-001 1.588636e-001 -4.982354e-001 -1.000914e+000 4.488283e-001 -3.823481e-002 -1.212013e-001 4.476704e-001 -8.027258e-001 -6.519238e-001 -6.869433e-001 -8.105241e-001 1.506734e-001 5.797486e-002 -6.731293e-002 1.085029e-001 -6.283195e-003 -9.525136e-002 -1.651159e-001 -7.022943e-002 -1.740187e-001 -2.007231e-001 -1.447035e-001 -7.577053e-002 
<VARIANCE> 36
6.179220e+000 1.113563e+001 1.248854e+001 1.805090e+001 1.948524e+001 1.551250e+001 2.257809e+001 2.884933e+001 2.691234e+001 2.078902e+001 9.014247e+000 1.141937e+001 4.811081e-001 1.120732e+000 6.597249e-001 1.753461e+000 1.363799e+000 2.200857e+000 1.944448e+000 1.531283e+000 2.118125e+000 1.353090e+000 1.075863e+000 1.306600e+000 6.285222e-002 2.195456e-001 1.604342e-001 2.971575e-001 1.953815e-001 4.069170e-001 4.200241e-001 2.993466e-001 2.516871e-001 2.080920e-001 1.452629e-001 2.312296e-001 
<GCONST> 8.380110e+001
<STATE> 12
<MEAN> 36
-1.820877e+000 -1.640304e+000 -6.901609e+000 -1.085114e+001 9.985078e+000 3.271599e+000 -6.589290e+000 5.055861e+000 -7.267667e+000 -6.315957e+000 -6.059462e+000 -7.724608e+000 1.093142e+000 -3.105053e-001 -9.468925e-001 -7.802606e-001 6.010992e-001 -1.153972e+000 -1.998398e+000 -3.416267e-001 -6.614109e-001 -1.058001e+000 -1.036478e+000 -4.095107e-001 -2.166205e-001 -1.642462e-001 1.075181e-001 2.090274e-001 4.316516e-002 -2.684836e-001 -7.418794e-002 8.525174e-002 2.070102e-001 6.821572e-002 -3.392473e-002 2.704987e-001 
<VARIANCE> 36
2.818932e+000 5.029262e-001 4.432308e+000 2.275952e+001 2.408072e+001 1.435706e+001 3.252617e+001 1.574246e+001 1.298522e+001 1.771769e+001 1.251874e+001 8.553176e+000 2.895578e-001 2.851738e-001 4.273245e-001 6.097963e-001 6.433041e-001 1.073158e+000 8.154100e-001 1.118333e+000 7.380790e-001 6.081028e-001 6.555974e-001 4.803469e-001 5.000000e-002 6.587597e-002 9.334925e-002 5.000000e-002 1.039458e-001 2.357797e-001 3.428805e-001 3.702612e-001 2.832946e-001 7.369786e-002 1.364086e-001 1.436479e-001 
<GCONST> 6.240722e+001
<STATE> 13
<MEAN> 36
-4.709868e-001 -3.666074e+000 -9.395164e+000 -1.084659e+001 1.072772e+001 -2.550682e+000 -8.519544e+000 5.817235e+000 -8.642437e+000 -8.416811e+000 -9.850287e+000 -7.056855e+000 4.015363e-001 -5.438399e-001 -4.125032e-001 3.991971e-002 3.238706e-001 -9.960743e-001 -8.162233e-001 -1.329846e-001 -4.453681e-001 -5.364969e-001 -6.908636e-001 3.578784e-001 -1.362944e-001 5.937171e-002 5.501489e-002 -8.331393e-002 -2.440952e-001 3.913898e-001 3.205286e-001 -8.274182e-002 1.128711e-001 2.411047e-001 2.400120e-001 1.575368e-001 
<VARIANCE> 36
3.469606e+000 8.777617e-001 2.520251e+000 2.489656e+001 4.216718e+001 2.363880e+001 6.341010e+001 1.688708e+001 1.022872e+001 4.004945e+001 1.733208e+001 1.423238e+001 5.000000e-002 7.508162e-002 2.332189e-001 3.563145e-001 6.037501e-001 1.231688e+000 1.582185e+000 7.141947e-001 1.058670e+000 1.070448e+000 7.333854e-001 6.215859e-001 5.000000e-002 5.000000e-002 5.000000e-002 8.861197e-002 7.568366e-002 1.972116e-001 1.313580e-001 9.152251e-002 1.160965e-001 1.243343e-001 1.670205e-001 6.874538e-002 
<GCONST> 5.917186e+001
<STATE> 14
<MEAN> 36
1.062344e+000 -4.990975e+000 -1.052432e+001 -1.297982e+001 1.196562e+001 -2.481776e+000 -1.228369e+001 6.436237e+000 -9.837301e+000 -1.095153e+001 -9.801865e+000 -6.407164e+000 8.068254e-002 -2.424702e-001 -2.969414e-001 -1.683345e-001 -3.901273e-001 -1.559156e-001 1.912862e-002 6.354060e-002 2.842626e-001 4.679362e-002 2.190166e-001 1.030811e-001 -4.713919e-002 5.522572e-002 1.234637e-002 1.029199e-002 1.367349e-003 -1.376919e-002 9.890306e-002 3.186723e-002 7.354618e-002 1.498057e-001 5.021125e-002 -9.315035e-002 
<VARIANCE> 36
2.728126e+000 1.971370e+000 2.427725e+000 1.513441e+001 1.119683e+001 2.171398e+001 2.894428e+001 1.122109e+001 1.414250e+001 4.409683e+001 1.002892e+001 8.887075e+000 5.000000e-002 1.648065e-001 1.740348e-001 3.264229e-001 3.290207e-001 9.728682e-001 8.152200e-001 6.096734e-001 1.017940e+000 9.952003e-001 9.019638e-001 7.730598e-001 5.000000e-002 5.000000e-002 5.000000e-002 5.000000e-002 6.275513e-002 1.526869e-001 2.261375e-001 1.225300e-001 1.921242e-001 1.819411e-001 2.217282e-001 1.431463e-001 
<GCONST> 5.677888e+001
<STATE> 15
<MEAN> 36
2.424178e+000 -6.119268e+000 -1.236365e+001 -1.343870e+001 1.116313e+001 -3.657859e+000 -1.337425e+001 4.865177e+000 -7.554210e+000 -9.548890e+000 -1.050767e+001 -6.389034e+000 -4.470035e-002 8.324715e-002 -5.815053e-002 2.875480e-001 -1.474671e-001 -4.357944e-001 2.466776e-001 6.891508e-002 1.730877e-001 4.935265e-001 -4.949002e-002 -1.218360e-001 -5.228786e-003 7.696409e-002 1.235920e-002 9.611437e-002 -4.176267e-002 7.941503e-003 2.733136e-002 -3.292023e-002 -5.852840e-003 3.705909e-002 4.214332e-003 4.305858e-002 
<VARIANCE> 36
2.541728e+000 2.239031e+000 1.960599e+000 7.125538e+000 9.981860e+000 1.793066e+001 1.585655e+001 1.538003e+001 7.956707e+000 1.519445e+001 4.943846e+000 5.963037e+000 5.000000e-002 1.258318e-001 1.926489e-001 3.584764e-001 3.815857e-001 4.312911e-001 3.868434e-001 2.548922e-001 5.388113e-001 4.226675e-001 6.486125e-001 6.223646e-001 5.000000e-002 5.000000e-002 5.000000e-002 7.960746e-002 7.988870e-002 1.266974e-001 8.108085e-002 5.760718e-002 1.338782e-001 9.537003e-002 1.064593e-001 1.359686e-001 
<GCONST> 4.507944e+001
<STATE> 16
<MEAN> 36
3.119343e-001 -3.299203e+000 -1.178483e+001 -9.995948e+000 7.346905e+000 -5.635021e+000 -9.195378e+000 5.740893e+000 -3.494535e+000 -2.422144e+000 -8.270932e+000 -9.152164e+000 -1.452157e-001 4.998853e-001 2.320683e-001 2.575552e-001 -5.335968e-001 2.032275e-001 2.419485e-001 -2.868432e-001 4.568526e-001 6.010013e-001 5.374835e-001 2.149136e-002 -8.130260e-002 1.239554e-002 1.308144e-001 5.967195e-002 -1.270925e-001 9.914248e-002 1.152746e-001 -1.025725e-002 7.675261e-003 5.908191e-003 1.040963e-001 6.447405e-002 
<VARIANCE> 36
3.003659e+000 3.873198e+000 3.790132e+000 8.426797e+000 9.769711e+000 1.276633e+001 2.342780e+001 8.708303e+000 1.112483e+001 2.138961e+001 9.245781e+000 8.326170e+000 5.941808e-002 1.509077e-001 3.067535e-001 7.392324e-001 6.662810e-001 7.828420e-001 6.616220e-001 5.653837e-001 5.927177e-001 6.389994e-001 9.617393e-001 5.078482e-001 5.000000e-002 5.000000e-002 5.000000e-002 1.364217e-001 1.204586e-001 1.752286e-001 9.598571e-002 1.070482e-001 1.202650e-001 9.568881e-002 1.928285e-001 1.061415e-001 
<GCONST> 5.475249e+001
<STATE> 17
<MEAN> 36
-1.726418e+000 -4.101052e-001 -8.238693e+000 -6.518839e+000 1.972535e+000 -2.819105e+000 -5.946797e+000 3.597836e+000 -8.697893e-001 -7.323742e-001 -4.414070e+000 -6.589624e+000 -1.030160e+000 2.717835e-001 7.910728e-001 7.205807e-001 -8.282896e-001 9.797527e-001 1.619044e+000 3.947730e-001 9.722151e-001 5.533192e-001 4.587696e-001 6.453550e-001 -3.020793e-002 -1.078952e-001 -1.209263e-001 -7.843404e-002 4.330742e-001 2.024884e-001 3.206203e-001 3.548789e-001 6.391993e-002 -1.784560e-001 -1.239736e-001 5.185742e-002 
<VARIANCE> 36
3.682491e+000 2.697968e+000 4.364975e+000 6.760252e+000 6.911554e+000 8.628141e+000 7.287839e+000 9.566427e+000 1.272600e+001 1.005523e+001 8.196186e+000 1.058839e+001 2.281482e-001 4.083911e-001 3.261201e-001 8.873343e-001 9.618283e-001 6.623798e-001 8.091619e-001 8.063153e-001 1.689295e+000 2.923989e-001 9.719893e-001 6.765514e-001 5.000000e-002 5.422771e-002 5.000000e-002 1.096887e-001 9.506109e-002 7.874228e-002 1.045501e-001 7.991279e-002 2.640724e-001 5.000000e-002 1.913896e-001 1.233550e-001 
<GCONST> 5.500728e+001
<STATE> 18
<MEAN> 36
-5.044402e+000 -1.820101e-001 -7.729740e+000 -6.687309e+000 -3.807230e-001 -3.097363e-001 3.062377e+000 6.976568e+000 5.665979e-001 -2.640834e-001 -3.567308e+000 -2.641426e+000 -4.623870e-001 2.687776e-001 5.190987e-001 4.331515e-001 -1.147864e-001 7.703295e-001 1.203712e+000 5.301211e-001 8.592280e-001 2.744877e-001 3.209713e-001 3.234092e-001 9.855947e-002 4.597491e-002 9.342173e-002 -1.394955e-002 4.245544e-003 -1.024313e-001 -3.334589e-001 -1.928917e-001 -7.320500e-002 4.966605e-002 9.734803e-002 -5.713615e-002 
<VARIANCE> 36
2.967653e+000 1.684248e+000 3.542089e+000 1.461655e+001 1.203278e+001 1.658877e+001 8.582395e+000 9.377231e+000 2.410944e+001 9.577489e+000 4.484671e+000 1.464213e+001 2.695280e-001 2.859556e-001 2.635894e-001 4.024264e-001 4.242558e-001 8.960236e-001 1.302321e+000 9.214444e-001 5.934630e-001 6.991954e-001 7.343538e-001 8.476106e-001 6.491508e-002 5.905127e-002 5.000000e-002 1.015698e-001 5.353390e-002 1.883681e-001 1.783778e-001 1.544762e-001 2.133426e-001 9.899271e-002 1.483842e-001 1.513154e-001 
<GCONST> 5.739625e+001
<STATE> 19
<MEAN> 36
-6.660450e+000 1.199546e+000 -3.612464e+000 -2.279529e+000 8.230423e-001 2.004155e+000 3.632862e+000 7.610777e+000 3.965734e+000 1.492981e+000 -1.332903e+000 -2.007547e+000 -1.869061e-001 5.478111e-002 3.030983e-001 4.278854e-001 -5.473685e-003 4.791727e-003 8.247972e-002 6.399680e-002 -1.159415e-002 2.884107e-003 9.914569e-002 2.838243e-002 -1.201020e-003 -1.981665e-002 -2.981994e-002 1.224103e-002 3.373425e-002 -3.348669e-002 -5.205297e-002 -3.710756e-002 -9.457383e-002 -5.433475e-002 -5.337968e-002 -4.551970e-002 
<VARIANCE> 36
4.387127e+000 2.402632e+000 3.516228e+000 5.819080e+000 1.345377e+001 1.036629e+001 1.559158e+001 9.961206e+000 9.528172e+000 8.329391e+000 1.013780e+001 8.711179e+000 6.591196e-002 1.830647e-001 3.428250e-001 3.499949e-001 3.755551e-001 5.383608e-001 7.100381e-001 9.412849e-001 8.046686e-001 1.237206e+000 1.092894e+000 9.998315e-001 5.000000e-002 5.000000e-002 8.110859e-002 6.135554e-002 8.981423e-002 1.155403e-001 1.636249e-001 1.535441e-001 1.729352e-001 2.939776e-001 2.658941e-001 1.972187e-001 
<GCONST> 5.644667e+001
<STATE> 20
<MEAN> 36
-7.403446e+000 2.334665e+000 -1.677328e+000 5.499599e-001 6.377184e-001 9.632746e-001 4.450733e+000 7.635088e+000 3.780929e+000 1.545985e+000 -4.584832e-001 -1.320098e+000 -2.325122e-001 3.668259e-001 6.312340e-001 6.176501e-001 5.656416e-001 6.580580e-001 3.402536e-001 -3.111789e-001 -1.055695e+000 -3.833531e-001 3.336964e-001 2.594738e-002 -4.527153e-002 -1.749837e-001 -1.385998e-001 -1.665693e-001 1.686909e-002 2.167812e-001 1.764631e-001 2.227748e-001 2.163954e-001 -8.004045e-002 -1.228572e-001 -7.630736e-003 
<VARIANCE> 36
3.752997e+000 3.249042e+000 6.436610e+000 9.279895e+000 1.267531e+001 1.724038e+001 2.454604e+001 1.748308e+001 1.675445e+000 4.809480e+000 8.189944e+000 1.271582e+001 1.156634e-001 9.601575e-002 1.116717e-001 1.218391e-001 5.206333e-001 1.058534e+000 2.722144e-001 1.085225e+000 7.595608e-001 1.502783e+000 6.875622e-001 2.333287e-001 5.000000e-002 5.000000e-002 5.000000e-002 5.973076e-002 7.577050e-002 1.298608e-001 3.036093e-001 3.184976e-001 5.000000e-002 6.818151e-002 1.386106e-001 3.058936e-001 
<GCONST> 5.102056e+001
<STATE> 21
<MEAN> 36
-8.086246e+000 2.160355e+000 -7.569218e-001 8.709969e-001 2.649897e+000 3.312873e+000 3.580739e+000 6.530808e+000 6.211081e-001 -1.668254e+000 -1.563704e+000 -2.661002e+000 -3.624614e-001 -2.639806e-001 1.126962e-001 -1.128974e-002 -2.422989e-002 4.440657e-001 1.732141e-001 2.699596e-001 3.956458e-001 7.794785e-002 4.086783e-002 2.913926e-001 -3.961166e-002 -1.792482e-001 -1.758724e-001 -1.149540e-001 -1.546416e-001 -1.248993e-001 3.986277e-003 1.734995e-001 4.633858e-001 3.046634e-001 1.014294e-001 9.895593e-002 
<VARIANCE> 36
2.437484e+000 2.544900e+000 1.273250e+000 4.236025e+000 1.071598e+001 5.513470e+000 3.541402e+000 9.208400e+000 7.562979e+000 5.717742e+000 4.442219e+000 3.557434e+000 8.631250e-002 1.454585e-001 2.050263e-001 2.363978e-001 4.551425e-001 7.711122e-001 1.504867e+000 1.766792e+000 4.352430e-001 4.801821e-001 1.111532e+000 1.427849e+000 5.000000e-002 5.000000e-002 5.000000e-002 5.000000e-002 6.582045e-002 8.966008e-002 8.662124e-002 1.441764e-001 8.746872e-002 1.505841e-001 1.493554e-001 1.561119e-001 
<GCONST> 4.560047e+001
<STATE> 22
<MEAN> 36
-1.092485e+001 -3.139433e-001 -1.958943e+000 1.305220e+000 1.224635e+000 2.739505e+000 4.965193e+000 7.157042e+000 3.467396e+000 1.977599e+000 6.497752e-001 -4.383088e-001 -1.414553e-001 -2.192097e-002 3.912529e-002 1.272359e-001 9.077449e-003 3.971869e-003 -9.393073e-002 -1.806446e-001 1.925845e-001 1.077062e-001 1.934316e-001 2.375063e-001 2.425240e-002 2.235421e-002 2.434163e-002 1.714620e-002 -1.178570e-002 2.512585e-002 -5.469731e-002 -1.029405e-001 -1.098374e-001 -1.229479e-001 -7.073154e-002 4.328656e-002 
<VARIANCE> 36
2.317699e+000 2.742408e+000 2.832397e+000 4.346548e+000 8.398012e+000 9.457351e+000 1.117229e+001 1.274048e+001 1.417765e+001 1.288975e+001 1.150322e+001 1.001073e+001 1.297125e-001 3.332580e-001 2.988402e-001 4.546848e-001 7.003432e-001 7.435581e-001 1.699665e+000 1.439589e+000 2.075814e+000 1.772728e+000 9.708216e-001 7.890782e-001 5.000000e-002 7.993885e-002 7.291293e-002 9.016985e-002 1.342109e-001 1.701672e-001 3.741141e-001 3.722408e-001 4.732298e-001 3.815021e-001 2.309406e-001 2.325080e-001 
<GCONST> 6.501853e+001
<STATE> 23
<MEAN> 36
-1.119034e+001 7.172563e-001 -6.591690e-001 1.581453e+000 1.244220e+000 3.051933e+000 3.176106e+000 4.680214e+000 1.715305e+000 -7.443919e-001 4.567653e-001 -7.172469e-001 -9.865159e-002 -5.437132e-002 7.048199e-002 1.174678e-001 -3.037908e-002 7.407687e-002 -8.775025e-003 -1.094920e-001 -1.431305e-001 -7.694742e-002 -2.574320e-002 -3.243184e-002 3.392519e-003 -2.605031e-002 -1.333296e-002 -4.635878e-003 -3.372496e-002 -3.907153e-002 9.348616e-002 -9.809667e-003 7.711320e-002 1.283803e-001 4.792455e-002 4.164300e-002 
<VARIANCE> 36
3.626587e+000 1.819722e+000 1.947164e+000 3.959341e+000 5.661954e+000 9.025641e+000 1.115626e+001 9.464239e+000 8.897431e+000 6.424133e+000 9.660340e+000 6.818152e+000 1.174621e-001 2.298669e-001 1.736872e-001 7.359379e-001 7.728681e-001 8.217386e-001 1.448780e+000 1.198737e+000 9.608406e-001 7.491737e-001 1.089070e+000 7.655399e-001 5.000000e-002 5.000000e-002 5.000000e-002 1.610653e-001 1.484255e-001 1.370908e-001 2.842832e-001 1.817962e-001 2.081127e-001 1.131593e-001 2.050794e-001 1.300426e-001 
<GCONST> 5.579476e+001
<TRANSP> 25
0.000000e+000 1.000000e+000 0.000000e+000 0.000000e+000 0.000000e+000 0.000000e+000 0.000000e+000 0.000000e+000 0.000000e+000 0.000000e+000 0.000000e+000 0.000000e+000 0.000000e+000 0.000000e+000 0.000000e+000 0.000000e+000 0.000000e+000 0.000000e+000 0.000000e+000 0.000000e+000 0.000000e+000 0.000000e+000 0.000000e+000 0.000000e+000 0.000000e+000 
0.000000e+000 8.759500e-001 1.240501e-001 0.000000e+000 0.000000e+000 0.000000e+000 0.000000e+000 0.000000e+000 0.000000e+000 0.000000e+000 0.000000e+000 0.000000e+000 0.000000e+000 0.000000e+000 0.000000e+000 0.000000e+000 0.000000e+000 0.000000e+000 0.000000e+000 0.000000e+000 0.000000e+000 0.000000e+000 0.000000e+000 0.000000e+000 0.000000e+000 
0.000000e+000 0.000000e+000 8.564338e-001 1.435663e-001 0.000000e+000 0.000000e+000 0.000000e+000 0.000000e+000 0.000000e+000 0.000000e+000 0.000000e+000 0.000000e+000 0.000000e+000 0.000000e+000 0.000000e+000 0.000000e+000 0.000000e+000 0.000000e+000 0.000000e+000 0.000000e+000 0.000000e+000 0.000000e+000 0.000000e+000 0.000000e+000 0.000000e+000 
0.000000e+000 0.000000e+000 0.000000e+000 6.532355e-001 3.467646e-001 0.000000e+000 0.000000e+000 0.000000e+000 0.000000e+000 0.000000e+000 0.000000e+000 0.000000e+000 0.000000e+000 0.000000e+000 0.000000e+000 0.000000e+000 0.000000e+000 0.000000e+000 0.000000e+000 0.000000e+000 0.000000e+000 0.000000e+000 0.000000e+000 0.000000e+000 0.000000e+000 
0.000000e+000 0.000000e+000 0.000000e+000 0.000000e+000 9.203013e-001 7.969871e-002 0.000000e+000 0.000000e+000 0.000000e+000 0.000000e+000 0.000000e+000 0.000000e+000 0.000000e+000 0.000000e+000 0.000000e+000 0.000000e+000 0.000000e+000 0.000000e+000 0.000000e+000 0.000000e+000 0.000000e+000 0.000000e+000 0.000000e+000 0.000000e+000 0.000000e+000 
0.000000e+000 0.000000e+000 0.000000e+000 0.000000e+000 0.000000e+000 8.902744e-001 1.097256e-001 0.000000e+000 0.000000e+000 0.000000e+000 0.000000e+000 0.000000e+000 0.000000e+000 0.000000e+000 0.000000e+000 0.000000e+000 0.000000e+000 0.000000e+000 0.000000e+000 0.000000e+000 0.000000e+000 0.000000e+000 0.000000e+000 0.000000e+000 0.000000e+000 
0.000000e+000 0.000000e+000 0.000000e+000 0.000000e+000 0.000000e+000 0.000000e+000 0.000000e+000 1.000000e+000 0.000000e+000 0.000000e+000 0.000000e+000 0.000000e+000 0.000000e+000 0.000000e+000 0.000000e+000 0.000000e+000 0.000000e+000 0.000000e+000 0.000000e+000 0.000000e+000 0.000000e+000 0.000000e+000 0.000000e+000 0.000000e+000 0.000000e+000 
0.000000e+000 0.000000e+000 0.000000e+000 0.000000e+000 0.000000e+000 0.000000e+000 0.000000e+000 8.990426e-001 1.009574e-001 0.000000e+000 0.000000e+000 0.000000e+000 0.000000e+000 0.000000e+000 0.000000e+000 0.000000e+000 0.000000e+000 0.000000e+000 0.000000e+000 0.000000e+000 0.000000e+000 0.000000e+000 0.000000e+000 0.000000e+000 0.000000e+000 
0.000000e+000 0.000000e+000 0.000000e+000 0.000000e+000 0.000000e+000 0.000000e+000 0.000000e+000 0.000000e+000 9.349765e-001 6.502357e-002 0.000000e+000 0.000000e+000 0.000000e+000 0.000000e+000 0.000000e+000 0.000000e+000 0.000000e+000 0.000000e+000 0.000000e+000 0.000000e+000 0.000000e+000 0.000000e+000 0.000000e+000 0.000000e+000 0.000000e+000 
0.000000e+000 0.000000e+000 0.000000e+000 0.000000e+000 0.000000e+000 0.000000e+000 0.000000e+000 0.000000e+000 0.000000e+000 8.582024e-001 1.417977e-001 0.000000e+000 0.000000e+000 0.000000e+000 0.000000e+000 0.000000e+000 0.000000e+000 0.000000e+000 0.000000e+000 0.000000e+000 0.000000e+000 0.000000e+000 0.000000e+000 0.000000e+000 0.000000e+000 
0.000000e+000 0.000000e+000 0.000000e+000 0.000000e+000 0.000000e+000 0.000000e+000 0.000000e+000 0.000000e+000 0.000000e+000 0.000000e+000 9.328823e-001 6.711771e-002 0.000000e+000 0.000000e+000 0.000000e+000 0.000000e+000 0.000000e+000 0.000000e+000 0.000000e+000 0.000000e+000 0.000000e+000 0.000000e+000 0.000000e+000 0.000000e+000 0.000000e+000 
0.000000e+000 0.000000e+000 0.000000e+000 0.000000e+000 0.000000e+000 0.000000e+000 0.000000e+000 0.000000e+000 0.000000e+000 0.000000e+000 0.000000e+000 8.306662e-001 1.693338e-001 0.000000e+000 0.000000e+000 0.000000e+000 0.000000e+000 0.000000e+000 0.000000e+000 0.000000e+000 0.000000e+000 0.000000e+000 0.000000e+000 0.000000e+000 0.000000e+000 
0.000000e+000 0.000000e+000 0.000000e+000 0.000000e+000 0.000000e+000 0.000000e+000 0.000000e+000 0.000000e+000 0.000000e+000 0.000000e+000 0.000000e+000 0.000000e+000 7.066292e-001 2.933707e-001 0.000000e+000 0.000000e+000 0.000000e+000 0.000000e+000 0.000000e+000 0.000000e+000 0.000000e+000 0.000000e+000 0.000000e+000 0.000000e+000 0.000000e+000 
0.000000e+000 0.000000e+000 0.000000e+000 0.000000e+000 0.000000e+000 0.000000e+000 0.000000e+000 0.000000e+000 0.000000e+000 0.000000e+000 0.000000e+000 0.000000e+000 0.000000e+000 6.121134e-001 3.878867e-001 0.000000e+000 0.000000e+000 0.000000e+000 0.000000e+000 0.000000e+000 0.000000e+000 0.000000e+000 0.000000e+000 0.000000e+000 0.000000e+000 
0.000000e+000 0.000000e+000 0.000000e+000 0.000000e+000 0.000000e+000 0.000000e+000 0.000000e+000 0.000000e+000 0.000000e+000 0.000000e+000 0.000000e+000 0.000000e+000 0.000000e+000 0.000000e+000 8.245977e-001 1.754023e-001 0.000000e+000 0.000000e+000 0.000000e+000 0.000000e+000 0.000000e+000 0.000000e+000 0.000000e+000 0.000000e+000 0.000000e+000 
0.000000e+000 0.000000e+000 0.000000e+000 0.000000e+000 0.000000e+000 0.000000e+000 0.000000e+000 0.000000e+000 0.000000e+000 0.000000e+000 0.000000e+000 0.000000e+000 0.000000e+000 0.000000e+000 0.000000e+000 8.444013e-001 1.555988e-001 0.000000e+000 0.000000e+000 0.000000e+000 0.000000e+000 0.000000e+000 0.000000e+000 0.000000e+000 0.000000e+000 
0.000000e+000 0.000000e+000 0.000000e+000 0.000000e+000 0.000000e+000 0.000000e+000 0.000000e+000 0.000000e+000 0.000000e+000 0.000000e+000 0.000000e+000 0.000000e+000 0.000000e+000 0.000000e+000 0.000000e+000 0.000000e+000 8.654355e-001 1.345645e-001 0.000000e+000 0.000000e+000 0.000000e+000 0.000000e+000 0.000000e+000 0.000000e+000 0.000000e+000 
0.000000e+000 0.000000e+000 0.000000e+000 0.000000e+000 0.000000e+000 0.000000e+000 0.000000e+000 0.000000e+000 0.000000e+000 0.000000e+000 0.000000e+000 0.000000e+000 0.000000e+000 0.000000e+000 0.000000e+000 0.000000e+000 0.000000e+000 6.746950e-001 3.253050e-001 0.000000e+000 0.000000e+000 0.000000e+000 0.000000e+000 0.000000e+000 0.000000e+000 
0.000000e+000 0.000000e+000 0.000000e+000 0.000000e+000 0.000000e+000 0.000000e+000 0.000000e+000 0.000000e+000 0.000000e+000 0.000000e+000 0.000000e+000 0.000000e+000 0.000000e+000 0.000000e+000 0.000000e+000 0.000000e+000 0.000000e+000 0.000000e+000 7.826390e-001 2.173610e-001 0.000000e+000 0.000000e+000 0.000000e+000 0.000000e+000 0.000000e+000 
0.000000e+000 0.000000e+000 0.000000e+000 0.000000e+000 0.000000e+000 0.000000e+000 0.000000e+000 0.000000e+000 0.000000e+000 0.000000e+000 0.000000e+000 0.000000e+000 0.000000e+000 0.000000e+000 0.000000e+000 0.000000e+000 0.000000e+000 0.000000e+000 0.000000e+000 8.990760e-001 1.009241e-001 0.000000e+000 0.000000e+000 0.000000e+000 0.000000e+000 
0.000000e+000 0.000000e+000 0.000000e+000 0.000000e+000 0.000000e+000 0.000000e+000 0.000000e+000 0.000000e+000 0.000000e+000 0.000000e+000 0.000000e+000 0.000000e+000 0.000000e+000 0.000000e+000 0.000000e+000 0.000000e+000 0.000000e+000 0.000000e+000 0.000000e+000 0.000000e+000 1.364381e-001 8.635619e-001 0.000000e+000 0.000000e+000 0.000000e+000 
0.000000e+000 0.000000e+000 0.000000e+000 0.000000e+000 0.000000e+000 0.000000e+000 0.000000e+000 0.000000e+000 0.000000e+000 0.000000e+000 0.000000e+000 0.000000e+000 0.000000e+000 0.000000e+000 0.000000e+000 0.000000e+000 0.000000e+000 0.000000e+000 0.000000e+000 0.000000e+000 0.000000e+000 4.167451e-001 5.832549e-001 0.000000e+000 0.000000e+000 
0.000000e+000 0.000000e+000 0.000000e+000 0.000000e+000 0.000000e+000 0.000000e+000 0.000000e+000 0.000000e+000 0.000000e+000 0.000000e+000 0.000000e+000 0.000000e+000 0.000000e+000 0.000000e+000 0.000000e+000 0.000000e+000 0.000000e+000 0.000000e+000 0.000000e+000 0.000000e+000 0.000000e+000 0.000000e+000 8.149174e-001 1.850827e-001 0.000000e+000 
0.000000e+000 0.000000e+000 0.000000e+000 0.000000e+000 0.000000e+000 0.000000e+000 0.000000e+000 0.000000e+000 0.000000e+000 0.000000e+000 0.000000e+000 0.000000e+000 0.000000e+000 0.000000e+000 0.000000e+000 0.000000e+000 0.000000e+000 0.000000e+000 0.000000e+000 0.000000e+000 0.000000e+000 0.000000e+000 0.000000e+000 7.424371e-001 2.575629e-001 
0.000000e+000 0.000000e+000 0.000000e+000 0.000000e+000 0.000000e+000 0.000000e+000 0.000000e+000 0.000000e+000 0.000000e+000 0.000000e+000 0.000000e+000 0.000000e+000 0.000000e+000 0.000000e+000 0.000000e+000 0.000000e+000 0.000000e+000 0.000000e+000 0.000000e+000 0.000000e+000 0.000000e+000 0.000000e+000 0.000000e+000 0.000000e+000 0.000000e+000 
