<HMMNAME> 8
<HMMSTATES> 25
<STATE> 1
<MEAN> 36
-6.019114e+000 -2.337054e+000 -5.437155e+000 4.157371e-001 1.849755e+000 -9.433022e+000 -1.461161e+001 -2.846174e+000 8.366786e-001 4.355616e+000 5.779931e+000 2.603206e+000 9.588365e-001 -2.109896e-002 -2.801821e-001 -5.672824e-002 2.655340e-001 -7.881154e-001 -1.364718e+000 -5.350025e-001 -5.161424e-001 -4.163888e-001 -7.111411e-003 -1.235964e-002 1.566370e-001 2.886916e-002 -6.109268e-002 -1.399251e-002 -2.233067e-002 -1.259537e-001 -1.510360e-001 -9.465843e-002 -5.522775e-002 -9.251481e-002 -1.624550e-002 -1.842736e-002 
<VARIANCE> 36
1.621725e+001 1.415710e+001 1.603427e+001 1.057948e+001 7.850017e+000 3.523466e+001 7.237510e+001 2.492029e+001 1.346564e+001 2.440601e+001 1.974096e+001 1.330899e+001 1.390098e+000 7.533534e-001 1.266326e+000 6.897537e-001 7.455416e-001 2.744483e+000 4.585204e+000 1.803035e+000 1.127088e+000 2.064054e+000 1.556183e+000 9.921465e-001 1.743655e-001 1.290492e-001 1.763861e-001 1.771171e-001 1.847000e-001 5.163707e-001 7.290275e-001 2.249656e-001 2.201207e-001 3.214424e-001 3.303854e-001 2.061630e-001 
<GCONST> 8.848439e+001
<STATE> 2
<MEAN> 36
4.044101e+000 -1.057460e+000 -9.634977e+000 -1.370734e+000 2.079245e+000 -1.836197e+001 -2.908501e+001 -1.183430e+001 -3.141335e+000 2.320014e+000 5.690237e+000 3.114847e+000 7.325265e-001 -8.425480e-002 -1.403870e-001 7.597116e-002 1.484908e-001 -9.706060e-001 -1.390628e+000 -4.306636e-002 -6.027564e-002 -2.507946e-001 8.141541e-002 -1.754203e-001 -3.889788e-001 -1.873255e-002 2.104631e-001 9.092961e-002 5.731527e-002 3.611229e-001 5.130691e-001 3.367317e-001 1.215912e-001 8.709964e-002 6.258063e-002 -4.325667e-005 
<VARIANCE> 36
4.860272e+000 1.183652e+001 1.856117e+001 9.368071e+000 6.898334e+000 1.931486e+001 1.574089e+001 4.918955e+001 1.116611e+001 1.801192e+001 9.340980e+000 8.859936e+000 9.623371e-001 4.018932e-001 7.956998e-001 8.828207e-001 1.038097e+000 2.301225e+000 2.273666e+000 2.711859e+000 1.026322e+000 8.136420e-001 5.834476e-001 9.336561e-001 1.269147e-001 1.109164e-001 6.874018e-002 1.369771e-001 7.883361e-002 5.008871e-001 4.175321e-001 3.730017e-001 2.014739e-001 2.915764e-001 1.654862e-001 1.941147e-001 
<GCONST> 7.694459e+001
<STATE> 3
<MEAN> 36
3.789054e+000 -3.831051e+000 -7.429183e+000 1.355319e+000 3.277248e+000 -2.059787e+001 -3.020620e+001 -5.768644e+000 -3.843115e+000 -5.161207e-001 6.833063e+000 1.649462e+000 -2.300386e-001 7.621609e-002 4.850759e-001 7.814415e-002 3.841566e-001 4.431195e-001 -2.800177e-002 1.591811e-001 -1.507796e-001 -9.525508e-002 3.344586e-001 -5.211697e-002 -6.310609e-002 7.913018e-002 4.760852e-002 -1.207329e-001 -6.879195e-003 1.813744e-001 1.245867e-001 1.028523e-002 -4.095210e-003 5.554298e-002 5.490670e-002 -2.363256e-002 
<VARIANCE> 36
2.532914e+000 7.145853e+000 2.154123e+001 6.235431e+000 1.106534e+001 1.070317e+001 1.425410e+001 2.128579e+001 1.941844e+001 2.342818e+001 1.753678e+001 9.378242e+000 5.000000e-002 3.348728e-001 1.776899e-001 3.255596e-001 4.200302e-001 6.116228e-001 7.096028e-001 7.201376e-001 6.698561e-001 5.249101e-001 8.138529e-001 4.080616e-001 5.000000e-002 5.457610e-002 5.000000e-002 6.333840e-002 1.313417e-001 1.397168e-001 1.506881e-001 1.676093e-001 1.537311e-001 1.919949e-001 1.589615e-001 8.072720e-002 
<GCONST> 5.734010e+001
<STATE> 4
<MEAN> 36
2.343923e+000 -3.161499e-001 -3.170918e+000 -1.261868e+000 5.620896e+000 -1.633132e+001 -3.078933e+001 -5.661564e+000 -4.198003e+000 -8.095159e-001 8.401081e+000 1.945669e+000 -2.668865e-001 9.976599e-002 4.221574e-001 -4.206546e-001 1.910411e-001 4.369771e-001 1.663494e-001 9.775966e-001 3.845659e-001 -7.912176e-002 9.367448e-002 -4.544016e-001 -3.780163e-002 -4.178809e-002 -8.705139e-003 -5.085139e-002 -3.239750e-002 3.771353e-002 2.953116e-002 1.307912e-001 1.690309e-001 3.532207e-002 -4.275486e-002 -7.990592e-002 
<VARIANCE> 36
1.497848e+000 5.176120e+000 9.876965e+000 1.617566e+001 1.033605e+001 1.350556e+001 1.501609e+001 3.612629e+001 2.109064e+001 2.094487e+001 1.298527e+001 1.031025e+001 5.927253e-002 1.652199e-001 2.032302e-001 5.983820e-001 4.381002e-001 1.037386e+000 5.845818e-001 1.538728e+000 9.607428e-001 1.277312e+000 9.955429e-001 6.438008e-001 5.000000e-002 5.000000e-002 5.000000e-002 9.041924e-002 6.635565e-002 2.386787e-001 1.407520e-001 2.967291e-001 1.352280e-001 2.080846e-001 1.586884e-001 1.148583e-001 
<GCONST> 6.135325e+001
<STATE> 5
<MEAN> 36
-1.078167e+000 -1.149580e+000 -1.290465e+000 -5.527044e+000 5.984030e+000 -1.204372e+001 -2.650496e+001 4.646002e+000 4.327612e-001 1.069960e+000 1.008929e+001 -3.325256e+000 -4.662302e-001 -3.663539e-001 -2.213368e-001 -6.471811e-001 3.084355e-001 1.308119e+000 1.094347e+000 9.493379e-001 5.816474e-001 6.359996e-002 3.701369e-002 -3.350925e-001 -4.690062e-003 -1.388412e-001 -2.660413e-001 5.384826e-002 3.235092e-002 1.460617e-001 2.532624e-001 -1.401328e-001 -7.976967e-002 -4.976305e-002 -9.154811e-002 1.488427e-001 
<VARIANCE> 36
2.332762e+000 5.067901e+000 5.264317e+000 1.907242e+001 1.404091e+001 2.340532e+001 2.174384e+001 3.006757e+001 2.028590e+001 1.910587e+001 1.961283e+001 1.596215e+001 9.258801e-002 4.189080e-001 8.559209e-001 4.313432e-001 1.290511e+000 1.481359e+000 1.106339e+000 2.307577e+000 1.413262e+000 1.597256e+000 7.132861e-001 1.103388e+000 5.000000e-002 6.406583e-002 1.318072e-001 1.007478e-001 2.073703e-001 2.979444e-001 1.563051e-001 4.730218e-001 1.872198e-001 2.991091e-001 1.399260e-001 2.079318e-001 
<GCONST> 7.326723e+001
<STATE> 6
<MEAN> 36
-3.610168e+000 -5.782443e+000 -8.394165e+000 -8.616069e+000 4.870405e+000 -1.493269e+000 -1.364696e+001 7.002402e+000 3.946761e+000 5.731630e-001 5.628509e+000 -3.309175e+000 -4.023129e-001 -7.229790e-001 -9.107142e-001 -1.388933e-001 -7.737751e-001 1.213542e+000 2.165918e+000 -4.586068e-002 2.255097e-001 1.508473e-001 -1.082742e+000 -9.295753e-002 7.277852e-003 -4.199911e-002 1.646531e-001 1.508507e-001 -2.407611e-002 -7.236084e-002 -3.972843e-002 -1.690760e-001 -1.195917e-001 -1.585806e-002 -1.288690e-001 -6.276894e-003 
<VARIANCE> 36
2.887710e+000 5.258700e+000 1.033068e+001 2.074483e+001 2.414417e+001 1.910540e+001 4.766705e+001 3.087954e+001 2.289672e+001 2.248165e+001 2.011686e+001 1.548656e+001 1.230087e-001 3.040343e-001 9.850103e-001 1.141181e+000 1.961521e+000 1.774637e+000 1.443463e+000 2.080343e+000 1.838599e+000 1.005858e+000 1.425079e+000 1.700215e+000 5.000000e-002 6.145988e-002 1.668129e-001 1.935533e-001 5.434518e-001 3.825440e-001 3.435269e-001 4.425107e-001 3.361724e-001 2.359910e-001 2.765087e-001 3.011068e-001 
<GCONST> 8.264988e+001
<STATE> 7
<MEAN> 36
-6.391037e+000 -1.405463e+001 -1.015510e+001 -6.564752e+000 2.307596e+000 6.389965e+000 -2.472820e+000 4.409436e+000 4.065608e+000 -4.015479e-003 -2.377480e+000 -3.698555e+000 -4.790768e-001 -2.430608e+000 4.572087e-001 3.155184e-001 3.333112e-001 1.211665e+000 7.467118e-001 -1.187340e-001 -4.871520e-002 -4.497459e-001 -1.176142e+000 -5.735196e-002 -6.444136e-002 -3.040319e-001 2.083517e-001 -1.360165e-001 1.875630e-001 -7.181893e-002 -3.207131e-001 2.565960e-001 2.382999e-002 5.549998e-002 9.079401e-002 -1.905568e-002 
<VARIANCE> 36
1.230751e+000 2.391432e+001 8.612664e+000 1.023783e+001 1.141151e+001 1.715562e+001 1.408365e+001 1.705566e+001 1.601921e+001 1.232864e+001 1.286682e+001 9.511023e+000 1.264830e-001 9.924004e-001 7.896981e-001 5.868295e-001 1.090159e+000 1.186272e+000 1.430467e+000 2.228568e+000 1.469419e+000 1.544381e+000 9.530496e-001 8.378067e-001 5.000000e-002 1.218158e-001 1.046719e-001 1.010108e-001 2.511277e-001 2.633181e-001 2.211226e-001 2.937670e-001 3.593708e-001 3.537987e-001 2.541871e-001 1.548641e-001 
<GCONST> 7.364484e+001
<STATE> 8
<MEAN> 36
-1.026698e+001 -2.864416e+001 -5.220850e+000 -6.346804e+000 7.516070e+000 1.061404e+001 -2.525109e+000 6.905807e+000 3.543754e+000 3.909313e-001 -6.628426e+000 -4.024825e+000 -6.046008e-001 -1.306672e+000 8.660260e-001 1.296697e-001 9.030314e-001 6.604725e-002 -1.138577e-001 6.269372e-002 -2.250381e-001 3.512690e-001 -2.410049e-001 7.368645e-002 6.768233e-002 4.049119e-001 -2.331850e-002 1.029693e-001 -1.139957e-001 -1.706571e-001 -2.024963e-002 -1.916590e-001 -2.438648e-002 -3.079442e-002 1.307299e-001 4.050387e-002 
<VARIANCE> 36
1.584944e+000 8.703374e+000 4.206359e+000 9.083496e+000 1.376733e+001 2.090259e+001 1.096578e+001 2.186767e+001 1.391438e+001 1.226233e+001 9.980224e+000 5.694042e+000 1.325504e-001 1.003944e+000 4.362389e-001 6.313694e-001 8.116125e-001 8.815413e-001 9.796841e-001 1.381370e+000 1.463998e+000 1.572612e+000 1.086537e+000 7.213426e-001 5.000000e-002 6.963539e-002 1.018614e-001 1.167951e-001 1.460118e-001 2.071329e-001 1.936854e-001 2.633659e-001 3.419569e-001 3.447923e-001 2.278697e-001 1.468462e-001 
<GCONST> 6.790292e+001
<STATE> 9
<MEAN> 36
-1.330840e+001 -3.238325e+001 4.960766e-001 -2.786952e+000 1.112005e+001 9.332822e+000 -3.308087e+000 4.773604e+000 5.345344e-001 8.647902e-001 -6.672510e+000 -2.081606e+000 -1.640723e-001 -1.853669e-001 2.930231e-001 4.086833e-001 2.100239e-001 -5.754397e-003 -2.300147e-001 -5.131742e-002 -1.542342e-001 -9.157142e-002 1.033484e-001 1.699312e-001 2.700200e-002 -1.149339e-003 -9.493552e-002 -2.530627e-002 -4.722788e-003 4.330890e-002 3.545067e-003 3.909676e-002 2.815635e-002 -2.068386e-003 1.190841e-003 -3.051064e-002 
<VARIANCE> 36
1.724250e+000 2.673656e+000 5.691597e+000 1.138038e+001 8.936183e+000 1.736796e+001 1.397123e+001 1.618854e+001 1.026640e+001 1.434454e+001 1.143724e+001 9.513542e+000 7.739634e-002 2.195582e-001 4.051698e-001 3.504952e-001 4.646395e-001 7.263436e-001 1.115360e+000 1.048989e+000 9.061821e-001 1.105767e+000 6.637935e-001 9.089521e-001 5.000000e-002 5.000000e-002 7.453937e-002 6.777427e-002 9.437376e-002 1.524815e-001 2.291722e-001 2.178709e-001 1.751274e-001 2.282992e-001 1.434752e-001 1.959507e-001 
<GCONST> 5.924269e+001
<STATE> 10
<MEAN> 36
-1.427954e+001 -3.455044e+001 1.002491e+000 4.052452e-001 1.317227e+001 1.133115e+001 -5.996706e+000 4.964482e+000 4.946835e-001 -5.112700e-001 -5.063076e+000 -1.289949e+000 1.621598e-001 -7.892809e-002 -5.750086e-001 -1.409489e-001 1.024415e-001 4.587045e-001 4.816357e-001 1.276260e-001 -3.361824e-001 -3.205006e-001 -8.797267e-002 -2.495253e-001 1.168986e-001 2.737232e-001 -1.305979e-001 -1.071846e-001 -2.295366e-001 -2.525615e-002 3.603959e-001 1.878432e-001 -2.056660e-002 -1.929224e-001 -9.140849e-002 1.466946e-003 
<VARIANCE> 36
1.098009e+000 1.370778e+000 5.702309e+000 7.939867e+000 4.594568e+000 2.331261e+001 7.825477e+000 1.613717e+001 6.280529e+000 1.326265e+001 1.312549e+001 1.328789e+001 1.124779e-001 3.330475e-001 3.222888e-001 2.287799e-001 5.184737e-001 8.225649e-001 1.112904e+000 8.554371e-001 4.856846e-001 1.328023e+000 1.072379e+000 6.441943e-001 5.000000e-002 5.000000e-002 6.285354e-002 7.609910e-002 6.874810e-002 1.400869e-001 2.030220e-001 1.338341e-001 1.106294e-001 2.298506e-001 1.831697e-001 1.407579e-001 
<GCONST> 5.496740e+001
<STATE> 11
<MEAN> 36
-1.271496e+001 -3.125730e+001 -2.304585e+000 -2.056208e-001 1.131669e+001 1.151273e+001 -1.434316e+000 6.661108e+000 -1.203876e+000 -2.704469e+000 -6.543991e+000 -2.090616e+000 3.274114e-001 1.263895e+000 -8.961934e-001 3.412351e-001 -4.453097e-001 2.565211e-001 7.152720e-001 8.009838e-002 -8.280962e-002 -3.990410e-001 1.071991e-001 2.832104e-002 1.945845e-002 3.026581e-001 -1.274324e-002 1.179737e-001 1.052760e-001 -8.514988e-002 -1.476197e-001 -2.162361e-001 -7.087389e-002 1.447075e-001 1.813640e-001 7.676858e-002 
<VARIANCE> 36
9.605452e-001 6.472874e+000 9.359075e+000 1.172611e+001 1.043905e+001 1.595886e+001 1.014964e+001 1.237450e+001 1.019657e+001 1.216908e+001 1.066169e+001 1.109941e+001 7.839053e-002 4.934699e-001 3.808162e-001 6.936079e-001 4.142699e-001 6.761328e-001 8.610110e-001 8.444201e-001 7.650924e-001 6.680966e-001 1.323442e+000 8.829812e-001 5.000000e-002 5.000000e-002 8.027740e-002 1.411615e-001 1.130771e-001 1.674348e-001 1.571345e-001 1.613510e-001 1.755239e-001 1.085859e-001 2.737334e-001 1.474652e-001 
<GCONST> 6.025873e+001
<STATE> 12
<MEAN> 36
-1.048349e+001 -1.981587e+001 -6.343055e+000 1.552480e+000 1.195371e+001 1.191842e+001 -6.938714e-001 3.239873e+000 -4.060987e+000 -3.744920e+000 -3.442276e+000 -1.835053e+000 5.258051e-001 1.592323e+000 -1.812038e-001 -1.286510e-001 6.494446e-001 -3.104458e-001 -2.501105e-001 -4.168622e-001 -8.019429e-001 -9.260380e-003 3.919056e-001 -1.549783e-001 1.168833e-001 -1.449366e-001 1.418961e-001 -1.520142e-001 1.082213e-001 -9.178988e-002 -1.063945e-001 1.831188e-001 -5.270576e-002 -8.289953e-002 -2.386949e-001 -1.366603e-001 
<VARIANCE> 36
1.323720e+000 1.170375e+001 4.665057e+000 7.832688e+000 7.636198e+000 9.329331e+000 7.835238e+000 1.595925e+001 1.307315e+001 1.488107e+001 1.589071e+001 7.024207e+000 2.213754e-001 7.343540e-001 5.334368e-001 7.905174e-001 8.000897e-001 8.365515e-001 7.677068e-001 1.943219e+000 1.441924e+000 9.798773e-001 2.128450e+000 7.859639e-001 5.000000e-002 8.677450e-002 1.116591e-001 1.448997e-001 1.447886e-001 1.552179e-001 1.891159e-001 3.164971e-001 3.215882e-001 2.023407e-001 4.235190e-001 1.431857e-001 
<GCONST> 6.805087e+001
<STATE> 13
<MEAN> 36
-5.923316e+000 -1.365364e+001 -5.564929e+000 -5.975819e-001 1.685046e+001 8.691746e+000 -3.277118e+000 4.806007e+000 -8.628369e+000 -4.665562e+000 -5.401099e+000 -4.920467e+000 1.471821e+000 1.288423e+000 1.681896e-001 -7.086771e-001 7.958530e-001 -1.372642e+000 -1.101791e+000 3.478702e-001 -1.329889e+000 -1.414720e+000 -1.825321e+000 -1.069564e+000 -7.876563e-002 -1.516813e-001 -1.978663e-001 -9.360408e-002 -2.881005e-001 -1.099447e-001 -8.646766e-002 -3.381184e-001 -5.430219e-002 -2.778730e-001 -2.409301e-001 2.962988e-002 
<VARIANCE> 36
4.558068e+000 6.235872e+000 6.172390e+000 1.490836e+001 6.876485e+000 1.762787e+001 5.998499e+000 1.965613e+001 1.638811e+001 2.427995e+001 1.384554e+001 2.062283e+001 1.483372e-001 2.780280e-001 5.204784e-001 7.368241e-001 7.166869e-001 6.440496e-001 8.977064e-001 1.130689e+000 1.319960e+000 1.750807e+000 9.282469e-001 1.250728e+000 6.716653e-002 6.521798e-002 1.019842e-001 1.923539e-001 2.297168e-001 2.962998e-001 2.050395e-001 2.662202e-001 2.806329e-001 4.416411e-001 3.492465e-001 2.939220e-001 
<GCONST> 7.200129e+001
<STATE> 14
<MEAN> 36
-2.994410e+000 -1.027544e+001 -7.028297e+000 -3.844636e+000 1.389495e+001 6.092405e+000 -4.863600e+000 1.631805e+000 -9.710251e+000 -8.179279e+000 -1.009387e+001 -5.306358e+000 3.734107e-001 6.102170e-001 -3.865654e-001 -7.560344e-001 -6.456573e-001 -6.101007e-001 -2.076377e-001 -4.291898e-001 -3.129580e-002 -2.208171e-002 -3.050590e-001 -7.915938e-002 -1.078985e-001 -2.866715e-002 -1.159474e-002 -3.000874e-003 -1.195568e-001 2.669628e-002 6.592927e-002 4.395687e-002 2.212818e-001 2.886484e-001 2.348110e-001 9.899097e-002 
<VARIANCE> 36
1.990860e+000 5.870910e+000 5.714332e+000 2.415119e+001 2.576443e+001 1.365494e+001 1.143049e+001 2.278903e+001 2.115890e+001 1.581271e+001 1.312270e+001 1.020767e+001 1.048478e-001 2.500192e-001 2.945418e-001 6.315250e-001 8.028632e-001 1.673390e+000 1.204871e+000 1.310284e+000 1.191864e+000 1.585007e+000 1.317400e+000 9.692646e-001 5.000000e-002 5.000000e-002 5.666189e-002 1.282098e-001 1.355959e-001 3.301553e-001 2.591008e-001 2.511501e-001 2.545997e-001 2.647710e-001 2.494812e-001 2.138503e-001 
<GCONST> 6.961198e+001
<STATE> 15
<MEAN> 36
-3.731225e-001 -7.456331e+000 -1.000175e+001 -7.822945e+000 1.348032e+001 4.021043e-001 -8.007677e+000 2.357401e+000 -1.055408e+001 -7.137873e+000 -1.115342e+001 -6.940699e+000 2.132504e-001 3.984447e-001 -3.786844e-001 -4.730794e-001 -2.924802e-001 -4.962501e-001 -3.091910e-001 1.758599e-001 5.361135e-001 4.547197e-001 -8.131829e-002 -1.028676e-001 -3.330038e-002 -1.394245e-002 1.583548e-002 5.097841e-002 3.041925e-002 1.049860e-001 3.452659e-002 6.534291e-002 1.106038e-001 1.528881e-002 6.741995e-002 -8.309460e-002 
<VARIANCE> 36
2.535051e+000 5.407614e+000 4.452908e+000 1.368785e+001 1.243714e+001 1.212118e+001 9.288667e+000 2.658884e+001 1.339116e+001 1.333837e+001 9.067264e+000 1.124394e+001 6.511300e-002 1.657569e-001 3.219870e-001 4.100453e-001 5.213164e-001 6.934896e-001 5.831056e-001 8.304499e-001 1.012044e+000 7.036713e-001 1.048730e+000 8.402643e-001 5.000000e-002 5.000000e-002 5.000000e-002 8.724957e-002 9.919816e-002 1.464747e-001 1.320366e-001 1.681502e-001 1.455913e-001 1.491682e-001 2.049547e-001 1.859326e-001 
<GCONST> 5.790195e+001
<STATE> 16
<MEAN> 36
4.581575e-001 -4.425101e+000 -1.192318e+001 -9.818521e+000 1.001642e+001 -1.769268e+000 -8.749983e+000 4.236165e+000 -4.965939e+000 -3.270345e+000 -9.079717e+000 -8.957603e+000 4.225032e-002 5.296937e-001 -6.409330e-003 -1.961145e-001 -6.757150e-001 -1.187626e-002 1.372906e-001 -7.273840e-003 6.649806e-001 7.732945e-001 6.126649e-001 -2.355030e-001 -3.755810e-002 1.811585e-002 7.869056e-002 1.028202e-001 -7.801458e-002 7.042018e-002 9.486519e-002 -1.172263e-001 9.708155e-003 6.825011e-002 4.405548e-002 7.705250e-002 
<VARIANCE> 36
2.805642e+000 3.858675e+000 7.665668e+000 1.163635e+001 1.759207e+001 1.765139e+001 1.088751e+001 3.042361e+001 8.804659e+000 1.173897e+001 1.138153e+001 6.333541e+000 7.549128e-002 1.186312e-001 2.037276e-001 5.233632e-001 5.958216e-001 7.051683e-001 5.523055e-001 6.574916e-001 7.416902e-001 7.014379e-001 7.151331e-001 8.144070e-001 5.000000e-002 5.000000e-002 5.000000e-002 9.877489e-002 9.848147e-002 9.763203e-002 1.357194e-001 6.921468e-002 1.697457e-001 1.233606e-001 1.145404e-001 1.781290e-001 
<GCONST> 5.509306e+001
<STATE> 17
<MEAN> 36
-6.652501e-001 -4.297586e-001 -9.625438e+000 -9.102718e+000 3.721503e+000 2.963223e-001 -6.118891e+000 1.436408e+000 4.839461e-002 1.700105e+000 -4.727416e+000 -7.871458e+000 -3.264822e-001 5.092418e-001 4.150630e-001 6.136150e-001 -1.123664e+000 6.260011e-002 8.383973e-001 8.833929e-002 8.298672e-001 2.707368e-001 6.116682e-001 4.341331e-001 -1.229727e-001 -7.975292e-002 5.461967e-002 8.183401e-002 4.562174e-002 -5.737182e-003 1.842413e-001 1.902972e-001 -8.016110e-002 -1.231591e-001 -3.172411e-003 1.783497e-001 
<VARIANCE> 36
2.255174e+000 4.979184e+000 6.948809e+000 1.588660e+001 1.403558e+001 1.209071e+001 1.287755e+001 2.612421e+001 8.913769e+000 8.265855e+000 1.120092e+001 8.895855e+000 1.733250e-001 1.620768e-001 3.730791e-001 4.857206e-001 3.672306e-001 4.868073e-001 1.104773e+000 9.485479e-001 6.129405e-001 7.764375e-001 9.258667e-001 5.610618e-001 5.000000e-002 5.000000e-002 5.000000e-002 8.433413e-002 7.163500e-002 9.001505e-002 1.194768e-001 1.451564e-001 1.243160e-001 1.897650e-001 2.331546e-001 8.232092e-002 
<GCONST> 5.652835e+001
<STATE> 18
<MEAN> 36
-4.153561e+000 -1.436422e-001 -7.293949e+000 -5.449336e+000 6.292104e-001 1.001339e+000 2.026935e-001 4.693448e+000 2.639704e+000 2.773467e+000 -2.506905e+000 -4.861121e+000 -7.224226e-001 1.125440e-003 4.607521e-001 6.301559e-001 -8.030656e-002 1.423047e-001 1.083825e+000 7.575463e-001 5.678122e-001 2.402330e-001 3.712436e-001 6.890603e-001 1.125971e-001 -3.716434e-002 -7.810873e-002 -7.411869e-002 1.620224e-001 -4.067833e-002 -1.143369e-001 4.811559e-003 3.044734e-003 -9.673470e-002 -4.193946e-002 -1.629606e-002 
<VARIANCE> 36
3.628631e+000 4.425198e+000 6.718640e+000 8.606954e+000 8.529928e+000 5.729922e+000 1.378819e+001 2.474353e+001 1.072568e+001 1.080587e+001 6.140555e+000 6.596856e+000 4.253495e-001 3.188143e-001 6.342323e-001 5.494868e-001 4.121091e-001 4.593560e-001 1.392791e+000 1.043525e+000 1.422600e+000 1.372555e+000 1.261718e+000 5.072445e-001 6.086842e-002 7.779540e-002 9.851533e-002 1.126659e-001 1.231479e-001 1.018549e-001 1.608034e-001 2.018018e-001 2.679023e-001 2.314404e-001 2.588539e-001 9.416718e-002 
<GCONST> 6.289844e+001
<STATE> 19
<MEAN> 36
-5.619058e+000 8.087932e-001 -5.365638e+000 -4.084916e+000 -1.390560e+000 7.092925e-001 3.573107e+000 7.969696e+000 5.501975e+000 2.671034e+000 -6.849068e-001 -2.421391e+000 -2.009845e-001 6.549993e-002 2.392256e-001 2.423558e-001 -5.622478e-002 1.900225e-001 2.757006e-001 1.616004e-001 1.340603e-001 -5.393867e-003 2.981410e-001 3.008045e-001 1.318221e-002 5.563370e-003 8.841139e-003 8.475426e-003 7.255182e-002 2.823255e-002 -1.436736e-001 -7.391191e-002 -7.119372e-002 -2.201610e-002 5.980453e-003 -8.501286e-002 
<VARIANCE> 36
3.116809e+000 2.636673e+000 5.098970e+000 4.557780e+000 7.024735e+000 9.229971e+000 1.201028e+001 1.577972e+001 8.816942e+000 1.034301e+001 6.153814e+000 1.022869e+001 1.154380e-001 9.987825e-002 2.316363e-001 3.072207e-001 6.344734e-001 9.157682e-001 1.088183e+000 8.081417e-001 7.067009e-001 8.737878e-001 7.101524e-001 1.150183e+000 5.000000e-002 5.000000e-002 5.000000e-002 5.988590e-002 1.244546e-001 2.017190e-001 2.522525e-001 1.665859e-001 1.649392e-001 1.973579e-001 1.715606e-001 2.709209e-001 
<GCONST> 5.587549e+001
<STATE> 20
<MEAN> 36
-7.429002e+000 1.207289e+000 -3.539898e+000 -2.472771e+000 5.193600e-001 2.954529e+000 3.927895e+000 8.153307e+000 4.963320e+000 2.272867e+000 1.052755e+000 -3.178114e-001 -2.090745e-001 1.297868e-001 3.306353e-001 2.921431e-001 5.421590e-002 5.516236e-002 4.351299e-003 -1.754874e-001 4.440295e-002 2.036278e-002 4.695276e-002 5.577970e-002 5.745723e-003 -2.286394e-002 1.486246e-002 -1.060772e-002 -9.136858e-002 -2.138124e-002 8.582902e-002 -9.335075e-002 -8.934766e-002 5.065572e-002 -7.084375e-002 -6.173124e-002 
<VARIANCE> 36
2.959380e+000 2.370040e+000 6.165196e+000 5.193901e+000 7.794870e+000 5.243213e+000 1.277586e+001 1.431750e+001 7.831338e+000 9.960444e+000 1.173790e+001 7.273543e+000 6.043680e-002 2.280403e-001 2.667421e-001 2.807234e-001 6.754659e-001 6.545120e-001 7.217324e-001 1.173787e+000 8.703104e-001 1.347818e+000 1.552117e+000 9.799171e-001 5.000000e-002 5.000000e-002 5.000000e-002 5.895035e-002 8.672594e-002 1.235655e-001 1.282585e-001 2.058069e-001 1.435801e-001 3.097319e-001 2.991812e-001 1.587675e-001 
<GCONST> 5.587300e+001
<STATE> 21
<MEAN> 36
-8.201177e+000 1.405356e+000 -2.396013e+000 -6.138139e-001 6.190540e-001 3.234522e+000 4.672257e+000 5.592680e+000 4.068568e+000 2.893708e+000 -1.790815e-001 -2.753153e+000 -2.218824e-001 -1.289768e-001 -6.426556e-002 2.679287e-001 -3.713971e-002 -3.001235e-002 3.965525e-001 1.305603e-001 -2.740741e-002 1.979708e-001 3.874335e-001 1.552706e-001 -3.477554e-002 -7.158304e-002 -7.651160e-002 -6.055225e-002 -1.320485e-002 -1.051105e-001 -1.216493e-001 1.697075e-001 8.209398e-002 -1.965905e-002 5.399197e-003 3.010182e-002 
<VARIANCE> 36
5.120035e+000 1.931553e+000 9.128112e+000 1.087065e+001 8.593483e+000 8.591298e+000 1.285683e+001 8.535424e+000 5.666634e+000 5.660851e+000 9.983994e+000 6.265193e+000 7.654375e-002 1.653703e-001 1.728307e-001 9.322328e-001 6.827131e-001 9.648680e-001 5.450795e-001 2.001839e+000 5.676135e-001 8.484561e-001 8.670238e-001 2.449616e-001 5.000000e-002 5.000000e-002 6.085538e-002 2.259492e-001 1.697950e-001 1.914506e-001 1.234259e-001 3.525985e-001 1.656008e-001 8.248948e-002 1.930996e-001 1.362621e-001 
<GCONST> 5.608124e+001
<STATE> 22
<MEAN> 36
-8.529909e+000 -4.512086e-001 -5.319713e+000 -1.590212e+000 1.871623e+000 2.962090e+000 2.550729e+000 6.035204e+000 6.327583e+000 5.850731e+000 1.986646e+000 -2.424051e+000 -2.829489e-001 -1.806682e-001 -1.805552e-002 -1.289940e-002 2.012548e-001 1.210823e-001 -2.225448e-001 2.322901e-001 9.885910e-002 -5.843728e-002 -2.579215e-001 -4.180993e-001 1.915208e-003 5.439137e-002 1.112778e-001 1.035026e-003 -2.481265e-002 4.521096e-002 -2.608860e-002 -1.751933e-001 -1.988296e-001 -1.108005e-001 -1.334163e-001 -2.771692e-002 
<VARIANCE> 36
5.262451e+000 2.939839e+000 1.212631e+001 6.755151e+000 1.229302e+001 3.707025e+000 1.645731e+001 2.678781e+001 6.905295e+000 1.797359e+001 2.004666e+001 1.736248e+001 6.207626e-002 1.285001e-001 4.616209e-001 7.754343e-001 5.825119e-001 4.771866e-001 7.645287e-001 1.465900e+000 1.312442e+000 8.828381e-001 1.807684e+000 9.159418e-001 5.000000e-002 5.000000e-002 5.000000e-002 1.623141e-001 9.479531e-002 7.815412e-002 1.590281e-001 4.133717e-001 2.397123e-001 1.694725e-001 4.304522e-001 1.481145e-001 
<GCONST> 6.312777e+001
<STATE> 23
<MEAN> 36
-1.084624e+001 3.333251e-001 -1.937339e+000 1.008938e-001 6.796424e-001 2.628278e+000 3.471977e+000 5.074726e+000 2.482930e+000 1.721609e+000 6.623353e-001 -6.258650e-001 -1.242223e-001 -2.275249e-002 8.036533e-002 1.121653e-001 4.995288e-002 3.359046e-003 -1.280045e-001 -3.483991e-001 -1.685028e-001 -1.736345e-001 -1.157201e-001 2.483782e-001 5.126588e-003 3.124464e-003 -2.510603e-002 -1.205195e-002 -2.542194e-003 1.585699e-002 1.117339e-002 1.865109e-003 1.067331e-001 8.096776e-002 -2.031426e-002 -7.616648e-003 
<VARIANCE> 36
4.958200e+000 2.459751e+000 6.150736e+000 4.604542e+000 5.786236e+000 6.864971e+000 1.141356e+001 9.973922e+000 8.280166e+000 1.395704e+001 9.905424e+000 9.415525e+000 1.431664e-001 1.948238e-001 4.533010e-001 5.916421e-001 6.612309e-001 5.039013e-001 1.088667e+000 1.197107e+000 8.398318e-001 7.842083e-001 1.116412e+000 7.832685e-001 5.000000e-002 5.000000e-002 8.550077e-002 1.285741e-001 1.231045e-001 1.227603e-001 1.925076e-001 2.488469e-001 1.241735e-001 1.468415e-001 2.056047e-001 1.649477e-001 
<GCONST> 5.830775e+001
<TRANSP> 25
0.000000e+000 1.000000e+000 0.000000e+000 0.000000e+000 0.000000e+000 0.000000e+000 0.000000e+000 0.000000e+000 0.000000e+000 0.000000e+000 0.000000e+000 0.000000e+000 0.000000e+000 0.000000e+000 0.000000e+000 0.000000e+000 0.000000e+000 0.000000e+000 0.000000e+000 0.000000e+000 0.000000e+000 0.000000e+000 0.000000e+000 0.000000e+000 0.000000e+000 
0.000000e+000 8.414874e-001 1.585126e-001 0.000000e+000 0.000000e+000 0.000000e+000 0.000000e+000 0.000000e+000 0.000000e+000 0.000000e+000 0.000000e+000 0.000000e+000 0.000000e+000 0.000000e+000 0.000000e+000 0.000000e+000 0.000000e+000 0.000000e+000 0.000000e+000 0.000000e+000 0.000000e+000 0.000000e+000 0.000000e+000 0.000000e+000 0.000000e+000 
0.000000e+000 0.000000e+000 7.483057e-001 2.516943e-001 0.000000e+000 0.000000e+000 0.000000e+000 0.000000e+000 0.000000e+000 0.000000e+000 0.000000e+000 0.000000e+000 0.000000e+000 0.000000e+000 0.000000e+000 0.000000e+000 0.000000e+000 0.000000e+000 0.000000e+000 0.000000e+000 0.000000e+000 0.000000e+000 0.000000e+000 0.000000e+000 0.000000e+000 
0.000000e+000 0.000000e+000 0.000000e+000 8.071008e-001 1.928992e-001 0.000000e+000 0.000000e+000 0.000000e+000 0.000000e+000 0.000000e+000 0.000000e+000 0.000000e+000 0.000000e+000 0.000000e+000 0.000000e+000 0.000000e+000 0.000000e+000 0.000000e+000 0.000000e+000 0.000000e+000 0.000000e+000 0.000000e+000 0.000000e+000 0.000000e+000 0.000000e+000 
0.000000e+000 0.000000e+000 0.000000e+000 0.000000e+000 8.596478e-001 1.403521e-001 0.000000e+000 0.000000e+000 0.000000e+000 0.000000e+000 0.000000e+000 0.000000e+000 0.000000e+000 0.000000e+000 0.000000e+000 0.000000e+000 0.000000e+000 0.000000e+000 0.000000e+000 0.000000e+000 0.000000e+000 0.000000e+000 0.000000e+000 0.000000e+000 0.000000e+000 
0.000000e+000 0.000000e+000 0.000000e+000 0.000000e+000 0.000000e+000 8.452641e-001 1.547361e-001 0.000000e+000 0.000000e+000 0.000000e+000 0.000000e+000 0.000000e+000 0.000000e+000 0.000000e+000 0.000000e+000 0.000000e+000 0.000000e+000 0.000000e+000 0.000000e+000 0.000000e+000 0.000000e+000 0.000000e+000 0.000000e+000 0.000000e+000 0.000000e+000 
0.000000e+000 0.000000e+000 0.000000e+000 0.000000e+000 0.000000e+000 0.000000e+000 8.666190e-001 1.333811e-001 0.000000e+000 0.000000e+000 0.000000e+000 0.000000e+000 0.000000e+000 0.000000e+000 0.000000e+000 0.000000e+000 0.000000e+000 0.000000e+000 0.000000e+000 0.000000e+000 0.000000e+000 0.000000e+000 0.000000e+000 0.000000e+000 0.000000e+000 
0.000000e+000 0.000000e+000 0.000000e+000 0.000000e+000 0.000000e+000 0.000000e+000 0.000000e+000 8.258227e-001 1.741773e-001 0.000000e+000 0.000000e+000 0.000000e+000 0.000000e+000 0.000000e+000 0.000000e+000 0.000000e+000 0.000000e+000 0.000000e+000 0.000000e+000 0.000000e+000 0.000000e+000 0.000000e+000 0.000000e+000 0.000000e+000 0.000000e+000 
0.000000e+000 0.000000e+000 0.000000e+000 0.000000e+000 0.000000e+000 0.000000e+000 0.000000e+000 0.000000e+000 8.429519e-001 1.570482e-001 0.000000e+000 0.000000e+000 0.000000e+000 0.000000e+000 0.000000e+000 0.000000e+000 0.000000e+000 0.000000e+000 0.000000e+000 0.000000e+000 0.000000e+000 0.000000e+000 0.000000e+000 0.000000e+000 0.000000e+000 
0.000000e+000 0.000000e+000 0.000000e+000 0.000000e+000 0.000000e+000 0.000000e+000 0.000000e+000 0.000000e+000 0.000000e+000 9.266785e-001 7.332167e-002 0.000000e+000 0.000000e+000 0.000000e+000 0.000000e+000 0.000000e+000 0.000000e+000 0.000000e+000 0.000000e+000 0.000000e+000 0.000000e+000 0.000000e+000 0.000000e+000 0.000000e+000 0.000000e+000 
0.000000e+000 0.000000e+000 0.000000e+000 0.000000e+000 0.000000e+000 0.000000e+000 0.000000e+000 0.000000e+000 0.000000e+000 0.000000e+000 6.937841e-001 3.062160e-001 0.000000e+000 0.000000e+000 0.000000e+000 0.000000e+000 0.000000e+000 0.000000e+000 0.000000e+000 0.000000e+000 0.000000e+000 0.000000e+000 0.000000e+000 0.000000e+000 0.000000e+000 
0.000000e+000 0.000000e+000 0.000000e+000 0.000000e+000 0.000000e+000 0.000000e+000 0.000000e+000 0.000000e+000 0.000000e+000 0.000000e+000 0.000000e+000 8.184666e-001 1.815334e-001 0.000000e+000 0.000000e+000 0.000000e+000 0.000000e+000 0.000000e+000 0.000000e+000 0.000000e+000 0.000000e+000 0.000000e+000 0.000000e+000 0.000000e+000 0.000000e+000 
0.000000e+000 0.000000e+000 0.000000e+000 0.000000e+000 0.000000e+000 0.000000e+000 0.000000e+000 0.000000e+000 0.000000e+000 0.000000e+000 0.000000e+000 0.000000e+000 8.522552e-001 1.477446e-001 0.000000e+000 0.000000e+000 0.000000e+000 0.000000e+000 0.000000e+000 0.000000e+000 0.000000e+000 0.000000e+000 0.000000e+000 0.000000e+000 0.000000e+000 
0.000000e+000 0.000000e+000 0.000000e+000 0.000000e+000 0.000000e+000 0.000000e+000 0.000000e+000 0.000000e+000 0.000000e+000 0.000000e+000 0.000000e+000 0.000000e+000 0.000000e+000 6.469557e-001 3.530442e-001 0.000000e+000 0.000000e+000 0.000000e+000 0.000000e+000 0.000000e+000 0.000000e+000 0.000000e+000 0.000000e+000 0.000000e+000 0.000000e+000 
0.000000e+000 0.000000e+000 0.000000e+000 0.000000e+000 0.000000e+000 0.000000e+000 0.000000e+000 0.000000e+000 0.000000e+000 0.000000e+000 0.000000e+000 0.000000e+000 0.000000e+000 0.000000e+000 8.373159e-001 1.626841e-001 0.000000e+000 0.000000e+000 0.000000e+000 0.000000e+000 0.000000e+000 0.000000e+000 0.000000e+000 0.000000e+000 0.000000e+000 
0.000000e+000 0.000000e+000 0.000000e+000 0.000000e+000 0.000000e+000 0.000000e+000 0.000000e+000 0.000000e+000 0.000000e+000 0.000000e+000 0.000000e+000 0.000000e+000 0.000000e+000 0.000000e+000 0.000000e+000 8.469523e-001 1.530477e-001 0.000000e+000 0.000000e+000 0.000000e+000 0.000000e+000 0.000000e+000 0.000000e+000 0.000000e+000 0.000000e+000 
0.000000e+000 0.000000e+000 0.000000e+000 0.000000e+000 0.000000e+000 0.000000e+000 0.000000e+000 0.000000e+000 0.000000e+000 0.000000e+000 0.000000e+000 0.000000e+000 0.000000e+000 0.000000e+000 0.000000e+000 0.000000e+000 8.443954e-001 1.556046e-001 0.000000e+000 0.000000e+000 0.000000e+000 0.000000e+000 0.000000e+000 0.000000e+000 0.000000e+000 
0.000000e+000 0.000000e+000 0.000000e+000 0.000000e+000 0.000000e+000 0.000000e+000 0.000000e+000 0.000000e+000 0.000000e+000 0.000000e+000 0.000000e+000 0.000000e+000 0.000000e+000 0.000000e+000 0.000000e+000 0.000000e+000 0.000000e+000 8.046383e-001 1.953617e-001 0.000000e+000 0.000000e+000 0.000000e+000 0.000000e+000 0.000000e+000 0.000000e+000 
0.000000e+000 0.000000e+000 0.000000e+000 0.000000e+000 0.000000e+000 0.000000e+000 0.000000e+000 0.000000e+000 0.000000e+000 0.000000e+000 0.000000e+000 0.000000e+000 0.000000e+000 0.000000e+000 0.000000e+000 0.000000e+000 0.000000e+000 0.000000e+000 7.357861e-001 2.642139e-001 0.000000e+000 0.000000e+000 0.000000e+000 0.000000e+000 0.000000e+000 
0.000000e+000 0.000000e+000 0.000000e+000 0.000000e+000 0.000000e+000 0.000000e+000 0.000000e+000 0.000000e+000 0.000000e+000 0.000000e+000 0.000000e+000 0.000000e+000 0.000000e+000 0.000000e+000 0.000000e+000 0.000000e+000 0.000000e+000 0.000000e+000 0.000000e+000 8.551215e-001 1.448785e-001 0.000000e+000 0.000000e+000 0.000000e+000 0.000000e+000 
0.000000e+000 0.000000e+000 0.000000e+000 0.000000e+000 0.000000e+000 0.000000e+000 0.000000e+000 0.000000e+000 0.000000e+000 0.000000e+000 0.000000e+000 0.000000e+000 0.000000e+000 0.000000e+000 0.000000e+000 0.000000e+000 0.000000e+000 0.000000e+000 0.000000e+000 0.000000e+000 7.752457e-001 2.247543e-001 0.000000e+000 0.000000e+000 0.000000e+000 
0.000000e+000 0.000000e+000 0.000000e+000 0.000000e+000 0.000000e+000 0.000000e+000 0.000000e+000 0.000000e+000 0.000000e+000 0.000000e+000 0.000000e+000 0.000000e+000 0.000000e+000 0.000000e+000 0.000000e+000 0.000000e+000 0.000000e+000 0.000000e+000 0.000000e+000 0.000000e+000 0.000000e+000 6.210223e-001 3.789778e-001 0.000000e+000 0.000000e+000 
0.000000e+000 0.000000e+000 0.000000e+000 0.000000e+000 0.000000e+000 0.000000e+000 0.000000e+000 0.000000e+000 0.000000e+000 0.000000e+000 0.000000e+000 0.000000e+000 0.000000e+000 0.000000e+000 0.000000e+000 0.000000e+000 0.000000e+000 0.000000e+000 0.000000e+000 0.000000e+000 0.000000e+000 0.000000e+000 6.229237e-001 3.770764e-001 0.000000e+000 
0.000000e+000 0.000000e+000 0.000000e+000 0.000000e+000 0.000000e+000 0.000000e+000 0.000000e+000 0.000000e+000 0.000000e+000 0.000000e+000 0.000000e+000 0.000000e+000 0.000000e+000 0.000000e+000 0.000000e+000 0.000000e+000 0.000000e+000 0.000000e+000 0.000000e+000 0.000000e+000 0.000000e+000 0.000000e+000 0.000000e+000 8.357934e-001 1.642066e-001 
0.000000e+000 0.000000e+000 0.000000e+000 0.000000e+000 0.000000e+000 0.000000e+000 0.000000e+000 0.000000e+000 0.000000e+000 0.000000e+000 0.000000e+000 0.000000e+000 0.000000e+000 0.000000e+000 0.000000e+000 0.000000e+000 0.000000e+000 0.000000e+000 0.000000e+000 0.000000e+000 0.000000e+000 0.000000e+000 0.000000e+000 0.000000e+000 0.000000e+000 
