<HMMNAME> 0
<HMMSTATES> 25
<STATE> 1
<MEAN> 36
-1.271475e+001 -4.339848e+000 7.600646e+000 6.870942e-001 1.287600e+000 7.602427e+000 7.504414e+000 5.321695e+000 -2.845487e+000 4.051679e+000 -1.319809e+000 -5.449518e+000 -4.244102e-001 -7.065268e-001 7.946371e-001 -6.043624e-001 -2.460129e-002 3.707044e-002 -1.093247e-001 1.384394e-001 -7.453700e-001 6.731243e-001 1.068257e-001 -1.180337e-001 -4.121614e-002 -5.399924e-003 6.846156e-002 -8.443590e-002 1.065674e-002 -2.459031e-002 -1.537299e-001 -4.443491e-003 2.154236e-002 5.494768e-002 6.570587e-002 8.620049e-002 
<VARIANCE> 36
7.389450e+000 2.249970e+001 2.217309e+001 1.634029e+001 1.374379e+001 1.240797e+001 1.097896e+001 1.679292e+001 2.926368e+001 2.172825e+001 1.360759e+001 1.191995e+001 2.132633e-001 3.812068e-001 7.128462e-001 6.886547e-001 6.656216e-001 9.095866e-001 1.240429e+000 1.517985e+000 1.392701e+000 1.571522e+000 1.151166e+000 8.319736e-001 5.000000e-002 5.000000e-002 9.585567e-002 9.986988e-002 1.288493e-001 2.131345e-001 2.205984e-001 2.657780e-001 2.998649e-001 2.963500e-001 2.245617e-001 1.499981e-001 
<GCONST> 7.383621e+001
<STATE> 2
<MEAN> 36
-1.797191e+001 -1.217750e+001 1.652372e+001 -7.366853e+000 1.578413e+000 7.250651e+000 5.308822e+000 6.490013e+000 -9.747049e+000 9.804970e+000 7.106542e-001 -5.049614e+000 -2.777220e-001 -5.053725e-001 3.523066e-001 -5.371618e-001 3.451330e-001 1.613703e-002 3.611680e-004 1.150909e-001 -2.790207e-001 -1.820516e-001 -1.602272e-001 2.039736e-001 7.598013e-002 3.286365e-002 -1.668695e-001 1.665487e-001 1.827327e-002 -4.768059e-002 6.805143e-002 -5.081813e-002 7.375898e-002 -1.069355e-001 -5.798900e-002 1.923224e-002 
<VARIANCE> 36
6.254562e+000 6.414091e+000 1.794003e+001 1.140576e+001 1.924864e+001 1.582047e+001 2.088700e+001 1.184341e+001 1.357068e+001 1.628188e+001 1.906069e+001 1.731467e+001 1.860579e-001 2.432137e-001 6.821902e-001 5.502419e-001 9.483683e-001 1.048125e+000 1.122019e+000 9.547838e-001 1.544968e+000 1.354093e+000 1.067376e+000 8.462094e-001 5.000000e-002 5.000000e-002 7.758006e-002 8.801531e-002 2.109082e-001 1.879024e-001 2.467413e-001 2.346950e-001 3.254181e-001 2.633560e-001 2.149931e-001 1.887064e-001 
<GCONST> 7.151037e+001
<STATE> 3
<MEAN> 36
-1.832654e+001 -1.561311e+001 1.585876e+001 -7.717288e+000 3.455447e+000 4.661516e+000 5.422394e+000 7.437058e+000 -1.053119e+001 8.055493e+000 -7.660705e-001 -2.538441e+000 6.512476e-001 3.279507e-002 -7.416106e-001 6.475117e-001 -1.747055e-001 -1.166105e-001 1.353933e-001 2.295748e-001 2.723080e-001 -3.578212e-001 -1.844380e-001 -1.327833e-001 1.828152e-001 1.791860e-001 -1.024433e-001 7.847801e-002 -5.571255e-002 1.205664e-001 1.089033e-001 4.419604e-002 8.277101e-002 -9.219172e-002 -8.474117e-002 -1.798809e-001 
<VARIANCE> 36
8.428107e+000 6.158330e+000 2.373252e+001 1.110616e+001 1.299300e+001 2.188202e+001 1.837101e+001 1.835383e+001 1.263335e+001 2.301825e+001 1.576041e+001 9.994808e+000 2.930502e-001 3.886624e-001 5.920182e-001 4.901787e-001 6.827416e-001 1.358388e+000 7.451196e-001 1.355794e+000 1.325250e+000 1.166669e+000 1.582239e+000 1.201499e+000 5.000000e-002 5.943339e-002 1.017939e-001 9.681844e-002 1.106266e-001 2.489937e-001 1.127640e-001 3.096143e-001 2.460956e-001 2.580598e-001 3.314694e-001 1.659759e-001 
<GCONST> 7.245162e+001
<STATE> 4
<MEAN> 36
-1.184665e+001 -1.135359e+001 9.371604e+000 -4.223711e+000 2.253851e+000 8.685076e+000 6.963863e+000 8.162573e+000 -7.832329e+000 2.847832e+000 -2.285341e+000 -7.110539e+000 1.520742e+000 1.142871e+000 -1.450855e+000 2.731477e-001 1.113390e-001 1.585031e-001 1.330877e-001 6.593993e-003 5.503454e-002 -1.602216e+000 -5.580731e-001 4.302258e-002 1.584284e-001 9.376283e-002 -1.776459e-001 -2.810939e-001 9.804630e-002 -1.710740e-001 -2.039589e-001 3.187737e-002 -1.272182e-001 -1.970525e-001 4.523616e-002 2.461078e-001 
<VARIANCE> 36
6.137543e+000 9.133738e+000 1.565835e+001 1.272449e+001 1.058146e+001 1.848545e+001 1.728265e+001 1.653493e+001 1.078835e+001 1.955813e+001 1.755922e+001 1.631349e+001 3.596515e-001 3.021529e-001 9.645267e-001 1.147063e+000 7.346391e-001 9.778378e-001 1.051514e+000 1.663090e+000 9.435192e-001 1.718456e+000 1.152961e+000 1.112054e+000 5.000000e-002 5.248396e-002 1.207998e-001 2.532041e-001 1.356122e-001 1.852319e-001 1.951076e-001 3.532714e-001 2.260523e-001 2.427604e-001 2.442301e-001 1.906952e-001 
<GCONST> 7.450839e+001
<STATE> 5
<MEAN> 36
-4.631385e+000 -6.667656e+000 2.239635e+000 -6.304166e+000 2.912443e+000 7.572867e+000 5.174808e+000 8.502190e+000 -7.433842e+000 -3.668982e+000 -4.560568e+000 -4.814689e+000 1.627758e+000 6.236169e-001 -1.591299e+000 -9.446231e-001 5.957318e-001 -7.139867e-001 -9.973323e-001 3.353619e-001 1.722069e-001 -1.346860e+000 -5.559342e-001 2.222267e-001 -1.964113e-001 -2.994514e-001 1.950980e-001 -8.047725e-002 5.621017e-002 -2.037796e-001 -2.203850e-001 1.392491e-002 -8.526057e-002 1.891557e-001 2.929651e-002 -8.048756e-002 
<VARIANCE> 36
5.631800e+000 6.710202e+000 1.087277e+001 9.251253e+000 1.122007e+001 1.556079e+001 1.523909e+001 1.043008e+001 9.776194e+000 1.416232e+001 1.049243e+001 1.166762e+001 3.979886e-001 3.645191e-001 5.713281e-001 5.927454e-001 7.187981e-001 8.944965e-001 7.966986e-001 9.207965e-001 6.955558e-001 1.012774e+000 9.080235e-001 6.313557e-001 5.000000e-002 8.411777e-002 8.986088e-002 1.599964e-001 1.420569e-001 1.175535e-001 1.190881e-001 1.385309e-001 1.616231e-001 2.428498e-001 1.899787e-001 1.131177e-001 
<GCONST> 6.471590e+001
<STATE> 6
<MEAN> 36
6.933523e-001 -8.737470e+000 -2.586383e+000 -8.687426e+000 3.915890e+000 5.245860e-001 3.129438e-001 1.119353e+001 -9.658161e+000 -9.493098e+000 -5.999386e+000 -5.280605e+000 6.434130e-001 -1.655779e-001 -9.418030e-001 -6.387929e-001 3.268373e-001 -8.951641e-001 -1.318878e+000 8.957047e-002 -3.857287e-001 -8.225771e-001 -1.656046e-001 -7.149360e-002 -1.220122e-001 6.317937e-002 -3.058916e-002 4.939219e-002 4.431899e-002 1.260844e-001 -3.865092e-002 -1.998106e-001 -3.467174e-002 1.338694e-001 3.870356e-002 2.126018e-002 
<VARIANCE> 36
3.480691e+000 1.422737e+001 1.639436e+001 8.880244e+000 1.463184e+001 2.712916e+001 1.764832e+001 1.263769e+001 1.074900e+001 1.236941e+001 1.887719e+001 1.143818e+001 9.054185e-002 1.420242e+000 7.636023e-001 1.158282e+000 1.053096e+000 1.083027e+000 7.669572e-001 9.694111e-001 6.385415e-001 1.064398e+000 6.198924e-001 1.080105e+000 5.000000e-002 2.661992e-001 1.665805e-001 2.164659e-001 2.124365e-001 2.021322e-001 1.949084e-001 1.615221e-001 1.367075e-001 2.480654e-001 1.678577e-001 2.180444e-001 
<GCONST> 7.263693e+001
<STATE> 7
<MEAN> 36
2.356815e+000 -7.032290e+000 -7.700717e+000 -1.156578e+001 7.861354e+000 9.867310e-001 -6.300092e+000 7.046794e+000 -1.003079e+001 -9.710327e+000 -7.232498e+000 -5.009995e+000 4.433316e-001 -8.110386e-002 -8.676070e-001 -2.095724e-001 -7.225198e-003 -6.106430e-001 -9.767518e-001 -4.627007e-001 -2.019582e-001 -4.051791e-001 -1.896353e-001 -4.510844e-002 -5.138608e-002 -2.440576e-002 7.918591e-002 8.447527e-002 -9.392348e-002 5.743065e-003 5.446632e-002 3.360993e-002 8.700849e-002 -2.226191e-002 1.847641e-002 3.073058e-002 
<VARIANCE> 36
3.321634e+000 6.405025e+000 1.080823e+001 5.157803e+000 1.596153e+001 2.261001e+001 1.569759e+001 1.419723e+001 1.478713e+001 9.116692e+000 9.841635e+000 6.434908e+000 5.000000e-002 1.482616e-001 2.733974e-001 4.001657e-001 6.624876e-001 5.540868e-001 6.591749e-001 7.847224e-001 7.200885e-001 4.782571e-001 5.193182e-001 5.810256e-001 5.000000e-002 5.000000e-002 5.741035e-002 8.431551e-002 1.328966e-001 1.249264e-001 1.205652e-001 1.407912e-001 1.199936e-001 9.267375e-002 7.669253e-002 1.129721e-001 
<GCONST> 5.380252e+001
<STATE> 8
<MEAN> 36
4.175780e+000 -8.281136e+000 -1.026446e+001 -1.269950e+001 7.717904e+000 -5.344515e+000 -1.388799e+001 9.209091e+000 -1.035758e+001 -1.582300e+001 -8.194725e+000 -3.309062e+000 5.624967e-002 1.088163e-001 -2.427485e-001 1.518178e-002 1.593762e-001 -9.085969e-002 -2.846576e-001 -6.286436e-002 -4.814769e-002 -1.554102e-001 -4.563468e-003 -5.846779e-002 -1.097535e-002 1.434395e-002 1.839597e-002 2.455680e-002 -2.364153e-002 5.107755e-002 1.047578e-001 -1.931869e-002 -1.065575e-002 5.498548e-002 2.948201e-002 -3.606131e-002 
<VARIANCE> 36
1.246233e+000 6.143836e+000 6.712152e+000 6.930900e+000 1.198072e+001 2.748235e+001 1.612053e+001 4.883312e+001 1.047297e+001 1.763153e+001 1.739682e+001 1.028582e+001 5.000000e-002 1.667742e-001 2.616132e-001 3.393402e-001 4.517889e-001 4.888529e-001 6.453946e-001 5.962173e-001 6.058116e-001 6.137934e-001 6.665619e-001 4.590926e-001 5.000000e-002 5.000000e-002 5.000000e-002 6.497890e-002 7.657938e-002 9.434875e-002 9.665504e-002 1.138338e-001 1.029714e-001 8.366666e-002 1.168638e-001 8.053330e-002 
<GCONST> 5.248201e+001
<STATE> 9
<MEAN> 36
5.571785e+000 -6.862720e+000 -1.592242e+001 -8.677485e+000 7.251487e+000 -4.946461e+000 -1.002831e+001 4.492979e+000 -1.224787e+001 -1.560608e+001 -6.828664e+000 -4.638070e+000 -2.191477e-003 1.167124e-001 -8.879889e-002 1.670145e-001 -2.635359e-002 6.277483e-002 1.686444e-001 -1.065030e-001 8.567954e-002 -8.120555e-002 -7.260470e-002 5.367358e-002 -1.671511e-002 2.667879e-002 4.405023e-002 -4.255107e-002 6.344640e-003 6.464502e-002 1.960409e-002 -1.875447e-002 3.320472e-002 5.294603e-002 -1.882814e-002 -4.573363e-002 
<VARIANCE> 36
1.409242e+000 2.688234e+000 4.418703e+000 6.814655e+000 7.913093e+000 1.399722e+001 1.555812e+001 1.454574e+001 1.222679e+001 9.573084e+000 1.046315e+001 4.457648e+000 5.000000e-002 9.242512e-002 1.922486e-001 2.687779e-001 2.764860e-001 4.452831e-001 3.224343e-001 5.230193e-001 5.568259e-001 3.766433e-001 4.883135e-001 3.475070e-001 5.000000e-002 5.000000e-002 5.000000e-002 5.540068e-002 5.000000e-002 9.328016e-002 5.106812e-002 9.774102e-002 1.241507e-001 7.322616e-002 1.072901e-001 7.003057e-002 
<GCONST> 4.194470e+001
<STATE> 10
<MEAN> 36
4.379613e+000 -3.507418e+000 -1.459225e+001 -1.020565e+001 6.418058e+000 2.729419e-003 -9.820476e+000 1.763679e+000 -7.110421e+000 -1.309344e+001 -9.370245e+000 -6.745656e+000 -6.619794e-002 4.644845e-001 2.555742e-002 -3.603685e-001 -2.935579e-001 9.789936e-001 5.365910e-001 -8.751406e-001 1.936344e-002 8.370076e-001 1.368615e-001 -7.055247e-001 -1.388334e-002 3.327920e-002 -2.510176e-002 -3.978443e-002 -5.366228e-002 1.452699e-001 1.640207e-001 -1.111032e-001 -1.578040e-001 1.700614e-001 1.393355e-001 -4.440255e-002 
<VARIANCE> 36
1.222549e+000 2.650583e+000 4.503485e+000 5.626733e+000 5.964741e+000 1.093282e+001 1.458817e+001 1.568753e+001 1.356950e+001 8.515290e+000 5.583254e+000 5.257318e+000 5.000000e-002 1.722094e-001 1.824339e-001 3.961482e-001 2.752857e-001 8.086475e-001 4.858177e-001 8.801159e-001 4.641354e-001 8.669726e-001 3.892720e-001 4.953562e-001 5.000000e-002 5.000000e-002 5.000000e-002 6.361519e-002 5.584532e-002 7.871953e-002 6.251150e-002 1.416524e-001 1.078218e-001 9.104046e-002 7.246521e-002 9.353118e-002 
<GCONST> 4.450736e+001
<STATE> 11
<MEAN> 36
4.254703e+000 -1.473400e+000 -1.427629e+001 -1.284333e+001 6.124096e+000 4.740926e+000 -5.716558e+000 -1.959706e+000 -1.074911e+001 -8.176880e+000 -6.517723e+000 -9.654851e+000 -5.021409e-001 5.068335e-001 -2.094788e-001 -1.402306e-001 5.300047e-003 1.384012e+000 1.241841e+000 -5.347928e-001 5.456602e-002 6.535453e-001 7.188944e-001 3.947820e-002 -3.362324e-001 -2.315928e-001 9.656243e-002 4.256512e-001 -2.654310e-002 -3.189299e-001 1.621671e-001 4.926011e-001 3.410458e-001 -4.486386e-001 -8.485037e-002 5.705492e-001 
<VARIANCE> 36
1.506663e+000 3.243633e+000 5.971650e+000 8.920943e+000 9.524907e+000 9.922740e+000 1.462179e+001 2.647971e+001 5.600199e+000 1.124910e+001 6.254436e+000 4.932104e+000 2.465042e-001 1.959866e-001 2.007021e-001 7.005462e-001 6.765776e-001 4.689679e-001 8.681441e-001 8.297895e-001 1.034733e+000 1.336166e+000 6.314595e-001 1.156282e+000 5.000000e-002 5.000000e-002 5.643059e-002 1.104969e-001 1.738473e-001 8.484056e-002 1.389234e-001 9.716826e-002 1.464958e-001 1.474192e-001 1.006898e-001 7.856565e-002 
<GCONST> 5.508154e+001
<STATE> 12
<MEAN> 36
1.442162e-001 -1.663114e+000 -1.420906e+001 -9.768938e+000 4.765248e+000 6.990894e+000 -7.653255e-001 -1.087059e+000 -7.933518e+000 -9.082648e+000 -5.595441e+000 -6.500718e+000 -1.650408e+000 -3.400068e-001 7.011408e-001 1.326865e+000 -7.909717e-001 -2.891098e-001 1.497452e+000 1.010111e+000 1.184572e+000 1.498610e-001 -6.630954e-004 1.191888e+000 1.219401e-001 -3.128017e-002 1.099805e-001 6.143312e-003 5.443371e-003 -2.897993e-001 -2.945717e-001 6.503334e-002 -5.033960e-002 2.101813e-001 -1.087181e-001 -1.498128e-001 
<VARIANCE> 36
6.078972e+000 2.230549e+000 5.156053e+000 7.756744e+000 9.041826e+000 1.067452e+001 9.602962e+000 2.331805e+001 1.013764e+001 1.548355e+001 1.151996e+001 1.380886e+001 1.585549e-001 1.969027e-001 2.881023e-001 4.434984e-001 5.251549e-001 5.239288e-001 8.876072e-001 8.716365e-001 8.412329e-001 1.191187e+000 6.535364e-001 9.575858e-001 1.261764e-001 5.832089e-002 1.004541e-001 1.850065e-001 1.359873e-001 1.916145e-001 1.629512e-001 2.483235e-001 2.489267e-001 2.555483e-001 1.261936e-001 2.131381e-001 
<GCONST> 6.290515e+001
<STATE> 13
<MEAN> 36
-2.018539e+000 -1.669206e+000 -1.211664e+001 -7.704385e+000 3.457026e+000 5.817528e+000 1.018626e+000 1.058168e+000 -5.583096e+000 -6.137166e+000 -4.927687e+000 -4.743001e+000 6.136503e-001 4.863031e-001 -7.244583e-002 -6.236320e-001 -3.239808e-001 2.569054e-001 -6.255633e-003 -5.003579e-001 -2.909179e-001 5.108831e-001 4.587394e-001 -5.915291e-003 4.389327e-001 1.296293e-001 -2.263446e-001 -5.120060e-001 -2.091448e-002 7.489884e-002 -2.252914e-001 -2.628877e-001 -3.125144e-001 9.785844e-003 1.119087e-001 -2.138738e-001 
<VARIANCE> 36
5.978503e+000 8.343260e+000 1.149344e+001 1.139639e+001 1.137316e+001 1.135332e+001 9.703123e+000 2.136730e+001 1.105597e+001 2.191875e+001 1.539969e+001 1.132720e+001 9.085579e-001 5.761240e-001 1.115797e+000 1.670879e+000 6.520525e-001 9.830297e-001 9.242984e-001 1.276925e+000 1.326354e+000 1.370162e+000 8.262300e-001 9.523968e-001 1.103649e-001 8.673101e-002 1.947475e-001 2.031676e-001 1.023701e-001 1.677145e-001 2.192640e-001 2.706016e-001 2.418381e-001 3.002523e-001 1.393085e-001 2.332953e-001 
<GCONST> 7.503244e+001
<STATE> 14
<MEAN> 36
4.521266e+000 1.700994e+000 -1.476912e+001 -1.616210e+001 6.339963e-001 6.841219e+000 -1.062659e+000 -4.497617e+000 -1.058006e+001 -3.621014e+000 -1.302719e+000 -7.081324e+000 6.545701e-001 2.960652e-001 -2.002414e-001 -9.434784e-001 -5.287457e-001 -5.012197e-001 -9.910425e-001 -7.397689e-001 -3.069091e-001 5.726025e-001 3.434883e-001 -5.360425e-001 -2.232327e-001 -8.287879e-002 1.500392e-001 3.147946e-001 1.597139e-002 -1.852173e-001 -1.688346e-001 5.517997e-002 2.630257e-001 -3.419909e-002 -1.456436e-001 9.094162e-002 
<VARIANCE> 36
3.218174e+000 2.135946e+000 3.653134e+000 7.622076e+000 1.060472e+001 1.276180e+001 1.426228e+001 1.871861e+001 9.143944e+000 8.245930e+000 7.307054e+000 8.695162e+000 3.873257e-001 1.821596e-001 4.566103e-001 9.768921e-001 4.661180e-001 6.549067e-001 5.727507e-001 5.176739e-001 8.854980e-001 5.723987e-001 6.813159e-001 5.117374e-001 5.000000e-002 5.000000e-002 5.793887e-002 1.015508e-001 9.225707e-002 1.257513e-001 8.141891e-002 1.093582e-001 1.302224e-001 1.287856e-001 1.138143e-001 1.086129e-001 
<GCONST> 5.400688e+001
<STATE> 15
<MEAN> 36
5.608996e+000 2.303134e+000 -1.342691e+001 -1.556564e+001 -2.475637e+000 -4.523675e-001 -1.057890e+001 -7.952908e+000 -6.755850e+000 -6.265190e-001 -2.249385e+000 -7.526285e+000 7.775617e-004 8.722350e-004 2.771425e-001 5.621577e-001 -2.814851e-001 -1.048849e+000 -1.023208e+000 -3.520560e-001 5.015040e-001 1.543265e-001 1.305720e-002 5.450888e-001 -1.313148e-002 -2.199797e-002 1.981553e-002 8.826932e-002 3.239523e-002 -3.765573e-002 8.021313e-002 8.159664e-002 -3.153235e-002 -8.224860e-002 6.866288e-002 1.023973e-001 
<VARIANCE> 36
2.157758e+000 3.318018e+000 5.427814e+000 7.080157e+000 1.060783e+001 1.202184e+001 1.809711e+001 1.644053e+001 1.134063e+001 9.912180e+000 8.912470e+000 1.114924e+001 5.000000e-002 1.597630e-001 2.049512e-001 3.177814e-001 3.375380e-001 4.987434e-001 5.861760e-001 5.902071e-001 4.957613e-001 6.880269e-001 3.968719e-001 5.597520e-001 5.000000e-002 5.000000e-002 5.000000e-002 5.000000e-002 6.783309e-002 7.089697e-002 9.536256e-002 6.158076e-002 8.082073e-002 1.245131e-001 6.342876e-002 9.640464e-002 
<GCONST> 4.650778e+001
<STATE> 16
<MEAN> 36
6.362529e+000 1.544771e-001 -1.229299e+001 -8.299091e+000 -1.743379e+000 -1.077136e+001 -1.748278e+001 -5.938799e+000 -5.542192e+000 -3.958810e+000 2.966361e-001 1.159807e+000 -5.931505e-002 1.357583e-001 3.049725e-001 5.997785e-001 -1.972959e-001 -6.327679e-001 -3.554904e-001 -1.839235e-001 9.133533e-002 3.291816e-002 3.691030e-001 5.679561e-001 -3.084308e-002 7.030040e-002 2.824930e-002 -4.056137e-002 -1.519590e-002 1.444164e-001 1.143009e-001 -6.027403e-002 -5.967378e-002 8.799816e-002 1.650180e-002 -1.232488e-001 
<VARIANCE> 36
2.872575e+000 5.909856e+000 6.666410e+000 3.146863e+001 7.453091e+000 2.296933e+001 1.451578e+001 1.268275e+001 8.403278e+000 1.123814e+001 9.897502e+000 1.755018e+001 5.000000e-002 1.166465e-001 2.177608e-001 4.265677e-001 3.732872e-001 7.795100e-001 5.675349e-001 9.023685e-001 5.728517e-001 8.080033e-001 5.521451e-001 6.780708e-001 5.000000e-002 5.000000e-002 5.000000e-002 7.144158e-002 6.820059e-002 1.074384e-001 9.574393e-002 2.007487e-001 8.255524e-002 1.519704e-001 9.565877e-002 9.670821e-002 
<GCONST> 5.367252e+001
<STATE> 17
<MEAN> 36
3.910977e+000 5.155490e+000 -8.558176e+000 -9.503096e+000 -5.765768e+000 -7.160967e+000 -1.499705e+001 -1.151743e+001 -6.463716e+000 1.194552e-001 2.978508e+000 -2.130497e-001 -2.337229e-001 3.584450e-001 6.020275e-001 4.198745e-001 -2.860564e-001 -3.605552e-001 -1.977875e-001 -2.029268e-001 1.219930e-002 1.052267e-001 3.461432e-001 2.574989e-001 -1.599642e-002 1.270214e-002 4.510887e-002 -4.804118e-004 3.186275e-003 -1.435740e-002 -1.510039e-002 1.191625e-002 -7.313288e-003 1.222338e-002 -6.529548e-002 -6.703704e-002 
<VARIANCE> 36
2.277742e+000 3.171289e+000 3.865569e+000 8.757671e+000 6.044099e+000 1.002205e+001 1.294634e+001 1.266731e+001 9.544765e+000 9.754905e+000 7.711639e+000 1.169165e+001 5.122638e-002 1.767312e-001 3.257592e-001 3.161408e-001 5.765684e-001 5.631209e-001 5.395212e-001 6.891475e-001 6.220121e-001 5.208508e-001 5.820126e-001 7.987543e-001 5.000000e-002 5.000000e-002 5.000000e-002 6.762146e-002 1.197279e-001 1.192290e-001 1.084643e-001 1.326762e-001 1.109729e-001 1.052453e-001 1.140699e-001 1.114167e-001 
<GCONST> 4.993007e+001
<STATE> 18
<MEAN> 36
3.616646e+000 3.726165e+000 -6.349156e+000 -2.065417e+000 -1.893277e+000 -1.265083e+001 -1.917370e+001 -1.093753e+001 -4.587022e+000 2.578215e-001 2.902319e+000 9.773727e-001 -3.554456e-001 1.660739e-001 4.348964e-001 4.204163e-001 1.113095e-001 1.089105e-002 1.033379e-001 -2.043221e-001 -8.719427e-002 3.711175e-001 2.680583e-001 3.330752e-002 -1.519780e-002 -1.982556e-002 -2.938645e-003 -1.281256e-002 7.205105e-004 1.128734e-001 6.408947e-002 3.926602e-002 -9.570734e-004 -1.022164e-002 8.734533e-002 1.000214e-001 
<VARIANCE> 36
2.436829e+000 1.140835e+001 6.164223e+000 3.190720e+001 2.890464e+001 1.460443e+001 1.273426e+001 1.937339e+001 8.991704e+000 9.252617e+000 9.857803e+000 1.208390e+001 8.956849e-002 3.664335e-001 5.380313e-001 6.388402e-001 1.299278e+000 5.208320e-001 7.482343e-001 7.313704e-001 5.982464e-001 7.686126e-001 5.621385e-001 6.292214e-001 5.000000e-002 5.883346e-002 1.072684e-001 9.000986e-002 2.514640e-001 1.133953e-001 1.681412e-001 1.628373e-001 1.400737e-001 1.774488e-001 9.454242e-002 1.371946e-001 
<GCONST> 6.256684e+001
<STATE> 19
<MEAN> 36
9.843629e-001 7.699717e+000 -1.854911e+000 -4.477893e+000 -6.927262e+000 -1.015727e+001 -1.582767e+001 -1.237886e+001 -5.268001e+000 2.383605e+000 5.323311e+000 2.416113e+000 -4.015366e-001 9.753846e-002 5.914693e-001 5.081871e-001 3.932035e-002 -1.230813e-001 6.714041e-002 2.586551e-001 2.673097e-001 2.101963e-002 1.807029e-001 2.227710e-001 -2.438077e-002 -5.040340e-002 -5.676517e-002 9.922734e-004 8.293818e-002 6.509555e-002 9.057225e-002 6.079727e-002 4.300322e-002 -6.639121e-002 -1.217685e-001 -6.168528e-002 
<VARIANCE> 36
2.089599e+000 2.687807e+000 4.981701e+000 7.787820e+000 5.770967e+000 9.812748e+000 1.204192e+001 8.872944e+000 1.206913e+001 9.152972e+000 7.629196e+000 1.178665e+001 6.438495e-002 1.239348e-001 2.035081e-001 2.780050e-001 4.656555e-001 4.994093e-001 6.761315e-001 7.732200e-001 8.002175e-001 6.952951e-001 7.638798e-001 9.250615e-001 5.000000e-002 5.000000e-002 5.000000e-002 5.925112e-002 1.354735e-001 1.184455e-001 1.599446e-001 1.421354e-001 1.794448e-001 1.488660e-001 1.579737e-001 2.050651e-001 
<GCONST> 5.193373e+001
<STATE> 20
<MEAN> 36
-2.733278e+000 6.751653e+000 1.271292e+000 4.765194e-001 -4.169682e+000 -9.287395e+000 -1.260561e+001 -8.839767e+000 -3.708147e+000 9.687174e-001 3.259881e+000 2.051210e+000 -4.647747e-001 -1.564161e-001 1.501669e-001 3.069160e-001 4.566779e-001 6.513658e-001 8.083860e-001 2.651825e-001 -1.090775e-001 -1.956600e-001 -5.141242e-001 -1.141271e-001 -1.232369e-002 -7.125347e-002 -9.098382e-002 -5.152614e-002 1.436336e-002 6.973701e-002 5.978588e-002 1.884055e-002 -8.573748e-003 -4.846844e-003 2.159186e-002 2.798431e-002 
<VARIANCE> 36
2.626653e+000 3.900901e+000 4.568880e+000 1.185448e+001 8.648741e+000 1.228951e+001 1.323024e+001 1.471070e+001 1.127983e+001 1.298017e+001 1.127407e+001 8.074072e+000 9.718799e-002 2.770822e-001 4.216340e-001 3.616462e-001 5.794725e-001 1.026346e+000 1.041904e+000 1.107909e+000 9.105518e-001 1.046185e+000 8.973804e-001 1.007115e+000 5.000000e-002 5.000000e-002 6.444741e-002 5.833979e-002 7.947736e-002 1.659669e-001 1.395416e-001 2.070850e-001 1.833967e-001 1.837110e-001 2.074009e-001 2.174441e-001 
<GCONST> 5.995970e+001
<STATE> 21
<MEAN> 36
-5.928329e+000 4.441094e+000 -2.212252e-002 8.448468e-001 -1.649491e+000 -4.218657e+000 -7.414462e+000 -6.142477e+000 -1.908033e+000 2.073151e+000 3.257103e+000 2.060077e+000 -6.196638e-001 -3.292303e-001 5.905423e-002 9.971944e-002 -1.121227e-002 5.210925e-001 6.416111e-001 5.741654e-001 6.698266e-001 2.113376e-001 -3.320634e-002 -1.912403e-001 1.758835e-002 3.097994e-002 5.024033e-002 -5.226271e-002 -1.194464e-001 -1.720597e-001 -1.699244e-001 1.836080e-002 6.127542e-002 3.093200e-002 6.215732e-002 -2.246957e-002 
<VARIANCE> 36
4.720620e+000 4.219460e+000 6.022768e+000 8.329536e+000 9.887177e+000 9.480323e+000 1.920748e+001 1.930777e+001 1.995646e+001 2.012698e+001 1.322500e+001 1.704056e+001 1.264514e-001 2.960950e-001 5.489063e-001 8.355675e-001 7.803636e-001 9.773979e-001 1.478042e+000 6.614751e-001 1.476263e+000 1.640555e+000 7.907638e-001 1.565934e+000 5.000000e-002 6.027091e-002 1.139135e-001 1.474054e-001 1.681007e-001 2.395892e-001 3.534766e-001 1.445984e-001 4.280568e-001 3.725838e-001 1.281165e-001 4.103838e-001 
<GCONST> 7.082200e+001
<STATE> 22
<MEAN> 36
-7.729139e+000 4.284535e+000 1.454474e+000 1.108482e+000 -3.159812e+000 -4.796916e+000 -6.984901e+000 -4.954399e+000 -1.041297e+000 1.194392e+000 2.505369e+000 1.387566e+000 -5.432116e-001 -4.271403e-001 -2.359271e-001 -2.085717e-001 4.918700e-002 4.448713e-001 6.719713e-001 6.177815e-001 3.101089e-001 1.339521e-001 9.212279e-002 3.220253e-001 4.135355e-002 -9.651388e-003 -1.710503e-002 6.330616e-002 1.379189e-001 4.477360e-002 8.194759e-002 -3.978231e-002 -1.771325e-001 -2.233945e-002 -3.750515e-002 1.126264e-002 
<VARIANCE> 36
1.816791e+000 1.985177e+000 4.935473e+000 4.451856e+000 5.519286e+000 6.866410e+000 7.867203e+000 9.976644e+000 1.022932e+001 1.074048e+001 7.210868e+000 8.976645e+000 6.813744e-002 1.720062e-001 4.549447e-001 3.941697e-001 5.418784e-001 8.704212e-001 8.165051e-001 1.158536e+000 1.274421e+000 1.423795e+000 1.115765e+000 1.475773e+000 5.000000e-002 5.000000e-002 1.119450e-001 8.776014e-002 1.174614e-001 1.304321e-001 9.286452e-002 1.422469e-001 1.708681e-001 3.094260e-001 1.831655e-001 1.884301e-001 
<GCONST> 5.609992e+001
<STATE> 23
<MEAN> 36
-1.074491e+001 1.256956e+000 5.270220e-001 1.321339e+000 -5.815828e-001 -3.603257e-001 -2.399418e+000 -7.453988e-001 -1.058350e-001 1.398190e+000 2.232924e+000 1.323395e+000 -2.406798e-001 -1.432579e-001 1.939945e-002 1.040289e-001 2.956227e-001 3.831968e-001 3.621208e-001 2.385210e-001 -4.475230e-002 -1.150188e-001 -5.642288e-002 -1.255193e-001 2.096471e-002 3.987086e-002 4.377095e-003 2.685388e-002 -9.798441e-003 -9.185680e-003 -2.605843e-002 -4.690124e-002 1.217751e-002 -6.968626e-003 1.957459e-003 1.807961e-002 
<VARIANCE> 36
1.859838e+000 1.868089e+000 3.651095e+000 4.501037e+000 5.303560e+000 9.422579e+000 8.014077e+000 1.278084e+001 9.593518e+000 8.969047e+000 7.746958e+000 9.151734e+000 8.510359e-002 1.560509e-001 2.412755e-001 3.478419e-001 5.987792e-001 8.381393e-001 7.336164e-001 9.643952e-001 1.389257e+000 1.256746e+000 8.538521e-001 8.382586e-001 5.000000e-002 5.000000e-002 5.000000e-002 9.030453e-002 1.228930e-001 1.848513e-001 1.406546e-001 2.095043e-001 2.964113e-001 2.705500e-001 1.997036e-001 2.234660e-001 
<GCONST> 5.551959e+001
<TRANSP> 25
0.000000e+000 1.000000e+000 0.000000e+000 0.000000e+000 0.000000e+000 0.000000e+000 0.000000e+000 0.000000e+000 0.000000e+000 0.000000e+000 0.000000e+000 0.000000e+000 0.000000e+000 0.000000e+000 0.000000e+000 0.000000e+000 0.000000e+000 0.000000e+000 0.000000e+000 0.000000e+000 0.000000e+000 0.000000e+000 0.000000e+000 0.000000e+000 0.000000e+000 
0.000000e+000 7.990075e-001 2.009926e-001 0.000000e+000 0.000000e+000 0.000000e+000 0.000000e+000 0.000000e+000 0.000000e+000 0.000000e+000 0.000000e+000 0.000000e+000 0.000000e+000 0.000000e+000 0.000000e+000 0.000000e+000 0.000000e+000 0.000000e+000 0.000000e+000 0.000000e+000 0.000000e+000 0.000000e+000 0.000000e+000 0.000000e+000 0.000000e+000 
0.000000e+000 0.000000e+000 8.499862e-001 1.500139e-001 0.000000e+000 0.000000e+000 0.000000e+000 0.000000e+000 0.000000e+000 0.000000e+000 0.000000e+000 0.000000e+000 0.000000e+000 0.000000e+000 0.000000e+000 0.000000e+000 0.000000e+000 0.000000e+000 0.000000e+000 0.000000e+000 0.000000e+000 0.000000e+000 0.000000e+000 0.000000e+000 0.000000e+000 
0.000000e+000 0.000000e+000 0.000000e+000 8.150722e-001 1.849278e-001 0.000000e+000 0.000000e+000 0.000000e+000 0.000000e+000 0.000000e+000 0.000000e+000 0.000000e+000 0.000000e+000 0.000000e+000 0.000000e+000 0.000000e+000 0.000000e+000 0.000000e+000 0.000000e+000 0.000000e+000 0.000000e+000 0.000000e+000 0.000000e+000 0.000000e+000 0.000000e+000 
0.000000e+000 0.000000e+000 0.000000e+000 0.000000e+000 7.554109e-001 2.445891e-001 0.000000e+000 0.000000e+000 0.000000e+000 0.000000e+000 0.000000e+000 0.000000e+000 0.000000e+000 0.000000e+000 0.000000e+000 0.000000e+000 0.000000e+000 0.000000e+000 0.000000e+000 0.000000e+000 0.000000e+000 0.000000e+000 0.000000e+000 0.000000e+000 0.000000e+000 
0.000000e+000 0.000000e+000 0.000000e+000 0.000000e+000 0.000000e+000 7.443328e-001 2.556672e-001 0.000000e+000 0.000000e+000 0.000000e+000 0.000000e+000 0.000000e+000 0.000000e+000 0.000000e+000 0.000000e+000 0.000000e+000 0.000000e+000 0.000000e+000 0.000000e+000 0.000000e+000 0.000000e+000 0.000000e+000 0.000000e+000 0.000000e+000 0.000000e+000 
0.000000e+000 0.000000e+000 0.000000e+000 0.000000e+000 0.000000e+000 0.000000e+000 7.750693e-001 2.249307e-001 0.000000e+000 0.000000e+000 0.000000e+000 0.000000e+000 0.000000e+000 0.000000e+000 0.000000e+000 0.000000e+000 0.000000e+000 0.000000e+000 0.000000e+000 0.000000e+000 0.000000e+000 0.000000e+000 0.000000e+000 0.000000e+000 0.000000e+000 
0.000000e+000 0.000000e+000 0.000000e+000 0.000000e+000 0.000000e+000 0.000000e+000 0.000000e+000 8.492533e-001 1.507467e-001 0.000000e+000 0.000000e+000 0.000000e+000 0.000000e+000 0.000000e+000 0.000000e+000 0.000000e+000 0.000000e+000 0.000000e+000 0.000000e+000 0.000000e+000 0.000000e+000 0.000000e+000 0.000000e+000 0.000000e+000 0.000000e+000 
0.000000e+000 0.000000e+000 0.000000e+000 0.000000e+000 0.000000e+000 0.000000e+000 0.000000e+000 0.000000e+000 9.010946e-001 9.890535e-002 0.000000e+000 0.000000e+000 0.000000e+000 0.000000e+000 0.000000e+000 0.000000e+000 0.000000e+000 0.000000e+000 0.000000e+000 0.000000e+000 0.000000e+000 0.000000e+000 0.000000e+000 0.000000e+000 0.000000e+000 
0.000000e+000 0.000000e+000 0.000000e+000 0.000000e+000 0.000000e+000 0.000000e+000 0.000000e+000 0.000000e+000 0.000000e+000 9.217414e-001 7.825863e-002 0.000000e+000 0.000000e+000 0.000000e+000 0.000000e+000 0.000000e+000 0.000000e+000 0.000000e+000 0.000000e+000 0.000000e+000 0.000000e+000 0.000000e+000 0.000000e+000 0.000000e+000 0.000000e+000 
0.000000e+000 0.000000e+000 0.000000e+000 0.000000e+000 0.000000e+000 0.000000e+000 0.000000e+000 0.000000e+000 0.000000e+000 0.000000e+000 8.091914e-001 1.908085e-001 0.000000e+000 0.000000e+000 0.000000e+000 0.000000e+000 0.000000e+000 0.000000e+000 0.000000e+000 0.000000e+000 0.000000e+000 0.000000e+000 0.000000e+000 0.000000e+000 0.000000e+000 
0.000000e+000 0.000000e+000 0.000000e+000 0.000000e+000 0.000000e+000 0.000000e+000 0.000000e+000 0.000000e+000 0.000000e+000 0.000000e+000 0.000000e+000 6.924357e-001 3.075643e-001 0.000000e+000 0.000000e+000 0.000000e+000 0.000000e+000 0.000000e+000 0.000000e+000 0.000000e+000 0.000000e+000 0.000000e+000 0.000000e+000 0.000000e+000 0.000000e+000 
0.000000e+000 0.000000e+000 0.000000e+000 0.000000e+000 0.000000e+000 0.000000e+000 0.000000e+000 0.000000e+000 0.000000e+000 0.000000e+000 0.000000e+000 0.000000e+000 6.343828e-001 3.656173e-001 0.000000e+000 0.000000e+000 0.000000e+000 0.000000e+000 0.000000e+000 0.000000e+000 0.000000e+000 0.000000e+000 0.000000e+000 0.000000e+000 0.000000e+000 
0.000000e+000 0.000000e+000 0.000000e+000 0.000000e+000 0.000000e+000 0.000000e+000 0.000000e+000 0.000000e+000 0.000000e+000 0.000000e+000 0.000000e+000 0.000000e+000 0.000000e+000 8.114964e-001 1.885037e-001 0.000000e+000 0.000000e+000 0.000000e+000 0.000000e+000 0.000000e+000 0.000000e+000 0.000000e+000 0.000000e+000 0.000000e+000 0.000000e+000 
0.000000e+000 0.000000e+000 0.000000e+000 0.000000e+000 0.000000e+000 0.000000e+000 0.000000e+000 0.000000e+000 0.000000e+000 0.000000e+000 0.000000e+000 0.000000e+000 0.000000e+000 0.000000e+000 8.387741e-001 1.612259e-001 0.000000e+000 0.000000e+000 0.000000e+000 0.000000e+000 0.000000e+000 0.000000e+000 0.000000e+000 0.000000e+000 0.000000e+000 
0.000000e+000 0.000000e+000 0.000000e+000 0.000000e+000 0.000000e+000 0.000000e+000 0.000000e+000 0.000000e+000 0.000000e+000 0.000000e+000 0.000000e+000 0.000000e+000 0.000000e+000 0.000000e+000 0.000000e+000 8.741192e-001 1.258808e-001 0.000000e+000 0.000000e+000 0.000000e+000 0.000000e+000 0.000000e+000 0.000000e+000 0.000000e+000 0.000000e+000 
0.000000e+000 0.000000e+000 0.000000e+000 0.000000e+000 0.000000e+000 0.000000e+000 0.000000e+000 0.000000e+000 0.000000e+000 0.000000e+000 0.000000e+000 0.000000e+000 0.000000e+000 0.000000e+000 0.000000e+000 0.000000e+000 8.336802e-001 1.663195e-001 0.000000e+000 0.000000e+000 0.000000e+000 0.000000e+000 0.000000e+000 0.000000e+000 0.000000e+000 
0.000000e+000 0.000000e+000 0.000000e+000 0.000000e+000 0.000000e+000 0.000000e+000 0.000000e+000 0.000000e+000 0.000000e+000 0.000000e+000 0.000000e+000 0.000000e+000 0.000000e+000 0.000000e+000 0.000000e+000 0.000000e+000 0.000000e+000 8.333243e-001 1.666755e-001 0.000000e+000 0.000000e+000 0.000000e+000 0.000000e+000 0.000000e+000 0.000000e+000 
0.000000e+000 0.000000e+000 0.000000e+000 0.000000e+000 0.000000e+000 0.000000e+000 0.000000e+000 0.000000e+000 0.000000e+000 0.000000e+000 0.000000e+000 0.000000e+000 0.000000e+000 0.000000e+000 0.000000e+000 0.000000e+000 0.000000e+000 0.000000e+000 7.995087e-001 2.004913e-001 0.000000e+000 0.000000e+000 0.000000e+000 0.000000e+000 0.000000e+000 
0.000000e+000 0.000000e+000 0.000000e+000 0.000000e+000 0.000000e+000 0.000000e+000 0.000000e+000 0.000000e+000 0.000000e+000 0.000000e+000 0.000000e+000 0.000000e+000 0.000000e+000 0.000000e+000 0.000000e+000 0.000000e+000 0.000000e+000 0.000000e+000 0.000000e+000 8.596421e-001 1.403579e-001 0.000000e+000 0.000000e+000 0.000000e+000 0.000000e+000 
0.000000e+000 0.000000e+000 0.000000e+000 0.000000e+000 0.000000e+000 0.000000e+000 0.000000e+000 0.000000e+000 0.000000e+000 0.000000e+000 0.000000e+000 0.000000e+000 0.000000e+000 0.000000e+000 0.000000e+000 0.000000e+000 0.000000e+000 0.000000e+000 0.000000e+000 0.000000e+000 8.532599e-001 1.467401e-001 0.000000e+000 0.000000e+000 0.000000e+000 
0.000000e+000 0.000000e+000 0.000000e+000 0.000000e+000 0.000000e+000 0.000000e+000 0.000000e+000 0.000000e+000 0.000000e+000 0.000000e+000 0.000000e+000 0.000000e+000 0.000000e+000 0.000000e+000 0.000000e+000 0.000000e+000 0.000000e+000 0.000000e+000 0.000000e+000 0.000000e+000 0.000000e+000 7.867336e-001 2.132664e-001 0.000000e+000 0.000000e+000 
0.000000e+000 0.000000e+000 0.000000e+000 0.000000e+000 0.000000e+000 0.000000e+000 0.000000e+000 0.000000e+000 0.000000e+000 0.000000e+000 0.000000e+000 0.000000e+000 0.000000e+000 0.000000e+000 0.000000e+000 0.000000e+000 0.000000e+000 0.000000e+000 0.000000e+000 0.000000e+000 0.000000e+000 0.000000e+000 7.196365e-001 2.803635e-001 0.000000e+000 
0.000000e+000 0.000000e+000 0.000000e+000 0.000000e+000 0.000000e+000 0.000000e+000 0.000000e+000 0.000000e+000 0.000000e+000 0.000000e+000 0.000000e+000 0.000000e+000 0.000000e+000 0.000000e+000 0.000000e+000 0.000000e+000 0.000000e+000 0.000000e+000 0.000000e+000 0.000000e+000 0.000000e+000 0.000000e+000 0.000000e+000 8.702861e-001 1.297138e-001 
0.000000e+000 0.000000e+000 0.000000e+000 0.000000e+000 0.000000e+000 0.000000e+000 0.000000e+000 0.000000e+000 0.000000e+000 0.000000e+000 0.000000e+000 0.000000e+000 0.000000e+000 0.000000e+000 0.000000e+000 0.000000e+000 0.000000e+000 0.000000e+000 0.000000e+000 0.000000e+000 0.000000e+000 0.000000e+000 0.000000e+000 0.000000e+000 0.000000e+000 
