<HMMNAME> 3
<HMMSTATES> 25
<STATE> 1
<MEAN> 36
-1.400953e+001 -1.305963e+001 2.507495e+000 2.816162e-001 4.949421e+000 -4.888962e-001 -3.046859e-001 9.191895e+000 -4.046931e+000 -1.369036e+000 1.736247e+000 1.714490e+000 -1.466122e-001 -1.916358e+000 6.322376e-001 -9.482761e-001 4.846992e-001 -3.125957e-001 -4.097159e-001 7.742416e-001 -6.273234e-001 -5.058197e-001 -1.831331e-001 1.282778e-001 -7.319567e-002 -3.221753e-002 1.283830e-001 -1.206533e-001 5.668964e-002 4.892557e-002 2.974341e-002 -3.593538e-002 6.291961e-002 9.701714e-002 -1.322575e-001 -3.634408e-002 
<VARIANCE> 36
4.998345e+000 7.315094e+001 1.813603e+001 1.661565e+001 1.050405e+001 1.602803e+001 2.053641e+001 2.537918e+001 1.626942e+001 1.675270e+001 1.188430e+001 9.750612e+000 2.945693e-001 2.169890e+000 7.836462e-001 1.837323e+000 7.909595e-001 8.912212e-001 2.206412e+000 1.624034e+000 6.841361e-001 9.888302e-001 1.348929e+000 7.163272e-001 1.081019e-001 3.999836e-001 2.113907e-001 2.704523e-001 1.804404e-001 2.231990e-001 5.556602e-001 3.887680e-001 1.498541e-001 3.443389e-001 3.711629e-001 2.053080e-001 
<GCONST> 8.364878e+001
<STATE> 2
<MEAN> 36
-1.762023e+001 -2.419985e+001 9.695779e+000 -5.822067e+000 9.748973e+000 -2.545825e+000 1.813912e-001 1.360729e+001 -7.005959e+000 -7.278480e-002 -2.267561e+000 7.544073e-001 -7.711408e-001 -6.609147e-001 9.717934e-001 -3.378722e-001 9.431311e-001 -1.657203e-002 1.638081e-001 -2.313872e-001 -1.741284e-002 6.480880e-001 -7.824424e-001 -1.252895e-001 1.579009e-001 2.356957e-001 -3.481436e-001 3.063104e-001 -1.267148e-001 -5.235144e-002 -1.241818e-001 -5.235544e-002 6.497398e-002 -6.750427e-002 1.427752e-001 2.028364e-001 
<VARIANCE> 36
3.109063e+000 6.620273e+000 8.558570e+000 8.893176e+000 5.480123e+000 1.293845e+001 1.626338e+001 1.443802e+001 1.479973e+001 1.349367e+001 8.035976e+000 1.131048e+001 4.966694e-001 3.066589e-001 1.043116e+000 7.804001e-001 8.765525e-001 7.286977e-001 1.071771e+000 6.324406e-001 2.618443e-001 1.379421e+000 1.076327e+000 1.054946e+000 8.057076e-002 1.233446e-001 1.268605e-001 1.717900e-001 1.147216e-001 2.484922e-001 1.360624e-001 1.856735e-001 2.165775e-001 3.282023e-001 1.519141e-001 1.677881e-001 
<GCONST> 6.724390e+001
<STATE> 3
<MEAN> 36
-1.890058e+001 -2.732688e+001 1.031049e+001 -6.510816e+000 1.233241e+001 -4.102564e+000 2.245013e+000 1.262430e+001 -7.070784e+000 -1.739195e-001 -5.389898e+000 1.897668e+000 5.219587e-002 -3.217381e-001 -1.126379e-001 -5.754195e-003 2.868941e-001 8.583761e-002 -9.364658e-002 -8.085075e-002 4.115082e-001 2.988053e-001 -5.800429e-001 -1.434821e-001 2.653908e-002 -1.112528e-002 1.140049e-002 8.106104e-002 1.044854e-002 6.040177e-002 -1.148156e-001 -9.729728e-004 8.931534e-002 1.131658e-001 5.929928e-002 -1.080081e-001 
<VARIANCE> 36
2.002841e+000 2.650277e+000 4.201912e+000 7.052073e+000 9.804668e+000 1.443928e+001 2.052335e+001 1.363111e+001 1.927954e+001 1.122974e+001 1.473670e+001 1.588766e+001 1.824123e-001 2.042793e-001 3.840827e-001 3.246833e-001 7.471039e-001 1.206785e+000 9.238338e-001 1.483339e+000 2.067923e+000 9.883203e-001 9.755846e-001 1.314402e+000 5.000000e-002 5.000000e-002 8.316812e-002 7.334832e-002 1.952738e-001 1.795029e-001 1.427047e-001 2.644980e-001 3.183647e-001 1.334332e-001 1.766386e-001 2.773973e-001 
<GCONST> 6.455190e+001
<STATE> 4
<MEAN> 36
-1.832322e+001 -2.957278e+001 9.399779e+000 -5.428306e+000 1.494124e+001 -2.663392e+000 -1.528161e+000 1.101627e+001 -4.244302e+000 4.087370e+000 -7.122912e+000 5.265022e-001 -1.192640e-001 -5.500388e-001 -2.412158e-001 2.531263e-001 8.040191e-001 5.327997e-001 -3.770231e-001 -8.718539e-001 -2.599357e-001 3.456870e-001 3.965885e-001 -1.509244e-001 -3.479843e-002 3.532661e-002 -7.277339e-002 -9.357485e-002 -4.811399e-002 5.035727e-002 2.129829e-001 -9.955036e-002 -1.596674e-001 -9.021193e-002 1.262385e-001 -2.290349e-002 
<VARIANCE> 36
1.416050e+000 4.765101e+000 8.546432e+000 8.543945e+000 9.361520e+000 6.428073e+000 2.494638e+001 2.090238e+001 8.718170e+000 1.338825e+001 1.578565e+001 7.122658e+000 5.930727e-002 2.043574e-001 3.469294e-001 4.366352e-001 5.524344e-001 6.679473e-001 8.076838e-001 1.154251e+000 8.084079e-001 1.096173e+000 7.524667e-001 5.735046e-001 5.000000e-002 5.000000e-002 7.066369e-002 7.558679e-002 1.563970e-001 1.531415e-001 1.032887e-001 3.024848e-001 1.834161e-001 2.315969e-001 1.729982e-001 1.213838e-001 
<GCONST> 5.842749e+001
<STATE> 5
<MEAN> 36
-1.866708e+001 -3.147960e+001 9.039639e+000 -5.310027e+000 1.665353e+001 8.193754e-001 -1.193933e+000 6.751106e+000 -5.482298e+000 6.429219e+000 -5.093801e+000 -1.897843e+000 6.839151e-002 -7.859070e-002 -2.748540e-002 1.060155e-002 -8.478758e-002 2.699109e-001 6.241503e-002 -3.703376e-001 2.662056e-002 5.043689e-001 1.032820e-001 -2.756799e-001 1.900319e-002 5.384419e-002 2.537115e-002 3.700688e-002 -6.651736e-002 -5.273158e-002 -1.118695e-001 -6.552753e-002 2.895319e-003 5.219567e-002 7.205315e-002 7.492823e-002 
<VARIANCE> 36
1.979741e+000 5.042674e+000 6.119576e+000 6.755385e+000 6.613487e+000 1.164685e+001 2.077501e+001 1.561971e+001 1.327962e+001 1.321792e+001 1.017027e+001 6.559496e+000 1.387813e-001 1.738072e-001 2.867033e-001 4.969729e-001 5.783024e-001 6.368446e-001 5.194684e-001 7.744850e-001 1.211504e+000 1.347577e+000 1.102945e+000 7.318541e-001 5.000000e-002 5.000000e-002 6.623213e-002 9.708262e-002 1.476438e-001 1.276804e-001 1.100260e-001 1.501317e-001 2.769566e-001 2.668289e-001 2.832236e-001 1.252038e-001 
<GCONST> 5.931723e+001
<STATE> 6
<MEAN> 36
-1.868870e+001 -3.055542e+001 9.107339e+000 -3.969602e+000 1.588152e+001 1.753851e+000 -3.876980e+000 2.251425e+000 -5.196290e+000 9.862133e+000 -1.494255e+000 -3.383510e+000 1.191128e-001 -6.156444e-002 -4.431619e-001 1.984797e-001 3.075657e-001 4.620945e-001 -4.480529e-001 -7.564607e-001 3.468490e-001 3.558789e-001 6.582925e-001 -1.128873e-002 2.270465e-002 -9.791480e-002 -1.834154e-001 -1.280518e-001 1.381821e-001 1.081869e-001 4.406894e-001 4.432141e-001 1.400951e-001 -3.370510e-001 -3.186221e-001 2.121931e-002 
<VARIANCE> 36
1.499622e+000 6.952429e+000 4.438841e+000 6.285804e+000 1.468743e+001 1.509686e+001 1.594695e+001 2.349285e+001 1.438709e+001 6.654541e+000 1.064706e+001 1.407251e+001 2.222436e-001 2.519039e-001 4.875840e-001 9.561275e-001 6.886227e-001 1.264278e+000 1.368963e+000 2.576353e+000 1.412334e+000 4.212411e-001 1.195837e+000 1.127483e+000 5.000000e-002 5.000000e-002 6.872127e-002 1.684706e-001 1.657812e-001 2.151515e-001 2.142942e-001 3.112573e-001 2.217816e-001 1.248063e-001 2.228576e-001 2.155720e-001 
<GCONST> 6.687676e+001
<STATE> 7
<MEAN> 36
-1.773071e+001 -3.175613e+001 7.038074e+000 -5.627882e+000 1.637540e+001 4.987997e+000 -2.972512e+000 5.103761e+000 -3.950675e+000 7.696685e+000 -3.517081e+000 -3.957122e+000 1.360055e-002 -1.449590e-001 -2.972932e-001 -1.943294e-001 1.623991e-001 1.990656e-001 2.289437e-001 2.270292e-001 3.009990e-002 -1.868452e-001 -3.426566e-001 -2.403170e-002 -3.550278e-003 1.859275e-002 2.650730e-002 1.117062e-002 -1.315063e-002 -5.735024e-002 -5.651049e-002 -5.071569e-002 -1.781919e-002 6.971406e-002 -1.040136e-002 -2.738282e-003 
<VARIANCE> 36
1.339639e+000 2.498649e+000 5.553714e+000 5.627879e+000 4.265271e+000 1.225532e+001 3.080770e+001 1.222129e+001 1.149918e+001 7.547818e+000 8.199302e+000 1.451679e+001 5.934777e-002 1.897118e-001 3.709391e-001 4.834920e-001 4.453506e-001 8.300323e-001 9.793697e-001 9.786510e-001 1.130317e+000 6.544704e-001 8.139316e-001 9.984764e-001 5.000000e-002 5.000000e-002 6.720357e-002 1.157431e-001 8.573447e-002 1.648816e-001 1.635194e-001 2.609192e-001 2.434804e-001 9.566262e-002 1.779940e-001 2.135935e-001 
<GCONST> 5.690215e+001
<STATE> 8
<MEAN> 36
-1.735858e+001 -3.242717e+001 5.401674e+000 -4.631810e+000 1.809256e+001 2.528841e+000 5.320571e-001 2.293529e+000 -4.115036e+000 9.517666e+000 -5.556157e+000 -2.885881e+000 9.972170e-002 1.092383e-001 -4.433125e-002 1.933575e-001 -6.001004e-002 2.591055e-002 -1.726401e-001 -1.986084e-001 -6.013051e-002 -1.153304e-001 1.533721e-001 -5.723625e-002 2.647058e-002 4.274654e-002 1.487589e-002 1.970872e-002 -6.506567e-002 -6.987922e-003 -3.985758e-002 2.462967e-002 -2.185309e-002 -4.282867e-002 5.183993e-002 -3.717099e-002 
<VARIANCE> 36
2.473207e+000 2.665112e+000 4.394265e+000 7.348966e+000 1.003885e+001 2.199109e+001 3.861923e+001 1.116064e+001 1.187986e+001 7.305954e+000 9.552713e+000 1.285358e+001 1.717365e-001 1.954824e-001 3.044587e-001 5.618608e-001 5.386257e-001 6.930988e-001 1.301718e+000 1.280267e+000 1.027409e+000 5.952119e-001 5.902285e-001 1.290635e+000 5.000000e-002 5.000000e-002 7.578393e-002 1.141013e-001 1.254192e-001 1.362588e-001 2.449119e-001 2.650434e-001 2.487967e-001 1.216830e-001 1.087679e-001 2.897002e-001 
<GCONST> 6.136222e+001
<STATE> 9
<MEAN> 36
-1.600013e+001 -3.064560e+001 3.607718e+000 -3.586356e+000 1.681034e+001 5.775402e+000 -2.654912e+000 3.108192e+000 -4.647708e+000 5.987042e+000 -1.794277e+000 -2.884804e+000 3.642853e-001 4.273538e-001 -3.112941e-001 1.921955e-001 -5.982401e-001 1.941769e-001 -2.772420e-002 6.368056e-001 3.655063e-001 -4.134037e-001 -9.360848e-002 -1.181520e-001 3.410485e-002 1.100073e-001 -6.769204e-002 4.734951e-002 -1.215680e-001 7.290859e-002 5.596819e-002 1.685151e-001 2.194580e-001 -4.095762e-002 -1.618903e-001 -1.119251e-001 
<VARIANCE> 36
1.999783e+000 2.632478e+000 5.858042e+000 4.400963e+000 1.070249e+001 8.390615e+000 1.450285e+001 2.399899e+001 1.074380e+001 1.404924e+001 7.837173e+000 8.786898e+000 1.021462e-001 3.058501e-001 3.098380e-001 4.699654e-001 4.181648e-001 3.267360e-001 6.171041e-001 8.821513e-001 1.178036e+000 8.858027e-001 6.858873e-001 8.688087e-001 5.000000e-002 5.000000e-002 7.849475e-002 7.199880e-002 6.331987e-002 5.000000e-002 1.501336e-001 2.081903e-001 2.250239e-001 1.525347e-001 1.056791e-001 2.036741e-001 
<GCONST> 5.460805e+001
<STATE> 10
<MEAN> 36
-1.327572e+001 -2.583685e+001 6.200665e-001 -1.750676e+000 1.115108e+001 7.424420e+000 -1.706223e+000 8.666970e+000 2.147299e-001 4.067362e+000 -4.814249e+000 -6.831357e+000 6.899240e-001 1.536638e+000 -7.203113e-001 5.320307e-001 -7.155007e-001 2.570733e-001 5.809637e-001 3.551175e-001 6.964899e-001 -2.915540e-001 2.863883e-002 -6.876263e-001 1.843739e-001 2.599788e-001 2.669403e-002 -5.970854e-003 1.365441e-001 -4.467924e-002 1.092113e-001 -2.624866e-001 -2.253590e-001 -7.897987e-003 1.828278e-001 1.580439e-001 
<VARIANCE> 36
2.093993e+000 7.989447e+000 8.534474e+000 4.432677e+000 4.914433e+000 1.590610e+001 1.752848e+001 1.504307e+001 1.111659e+001 1.137550e+001 1.301663e+001 7.747564e+000 1.595336e-001 3.422972e-001 4.316549e-001 4.577176e-001 5.948760e-001 6.732016e-001 1.014081e+000 2.423924e+000 1.112859e+000 6.110256e-001 1.379286e+000 1.417944e+000 5.101673e-002 5.000000e-002 6.806750e-002 8.789254e-002 6.290898e-002 1.177481e-001 1.713386e-001 4.769024e-001 1.851100e-001 1.869768e-001 2.220100e-001 2.205694e-001 
<GCONST> 6.286096e+001
<STATE> 11
<MEAN> 36
-8.244168e+000 -1.700310e+001 -1.091010e+000 4.235988e-001 9.911044e+000 7.955274e+000 1.299415e+000 7.597703e+000 1.500821e+000 2.270491e+000 -4.313453e+000 -7.949810e+000 2.315526e+000 2.392003e+000 -1.147107e+000 -7.760844e-001 -8.890175e-002 5.133353e-001 5.698853e-001 -3.357043e-001 -5.085949e-001 -1.166328e+000 -4.012772e-001 2.471339e-001 2.358067e-001 -1.983030e-001 -3.552049e-001 -5.419896e-001 1.352963e-001 2.913737e-002 -1.930304e-001 7.095412e-002 -3.197104e-001 -2.876215e-001 -2.625988e-001 1.412780e-001 
<VARIANCE> 36
1.033163e+001 1.055087e+001 7.200289e+000 6.437864e+000 1.147851e+001 1.055752e+001 1.459764e+001 1.038468e+001 2.292938e+001 7.850025e+000 1.338590e+001 1.751439e+001 2.898015e-001 1.612155e-001 8.955213e-001 1.136954e+000 7.563508e-001 7.759579e-001 5.439512e-001 1.443983e+000 1.911222e+000 1.222369e+000 1.155281e+000 6.389842e-001 1.265045e-001 7.770114e-002 8.573007e-002 1.416527e-001 2.159222e-001 1.601486e-001 1.481983e-001 2.312138e-001 3.537895e-001 2.251667e-001 2.751896e-001 1.734944e-001 
<GCONST> 7.054175e+001
<STATE> 12
<MEAN> 36
-2.359529e+000 -1.272376e+001 -6.262820e+000 -4.446131e+000 1.018072e+001 8.969230e+000 1.635056e+000 7.849552e+000 -1.857425e+000 -2.203440e+000 -5.694191e+000 -7.080088e+000 2.141534e+000 1.302371e+000 -1.871379e+000 -1.485690e+000 5.674081e-002 -1.076112e-002 -2.738742e-001 8.216386e-003 -1.048990e+000 -1.331840e+000 -5.854914e-001 2.750629e-001 -4.619041e-001 -4.898138e-001 1.107595e-001 3.077315e-001 4.333600e-002 -2.325452e-001 -1.414858e-001 1.421709e-001 4.350397e-001 2.624871e-001 4.629311e-002 -1.787445e-002 
<VARIANCE> 36
2.210030e+000 2.253078e+000 2.509169e+000 4.160975e+000 3.208854e+000 4.769501e+000 1.100168e+001 2.909120e+000 6.211045e+000 8.514892e+000 4.794859e+000 4.395861e+000 2.051027e-001 1.206490e-001 1.946060e-001 2.183349e-001 8.954333e-001 2.836860e-001 2.620424e-001 4.539599e-001 9.975783e-001 8.432659e-001 6.605143e-001 2.294396e-001 5.000000e-002 5.000000e-002 5.000000e-002 9.734200e-002 9.314020e-002 5.000000e-002 7.866832e-002 1.324956e-001 1.628875e-001 2.016695e-001 1.312785e-001 9.440042e-002 
<GCONST> 4.185199e+001
<STATE> 13
<MEAN> 36
6.252134e-001 -9.518315e+000 -9.396465e+000 -5.727150e+000 1.043045e+001 1.050246e+001 1.620511e+000 7.276145e+000 -7.125936e-001 -2.674177e+000 -6.810554e+000 -6.953885e+000 6.764277e-001 6.004374e-001 -8.816003e-001 -3.522037e-001 1.464676e-001 -4.858384e-002 -1.773562e-001 3.045762e-001 3.028497e-001 -5.542567e-001 -1.478194e-001 1.898963e-001 -2.607794e-001 -1.959016e-001 1.701850e-001 2.350322e-001 3.785897e-002 -1.084446e-001 -6.852312e-002 9.191829e-002 1.719568e-001 1.048199e-001 1.024765e-001 -8.916647e-002 
<VARIANCE> 36
3.102409e+000 1.051625e+001 6.153777e+000 6.648527e+000 5.774499e+000 1.400320e+001 6.726630e+000 8.753517e+000 6.809278e+000 8.961946e+000 5.223751e+000 1.928378e+001 2.121449e-001 9.076344e-002 3.308939e-001 5.253965e-001 4.205894e-001 4.206542e-001 4.840995e-001 5.841231e-001 4.641269e-001 6.265360e-001 3.470928e-001 8.429419e-001 5.000000e-002 5.000000e-002 5.248711e-002 1.118544e-001 1.064897e-001 7.692845e-002 6.506633e-002 1.188826e-001 1.523881e-001 1.517914e-001 9.147176e-002 1.788847e-001 
<GCONST> 5.071820e+001
<STATE> 14
<MEAN> 36
1.176035e+000 -9.496987e+000 -1.031726e+001 -2.009365e+000 9.922380e+000 4.905976e+000 -9.744743e-001 1.241818e+001 1.719815e+000 -9.123790e+000 -6.944648e+000 -4.051316e+000 1.925545e-001 2.089007e-002 -4.220709e-001 2.405508e-001 2.006240e-001 -6.047874e-001 -3.652811e-001 2.854329e-001 9.605900e-002 -3.978970e-001 -8.233729e-002 4.321409e-003 -3.806372e-002 -5.103486e-002 2.721016e-002 -1.305029e-002 5.166738e-002 -3.072208e-002 4.049137e-003 -2.274220e-002 -8.632591e-002 3.595955e-002 -2.563849e-002 3.722069e-002 
<VARIANCE> 36
8.524874e-001 2.758605e+000 5.022157e+000 1.093096e+001 3.384664e+000 2.091338e+001 6.730104e+000 2.067999e+001 7.608576e+000 1.939828e+001 4.757916e+000 1.033568e+001 5.000000e-002 1.965909e-001 3.065176e-001 4.237800e-001 3.759860e-001 2.788036e-001 4.060702e-001 5.825177e-001 3.972227e-001 5.839086e-001 4.667068e-001 5.845519e-001 5.000000e-002 5.000000e-002 5.244648e-002 8.186263e-002 6.777809e-002 5.000000e-002 9.339643e-002 7.598328e-002 6.893692e-002 7.718781e-002 9.245535e-002 1.280952e-001 
<GCONST> 4.423911e+001
<STATE> 15
<MEAN> 36
2.930932e+000 -9.300900e+000 -1.353444e+001 -5.095994e+000 1.271211e+001 5.271131e+000 -2.061537e+000 1.050833e+001 3.423652e-001 -6.661466e+000 -7.698897e+000 -5.212171e+000 1.291208e-001 2.490420e-002 -3.830243e-001 2.040839e-001 8.736269e-002 -4.299809e-001 -2.255411e-001 2.572501e-001 3.946290e-002 -3.759144e-001 -3.033482e-001 1.461147e-001 -1.179696e-002 2.063582e-002 4.330978e-002 -5.717976e-003 -8.778888e-002 5.863256e-003 4.419675e-002 -2.922350e-002 -5.546992e-003 3.449516e-002 -5.067691e-002 -8.206676e-003 
<VARIANCE> 36
4.897775e-001 5.921755e+000 4.543300e+000 5.026260e+000 5.373893e+000 7.219110e+000 8.217299e+000 1.265271e+001 4.667515e+000 9.598576e+000 4.957824e+000 6.663323e+000 5.333606e-002 6.074160e-002 1.485950e-001 2.654992e-001 1.916569e-001 3.338948e-001 5.757757e-001 2.334205e-001 3.399372e-001 4.744257e-001 4.497764e-001 3.867208e-001 5.000000e-002 5.000000e-002 5.000000e-002 5.000000e-002 5.000000e-002 5.716371e-002 9.419811e-002 6.668921e-002 5.616560e-002 9.512125e-002 7.630325e-002 6.056683e-002 
<GCONST> 3.514472e+001
<STATE> 16
<MEAN> 36
3.389741e+000 -9.273583e+000 -1.535741e+001 -2.747687e+000 1.294307e+001 1.448584e+000 -3.894765e+000 1.439729e+001 1.387900e+000 -1.058354e+001 -9.296453e+000 -4.549446e+000 4.134276e-003 2.002390e-001 8.294200e-002 -1.448208e-002 -1.913019e-002 -2.395746e-001 -2.367332e-001 1.664097e-001 -2.235994e-001 -3.441598e-001 1.145230e-001 -5.977581e-002 -1.655994e-002 2.245450e-002 3.893079e-002 1.597385e-003 1.837069e-002 6.931120e-002 -1.359820e-002 -9.314981e-002 -4.448645e-002 -1.539209e-003 8.666641e-002 2.157745e-002 
<VARIANCE> 36
1.230528e+000 3.677577e+000 1.717081e+000 6.777642e+000 7.428286e+000 6.701246e+000 4.502864e+000 1.365254e+001 1.106784e+001 1.103018e+001 6.661173e+000 8.833551e+000 5.000000e-002 6.825673e-002 1.452242e-001 1.734943e-001 1.819039e-001 1.537036e-001 3.278322e-001 4.734150e-001 3.631835e-001 5.646945e-001 5.182261e-001 4.088990e-001 5.000000e-002 5.000000e-002 5.000000e-002 5.000000e-002 5.000000e-002 5.000000e-002 8.442069e-002 8.143770e-002 7.645792e-002 1.052233e-001 1.024647e-001 7.379401e-002 
<GCONST> 3.643434e+001
<STATE> 17
<MEAN> 36
4.423563e+000 -7.775369e+000 -1.623653e+001 -1.645655e+000 1.213543e+001 -4.428546e-001 -4.372608e+000 1.173611e+001 -1.828403e+000 -1.332200e+001 -9.177380e+000 -3.680490e+000 2.175893e-002 1.476632e-001 -6.103534e-002 3.011999e-001 -7.609462e-002 -6.910913e-002 9.426435e-002 -4.463754e-001 -6.384984e-002 -2.767503e-001 -7.929002e-002 1.962990e-001 -3.798276e-002 1.151531e-002 5.289244e-002 -6.689601e-004 -2.540713e-002 7.201725e-002 2.340986e-002 8.878365e-003 9.593898e-003 1.990315e-004 7.779346e-003 7.046635e-003 
<VARIANCE> 36
6.631061e-001 7.142653e+000 5.194311e+000 5.822574e+000 8.250963e+000 8.806406e+000 9.100740e+000 1.893707e+001 1.010439e+001 1.817967e+001 7.316624e+000 7.583159e+000 5.000000e-002 1.170321e-001 2.164938e-001 1.693567e-001 2.858320e-001 2.687226e-001 5.297262e-001 3.243503e-001 3.936750e-001 5.146014e-001 5.124740e-001 3.940512e-001 5.000000e-002 5.000000e-002 5.000000e-002 5.000000e-002 5.000000e-002 5.955594e-002 1.133595e-001 6.803502e-002 8.060400e-002 1.147104e-001 1.051405e-001 6.980520e-002 
<GCONST> 4.155921e+001
<STATE> 18
<MEAN> 36
2.051513e+000 -5.468479e+000 -1.382614e+001 -1.143019e+000 1.163974e+001 3.121232e+000 -3.546342e+000 8.214293e+000 -1.862370e+000 -1.264766e+001 -8.596820e+000 -3.650688e+000 -3.455464e-001 4.039658e-001 4.509299e-001 2.108473e-002 -1.882391e-001 4.492793e-001 2.963903e-001 -3.350914e-001 -2.243819e-002 6.455445e-002 -4.798465e-004 -6.029084e-002 -3.251622e-002 4.073631e-002 5.258150e-002 -1.450700e-002 -5.766563e-002 2.989456e-002 1.048515e-001 -5.897612e-003 3.326988e-002 3.671533e-002 -2.909325e-002 -1.096011e-001 
<VARIANCE> 36
2.192722e+000 4.796926e+000 3.457721e+000 1.021160e+001 1.177193e+001 8.591581e+000 9.670668e+000 1.631971e+001 7.190904e+000 9.308561e+000 5.899231e+000 8.380844e+000 5.731857e-002 1.941694e-001 1.720555e-001 4.543365e-001 5.547726e-001 4.455404e-001 8.613791e-001 9.778434e-001 4.808814e-001 3.834937e-001 6.511464e-001 6.942284e-001 5.000000e-002 5.000000e-002 5.000000e-002 9.104239e-002 1.085958e-001 7.249749e-002 1.537835e-001 1.826086e-001 1.127568e-001 7.721187e-002 1.469477e-001 1.428361e-001 
<GCONST> 5.035443e+001
<STATE> 19
<MEAN> 36
2.703940e-001 -2.160111e+000 -1.023476e+001 -8.452269e-001 8.064589e+000 3.507230e+000 6.009562e-001 8.147454e+000 -1.929168e+000 -1.375359e+001 -1.045312e+001 -5.289374e+000 -6.260276e-001 6.665337e-001 1.125508e+000 3.478403e-001 -6.801965e-001 3.157365e-001 3.714701e-001 -7.454431e-001 -4.570967e-001 3.376978e-001 2.545180e-001 9.277764e-002 -3.059672e-002 -5.643076e-002 2.604605e-002 1.983849e-001 1.315307e-001 -1.920834e-001 -2.541264e-001 -9.768477e-002 -1.479124e-001 1.112017e-001 1.965806e-001 2.429905e-001 
<VARIANCE> 36
2.786565e+000 5.053012e+000 5.643860e+000 8.200953e+000 1.012716e+001 1.677721e+001 4.933346e+000 8.183571e+000 8.259118e+000 1.221815e+001 8.785597e+000 1.034462e+001 5.000000e-002 2.455247e-001 3.720895e-001 4.808106e-001 4.541563e-001 3.383675e-001 6.887784e-001 7.663775e-001 9.344715e-001 5.865796e-001 1.294488e+000 2.373322e+000 5.000000e-002 5.237406e-002 7.888973e-002 5.000000e-002 1.179822e-001 9.307642e-002 1.128112e-001 8.193197e-002 1.480041e-001 2.168836e-001 2.413216e-001 3.265944e-001 
<GCONST> 5.583319e+001
<STATE> 20
<MEAN> 36
-1.678942e+000 -4.067002e-001 -6.517917e+000 2.693693e+000 7.803888e+000 2.655205e+000 -1.385564e+000 3.365320e+000 -3.975130e+000 -1.132558e+001 -6.829093e+000 -2.994354e+000 -3.770306e-001 2.927542e-001 6.823591e-001 3.689706e-001 -1.795660e-001 8.150130e-002 1.798791e-001 -5.305190e-001 -2.677049e-002 4.629553e-001 2.451545e-001 -3.675688e-001 1.410296e-002 -1.131386e-002 -8.303827e-002 -2.350619e-001 -1.339842e-001 1.080378e-001 2.994158e-001 2.792060e-001 2.117612e-001 -6.831952e-002 -3.180470e-001 -2.488866e-001 
<VARIANCE> 36
1.202923e+000 3.441436e+000 6.457074e+000 9.837118e+000 5.623048e+000 8.660030e+000 5.226147e+000 9.631078e+000 6.714087e+000 1.025318e+001 1.140963e+001 1.027353e+001 9.633749e-002 3.073653e-001 6.531346e-001 4.650849e-001 9.236899e-001 8.779646e-001 1.707598e+000 6.216981e-001 5.802238e-001 1.485142e+000 1.992483e+000 8.875105e-001 5.000000e-002 5.009314e-002 1.217406e-001 7.230508e-002 1.498840e-001 1.208296e-001 2.138180e-001 1.161380e-001 1.665033e-001 2.370188e-001 2.960933e-001 2.049907e-001 
<GCONST> 5.963254e+001
<STATE> 21
<MEAN> 36
-2.865046e+000 5.639415e-001 -6.279677e+000 3.415874e-001 6.517105e+000 6.198100e+000 2.764794e+000 3.653707e+000 -1.669152e+000 -8.844726e+000 -8.513111e+000 -5.930711e+000 -5.461061e-001 3.791389e-002 1.421851e-002 5.869789e-002 2.239046e-001 4.573046e-001 6.116318e-001 8.684324e-002 -9.844779e-002 5.989079e-001 1.226599e-001 8.467926e-002 -1.996497e-002 -1.586601e-001 -1.356540e-001 4.350027e-002 2.528151e-001 -1.099524e-002 -2.372058e-001 -1.533408e-002 -1.690875e-001 4.150141e-002 2.614677e-001 2.088179e-001 
<VARIANCE> 36
1.896789e+000 2.183636e+000 7.513160e+000 8.648693e+000 4.677784e+000 7.219172e+000 4.751204e+000 1.017025e+001 1.333256e+001 1.474019e+001 7.534948e+000 1.130584e+001 7.450804e-002 2.021156e-001 4.111948e-001 5.812345e-001 5.870982e-001 5.124969e-001 5.996075e-001 1.370795e+000 1.374645e+000 1.865682e+000 1.287783e+000 6.521451e-001 5.000000e-002 5.000000e-002 1.417286e-001 5.756749e-002 8.548534e-002 7.426490e-002 1.596800e-001 2.481760e-001 1.669139e-001 2.776067e-001 2.270237e-001 1.398275e-001 
<GCONST> 5.701524e+001
<STATE> 22
<MEAN> 36
-5.623137e+000 -8.920363e-001 -5.187433e+000 1.037223e+000 8.187398e+000 7.457777e+000 2.089656e+000 5.124745e+000 -3.084554e+000 -8.086132e+000 -5.349753e+000 -3.703405e+000 -5.952883e-001 -1.808812e-002 2.315083e-001 -2.480444e-001 -3.363862e-001 1.325978e-001 3.048720e-001 4.712171e-001 8.017065e-001 5.969744e-001 6.198249e-001 3.453178e-001 3.436545e-003 5.214052e-002 3.604269e-002 -4.755280e-002 -2.488671e-001 -1.372200e-001 9.883331e-002 5.823404e-002 2.729290e-001 8.359119e-002 -3.319569e-002 1.362154e-002 
<VARIANCE> 36
2.030913e+000 7.603273e+000 3.201032e+000 6.385553e+000 1.036187e+001 8.727890e+000 1.336132e+001 3.526987e+001 1.361596e+001 2.249746e+001 1.261363e+001 9.460084e+000 9.027577e-002 1.196676e-001 4.262105e-001 4.424988e-001 4.788500e-001 6.115081e-001 9.181298e-001 1.951841e+000 1.425042e+000 1.117930e+000 6.840679e-001 6.600720e-001 5.000000e-002 5.000000e-002 8.128406e-002 1.146827e-001 1.076244e-001 1.461241e-001 1.759094e-001 3.938920e-001 2.768971e-001 2.626045e-001 1.616785e-001 1.116931e-001 
<GCONST> 6.179028e+001
<STATE> 23
<MEAN> 36
-9.180978e+000 -7.608953e-002 -3.207558e+000 1.451749e+000 3.891938e+000 5.281278e+000 3.900633e+000 4.291721e+000 9.841333e-001 -2.419670e+000 -2.143633e+000 -1.764963e+000 -4.258335e-001 3.642340e-002 1.962264e-001 3.090126e-002 -5.020135e-001 -4.527145e-001 -3.302188e-002 -3.085486e-001 5.676256e-002 5.267048e-001 3.095441e-001 2.802877e-001 4.086230e-002 1.770764e-004 -1.972379e-002 1.585095e-002 7.197146e-002 1.681430e-002 -8.098179e-002 -1.439338e-001 -1.540123e-001 -1.347571e-001 -4.580402e-002 2.223949e-002 
<VARIANCE> 36
3.303215e+000 2.288263e+000 5.100749e+000 4.683890e+000 1.042485e+001 9.386765e+000 8.296364e+000 1.358420e+001 8.138095e+000 8.563314e+000 8.668130e+000 7.242518e+000 1.130329e-001 2.117840e-001 3.353221e-001 6.515409e-001 9.249413e-001 5.543187e-001 9.926058e-001 1.198882e+000 7.318378e-001 7.634697e-001 9.235703e-001 7.377176e-001 5.000000e-002 5.000000e-002 7.260975e-002 1.561794e-001 1.321449e-001 1.008377e-001 1.956427e-001 2.653922e-001 2.068692e-001 1.710572e-001 1.492285e-001 1.476080e-001 
<GCONST> 5.743457e+001
<TRANSP> 25
0.000000e+000 1.000000e+000 0.000000e+000 0.000000e+000 0.000000e+000 0.000000e+000 0.000000e+000 0.000000e+000 0.000000e+000 0.000000e+000 0.000000e+000 0.000000e+000 0.000000e+000 0.000000e+000 0.000000e+000 0.000000e+000 0.000000e+000 0.000000e+000 0.000000e+000 0.000000e+000 0.000000e+000 0.000000e+000 0.000000e+000 0.000000e+000 0.000000e+000 
0.000000e+000 7.271228e-001 2.728772e-001 0.000000e+000 0.000000e+000 0.000000e+000 0.000000e+000 0.000000e+000 0.000000e+000 0.000000e+000 0.000000e+000 0.000000e+000 0.000000e+000 0.000000e+000 0.000000e+000 0.000000e+000 0.000000e+000 0.000000e+000 0.000000e+000 0.000000e+000 0.000000e+000 0.000000e+000 0.000000e+000 0.000000e+000 0.000000e+000 
0.000000e+000 0.000000e+000 6.685989e-001 3.314011e-001 0.000000e+000 0.000000e+000 0.000000e+000 0.000000e+000 0.000000e+000 0.000000e+000 0.000000e+000 0.000000e+000 0.000000e+000 0.000000e+000 0.000000e+000 0.000000e+000 0.000000e+000 0.000000e+000 0.000000e+000 0.000000e+000 0.000000e+000 0.000000e+000 0.000000e+000 0.000000e+000 0.000000e+000 
0.000000e+000 0.000000e+000 0.000000e+000 8.466636e-001 1.533365e-001 0.000000e+000 0.000000e+000 0.000000e+000 0.000000e+000 0.000000e+000 0.000000e+000 0.000000e+000 0.000000e+000 0.000000e+000 0.000000e+000 0.000000e+000 0.000000e+000 0.000000e+000 0.000000e+000 0.000000e+000 0.000000e+000 0.000000e+000 0.000000e+000 0.000000e+000 0.000000e+000 
0.000000e+000 0.000000e+000 0.000000e+000 0.000000e+000 7.852978e-001 2.147022e-001 0.000000e+000 0.000000e+000 0.000000e+000 0.000000e+000 0.000000e+000 0.000000e+000 0.000000e+000 0.000000e+000 0.000000e+000 0.000000e+000 0.000000e+000 0.000000e+000 0.000000e+000 0.000000e+000 0.000000e+000 0.000000e+000 0.000000e+000 0.000000e+000 0.000000e+000 
0.000000e+000 0.000000e+000 0.000000e+000 0.000000e+000 0.000000e+000 8.836121e-001 1.163879e-001 0.000000e+000 0.000000e+000 0.000000e+000 0.000000e+000 0.000000e+000 0.000000e+000 0.000000e+000 0.000000e+000 0.000000e+000 0.000000e+000 0.000000e+000 0.000000e+000 0.000000e+000 0.000000e+000 0.000000e+000 0.000000e+000 0.000000e+000 0.000000e+000 
0.000000e+000 0.000000e+000 0.000000e+000 0.000000e+000 0.000000e+000 0.000000e+000 6.867996e-001 3.132003e-001 0.000000e+000 0.000000e+000 0.000000e+000 0.000000e+000 0.000000e+000 0.000000e+000 0.000000e+000 0.000000e+000 0.000000e+000 0.000000e+000 0.000000e+000 0.000000e+000 0.000000e+000 0.000000e+000 0.000000e+000 0.000000e+000 0.000000e+000 
0.000000e+000 0.000000e+000 0.000000e+000 0.000000e+000 0.000000e+000 0.000000e+000 0.000000e+000 8.721198e-001 1.278801e-001 0.000000e+000 0.000000e+000 0.000000e+000 0.000000e+000 0.000000e+000 0.000000e+000 0.000000e+000 0.000000e+000 0.000000e+000 0.000000e+000 0.000000e+000 0.000000e+000 0.000000e+000 0.000000e+000 0.000000e+000 0.000000e+000 
0.000000e+000 0.000000e+000 0.000000e+000 0.000000e+000 0.000000e+000 0.000000e+000 0.000000e+000 0.000000e+000 8.826889e-001 1.173111e-001 0.000000e+000 0.000000e+000 0.000000e+000 0.000000e+000 0.000000e+000 0.000000e+000 0.000000e+000 0.000000e+000 0.000000e+000 0.000000e+000 0.000000e+000 0.000000e+000 0.000000e+000 0.000000e+000 0.000000e+000 
0.000000e+000 0.000000e+000 0.000000e+000 0.000000e+000 0.000000e+000 0.000000e+000 0.000000e+000 0.000000e+000 0.000000e+000 8.368977e-001 1.631025e-001 0.000000e+000 0.000000e+000 0.000000e+000 0.000000e+000 0.000000e+000 0.000000e+000 0.000000e+000 0.000000e+000 0.000000e+000 0.000000e+000 0.000000e+000 0.000000e+000 0.000000e+000 0.000000e+000 
0.000000e+000 0.000000e+000 0.000000e+000 0.000000e+000 0.000000e+000 0.000000e+000 0.000000e+000 0.000000e+000 0.000000e+000 0.000000e+000 8.039351e-001 1.960647e-001 0.000000e+000 0.000000e+000 0.000000e+000 0.000000e+000 0.000000e+000 0.000000e+000 0.000000e+000 0.000000e+000 0.000000e+000 0.000000e+000 0.000000e+000 0.000000e+000 0.000000e+000 
0.000000e+000 0.000000e+000 0.000000e+000 0.000000e+000 0.000000e+000 0.000000e+000 0.000000e+000 0.000000e+000 0.000000e+000 0.000000e+000 0.000000e+000 6.785834e-001 3.214166e-001 0.000000e+000 0.000000e+000 0.000000e+000 0.000000e+000 0.000000e+000 0.000000e+000 0.000000e+000 0.000000e+000 0.000000e+000 0.000000e+000 0.000000e+000 0.000000e+000 
0.000000e+000 0.000000e+000 0.000000e+000 0.000000e+000 0.000000e+000 0.000000e+000 0.000000e+000 0.000000e+000 0.000000e+000 0.000000e+000 0.000000e+000 0.000000e+000 0.000000e+000 1.000000e+000 0.000000e+000 0.000000e+000 0.000000e+000 0.000000e+000 0.000000e+000 0.000000e+000 0.000000e+000 0.000000e+000 0.000000e+000 0.000000e+000 0.000000e+000 
0.000000e+000 0.000000e+000 0.000000e+000 0.000000e+000 0.000000e+000 0.000000e+000 0.000000e+000 0.000000e+000 0.000000e+000 0.000000e+000 0.000000e+000 0.000000e+000 0.000000e+000 8.026588e-001 1.973412e-001 0.000000e+000 0.000000e+000 0.000000e+000 0.000000e+000 0.000000e+000 0.000000e+000 0.000000e+000 0.000000e+000 0.000000e+000 0.000000e+000 
0.000000e+000 0.000000e+000 0.000000e+000 0.000000e+000 0.000000e+000 0.000000e+000 0.000000e+000 0.000000e+000 0.000000e+000 0.000000e+000 0.000000e+000 0.000000e+000 0.000000e+000 0.000000e+000 7.806363e-001 2.193638e-001 0.000000e+000 0.000000e+000 0.000000e+000 0.000000e+000 0.000000e+000 0.000000e+000 0.000000e+000 0.000000e+000 0.000000e+000 
0.000000e+000 0.000000e+000 0.000000e+000 0.000000e+000 0.000000e+000 0.000000e+000 0.000000e+000 0.000000e+000 0.000000e+000 0.000000e+000 0.000000e+000 0.000000e+000 0.000000e+000 0.000000e+000 0.000000e+000 8.694075e-001 1.305927e-001 0.000000e+000 0.000000e+000 0.000000e+000 0.000000e+000 0.000000e+000 0.000000e+000 0.000000e+000 0.000000e+000 
0.000000e+000 0.000000e+000 0.000000e+000 0.000000e+000 0.000000e+000 0.000000e+000 0.000000e+000 0.000000e+000 0.000000e+000 0.000000e+000 0.000000e+000 0.000000e+000 0.000000e+000 0.000000e+000 0.000000e+000 0.000000e+000 8.600339e-001 1.399661e-001 0.000000e+000 0.000000e+000 0.000000e+000 0.000000e+000 0.000000e+000 0.000000e+000 0.000000e+000 
0.000000e+000 0.000000e+000 0.000000e+000 0.000000e+000 0.000000e+000 0.000000e+000 0.000000e+000 0.000000e+000 0.000000e+000 0.000000e+000 0.000000e+000 0.000000e+000 0.000000e+000 0.000000e+000 0.000000e+000 0.000000e+000 0.000000e+000 8.562304e-001 1.437697e-001 0.000000e+000 0.000000e+000 0.000000e+000 0.000000e+000 0.000000e+000 0.000000e+000 
0.000000e+000 0.000000e+000 0.000000e+000 0.000000e+000 0.000000e+000 0.000000e+000 0.000000e+000 0.000000e+000 0.000000e+000 0.000000e+000 0.000000e+000 0.000000e+000 0.000000e+000 0.000000e+000 0.000000e+000 0.000000e+000 0.000000e+000 0.000000e+000 8.631714e-001 1.368286e-001 0.000000e+000 0.000000e+000 0.000000e+000 0.000000e+000 0.000000e+000 
0.000000e+000 0.000000e+000 0.000000e+000 0.000000e+000 0.000000e+000 0.000000e+000 0.000000e+000 0.000000e+000 0.000000e+000 0.000000e+000 0.000000e+000 0.000000e+000 0.000000e+000 0.000000e+000 0.000000e+000 0.000000e+000 0.000000e+000 0.000000e+000 0.000000e+000 7.165723e-001 2.834277e-001 0.000000e+000 0.000000e+000 0.000000e+000 0.000000e+000 
0.000000e+000 0.000000e+000 0.000000e+000 0.000000e+000 0.000000e+000 0.000000e+000 0.000000e+000 0.000000e+000 0.000000e+000 0.000000e+000 0.000000e+000 0.000000e+000 0.000000e+000 0.000000e+000 0.000000e+000 0.000000e+000 0.000000e+000 0.000000e+000 0.000000e+000 0.000000e+000 6.678841e-001 3.321159e-001 0.000000e+000 0.000000e+000 0.000000e+000 
0.000000e+000 0.000000e+000 0.000000e+000 0.000000e+000 0.000000e+000 0.000000e+000 0.000000e+000 0.000000e+000 0.000000e+000 0.000000e+000 0.000000e+000 0.000000e+000 0.000000e+000 0.000000e+000 0.000000e+000 0.000000e+000 0.000000e+000 0.000000e+000 0.000000e+000 0.000000e+000 0.000000e+000 7.068298e-001 2.931702e-001 0.000000e+000 0.000000e+000 
0.000000e+000 0.000000e+000 0.000000e+000 0.000000e+000 0.000000e+000 0.000000e+000 0.000000e+000 0.000000e+000 0.000000e+000 0.000000e+000 0.000000e+000 0.000000e+000 0.000000e+000 0.000000e+000 0.000000e+000 0.000000e+000 0.000000e+000 0.000000e+000 0.000000e+000 0.000000e+000 0.000000e+000 0.000000e+000 7.966708e-001 2.033292e-001 0.000000e+000 
0.000000e+000 0.000000e+000 0.000000e+000 0.000000e+000 0.000000e+000 0.000000e+000 0.000000e+000 0.000000e+000 0.000000e+000 0.000000e+000 0.000000e+000 0.000000e+000 0.000000e+000 0.000000e+000 0.000000e+000 0.000000e+000 0.000000e+000 0.000000e+000 0.000000e+000 0.000000e+000 0.000000e+000 0.000000e+000 0.000000e+000 8.523639e-001 1.476362e-001 
0.000000e+000 0.000000e+000 0.000000e+000 0.000000e+000 0.000000e+000 0.000000e+000 0.000000e+000 0.000000e+000 0.000000e+000 0.000000e+000 0.000000e+000 0.000000e+000 0.000000e+000 0.000000e+000 0.000000e+000 0.000000e+000 0.000000e+000 0.000000e+000 0.000000e+000 0.000000e+000 0.000000e+000 0.000000e+000 0.000000e+000 0.000000e+000 0.000000e+000 
