<HMMNAME> 5
<HMMSTATES> 25
<STATE> 1
<MEAN> 36
-6.727856e+000 -1.227033e+001 -1.333053e+001 6.758794e-001 1.489740e+001 1.062516e+001 9.566597e-001 5.280634e+000 -6.581192e-001 -3.820830e+000 1.923899e+000 5.170076e+000 4.726804e-001 -2.750987e-001 -9.281414e-002 6.090911e-001 1.874351e+000 1.006889e+000 -8.504275e-001 1.130947e-001 -2.228745e-002 -5.395021e-001 2.663316e-001 3.654915e-001 1.478768e-002 2.902837e-002 9.143209e-002 1.808356e-001 3.267386e-001 1.020857e-001 -1.709612e-001 -2.088712e-002 -1.417619e-001 -1.117712e-001 -1.862643e-002 -2.039505e-003 
<VARIANCE> 36
8.592207e+000 1.881902e+001 1.873944e+001 5.160592e+001 8.548082e+001 3.038292e+001 2.076205e+001 2.123039e+001 3.974761e+001 3.715672e+001 1.818877e+001 1.757607e+001 3.793989e-001 2.160375e+000 2.455217e+000 3.321657e+000 2.799977e+000 3.612958e+000 9.306039e-001 1.273490e+000 2.224513e+000 2.010751e+000 9.333344e-001 1.200401e+000 9.227174e-002 5.534524e-001 4.522933e-001 6.402157e-001 4.096517e-001 6.564993e-001 1.371796e-001 2.428124e-001 6.077756e-001 4.730079e-001 1.837243e-001 2.140043e-001 
<GCONST> 9.772294e+001
<STATE> 2
<MEAN> 36
-2.807308e+000 -1.547287e+001 -1.379074e+001 5.980224e+000 3.184424e+001 1.708520e+001 -5.563958e+000 5.755796e+000 -3.691868e+000 -1.119784e+001 5.471302e-001 6.289770e+000 4.117361e-001 -9.278035e-001 -7.184244e-002 4.413670e-001 1.639024e+000 -3.328699e-001 -9.259431e-001 8.399979e-002 -1.186785e+000 -8.179792e-001 -6.646523e-001 -1.359846e-001 -1.198097e-001 2.256954e-001 1.069972e-001 -9.196112e-002 -5.892479e-001 -4.219427e-001 2.342582e-001 -5.357815e-002 1.011387e-002 2.289514e-001 -4.330792e-002 -4.074373e-002 
<VARIANCE> 36
3.009659e+000 7.325933e+000 5.990891e+000 2.218323e+001 1.616905e+001 3.523465e+001 1.523162e+001 1.187897e+001 3.518324e+001 1.409472e+001 2.266297e+001 1.320680e+001 2.203118e-001 7.334420e-001 4.948394e-001 6.990031e-001 2.148866e+000 1.092434e+000 1.197822e+000 7.038031e-001 1.155778e+000 2.014977e+000 7.108819e-001 9.790496e-001 5.000000e-002 1.471781e-001 7.563776e-002 7.367697e-002 1.571822e-001 2.094746e-001 1.407313e-001 1.325992e-001 2.935258e-001 2.155430e-001 1.223121e-001 2.773382e-001 
<GCONST> 7.223809e+001
<STATE> 3
<MEAN> 36
-1.584074e+000 -1.631613e+001 -1.086356e+001 5.037258e+000 3.281587e+001 1.275371e+001 -7.907153e+000 6.736379e+000 -9.354093e+000 -1.185052e+001 -8.491214e-001 4.511611e+000 1.973696e-001 7.888445e-003 2.502054e-001 -5.231351e-001 7.953286e-002 -3.368988e-001 -3.916250e-001 -7.065602e-003 -7.429041e-001 -2.079961e-001 -2.899132e-001 -2.774598e-001 -1.150651e-002 -6.255149e-003 -5.702482e-002 -9.157728e-002 -1.572290e-002 -8.094834e-003 3.614863e-002 -3.613784e-002 -2.419669e-002 5.123362e-003 -2.720771e-002 4.745841e-002 
<VARIANCE> 36
1.564137e+000 4.353903e+000 1.127596e+001 2.215527e+001 1.158406e+001 2.193546e+001 2.258317e+001 1.211242e+001 2.408378e+001 1.383706e+001 1.523187e+001 3.676231e+001 5.000000e-002 1.373867e-001 2.201245e-001 3.846577e-001 5.749533e-001 2.908280e-001 6.528669e-001 7.779238e-001 7.434959e-001 5.199893e-001 4.342241e-001 7.185440e-001 5.000000e-002 5.000000e-002 5.000000e-002 1.003842e-001 1.086748e-001 7.402831e-002 9.827674e-002 1.547939e-001 1.446509e-001 1.058521e-001 6.169980e-002 1.631184e-001 
<GCONST> 5.578574e+001
<STATE> 4
<MEAN> 36
-5.076975e-001 -1.504933e+001 -1.294244e+001 -4.011277e-001 3.505107e+001 3.487381e+000 -7.555653e+000 8.903685e+000 -1.872334e+001 -1.328170e+001 -7.448118e+000 4.728975e+000 4.410019e-002 4.028184e-003 -7.381098e-002 -4.986814e-001 -2.098625e-001 -5.318399e-001 1.214877e-001 -1.970269e-001 -3.946917e-001 1.681046e-001 -2.176526e-001 2.140545e-001 9.948121e-003 2.573467e-002 -2.878454e-002 4.939966e-002 -4.889551e-002 5.143964e-002 -1.763252e-003 -1.076673e-004 6.284279e-002 -6.621761e-004 3.298175e-002 -2.314381e-002 
<VARIANCE> 36
5.247056e-001 1.498155e+000 3.635015e+000 1.410880e+001 6.086630e+000 1.472033e+001 7.532658e+000 6.273207e+000 8.797791e+000 1.099285e+001 4.995014e+000 5.440068e+000 6.330750e-002 7.784948e-002 1.489036e-001 3.084520e-001 3.553179e-001 6.730166e-001 4.157665e-001 1.802545e-001 4.699401e-001 4.392819e-001 3.064473e-001 3.378098e-001 5.000000e-002 5.000000e-002 5.000000e-002 5.000000e-002 5.000000e-002 1.079679e-001 1.028265e-001 5.000000e-002 6.211323e-002 8.147156e-002 6.914792e-002 8.339467e-002 
<GCONST> 3.690727e+001
<STATE> 5
<MEAN> 36
5.925617e-001 -1.615289e+001 -1.229835e+001 5.569176e-001 3.192103e+001 8.072724e+000 -1.132847e+001 5.978117e+000 -1.595902e+001 -1.568677e+001 -4.351353e+000 4.666561e+000 1.431883e-001 1.610297e-002 -2.056783e-001 -4.974244e-001 -4.952924e-001 -2.252472e-001 -4.339971e-001 -5.084827e-002 -1.868353e-001 -4.166090e-001 6.634867e-002 -3.258971e-001 -2.286558e-002 3.448063e-002 3.515735e-002 -8.584949e-004 4.054715e-003 4.468998e-002 5.938689e-002 -1.207053e-003 3.437695e-002 -2.662813e-002 5.721588e-003 -9.787563e-002 
<VARIANCE> 36
5.584579e-001 2.359135e+000 8.149111e+000 1.232098e+001 1.854221e+001 2.660112e+001 3.796277e+001 1.076165e+001 1.303385e+001 1.041229e+001 1.231634e+001 1.245113e+001 5.000000e-002 1.641347e-001 2.875317e-001 2.548892e-001 2.304921e-001 3.059728e-001 4.624407e-001 2.304325e-001 4.846822e-001 6.093294e-001 4.912841e-001 6.661777e-001 5.000000e-002 5.000000e-002 5.000000e-002 5.000000e-002 6.654406e-002 8.470627e-002 8.722905e-002 5.529369e-002 1.231646e-001 1.408959e-001 8.701924e-002 1.522835e-001 
<GCONST> 4.768849e+001
<STATE> 6
<MEAN> 36
1.028616e+000 -1.533877e+001 -1.204323e+001 -5.517821e+000 3.014033e+001 9.040742e+000 -1.600428e+001 3.724797e+000 -1.596444e+001 -1.578642e+001 -5.524136e+000 1.741672e+000 8.522243e-003 1.961852e-001 -8.078819e-002 -6.355829e-002 -1.449022e-001 -2.571688e-001 4.250729e-002 -6.209765e-002 -1.297538e-001 4.409925e-002 -1.187956e-001 6.661630e-002 -4.209404e-003 8.292120e-003 9.331009e-003 7.234400e-002 2.763665e-004 -1.704672e-002 3.017344e-002 -2.050622e-002 -2.028898e-002 1.397979e-002 3.383458e-003 2.566530e-002 
<VARIANCE> 36
7.677600e-001 3.561100e+000 1.688700e+000 5.265974e+000 5.821641e+000 9.512273e+000 1.179443e+001 1.010364e+001 4.368996e+000 1.345668e+001 1.155437e+001 1.656175e+001 5.000000e-002 8.401031e-002 1.441814e-001 5.031803e-001 2.914581e-001 3.587288e-001 5.265194e-001 4.000402e-001 4.860024e-001 5.005853e-001 3.675890e-001 2.846970e-001 5.000000e-002 5.000000e-002 5.000000e-002 6.568200e-002 5.000000e-002 5.972674e-002 1.102610e-001 7.142520e-002 7.964580e-002 9.281307e-002 5.031500e-002 5.043678e-002 
<GCONST> 3.864341e+001
<STATE> 7
<MEAN> 36
-5.421808e-002 -1.318905e+001 -1.343687e+001 -2.150315e+000 2.925776e+001 -1.438950e+000 -6.058459e+000 4.823713e+000 -2.136000e+001 -1.465251e+001 -9.932516e+000 4.922088e+000 -4.602775e-002 2.431916e-001 7.381766e-002 2.792366e-001 -1.316699e-001 -2.096907e-001 -4.139158e-002 -2.341633e-001 3.396900e-002 -1.599165e-001 -1.066456e-001 2.597508e-001 -2.115585e-002 2.183363e-002 2.909453e-002 2.404638e-002 -7.870874e-004 8.454305e-002 -5.047529e-002 4.176157e-002 1.330108e-001 -2.256726e-002 5.572434e-002 5.247062e-002 
<VARIANCE> 36
4.189942e+000 1.877385e+000 4.071012e+000 1.572258e+001 1.585874e+001 9.177228e+000 9.411255e+000 9.517192e+000 5.421733e+000 2.812518e+001 7.352394e+000 7.591897e+000 5.988878e-002 8.218499e-002 9.771637e-002 1.691478e-001 3.047862e-001 2.122365e-001 5.470465e-001 4.506619e-001 4.152251e-001 6.066975e-001 4.306665e-001 3.666352e-001 5.000000e-002 5.000000e-002 5.000000e-002 5.000000e-002 5.813643e-002 5.000000e-002 1.240968e-001 8.191294e-002 7.539232e-002 1.513742e-001 9.176253e-002 6.546781e-002 
<GCONST> 4.212990e+001
<STATE> 8
<MEAN> 36
-8.288738e-001 -1.024703e+001 -1.267402e+001 5.414728e-001 2.770481e+001 -2.998854e-001 -7.086006e+000 5.655911e+000 -1.851818e+001 -1.459954e+001 -8.940672e+000 7.098994e+000 -1.813410e-001 5.793238e-001 3.363697e-001 6.353528e-001 -8.034335e-001 4.961512e-001 4.842079e-001 -1.084834e-001 4.704931e-001 3.050629e-002 2.713000e-001 8.975685e-002 -3.265086e-002 4.545737e-002 1.159232e-001 1.162419e-002 -1.480094e-001 1.109031e-001 1.315293e-001 -8.474789e-002 8.967048e-002 -9.270519e-002 4.761883e-002 -7.046166e-002 
<VARIANCE> 36
5.268465e+000 3.024641e+000 1.990786e+000 5.992891e+000 9.964640e+000 1.191045e+001 1.673524e+001 8.198011e+000 3.243558e+000 2.131860e+001 9.762437e+000 5.469315e+000 5.824888e-002 1.336913e-001 1.654536e-001 1.425274e-001 4.332582e-001 5.391012e-001 5.896447e-001 5.082285e-001 3.887666e-001 6.787012e-001 9.805697e-001 2.295573e-001 5.000000e-002 5.000000e-002 5.000000e-002 5.000000e-002 5.000000e-002 5.182958e-002 6.296542e-002 9.708163e-002 1.273952e-001 1.171440e-001 2.004030e-001 5.000000e-002 
<GCONST> 4.339375e+001
<STATE> 9
<MEAN> 36
6.188464e-001 -7.792901e+000 -1.058408e+001 1.056794e+000 2.413990e+001 4.816264e+000 -1.083613e+001 1.020073e+000 -1.547184e+001 -1.559703e+001 -6.404895e+000 3.745080e+000 -1.875630e-001 6.214654e-001 6.472240e-001 4.897027e-001 -8.389631e-001 4.894297e-002 4.592730e-001 2.543410e-001 1.029732e+000 5.433537e-002 1.347426e-002 1.645427e-001 -2.557186e-002 1.836281e-002 1.559897e-002 1.871305e-003 -9.215163e-002 -6.353455e-002 5.863774e-002 7.870087e-002 2.226314e-001 2.693117e-001 -1.103384e-001 3.926711e-002 
<VARIANCE> 36
2.670637e+000 6.624346e+000 5.562197e+000 8.042797e+000 1.023074e+001 7.166742e+000 4.291593e+001 1.389110e+001 7.036173e+000 1.645818e+001 3.857277e+000 1.641129e+001 5.000000e-002 9.157736e-002 1.461592e-001 3.242905e-001 3.206496e-001 4.535951e-001 1.001418e+000 6.490369e-001 7.763950e-001 8.837721e-001 4.746471e-001 8.144492e-001 5.000000e-002 5.000000e-002 5.000000e-002 5.267748e-002 5.000000e-002 7.643185e-002 2.043842e-001 9.935308e-002 1.303079e-001 1.940232e-001 1.208590e-001 1.124199e-001 
<GCONST> 5.093024e+001
<STATE> 10
<MEAN> 36
-2.519337e+000 -6.668449e+000 -8.302609e+000 4.554516e+000 2.018260e+001 3.255804e+000 -4.916084e+000 3.367184e+000 -1.043317e+001 -1.326239e+001 -7.873940e+000 7.131939e+000 -2.675919e-001 1.077633e+000 5.229084e-001 1.281747e-001 -1.455701e+000 4.216707e-001 7.749460e-001 -4.661167e-001 1.441839e+000 1.342425e+000 9.818838e-002 -2.762690e-001 1.780377e-002 1.349694e-001 7.864194e-003 -2.295177e-001 -2.070857e-002 3.547821e-002 3.007734e-002 -4.942949e-002 -1.431496e-001 1.263843e-001 2.638944e-001 -5.648585e-002 
<VARIANCE> 36
7.829561e+000 7.715847e+000 2.114116e+000 1.235623e+001 8.618695e+000 1.613990e+001 3.182675e+001 1.761885e+001 1.046192e+001 1.731797e+001 1.171721e+001 6.423804e+000 5.000000e-002 2.453463e-001 1.569030e-001 7.989984e-001 5.509745e-001 6.105292e-001 4.023572e-001 7.906937e-001 5.467145e-001 8.091947e-001 1.185867e+000 3.601178e-001 5.000000e-002 5.000000e-002 5.000000e-002 1.405300e-001 1.520276e-001 1.428988e-001 1.542246e-001 2.411061e-001 1.022856e-001 2.900052e-001 2.938092e-001 9.177864e-002 
<GCONST> 5.873235e+001
<STATE> 11
<MEAN> 36
-3.069397e+000 -1.287630e+000 -6.046812e+000 2.925701e+000 1.444142e+001 5.645537e+000 -1.371834e+000 2.060955e+000 -6.426703e+000 -7.484135e+000 -3.651867e+000 6.137815e+000 -2.526405e-001 5.263434e-001 5.185139e-001 6.174288e-002 -6.873342e-001 3.186410e-001 6.523314e-001 -1.387905e-001 4.697954e-001 5.468987e-001 4.184056e-001 1.497401e-003 -8.900746e-003 -1.481743e-001 2.649112e-002 1.113768e-001 1.631422e-001 1.047608e-002 -4.541950e-002 -1.664272e-002 -1.509505e-001 -1.584616e-001 -1.240753e-001 -4.650624e-003 
<VARIANCE> 36
6.329939e+000 2.666129e+000 2.285986e+000 2.758300e+000 1.222093e+001 4.794199e+000 2.075896e+001 9.900457e+000 9.816666e+000 1.191344e+001 1.061524e+001 6.986364e+000 8.851470e-002 2.661523e-001 2.513916e-001 5.014560e-001 7.206245e-001 7.431525e-001 6.642069e-001 1.208268e+000 7.574317e-001 1.597862e+000 1.389933e+000 3.821265e-001 5.000000e-002 5.000000e-002 5.938102e-002 9.555838e-002 1.322917e-001 1.125548e-001 1.339186e-001 2.525045e-001 1.864017e-001 2.779550e-001 2.329600e-001 1.001184e-001 
<GCONST> 5.671378e+001
<STATE> 12
<MEAN> 36
-3.826382e+000 1.839304e+000 -1.246488e+000 5.623592e+000 1.102480e+001 7.063596e+000 2.770741e-001 4.541765e-001 -5.718229e+000 -6.853223e+000 -2.491006e+000 5.194603e+000 -3.109474e-001 2.496955e-001 6.112317e-001 3.296461e-001 -3.705345e-001 -7.857829e-002 2.199247e-001 -1.771024e-003 1.189962e-001 3.662724e-001 1.804886e-001 -2.830913e-001 -2.756160e-002 -3.422976e-002 -1.050055e-002 -6.303373e-003 3.571573e-003 -1.012792e-001 -2.856122e-002 1.037164e-001 2.603910e-002 5.383133e-002 1.593722e-002 -6.578777e-002 
<VARIANCE> 36
4.349805e+000 4.030566e+000 4.549886e+000 4.753269e+000 6.215320e+000 1.237049e+001 1.309688e+001 1.056223e+001 7.634964e+000 1.117320e+001 1.097465e+001 5.289169e+000 7.924509e-002 1.585088e-001 2.445493e-001 4.461603e-001 5.404844e-001 1.346532e+000 6.811674e-001 9.399394e-001 1.107512e+000 1.345377e+000 1.182480e+000 8.522690e-001 5.000000e-002 5.000000e-002 5.000000e-002 9.349475e-002 1.186011e-001 3.216266e-001 1.053509e-001 1.918511e-001 1.726468e-001 2.364081e-001 2.381801e-001 1.499928e-001 
<GCONST> 5.787588e+001
<STATE> 13
<MEAN> 36
-8.533609e+000 9.736403e-001 1.509250e+000 7.214793e+000 8.013728e+000 5.062686e+000 2.901893e+000 2.534752e+000 -3.141761e+000 -3.377322e+000 -9.529247e-001 2.415352e+000 -5.454841e-001 -5.337511e-001 -1.428997e-002 -2.109464e-002 -5.922328e-001 -3.295743e-001 2.683936e-001 2.998999e-001 -9.516785e-002 1.313171e-001 4.437480e-001 -3.247161e-001 1.109859e-002 -2.571779e-001 -1.314749e-001 -5.293130e-002 -1.510367e-001 -2.265188e-001 -7.730962e-002 5.396027e-002 -2.281800e-001 -1.410569e-001 7.708819e-002 8.868374e-002 
<VARIANCE> 36
4.518876e+000 5.980742e+000 4.160262e+000 3.262189e+000 7.409766e+000 7.020747e+000 1.212082e+001 1.317233e+001 9.922189e+000 9.232346e+000 6.185409e+000 5.034511e+000 1.428040e-001 6.310591e-001 5.654557e-001 4.474660e-001 5.458865e-001 1.060585e+000 1.086386e+000 1.532758e+000 9.688295e-001 9.701305e-001 8.339049e-001 7.537664e-001 5.000000e-002 7.125604e-002 8.310414e-002 8.353415e-002 8.727091e-002 2.952889e-001 2.786472e-001 3.597347e-001 2.211509e-001 2.163894e-001 1.814021e-001 1.101604e-001 
<GCONST> 6.118670e+001
<STATE> 14
<MEAN> 36
-1.058347e+001 -7.100386e+000 7.564645e-001 7.302510e+000 2.827357e+000 -2.529884e+000 2.886091e+000 6.725950e+000 -8.390230e+000 -4.303794e+000 3.261967e+000 1.839294e+000 -4.646603e-001 -2.079951e+000 3.637280e-001 1.054757e-001 -7.035420e-001 -1.911194e+000 1.626997e-001 1.263023e+000 -1.531736e+000 -1.718815e-001 8.083848e-001 2.449676e-001 -1.006165e-001 5.741878e-004 3.251922e-001 -5.409298e-002 3.064359e-001 2.979700e-001 2.958407e-001 5.076194e-002 3.466123e-002 1.622018e-001 -1.016890e-001 -3.707315e-002 
<VARIANCE> 36
1.667366e+000 2.253304e+001 4.269046e+000 9.720233e+000 1.210629e+001 2.338718e+001 1.157403e+001 3.026419e+001 1.951093e+001 7.616168e+000 1.862011e+001 1.248926e+001 3.071271e-001 2.122229e+000 4.101269e-001 1.280346e+000 8.941188e-001 1.950173e+000 2.126294e+000 2.256182e+000 1.322460e+000 8.147946e-001 1.455409e+000 8.452844e-001 5.272524e-002 3.559560e-001 1.050244e-001 1.914338e-001 9.934490e-002 4.123693e-001 2.729051e-001 3.955928e-001 3.901833e-001 1.944626e-001 2.793219e-001 2.115211e-001 
<GCONST> 7.809331e+001
<STATE> 15
<MEAN> 36
-1.464657e+001 -1.523998e+001 6.669574e+000 6.641797e+000 2.795846e+000 -4.335585e+000 7.461790e+000 1.037747e+001 -1.252112e+001 -2.784025e+000 4.163010e+000 1.140768e+000 -8.505383e-001 -1.185476e+000 1.457520e+000 7.045969e-002 3.079870e-001 -9.627015e-003 4.024655e-001 6.422237e-001 3.964524e-001 3.704291e-001 3.555919e-002 -3.409453e-001 1.194124e-001 2.399485e-001 -1.191021e-001 6.333699e-002 8.980429e-002 2.231412e-002 -3.547173e-001 -1.241601e-001 3.619768e-001 -8.690368e-002 -1.222678e-001 2.027200e-002 
<VARIANCE> 36
3.161572e+000 1.907917e+001 1.674502e+001 2.873469e+001 3.098627e+001 1.353605e+001 1.269107e+001 2.459213e+001 1.259824e+001 1.030290e+001 1.135393e+001 6.186532e+000 2.112735e-001 4.409790e-001 1.110476e+000 8.148726e-001 6.373515e-001 1.020604e+000 9.721666e-001 1.013486e+000 1.059305e+000 1.184307e+000 6.797710e-001 1.108521e+000 5.000000e-002 1.059410e-001 2.268444e-001 1.637681e-001 1.769775e-001 2.704833e-001 2.015004e-001 2.235592e-001 2.312023e-001 1.340672e-001 2.232225e-001 1.674007e-001 
<GCONST> 7.293167e+001
<STATE> 16
<MEAN> 36
-1.693508e+001 -1.787423e+001 1.101054e+001 6.439841e+000 4.641700e+000 -7.208354e+000 3.920617e+000 1.452320e+001 -1.040724e+001 -2.589442e+000 3.569023e+000 1.191005e+000 -1.582209e-001 -8.145429e-001 2.567062e-001 -8.769942e-002 3.560602e-001 1.992105e-001 -7.414007e-001 7.035765e-002 7.816868e-002 -2.529347e-001 -3.014431e-001 1.526129e-001 9.478086e-002 3.275289e-002 -2.181226e-001 -8.721217e-002 3.907091e-002 3.251920e-001 -2.804119e-002 -5.774128e-002 -9.269238e-002 -5.217001e-002 2.153011e-002 5.523480e-002 
<VARIANCE> 36
2.235086e+000 1.889271e+001 6.026119e+000 1.506341e+001 1.601990e+001 7.819600e+000 1.260086e+001 1.546794e+001 1.852926e+001 1.396418e+001 1.449373e+001 9.246145e+000 1.034530e-001 4.134913e-001 6.226752e-001 8.598124e-001 8.856906e-001 1.058574e+000 5.269733e-001 9.956367e-001 1.429338e+000 1.156919e+000 1.600892e+000 5.171833e-001 5.000000e-002 7.987033e-002 9.687155e-002 1.633832e-001 1.797880e-001 1.218962e-001 9.590178e-002 1.840339e-001 2.816357e-001 2.630444e-001 3.247427e-001 1.058564e-001 
<GCONST> 6.730025e+001
<STATE> 17
<MEAN> 36
-1.666316e+001 -2.479666e+001 9.790330e+000 3.884422e+000 8.624081e+000 3.855181e-001 -2.380483e-001 1.269185e+001 -1.134268e+001 -4.235636e+000 2.516170e+000 2.215745e+000 7.416619e-002 -1.414831e-001 -3.705638e-001 -9.393295e-002 6.638279e-002 3.525254e-001 2.959149e-002 2.172993e-004 1.038125e-001 -6.227521e-002 -7.407776e-002 3.072932e-002 -1.488321e-002 6.756398e-002 -2.420806e-002 3.908296e-002 -1.235801e-001 -1.498671e-001 1.078235e-001 4.377858e-002 8.762694e-002 5.873008e-002 8.386810e-002 -4.519372e-002 
<VARIANCE> 36
1.031321e+000 5.498385e+000 8.266776e+000 1.262632e+001 1.169822e+001 7.202448e+000 1.834958e+001 8.307981e+000 1.133987e+001 7.913168e+000 1.178252e+001 7.031399e+000 8.230280e-002 4.920251e-001 7.262766e-001 8.590917e-001 9.670868e-001 6.827790e-001 9.897555e-001 1.107419e+000 1.420821e+000 6.448053e-001 7.797867e-001 7.691298e-001 5.000000e-002 8.955754e-002 1.303173e-001 1.564828e-001 1.302787e-001 1.153659e-001 1.557939e-001 1.851063e-001 3.466455e-001 9.132663e-002 1.522574e-001 1.554175e-001 
<GCONST> 6.207945e+001
<STATE> 18
<MEAN> 36
-1.696993e+001 -2.191530e+001 8.307960e+000 6.133920e+000 6.331799e+000 -3.590765e+000 1.188841e+000 1.384144e+001 -7.654440e+000 -2.524778e+000 3.027000e+000 1.795356e+000 -5.587430e-002 -2.185781e-001 -1.145413e-001 6.077466e-002 2.558559e-001 -5.113189e-003 -4.656123e-001 2.671893e-001 3.146567e-001 2.144926e-001 2.102491e-001 -2.573639e-001 3.738457e-002 4.124630e-002 6.097636e-003 9.429601e-002 -1.687459e-002 -1.197062e-001 -8.886422e-002 -8.776161e-002 4.750647e-003 -5.098188e-002 -5.078766e-002 1.092689e-002 
<VARIANCE> 36
3.248652e+000 4.209756e+000 2.686255e+001 2.852544e+001 2.385589e+001 1.085399e+001 1.589797e+001 1.033987e+001 1.232031e+001 1.225650e+001 1.051676e+001 1.210223e+001 1.086873e-001 1.667318e-001 2.734174e-001 7.550769e-001 8.829245e-001 1.193466e+000 5.495936e-001 6.254704e-001 9.666273e-001 7.756206e-001 5.157749e-001 6.068549e-001 5.000000e-002 5.000000e-002 6.695027e-002 1.681054e-001 2.524949e-001 2.745731e-001 1.172447e-001 1.885905e-001 1.303788e-001 1.653872e-001 1.388392e-001 1.547297e-001 
<GCONST> 6.325345e+001
<STATE> 19
<MEAN> 36
-1.595411e+001 -2.303417e+001 6.776801e+000 7.327631e+000 6.371109e+000 -3.586312e+000 -1.685981e+000 1.447287e+001 -5.732138e+000 -3.267612e+000 3.402547e+000 7.872490e-001 2.876882e-001 2.873717e-001 -5.010468e-001 5.388412e-001 -1.838004e-001 -8.456589e-002 -8.034933e-002 -2.771483e-001 1.683474e-001 -1.570520e-001 -4.808805e-002 2.928280e-002 1.676180e-002 5.693977e-002 -3.297904e-002 7.466156e-003 5.466305e-003 5.911100e-002 1.040022e-001 -4.398462e-002 -1.139202e-001 -5.382943e-002 -8.442724e-002 5.093337e-002 
<VARIANCE> 36
2.467665e+000 5.490413e+000 1.883916e+001 9.715195e+000 3.044617e+001 6.724945e+000 1.361874e+001 9.852431e+000 8.180682e+000 7.451178e+000 1.580660e+001 7.853565e+000 7.235790e-002 3.522795e-001 2.926421e-001 6.895960e-001 7.375707e-001 6.524880e-001 7.195700e-001 1.037024e+000 1.170107e+000 9.388979e-001 1.343950e+000 8.808319e-001 5.000000e-002 5.840786e-002 5.564368e-002 1.454308e-001 1.658017e-001 1.253260e-001 1.540959e-001 2.041223e-001 3.007912e-001 1.980238e-001 2.666415e-001 1.670498e-001 
<GCONST> 6.318281e+001
<STATE> 20
<MEAN> 36
-1.247867e+001 -1.712356e+001 -8.207596e-001 7.321621e+000 7.189045e+000 1.915464e+000 3.331587e+000 1.003981e+001 -7.740949e+000 -6.768834e+000 -1.377494e-001 6.125407e-001 1.961669e-001 7.238137e-001 -3.824000e-001 -2.097440e-001 -2.517619e-001 1.391229e-001 4.013161e-001 -2.546181e-001 -9.891089e-002 -2.952076e-001 -2.889735e-001 2.046593e-001 -1.244184e-001 -5.394293e-002 1.526862e-001 -4.845344e-002 -1.853388e-003 -2.228613e-001 -1.872198e-001 2.042214e-001 4.166988e-001 3.524314e-001 3.069396e-001 8.043905e-002 
<VARIANCE> 36
4.103073e+000 2.860515e+001 1.483093e+001 4.082325e+001 1.851013e+001 3.818591e+001 1.713452e+001 7.710261e+000 1.018163e+001 1.653496e+001 3.554202e+001 1.447768e+001 5.033537e-001 1.131007e+000 1.224467e+000 7.543638e-001 3.922324e-001 2.354361e+000 1.056412e+000 1.218357e+000 1.614878e+000 1.725466e+000 2.186560e+000 1.359975e+000 8.749233e-002 8.980842e-002 1.922535e-001 2.178530e-001 7.681080e-002 3.300267e-001 1.119645e-001 1.256416e-001 3.292881e-001 4.890944e-001 3.383825e-001 2.867373e-001 
<GCONST> 8.167639e+001
<STATE> 21
<MEAN> 36
-1.370930e+001 -1.727781e+001 1.088549e+000 1.114718e+001 4.036286e+000 -3.489438e+000 1.911479e+000 1.239993e+001 -3.171179e+000 -4.513587e+000 1.870386e+000 1.975599e+000 -1.765444e-002 5.178119e-001 -1.040705e-002 3.285697e-001 -1.765613e-001 -5.651941e-001 -3.320899e-001 1.097459e-001 6.958072e-001 -2.950235e-002 -1.579321e-001 1.769407e-001 5.334907e-002 6.809730e-002 9.825253e-003 -3.682503e-002 3.546833e-002 7.626724e-002 -4.371555e-002 -2.036594e-001 -1.756535e-001 -4.394137e-002 3.628008e-002 -1.372940e-001 
<VARIANCE> 36
9.801390e-001 2.209505e+001 3.469217e+000 2.136335e+001 1.582664e+001 2.513785e+001 2.986584e+001 1.113437e+001 1.242343e+001 1.133437e+001 1.928032e+001 8.972223e+000 1.135692e-001 3.079180e-001 3.575864e-001 4.030930e-001 5.011236e-001 8.249225e-001 8.284077e-001 7.835168e-001 1.809719e+000 2.084074e+000 1.644470e+000 8.482115e-001 5.000000e-002 7.847080e-002 9.237976e-002 1.031039e-001 6.798332e-002 2.490099e-001 2.105324e-001 1.706886e-001 2.235691e-001 4.161603e-001 3.726654e-001 1.296506e-001 
<GCONST> 6.748827e+001
<STATE> 22
<MEAN> 36
-1.313601e+001 -1.323864e+001 3.343724e-001 1.231921e+001 3.362826e+000 -5.423030e+000 8.872204e-001 9.871351e+000 -2.227762e+000 -3.409411e+000 2.760671e+000 1.586768e+000 7.845134e-002 7.739184e-001 -3.002782e-001 -5.739129e-001 -7.405970e-002 4.137533e-001 1.426281e-001 -4.558877e-001 3.718279e-001 3.493185e-001 2.253284e-002 3.805446e-002 -1.314817e-002 -8.994537e-003 -1.908414e-002 -1.291389e-001 -7.390590e-002 9.829947e-002 7.153776e-002 4.860060e-002 4.934863e-002 7.325730e-002 -4.982654e-002 2.722587e-002 
<VARIANCE> 36
7.893639e-001 1.701269e+001 9.703810e+000 1.146813e+001 1.605532e+001 5.911061e+000 1.727641e+001 8.284847e+000 9.702697e+000 7.505451e+000 9.826395e+000 6.580189e+000 1.355157e-001 4.516159e-001 5.435182e-001 7.016249e-001 6.367134e-001 8.406464e-001 6.984270e-001 8.494347e-001 7.960907e-001 6.486451e-001 6.585248e-001 6.880427e-001 5.000000e-002 6.207781e-002 1.011606e-001 1.282482e-001 1.281067e-001 2.056269e-001 1.340275e-001 1.447468e-001 1.754538e-001 1.718996e-001 1.452888e-001 1.299679e-001 
<GCONST> 5.991986e+001
<STATE> 23
<MEAN> 36
-1.217006e+001 -7.646050e+000 -1.705260e+000 4.775236e+000 2.200533e+000 4.962934e-001 1.966286e+000 7.129207e+000 2.626837e-002 -2.508766e-001 3.016667e+000 2.276528e+000 1.236521e-001 6.403340e-001 -1.402579e-001 -4.777678e-001 -3.641676e-001 1.992410e-001 2.222276e-001 -2.173588e-001 2.833330e-001 4.870419e-001 1.599317e-001 8.694099e-002 -1.818336e-002 3.073901e-002 9.048499e-002 1.230255e-001 5.042342e-002 -1.021228e-001 -9.012865e-002 -2.860906e-002 -2.936705e-003 -1.140898e-001 -5.734556e-002 -6.102535e-002 
<VARIANCE> 36
1.692258e+000 2.201619e+001 8.429681e+000 1.304833e+001 1.088094e+001 1.664869e+001 1.292669e+001 9.805552e+000 9.550742e+000 9.447487e+000 1.227986e+001 7.234053e+000 1.191358e-001 3.622240e-001 7.304496e-001 1.163346e+000 5.735093e-001 1.336561e+000 1.144177e+000 1.195613e+000 1.006356e+000 1.076357e+000 6.966900e-001 7.662979e-001 5.000000e-002 7.974265e-002 1.592938e-001 2.770130e-001 8.467688e-002 2.910471e-001 2.965343e-001 2.023504e-001 1.942494e-001 2.041198e-001 1.673105e-001 1.530360e-001 
<GCONST> 6.765199e+001
<TRANSP> 25
0.000000e+000 1.000000e+000 0.000000e+000 0.000000e+000 0.000000e+000 0.000000e+000 0.000000e+000 0.000000e+000 0.000000e+000 0.000000e+000 0.000000e+000 0.000000e+000 0.000000e+000 0.000000e+000 0.000000e+000 0.000000e+000 0.000000e+000 0.000000e+000 0.000000e+000 0.000000e+000 0.000000e+000 0.000000e+000 0.000000e+000 0.000000e+000 0.000000e+000 
0.000000e+000 8.109445e-001 1.890556e-001 0.000000e+000 0.000000e+000 0.000000e+000 0.000000e+000 0.000000e+000 0.000000e+000 0.000000e+000 0.000000e+000 0.000000e+000 0.000000e+000 0.000000e+000 0.000000e+000 0.000000e+000 0.000000e+000 0.000000e+000 0.000000e+000 0.000000e+000 0.000000e+000 0.000000e+000 0.000000e+000 0.000000e+000 0.000000e+000 
0.000000e+000 0.000000e+000 6.495823e-001 3.504177e-001 0.000000e+000 0.000000e+000 0.000000e+000 0.000000e+000 0.000000e+000 0.000000e+000 0.000000e+000 0.000000e+000 0.000000e+000 0.000000e+000 0.000000e+000 0.000000e+000 0.000000e+000 0.000000e+000 0.000000e+000 0.000000e+000 0.000000e+000 0.000000e+000 0.000000e+000 0.000000e+000 0.000000e+000 
0.000000e+000 0.000000e+000 0.000000e+000 8.598289e-001 1.401713e-001 0.000000e+000 0.000000e+000 0.000000e+000 0.000000e+000 0.000000e+000 0.000000e+000 0.000000e+000 0.000000e+000 0.000000e+000 0.000000e+000 0.000000e+000 0.000000e+000 0.000000e+000 0.000000e+000 0.000000e+000 0.000000e+000 0.000000e+000 0.000000e+000 0.000000e+000 0.000000e+000 
0.000000e+000 0.000000e+000 0.000000e+000 0.000000e+000 8.443769e-001 1.556230e-001 0.000000e+000 0.000000e+000 0.000000e+000 0.000000e+000 0.000000e+000 0.000000e+000 0.000000e+000 0.000000e+000 0.000000e+000 0.000000e+000 0.000000e+000 0.000000e+000 0.000000e+000 0.000000e+000 0.000000e+000 0.000000e+000 0.000000e+000 0.000000e+000 0.000000e+000 
0.000000e+000 0.000000e+000 0.000000e+000 0.000000e+000 0.000000e+000 7.850023e-001 2.149977e-001 0.000000e+000 0.000000e+000 0.000000e+000 0.000000e+000 0.000000e+000 0.000000e+000 0.000000e+000 0.000000e+000 0.000000e+000 0.000000e+000 0.000000e+000 0.000000e+000 0.000000e+000 0.000000e+000 0.000000e+000 0.000000e+000 0.000000e+000 0.000000e+000 
0.000000e+000 0.000000e+000 0.000000e+000 0.000000e+000 0.000000e+000 0.000000e+000 9.068117e-001 9.318828e-002 0.000000e+000 0.000000e+000 0.000000e+000 0.000000e+000 0.000000e+000 0.000000e+000 0.000000e+000 0.000000e+000 0.000000e+000 0.000000e+000 0.000000e+000 0.000000e+000 0.000000e+000 0.000000e+000 0.000000e+000 0.000000e+000 0.000000e+000 
0.000000e+000 0.000000e+000 0.000000e+000 0.000000e+000 0.000000e+000 0.000000e+000 0.000000e+000 8.554396e-001 1.445604e-001 0.000000e+000 0.000000e+000 0.000000e+000 0.000000e+000 0.000000e+000 0.000000e+000 0.000000e+000 0.000000e+000 0.000000e+000 0.000000e+000 0.000000e+000 0.000000e+000 0.000000e+000 0.000000e+000 0.000000e+000 0.000000e+000 
0.000000e+000 0.000000e+000 0.000000e+000 0.000000e+000 0.000000e+000 0.000000e+000 0.000000e+000 0.000000e+000 7.082309e-001 2.917691e-001 0.000000e+000 0.000000e+000 0.000000e+000 0.000000e+000 0.000000e+000 0.000000e+000 0.000000e+000 0.000000e+000 0.000000e+000 0.000000e+000 0.000000e+000 0.000000e+000 0.000000e+000 0.000000e+000 0.000000e+000 
0.000000e+000 0.000000e+000 0.000000e+000 0.000000e+000 0.000000e+000 0.000000e+000 0.000000e+000 0.000000e+000 0.000000e+000 7.592855e-001 2.407145e-001 0.000000e+000 0.000000e+000 0.000000e+000 0.000000e+000 0.000000e+000 0.000000e+000 0.000000e+000 0.000000e+000 0.000000e+000 0.000000e+000 0.000000e+000 0.000000e+000 0.000000e+000 0.000000e+000 
0.000000e+000 0.000000e+000 0.000000e+000 0.000000e+000 0.000000e+000 0.000000e+000 0.000000e+000 0.000000e+000 0.000000e+000 0.000000e+000 7.187590e-001 2.812411e-001 0.000000e+000 0.000000e+000 0.000000e+000 0.000000e+000 0.000000e+000 0.000000e+000 0.000000e+000 0.000000e+000 0.000000e+000 0.000000e+000 0.000000e+000 0.000000e+000 0.000000e+000 
0.000000e+000 0.000000e+000 0.000000e+000 0.000000e+000 0.000000e+000 0.000000e+000 0.000000e+000 0.000000e+000 0.000000e+000 0.000000e+000 0.000000e+000 8.312912e-001 1.687088e-001 0.000000e+000 0.000000e+000 0.000000e+000 0.000000e+000 0.000000e+000 0.000000e+000 0.000000e+000 0.000000e+000 0.000000e+000 0.000000e+000 0.000000e+000 0.000000e+000 
0.000000e+000 0.000000e+000 0.000000e+000 0.000000e+000 0.000000e+000 0.000000e+000 0.000000e+000 0.000000e+000 0.000000e+000 0.000000e+000 0.000000e+000 0.000000e+000 8.793165e-001 1.206834e-001 0.000000e+000 0.000000e+000 0.000000e+000 0.000000e+000 0.000000e+000 0.000000e+000 0.000000e+000 0.000000e+000 0.000000e+000 0.000000e+000 0.000000e+000 
0.000000e+000 0.000000e+000 0.000000e+000 0.000000e+000 0.000000e+000 0.000000e+000 0.000000e+000 0.000000e+000 0.000000e+000 0.000000e+000 0.000000e+000 0.000000e+000 0.000000e+000 8.587908e-001 1.412092e-001 0.000000e+000 0.000000e+000 0.000000e+000 0.000000e+000 0.000000e+000 0.000000e+000 0.000000e+000 0.000000e+000 0.000000e+000 0.000000e+000 
0.000000e+000 0.000000e+000 0.000000e+000 0.000000e+000 0.000000e+000 0.000000e+000 0.000000e+000 0.000000e+000 0.000000e+000 0.000000e+000 0.000000e+000 0.000000e+000 0.000000e+000 0.000000e+000 7.879140e-001 2.120861e-001 0.000000e+000 0.000000e+000 0.000000e+000 0.000000e+000 0.000000e+000 0.000000e+000 0.000000e+000 0.000000e+000 0.000000e+000 
0.000000e+000 0.000000e+000 0.000000e+000 0.000000e+000 0.000000e+000 0.000000e+000 0.000000e+000 0.000000e+000 0.000000e+000 0.000000e+000 0.000000e+000 0.000000e+000 0.000000e+000 0.000000e+000 0.000000e+000 7.722536e-001 2.277464e-001 0.000000e+000 0.000000e+000 0.000000e+000 0.000000e+000 0.000000e+000 0.000000e+000 0.000000e+000 0.000000e+000 
0.000000e+000 0.000000e+000 0.000000e+000 0.000000e+000 0.000000e+000 0.000000e+000 0.000000e+000 0.000000e+000 0.000000e+000 0.000000e+000 0.000000e+000 0.000000e+000 0.000000e+000 0.000000e+000 0.000000e+000 0.000000e+000 8.005105e-001 1.994894e-001 0.000000e+000 0.000000e+000 0.000000e+000 0.000000e+000 0.000000e+000 0.000000e+000 0.000000e+000 
0.000000e+000 0.000000e+000 0.000000e+000 0.000000e+000 0.000000e+000 0.000000e+000 0.000000e+000 0.000000e+000 0.000000e+000 0.000000e+000 0.000000e+000 0.000000e+000 0.000000e+000 0.000000e+000 0.000000e+000 0.000000e+000 0.000000e+000 8.387907e-001 1.612093e-001 0.000000e+000 0.000000e+000 0.000000e+000 0.000000e+000 0.000000e+000 0.000000e+000 
0.000000e+000 0.000000e+000 0.000000e+000 0.000000e+000 0.000000e+000 0.000000e+000 0.000000e+000 0.000000e+000 0.000000e+000 0.000000e+000 0.000000e+000 0.000000e+000 0.000000e+000 0.000000e+000 0.000000e+000 0.000000e+000 0.000000e+000 0.000000e+000 8.149904e-001 1.850095e-001 0.000000e+000 0.000000e+000 0.000000e+000 0.000000e+000 0.000000e+000 
0.000000e+000 0.000000e+000 0.000000e+000 0.000000e+000 0.000000e+000 0.000000e+000 0.000000e+000 0.000000e+000 0.000000e+000 0.000000e+000 0.000000e+000 0.000000e+000 0.000000e+000 0.000000e+000 0.000000e+000 0.000000e+000 0.000000e+000 0.000000e+000 0.000000e+000 8.809784e-001 1.190215e-001 0.000000e+000 0.000000e+000 0.000000e+000 0.000000e+000 
0.000000e+000 0.000000e+000 0.000000e+000 0.000000e+000 0.000000e+000 0.000000e+000 0.000000e+000 0.000000e+000 0.000000e+000 0.000000e+000 0.000000e+000 0.000000e+000 0.000000e+000 0.000000e+000 0.000000e+000 0.000000e+000 0.000000e+000 0.000000e+000 0.000000e+000 0.000000e+000 6.511193e-001 3.488807e-001 0.000000e+000 0.000000e+000 0.000000e+000 
0.000000e+000 0.000000e+000 0.000000e+000 0.000000e+000 0.000000e+000 0.000000e+000 0.000000e+000 0.000000e+000 0.000000e+000 0.000000e+000 0.000000e+000 0.000000e+000 0.000000e+000 0.000000e+000 0.000000e+000 0.000000e+000 0.000000e+000 0.000000e+000 0.000000e+000 0.000000e+000 0.000000e+000 7.932967e-001 2.067033e-001 0.000000e+000 0.000000e+000 
0.000000e+000 0.000000e+000 0.000000e+000 0.000000e+000 0.000000e+000 0.000000e+000 0.000000e+000 0.000000e+000 0.000000e+000 0.000000e+000 0.000000e+000 0.000000e+000 0.000000e+000 0.000000e+000 0.000000e+000 0.000000e+000 0.000000e+000 0.000000e+000 0.000000e+000 0.000000e+000 0.000000e+000 0.000000e+000 8.714954e-001 1.285045e-001 0.000000e+000 
0.000000e+000 0.000000e+000 0.000000e+000 0.000000e+000 0.000000e+000 0.000000e+000 0.000000e+000 0.000000e+000 0.000000e+000 0.000000e+000 0.000000e+000 0.000000e+000 0.000000e+000 0.000000e+000 0.000000e+000 0.000000e+000 0.000000e+000 0.000000e+000 0.000000e+000 0.000000e+000 0.000000e+000 0.000000e+000 0.000000e+000 8.431931e-001 1.568068e-001 
0.000000e+000 0.000000e+000 0.000000e+000 0.000000e+000 0.000000e+000 0.000000e+000 0.000000e+000 0.000000e+000 0.000000e+000 0.000000e+000 0.000000e+000 0.000000e+000 0.000000e+000 0.000000e+000 0.000000e+000 0.000000e+000 0.000000e+000 0.000000e+000 0.000000e+000 0.000000e+000 0.000000e+000 0.000000e+000 0.000000e+000 0.000000e+000 0.000000e+000 
