<HMMNAME> 6
<HMMSTATES> 25
<STATE> 1
<MEAN> 36
-1.345967e+001 -2.394244e+001 -1.219285e+000 1.137455e+000 1.194754e+001 9.560852e+000 -8.257433e+000 2.915204e+000 3.219364e+000 5.852432e+000 5.334796e-001 -7.587963e+000 -2.077940e-001 -1.035953e+000 7.625820e-001 -5.929328e-001 -2.113321e-002 2.275187e-001 1.925857e-002 3.877826e-001 -3.709521e-001 7.429618e-002 -1.843548e-001 -2.061686e-002 5.439594e-003 1.062103e-001 2.840318e-002 -2.901511e-002 -2.161030e-002 -7.665139e-002 4.639000e-002 6.180567e-002 -1.065940e-003 9.687339e-003 -5.253510e-003 -7.924824e-003 
<VARIANCE> 36
2.958415e+000 2.973208e+001 2.773591e+001 1.265800e+001 9.493417e+000 6.227261e+000 2.428525e+001 2.385231e+001 1.210587e+001 1.482658e+001 1.921983e+001 1.604184e+001 1.052131e-001 4.273478e-001 4.510521e-001 7.211185e-001 1.122544e+000 6.468087e-001 1.237601e+000 1.365951e+000 1.144413e+000 1.658411e+000 1.136400e+000 1.361125e+000 5.000000e-002 5.000000e-002 7.181130e-002 1.712386e-001 1.987823e-001 9.511095e-002 2.846531e-001 3.752913e-001 2.078727e-001 3.416698e-001 2.093592e-001 1.960689e-001 
<GCONST> 7.248840e+001
<STATE> 2
<MEAN> 36
-1.601934e+001 -3.098820e+001 5.465380e+000 -3.454386e+000 1.430424e+001 9.143554e+000 -8.489436e+000 5.569392e+000 -1.336109e+000 6.669297e+000 -5.623135e-001 -5.494890e+000 -4.834106e-003 -4.983678e-002 -4.033329e-002 -1.382614e-001 9.439530e-002 -9.393623e-002 4.693208e-002 1.869611e-001 -9.175770e-002 -4.619682e-002 -1.627649e-001 -3.994227e-002 3.490270e-002 5.412483e-002 -7.146790e-002 2.320900e-002 -4.982336e-002 9.056684e-003 2.630388e-002 2.372797e-002 2.125297e-002 -5.076499e-002 -2.045011e-002 -1.825384e-002 
<VARIANCE> 36
1.080280e+000 3.249677e+000 7.028207e+000 1.055601e+001 8.090315e+000 1.280687e+001 1.878020e+001 1.280864e+001 1.321163e+001 1.053445e+001 1.456302e+001 9.389020e+000 1.038786e-001 2.071352e-001 5.042725e-001 6.687277e-001 6.932590e-001 8.132109e-001 1.209677e+000 1.141138e+000 1.082302e+000 8.166879e-001 1.132553e+000 1.005886e+000 5.000000e-002 5.000000e-002 9.285966e-002 1.339249e-001 1.456309e-001 1.712154e-001 2.644633e-001 2.225244e-001 2.236552e-001 1.635463e-001 2.479167e-001 2.282899e-001 
<GCONST> 6.345057e+001
<STATE> 3
<MEAN> 36
-1.363611e+001 -2.830932e+001 1.572904e+000 -2.630716e+000 1.237849e+001 7.988763e+000 -7.536739e+000 8.281271e+000 -8.198377e-001 3.248596e+000 -3.754886e+000 -6.913714e+000 9.308937e-001 1.412065e+000 -1.034151e+000 3.597349e-001 -1.019455e+000 -4.682168e-001 -2.018133e-002 -3.408077e-001 3.292319e-001 -8.770256e-001 -4.777165e-001 -3.339146e-001 1.441318e-001 4.022700e-001 -7.456216e-002 -1.265066e-001 -1.442908e-001 -9.209082e-002 -1.349046e-002 -3.903084e-001 -5.017165e-002 -1.902029e-002 1.092197e-001 4.933930e-002 
<VARIANCE> 36
2.573459e+000 5.310454e+000 6.878424e+000 6.911223e+000 7.561430e+000 8.254518e+000 1.511071e+001 1.432254e+001 2.235359e+001 1.183797e+001 1.077924e+001 1.843597e+001 1.522430e-001 6.937670e-001 4.270208e-001 7.927606e-001 8.855068e-001 5.970835e-001 9.700277e-001 1.786059e+000 1.025527e+000 9.304556e-001 8.211054e-001 1.210758e+000 5.000000e-002 5.817813e-002 1.296682e-001 2.132147e-001 1.429473e-001 1.135597e-001 2.322886e-001 2.457969e-001 2.712402e-001 1.825527e-001 1.981371e-001 2.663341e-001 
<GCONST> 6.719060e+001
<STATE> 4
<MEAN> 36
-7.957449e+000 -1.624801e+001 -2.540878e+000 -4.484781e+000 7.583592e+000 5.749529e+000 -5.799943e+000 4.313327e+000 -2.602005e+000 -7.598172e-001 -3.923146e+000 -7.332396e+000 1.456089e+000 2.587934e+000 -1.674723e-001 -9.453747e-001 -1.527732e-001 -1.189660e-001 3.548486e-001 -4.304470e-001 -1.540066e+000 -9.187452e-001 1.649913e-002 1.610516e-001 2.472491e-001 -9.714762e-002 3.634360e-002 -1.480708e-001 2.514583e-001 -3.292823e-002 -1.839321e-001 1.281252e-001 -3.938279e-001 -1.368094e-001 -8.965431e-002 1.476136e-002 
<VARIANCE> 36
4.513949e+000 1.888402e+001 6.588041e+000 9.438823e+000 7.831713e+000 1.052704e+001 1.266265e+001 1.007584e+001 1.648460e+001 1.757441e+001 1.905801e+001 1.254929e+001 7.018888e-001 4.108560e-001 1.288979e+000 7.695396e-001 1.552433e+000 9.072433e-001 1.102020e+000 1.703875e+000 2.528982e+000 1.631838e+000 1.640379e+000 1.331428e+000 1.118592e-001 9.854908e-002 3.596665e-001 2.003258e-001 2.818938e-001 2.271301e-001 2.777018e-001 3.216755e-001 3.254445e-001 3.129803e-001 3.207803e-001 2.690817e-001 
<GCONST> 8.002985e+001
<STATE> 5
<MEAN> 36
2.137985e+000 -5.804335e+000 -4.126611e+000 -1.106683e+001 6.937164e+000 3.196357e+000 -8.984511e+000 1.753745e+000 -1.309293e+001 -7.195408e+000 -5.456599e+000 -8.238170e+000 1.839177e+000 4.961692e-001 -1.858137e+000 -1.576279e+000 -3.223143e-001 -1.002706e+000 -1.139650e+000 -1.790771e-001 -6.711428e-001 -9.488217e-001 -2.381971e-001 -6.385588e-002 -3.573007e-001 -5.061790e-001 -1.799369e-001 1.516616e-002 -4.806506e-002 -8.923722e-002 -4.437478e-002 1.813185e-001 6.040217e-001 2.205302e-001 7.606822e-002 2.942866e-002 
<VARIANCE> 36
7.728654e+000 4.831233e+000 3.209543e+001 1.425314e+001 8.560969e+000 1.120861e+001 1.082284e+001 1.079538e+001 1.633607e+001 8.945473e+000 9.047052e+000 1.416523e+001 1.111276e+000 1.127316e+000 1.707259e+000 8.820590e-001 7.712107e-001 1.136244e+000 1.361901e+000 1.188574e+000 2.277366e+000 1.261691e+000 1.087170e+000 1.234303e+000 1.400471e-001 1.069435e-001 4.202433e-001 1.716751e-001 1.623063e-001 2.130421e-001 2.546113e-001 1.913485e-001 3.215018e-001 2.139566e-001 1.225367e-001 2.821419e-001 
<GCONST> 7.814767e+001
<STATE> 6
<MEAN> 36
6.196763e+000 -7.159948e+000 -1.203904e+001 -1.379892e+001 6.784671e+000 -2.280955e+000 -1.042534e+001 4.097612e+000 -1.221266e+001 -9.869328e+000 -5.705733e+000 -6.010733e+000 5.063601e-001 -1.929554e-001 -1.020418e+000 1.192960e-001 -2.791130e-001 -1.049086e+000 -1.365454e-001 9.693679e-002 2.066455e-001 -6.597375e-001 -3.450836e-001 2.260403e-001 -1.558542e-001 -3.914952e-002 1.628064e-001 3.246361e-001 -4.943748e-002 9.370948e-002 1.876679e-001 -8.719111e-002 -3.540956e-002 4.502249e-002 -3.080018e-002 -1.167569e-002 
<VARIANCE> 36
2.331989e+000 2.148572e+000 9.522315e+000 7.656796e+000 5.517050e+000 1.988485e+001 1.274826e+001 8.875195e+000 1.542293e+001 1.559661e+001 1.183640e+001 1.145739e+001 1.003020e-001 1.727884e-001 3.054156e-001 8.349313e-001 2.795678e-001 6.067695e-001 7.118097e-001 5.217313e-001 4.206036e-001 5.400886e-001 6.540133e-001 4.573390e-001 5.000000e-002 5.000000e-002 9.690073e-002 1.310952e-001 6.513633e-002 1.337202e-001 1.198981e-001 9.209114e-002 1.062675e-001 9.697248e-002 1.286869e-001 1.171340e-001 
<GCONST> 5.263139e+001
<STATE> 7
<MEAN> 36
7.316040e+000 -6.732033e+000 -1.745703e+001 -1.228490e+001 6.585532e+000 -2.012028e+000 -1.291485e+001 1.617803e+000 -9.751271e+000 -1.228116e+001 -8.681928e+000 -7.821960e+000 -1.614504e-002 4.768416e-002 -1.621692e-001 2.560874e-001 9.806997e-002 2.774306e-002 7.897974e-002 -2.758965e-003 -5.211709e-002 -2.019069e-001 -8.066042e-002 5.025512e-002 -2.821543e-002 1.885031e-002 5.541628e-002 -2.174632e-002 4.405010e-002 6.954132e-002 1.584666e-002 2.980009e-002 -9.464815e-003 2.496832e-002 4.528104e-002 -1.061240e-002 
<VARIANCE> 36
1.110681e+000 5.110401e+000 8.515987e+000 8.341516e+000 5.594716e+000 7.897943e+000 1.575161e+001 1.962952e+001 7.275549e+000 1.171794e+001 5.998365e+000 6.168921e+000 5.000000e-002 9.902418e-002 1.664081e-001 2.404274e-001 2.839357e-001 3.218578e-001 3.754401e-001 5.074606e-001 3.735172e-001 4.384284e-001 3.174872e-001 3.114808e-001 5.000000e-002 5.000000e-002 5.000000e-002 5.000000e-002 5.000000e-002 6.481022e-002 6.064932e-002 8.484987e-002 7.643297e-002 8.579402e-002 6.494823e-002 5.184505e-002 
<GCONST> 3.933627e+001
<STATE> 8
<MEAN> 36
7.294271e+000 -9.855083e+000 -1.624342e+001 -7.989016e+000 6.669313e+000 -6.466935e+000 -8.458523e+000 6.878818e+000 -1.486659e+001 -1.620402e+001 -6.844798e+000 -3.939049e+000 -1.375538e-001 -2.705716e-002 6.198437e-002 2.201136e-001 4.021883e-001 2.124925e-001 6.491587e-002 2.762934e-001 -1.960281e-001 -1.813374e-001 1.340918e-001 -4.638972e-002 -2.624478e-002 2.139133e-002 2.837076e-002 -8.128008e-003 4.532909e-002 5.943318e-002 1.636626e-002 5.332000e-004 2.498732e-002 2.838669e-002 1.877033e-002 3.827968e-003 
<VARIANCE> 36
2.259960e+000 5.816934e+000 8.057069e+000 1.933528e+001 1.233923e+001 7.169580e+000 2.343607e+001 2.071651e+001 1.156321e+001 8.970651e+000 6.174621e+000 6.879267e+000 5.000000e-002 1.160223e-001 2.223338e-001 3.499474e-001 4.007611e-001 4.030045e-001 2.956254e-001 5.756626e-001 4.897204e-001 3.583451e-001 4.023074e-001 4.331878e-001 5.000000e-002 5.000000e-002 5.000000e-002 5.611398e-002 6.493181e-002 9.162142e-002 5.362292e-002 1.140204e-001 8.986339e-002 6.378308e-002 8.880843e-002 8.808604e-002 
<GCONST> 4.596042e+001
<STATE> 9
<MEAN> 36
4.269736e+000 -6.224519e+000 -1.508392e+001 -8.383183e+000 1.237568e+001 4.085943e+000 -8.812756e+000 4.262408e+000 -1.113394e+001 -1.397112e+001 -6.396244e+000 -6.846539e+000 -3.518759e-001 8.265561e-002 3.173662e-001 3.939239e-001 2.974401e-001 6.145596e-001 5.391296e-001 -5.068085e-002 -8.107798e-002 4.626318e-002 3.632446e-001 1.799126e-001 -3.166408e-002 1.505486e-003 3.263879e-002 2.134432e-002 -1.765078e-002 -2.882085e-002 4.087974e-002 -2.532674e-002 -1.687928e-002 -3.385952e-002 1.616325e-002 5.409779e-002 
<VARIANCE> 36
2.443267e+000 1.285890e+001 4.541028e+000 1.173884e+001 7.347890e+000 2.167983e+001 1.203592e+001 2.748996e+001 1.159360e+001 1.619357e+001 6.522597e+000 1.243510e+001 5.102018e-002 1.598972e-001 2.254253e-001 3.360934e-001 4.803195e-001 7.074635e-001 5.983251e-001 5.535198e-001 6.153337e-001 7.346848e-001 6.856821e-001 5.542154e-001 5.000000e-002 5.000000e-002 5.219600e-002 5.520108e-002 8.438183e-002 1.187238e-001 1.091495e-001 1.016431e-001 1.075424e-001 1.519383e-001 1.379842e-001 9.311637e-002 
<GCONST> 5.334125e+001
<STATE> 10
<MEAN> 36
4.776440e-001 -6.207822e+000 -1.049231e+001 -3.457530e+000 1.380878e+001 5.547310e+000 -2.801288e+000 6.323186e+000 -1.351707e+001 -1.519732e+001 -2.477403e+000 -3.018805e+000 -9.337566e-001 4.472690e-001 1.061301e+000 9.182067e-002 2.647270e-002 9.594124e-001 5.081506e-001 -1.895105e-002 5.188450e-001 5.422660e-001 4.785421e-001 2.130167e-001 -3.972749e-002 -5.502652e-002 -3.460770e-002 -3.808195e-002 -9.166718e-002 -2.094315e-002 -1.108904e-001 1.524900e-002 1.557723e-001 1.706964e-001 1.051964e-002 -1.741390e-002 
<VARIANCE> 36
6.165488e+000 1.252731e+001 1.287189e+001 8.700689e+000 7.020348e+000 2.878539e+001 9.051155e+000 3.175441e+001 2.546176e+001 2.467868e+001 1.540190e+001 9.844681e+000 1.434667e-001 4.636012e-001 8.320538e-001 5.267776e-001 5.032053e-001 5.667429e-001 7.814795e-001 9.564198e-001 1.541475e+000 1.392494e+000 1.153293e+000 1.107253e+000 5.000000e-002 1.433500e-001 2.349429e-001 9.530452e-002 1.003345e-001 1.565714e-001 1.207767e-001 2.032913e-001 3.428466e-001 2.812684e-001 2.378822e-001 2.670616e-001 
<GCONST> 7.189755e+001
<STATE> 11
<MEAN> 36
-4.974926e+000 -7.087510e+000 -8.101418e+000 -1.621463e+000 1.258343e+001 7.788173e+000 -2.240987e+000 5.509423e+000 -9.610764e+000 -1.161050e+001 -9.496977e-001 -2.109948e+000 -5.535419e-001 -1.044363e+000 -2.632629e-001 9.614078e-001 -4.778707e-001 -8.314292e-001 5.320200e-002 4.134470e-002 2.603018e-001 1.038627e-001 -1.300349e-001 2.954123e-001 5.557814e-002 -2.262218e-001 -6.920019e-002 1.618112e-001 -8.559847e-002 -2.293366e-001 3.460310e-002 1.168423e-002 -2.143094e-002 -1.915082e-002 -1.259915e-001 2.418738e-002 
<VARIANCE> 36
3.642307e+000 1.324595e+001 7.990210e+000 1.358526e+001 9.165500e+000 2.215269e+001 1.397296e+001 2.678112e+001 1.834780e+001 1.770643e+001 1.790417e+001 1.094141e+001 1.131971e-001 4.625620e-001 4.657937e-001 1.014920e+000 7.308319e-001 1.172104e+000 1.269972e+000 1.072062e+000 1.204285e+000 1.293443e+000 1.512941e+000 1.205303e+000 5.000000e-002 5.000000e-002 1.092712e-001 2.030135e-001 1.166604e-001 2.083730e-001 2.623331e-001 2.004376e-001 3.120304e-001 3.073933e-001 2.769791e-001 2.275837e-001 
<GCONST> 7.295479e+001
<STATE> 12
<MEAN> 36
-8.656407e+000 -1.814878e+001 -6.894004e+000 6.510407e+000 8.818739e+000 6.334781e-001 -1.328550e+000 6.772787e+000 -7.717415e+000 -8.549383e+000 -1.561159e+000 -1.877297e-003 -5.442289e-001 -1.447905e+000 8.674213e-001 3.538577e-001 -1.232576e-001 -1.190767e-001 1.256229e-001 3.135456e-001 -8.741364e-002 4.951261e-001 1.029115e-001 8.539477e-002 -2.103041e-002 1.149143e-001 1.439993e-001 -2.433743e-001 1.170589e-001 2.502513e-001 -1.594894e-002 1.310748e-003 -1.529684e-001 -2.672891e-002 8.808407e-002 -2.939502e-003 
<VARIANCE> 36
3.115060e+000 1.385868e+001 1.260792e+001 8.945596e+000 6.789843e+000 8.665516e+000 8.269842e+000 1.253420e+001 1.419114e+001 1.089603e+001 1.181059e+001 9.188068e+000 1.052889e-001 3.524270e-001 6.819187e-001 1.251794e+000 7.335392e-001 1.566062e+000 9.309312e-001 1.018039e+000 1.599499e+000 1.189029e+000 1.183122e+000 1.065746e+000 5.000000e-002 5.000000e-002 1.577573e-001 2.075449e-001 1.605195e-001 2.545946e-001 1.861146e-001 1.733663e-001 2.691431e-001 2.083078e-001 2.333711e-001 2.064995e-001 
<GCONST> 6.864984e+001
<STATE> 13
<MEAN> 36
-1.282564e+001 -2.602783e+001 1.009743e+000 4.718226e+000 9.821271e+000 2.724497e+000 -1.155094e+000 9.403088e+000 -9.480310e+000 -6.327539e+000 -7.591602e-001 9.924023e-001 -4.122508e-001 -5.026020e-001 7.626529e-001 -1.951670e-001 1.387266e-001 3.911704e-002 -9.240877e-002 2.961403e-001 6.892254e-002 2.600317e-001 1.247667e-001 3.027385e-001 2.137557e-002 9.763500e-002 -3.750016e-002 4.132433e-002 -7.278231e-003 -1.123214e-001 -3.215674e-002 1.993909e-002 8.629996e-002 1.594173e-002 -2.756702e-003 -5.393270e-003 
<VARIANCE> 36
1.422490e+000 4.237923e+000 7.482570e+000 8.530421e+000 6.752394e+000 9.511657e+000 1.040027e+001 9.931121e+000 1.423390e+001 1.466177e+001 1.269722e+001 7.406985e+000 6.977720e-002 2.260093e-001 3.175153e-001 6.258326e-001 3.697302e-001 8.051448e-001 1.138777e+000 9.322533e-001 1.335759e+000 1.644441e+000 1.277017e+000 8.388273e-001 5.000000e-002 5.000000e-002 5.964175e-002 1.195715e-001 7.313586e-002 1.537422e-001 2.513615e-001 2.096350e-001 2.738126e-001 3.564584e-001 2.476004e-001 2.007050e-001 
<GCONST> 6.104454e+001
<STATE> 14
<MEAN> 36
-1.608793e+001 -2.747887e+001 7.400575e+000 3.249022e+000 9.329008e+000 1.489403e+000 -9.553653e-001 1.131977e+001 -9.998176e+000 -3.003601e+000 5.903723e-001 2.568937e+000 -1.972818e-001 1.464224e-001 4.317004e-001 -4.640565e-002 -1.927397e-001 -1.022384e-001 1.151723e-001 4.336895e-002 -1.788478e-001 2.753287e-001 2.527236e-001 -2.599310e-002 1.503619e-002 4.894253e-002 -6.026630e-003 3.507056e-002 -6.317263e-002 -1.251565e-002 -6.513474e-003 -1.170395e-002 1.582344e-002 -1.995440e-002 1.876820e-002 -6.620741e-002 
<VARIANCE> 36
1.390673e+000 3.272458e+000 7.815417e+000 6.980237e+000 8.627729e+000 9.491354e+000 1.165297e+001 1.116518e+001 1.226759e+001 1.453397e+001 1.138467e+001 7.433761e+000 7.480541e-002 2.053004e-001 3.950697e-001 5.274434e-001 4.902691e-001 8.724249e-001 1.159783e+000 1.163822e+000 1.228253e+000 1.240954e+000 9.240675e-001 8.773977e-001 5.000000e-002 5.000000e-002 8.186932e-002 1.104293e-001 1.098558e-001 1.866589e-001 2.538302e-001 2.603252e-001 2.994802e-001 2.596156e-001 1.744811e-001 2.136948e-001 
<GCONST> 6.134651e+001
<STATE> 15
<MEAN> 36
-1.741389e+001 -2.423137e+001 1.147366e+001 4.750254e+000 4.320453e+000 -4.085374e-001 -1.710009e-003 1.210238e+001 -9.717609e+000 -1.205316e+000 4.178766e+000 -1.290138e-001 -6.141918e-002 9.942340e-001 2.785665e-001 3.323667e-001 -9.581203e-001 -1.895704e-001 2.555097e-001 -9.191021e-002 7.556100e-001 4.501979e-002 2.553550e-001 -7.116714e-001 9.990541e-002 2.916237e-001 -2.744369e-001 -1.109013e-002 6.314006e-002 1.101773e-001 9.761747e-002 -2.237961e-001 1.016881e-001 -1.229374e-002 -6.534091e-002 1.656442e-001 
<VARIANCE> 36
1.031150e+000 3.173284e+000 7.914633e+000 1.048633e+001 9.981475e+000 8.470818e+000 9.207242e+000 5.404123e+000 1.126041e+001 9.098011e+000 9.072643e+000 7.244826e+000 9.356248e-002 4.751969e-001 7.466902e-001 4.796206e-001 5.455738e-001 9.344907e-001 9.586816e-001 9.913548e-001 1.104804e+000 1.058412e+000 1.143084e+000 7.870169e-001 5.000000e-002 6.536380e-002 1.506131e-001 1.120434e-001 1.251138e-001 2.164929e-001 1.252718e-001 1.375103e-001 1.884815e-001 2.400756e-001 2.786237e-001 2.697495e-001 
<GCONST> 6.095412e+001
<STATE> 16
<MEAN> 36
-1.722265e+001 -1.695480e+001 1.008642e+001 4.858429e+000 3.389356e+000 -2.655298e+000 3.305353e+000 9.199821e+000 -7.336772e+000 1.133211e+000 3.976426e+000 3.373559e-001 4.164610e-001 1.359449e+000 -9.053370e-001 8.589726e-002 -2.867109e-001 -9.673768e-002 -1.549999e-001 -5.852225e-001 4.206927e-001 1.339223e-001 -6.289110e-002 4.570640e-001 3.035305e-002 -9.915305e-002 -3.551385e-002 -6.784920e-002 6.706666e-002 4.162310e-002 -8.295076e-002 5.334848e-002 -7.887976e-002 -8.198336e-002 -1.011237e-001 -1.782738e-002 
<VARIANCE> 36
3.130925e+000 9.040986e+000 8.307926e+000 1.310324e+001 1.618137e+001 1.875038e+001 2.147934e+001 1.152810e+001 1.480841e+001 1.659889e+001 1.012485e+001 1.531834e+001 1.829542e-001 1.373237e+000 8.721276e-001 9.872771e-001 5.887516e-001 1.520776e+000 7.943280e-001 1.501390e+000 1.545208e+000 1.209481e+000 8.591101e-001 1.169607e+000 5.000000e-002 9.081188e-002 1.362796e-001 1.957363e-001 1.288362e-001 2.669464e-001 1.869087e-001 3.253502e-001 3.689132e-001 2.979031e-001 2.411691e-001 2.536427e-001 
<GCONST> 7.494617e+001
<STATE> 17
<MEAN> 36
-1.436113e+001 -8.722821e+000 3.916978e+000 5.033335e+000 1.674380e+000 1.205172e+000 1.181051e+000 6.511605e+000 -2.196344e+000 -8.111017e-001 2.901083e+000 4.512693e-001 1.185694e-001 6.216156e-001 -3.011437e-001 -7.203638e-002 -5.822522e-002 9.071719e-002 1.561463e-001 -1.695754e-001 3.299392e-001 7.130990e-002 -8.397923e-002 -3.794085e-002 -2.658630e-002 -1.077873e-001 7.473301e-002 8.384086e-003 -4.198424e-002 -7.190775e-002 3.484273e-002 4.789868e-002 -6.189052e-002 7.940216e-003 4.599133e-002 -1.400452e-002 
<VARIANCE> 36
1.115259e+000 7.783751e+000 4.664233e+000 6.026731e+000 6.846931e+000 7.430814e+000 9.216717e+000 1.056075e+001 1.200437e+001 9.705978e+000 8.991397e+000 7.746567e+000 1.039406e-001 2.919519e-001 3.027291e-001 5.045540e-001 8.814660e-001 7.908679e-001 8.932315e-001 9.072968e-001 1.159573e+000 1.161536e+000 1.139876e+000 8.565248e-001 5.000000e-002 6.241543e-002 6.613522e-002 9.515184e-002 2.004698e-001 1.839887e-001 2.053457e-001 1.901167e-001 1.863465e-001 2.193966e-001 2.340416e-001 1.677292e-001 
<GCONST> 5.968287e+001
<STATE> 18
<MEAN> 36
-1.366648e+001 -6.633762e+000 2.955194e+000 5.148277e+000 -1.495454e+000 -7.346978e-001 3.834185e+000 5.839198e+000 -2.471265e+000 -3.006713e-001 3.796662e+000 5.221895e-001 -5.685413e-002 -8.099655e-001 2.906775e-001 4.104600e-001 -5.785299e-001 -5.905391e-001 5.140143e-001 3.383130e-001 -8.036383e-001 -2.155246e-001 2.195187e-001 -1.580157e-001 -7.806749e-002 -3.729064e-001 1.772563e-001 1.457410e-001 3.853840e-002 -2.966883e-002 -2.961814e-002 1.511192e-001 -1.015605e-001 3.311548e-002 4.265224e-002 2.111639e-002 
<VARIANCE> 36
9.181370e-001 8.501033e+000 4.040195e+000 7.588732e+000 6.712169e+000 7.237642e+000 1.209696e+001 1.138125e+001 1.498293e+001 1.286246e+001 1.080378e+001 8.098537e+000 1.375795e-001 1.290462e+000 5.006757e-001 7.347313e-001 6.965850e-001 8.352837e-001 1.414638e+000 1.350524e+000 8.611509e-001 1.551653e+000 1.365090e+000 9.291241e-001 5.000000e-002 1.016271e-001 9.929514e-002 1.482611e-001 1.382064e-001 1.637412e-001 2.714112e-001 2.434273e-001 2.503739e-001 3.630667e-001 2.918811e-001 2.066429e-001 
<GCONST> 6.687472e+001
<STATE> 19
<MEAN> 36
-1.523255e+001 -1.618063e+001 7.744918e+000 9.567698e+000 -3.723970e+000 -4.434570e+000 5.312250e+000 9.727328e+000 -6.714283e+000 -2.846159e-001 5.332731e+000 1.033245e+000 -3.816807e-001 -1.467791e+000 1.005402e+000 7.661630e-001 2.209897e-001 -5.086511e-001 -3.476843e-001 8.114112e-001 5.825346e-002 -1.324753e-001 7.584316e-002 1.825426e-001 2.893940e-002 3.100956e-001 -1.248239e-001 -1.850408e-001 2.802580e-001 2.100645e-001 -9.143732e-002 -6.718788e-002 1.918410e-001 -1.122964e-001 -2.040095e-001 -1.406376e-001 
<VARIANCE> 36
1.948133e+000 9.834240e+000 1.209824e+001 1.961947e+001 2.282069e+001 1.604098e+001 1.592753e+001 7.811917e+000 1.448272e+001 1.095979e+001 1.062181e+001 7.757442e+000 2.037418e-001 9.794716e-001 8.431236e-001 1.033021e+000 1.284576e+000 1.352096e+000 9.488327e-001 6.931011e-001 1.483107e+000 1.084668e+000 1.119636e+000 8.659917e-001 5.000000e-002 1.059645e-001 1.403875e-001 2.134187e-001 1.802441e-001 2.225688e-001 2.917612e-001 1.435315e-001 2.830637e-001 1.956315e-001 1.813376e-001 1.998594e-001 
<GCONST> 7.227054e+001
<STATE> 20
<MEAN> 36
-1.544285e+001 -1.912338e+001 8.054781e+000 1.134454e+001 -1.182290e-001 -4.738770e+000 1.892650e+000 1.263486e+001 -5.304286e+000 -2.763512e+000 5.343656e+000 -2.409709e-001 1.015177e-001 4.955029e-002 -3.716427e-001 9.217126e-002 3.902919e-001 -5.784834e-002 -2.306120e-001 1.936240e-001 2.064658e-001 -1.604418e-001 -2.333801e-001 -4.045074e-002 3.150229e-002 1.069821e-001 -9.989325e-002 -8.118934e-003 -3.927799e-002 -6.584015e-003 2.461739e-002 -6.409827e-002 1.584627e-002 1.043788e-002 -1.029348e-002 4.806222e-002 
<VARIANCE> 36
1.195748e+000 3.541404e+000 9.002375e+000 7.795362e+000 1.295270e+001 1.296849e+001 1.219607e+001 1.423293e+001 1.161398e+001 1.125417e+001 1.362958e+001 1.111929e+001 9.340140e-002 4.005924e-001 3.993891e-001 6.483382e-001 6.498255e-001 6.168848e-001 9.552032e-001 1.246756e+000 9.207684e-001 1.122842e+000 1.048809e+000 8.146331e-001 5.000000e-002 5.000000e-002 6.232302e-002 1.254714e-001 1.232045e-001 1.365143e-001 1.766754e-001 2.495183e-001 1.850796e-001 2.184338e-001 2.214550e-001 1.388226e-001 
<GCONST> 6.179217e+001
<STATE> 21
<MEAN> 36
-1.701989e+001 -2.353050e+001 8.247050e+000 4.213681e+000 1.031261e+001 -3.742850e+000 6.533580e-001 1.185660e+001 -8.066552e+000 1.252104e+000 2.510429e-001 1.935171e+000 1.052091e-001 8.387936e-002 -3.819169e-001 -1.305314e-001 2.748450e-001 2.325711e-001 5.085762e-002 -2.640039e-001 1.425736e-001 7.876616e-002 -1.094634e-001 9.168624e-002 1.246236e-002 1.170552e-001 -2.389466e-002 -3.075233e-002 -1.495933e-001 2.210029e-002 7.430000e-002 -1.199722e-001 8.639472e-002 7.874789e-002 1.032235e-001 7.442928e-002 
<VARIANCE> 36
5.031131e+000 2.530918e+001 3.205826e+001 3.678043e+001 4.199877e+001 1.577153e+001 3.528184e+001 8.041219e+000 1.300288e+001 1.593428e+001 6.869214e+000 1.557785e+001 1.644703e-001 1.053533e+000 9.190057e-001 4.471330e-001 9.766664e-001 1.351800e+000 9.632906e-001 7.438366e-001 1.282864e+000 1.117592e+000 7.544785e-001 1.254250e+000 5.000000e-002 8.955494e-002 1.150149e-001 1.198410e-001 1.269211e-001 2.520721e-001 1.940358e-001 1.502945e-001 2.296465e-001 2.430604e-001 1.638415e-001 2.859715e-001 
<GCONST> 7.522418e+001
<STATE> 22
<MEAN> 36
-1.337260e+001 -1.185061e+001 9.133128e-001 1.093662e+001 1.055107e+000 -4.807063e+000 2.545904e+000 1.037886e+001 -1.002738e+000 -3.217344e+000 1.959013e+000 2.344780e+000 1.036193e-001 9.630767e-001 -2.416757e-001 -4.492789e-001 -1.034866e-001 2.955861e-001 5.026616e-002 -5.391431e-001 2.674962e-001 1.301149e-001 -7.092604e-002 2.573668e-001 -1.645075e-002 7.171101e-003 8.659038e-002 -5.362115e-002 1.803389e-002 5.697240e-002 -1.513751e-002 -5.014756e-002 -6.389687e-002 4.451631e-002 1.080260e-002 -8.544311e-002 
<VARIANCE> 36
1.062407e+000 1.616521e+001 5.506765e+000 1.036748e+001 9.204318e+000 7.038682e+000 1.124201e+001 1.125002e+001 8.622174e+000 1.136522e+001 1.226726e+001 9.414060e+000 9.312192e-002 2.006144e-001 4.224074e-001 7.354514e-001 5.851683e-001 6.477682e-001 9.892962e-001 9.800908e-001 7.747058e-001 1.306753e+000 1.476873e+000 8.984655e-001 5.000000e-002 5.000000e-002 6.518942e-002 1.419748e-001 1.239037e-001 1.293764e-001 2.024110e-001 2.068451e-001 1.497636e-001 2.712389e-001 2.918271e-001 2.046750e-001 
<GCONST> 6.153976e+001
<STATE> 23
<MEAN> 36
-1.292999e+001 -3.914679e+000 1.361483e-002 4.899105e+000 1.602045e+000 4.687059e-001 2.109555e+000 4.550115e+000 -2.111802e-001 -3.378559e-001 1.494758e+000 1.233682e+000 -3.683207e-003 2.808362e-001 -6.054523e-002 -2.710328e-001 4.891081e-003 2.306574e-001 -8.841281e-003 -2.807229e-001 7.668482e-002 1.505770e-001 3.856201e-003 -1.037120e-001 6.442368e-003 -4.964140e-002 -1.969184e-002 2.235299e-002 -1.498625e-002 -5.712954e-002 1.039521e-002 7.206532e-002 1.461780e-002 -2.474619e-002 5.179872e-003 4.378083e-002 
<VARIANCE> 36
1.049741e+000 8.128078e+000 6.883775e+000 8.064408e+000 1.233352e+001 6.902437e+000 1.033017e+001 9.778589e+000 1.051545e+001 9.417667e+000 7.251384e+000 8.596726e+000 6.316927e-002 2.200656e-001 5.311783e-001 7.292199e-001 6.258861e-001 8.079864e-001 9.275867e-001 1.444779e+000 1.219851e+000 1.123980e+000 9.929599e-001 1.162749e+000 5.000000e-002 5.000000e-002 1.209989e-001 1.561647e-001 1.203375e-001 1.883987e-001 1.999821e-001 3.114581e-001 2.622976e-001 2.458116e-001 2.196355e-001 2.003515e-001 
<GCONST> 6.256976e+001
<TRANSP> 25
0.000000e+000 1.000000e+000 0.000000e+000 0.000000e+000 0.000000e+000 0.000000e+000 0.000000e+000 0.000000e+000 0.000000e+000 0.000000e+000 0.000000e+000 0.000000e+000 0.000000e+000 0.000000e+000 0.000000e+000 0.000000e+000 0.000000e+000 0.000000e+000 0.000000e+000 0.000000e+000 0.000000e+000 0.000000e+000 0.000000e+000 0.000000e+000 0.000000e+000 
0.000000e+000 8.051627e-001 1.948373e-001 0.000000e+000 0.000000e+000 0.000000e+000 0.000000e+000 0.000000e+000 0.000000e+000 0.000000e+000 0.000000e+000 0.000000e+000 0.000000e+000 0.000000e+000 0.000000e+000 0.000000e+000 0.000000e+000 0.000000e+000 0.000000e+000 0.000000e+000 0.000000e+000 0.000000e+000 0.000000e+000 0.000000e+000 0.000000e+000 
0.000000e+000 0.000000e+000 9.438684e-001 5.613164e-002 0.000000e+000 0.000000e+000 0.000000e+000 0.000000e+000 0.000000e+000 0.000000e+000 0.000000e+000 0.000000e+000 0.000000e+000 0.000000e+000 0.000000e+000 0.000000e+000 0.000000e+000 0.000000e+000 0.000000e+000 0.000000e+000 0.000000e+000 0.000000e+000 0.000000e+000 0.000000e+000 0.000000e+000 
0.000000e+000 0.000000e+000 0.000000e+000 7.898603e-001 2.101397e-001 0.000000e+000 0.000000e+000 0.000000e+000 0.000000e+000 0.000000e+000 0.000000e+000 0.000000e+000 0.000000e+000 0.000000e+000 0.000000e+000 0.000000e+000 0.000000e+000 0.000000e+000 0.000000e+000 0.000000e+000 0.000000e+000 0.000000e+000 0.000000e+000 0.000000e+000 0.000000e+000 
0.000000e+000 0.000000e+000 0.000000e+000 0.000000e+000 8.239049e-001 1.760950e-001 0.000000e+000 0.000000e+000 0.000000e+000 0.000000e+000 0.000000e+000 0.000000e+000 0.000000e+000 0.000000e+000 0.000000e+000 0.000000e+000 0.000000e+000 0.000000e+000 0.000000e+000 0.000000e+000 0.000000e+000 0.000000e+000 0.000000e+000 0.000000e+000 0.000000e+000 
0.000000e+000 0.000000e+000 0.000000e+000 0.000000e+000 0.000000e+000 7.566640e-001 2.433360e-001 0.000000e+000 0.000000e+000 0.000000e+000 0.000000e+000 0.000000e+000 0.000000e+000 0.000000e+000 0.000000e+000 0.000000e+000 0.000000e+000 0.000000e+000 0.000000e+000 0.000000e+000 0.000000e+000 0.000000e+000 0.000000e+000 0.000000e+000 0.000000e+000 
0.000000e+000 0.000000e+000 0.000000e+000 0.000000e+000 0.000000e+000 0.000000e+000 8.157698e-001 1.842303e-001 0.000000e+000 0.000000e+000 0.000000e+000 0.000000e+000 0.000000e+000 0.000000e+000 0.000000e+000 0.000000e+000 0.000000e+000 0.000000e+000 0.000000e+000 0.000000e+000 0.000000e+000 0.000000e+000 0.000000e+000 0.000000e+000 0.000000e+000 
0.000000e+000 0.000000e+000 0.000000e+000 0.000000e+000 0.000000e+000 0.000000e+000 0.000000e+000 9.142570e-001 8.574297e-002 0.000000e+000 0.000000e+000 0.000000e+000 0.000000e+000 0.000000e+000 0.000000e+000 0.000000e+000 0.000000e+000 0.000000e+000 0.000000e+000 0.000000e+000 0.000000e+000 0.000000e+000 0.000000e+000 0.000000e+000 0.000000e+000 
0.000000e+000 0.000000e+000 0.000000e+000 0.000000e+000 0.000000e+000 0.000000e+000 0.000000e+000 0.000000e+000 8.940719e-001 1.059281e-001 0.000000e+000 0.000000e+000 0.000000e+000 0.000000e+000 0.000000e+000 0.000000e+000 0.000000e+000 0.000000e+000 0.000000e+000 0.000000e+000 0.000000e+000 0.000000e+000 0.000000e+000 0.000000e+000 0.000000e+000 
0.000000e+000 0.000000e+000 0.000000e+000 0.000000e+000 0.000000e+000 0.000000e+000 0.000000e+000 0.000000e+000 0.000000e+000 8.838176e-001 1.161825e-001 0.000000e+000 0.000000e+000 0.000000e+000 0.000000e+000 0.000000e+000 0.000000e+000 0.000000e+000 0.000000e+000 0.000000e+000 0.000000e+000 0.000000e+000 0.000000e+000 0.000000e+000 0.000000e+000 
0.000000e+000 0.000000e+000 0.000000e+000 0.000000e+000 0.000000e+000 0.000000e+000 0.000000e+000 0.000000e+000 0.000000e+000 0.000000e+000 8.308057e-001 1.691943e-001 0.000000e+000 0.000000e+000 0.000000e+000 0.000000e+000 0.000000e+000 0.000000e+000 0.000000e+000 0.000000e+000 0.000000e+000 0.000000e+000 0.000000e+000 0.000000e+000 0.000000e+000 
0.000000e+000 0.000000e+000 0.000000e+000 0.000000e+000 0.000000e+000 0.000000e+000 0.000000e+000 0.000000e+000 0.000000e+000 0.000000e+000 0.000000e+000 8.651048e-001 1.348953e-001 0.000000e+000 0.000000e+000 0.000000e+000 0.000000e+000 0.000000e+000 0.000000e+000 0.000000e+000 0.000000e+000 0.000000e+000 0.000000e+000 0.000000e+000 0.000000e+000 
0.000000e+000 0.000000e+000 0.000000e+000 0.000000e+000 0.000000e+000 0.000000e+000 0.000000e+000 0.000000e+000 0.000000e+000 0.000000e+000 0.000000e+000 0.000000e+000 8.713385e-001 1.286615e-001 0.000000e+000 0.000000e+000 0.000000e+000 0.000000e+000 0.000000e+000 0.000000e+000 0.000000e+000 0.000000e+000 0.000000e+000 0.000000e+000 0.000000e+000 
0.000000e+000 0.000000e+000 0.000000e+000 0.000000e+000 0.000000e+000 0.000000e+000 0.000000e+000 0.000000e+000 0.000000e+000 0.000000e+000 0.000000e+000 0.000000e+000 0.000000e+000 8.870267e-001 1.129733e-001 0.000000e+000 0.000000e+000 0.000000e+000 0.000000e+000 0.000000e+000 0.000000e+000 0.000000e+000 0.000000e+000 0.000000e+000 0.000000e+000 
0.000000e+000 0.000000e+000 0.000000e+000 0.000000e+000 0.000000e+000 0.000000e+000 0.000000e+000 0.000000e+000 0.000000e+000 0.000000e+000 0.000000e+000 0.000000e+000 0.000000e+000 0.000000e+000 9.279347e-001 7.206530e-002 0.000000e+000 0.000000e+000 0.000000e+000 0.000000e+000 0.000000e+000 0.000000e+000 0.000000e+000 0.000000e+000 0.000000e+000 
0.000000e+000 0.000000e+000 0.000000e+000 0.000000e+000 0.000000e+000 0.000000e+000 0.000000e+000 0.000000e+000 0.000000e+000 0.000000e+000 0.000000e+000 0.000000e+000 0.000000e+000 0.000000e+000 0.000000e+000 7.835675e-001 2.164325e-001 0.000000e+000 0.000000e+000 0.000000e+000 0.000000e+000 0.000000e+000 0.000000e+000 0.000000e+000 0.000000e+000 
0.000000e+000 0.000000e+000 0.000000e+000 0.000000e+000 0.000000e+000 0.000000e+000 0.000000e+000 0.000000e+000 0.000000e+000 0.000000e+000 0.000000e+000 0.000000e+000 0.000000e+000 0.000000e+000 0.000000e+000 0.000000e+000 8.130191e-001 1.869809e-001 0.000000e+000 0.000000e+000 0.000000e+000 0.000000e+000 0.000000e+000 0.000000e+000 0.000000e+000 
0.000000e+000 0.000000e+000 0.000000e+000 0.000000e+000 0.000000e+000 0.000000e+000 0.000000e+000 0.000000e+000 0.000000e+000 0.000000e+000 0.000000e+000 0.000000e+000 0.000000e+000 0.000000e+000 0.000000e+000 0.000000e+000 0.000000e+000 9.106647e-001 8.933537e-002 0.000000e+000 0.000000e+000 0.000000e+000 0.000000e+000 0.000000e+000 0.000000e+000 
0.000000e+000 0.000000e+000 0.000000e+000 0.000000e+000 0.000000e+000 0.000000e+000 0.000000e+000 0.000000e+000 0.000000e+000 0.000000e+000 0.000000e+000 0.000000e+000 0.000000e+000 0.000000e+000 0.000000e+000 0.000000e+000 0.000000e+000 0.000000e+000 8.334723e-001 1.665276e-001 0.000000e+000 0.000000e+000 0.000000e+000 0.000000e+000 0.000000e+000 
0.000000e+000 0.000000e+000 0.000000e+000 0.000000e+000 0.000000e+000 0.000000e+000 0.000000e+000 0.000000e+000 0.000000e+000 0.000000e+000 0.000000e+000 0.000000e+000 0.000000e+000 0.000000e+000 0.000000e+000 0.000000e+000 0.000000e+000 0.000000e+000 0.000000e+000 7.705278e-001 2.294722e-001 0.000000e+000 0.000000e+000 0.000000e+000 0.000000e+000 
0.000000e+000 0.000000e+000 0.000000e+000 0.000000e+000 0.000000e+000 0.000000e+000 0.000000e+000 0.000000e+000 0.000000e+000 0.000000e+000 0.000000e+000 0.000000e+000 0.000000e+000 0.000000e+000 0.000000e+000 0.000000e+000 0.000000e+000 0.000000e+000 0.000000e+000 0.000000e+000 8.977563e-001 1.022437e-001 0.000000e+000 0.000000e+000 0.000000e+000 
0.000000e+000 0.000000e+000 0.000000e+000 0.000000e+000 0.000000e+000 0.000000e+000 0.000000e+000 0.000000e+000 0.000000e+000 0.000000e+000 0.000000e+000 0.000000e+000 0.000000e+000 0.000000e+000 0.000000e+000 0.000000e+000 0.000000e+000 0.000000e+000 0.000000e+000 0.000000e+000 0.000000e+000 7.724757e-001 2.275243e-001 0.000000e+000 0.000000e+000 
0.000000e+000 0.000000e+000 0.000000e+000 0.000000e+000 0.000000e+000 0.000000e+000 0.000000e+000 0.000000e+000 0.000000e+000 0.000000e+000 0.000000e+000 0.000000e+000 0.000000e+000 0.000000e+000 0.000000e+000 0.000000e+000 0.000000e+000 0.000000e+000 0.000000e+000 0.000000e+000 0.000000e+000 0.000000e+000 8.944029e-001 1.055971e-001 0.000000e+000 
0.000000e+000 0.000000e+000 0.000000e+000 0.000000e+000 0.000000e+000 0.000000e+000 0.000000e+000 0.000000e+000 0.000000e+000 0.000000e+000 0.000000e+000 0.000000e+000 0.000000e+000 0.000000e+000 0.000000e+000 0.000000e+000 0.000000e+000 0.000000e+000 0.000000e+000 0.000000e+000 0.000000e+000 0.000000e+000 0.000000e+000 9.155079e-001 8.449216e-002 
0.000000e+000 0.000000e+000 0.000000e+000 0.000000e+000 0.000000e+000 0.000000e+000 0.000000e+000 0.000000e+000 0.000000e+000 0.000000e+000 0.000000e+000 0.000000e+000 0.000000e+000 0.000000e+000 0.000000e+000 0.000000e+000 0.000000e+000 0.000000e+000 0.000000e+000 0.000000e+000 0.000000e+000 0.000000e+000 0.000000e+000 0.000000e+000 0.000000e+000 
