<HMMNAME> 7
<HMMSTATES> 25
<STATE> 1
<MEAN> 36
-1.491957e+001 -2.274451e+001 3.377129e+000 7.482981e+000 6.945055e+000 -1.250527e+000 7.605648e-001 1.383112e+001 -6.043755e+000 -5.017871e+000 8.340675e-001 1.288886e+000 -3.605564e-001 -9.738361e-001 7.787313e-001 -8.179316e-001 3.084871e-001 3.692473e-001 5.283409e-002 2.930661e-001 -5.783811e-001 1.495534e-003 5.047769e-002 -2.517068e-003 2.108695e-002 1.751418e-001 3.284018e-002 -5.611999e-002 1.026490e-002 -7.653803e-002 -3.704068e-002 -1.566772e-001 -2.905753e-002 1.458990e-002 1.849255e-002 1.081265e-001 
<VARIANCE> 36
5.013398e+000 2.060727e+001 2.662044e+001 2.604700e+001 6.883400e+000 1.175243e+001 1.263438e+001 1.562565e+001 1.883600e+001 8.663590e+000 1.770163e+001 1.164315e+001 1.770539e-001 5.692207e-001 4.935977e-001 9.659308e-001 7.393126e-001 9.625673e-001 8.159813e-001 1.288968e+000 1.894112e+000 1.107932e+000 1.416379e+000 8.877325e-001 5.000000e-002 8.684297e-002 9.887053e-002 2.155065e-001 1.413774e-001 1.796670e-001 2.062344e-001 2.766927e-001 3.453532e-001 2.141769e-001 2.437959e-001 1.767377e-001 
<GCONST> 7.351645e+001
<STATE> 2
<MEAN> 36
-1.807333e+001 -2.702626e+001 1.034573e+001 -6.441551e-001 9.978787e+000 1.794229e+000 -8.220982e-001 1.230495e+001 -9.524608e+000 -3.819671e+000 6.638949e-001 4.063979e+000 -1.056455e-001 -1.791818e-001 1.534896e-001 -2.464862e-001 2.231214e-001 -1.759844e-001 -4.824551e-002 -1.259353e-001 -5.862923e-003 2.185800e-001 -1.362693e-001 1.813614e-001 3.082702e-002 -1.150578e-002 -8.716940e-002 8.699739e-002 -1.147826e-002 -4.267372e-002 1.483313e-002 2.930436e-002 6.478977e-002 2.258125e-002 -1.365396e-002 1.495201e-002 
<VARIANCE> 36
1.360590e+000 2.969352e+000 5.858276e+000 6.073358e+000 8.260023e+000 1.232034e+001 1.344779e+001 1.333721e+001 7.722771e+000 1.444214e+001 1.382050e+001 8.808262e+000 1.431684e-001 2.436235e-001 6.714446e-001 6.679737e-001 8.073050e-001 1.397148e+000 1.282449e+000 1.557849e+000 8.000257e-001 1.481057e+000 1.587973e+000 1.134642e+000 5.000000e-002 5.000000e-002 1.005684e-001 1.413526e-001 1.639402e-001 3.212339e-001 2.680168e-001 3.052869e-001 1.929414e-001 3.609509e-001 3.807706e-001 2.270385e-001 
<GCONST> 6.706851e+001
<STATE> 3
<MEAN> 36
-1.902725e+001 -2.925236e+001 1.182411e+001 -2.038054e+000 1.341152e+001 -4.085526e+000 2.219831e+000 9.540263e+000 -8.901525e+000 -2.516598e+000 -2.180260e+000 6.783006e+000 1.343610e-001 -1.607678e-002 -3.756058e-001 6.314979e-003 2.650446e-001 1.647359e-001 1.446346e-001 -9.903144e-002 -2.939938e-002 -1.960874e-001 -2.026953e-001 2.144874e-002 4.752143e-002 5.206975e-002 -6.873926e-002 -1.463808e-002 -2.875219e-002 1.269766e-001 1.276620e-002 -3.308451e-003 -6.827443e-002 -5.878776e-002 4.001852e-003 -7.194653e-002 
<VARIANCE> 36
1.879906e+000 1.948866e+000 8.967327e+000 6.962262e+000 1.026237e+001 1.043506e+001 1.078499e+001 9.344700e+000 7.905830e+000 7.949838e+000 1.030095e+001 5.147811e+000 1.817847e-001 1.460055e-001 4.224193e-001 5.539585e-001 5.260839e-001 9.054573e-001 7.716071e-001 5.574857e-001 1.012940e+000 1.037549e+000 9.436813e-001 5.807177e-001 5.000000e-002 5.000000e-002 5.500934e-002 1.141652e-001 9.613926e-002 1.577081e-001 1.660717e-001 1.184438e-001 1.903754e-001 2.038858e-001 1.962006e-001 1.045782e-001 
<GCONST> 5.546107e+001
<STATE> 4
<MEAN> 36
-1.410545e+001 -2.486040e+001 3.427044e+000 -1.078240e-001 1.264359e+001 4.443328e+000 -1.709419e-002 1.067844e+001 -1.036992e+001 -7.659642e+000 -2.247269e+000 2.955222e+000 7.063202e-001 1.390903e+000 -4.897747e-001 -1.919844e-001 -3.330774e-001 8.000430e-001 -4.425676e-001 3.141141e-002 2.449945e-001 -7.985950e-001 1.794718e-001 -4.635591e-001 7.379904e-002 2.235228e-001 1.706793e-001 -1.478079e-001 5.603537e-002 3.595071e-002 -9.298652e-002 3.156479e-002 1.070512e-001 -2.858092e-002 3.833480e-002 2.699581e-002 
<VARIANCE> 36
3.676206e+000 1.562035e+001 5.661772e+000 9.730612e+000 9.785084e+000 1.586372e+001 1.517559e+001 1.251414e+001 1.314858e+001 1.939404e+001 1.104730e+001 8.025054e+000 1.296280e-001 8.570256e-001 5.378368e-001 1.699131e+000 5.430303e-001 8.446167e-001 1.426959e+000 1.465397e+000 1.622971e+000 1.640527e+000 1.344340e+000 7.004203e-001 5.000000e-002 8.912116e-002 8.531657e-002 2.955082e-001 1.511444e-001 1.512134e-001 2.891552e-001 2.657030e-001 2.897783e-001 3.422493e-001 2.937172e-001 1.195122e-001 
<GCONST> 7.203137e+001
<STATE> 5
<MEAN> 36
-7.539261e+000 -1.354264e+001 3.115638e+000 -4.073658e+000 1.365478e+001 9.963826e+000 -2.834470e+000 1.049113e+001 -8.731085e+000 -1.349708e+001 -2.693322e+000 1.218426e+000 2.284481e+000 1.340006e+000 -9.567590e-001 -5.585530e-001 1.326645e+000 1.860285e-001 -4.790419e-001 -5.593536e-001 -7.781789e-001 -1.276873e+000 -1.465776e+000 -3.399243e-001 2.036252e-001 -4.444217e-001 -6.049700e-001 7.711842e-002 6.907456e-002 -5.848565e-001 1.833157e-002 -1.007883e-001 -2.948485e-001 1.634376e-002 -3.568846e-001 -6.502635e-002 
<VARIANCE> 36
1.281792e+001 7.589771e+000 9.385648e+000 1.022803e+001 6.926373e+000 1.664312e+001 1.890169e+001 1.831460e+001 2.840111e+001 3.625459e+001 1.858491e+001 9.893527e+000 5.470647e-001 1.062907e+000 2.440059e+000 1.525106e+000 6.550598e-001 2.478385e+000 7.402217e-001 9.964621e-001 2.536606e+000 2.051081e+000 1.620830e+000 8.459769e-001 2.013110e-001 1.129630e-001 2.254624e-001 3.915149e-001 3.109820e-001 2.584121e-001 1.393063e-001 2.822298e-001 5.768494e-001 4.623666e-001 4.065457e-001 1.745780e-001 
<GCONST> 8.503275e+001
<STATE> 6
<MEAN> 36
-8.155572e-001 -1.252703e+001 -3.035385e+000 -4.757602e+000 1.824781e+001 6.598427e+000 -3.435581e+000 8.857716e+000 -1.202141e+001 -1.642764e+001 -8.923139e+000 -7.573819e-001 1.812757e+000 1.219355e-001 -2.435630e+000 -9.872920e-001 2.263110e-001 -1.333434e+000 -4.179763e-001 -2.509879e-001 -6.301750e-001 -1.723279e-001 -6.876072e-001 -4.485612e-001 -6.344554e-001 -1.262586e-001 3.222394e-001 -1.790945e-001 -6.622163e-001 -5.229276e-003 -3.193845e-003 2.499223e-001 3.594788e-001 5.782005e-001 8.137508e-001 1.446516e-001 
<VARIANCE> 36
6.298268e-001 7.787197e+000 8.310028e+000 1.201615e+001 8.094531e+000 1.531866e+001 2.468264e+001 2.529315e+001 1.057771e+001 1.865807e+001 1.040387e+001 5.351898e+000 3.093516e-001 4.681698e-001 8.355943e-001 5.006504e-001 1.160032e+000 6.082119e-001 6.668813e-001 1.093913e+000 1.923294e+000 8.677345e-001 4.462009e-001 5.710296e-001 5.000000e-002 5.443998e-002 8.927206e-002 2.007711e-001 6.000106e-002 1.821414e-001 9.206383e-002 2.822898e-001 2.670510e-001 7.396870e-002 1.477441e-001 1.217244e-001 
<GCONST> 6.255883e+001
<STATE> 7
<MEAN> 36
1.539694e+000 -1.150247e+001 -6.192170e+000 -1.037390e+001 1.557626e+001 3.946219e+000 -6.546512e+000 8.852775e+000 -1.195864e+001 -1.466188e+001 -8.332130e+000 -8.654405e-001 3.308459e-001 2.057534e-001 -6.437234e-001 -6.211522e-001 -2.245394e-001 -6.370118e-001 -5.359849e-001 2.171282e-001 9.484813e-003 4.448416e-002 -1.429304e-001 -1.926996e-001 -1.484233e-001 -2.936365e-002 1.753905e-001 9.824715e-002 -1.022986e-002 5.212877e-002 -7.310582e-003 5.877038e-002 6.542753e-002 -3.577160e-002 3.258809e-002 2.369653e-002 
<VARIANCE> 36
1.835176e+000 9.186234e+000 1.008374e+001 1.576614e+001 1.287624e+001 1.304289e+001 1.949301e+001 1.274484e+001 1.025014e+001 1.635482e+001 1.316782e+001 1.116236e+001 1.512148e-001 1.487030e-001 3.450597e-001 4.821444e-001 6.087973e-001 3.218472e-001 6.258512e-001 7.443555e-001 7.660747e-001 8.972997e-001 5.692358e-001 6.649940e-001 5.812399e-002 5.000000e-002 8.107492e-002 7.494157e-002 1.436771e-001 6.728102e-002 1.102886e-001 1.409555e-001 1.649340e-001 1.516857e-001 1.115596e-001 1.242080e-001 
<GCONST> 5.776513e+001
<STATE> 8
<MEAN> 36
3.093287e+000 -8.912900e+000 -1.024150e+001 -9.356313e+000 1.367246e+001 -1.529481e+000 -9.558558e+000 1.195297e+001 -1.054284e+001 -1.752110e+001 -9.245610e+000 -3.481546e+000 -3.531308e-002 2.001493e-001 -6.548866e-002 3.903447e-001 -1.347142e-001 -2.153258e-001 1.573409e-001 2.334245e-001 2.964757e-001 -7.709078e-002 5.860820e-002 -9.831315e-002 -4.536524e-002 2.568969e-002 2.316962e-002 5.167161e-002 -2.015522e-002 4.934206e-002 9.237576e-002 -3.665017e-003 4.365317e-002 6.055338e-002 4.821852e-002 3.626826e-002 
<VARIANCE> 36
1.885643e+000 8.366826e+000 1.082156e+001 1.370234e+001 5.186131e+000 1.337160e+001 1.798074e+001 1.306359e+001 1.996218e+001 1.404237e+001 9.405354e+000 1.305213e+001 6.748229e-002 9.792822e-002 2.465146e-001 3.713890e-001 2.813868e-001 4.531213e-001 5.302613e-001 5.103144e-001 5.360844e-001 4.715342e-001 4.971999e-001 3.760972e-001 5.000000e-002 5.000000e-002 5.000000e-002 6.250381e-002 5.585544e-002 9.266807e-002 7.847488e-002 9.572095e-002 9.895267e-002 8.506990e-002 9.606599e-002 7.295471e-002 
<GCONST> 4.858397e+001
<STATE> 9
<MEAN> 36
-2.479647e+000 -4.850778e+000 -9.364782e+000 -3.052602e+000 8.428076e+000 2.362164e-001 -1.316432e+000 1.259920e+001 -3.079748e+000 -1.221192e+001 -6.361381e+000 -2.122607e+000 -1.040621e+000 3.963097e-001 2.881829e-001 2.989829e-001 -9.287334e-001 6.692477e-001 1.016175e+000 -6.595101e-001 7.061261e-001 1.254401e+000 3.844291e-001 2.599263e-001 3.027387e-003 -2.233961e-002 3.948652e-002 -5.132689e-002 -1.138702e-002 2.776170e-002 -7.035485e-002 -1.573175e-001 -7.799206e-002 2.106042e-002 -1.144417e-002 -2.190373e-002 
<VARIANCE> 36
9.292129e+000 4.094049e+000 5.790117e+000 6.462718e+000 1.242535e+001 1.391227e+001 1.820626e+001 2.464037e+001 2.313238e+001 2.439022e+001 1.010908e+001 1.231745e+001 2.058633e-001 1.690328e-001 3.612257e-001 4.782393e-001 7.916649e-001 6.086039e-001 1.279935e+000 1.498018e+000 9.643188e-001 1.065204e+000 9.194530e-001 7.063161e-001 5.751356e-002 5.000000e-002 7.247000e-002 9.067160e-002 2.024598e-001 1.230052e-001 2.989607e-001 3.469969e-001 1.747922e-001 2.600765e-001 1.472504e-001 1.492619e-001 
<GCONST> 6.650102e+001
<STATE> 10
<MEAN> 36
-8.440716e+000 -2.796886e+000 -5.211028e+000 -5.148356e-002 4.452711e+000 2.859342e+000 2.191680e+000 6.285861e+000 -1.480230e+000 -5.902319e+000 -3.234826e+000 -2.729264e-001 -2.276834e-001 -5.559232e-003 3.588190e-001 2.260778e-001 -1.190105e-001 -1.728098e-001 -8.404202e-003 -2.327481e-001 -1.976166e-001 1.862175e-001 3.286691e-001 1.326283e-001 6.556983e-002 -1.215273e-001 -2.492869e-002 -6.258669e-002 6.241911e-002 -1.056448e-001 -7.853869e-002 1.652674e-001 -1.153780e-001 -6.369908e-002 7.313468e-003 -6.468541e-002 
<VARIANCE> 36
1.927083e+000 2.568188e+000 6.251100e+000 6.147171e+000 4.571154e+000 7.948061e+000 6.029239e+000 1.060300e+001 9.543840e+000 9.189281e+000 1.206379e+001 1.162887e+001 1.717391e-001 4.584287e-001 3.818924e-001 7.213824e-001 4.182164e-001 7.924968e-001 8.566102e-001 1.214015e+000 9.608478e-001 7.788908e-001 9.709219e-001 8.414627e-001 5.000000e-002 9.968194e-002 6.877822e-002 1.243991e-001 7.829454e-002 1.357962e-001 1.688788e-001 2.164311e-001 1.908653e-001 1.565548e-001 2.033777e-001 1.670229e-001 
<GCONST> 5.838317e+001
<STATE> 11
<MEAN> 36
-7.948854e+000 -7.166498e+000 -3.169928e+000 -1.552244e-001 5.097989e+000 -1.678594e+000 1.185421e+000 1.148907e+001 -6.074117e+000 -5.778085e+000 -6.689543e-001 -1.472457e+000 1.043931e+000 -2.770763e-001 -5.994672e-001 9.357924e-002 6.438191e-001 -1.036880e-001 -8.112998e-002 9.949645e-001 -1.348526e-001 -8.000222e-001 -4.375887e-001 -3.663738e-001 3.319349e-001 2.187281e-001 -3.037433e-001 1.688938e-002 1.070109e-001 1.796714e-001 -1.536712e-002 -7.720052e-002 2.296232e-001 -3.287008e-001 -2.864562e-001 -1.070921e-002 
<VARIANCE> 36
6.673345e+000 1.801717e+001 1.097836e+001 2.214151e+001 1.224440e+001 2.168733e+001 1.163352e+001 3.499901e+001 3.376917e+001 1.713504e+001 1.354449e+001 1.191973e+001 1.108427e+000 3.025196e+000 1.127294e+000 2.122588e+000 7.888307e-001 2.131251e+000 1.184307e+000 2.823303e+000 3.276625e+000 1.794982e+000 1.427323e+000 1.122966e+000 8.187319e-002 5.535519e-001 1.230755e-001 4.842270e-001 1.241586e-001 3.479551e-001 3.074238e-001 5.728715e-001 6.748242e-001 2.957168e-001 1.922425e-001 2.161941e-001 
<GCONST> 8.994992e+001
<STATE> 12
<MEAN> 36
1.134671e+000 -6.693582e+000 -1.078969e+001 -9.195634e-001 9.625184e+000 2.620586e-002 -8.874486e-001 1.399760e+001 -4.387489e+000 -1.449305e+001 -5.946504e+000 -3.282799e+000 1.205582e+000 -5.160183e-001 -1.104807e+000 -8.098031e-001 8.179790e-001 -4.935106e-001 -1.075829e+000 6.230880e-001 -5.189677e-001 -1.550683e+000 -6.488652e-001 -5.182035e-001 -4.590675e-001 -1.162885e-001 3.418947e-001 -1.269690e-001 -1.122643e-001 -2.190820e-001 -1.372958e-001 -1.828994e-001 -2.633358e-001 3.688737e-001 1.971040e-001 1.074658e-001 
<VARIANCE> 36
2.305561e+000 5.921437e+000 6.250782e+000 1.523601e+001 4.982000e+000 2.300984e+001 6.161866e+000 1.725356e+001 1.433372e+001 1.029690e+001 9.380527e+000 1.058779e+001 8.098454e-001 3.489995e-001 7.398781e-001 4.939415e-001 3.648814e-001 7.401148e-001 4.765922e-001 6.484994e-001 1.013295e+000 9.417512e-001 9.293159e-001 4.659401e-001 5.711884e-002 1.162454e-001 7.856912e-002 1.444883e-001 8.667179e-002 1.809615e-001 1.052696e-001 1.569129e-001 1.777766e-001 1.554534e-001 1.518990e-001 1.129652e-001 
<GCONST> 6.129220e+001
<STATE> 13
<MEAN> 36
3.189664e+000 -8.829376e+000 -1.149921e+001 -4.221258e+000 1.053171e+001 -8.553611e+000 -9.583388e+000 1.567431e+001 -7.337770e+000 -1.883196e+001 -8.163127e+000 -2.038545e+000 1.321059e-001 -3.402662e-002 -1.915518e-001 -2.550426e-001 -2.088335e-001 -2.657391e-001 -4.505195e-001 -4.202744e-001 -1.998657e-001 1.566290e-001 1.521374e-002 -3.507234e-002 -3.584013e-002 6.482854e-002 3.984872e-002 6.136024e-002 -6.542826e-002 4.981657e-002 7.224059e-002 -4.691604e-002 3.879452e-002 1.148388e-001 1.638042e-002 1.785300e-002 
<VARIANCE> 36
3.368057e+000 1.943994e+000 5.167674e+000 3.438000e+001 2.030589e+001 2.397791e+001 2.633113e+001 9.508381e+000 6.097857e+000 6.834373e+000 8.771540e+000 6.518920e+000 6.474284e-002 1.520047e-001 1.730508e-001 5.274664e-001 4.221418e-001 2.760698e-001 5.344810e-001 3.745250e-001 5.097323e-001 5.398540e-001 5.530497e-001 3.013327e-001 5.000000e-002 5.000000e-002 5.000000e-002 9.065596e-002 8.621393e-002 5.000000e-002 6.959156e-002 9.573882e-002 5.000000e-002 7.444138e-002 1.159437e-001 5.656078e-002 
<GCONST> 4.638804e+001
<STATE> 14
<MEAN> 36
3.102515e+000 -8.051881e+000 -1.178216e+001 -6.919257e+000 1.074561e+001 -3.726347e+000 -8.389457e+000 1.102509e+001 -1.183908e+001 -1.604326e+001 -4.904599e+000 -5.143596e+000 8.347029e-002 6.096352e-002 -9.472481e-002 -3.054955e-001 -4.940780e-002 -3.027254e-001 -5.761606e-001 -3.031993e-001 -2.279094e-002 7.009845e-002 -1.676472e-001 5.961923e-002 -6.029858e-003 3.034425e-002 -5.053542e-003 4.988161e-002 -3.598305e-002 3.414572e-002 6.561932e-002 -1.553121e-003 1.345744e-001 3.194027e-002 -1.118339e-004 8.072678e-003 
<VARIANCE> 36
1.689100e+000 2.904631e+000 9.143951e+000 5.170343e+000 5.899734e+000 1.619376e+001 2.264837e+001 9.006169e+000 2.583221e+001 1.223797e+001 1.449880e+001 7.231788e+000 5.000000e-002 9.165991e-002 2.182327e-001 2.647666e-001 2.207680e-001 3.806479e-001 6.056382e-001 4.007363e-001 9.249504e-001 4.995033e-001 5.594153e-001 3.633275e-001 5.000000e-002 5.000000e-002 5.000000e-002 5.000000e-002 5.000000e-002 6.241154e-002 1.120906e-001 7.378242e-002 1.149959e-001 8.727825e-002 8.981524e-002 6.550647e-002 
<GCONST> 4.511704e+001
<STATE> 15
<MEAN> 36
4.033291e+000 -6.138726e+000 -1.496037e+001 -7.721042e+000 8.178603e+000 -4.230550e+000 -1.155036e+001 5.825052e+000 -5.137218e+000 -1.155804e+001 -7.838490e+000 -4.362094e+000 2.506543e-002 3.950667e-001 -9.967212e-002 1.126534e-001 -4.420628e-001 1.021532e-001 2.562983e-001 -5.353532e-001 4.548100e-001 5.499767e-001 1.994513e-003 -1.553439e-001 -3.271485e-002 4.567591e-002 2.845331e-002 -3.626454e-003 -3.114399e-002 6.295420e-002 9.409678e-002 6.920401e-003 4.641020e-002 5.773666e-002 4.088567e-002 -6.376896e-002 
<VARIANCE> 36
1.109651e+000 2.920927e+000 5.726985e+000 6.033480e+000 6.648049e+000 7.029978e+000 1.274708e+001 1.335486e+001 1.385006e+001 9.731381e+000 1.023589e+001 3.897728e+000 5.000000e-002 9.325718e-002 1.211711e-001 2.923499e-001 2.221552e-001 3.539440e-001 4.878310e-001 3.928566e-001 3.195339e-001 3.562809e-001 3.578230e-001 5.449466e-001 5.000000e-002 5.000000e-002 5.000000e-002 5.000000e-002 5.000000e-002 5.601359e-002 9.378248e-002 6.278419e-002 8.001545e-002 7.495711e-002 6.313078e-002 8.158575e-002 
<GCONST> 3.836168e+001
<STATE> 16
<MEAN> 36
3.347770e+000 -1.607413e+000 -1.246979e+001 -5.592377e+000 3.177548e+000 -5.464522e+000 -8.031623e+000 4.361918e+000 -3.339050e+000 -8.104574e+000 -6.565537e+000 -5.417036e+000 -4.656337e-001 6.747423e-001 5.748506e-001 1.495884e-001 -5.334882e-001 5.756891e-001 6.721336e-001 -4.861354e-001 6.877876e-001 9.716255e-001 5.851465e-001 4.590883e-002 -9.648273e-002 -3.866601e-003 9.974414e-002 8.481704e-003 7.770644e-003 9.092924e-002 1.149994e-001 4.608865e-002 5.889903e-002 4.406525e-002 1.205062e-001 1.380857e-001 
<VARIANCE> 36
2.681679e+000 4.916217e+000 1.046036e+001 1.387292e+001 1.196477e+001 2.989840e+001 1.036329e+001 2.581846e+001 1.686374e+001 1.670031e+001 1.667191e+001 1.554891e+001 5.000000e-002 1.353437e-001 1.525465e-001 5.103983e-001 5.303779e-001 5.533520e-001 1.302975e+000 8.393863e-001 9.093459e-001 6.627208e-001 6.047745e-001 5.625422e-001 5.000000e-002 5.000000e-002 5.000000e-002 8.004396e-002 1.192137e-001 1.018780e-001 2.592584e-001 1.905197e-001 1.548815e-001 1.239627e-001 8.742896e-002 1.171499e-001 
<GCONST> 5.865279e+001
<STATE> 17
<MEAN> 36
7.064474e-002 1.077511e+000 -9.967623e+000 -5.538742e+000 2.745135e+000 3.236229e-001 -3.069854e+000 2.852344e+000 1.185106e+000 -2.391625e+000 -3.351947e+000 -4.720210e+000 -8.915806e-001 3.216986e-001 8.934275e-001 4.593045e-001 -4.984664e-001 4.336223e-001 1.449819e+000 8.226518e-001 9.172956e-001 1.040303e+000 7.594013e-001 7.841520e-001 -2.635900e-002 -1.935458e-001 3.928226e-002 2.308924e-001 5.149355e-002 -1.789055e-001 1.936599e-003 3.515661e-001 -1.123601e-001 -1.188954e-001 6.853170e-002 1.968574e-001 
<VARIANCE> 36
1.129922e+000 3.939426e+000 6.140047e+000 6.316414e+000 9.483184e+000 1.219821e+001 8.430129e+000 1.333727e+001 7.267496e+000 1.068477e+001 7.604730e+000 1.076216e+001 7.317069e-002 2.708277e-001 2.707103e-001 5.254034e-001 6.831731e-001 9.214170e-001 6.864612e-001 1.267675e+000 4.083695e-001 1.143356e+000 7.109422e-001 9.485649e-001 5.000000e-002 5.000000e-002 5.000000e-002 7.738065e-002 1.458344e-001 1.625302e-001 1.629341e-001 2.119608e-001 7.723227e-002 1.986024e-001 1.148590e-001 2.158478e-001 
<GCONST> 5.538720e+001
<STATE> 18
<MEAN> 36
-3.678482e+000 1.200958e-001 -7.133811e+000 -2.314099e+000 1.331233e+000 7.593103e-001 2.140793e+000 8.026579e+000 3.312993e+000 2.526018e-002 5.911179e-001 -1.208671e-001 -4.923309e-001 1.716063e-001 6.231747e-001 6.294032e-001 1.970184e-001 3.880811e-001 4.157761e-001 4.594420e-001 3.821423e-001 6.275496e-002 2.769892e-001 4.773633e-001 1.393743e-001 7.798409e-002 -4.795885e-002 -8.238918e-002 1.395375e-001 3.738707e-002 -2.641456e-001 -3.984371e-001 -2.035772e-001 -2.420883e-001 -3.193768e-001 -2.216083e-001 
<VARIANCE> 36
2.870863e+000 3.019808e+000 5.052118e+000 4.647851e+000 5.694566e+000 1.585928e+001 6.511287e+000 1.204345e+001 1.297032e+001 7.163059e+000 9.283004e+000 8.898696e+000 1.390055e-001 2.168718e-001 3.875525e-001 5.269441e-001 6.737918e-001 6.557793e-001 4.993616e-001 1.303165e+000 1.143343e+000 1.038878e+000 1.303496e+000 1.204664e+000 5.000000e-002 5.000000e-002 6.837224e-002 6.443222e-002 1.286199e-001 9.608928e-002 7.064599e-002 1.794591e-001 2.784923e-001 1.226293e-001 2.005346e-001 2.029193e-001 
<GCONST> 5.682096e+001
<STATE> 19
<MEAN> 36
-5.070173e+000 2.516239e+000 -3.116528e+000 -2.403380e-001 1.781997e+000 2.291627e+000 3.151316e+000 7.665040e+000 5.375584e+000 1.592306e+000 4.104389e-001 -3.020724e-002 -2.248885e-001 1.531939e-001 3.537576e-001 1.996998e-001 7.114227e-002 2.310366e-001 2.704687e-001 -3.427639e-002 3.207073e-002 3.184558e-001 2.316874e-001 8.405167e-002 -1.011722e-002 -6.560180e-003 1.868868e-002 5.537167e-002 6.438508e-003 -2.210693e-002 3.123395e-003 -3.103777e-002 -3.885037e-002 2.122855e-002 3.945387e-002 1.265626e-002 
<VARIANCE> 36
2.740802e+000 2.749403e+000 3.281852e+000 4.007426e+000 7.554187e+000 1.213100e+001 9.138523e+000 1.380503e+001 1.297537e+001 1.318963e+001 9.823689e+000 1.129771e+001 6.961398e-002 2.046320e-001 3.102906e-001 5.324850e-001 4.853308e-001 7.485894e-001 6.145718e-001 1.191995e+000 1.154208e+000 1.069167e+000 9.921917e-001 7.144498e-001 5.000000e-002 5.000000e-002 6.999611e-002 1.248824e-001 8.886326e-002 1.477434e-001 1.213797e-001 2.317082e-001 2.106602e-001 2.601416e-001 2.280963e-001 1.500498e-001 
<GCONST> 5.754375e+001
<STATE> 20
<MEAN> 36
-7.724761e+000 3.950019e+000 1.433940e+000 3.955524e+000 3.010466e+000 4.281988e+000 4.987633e+000 5.304732e+000 3.417805e+000 2.157597e+000 1.163369e+000 6.900926e-001 -3.065002e-001 2.068388e-003 2.839179e-001 2.269396e-001 5.159345e-002 1.487019e-001 1.112749e-001 -2.187670e-001 -1.378429e-001 -2.117505e-002 -2.017283e-001 -2.355708e-001 1.266500e-002 -2.944107e-002 -6.704283e-002 -8.892163e-002 3.054804e-003 -9.529678e-003 -6.034100e-002 2.580805e-002 8.757420e-003 -2.333548e-002 -3.705573e-002 -7.004073e-002 
<VARIANCE> 36
2.212349e+000 2.134386e+000 3.539771e+000 4.769746e+000 9.601171e+000 1.425235e+001 1.134125e+001 1.103592e+001 1.003363e+001 7.513201e+000 1.249388e+001 8.105325e+000 7.510976e-002 1.558788e-001 4.852367e-001 6.735817e-001 4.893727e-001 1.022845e+000 8.207552e-001 1.176526e+000 9.772118e-001 8.235877e-001 1.390175e+000 8.676759e-001 5.000000e-002 5.000000e-002 6.916037e-002 8.940237e-002 9.720634e-002 2.098067e-001 1.948104e-001 2.291622e-001 2.038135e-001 1.519833e-001 3.284285e-001 1.765182e-001 
<GCONST> 5.850729e+001
<STATE> 21
<MEAN> 36
-9.811414e+000 3.176596e+000 2.477512e+000 4.873977e+000 4.790243e+000 5.578691e+000 4.227016e+000 3.386711e+000 1.822235e+000 1.672091e+000 1.239063e-001 -1.473067e+000 -2.617501e-001 -1.044626e-001 1.052967e-001 8.713161e-002 1.004143e-001 -1.299719e-001 -4.679848e-001 -5.406845e-001 -3.354969e-001 -3.265400e-001 2.389949e-001 4.725185e-001 -4.460726e-003 -9.690331e-002 -1.293910e-001 -8.855779e-002 -2.339310e-001 -1.036765e-001 6.548656e-002 1.616454e-001 1.073847e-001 -6.992319e-002 1.400172e-001 2.990931e-001 
<VARIANCE> 36
1.112364e+000 2.100267e+000 2.856753e+000 5.148278e+000 6.926484e+000 9.509780e+000 5.573645e+000 6.513794e+000 1.272030e+001 9.969645e+000 1.069590e+001 6.712811e+000 6.003719e-002 1.373545e-001 2.271186e-001 4.559023e-001 1.133051e+000 7.381275e-001 8.763237e-001 8.922009e-001 1.258607e+000 6.269202e-001 1.086244e+000 6.407640e-001 5.000000e-002 5.000000e-002 5.000000e-002 1.650548e-001 2.658660e-001 9.887146e-002 1.416659e-001 1.490303e-001 1.815083e-001 1.297505e-001 1.992178e-001 9.715868e-002 
<GCONST> 5.252826e+001
<STATE> 22
<MEAN> 36
-1.115005e+001 1.210299e+000 5.637776e-001 3.914673e+000 2.831956e+000 4.273113e+000 3.982690e+000 3.536682e+000 1.706369e+000 4.084577e-001 1.719318e+000 1.786419e+000 -2.205770e-001 -3.347798e-001 -1.940751e-001 -1.622630e-001 -4.313519e-001 -2.228865e-001 -4.815870e-002 9.493876e-002 7.648778e-002 8.887774e-002 4.559228e-002 -5.523927e-003 3.096096e-002 3.953254e-002 4.415513e-002 -3.985312e-002 2.010192e-002 3.475332e-003 -5.394681e-002 -4.205663e-002 -2.429888e-002 7.790264e-002 -1.400701e-001 -1.995949e-001 
<VARIANCE> 36
1.059286e+000 2.266247e+000 5.615514e+000 6.028886e+000 7.717015e+000 8.601407e+000 6.638487e+000 1.328867e+001 1.336070e+001 1.464047e+001 8.050392e+000 5.236278e+000 8.016331e-002 2.167370e-001 4.011239e-001 5.015799e-001 7.156967e-001 6.827709e-001 7.555916e-001 1.581128e+000 1.104482e+000 1.498348e+000 8.472013e-001 7.157712e-001 5.000000e-002 5.000000e-002 6.406972e-002 7.813482e-002 1.446357e-001 1.463464e-001 1.781386e-001 3.810664e-001 2.168547e-001 3.063276e-001 2.079310e-001 1.101218e-001 
<GCONST> 5.774085e+001
<STATE> 23
<MEAN> 36
-1.227611e+001 1.782979e-001 -8.775467e-002 2.498749e+000 1.579267e+000 3.142071e+000 2.137301e+000 2.687778e+000 1.962136e+000 1.537123e+000 9.161881e-001 6.533541e-001 -4.886405e-002 -4.142323e-002 -1.011581e-001 -3.233661e-002 1.332403e-001 -9.747705e-002 -2.135953e-001 -1.028554e-001 -4.499692e-002 -5.633409e-002 -1.007834e-001 1.072726e-002 5.869812e-004 2.857491e-003 -1.209173e-002 1.465116e-002 3.695246e-002 -2.880826e-003 2.422048e-002 4.254303e-002 2.544110e-002 -1.054785e-002 2.467041e-002 3.827317e-002 
<VARIANCE> 36
8.054234e-001 2.129223e+000 2.950244e+000 3.225668e+000 5.575326e+000 7.071177e+000 8.548402e+000 5.982826e+000 6.617748e+000 6.908690e+000 7.401972e+000 7.032858e+000 8.534896e-002 2.426264e-001 3.483970e-001 4.594237e-001 5.488068e-001 7.649402e-001 9.932554e-001 7.661128e-001 7.084711e-001 6.539827e-001 8.931689e-001 8.331918e-001 5.000000e-002 5.412659e-002 7.396984e-002 9.226067e-002 1.215301e-001 1.603972e-001 2.004918e-001 1.519246e-001 1.429214e-001 1.135070e-001 1.751573e-001 1.731868e-001 
<GCONST> 5.047923e+001
<TRANSP> 25
0.000000e+000 1.000000e+000 0.000000e+000 0.000000e+000 0.000000e+000 0.000000e+000 0.000000e+000 0.000000e+000 0.000000e+000 0.000000e+000 0.000000e+000 0.000000e+000 0.000000e+000 0.000000e+000 0.000000e+000 0.000000e+000 0.000000e+000 0.000000e+000 0.000000e+000 0.000000e+000 0.000000e+000 0.000000e+000 0.000000e+000 0.000000e+000 0.000000e+000 
0.000000e+000 8.288092e-001 1.711908e-001 0.000000e+000 0.000000e+000 0.000000e+000 0.000000e+000 0.000000e+000 0.000000e+000 0.000000e+000 0.000000e+000 0.000000e+000 0.000000e+000 0.000000e+000 0.000000e+000 0.000000e+000 0.000000e+000 0.000000e+000 0.000000e+000 0.000000e+000 0.000000e+000 0.000000e+000 0.000000e+000 0.000000e+000 0.000000e+000 
0.000000e+000 0.000000e+000 9.037638e-001 9.623624e-002 0.000000e+000 0.000000e+000 0.000000e+000 0.000000e+000 0.000000e+000 0.000000e+000 0.000000e+000 0.000000e+000 0.000000e+000 0.000000e+000 0.000000e+000 0.000000e+000 0.000000e+000 0.000000e+000 0.000000e+000 0.000000e+000 0.000000e+000 0.000000e+000 0.000000e+000 0.000000e+000 0.000000e+000 
0.000000e+000 0.000000e+000 0.000000e+000 9.080410e-001 9.195899e-002 0.000000e+000 0.000000e+000 0.000000e+000 0.000000e+000 0.000000e+000 0.000000e+000 0.000000e+000 0.000000e+000 0.000000e+000 0.000000e+000 0.000000e+000 0.000000e+000 0.000000e+000 0.000000e+000 0.000000e+000 0.000000e+000 0.000000e+000 0.000000e+000 0.000000e+000 0.000000e+000 
0.000000e+000 0.000000e+000 0.000000e+000 0.000000e+000 8.757285e-001 1.242715e-001 0.000000e+000 0.000000e+000 0.000000e+000 0.000000e+000 0.000000e+000 0.000000e+000 0.000000e+000 0.000000e+000 0.000000e+000 0.000000e+000 0.000000e+000 0.000000e+000 0.000000e+000 0.000000e+000 0.000000e+000 0.000000e+000 0.000000e+000 0.000000e+000 0.000000e+000 
0.000000e+000 0.000000e+000 0.000000e+000 0.000000e+000 0.000000e+000 7.476480e-001 2.523520e-001 0.000000e+000 0.000000e+000 0.000000e+000 0.000000e+000 0.000000e+000 0.000000e+000 0.000000e+000 0.000000e+000 0.000000e+000 0.000000e+000 0.000000e+000 0.000000e+000 0.000000e+000 0.000000e+000 0.000000e+000 0.000000e+000 0.000000e+000 0.000000e+000 
0.000000e+000 0.000000e+000 0.000000e+000 0.000000e+000 0.000000e+000 0.000000e+000 0.000000e+000 1.000000e+000 0.000000e+000 0.000000e+000 0.000000e+000 0.000000e+000 0.000000e+000 0.000000e+000 0.000000e+000 0.000000e+000 0.000000e+000 0.000000e+000 0.000000e+000 0.000000e+000 0.000000e+000 0.000000e+000 0.000000e+000 0.000000e+000 0.000000e+000 
0.000000e+000 0.000000e+000 0.000000e+000 0.000000e+000 0.000000e+000 0.000000e+000 0.000000e+000 8.867661e-001 1.132340e-001 0.000000e+000 0.000000e+000 0.000000e+000 0.000000e+000 0.000000e+000 0.000000e+000 0.000000e+000 0.000000e+000 0.000000e+000 0.000000e+000 0.000000e+000 0.000000e+000 0.000000e+000 0.000000e+000 0.000000e+000 0.000000e+000 
0.000000e+000 0.000000e+000 0.000000e+000 0.000000e+000 0.000000e+000 0.000000e+000 0.000000e+000 0.000000e+000 9.417450e-001 5.825496e-002 0.000000e+000 0.000000e+000 0.000000e+000 0.000000e+000 0.000000e+000 0.000000e+000 0.000000e+000 0.000000e+000 0.000000e+000 0.000000e+000 0.000000e+000 0.000000e+000 0.000000e+000 0.000000e+000 0.000000e+000 
0.000000e+000 0.000000e+000 0.000000e+000 0.000000e+000 0.000000e+000 0.000000e+000 0.000000e+000 0.000000e+000 0.000000e+000 8.716849e-001 1.283151e-001 0.000000e+000 0.000000e+000 0.000000e+000 0.000000e+000 0.000000e+000 0.000000e+000 0.000000e+000 0.000000e+000 0.000000e+000 0.000000e+000 0.000000e+000 0.000000e+000 0.000000e+000 0.000000e+000 
0.000000e+000 0.000000e+000 0.000000e+000 0.000000e+000 0.000000e+000 0.000000e+000 0.000000e+000 0.000000e+000 0.000000e+000 0.000000e+000 9.191254e-001 8.087462e-002 0.000000e+000 0.000000e+000 0.000000e+000 0.000000e+000 0.000000e+000 0.000000e+000 0.000000e+000 0.000000e+000 0.000000e+000 0.000000e+000 0.000000e+000 0.000000e+000 0.000000e+000 
0.000000e+000 0.000000e+000 0.000000e+000 0.000000e+000 0.000000e+000 0.000000e+000 0.000000e+000 0.000000e+000 0.000000e+000 0.000000e+000 0.000000e+000 8.350352e-001 1.649647e-001 0.000000e+000 0.000000e+000 0.000000e+000 0.000000e+000 0.000000e+000 0.000000e+000 0.000000e+000 0.000000e+000 0.000000e+000 0.000000e+000 0.000000e+000 0.000000e+000 
0.000000e+000 0.000000e+000 0.000000e+000 0.000000e+000 0.000000e+000 0.000000e+000 0.000000e+000 0.000000e+000 0.000000e+000 0.000000e+000 0.000000e+000 0.000000e+000 7.560854e-001 2.439145e-001 0.000000e+000 0.000000e+000 0.000000e+000 0.000000e+000 0.000000e+000 0.000000e+000 0.000000e+000 0.000000e+000 0.000000e+000 0.000000e+000 0.000000e+000 
0.000000e+000 0.000000e+000 0.000000e+000 0.000000e+000 0.000000e+000 0.000000e+000 0.000000e+000 0.000000e+000 0.000000e+000 0.000000e+000 0.000000e+000 0.000000e+000 0.000000e+000 8.526078e-001 1.473922e-001 0.000000e+000 0.000000e+000 0.000000e+000 0.000000e+000 0.000000e+000 0.000000e+000 0.000000e+000 0.000000e+000 0.000000e+000 0.000000e+000 
0.000000e+000 0.000000e+000 0.000000e+000 0.000000e+000 0.000000e+000 0.000000e+000 0.000000e+000 0.000000e+000 0.000000e+000 0.000000e+000 0.000000e+000 0.000000e+000 0.000000e+000 0.000000e+000 8.761478e-001 1.238522e-001 0.000000e+000 0.000000e+000 0.000000e+000 0.000000e+000 0.000000e+000 0.000000e+000 0.000000e+000 0.000000e+000 0.000000e+000 
0.000000e+000 0.000000e+000 0.000000e+000 0.000000e+000 0.000000e+000 0.000000e+000 0.000000e+000 0.000000e+000 0.000000e+000 0.000000e+000 0.000000e+000 0.000000e+000 0.000000e+000 0.000000e+000 0.000000e+000 8.722765e-001 1.277235e-001 0.000000e+000 0.000000e+000 0.000000e+000 0.000000e+000 0.000000e+000 0.000000e+000 0.000000e+000 0.000000e+000 
0.000000e+000 0.000000e+000 0.000000e+000 0.000000e+000 0.000000e+000 0.000000e+000 0.000000e+000 0.000000e+000 0.000000e+000 0.000000e+000 0.000000e+000 0.000000e+000 0.000000e+000 0.000000e+000 0.000000e+000 0.000000e+000 8.236048e-001 1.763952e-001 0.000000e+000 0.000000e+000 0.000000e+000 0.000000e+000 0.000000e+000 0.000000e+000 0.000000e+000 
0.000000e+000 0.000000e+000 0.000000e+000 0.000000e+000 0.000000e+000 0.000000e+000 0.000000e+000 0.000000e+000 0.000000e+000 0.000000e+000 0.000000e+000 0.000000e+000 0.000000e+000 0.000000e+000 0.000000e+000 0.000000e+000 0.000000e+000 7.078300e-001 2.921700e-001 0.000000e+000 0.000000e+000 0.000000e+000 0.000000e+000 0.000000e+000 0.000000e+000 
0.000000e+000 0.000000e+000 0.000000e+000 0.000000e+000 0.000000e+000 0.000000e+000 0.000000e+000 0.000000e+000 0.000000e+000 0.000000e+000 0.000000e+000 0.000000e+000 0.000000e+000 0.000000e+000 0.000000e+000 0.000000e+000 0.000000e+000 0.000000e+000 7.640912e-001 2.359088e-001 0.000000e+000 0.000000e+000 0.000000e+000 0.000000e+000 0.000000e+000 
0.000000e+000 0.000000e+000 0.000000e+000 0.000000e+000 0.000000e+000 0.000000e+000 0.000000e+000 0.000000e+000 0.000000e+000 0.000000e+000 0.000000e+000 0.000000e+000 0.000000e+000 0.000000e+000 0.000000e+000 0.000000e+000 0.000000e+000 0.000000e+000 0.000000e+000 9.175517e-001 8.244833e-002 0.000000e+000 0.000000e+000 0.000000e+000 0.000000e+000 
0.000000e+000 0.000000e+000 0.000000e+000 0.000000e+000 0.000000e+000 0.000000e+000 0.000000e+000 0.000000e+000 0.000000e+000 0.000000e+000 0.000000e+000 0.000000e+000 0.000000e+000 0.000000e+000 0.000000e+000 0.000000e+000 0.000000e+000 0.000000e+000 0.000000e+000 0.000000e+000 8.874670e-001 1.125330e-001 0.000000e+000 0.000000e+000 0.000000e+000 
0.000000e+000 0.000000e+000 0.000000e+000 0.000000e+000 0.000000e+000 0.000000e+000 0.000000e+000 0.000000e+000 0.000000e+000 0.000000e+000 0.000000e+000 0.000000e+000 0.000000e+000 0.000000e+000 0.000000e+000 0.000000e+000 0.000000e+000 0.000000e+000 0.000000e+000 0.000000e+000 0.000000e+000 7.601710e-001 2.398290e-001 0.000000e+000 0.000000e+000 
0.000000e+000 0.000000e+000 0.000000e+000 0.000000e+000 0.000000e+000 0.000000e+000 0.000000e+000 0.000000e+000 0.000000e+000 0.000000e+000 0.000000e+000 0.000000e+000 0.000000e+000 0.000000e+000 0.000000e+000 0.000000e+000 0.000000e+000 0.000000e+000 0.000000e+000 0.000000e+000 0.000000e+000 0.000000e+000 8.344525e-001 1.655475e-001 0.000000e+000 
0.000000e+000 0.000000e+000 0.000000e+000 0.000000e+000 0.000000e+000 0.000000e+000 0.000000e+000 0.000000e+000 0.000000e+000 0.000000e+000 0.000000e+000 0.000000e+000 0.000000e+000 0.000000e+000 0.000000e+000 0.000000e+000 0.000000e+000 0.000000e+000 0.000000e+000 0.000000e+000 0.000000e+000 0.000000e+000 0.000000e+000 9.216710e-001 7.832898e-002 
0.000000e+000 0.000000e+000 0.000000e+000 0.000000e+000 0.000000e+000 0.000000e+000 0.000000e+000 0.000000e+000 0.000000e+000 0.000000e+000 0.000000e+000 0.000000e+000 0.000000e+000 0.000000e+000 0.000000e+000 0.000000e+000 0.000000e+000 0.000000e+000 0.000000e+000 0.000000e+000 0.000000e+000 0.000000e+000 0.000000e+000 0.000000e+000 0.000000e+000 
