<HMMNAME> S
<HMMSTATES> 25
<STATE> 1
<MEAN> 36
-1.090458e+001 -1.372578e+000 -2.199314e+000 1.844708e+000 9.330246e-001 6.536264e-001 2.543419e-001 2.131456e+000 8.582564e-001 1.638943e-001 1.041810e+000 1.532302e+000 -1.685944e-001 9.179440e-002 8.427915e-002 2.506508e-002 -1.922318e-002 1.210023e-001 1.526972e-001 5.995638e-002 1.951844e-001 1.634457e-001 2.421842e-002 -3.222729e-002 9.287256e-003 -1.430139e-002 1.437586e-002 3.419533e-002 3.882406e-002 5.238770e-002 3.294367e-002 9.969466e-003 -1.764587e-002 -2.420306e-002 -2.884308e-002 -3.484270e-002 
<VARIANCE> 36
4.211294e+000 1.326890e+001 9.672971e+000 1.135086e+001 1.422447e+001 1.798858e+001 1.709482e+001 1.983879e+001 1.318023e+001 2.051275e+001 1.622016e+001 1.065898e+001 1.303499e-001 3.278255e-001 4.499852e-001 6.242743e-001 6.780056e-001 8.131258e-001 1.084441e+000 1.233803e+000 1.128122e+000 1.248682e+000 1.055904e+000 1.030304e+000 5.000000e-002 5.025413e-002 8.435446e-002 1.266677e-001 1.310388e-001 1.476847e-001 2.101882e-001 2.329343e-001 2.203009e-001 2.291770e-001 2.276612e-001 2.065605e-001 
<GCONST> 6.917892e+001
<STATE> 2
<MEAN> 36
-1.226448e+001 -5.580649e-001 -9.976114e-001 2.399168e+000 1.760570e+000 3.097166e+000 2.598550e+000 2.833260e+000 1.006829e+000 4.846900e-001 2.987518e-001 4.183547e-001 -5.698895e-002 5.586617e-002 7.225933e-002 7.190104e-002 5.145787e-002 3.784511e-002 2.486227e-004 -1.032461e-001 -6.706795e-002 -1.623760e-002 2.181712e-002 4.892845e-002 7.967885e-003 5.479292e-003 1.628166e-002 8.220319e-003 -1.926575e-002 -6.230557e-002 -8.872820e-002 -6.622716e-002 -3.272781e-002 -2.146563e-003 2.526605e-002 4.803800e-002 
<VARIANCE> 36
1.101397e+000 2.896971e+000 3.726847e+000 4.615452e+000 5.535354e+000 7.719238e+000 7.862096e+000 8.710279e+000 8.324970e+000 9.776016e+000 8.566740e+000 7.332978e+000 1.121701e-001 2.670819e-001 4.061516e-001 4.813550e-001 5.443184e-001 7.681170e-001 1.030970e+000 1.134780e+000 9.343426e-001 1.042556e+000 9.334115e-001 7.154453e-001 5.000000e-002 5.507783e-002 8.254119e-002 8.732140e-002 1.045975e-001 1.497869e-001 1.999079e-001 2.058661e-001 1.840258e-001 2.290938e-001 1.875008e-001 1.454209e-001 
<GCONST> 5.546211e+001
<STATE> 3
<MEAN> 36
-1.250329e+001 -2.324153e-001 -1.371192e-001 3.001242e+000 1.541943e+000 1.894694e+000 9.384007e-001 9.275661e-001 1.352850e-001 6.092253e-001 1.254939e+000 1.457791e+000 -5.131606e-002 -2.878845e-002 -3.459162e-002 -1.142149e-001 -1.947834e-001 -2.140419e-001 -7.387775e-002 1.920372e-001 3.256246e-001 2.080622e-001 -4.715152e-002 -3.096763e-002 3.756739e-004 -2.583437e-002 -5.284254e-002 -9.522718e-002 -5.640800e-002 1.703531e-002 8.951685e-002 2.082219e-001 1.950635e-001 7.175617e-002 -2.930238e-002 -6.797371e-002 
<VARIANCE> 36
6.911021e-001 2.547055e+000 2.350124e+000 5.378623e+000 6.778299e+000 7.014780e+000 8.359223e+000 7.800261e+000 9.111351e+000 7.575836e+000 7.709514e+000 7.686279e+000 7.539497e-002 1.879671e-001 2.602244e-001 6.749594e-001 6.754348e-001 7.496763e-001 9.187469e-001 9.106626e-001 1.142427e+000 8.535816e-001 7.096860e-001 9.258724e-001 5.000000e-002 5.000000e-002 5.474107e-002 1.553474e-001 1.366585e-001 1.511072e-001 1.871948e-001 1.832493e-001 2.120767e-001 1.486140e-001 1.385004e-001 1.754547e-001 
<GCONST> 5.313609e+001
<STATE> 4
<MEAN> 36
-1.265187e+001 -5.574565e-001 -9.419690e-001 1.573597e+000 1.424631e-001 1.135360e+000 1.366198e+000 3.958877e+000 3.927453e+000 2.852708e+000 1.277904e+000 1.060618e+000 2.619966e-002 9.068544e-002 7.508864e-002 -2.262029e-002 1.217737e-001 2.996663e-001 1.817910e-001 1.614811e-001 1.190101e-001 -4.604749e-002 -1.315896e-001 -1.784388e-001 1.965613e-002 4.350050e-002 8.190283e-002 1.473502e-001 2.096064e-001 1.913929e-001 3.571532e-002 -3.083584e-001 -4.585202e-001 -2.980012e-001 -4.482050e-002 -1.638009e-002 
<VARIANCE> 36
1.060850e+000 2.848114e+000 2.425131e+000 3.620541e+000 4.782655e+000 6.840872e+000 7.747508e+000 7.724952e+000 6.397842e+000 7.014207e+000 7.562483e+000 1.044656e+001 1.090325e-001 2.084994e-001 3.059962e-001 4.418736e-001 5.241848e-001 7.711466e-001 8.178960e-001 9.983569e-001 1.369151e+000 1.109141e+000 7.859660e-001 8.991300e-001 5.000000e-002 5.000000e-002 5.684810e-002 6.901300e-002 9.305474e-002 1.697844e-001 1.941744e-001 1.410659e-001 1.623190e-001 1.616503e-001 1.485967e-001 2.054144e-001 
<GCONST> 5.196483e+001
<STATE> 5
<MEAN> 36
-1.258831e+001 -9.309566e-002 -3.231923e-001 2.390151e+000 1.612000e+000 2.694077e+000 1.874042e+000 2.039199e+000 1.035336e+000 6.984118e-001 3.079178e-001 3.959002e-001 -4.233823e-002 -4.164016e-002 -4.395114e-002 -1.310395e-002 -9.654018e-003 -4.208846e-003 -1.907950e-003 -2.439259e-002 -4.201476e-002 2.822085e-002 8.234054e-002 6.028572e-002 -1.232929e-002 -2.902019e-002 -3.160053e-002 -2.451046e-002 -5.292806e-002 -5.215663e-002 -1.573312e-002 3.479716e-002 9.247071e-002 1.057999e-001 8.061475e-002 5.190773e-002 
<VARIANCE> 36
6.958924e-001 1.592033e+000 2.408452e+000 3.422153e+000 4.787947e+000 6.256520e+000 7.940799e+000 8.217221e+000 8.722054e+000 9.011697e+000 8.879972e+000 7.556173e+000 9.101133e-002 2.006618e-001 2.879843e-001 3.691363e-001 5.812976e-001 7.387075e-001 9.962376e-001 1.053665e+000 1.150342e+000 1.206535e+000 1.190524e+000 9.625525e-001 5.000000e-002 5.000000e-002 5.877073e-002 7.085914e-002 1.116456e-001 1.511775e-001 1.959566e-001 2.142237e-001 2.284491e-001 2.466025e-001 2.435591e-001 1.923965e-001 
<GCONST> 5.328465e+001
<STATE> 6
<MEAN> 36
-1.314216e+001 -1.271400e+000 -1.359072e+000 1.764623e+000 5.400112e-001 1.620799e+000 1.442716e+000 3.056907e+000 3.340798e+000 3.244539e+000 3.167597e+000 2.473916e+000 2.998140e-002 -2.115011e-002 2.618516e-002 6.205072e-002 5.966324e-002 9.589218e-002 3.298137e-002 -1.607479e-001 1.313782e-001 2.320975e-001 3.446917e-001 2.144843e-001 8.487339e-002 1.418619e-001 1.323919e-001 9.498116e-002 1.820534e-001 1.141186e-001 1.486210e-002 -1.101691e-001 -2.572902e-001 -3.298855e-001 -4.053920e-001 -2.900822e-001 
<VARIANCE> 36
8.275307e-001 2.993042e+000 3.128630e+000 4.228847e+000 8.155707e+000 7.577323e+000 1.536852e+001 1.260748e+001 9.682612e+000 1.190604e+001 8.670603e+000 1.060784e+001 1.136138e-001 3.274428e-001 3.203955e-001 4.514835e-001 8.598300e-001 8.750669e-001 1.551413e+000 1.598402e+000 1.482937e+000 1.498344e+000 1.147423e+000 1.220876e+000 5.000000e-002 5.752179e-002 6.333292e-002 8.449828e-002 1.652778e-001 1.786511e-001 3.996746e-001 3.703264e-001 2.708482e-001 2.959421e-001 2.416623e-001 2.784973e-001 
<GCONST> 6.310987e+001
<STATE> 7
<MEAN> 36
-1.273332e+001 -2.908228e-001 -5.368829e-001 2.318292e+000 1.420311e+000 2.522963e+000 1.751654e+000 2.234354e+000 1.709654e+000 1.432949e+000 8.612929e-001 7.607682e-001 2.082879e-003 2.194132e-002 3.166326e-002 5.070105e-002 6.824987e-002 5.318651e-002 2.444310e-002 -4.670121e-002 -9.696081e-002 -1.050292e-001 -1.166214e-001 -4.722136e-002 -3.743501e-003 -2.245513e-003 5.091176e-003 1.277853e-002 4.107681e-003 -1.321546e-003 -6.453326e-003 1.462319e-003 -1.624606e-002 -1.631970e-002 -1.093498e-004 7.394910e-003 
<VARIANCE> 36
7.435935e-001 1.688733e+000 2.648582e+000 3.448928e+000 4.845621e+000 6.679137e+000 7.056531e+000 8.020606e+000 7.437870e+000 9.038022e+000 8.224468e+000 8.825892e+000 9.338593e-002 2.090598e-001 3.393977e-001 4.032854e-001 5.408803e-001 7.789569e-001 7.697213e-001 8.551692e-001 7.951162e-001 1.081300e+000 1.063083e+000 1.125382e+000 5.000000e-002 5.000000e-002 7.053185e-002 8.308269e-002 1.099907e-001 1.599648e-001 1.518530e-001 1.730224e-001 1.542303e-001 2.203665e-001 2.157811e-001 2.317289e-001 
<GCONST> 5.224218e+001
<STATE> 8
<MEAN> 36
-1.270462e+001 -7.032653e-002 5.031002e-001 4.272005e+000 3.104359e+000 3.489990e+000 1.696242e+000 6.564292e-001 -7.326815e-001 -9.231741e-001 -8.079039e-001 1.984075e-001 1.951710e-002 5.641689e-002 4.103125e-002 1.511874e-002 -6.343927e-002 -1.053217e-001 -1.180270e-001 -8.583639e-002 -1.830285e-001 -1.220493e-001 -1.398721e-001 -2.279132e-001 -2.436610e-002 -8.199855e-002 -2.140881e-001 -3.099918e-001 -2.840403e-001 -1.334592e-001 3.375305e-002 2.257860e-001 3.797818e-001 3.794492e-001 3.127106e-001 1.214039e-001 
<VARIANCE> 36
6.241445e-001 1.891671e+000 2.720355e+000 4.083931e+000 4.885539e+000 6.993621e+000 6.197972e+000 9.252750e+000 6.764969e+000 8.904287e+000 7.005875e+000 6.329779e+000 8.233350e-002 1.828775e-001 4.699697e-001 6.660750e-001 7.754599e-001 7.582065e-001 7.076202e-001 1.327449e+000 8.305429e-001 1.461012e+000 1.003987e+000 8.598184e-001 5.000000e-002 5.000000e-002 6.744084e-002 8.424574e-002 1.175000e-001 1.364437e-001 1.568402e-001 2.607867e-001 1.213310e-001 2.256186e-001 1.553405e-001 1.520126e-001 
<GCONST> 5.246776e+001
<STATE> 9
<MEAN> 36
-1.272979e+001 -2.109277e-001 -5.068936e-001 2.291985e+000 1.169710e+000 2.352358e+000 1.794632e+000 2.231639e+000 1.581874e+000 1.322956e+000 8.028566e-001 8.040112e-001 -2.005663e-002 -4.314553e-002 -5.534489e-002 -7.675064e-002 -4.778084e-002 -1.572416e-002 1.408958e-002 1.050339e-001 1.579861e-001 1.186867e-001 9.417177e-002 5.202370e-002 -2.174926e-003 -6.161242e-003 -1.957098e-003 1.406350e-002 2.372367e-002 1.823620e-002 5.991504e-003 1.334080e-003 -2.957025e-003 -1.486150e-003 1.040307e-002 9.511152e-003 
<VARIANCE> 36
7.044313e-001 1.479384e+000 2.904726e+000 3.691170e+000 5.198288e+000 6.092425e+000 7.053370e+000 8.667259e+000 9.527265e+000 8.820550e+000 7.611246e+000 6.875937e+000 9.288202e-002 1.926622e-001 3.658421e-001 4.528047e-001 6.096370e-001 6.892801e-001 7.838333e-001 1.109548e+000 1.201778e+000 9.868545e-001 8.231608e-001 6.979238e-001 5.000000e-002 5.000000e-002 7.398543e-002 8.823723e-002 1.250810e-001 1.409598e-001 1.576065e-001 2.264112e-001 2.435264e-001 1.994950e-001 1.599422e-001 1.375208e-001 
<GCONST> 5.208743e+001
<STATE> 10
<MEAN> 36
-1.339212e+001 -1.549952e+000 -1.869045e+000 1.480306e+000 1.186322e+000 3.051353e+000 2.616335e+000 4.308842e+000 4.259488e+000 3.816060e+000 3.138776e+000 2.181566e+000 8.161286e-002 1.165385e-001 3.967628e-002 1.575372e-001 2.313951e-001 1.977261e-001 3.698583e-002 -1.508375e-001 -2.069741e-001 -4.726225e-002 1.704717e-001 -4.678574e-002 1.085997e-001 1.932236e-001 2.427044e-001 1.887092e-001 4.628411e-002 -8.125761e-002 -1.335603e-001 -3.901918e-001 -4.654480e-001 -4.103788e-001 -3.752276e-001 -2.183273e-001 
<VARIANCE> 36
8.261282e-001 2.069026e+000 2.176103e+000 3.529622e+000 5.104778e+000 6.638405e+000 8.835854e+000 8.450503e+000 6.269620e+000 8.976800e+000 6.669659e+000 7.626374e+000 9.480350e-002 1.911938e-001 3.028374e-001 4.405759e-001 4.966201e-001 6.759338e-001 7.782257e-001 1.323997e+000 1.015203e+000 1.387735e+000 1.063422e+000 8.137810e-001 5.000000e-002 5.000000e-002 5.436545e-002 8.153256e-002 1.238175e-001 1.379822e-001 1.646070e-001 2.179846e-001 1.300335e-001 1.675681e-001 1.549416e-001 1.452798e-001 
<GCONST> 5.121841e+001
<STATE> 11
<MEAN> 36
-1.271918e+001 -2.553349e-001 -3.095876e-001 2.698447e+000 1.851978e+000 2.776754e+000 1.648574e+000 1.945096e+000 1.030693e+000 6.666884e-001 7.127292e-001 6.588843e-001 2.692102e-002 7.225829e-002 9.511920e-002 4.191713e-002 -6.976291e-002 -1.347436e-001 -1.108743e-001 -1.378649e-001 -1.620977e-001 -8.758563e-002 -8.590898e-002 -1.703950e-002 -1.511432e-002 -1.331174e-002 -1.395918e-002 -3.720462e-002 -6.786689e-002 -5.079572e-002 -1.405926e-003 5.280032e-002 8.101359e-002 6.647415e-002 5.301726e-002 4.504017e-002 
<VARIANCE> 36
7.364433e-001 1.661769e+000 2.147173e+000 3.566602e+000 6.344535e+000 7.082808e+000 7.111641e+000 9.362651e+000 8.508467e+000 8.352649e+000 7.865409e+000 6.956624e+000 1.108420e-001 2.240777e-001 2.620744e-001 4.392586e-001 7.721000e-001 9.184538e-001 8.678382e-001 1.103621e+000 1.089939e+000 9.152716e-001 9.412663e-001 8.089963e-001 5.000000e-002 5.000000e-002 5.000000e-002 8.936254e-002 1.638704e-001 1.861105e-001 1.743435e-001 2.317627e-001 2.106635e-001 1.619311e-001 1.815352e-001 1.601604e-001 
<GCONST> 5.313478e+001
<STATE> 12
<MEAN> 36
-1.275845e+001 1.198824e-001 1.037201e-002 2.384236e+000 1.298506e-001 9.511763e-001 6.532682e-001 1.863540e+000 1.553453e+000 2.085970e+000 2.113717e+000 1.905993e+000 3.571117e-002 1.154910e-001 1.103935e-001 6.543002e-002 -9.897585e-003 1.123665e-001 6.598401e-002 -4.244741e-002 -9.516499e-002 -3.069364e-001 -2.564864e-001 -1.068329e-001 -1.663347e-002 -9.556590e-002 -1.116287e-001 2.201447e-002 2.578374e-001 3.064799e-001 1.615970e-001 6.072667e-002 -2.086804e-002 -1.551575e-001 -1.956187e-001 -1.723855e-001 
<VARIANCE> 36
9.707713e-001 2.055128e+000 3.724440e+000 4.327615e+000 4.511240e+000 6.527425e+000 8.442911e+000 7.494889e+000 7.932093e+000 1.039374e+001 7.628969e+000 7.835974e+000 1.082789e-001 2.002454e-001 3.465306e-001 4.492831e-001 8.368979e-001 8.973790e-001 1.038625e+000 1.077596e+000 1.019618e+000 1.098970e+000 1.022568e+000 9.582929e-001 5.000000e-002 5.000000e-002 7.198859e-002 1.036728e-001 1.258793e-001 1.361154e-001 1.949786e-001 2.213638e-001 1.685369e-001 2.220851e-001 2.053477e-001 1.572307e-001 
<GCONST> 5.507864e+001
<STATE> 13
<MEAN> 36
-1.266269e+001 1.348907e-001 -4.575837e-003 2.954757e+000 2.095516e+000 3.334268e+000 1.657558e+000 1.367791e+000 4.462679e-001 -2.577091e-001 -3.093680e-001 1.732040e-001 -7.527027e-002 -2.905268e-001 -3.589375e-001 -2.807503e-001 5.568529e-002 2.180331e-001 1.985216e-001 3.207579e-001 3.297917e-001 2.488316e-001 1.392434e-001 -4.187441e-002 -2.897011e-002 -9.768641e-002 -8.604395e-002 -1.078896e-001 -1.202966e-001 -1.388456e-001 2.278366e-002 1.878675e-001 2.168923e-001 3.168831e-001 2.556257e-001 1.705820e-001 
<VARIANCE> 36
9.257003e-001 1.839714e+000 3.286011e+000 4.102189e+000 4.494908e+000 7.306852e+000 9.845253e+000 8.927882e+000 8.636028e+000 8.442245e+000 8.170052e+000 8.771282e+000 1.135710e-001 2.642672e-001 4.123844e-001 5.914929e-001 7.116059e-001 9.185847e-001 1.165244e+000 1.166219e+000 9.430864e-001 1.363028e+000 1.492409e+000 1.224326e+000 5.000000e-002 5.000000e-002 7.636135e-002 1.163291e-001 1.354684e-001 1.823889e-001 2.801856e-001 2.442815e-001 1.815263e-001 1.997030e-001 2.192631e-001 2.278323e-001 
<GCONST> 5.823333e+001
<STATE> 14
<MEAN> 36
-1.303231e+001 -1.550855e+000 -2.254780e+000 8.060949e-001 8.119514e-001 2.956289e+000 2.731470e+000 4.095088e+000 3.558361e+000 3.219140e+000 2.103640e+000 1.189741e+000 -2.020527e-002 -1.284773e-001 -5.108051e-002 9.747950e-002 4.568859e-002 -7.767746e-002 1.957881e-001 3.633623e-001 2.733430e-001 2.310735e-001 1.655939e-001 1.967305e-001 7.084361e-002 2.108230e-001 2.821481e-001 2.894920e-001 1.453400e-001 -4.001010e-002 -2.113992e-001 -3.429985e-001 -3.526262e-001 -3.404428e-001 -2.435336e-001 -9.829075e-002 
<VARIANCE> 36
1.648194e+000 2.399732e+000 3.868605e+000 5.252909e+000 7.136657e+000 7.879770e+000 9.565700e+000 8.253961e+000 9.730897e+000 1.134585e+001 1.224192e+001 1.119032e+001 1.266784e-001 2.648679e-001 3.680982e-001 7.366309e-001 7.961196e-001 7.667841e-001 1.392138e+000 1.187350e+000 1.174520e+000 1.037432e+000 8.723344e-001 1.089424e+000 5.000000e-002 5.000000e-002 5.507416e-002 1.070750e-001 1.346067e-001 1.665502e-001 2.092094e-001 2.063095e-001 1.743576e-001 1.904863e-001 2.527727e-001 2.733320e-001 
<GCONST> 5.988620e+001
<STATE> 15
<MEAN> 36
-1.251698e+001 -1.319449e-001 8.272420e-002 3.602478e+000 2.279544e+000 2.516999e+000 2.076505e+000 2.866715e+000 1.743887e+000 1.090638e+000 7.833298e-001 1.254313e+000 1.711834e-001 3.464571e-001 4.444365e-001 4.279669e-001 2.781787e-001 -1.524267e-001 -5.144240e-001 -6.625865e-001 -6.691005e-001 -5.435377e-001 -5.053881e-001 -2.607185e-001 -1.741437e-002 -2.583675e-002 -9.287327e-002 -1.829020e-001 -1.234035e-001 -8.962997e-003 -4.651967e-002 -8.476231e-002 -2.576314e-002 2.404792e-002 -3.781672e-002 -7.872010e-002 
<VARIANCE> 36
1.254173e+000 3.281866e+000 3.456318e+000 3.835330e+000 6.969394e+000 8.058669e+000 1.237028e+001 1.025869e+001 1.171906e+001 9.637902e+000 1.117443e+001 1.010458e+001 8.653900e-002 2.746567e-001 2.773049e-001 4.811558e-001 6.590294e-001 7.931952e-001 9.027880e-001 1.020336e+000 8.934688e-001 1.003538e+000 1.187778e+000 1.176526e+000 5.000000e-002 5.257957e-002 6.395886e-002 1.021237e-001 1.510493e-001 1.786115e-001 2.501505e-001 2.387585e-001 2.357076e-001 1.744560e-001 1.933417e-001 2.167925e-001 
<GCONST> 5.846301e+001
<STATE> 16
<MEAN> 36
-1.278924e+001 -2.077964e-001 -4.817055e-001 2.349841e+000 1.379108e+000 2.481686e+000 1.705209e+000 2.111429e+000 1.490737e+000 1.296733e+000 8.453908e-001 8.082241e-001 -9.080160e-003 -1.875893e-002 -1.438052e-002 -2.363007e-002 8.420759e-004 2.545984e-002 4.225428e-002 3.639318e-002 2.281149e-002 7.479134e-003 1.794581e-003 -1.491768e-002 -3.844708e-004 -7.279390e-003 -8.434565e-003 -3.320910e-003 5.204686e-003 2.146899e-002 3.188862e-002 3.280011e-002 1.901159e-002 4.763810e-003 1.153749e-002 7.569870e-003 
<VARIANCE> 36
7.317189e-001 1.644123e+000 2.496216e+000 3.827655e+000 5.268764e+000 6.242583e+000 7.307556e+000 8.404126e+000 8.569456e+000 9.152251e+000 8.353292e+000 8.072693e+000 8.980769e-002 1.877541e-001 2.865795e-001 4.489096e-001 5.735841e-001 6.584074e-001 7.998423e-001 9.530335e-001 9.769800e-001 1.039402e+000 9.604768e-001 9.520363e-001 5.000000e-002 5.000000e-002 5.953524e-002 9.252652e-002 1.170901e-001 1.305477e-001 1.616584e-001 1.939573e-001 2.019930e-001 2.169464e-001 2.002617e-001 2.008509e-001 
<GCONST> 5.215979e+001
<STATE> 17
<MEAN> 36
-1.291018e+001 -9.535829e-001 -8.596272e-001 2.537199e+000 2.767754e+000 4.390526e+000 4.254895e+000 4.519127e+000 2.791496e+000 1.552062e+000 3.857550e-001 1.715900e-002 1.724796e-001 8.965662e-002 -1.069697e-002 2.977384e-003 4.495168e-002 1.017581e-001 6.546134e-002 -3.086795e-002 -1.932925e-001 -2.674770e-001 -6.741035e-002 6.886053e-002 8.030742e-002 3.654104e-002 2.943044e-002 1.115394e-002 -1.053711e-001 -2.825538e-001 -4.069251e-001 -3.362915e-001 -1.933766e-001 -5.312464e-002 9.647738e-002 1.418949e-001 
<VARIANCE> 36
1.404408e+000 3.582105e+000 3.022050e+000 4.147286e+000 6.870325e+000 7.833429e+000 9.353134e+000 8.180122e+000 1.224099e+001 1.176934e+001 1.143553e+001 8.634440e+000 1.490091e-001 2.544413e-001 3.967825e-001 5.495437e-001 6.297395e-001 1.098047e+000 1.287621e+000 1.099684e+000 1.391970e+000 1.005320e+000 1.016962e+000 7.185192e-001 5.000000e-002 6.738546e-002 7.077717e-002 9.509947e-002 1.261236e-001 1.403261e-001 1.543242e-001 1.842430e-001 2.188218e-001 2.330918e-001 2.593530e-001 1.535897e-001 
<GCONST> 5.891162e+001
<STATE> 18
<MEAN> 36
-1.211480e+001 -2.563747e-002 -2.905766e-001 2.511054e+000 1.608176e+000 2.257368e+000 1.387345e+000 1.424419e+000 3.831334e-001 -1.586100e-001 5.192779e-001 9.876865e-001 9.322725e-002 -2.391121e-001 -1.681024e-001 -7.433232e-003 -1.207283e-001 -3.626292e-001 -5.458974e-001 -2.838592e-001 -7.329106e-002 1.455351e-001 3.838845e-001 1.746627e-001 -3.793993e-002 -1.641498e-001 -9.279214e-002 3.408995e-002 1.220103e-001 7.094007e-002 3.983724e-002 1.943437e-001 2.058160e-001 2.427781e-001 1.111942e-001 -8.226642e-002 
<VARIANCE> 36
1.340065e+000 3.141882e+000 3.274747e+000 4.374925e+000 6.298337e+000 8.514789e+000 1.376679e+001 1.261964e+001 1.207725e+001 1.050777e+001 8.719610e+000 9.621321e+000 1.947846e-001 2.830651e-001 5.526786e-001 4.918517e-001 6.331020e-001 8.104078e-001 1.360932e+000 1.456205e+000 1.271948e+000 1.159616e+000 1.161215e+000 1.107220e+000 5.000000e-002 5.000000e-002 8.324328e-002 1.231902e-001 1.234486e-001 1.680269e-001 2.479602e-001 2.725975e-001 2.365521e-001 1.987524e-001 1.952009e-001 1.802222e-001 
<GCONST> 6.158610e+001
<STATE> 19
<MEAN> 36
-1.228777e+001 -1.932316e+000 -1.622910e+000 1.907514e+000 1.285945e+000 2.359483e+000 1.426127e+000 3.202810e+000 2.041042e+000 1.896088e+000 2.362841e+000 5.270163e-001 9.611097e-002 -2.344467e-001 -5.633864e-002 1.700473e-001 3.875311e-001 1.758303e-001 -3.908735e-002 1.300451e-001 7.415619e-002 1.669621e-001 1.370250e-001 -3.765101e-002 3.882698e-002 8.123193e-003 7.258681e-002 8.613056e-002 1.919304e-001 7.259376e-002 5.254037e-002 3.186439e-002 -8.549463e-002 -1.480412e-001 -1.960987e-001 -8.079409e-002 
<VARIANCE> 36
1.995043e+000 6.360121e+000 7.893713e+000 6.405221e+000 8.500287e+000 9.573965e+000 1.618147e+001 2.007446e+001 1.312520e+001 1.240089e+001 1.308847e+001 1.297450e+001 2.040359e-001 6.569312e-001 7.455218e-001 6.838675e-001 7.889471e-001 9.441730e-001 1.187460e+000 1.559781e+000 1.297040e+000 1.093032e+000 1.206591e+000 1.012306e+000 5.000000e-002 8.261100e-002 1.151402e-001 1.265484e-001 1.632611e-001 1.579503e-001 2.189815e-001 2.687526e-001 2.268462e-001 1.754726e-001 2.524674e-001 2.417650e-001 
<GCONST> 6.899587e+001
<STATE> 20
<MEAN> 36
-1.126577e+001 -5.210924e-001 3.136718e-001 4.056715e+000 4.497881e+000 4.534748e+000 2.774999e+000 3.923053e+000 1.901329e+000 1.280758e+000 7.038089e-001 -8.440778e-002 1.177970e-001 -3.989751e-001 1.754716e-003 1.853395e-001 4.577612e-001 7.884241e-002 -1.646836e-001 1.259285e-001 -1.956651e-001 -4.406600e-002 -1.112963e-001 -3.244326e-001 -4.881789e-002 -2.075740e-001 -1.023622e-001 -1.160104e-001 -9.225185e-002 -9.777480e-002 -6.974560e-002 1.196850e-002 -9.045174e-002 1.067906e-002 8.800849e-002 3.091469e-002 
<VARIANCE> 36
2.746965e+000 7.158585e+000 1.072595e+001 7.729001e+000 8.652727e+000 1.827029e+001 2.336238e+001 2.023046e+001 1.392323e+001 1.313956e+001 8.347353e+000 1.403953e+001 2.160906e-001 4.802722e-001 6.378169e-001 8.432082e-001 1.360578e+000 1.271192e+000 1.266446e+000 1.370297e+000 9.593591e-001 1.168173e+000 1.061602e+000 1.169241e+000 5.000000e-002 5.000000e-002 9.792697e-002 1.355218e-001 1.960504e-001 2.037585e-001 2.349443e-001 2.203881e-001 2.062714e-001 2.021278e-001 1.988121e-001 2.041749e-001 
<GCONST> 7.042180e+001
<STATE> 21
<MEAN> 36
-1.265338e+001 -4.510073e+000 1.096173e+000 2.617106e+000 2.743660e+000 3.224306e+000 8.635965e-001 4.022059e+000 -7.080524e-002 1.118093e+000 2.465668e+000 -1.651228e-002 -3.167317e-002 -9.361444e-001 -7.375034e-002 -2.286606e-001 3.439304e-001 -1.125990e-001 -3.584234e-001 2.585554e-001 -4.405578e-001 7.557399e-002 2.104570e-001 4.805620e-003 4.246040e-002 -2.092429e-001 -6.117005e-002 -1.099553e-001 3.043085e-002 -1.235444e-002 -7.297216e-002 -2.581829e-002 -5.728757e-002 -1.193817e-003 -7.982894e-003 5.950166e-002 
<VARIANCE> 36
4.614523e+000 1.548667e+001 2.572632e+001 1.410964e+001 1.822653e+001 2.373120e+001 2.498636e+001 2.869124e+001 2.103225e+001 2.183497e+001 1.292364e+001 2.115967e+001 2.983548e-001 1.608255e+000 1.245983e+000 1.006058e+000 1.194581e+000 1.124572e+000 1.175629e+000 1.874187e+000 1.316355e+000 1.232467e+000 1.304596e+000 1.360060e+000 5.000000e-002 2.639228e-001 1.526912e-001 1.712816e-001 1.681386e-001 2.156699e-001 2.466018e-001 3.751253e-001 2.421737e-001 2.078724e-001 2.477770e-001 2.396206e-001 
<GCONST> 8.286465e+001
<STATE> 22
<MEAN> 36
-1.189156e+001 -1.294122e+001 -2.480005e+000 5.514244e+000 9.151087e+000 4.070391e+000 -3.077880e+000 4.371144e+000 6.639414e-001 9.168879e-001 1.144741e+000 -5.462221e-001 -6.333759e-003 -1.117729e+000 1.526640e-001 -2.301802e-001 3.160589e-001 1.696061e-001 -2.641067e-001 1.573891e-001 -4.371600e-001 -1.065322e-001 7.509021e-002 -1.495628e-002 9.471787e-004 5.655181e-002 1.011948e-001 -7.161640e-002 -5.634558e-002 3.489063e-002 4.988161e-002 -3.516694e-002 -7.351240e-002 -2.643161e-003 -9.403094e-003 1.646068e-003 
<VARIANCE> 36
6.514626e+000 8.057297e+001 3.173547e+001 2.463521e+001 3.355266e+001 3.720793e+001 3.554060e+001 4.531697e+001 3.582547e+001 3.451115e+001 1.416790e+001 2.827008e+001 2.939039e-001 1.486797e+000 1.338604e+000 1.209447e+000 1.192081e+000 1.180425e+000 1.309951e+000 1.666795e+000 1.607684e+000 1.276776e+000 1.075930e+000 1.117231e+000 5.021788e-002 1.561613e-001 1.626592e-001 1.574776e-001 2.316660e-001 2.017141e-001 2.581597e-001 2.878956e-001 2.717145e-001 2.377043e-001 2.331565e-001 2.149493e-001 
<GCONST> 8.848600e+001
<STATE> 23
<MEAN> 36
-9.770806e+000 -1.228989e+001 -7.199718e-001 -4.210697e-001 8.017278e+000 1.217814e+000 -4.279653e+000 2.303028e+000 -5.551005e+000 7.866119e-001 1.302562e+000 9.309946e-001 2.920529e-001 -6.128831e-001 5.295006e-002 -4.663612e-002 5.405335e-001 -3.130095e-001 -4.470673e-001 -6.506937e-002 -3.608311e-001 -8.876229e-002 -2.763027e-001 5.406094e-002 -2.121766e-002 1.468926e-001 5.580286e-002 7.579074e-002 -3.565777e-003 9.847318e-003 2.974239e-002 2.318348e-002 8.019290e-002 -2.193516e-002 -5.525361e-002 -2.534383e-002 
<VARIANCE> 36
6.231244e+001 1.014729e+002 1.170642e+002 3.507929e+001 7.730937e+001 1.151369e+002 1.194032e+002 1.118488e+002 3.105979e+001 4.824158e+001 2.608280e+001 3.020119e+001 1.373310e+000 1.911677e+000 2.043000e+000 1.456066e+000 1.673890e+000 2.332552e+000 2.904837e+000 2.486967e+000 1.629007e+000 1.507198e+000 1.398669e+000 1.233050e+000 1.698897e-001 1.944486e-001 3.224019e-001 2.785236e-001 2.583420e-001 3.572169e-001 4.015181e-001 3.840800e-001 2.898410e-001 2.797376e-001 2.770810e-001 2.238262e-001 
<GCONST> 1.072835e+002
<TRANSP> 25
0.000000e+000 1.000000e+000 0.000000e+000 0.000000e+000 0.000000e+000 0.000000e+000 0.000000e+000 0.000000e+000 0.000000e+000 0.000000e+000 0.000000e+000 0.000000e+000 0.000000e+000 0.000000e+000 0.000000e+000 0.000000e+000 0.000000e+000 0.000000e+000 0.000000e+000 0.000000e+000 0.000000e+000 0.000000e+000 0.000000e+000 0.000000e+000 0.000000e+000 
0.000000e+000 7.038754e-001 2.961246e-001 0.000000e+000 0.000000e+000 0.000000e+000 0.000000e+000 0.000000e+000 0.000000e+000 0.000000e+000 0.000000e+000 0.000000e+000 0.000000e+000 0.000000e+000 0.000000e+000 0.000000e+000 0.000000e+000 0.000000e+000 0.000000e+000 0.000000e+000 0.000000e+000 0.000000e+000 0.000000e+000 0.000000e+000 0.000000e+000 
0.000000e+000 0.000000e+000 8.246732e-001 1.753268e-001 0.000000e+000 0.000000e+000 0.000000e+000 0.000000e+000 0.000000e+000 0.000000e+000 0.000000e+000 0.000000e+000 0.000000e+000 0.000000e+000 0.000000e+000 0.000000e+000 0.000000e+000 0.000000e+000 0.000000e+000 0.000000e+000 0.000000e+000 0.000000e+000 0.000000e+000 0.000000e+000 0.000000e+000 
0.000000e+000 0.000000e+000 0.000000e+000 7.572663e-001 2.427338e-001 0.000000e+000 0.000000e+000 0.000000e+000 0.000000e+000 0.000000e+000 0.000000e+000 0.000000e+000 0.000000e+000 0.000000e+000 0.000000e+000 0.000000e+000 0.000000e+000 0.000000e+000 0.000000e+000 0.000000e+000 0.000000e+000 0.000000e+000 0.000000e+000 0.000000e+000 0.000000e+000 
0.000000e+000 0.000000e+000 0.000000e+000 0.000000e+000 6.106709e-001 3.893291e-001 0.000000e+000 0.000000e+000 0.000000e+000 0.000000e+000 0.000000e+000 0.000000e+000 0.000000e+000 0.000000e+000 0.000000e+000 0.000000e+000 0.000000e+000 0.000000e+000 0.000000e+000 0.000000e+000 0.000000e+000 0.000000e+000 0.000000e+000 0.000000e+000 0.000000e+000 
0.000000e+000 0.000000e+000 0.000000e+000 0.000000e+000 0.000000e+000 8.905003e-001 1.094998e-001 0.000000e+000 0.000000e+000 0.000000e+000 0.000000e+000 0.000000e+000 0.000000e+000 0.000000e+000 0.000000e+000 0.000000e+000 0.000000e+000 0.000000e+000 0.000000e+000 0.000000e+000 0.000000e+000 0.000000e+000 0.000000e+000 0.000000e+000 0.000000e+000 
0.000000e+000 0.000000e+000 0.000000e+000 0.000000e+000 0.000000e+000 0.000000e+000 5.531523e-001 4.468478e-001 0.000000e+000 0.000000e+000 0.000000e+000 0.000000e+000 0.000000e+000 0.000000e+000 0.000000e+000 0.000000e+000 0.000000e+000 0.000000e+000 0.000000e+000 0.000000e+000 0.000000e+000 0.000000e+000 0.000000e+000 0.000000e+000 0.000000e+000 
0.000000e+000 0.000000e+000 0.000000e+000 0.000000e+000 0.000000e+000 0.000000e+000 0.000000e+000 9.289435e-001 7.105645e-002 0.000000e+000 0.000000e+000 0.000000e+000 0.000000e+000 0.000000e+000 0.000000e+000 0.000000e+000 0.000000e+000 0.000000e+000 0.000000e+000 0.000000e+000 0.000000e+000 0.000000e+000 0.000000e+000 0.000000e+000 0.000000e+000 
0.000000e+000 0.000000e+000 0.000000e+000 0.000000e+000 0.000000e+000 0.000000e+000 0.000000e+000 0.000000e+000 4.971029e-001 5.028970e-001 0.000000e+000 0.000000e+000 0.000000e+000 0.000000e+000 0.000000e+000 0.000000e+000 0.000000e+000 0.000000e+000 0.000000e+000 0.000000e+000 0.000000e+000 0.000000e+000 0.000000e+000 0.000000e+000 0.000000e+000 
0.000000e+000 0.000000e+000 0.000000e+000 0.000000e+000 0.000000e+000 0.000000e+000 0.000000e+000 0.000000e+000 0.000000e+000 9.273588e-001 7.264112e-002 0.000000e+000 0.000000e+000 0.000000e+000 0.000000e+000 0.000000e+000 0.000000e+000 0.000000e+000 0.000000e+000 0.000000e+000 0.000000e+000 0.000000e+000 0.000000e+000 0.000000e+000 0.000000e+000 
0.000000e+000 0.000000e+000 0.000000e+000 0.000000e+000 0.000000e+000 0.000000e+000 0.000000e+000 0.000000e+000 0.000000e+000 0.000000e+000 4.435710e-001 5.564289e-001 0.000000e+000 0.000000e+000 0.000000e+000 0.000000e+000 0.000000e+000 0.000000e+000 0.000000e+000 0.000000e+000 0.000000e+000 0.000000e+000 0.000000e+000 0.000000e+000 0.000000e+000 
0.000000e+000 0.000000e+000 0.000000e+000 0.000000e+000 0.000000e+000 0.000000e+000 0.000000e+000 0.000000e+000 0.000000e+000 0.000000e+000 0.000000e+000 8.469278e-001 1.530722e-001 0.000000e+000 0.000000e+000 0.000000e+000 0.000000e+000 0.000000e+000 0.000000e+000 0.000000e+000 0.000000e+000 0.000000e+000 0.000000e+000 0.000000e+000 0.000000e+000 
0.000000e+000 0.000000e+000 0.000000e+000 0.000000e+000 0.000000e+000 0.000000e+000 0.000000e+000 0.000000e+000 0.000000e+000 0.000000e+000 0.000000e+000 0.000000e+000 5.519660e-001 4.480340e-001 0.000000e+000 0.000000e+000 0.000000e+000 0.000000e+000 0.000000e+000 0.000000e+000 0.000000e+000 0.000000e+000 0.000000e+000 0.000000e+000 0.000000e+000 
0.000000e+000 0.000000e+000 0.000000e+000 0.000000e+000 0.000000e+000 0.000000e+000 0.000000e+000 0.000000e+000 0.000000e+000 0.000000e+000 0.000000e+000 0.000000e+000 0.000000e+000 6.247882e-001 3.752119e-001 0.000000e+000 0.000000e+000 0.000000e+000 0.000000e+000 0.000000e+000 0.000000e+000 0.000000e+000 0.000000e+000 0.000000e+000 0.000000e+000 
0.000000e+000 0.000000e+000 0.000000e+000 0.000000e+000 0.000000e+000 0.000000e+000 0.000000e+000 0.000000e+000 0.000000e+000 0.000000e+000 0.000000e+000 0.000000e+000 0.000000e+000 0.000000e+000 5.548993e-001 4.451007e-001 0.000000e+000 0.000000e+000 0.000000e+000 0.000000e+000 0.000000e+000 0.000000e+000 0.000000e+000 0.000000e+000 0.000000e+000 
0.000000e+000 0.000000e+000 0.000000e+000 0.000000e+000 0.000000e+000 0.000000e+000 0.000000e+000 0.000000e+000 0.000000e+000 0.000000e+000 0.000000e+000 0.000000e+000 0.000000e+000 0.000000e+000 0.000000e+000 4.693447e-001 5.306553e-001 0.000000e+000 0.000000e+000 0.000000e+000 0.000000e+000 0.000000e+000 0.000000e+000 0.000000e+000 0.000000e+000 
0.000000e+000 0.000000e+000 0.000000e+000 0.000000e+000 0.000000e+000 0.000000e+000 0.000000e+000 0.000000e+000 0.000000e+000 0.000000e+000 0.000000e+000 0.000000e+000 0.000000e+000 0.000000e+000 0.000000e+000 0.000000e+000 9.534097e-001 4.659030e-002 0.000000e+000 0.000000e+000 0.000000e+000 0.000000e+000 0.000000e+000 0.000000e+000 0.000000e+000 
0.000000e+000 0.000000e+000 0.000000e+000 0.000000e+000 0.000000e+000 0.000000e+000 0.000000e+000 0.000000e+000 0.000000e+000 0.000000e+000 0.000000e+000 0.000000e+000 0.000000e+000 0.000000e+000 0.000000e+000 0.000000e+000 0.000000e+000 4.747211e-001 5.252789e-001 0.000000e+000 0.000000e+000 0.000000e+000 0.000000e+000 0.000000e+000 0.000000e+000 
0.000000e+000 0.000000e+000 0.000000e+000 0.000000e+000 0.000000e+000 0.000000e+000 0.000000e+000 0.000000e+000 0.000000e+000 0.000000e+000 0.000000e+000 0.000000e+000 0.000000e+000 0.000000e+000 0.000000e+000 0.000000e+000 0.000000e+000 0.000000e+000 5.678567e-001 4.321433e-001 0.000000e+000 0.000000e+000 0.000000e+000 0.000000e+000 0.000000e+000 
0.000000e+000 0.000000e+000 0.000000e+000 0.000000e+000 0.000000e+000 0.000000e+000 0.000000e+000 0.000000e+000 0.000000e+000 0.000000e+000 0.000000e+000 0.000000e+000 0.000000e+000 0.000000e+000 0.000000e+000 0.000000e+000 0.000000e+000 0.000000e+000 0.000000e+000 6.481127e-001 3.518872e-001 0.000000e+000 0.000000e+000 0.000000e+000 0.000000e+000 
0.000000e+000 0.000000e+000 0.000000e+000 0.000000e+000 0.000000e+000 0.000000e+000 0.000000e+000 0.000000e+000 0.000000e+000 0.000000e+000 0.000000e+000 0.000000e+000 0.000000e+000 0.000000e+000 0.000000e+000 0.000000e+000 0.000000e+000 0.000000e+000 0.000000e+000 0.000000e+000 6.057313e-001 3.942687e-001 0.000000e+000 0.000000e+000 0.000000e+000 
0.000000e+000 0.000000e+000 0.000000e+000 0.000000e+000 0.000000e+000 0.000000e+000 0.000000e+000 0.000000e+000 0.000000e+000 0.000000e+000 0.000000e+000 0.000000e+000 0.000000e+000 0.000000e+000 0.000000e+000 0.000000e+000 0.000000e+000 0.000000e+000 0.000000e+000 0.000000e+000 0.000000e+000 5.750251e-001 4.249749e-001 0.000000e+000 0.000000e+000 
0.000000e+000 0.000000e+000 0.000000e+000 0.000000e+000 0.000000e+000 0.000000e+000 0.000000e+000 0.000000e+000 0.000000e+000 0.000000e+000 0.000000e+000 0.000000e+000 0.000000e+000 0.000000e+000 0.000000e+000 0.000000e+000 0.000000e+000 0.000000e+000 0.000000e+000 0.000000e+000 0.000000e+000 0.000000e+000 7.222328e-001 2.777673e-001 0.000000e+000 
0.000000e+000 0.000000e+000 0.000000e+000 0.000000e+000 0.000000e+000 0.000000e+000 0.000000e+000 0.000000e+000 0.000000e+000 0.000000e+000 0.000000e+000 0.000000e+000 0.000000e+000 0.000000e+000 0.000000e+000 0.000000e+000 0.000000e+000 0.000000e+000 0.000000e+000 0.000000e+000 0.000000e+000 0.000000e+000 0.000000e+000 7.515399e-001 2.484601e-001 
0.000000e+000 0.000000e+000 0.000000e+000 0.000000e+000 0.000000e+000 0.000000e+000 0.000000e+000 0.000000e+000 0.000000e+000 0.000000e+000 0.000000e+000 0.000000e+000 0.000000e+000 0.000000e+000 0.000000e+000 0.000000e+000 0.000000e+000 0.000000e+000 0.000000e+000 0.000000e+000 0.000000e+000 0.000000e+000 0.000000e+000 0.000000e+000 0.000000e+000 
