<HMMNAME> 7
<HMMSTATES> 25
<STATE> 1
<MEAN> 36
-8.900086e+000 -1.442644e+001 -1.378558e+001 1.221363e+000 1.042219e+001 7.781205e+000 2.488533e+000 3.291054e+000 -1.204947e+000 4.419577e-001 -3.450964e+000 -1.581819e+000 2.256538e-002 -1.078807e+000 -2.102994e-002 4.744310e-001 -1.149117e-001 2.434884e-001 1.873719e-001 -7.743290e-002 -3.732027e-001 -3.858798e-001 5.864824e-002 1.190997e-003 -8.618614e-002 2.961893e-002 2.313356e-001 1.083343e-002 -1.026883e-001 4.858810e-002 6.507175e-002 5.810863e-003 5.616460e-002 7.029134e-002 1.109667e-001 8.313190e-002 
<VARIANCE> 36
3.998121e+000 9.425042e+001 3.250129e+001 5.081281e+001 8.827237e+000 6.580966e+000 1.010737e+001 2.629717e+001 1.736506e+001 1.575126e+001 1.084578e+001 1.300269e+001 4.114738e-001 2.085125e+000 2.778361e+000 9.732331e-001 9.123040e-001 7.656519e-001 1.009152e+000 8.799132e-001 1.595148e+000 1.621019e+000 1.305522e+000 1.201287e+000 9.983559e-002 1.968265e-001 7.373944e-001 1.905516e-001 1.152637e-001 1.490126e-001 1.535305e-001 1.854240e-001 3.607252e-001 3.228762e-001 2.753669e-001 2.943190e-001 
<GCONST> 8.329555e+001
<STATE> 2
<MEAN> 36
-8.707071e+000 -3.189950e+001 -1.170106e+001 4.903443e+000 8.412864e+000 1.219015e+001 4.160611e+000 1.973946e+000 -3.287868e+000 -2.661117e+000 -2.168612e+000 6.622636e-001 -1.510712e-001 -7.852788e-001 7.178144e-001 -7.238138e-001 9.353487e-002 4.789097e-003 -1.246681e-001 4.165778e-001 -6.549932e-002 1.375675e-001 7.250699e-002 -1.856803e-003 2.745952e-003 1.536938e-001 -1.272074e-002 -8.220192e-002 5.949301e-002 -1.135737e-001 -4.772641e-002 1.059828e-001 3.375908e-002 -3.001126e-002 -7.467234e-002 -7.919723e-002 
<VARIANCE> 36
1.340662e+000 9.084450e+000 9.098833e+000 1.067650e+001 7.994773e+000 1.000119e+001 4.741584e+000 1.002454e+001 1.313349e+001 1.456201e+001 8.302939e+000 1.264508e+001 1.145945e-001 3.572879e-001 4.177721e-001 3.072357e-001 4.388311e-001 1.041533e+000 8.423892e-001 8.317324e-001 9.023267e-001 1.433038e+000 8.735332e-001 1.963716e+000 5.000000e-002 5.006394e-002 8.446198e-002 6.412106e-002 9.808970e-002 2.047376e-001 2.349440e-001 1.568167e-001 2.120594e-001 2.795059e-001 2.346019e-001 4.007589e-001 
<GCONST> 6.219178e+001
<STATE> 3
<MEAN> 36
-9.835347e+000 -3.442865e+001 -6.783307e+000 8.776207e-001 9.297877e+000 1.188279e+001 2.112698e+000 4.193923e+000 -6.411923e+000 -1.589123e+000 -4.712424e-001 -1.042729e+000 4.204462e-002 -1.493115e-001 2.860763e-001 -9.498247e-001 -2.005422e-001 1.790981e-001 2.300782e-001 8.927833e-001 -2.722291e-001 -3.680211e-001 -4.758817e-002 -1.045307e-001 8.695134e-002 1.676456e-001 -9.373097e-002 -2.270702e-002 -2.819642e-001 2.869209e-002 -2.249980e-002 7.894045e-002 1.302488e-001 -1.848232e-001 -2.182430e-001 4.222896e-004 
<VARIANCE> 36
1.170589e+000 1.594672e+000 4.308436e+000 6.091623e+000 1.046786e+001 5.128345e+000 5.513452e+000 6.190043e+000 4.868217e+000 1.089480e+001 3.833691e+000 1.254588e+001 5.000000e-002 1.711811e-001 3.397033e-001 3.852816e-001 3.392133e-001 1.124449e+000 7.968566e-001 4.497726e-001 1.374031e-001 8.943838e-001 6.887991e-001 4.822801e-001 5.000000e-002 5.000000e-002 8.915481e-002 7.473214e-002 7.974222e-002 1.561886e-001 1.515465e-001 1.354603e-001 2.175442e-001 2.811486e-001 1.889112e-001 5.645044e-001 
<GCONST> 4.912327e+001
<STATE> 4
<MEAN> 36
-8.873909e+000 -3.393083e+001 -8.257718e+000 -3.139539e+000 8.914325e+000 1.246003e+001 2.467614e+000 7.008304e+000 -5.915633e+000 -3.147428e+000 -2.499273e+000 -2.117194e+000 1.375906e-001 4.082916e-001 -1.583933e-001 -3.967696e-002 -9.036752e-002 8.818578e-002 1.093534e-001 1.037648e-001 -1.252442e-002 -9.512156e-002 -3.109527e-002 -1.636623e-001 1.436294e-002 1.415633e-001 -4.351120e-002 1.244560e-001 3.472561e-002 1.300561e-002 4.658373e-002 -6.264021e-002 1.611742e-002 2.355192e-003 -2.423057e-003 1.906240e-002 
<VARIANCE> 36
2.393320e+000 6.110510e+000 6.351510e+000 8.046301e+000 8.281849e+000 1.342771e+001 9.726249e+000 1.000577e+001 1.264397e+001 1.347149e+001 1.149866e+001 1.180894e+001 1.374808e-001 5.208025e-001 4.442476e-001 7.150234e-001 5.868070e-001 8.049289e-001 9.039264e-001 8.527450e-001 1.028422e+000 9.264003e-001 9.073349e-001 1.357960e+000 5.000000e-002 5.000000e-002 8.227372e-002 6.070668e-002 1.346600e-001 1.580160e-001 1.632697e-001 1.582319e-001 2.135087e-001 1.991780e-001 1.941322e-001 2.906282e-001 
<GCONST> 6.265533e+001
<STATE> 5
<MEAN> 36
-5.970896e+000 -1.525521e+001 -7.138297e+000 1.764094e+000 1.024937e+001 1.537682e+001 7.938299e+000 7.871101e+000 -4.045566e+000 -5.107714e+000 -3.959015e+000 -3.841107e+000 6.533013e-001 1.852259e+000 6.134638e-001 3.660338e-001 5.478067e-001 3.968830e-001 3.969053e-001 1.013692e-001 1.184698e-001 -2.785903e-001 -6.514559e-001 -5.651675e-001 1.067952e-001 -1.744702e-001 -1.665807e-002 -8.754093e-002 -6.159157e-005 -7.371888e-002 -1.598201e-001 -2.335122e-002 -2.052644e-002 -6.704030e-002 -1.646857e-001 -2.037847e-001 
<VARIANCE> 36
6.199226e+000 4.911391e+001 1.768651e+001 9.118550e+000 9.824853e+000 1.450396e+001 1.490986e+001 1.453384e+001 1.007329e+001 1.413457e+001 1.654253e+001 1.744633e+001 6.601642e-001 1.212700e+000 1.069532e+000 6.683760e-001 6.677094e-001 9.329426e-001 1.702571e+000 1.212616e+000 9.800325e-001 1.372186e+000 2.139950e+000 3.051802e+000 6.683370e-002 1.646893e-001 2.813518e-001 1.018434e-001 1.138870e-001 2.226614e-001 4.122347e-001 2.341417e-001 1.706912e-001 2.666321e-001 4.047993e-001 5.785933e-001 
<GCONST> 8.117727e+001
<STATE> 6
<MEAN> 36
1.163535e+000 -8.720212e+000 -6.255965e+000 2.978513e+000 1.621158e+001 1.859805e+001 6.672868e+000 6.012143e+000 -3.337634e+000 -8.640281e+000 -1.193380e+001 -1.092614e+001 1.379680e+000 2.915730e-002 -9.695601e-001 2.688669e-002 -1.241148e-001 -1.036542e+000 -1.548985e+000 -1.537130e-001 6.933939e-001 -9.116920e-001 -2.070058e+000 -2.091814e+000 -3.847080e-001 1.225582e-001 3.307192e-002 -2.477867e-001 -5.867372e-001 -3.424171e-001 2.024194e-001 2.919563e-001 1.320071e-001 2.506731e-001 5.744018e-001 6.514779e-001 
<VARIANCE> 36
4.468774e+000 4.640042e+000 5.181003e+000 9.674064e+000 8.594944e+000 1.598249e+001 9.390828e+000 1.091087e+001 5.081122e+000 8.404759e+000 4.205168e+000 1.437586e+001 1.706138e-001 4.973853e-001 4.408615e-001 6.521617e-001 2.240119e-001 2.117000e-001 1.089644e+000 8.960575e-001 7.728568e-001 2.808816e-001 9.644998e-001 6.892192e-001 5.000000e-002 5.000000e-002 9.040702e-002 1.254338e-001 1.436132e-001 1.129377e-001 5.000000e-002 1.203898e-001 1.579880e-001 5.000000e-002 1.563961e-001 2.509859e-001 
<GCONST> 5.401277e+001
<STATE> 7
<MEAN> 36
3.036489e+000 -6.446358e+000 -6.794883e+000 1.991892e+000 1.191474e+001 1.446735e+001 5.926861e+000 6.287161e+000 -3.187461e+000 -7.890839e+000 -1.403997e+001 -1.326122e+001 3.123256e-001 4.293086e-001 -2.756238e-001 -3.243018e-001 -5.643456e-001 -7.800073e-001 -4.514217e-001 -1.840834e-001 7.214968e-002 -3.087573e-002 -2.388888e-001 -1.501328e-001 -1.114699e-001 1.971448e-002 7.903965e-002 8.899528e-003 -1.132389e-002 -3.818846e-002 -9.640121e-003 1.117944e-002 -1.926239e-002 7.864002e-002 2.321043e-001 2.445627e-001 
<VARIANCE> 36
6.172228e+000 8.602347e+000 5.700204e+000 7.133344e+000 6.742256e+000 1.056482e+001 2.006872e+001 9.037708e+000 9.342797e+000 1.090904e+001 1.482661e+001 8.885611e+000 1.426910e-001 3.022469e-001 3.130231e-001 3.164109e-001 5.205044e-001 4.251167e-001 1.031114e+000 8.124302e-001 6.674056e-001 6.854550e-001 9.981584e-001 8.545941e-001 5.000000e-002 5.791283e-002 5.000000e-002 8.517713e-002 1.171879e-001 6.674913e-002 2.354589e-001 1.474274e-001 1.534481e-001 1.039473e-001 1.362797e-001 1.406083e-001 
<GCONST> 5.712247e+001
<STATE> 8
<MEAN> 36
4.992128e+000 -3.823221e+000 -6.975311e+000 8.644144e-001 8.061064e+000 5.755358e+000 2.923898e-001 5.086995e+000 -2.577844e+000 -5.625278e+000 -1.248988e+001 -1.306772e+001 -1.509227e-001 6.346244e-001 2.345621e-001 6.651988e-002 -8.027673e-002 -3.183501e-001 5.213923e-002 1.315946e-001 3.040179e-001 4.333507e-001 4.748602e-001 1.794228e-001 -1.050818e-001 3.326832e-002 2.916386e-002 4.391647e-002 6.332545e-002 1.895729e-001 1.326140e-001 2.470783e-002 1.423597e-001 1.048024e-001 1.377880e-002 4.806746e-002 
<VARIANCE> 36
4.226452e+000 9.038559e+000 6.031045e+000 1.247035e+001 9.953325e+000 1.096995e+001 2.307974e+001 1.125468e+001 2.221089e+001 1.444880e+001 1.891768e+001 1.385653e+001 1.244160e-001 3.182409e-001 2.538399e-001 2.933798e-001 3.473115e-001 1.037233e+000 1.140992e+000 5.445841e-001 1.174271e+000 5.618907e-001 7.081398e-001 6.760998e-001 5.000000e-002 5.000000e-002 5.000000e-002 5.000000e-002 8.094814e-002 1.193181e-001 1.684472e-001 1.163708e-001 1.948153e-001 1.048755e-001 1.239761e-001 2.017572e-001 
<GCONST> 5.911002e+001
<STATE> 9
<MEAN> 36
-4.838944e-001 1.761461e+000 -3.851044e+000 2.039263e+000 8.471912e+000 9.216436e+000 4.628828e+000 5.274291e+000 5.151598e-001 -3.863098e+000 -9.320949e+000 -8.849147e+000 -8.718236e-001 1.844821e-001 3.815463e-001 1.773508e-001 -2.569988e-001 -1.356390e-001 -4.762691e-002 -2.794355e-001 3.278877e-001 5.608426e-001 6.725934e-001 7.378001e-001 -6.710172e-002 -9.745012e-002 -1.943603e-002 -2.388180e-002 -8.289072e-002 -3.949610e-002 -1.232059e-002 -4.222435e-002 -8.714415e-002 -1.302707e-002 4.055211e-002 2.781756e-002 
<VARIANCE> 36
1.205584e+001 7.613014e+000 7.520686e+000 1.207644e+001 1.486390e+001 1.558598e+001 1.328416e+001 1.082416e+001 1.790666e+001 2.125799e+001 2.436609e+001 1.424961e+001 6.895748e-001 4.175001e-001 4.607316e-001 6.347072e-001 1.350742e+000 1.028815e+000 1.336249e+000 1.216501e+000 1.709012e+000 1.041657e+000 1.968246e+000 1.278924e+000 6.731762e-002 6.486030e-002 8.383225e-002 1.241392e-001 2.662196e-001 1.880318e-001 2.545541e-001 2.362904e-001 3.600997e-001 2.113670e-001 3.192794e-001 2.013994e-001 
<GCONST> 7.611313e+001
<STATE> 10
<MEAN> 36
-8.512897e+000 8.285987e-001 -1.262693e+000 3.613995e+000 5.012987e+000 5.365408e+000 3.097446e+000 5.192894e+000 2.964459e+000 8.012572e-002 -2.159348e+000 -8.321783e-001 -1.480159e-001 -1.955943e-001 -3.372399e-002 5.896798e-002 5.345714e-002 -1.905211e-001 -1.317065e-001 9.120777e-002 9.092224e-002 -6.271811e-003 6.366119e-002 1.770651e-001 9.950582e-002 -9.649364e-002 -4.976278e-002 -2.253809e-002 1.223679e-001 -3.435084e-002 -1.777508e-002 4.144825e-002 -3.270667e-003 -5.383779e-002 -6.956837e-002 -5.755913e-002 
<VARIANCE> 36
1.906967e+000 3.265878e+000 3.073535e+000 6.244935e+000 6.912779e+000 8.032032e+000 1.130639e+001 1.246240e+001 1.224442e+001 1.171328e+001 8.786189e+000 6.040429e+000 1.275347e-001 3.403675e-001 3.026141e-001 5.726010e-001 6.276054e-001 6.567848e-001 1.028361e+000 1.146984e+000 1.188416e+000 1.327999e+000 8.925680e-001 7.693793e-001 5.000000e-002 1.144223e-001 5.251153e-002 9.846124e-002 1.345799e-001 1.571784e-001 2.205025e-001 2.037978e-001 2.278271e-001 2.977343e-001 1.814865e-001 1.575334e-001 
<GCONST> 5.968667e+001
<STATE> 11
<MEAN> 36
-5.690614e+000 -4.847262e+000 -3.134445e+000 2.362957e+000 1.060648e+001 2.487346e+000 1.371471e+000 8.171906e+000 3.737109e+000 -1.403468e+000 -3.523428e+000 -1.927557e+000 1.025098e+000 4.512673e-001 2.141199e-001 -5.195881e-002 6.794625e-001 5.369143e-001 4.950325e-002 2.044155e-001 -1.811145e-001 -3.584164e-001 -3.858280e-001 -7.472124e-001 6.613565e-002 4.695188e-001 1.339770e-001 9.929382e-002 -2.434794e-001 2.247550e-001 -1.530692e-002 -1.859719e-001 -3.364069e-002 1.676734e-002 -1.732277e-001 -2.362883e-001 
<VARIANCE> 36
7.704913e+000 3.229259e+001 6.750842e+000 1.448081e+001 1.738632e+001 3.505628e+001 3.002093e+001 2.370955e+001 1.354062e+001 1.196377e+001 1.666350e+001 1.827991e+001 3.026503e-001 7.158648e+000 1.040820e+000 1.379644e+000 1.834207e+000 4.310599e+000 2.840693e+000 2.632190e+000 1.462822e+000 1.108559e+000 1.183486e+000 2.186376e+000 6.812435e-002 1.099864e+000 2.149843e-001 2.456516e-001 3.059385e-001 7.494365e-001 5.198656e-001 5.429718e-001 3.011238e-001 1.776326e-001 2.178894e-001 3.386137e-001 
<GCONST> 9.289354e+001
<STATE> 12
<MEAN> 36
4.701971e-001 1.974961e+000 -1.990651e+000 2.891713e+000 8.739225e+000 6.304185e+000 -7.337030e-002 4.308656e+000 2.469425e+000 -3.078873e+000 -8.757530e+000 -7.675083e+000 4.492047e-001 -9.619037e-002 -6.015004e-001 -1.630587e-001 -4.694345e-001 -1.279466e-001 -4.441982e-001 -5.489901e-001 -3.339935e-002 -1.259853e-001 -3.133308e-001 -2.061198e-001 -1.017760e-001 -2.555193e-001 -1.138855e-001 -8.521987e-002 6.934649e-002 -1.356756e-001 -4.386408e-002 4.543046e-002 8.476744e-002 1.362060e-001 2.710300e-001 2.637629e-001 
<VARIANCE> 36
4.410119e+000 3.249513e+000 8.524796e+000 6.627782e+000 1.255767e+001 2.971596e+001 1.076218e+001 2.701700e+001 1.466126e+001 9.551407e+000 1.216787e+001 1.643671e+001 2.673223e-001 3.994321e-001 5.488031e-001 5.759727e-001 9.723680e-001 8.939692e-001 6.759180e-001 1.072643e+000 8.731423e-001 1.021795e+000 2.049559e+000 2.017184e+000 5.000000e-002 1.451808e-001 1.161444e-001 1.071242e-001 2.397916e-001 2.251022e-001 1.200717e-001 2.237437e-001 2.067400e-001 2.207241e-001 1.880558e-001 3.119118e-001 
<GCONST> 7.037833e+001
<STATE> 13
<MEAN> 36
1.953315e+000 -3.113577e-001 -5.412210e+000 1.922258e+000 8.266588e+000 6.849850e+000 -1.325418e+000 2.854631e+000 2.430791e+000 -2.859063e+000 -5.637574e+000 -6.896262e+000 2.019899e-001 -2.698206e-001 -4.185223e-001 -2.412339e-001 3.408779e-001 -4.708270e-001 -1.056198e+000 -8.210405e-001 1.054253e-001 6.892162e-001 3.420626e-002 3.256560e-001 -2.014622e-001 3.317642e-001 3.670700e-001 2.236152e-002 6.221339e-002 -3.038111e-001 2.121307e-002 1.265326e-001 -8.410973e-002 6.354229e-002 -2.534211e-001 4.419146e-002 
<VARIANCE> 36
9.776742e+000 6.069952e+000 9.742043e+000 1.219872e+001 2.159777e+001 2.354931e+001 1.265217e+001 2.514822e+001 1.010135e+001 8.814373e+000 1.445662e+001 5.656466e+000 1.111531e-001 2.116706e-001 1.450107e-001 2.022045e+000 8.186453e-001 8.061305e-001 3.382996e-001 9.342054e-001 8.880214e-001 1.784095e+000 2.129718e-001 4.892045e-001 5.000000e-002 6.893689e-002 5.000000e-002 1.854724e-001 1.620906e-001 2.145041e-001 6.997966e-002 3.629297e-001 2.111076e-001 1.399837e-001 3.634573e-001 2.595840e-001 
<GCONST> 6.430128e+001
<STATE> 14
<MEAN> 36
1.362013e+000 6.192921e-001 -5.767012e+000 2.564490e+000 9.938712e+000 5.868184e+000 -2.650054e+000 1.271011e+000 2.033243e+000 -1.873098e+000 -6.020506e+000 -6.622079e+000 2.227063e-002 1.813287e-001 7.093042e-003 -3.180683e-001 3.401653e-001 -8.691191e-001 -1.128724e+000 -6.760414e-001 3.604051e-002 4.041980e-001 -7.612681e-002 4.479936e-001 -1.596638e-001 3.306183e-001 3.443192e-001 -6.821453e-002 -3.149321e-001 -9.311672e-002 3.862331e-001 2.399189e-001 3.461411e-002 4.903227e-002 -1.785630e-001 2.621806e-003 
<VARIANCE> 36
2.908031e+000 2.026913e+000 3.904846e+000 1.411731e+001 1.379699e+001 2.025185e+001 2.462490e+000 1.216725e+001 8.919426e+000 8.961142e+000 1.412765e+001 2.381209e+001 5.000000e-002 1.696733e-001 1.244923e-001 8.300961e-001 7.421318e-001 1.366516e+000 6.858650e-001 8.067623e-001 1.106639e+000 2.113749e+000 1.701313e+000 2.462450e+000 5.000000e-002 5.000000e-002 5.000000e-002 3.083994e-001 2.607299e-001 1.263150e-001 6.644753e-002 2.240396e-001 7.431058e-002 1.919038e-001 1.854440e-001 2.206979e-001 
<GCONST> 6.061419e+001
<STATE> 15
<MEAN> 36
1.403727e+000 6.251982e-001 -4.823525e+000 1.448983e+000 9.588952e+000 4.800402e+000 -5.141023e+000 1.292629e+000 3.313449e+000 -8.728234e-001 -8.640321e+000 -6.565808e+000 -2.780496e-001 5.989050e-001 3.604676e-001 -3.794484e-001 -4.938212e-001 -8.882167e-001 -3.909623e-001 -1.225218e-001 2.118443e-001 6.602229e-001 -3.195399e-001 2.622352e-001 -1.144915e-001 2.245652e-001 1.568165e-001 -5.531664e-002 -4.443796e-001 1.211945e-001 6.547394e-001 1.518797e-001 -1.063950e-002 -1.641885e-002 1.586145e-001 -2.717800e-002 
<VARIANCE> 36
8.026180e+000 1.059088e+001 1.352130e+001 3.312508e+001 2.049969e+001 1.763799e+001 9.455815e+000 1.087005e+001 1.041605e+001 1.641268e+001 4.127384e+000 4.422375e+000 8.069263e-002 1.800030e-001 1.275616e-001 4.476125e-001 4.611034e-001 7.816705e-001 7.524228e-001 1.522485e+000 9.475092e-001 2.839782e-001 1.312943e+000 6.914324e-001 5.000000e-002 5.000000e-002 5.000000e-002 3.442135e-001 2.395035e-001 1.198137e-001 1.159532e-001 8.388676e-002 1.276492e-001 4.950843e-001 1.119840e-001 8.764901e-002 
<GCONST> 6.026786e+001
<STATE> 16
<MEAN> 36
1.814008e+000 8.059240e-001 -5.838644e+000 1.036078e+000 8.892909e+000 3.815831e+000 -5.500865e+000 -5.020948e-001 2.696337e+000 -1.035275e+000 -8.860132e+000 -6.435694e+000 -1.069071e-001 4.735965e-001 5.860705e-001 -4.204814e-001 -1.078292e+000 -1.859560e-001 3.128657e-001 -4.026613e-001 2.454970e-001 6.476648e-001 6.208775e-002 1.471301e-001 3.145677e-002 -9.141361e-002 3.056026e-002 -4.736706e-002 -3.350604e-001 4.235389e-001 3.290063e-001 -9.249651e-002 1.214464e-001 8.934387e-002 2.991401e-001 4.132980e-002 
<VARIANCE> 36
3.276458e+000 3.103320e+000 1.054651e+001 9.959352e+000 8.015338e+000 6.663192e+000 9.571449e+000 4.029082e+001 2.180979e+001 2.652369e+001 1.760780e+001 8.005610e+000 1.011764e-001 5.570501e-001 3.037843e-001 6.191849e-001 9.958597e-001 7.516135e-001 5.882551e-001 8.246652e-001 1.319171e+000 1.244708e+000 9.621765e-001 6.760744e-001 5.000000e-002 7.126284e-002 5.000000e-002 1.163600e-001 6.060581e-002 1.382164e-001 1.973339e-001 1.173241e-001 1.890525e-001 2.978270e-001 2.920575e-001 1.573310e-001 
<GCONST> 6.359583e+001
<STATE> 17
<MEAN> 36
1.847548e+000 6.512617e-001 -4.774034e+000 -2.599335e+000 2.484012e+000 6.415496e+000 -5.083159e+000 -4.162130e+000 6.000921e+000 3.040655e+000 -5.905593e+000 -5.814348e+000 -4.733789e-001 3.417578e-001 4.393648e-001 -3.126570e-001 -9.048840e-001 1.565637e-001 1.094426e+000 3.297494e-001 4.288399e-001 3.209040e-001 9.701239e-001 4.862484e-001 -8.843674e-002 1.741496e-002 -4.238150e-002 1.930915e-001 2.847649e-001 1.648967e-001 1.858930e-001 1.348158e-001 -2.113928e-001 -2.921374e-001 1.080101e-001 1.802478e-001 
<VARIANCE> 36
6.349573e+000 1.474808e+001 9.784849e+000 1.122136e+001 1.292480e+001 1.628751e+001 1.742701e+001 4.339857e+001 1.767358e+001 1.102757e+001 1.837067e+001 3.488926e+000 3.253994e-001 4.945325e-001 5.673366e-001 7.141981e-001 8.579639e-001 5.362774e-001 1.312392e+000 1.847016e+000 6.029505e-001 1.760358e+000 1.227085e+000 7.877456e-001 5.000000e-002 6.025229e-002 9.072670e-002 6.955078e-002 7.954573e-002 1.687250e-001 1.482303e-001 2.153478e-001 1.281338e-001 9.201194e-002 2.986708e-001 1.224407e-001 
<GCONST> 6.784210e+001
<STATE> 18
<MEAN> 36
-4.959801e-001 2.498154e+000 -3.547430e+000 1.304399e+000 6.774755e+000 5.325362e+000 -1.322576e+000 1.261944e+000 3.832100e+000 -6.800547e-003 -5.620656e+000 -4.747139e+000 -3.015780e-001 3.085067e-001 3.928344e-003 1.329322e-002 1.905166e-001 6.383843e-001 1.735490e-001 -6.961751e-001 -8.279792e-001 -2.289025e-001 1.124718e+000 8.304301e-001 -7.680511e-003 -1.563286e-002 5.707381e-002 9.395638e-002 1.939636e-001 5.362783e-002 -1.582156e-001 -1.234865e-001 -1.910701e-001 -8.946211e-002 2.030051e-001 -2.476015e-002 
<VARIANCE> 36
1.868303e+000 4.263106e+000 4.364643e+000 4.156124e+000 1.179421e+001 3.871121e+000 1.435392e+001 1.626930e+001 1.894646e+001 9.611304e+000 1.603603e+001 1.410480e+001 6.463945e-002 1.663715e-001 1.148911e-001 4.745834e-001 5.420310e-001 8.412176e-001 2.658925e+000 7.279155e-001 3.502336e-001 7.682638e-001 1.153005e+000 3.636725e-001 5.000000e-002 5.000000e-002 1.417443e-001 1.533101e-001 2.909174e-001 7.980556e-002 3.769166e-001 5.379634e-002 1.853570e-001 1.991230e-001 1.681289e-001 1.665766e-001 
<GCONST> 5.693236e+001
<STATE> 19
<MEAN> 36
-3.061910e+000 2.405647e+000 -3.041176e+000 -8.126163e-001 4.833017e+000 8.373129e+000 4.631379e+000 3.580294e+000 3.622730e+000 2.531239e+000 1.018600e+000 8.270678e-002 -3.726381e-001 1.720340e-001 3.848379e-001 2.931170e-001 -1.566908e-001 3.081211e-002 2.507767e-001 -2.602510e-003 -1.377728e-001 1.697222e-001 3.708489e-001 1.276125e-001 -5.952613e-002 -7.536746e-003 1.175895e-001 9.073020e-002 -5.280671e-002 -1.154987e-001 -1.565539e-001 4.161559e-004 7.433505e-002 4.769722e-002 -1.272367e-001 -1.490273e-001 
<VARIANCE> 36
5.708002e+000 6.129678e+000 5.798203e+000 1.241531e+001 9.137435e+000 2.026267e+001 2.465563e+001 1.513615e+001 1.661722e+001 1.729411e+001 9.284760e+000 7.512079e+000 1.710966e-001 3.037163e-001 7.435818e-001 7.198093e-001 5.713428e-001 8.210819e-001 6.138578e-001 1.147810e+000 1.200000e+000 1.100006e+000 9.370447e-001 8.465185e-001 5.000000e-002 5.000000e-002 9.602182e-002 1.111534e-001 7.487583e-002 1.797812e-001 1.226642e-001 1.756649e-001 2.146837e-001 2.161473e-001 2.041028e-001 1.631159e-001 
<GCONST> 6.525098e+001
<STATE> 20
<MEAN> 36
-3.871416e+000 5.603343e+000 1.799579e+000 3.388636e+000 3.364098e+000 3.673119e+000 -1.400973e+000 -1.039602e-001 2.649638e+000 1.977656e+000 -6.068103e-001 -3.579906e+000 -7.737481e-001 1.359419e-001 6.149539e-001 5.679531e-001 -1.077546e-002 -2.408751e-002 2.203424e-001 5.420071e-001 3.019235e-001 3.977604e-001 1.928091e-001 2.884154e-001 -5.804425e-002 -2.404517e-001 -3.066561e-001 -1.286064e-001 2.966293e-001 2.860186e-001 4.367695e-001 4.401960e-001 5.561377e-002 5.688695e-002 6.371901e-002 2.484623e-001 
<VARIANCE> 36
8.205725e+000 2.783383e+000 5.156507e+000 6.809133e+000 6.688077e+000 7.201468e+000 1.303515e+001 9.733579e+000 2.284441e+001 1.255635e+001 7.018825e+000 9.568375e+000 1.101014e-001 2.698667e-001 4.909611e-001 3.510369e-001 1.119635e+000 1.507593e+000 1.795004e+000 1.131723e+000 1.425509e+000 5.543517e-001 8.067084e-001 5.654557e-001 5.000000e-002 5.000000e-002 7.267523e-002 6.323521e-002 9.628047e-002 2.107466e-001 2.048050e-001 1.643811e-001 2.579745e-001 1.071365e-001 2.120083e-001 6.444841e-002 
<GCONST> 5.982738e+001
<STATE> 21
<MEAN> 36
-6.573283e+000 3.791855e+000 1.489070e+000 4.724985e+000 6.633300e+000 7.826008e+000 3.829871e+000 4.372627e+000 1.969350e+000 1.917281e+000 1.119238e+000 -7.727115e-001 -9.412886e-001 -6.052375e-001 -2.504347e-001 -2.030273e-001 2.344391e-001 7.480542e-001 1.645908e+000 1.830948e+000 1.009111e+000 7.924357e-001 8.903909e-001 2.035213e-001 2.223602e-001 1.288373e-001 -5.329176e-002 -1.552002e-001 -3.121034e-001 -3.262236e-001 -1.928248e-001 -2.333290e-001 2.109157e-001 1.017240e-001 -3.199452e-002 -9.954941e-002 
<VARIANCE> 36
4.600185e+000 2.288067e+000 4.099159e+000 1.001825e+001 1.213792e+001 1.373481e+001 2.032664e+001 3.545586e+001 2.956627e+001 1.181973e+001 1.132511e+001 4.956196e+000 3.397701e-001 2.277198e-001 2.583186e-001 4.630713e-001 9.367172e-001 1.105050e+000 1.346186e+000 1.509394e+000 1.155554e+000 8.222225e-001 1.192091e+000 9.429396e-001 5.000000e-002 5.448675e-002 5.386349e-002 6.941195e-002 1.768118e-001 1.869028e-001 2.328282e-001 6.114240e-001 2.869364e-001 1.220692e-001 2.427280e-001 1.299419e-001 
<GCONST> 6.627793e+001
<STATE> 22
<MEAN> 36
-9.234847e+000 3.629551e+000 1.724760e+000 4.467950e+000 4.509576e+000 6.615305e+000 5.572612e+000 5.501827e+000 4.453283e+000 3.716432e+000 2.803721e+000 1.581115e+000 -1.467803e-001 -4.419757e-002 2.984084e-002 2.939451e-002 -1.123757e-001 -1.133724e-001 6.268337e-002 -6.086636e-002 -1.004338e-001 -7.244939e-002 -1.738247e-002 1.642490e-001 9.320364e-003 -1.334974e-002 1.208239e-003 1.030430e-002 1.075390e-002 -8.575064e-003 -4.800951e-002 -5.379984e-002 -4.609950e-002 -5.865948e-002 -5.910413e-002 -3.357212e-002 
<VARIANCE> 36
3.210543e+000 3.009511e+000 4.379426e+000 5.551841e+000 7.076681e+000 9.180077e+000 7.639393e+000 9.193036e+000 1.302452e+001 1.273100e+001 6.857235e+000 9.488143e+000 6.830389e-002 1.641324e-001 2.958468e-001 4.235952e-001 5.525811e-001 8.659669e-001 7.197997e-001 9.157316e-001 1.404755e+000 1.510681e+000 7.642961e-001 9.720497e-001 5.000000e-002 5.000000e-002 5.998422e-002 9.017444e-002 8.811430e-002 1.655195e-001 1.225539e-001 1.780753e-001 2.785502e-001 2.992354e-001 1.468311e-001 2.086272e-001 
<GCONST> 5.683423e+001
<STATE> 23
<MEAN> 36
-1.098673e+001 1.734024e+000 6.876778e-001 3.454817e+000 2.479966e+000 5.431870e+000 5.154625e+000 3.944430e+000 1.831020e+000 2.229976e+000 2.046179e+000 2.123939e+000 -1.570175e-001 -2.088799e-001 -9.995131e-002 -3.757817e-002 -1.857902e-001 -3.144444e-001 -4.217554e-001 -1.618693e-001 -3.896340e-002 -1.950910e-001 -2.258497e-001 -4.458702e-002 1.201386e-002 9.567478e-003 7.784964e-003 -2.665437e-002 -1.064486e-003 -4.241733e-002 -8.592858e-002 8.318510e-003 6.700491e-002 6.165691e-002 5.285140e-002 -2.691283e-002 
<VARIANCE> 36
1.091485e+000 2.875397e+000 6.208388e+000 8.943433e+000 1.061725e+001 8.975978e+000 1.475576e+001 1.032018e+001 1.086584e+001 9.812887e+000 9.432940e+000 5.482126e+000 9.615708e-002 2.894050e-001 1.839133e-001 4.863419e-001 6.750376e-001 1.000890e+000 1.670857e+000 1.499848e+000 1.674019e+000 6.819979e-001 8.828251e-001 4.562003e-001 5.000000e-002 5.700798e-002 5.000000e-002 1.032637e-001 1.610199e-001 2.036145e-001 4.178666e-001 2.975380e-001 3.400579e-001 1.447554e-001 1.593416e-001 5.000000e-002 
<GCONST> 5.880289e+001
<TRANSP> 25
0.000000e+000 1.000000e+000 0.000000e+000 0.000000e+000 0.000000e+000 0.000000e+000 0.000000e+000 0.000000e+000 0.000000e+000 0.000000e+000 0.000000e+000 0.000000e+000 0.000000e+000 0.000000e+000 0.000000e+000 0.000000e+000 0.000000e+000 0.000000e+000 0.000000e+000 0.000000e+000 0.000000e+000 0.000000e+000 0.000000e+000 0.000000e+000 0.000000e+000 
0.000000e+000 8.410386e-001 1.589614e-001 0.000000e+000 0.000000e+000 0.000000e+000 0.000000e+000 0.000000e+000 0.000000e+000 0.000000e+000 0.000000e+000 0.000000e+000 0.000000e+000 0.000000e+000 0.000000e+000 0.000000e+000 0.000000e+000 0.000000e+000 0.000000e+000 0.000000e+000 0.000000e+000 0.000000e+000 0.000000e+000 0.000000e+000 0.000000e+000 
0.000000e+000 0.000000e+000 8.105763e-001 1.894235e-001 0.000000e+000 0.000000e+000 0.000000e+000 0.000000e+000 0.000000e+000 0.000000e+000 0.000000e+000 0.000000e+000 0.000000e+000 0.000000e+000 0.000000e+000 0.000000e+000 0.000000e+000 0.000000e+000 0.000000e+000 0.000000e+000 0.000000e+000 0.000000e+000 0.000000e+000 0.000000e+000 0.000000e+000 
0.000000e+000 0.000000e+000 0.000000e+000 3.367946e-003 9.966320e-001 0.000000e+000 0.000000e+000 0.000000e+000 0.000000e+000 0.000000e+000 0.000000e+000 0.000000e+000 0.000000e+000 0.000000e+000 0.000000e+000 0.000000e+000 0.000000e+000 0.000000e+000 0.000000e+000 0.000000e+000 0.000000e+000 0.000000e+000 0.000000e+000 0.000000e+000 0.000000e+000 
0.000000e+000 0.000000e+000 0.000000e+000 0.000000e+000 9.362741e-001 6.372586e-002 0.000000e+000 0.000000e+000 0.000000e+000 0.000000e+000 0.000000e+000 0.000000e+000 0.000000e+000 0.000000e+000 0.000000e+000 0.000000e+000 0.000000e+000 0.000000e+000 0.000000e+000 0.000000e+000 0.000000e+000 0.000000e+000 0.000000e+000 0.000000e+000 0.000000e+000 
0.000000e+000 0.000000e+000 0.000000e+000 0.000000e+000 0.000000e+000 9.080584e-001 9.194160e-002 0.000000e+000 0.000000e+000 0.000000e+000 0.000000e+000 0.000000e+000 0.000000e+000 0.000000e+000 0.000000e+000 0.000000e+000 0.000000e+000 0.000000e+000 0.000000e+000 0.000000e+000 0.000000e+000 0.000000e+000 0.000000e+000 0.000000e+000 0.000000e+000 
0.000000e+000 0.000000e+000 0.000000e+000 0.000000e+000 0.000000e+000 0.000000e+000 0.000000e+000 1.000000e+000 0.000000e+000 0.000000e+000 0.000000e+000 0.000000e+000 0.000000e+000 0.000000e+000 0.000000e+000 0.000000e+000 0.000000e+000 0.000000e+000 0.000000e+000 0.000000e+000 0.000000e+000 0.000000e+000 0.000000e+000 0.000000e+000 0.000000e+000 
0.000000e+000 0.000000e+000 0.000000e+000 0.000000e+000 0.000000e+000 0.000000e+000 0.000000e+000 8.789862e-001 1.210139e-001 0.000000e+000 0.000000e+000 0.000000e+000 0.000000e+000 0.000000e+000 0.000000e+000 0.000000e+000 0.000000e+000 0.000000e+000 0.000000e+000 0.000000e+000 0.000000e+000 0.000000e+000 0.000000e+000 0.000000e+000 0.000000e+000 
0.000000e+000 0.000000e+000 0.000000e+000 0.000000e+000 0.000000e+000 0.000000e+000 0.000000e+000 0.000000e+000 8.369705e-001 1.630295e-001 0.000000e+000 0.000000e+000 0.000000e+000 0.000000e+000 0.000000e+000 0.000000e+000 0.000000e+000 0.000000e+000 0.000000e+000 0.000000e+000 0.000000e+000 0.000000e+000 0.000000e+000 0.000000e+000 0.000000e+000 
0.000000e+000 0.000000e+000 0.000000e+000 0.000000e+000 0.000000e+000 0.000000e+000 0.000000e+000 0.000000e+000 0.000000e+000 9.044397e-001 9.556026e-002 0.000000e+000 0.000000e+000 0.000000e+000 0.000000e+000 0.000000e+000 0.000000e+000 0.000000e+000 0.000000e+000 0.000000e+000 0.000000e+000 0.000000e+000 0.000000e+000 0.000000e+000 0.000000e+000 
0.000000e+000 0.000000e+000 0.000000e+000 0.000000e+000 0.000000e+000 0.000000e+000 0.000000e+000 0.000000e+000 0.000000e+000 0.000000e+000 9.415959e-001 5.840396e-002 0.000000e+000 0.000000e+000 0.000000e+000 0.000000e+000 0.000000e+000 0.000000e+000 0.000000e+000 0.000000e+000 0.000000e+000 0.000000e+000 0.000000e+000 0.000000e+000 0.000000e+000 
0.000000e+000 0.000000e+000 0.000000e+000 0.000000e+000 0.000000e+000 0.000000e+000 0.000000e+000 0.000000e+000 0.000000e+000 0.000000e+000 0.000000e+000 8.572173e-001 1.427827e-001 0.000000e+000 0.000000e+000 0.000000e+000 0.000000e+000 0.000000e+000 0.000000e+000 0.000000e+000 0.000000e+000 0.000000e+000 0.000000e+000 0.000000e+000 0.000000e+000 
0.000000e+000 0.000000e+000 0.000000e+000 0.000000e+000 0.000000e+000 0.000000e+000 0.000000e+000 0.000000e+000 0.000000e+000 0.000000e+000 0.000000e+000 0.000000e+000 8.447309e-001 1.552691e-001 0.000000e+000 0.000000e+000 0.000000e+000 0.000000e+000 0.000000e+000 0.000000e+000 0.000000e+000 0.000000e+000 0.000000e+000 0.000000e+000 0.000000e+000 
0.000000e+000 0.000000e+000 0.000000e+000 0.000000e+000 0.000000e+000 0.000000e+000 0.000000e+000 0.000000e+000 0.000000e+000 0.000000e+000 0.000000e+000 0.000000e+000 0.000000e+000 3.933789e-004 9.996067e-001 0.000000e+000 0.000000e+000 0.000000e+000 0.000000e+000 0.000000e+000 0.000000e+000 0.000000e+000 0.000000e+000 0.000000e+000 0.000000e+000 
0.000000e+000 0.000000e+000 0.000000e+000 0.000000e+000 0.000000e+000 0.000000e+000 0.000000e+000 0.000000e+000 0.000000e+000 0.000000e+000 0.000000e+000 0.000000e+000 0.000000e+000 0.000000e+000 1.274598e-035 1.000000e+000 0.000000e+000 0.000000e+000 0.000000e+000 0.000000e+000 0.000000e+000 0.000000e+000 0.000000e+000 0.000000e+000 0.000000e+000 
0.000000e+000 0.000000e+000 0.000000e+000 0.000000e+000 0.000000e+000 0.000000e+000 0.000000e+000 0.000000e+000 0.000000e+000 0.000000e+000 0.000000e+000 0.000000e+000 0.000000e+000 0.000000e+000 0.000000e+000 7.307419e-018 1.000000e+000 0.000000e+000 0.000000e+000 0.000000e+000 0.000000e+000 0.000000e+000 0.000000e+000 0.000000e+000 0.000000e+000 
0.000000e+000 0.000000e+000 0.000000e+000 0.000000e+000 0.000000e+000 0.000000e+000 0.000000e+000 0.000000e+000 0.000000e+000 0.000000e+000 0.000000e+000 0.000000e+000 0.000000e+000 0.000000e+000 0.000000e+000 0.000000e+000 3.000441e-001 6.999559e-001 0.000000e+000 0.000000e+000 0.000000e+000 0.000000e+000 0.000000e+000 0.000000e+000 0.000000e+000 
0.000000e+000 0.000000e+000 0.000000e+000 0.000000e+000 0.000000e+000 0.000000e+000 0.000000e+000 0.000000e+000 0.000000e+000 0.000000e+000 0.000000e+000 0.000000e+000 0.000000e+000 0.000000e+000 0.000000e+000 0.000000e+000 0.000000e+000 5.625534e-001 4.374466e-001 0.000000e+000 0.000000e+000 0.000000e+000 0.000000e+000 0.000000e+000 0.000000e+000 
0.000000e+000 0.000000e+000 0.000000e+000 0.000000e+000 0.000000e+000 0.000000e+000 0.000000e+000 0.000000e+000 0.000000e+000 0.000000e+000 0.000000e+000 0.000000e+000 0.000000e+000 0.000000e+000 0.000000e+000 0.000000e+000 0.000000e+000 0.000000e+000 5.000491e-001 4.999509e-001 0.000000e+000 0.000000e+000 0.000000e+000 0.000000e+000 0.000000e+000 
0.000000e+000 0.000000e+000 0.000000e+000 0.000000e+000 0.000000e+000 0.000000e+000 0.000000e+000 0.000000e+000 0.000000e+000 0.000000e+000 0.000000e+000 0.000000e+000 0.000000e+000 0.000000e+000 0.000000e+000 0.000000e+000 0.000000e+000 0.000000e+000 0.000000e+000 8.404921e-001 1.595081e-001 0.000000e+000 0.000000e+000 0.000000e+000 0.000000e+000 
0.000000e+000 0.000000e+000 0.000000e+000 0.000000e+000 0.000000e+000 0.000000e+000 0.000000e+000 0.000000e+000 0.000000e+000 0.000000e+000 0.000000e+000 0.000000e+000 0.000000e+000 0.000000e+000 0.000000e+000 0.000000e+000 0.000000e+000 0.000000e+000 0.000000e+000 0.000000e+000 6.971562e-001 3.028438e-001 0.000000e+000 0.000000e+000 0.000000e+000 
0.000000e+000 0.000000e+000 0.000000e+000 0.000000e+000 0.000000e+000 0.000000e+000 0.000000e+000 0.000000e+000 0.000000e+000 0.000000e+000 0.000000e+000 0.000000e+000 0.000000e+000 0.000000e+000 0.000000e+000 0.000000e+000 0.000000e+000 0.000000e+000 0.000000e+000 0.000000e+000 0.000000e+000 5.634275e-001 4.365724e-001 0.000000e+000 0.000000e+000 
0.000000e+000 0.000000e+000 0.000000e+000 0.000000e+000 0.000000e+000 0.000000e+000 0.000000e+000 0.000000e+000 0.000000e+000 0.000000e+000 0.000000e+000 0.000000e+000 0.000000e+000 0.000000e+000 0.000000e+000 0.000000e+000 0.000000e+000 0.000000e+000 0.000000e+000 0.000000e+000 0.000000e+000 0.000000e+000 9.443075e-001 5.569248e-002 0.000000e+000 
0.000000e+000 0.000000e+000 0.000000e+000 0.000000e+000 0.000000e+000 0.000000e+000 0.000000e+000 0.000000e+000 0.000000e+000 0.000000e+000 0.000000e+000 0.000000e+000 0.000000e+000 0.000000e+000 0.000000e+000 0.000000e+000 0.000000e+000 0.000000e+000 0.000000e+000 0.000000e+000 0.000000e+000 0.000000e+000 0.000000e+000 8.519299e-001 1.480702e-001 
0.000000e+000 0.000000e+000 0.000000e+000 0.000000e+000 0.000000e+000 0.000000e+000 0.000000e+000 0.000000e+000 0.000000e+000 0.000000e+000 0.000000e+000 0.000000e+000 0.000000e+000 0.000000e+000 0.000000e+000 0.000000e+000 0.000000e+000 0.000000e+000 0.000000e+000 0.000000e+000 0.000000e+000 0.000000e+000 0.000000e+000 0.000000e+000 0.000000e+000 
