<HMMNAME> 8
<HMMSTATES> 25
<STATE> 1
<MEAN> 36
-4.018215e+000 4.431191e+000 9.903893e-001 5.495162e+000 3.633335e+000 -1.463838e+000 -9.943706e+000 -1.407298e+001 -1.243787e+001 -3.274029e+000 2.203628e+000 2.699316e+000 6.986008e-001 3.643212e-001 2.185901e-001 3.529520e-001 4.238225e-001 4.418082e-003 -5.542496e-001 -8.394693e-001 -6.441817e-001 -2.890542e-002 1.738526e-001 1.249777e-001 2.563519e-003 -3.817903e-002 -3.259643e-002 -2.895852e-004 3.962159e-002 4.936679e-002 -2.119546e-002 2.327754e-002 5.836875e-002 2.515580e-002 -1.288651e-002 -6.113020e-002 
<VARIANCE> 36
2.312831e+001 1.827716e+001 1.320017e+001 1.030348e+001 1.554369e+001 1.228987e+001 4.287901e+001 6.193719e+001 5.552796e+001 2.089747e+001 1.813462e+001 1.354527e+001 9.217976e-001 1.226623e+000 1.130646e+000 4.788377e-001 1.159337e+000 1.797375e+000 3.502595e+000 3.719436e+000 3.370720e+000 1.412318e+000 1.013741e+000 1.122090e+000 1.770096e-001 2.508991e-001 2.443142e-001 1.094457e-001 2.828675e-001 3.864940e-001 7.396076e-001 6.341415e-001 6.101656e-001 2.649629e-001 2.178988e-001 2.171808e-001 
<GCONST> 9.274062e+001
<STATE> 2
<MEAN> 36
1.660763e+000 7.173562e+000 2.114664e+000 8.757052e+000 8.163876e+000 7.820150e-001 -1.407215e+001 -1.952291e+001 -1.399430e+001 -7.414800e-001 3.616780e+000 2.180012e-001 2.941167e-001 -1.116920e-001 -3.098186e-001 -7.217360e-003 1.072485e-001 3.925464e-003 -1.090464e-001 2.640103e-002 -1.674360e-002 -4.910975e-001 -3.426882e-001 -3.572634e-001 -2.145519e-001 6.880224e-002 2.001895e-001 -1.595144e-001 -1.957631e-001 -1.139357e-001 3.579105e-001 4.786163e-001 9.743303e-002 -2.012222e-001 -1.750603e-001 6.231369e-002 
<VARIANCE> 36
5.555679e+000 8.818521e+000 7.021352e+000 1.216561e+001 1.729397e+001 9.614837e+000 2.520731e+001 5.331890e+001 7.837163e+001 2.371949e+001 2.409910e+001 1.150507e+001 2.800623e-001 5.180957e-001 4.716218e-001 1.044676e+000 1.334271e+000 5.800509e-001 1.990089e+000 8.608914e-001 1.546402e+000 2.019900e+000 1.207448e+000 7.679760e-001 6.668397e-002 6.782996e-002 7.658459e-002 2.139949e-001 3.077646e-001 1.513733e-001 1.548536e-001 2.698455e-001 2.499090e-001 2.224354e-001 1.602679e-001 1.792544e-001 
<GCONST> 7.648910e+001
<STATE> 3
<MEAN> 36
1.364618e+000 8.429085e+000 2.641104e+000 7.890593e+000 7.454632e+000 8.415386e-001 -1.120263e+001 -1.628906e+001 -1.414009e+001 -4.971373e+000 8.105412e-001 5.103038e-001 -2.495192e-001 1.730102e-001 5.153426e-001 -1.674095e-001 7.154778e-002 2.051267e-001 1.177388e+000 1.611866e+000 2.077551e-001 -6.681991e-001 -7.439212e-001 -5.572710e-001 -2.061207e-001 -5.737332e-002 1.396182e-001 -3.588599e-002 8.741683e-002 6.580505e-002 -2.600577e-002 3.120079e-001 4.408964e-001 4.775453e-001 2.202766e-001 -8.334565e-002 
<VARIANCE> 36
1.069931e+001 1.575243e+001 1.123219e+001 7.447800e+000 1.723068e+001 1.068178e+001 5.447515e+001 6.552114e+001 1.102344e+002 3.941207e+001 1.724005e+001 1.192706e+001 3.893552e-001 3.922874e-001 6.919730e-001 9.505987e-001 1.904152e+000 1.586177e+000 1.640865e+000 2.843030e-001 4.160986e-001 1.222437e+000 1.915212e+000 8.319687e-001 5.000000e-002 7.458034e-002 5.074038e-002 1.051256e-001 9.779381e-002 5.433257e-002 5.015658e-001 6.648540e-002 2.782057e-001 1.446355e-001 5.558510e-002 2.443841e-001 
<GCONST> 7.367504e+001
<STATE> 4
<MEAN> 36
6.289923e-001 9.343045e+000 5.288450e+000 7.861181e+000 6.076941e+000 -7.134342e-001 -1.203661e+001 -1.619494e+001 -1.309225e+001 -2.019086e+000 3.128128e+000 7.708748e-001 -2.717296e-001 4.207723e-002 1.568163e-001 -1.679296e-001 -3.905189e-001 -1.327925e-001 4.893939e-001 8.270609e-001 9.521512e-001 6.321829e-001 1.280651e-001 -6.247660e-003 -4.259897e-002 -4.828429e-002 -8.501348e-002 -4.641249e-002 -3.368169e-002 3.381374e-002 7.146268e-002 6.669900e-002 1.532435e-001 1.184569e-001 1.356070e-002 5.748784e-002 
<VARIANCE> 36
4.575174e+000 9.924433e+000 1.737054e+001 5.698707e+000 1.453824e+001 1.356153e+001 1.862796e+001 3.307559e+001 2.640134e+001 2.509160e+001 3.660817e+001 1.189422e+001 8.355901e-002 2.538041e-001 3.127012e-001 5.640431e-001 9.807772e-001 8.051502e-001 1.357817e+000 1.042041e+000 9.554419e-001 7.373515e-001 1.061949e+000 9.361962e-001 5.000000e-002 5.000000e-002 5.000000e-002 1.220182e-001 2.006603e-001 1.686551e-001 2.742004e-001 1.921308e-001 1.600999e-001 1.658546e-001 2.080303e-001 1.506276e-001 
<GCONST> 6.850837e+001
<STATE> 5
<MEAN> 36
-2.456754e+000 6.788768e+000 3.074891e+000 5.355535e+000 2.975589e+000 -7.118961e-001 -4.971491e+000 -4.838680e+000 -1.616766e+000 4.141801e+000 3.000741e+000 6.761307e-001 -3.989128e-001 -1.108712e+000 -1.014830e+000 -6.803230e-001 -1.425715e-001 3.517305e-001 1.214389e+000 1.963305e+000 1.438609e+000 6.409435e-001 -2.437423e-002 -1.526764e-001 2.707237e-002 -2.325096e-001 -2.075216e-001 -1.103708e-001 1.181277e-002 8.862582e-002 5.312757e-002 2.258736e-002 -7.180268e-002 -3.529186e-004 5.434892e-002 -5.070781e-002 
<VARIANCE> 36
5.058900e+000 8.412384e+000 1.234471e+001 5.313431e+000 7.385469e+000 1.007918e+001 1.457821e+001 2.715550e+001 1.433695e+001 1.097819e+001 1.806679e+001 1.613892e+001 2.019006e-001 4.612592e-001 7.040956e-001 5.549053e-001 9.097301e-001 1.338128e+000 1.868006e+000 1.168254e+000 1.057498e+000 1.370091e+000 6.733302e-001 8.352188e-001 5.172114e-002 5.000000e-002 9.280349e-002 1.112488e-001 1.887176e-001 2.711873e-001 3.820173e-001 2.476099e-001 1.885316e-001 2.537321e-001 1.453197e-001 1.707074e-001 
<GCONST> 6.998361e+001
<STATE> 6
<MEAN> 36
-4.385717e+000 -2.615474e+000 -5.970889e+000 2.546266e-002 2.163517e+000 1.963342e+000 2.876493e+000 4.965417e+000 3.740866e+000 5.813290e+000 1.824155e+000 -1.492234e+000 -2.723865e-002 -1.851199e+000 -1.455342e+000 -4.083714e-001 -1.110468e-001 2.325431e-001 1.288975e+000 9.776840e-001 -4.445253e-001 -4.350603e-001 -7.315643e-001 -6.923052e-001 9.968489e-002 -2.356254e-001 -3.729740e-003 2.350509e-001 4.941897e-002 -8.007245e-002 -1.020446e-003 -9.965509e-002 -3.970632e-001 -2.861608e-001 -1.551845e-001 -1.380260e-001 
<VARIANCE> 36
2.372632e+000 1.409720e+001 9.900234e+000 7.767061e+000 1.785216e+001 1.620192e+001 1.453133e+001 2.205174e+001 1.814217e+001 2.061899e+001 1.690821e+001 1.426737e+001 2.362160e-001 5.161108e-001 4.779702e-001 1.009037e+000 1.422235e+000 1.487922e+000 7.255991e-001 1.758863e+000 2.509890e+000 2.298256e+000 1.453316e+000 1.850235e+000 5.000000e-002 9.253276e-002 9.666332e-002 1.334603e-001 3.056636e-001 3.689046e-001 1.254113e-001 3.411678e-001 3.030210e-001 4.004775e-001 2.406009e-001 3.140188e-001 
<GCONST> 7.801219e+001
<STATE> 7
<MEAN> 36
-4.240373e+000 -2.315668e+001 -1.384972e+001 -2.395345e+000 3.552263e+000 4.193732e+000 1.087480e+001 1.170182e+001 -4.463842e+000 1.497167e+000 -3.294995e+000 -6.574429e+000 -2.305593e-001 -2.253154e+000 -1.607173e-001 -8.350696e-001 3.250847e-001 4.086921e-001 3.099735e-001 5.997086e-001 -7.148298e-001 2.648322e-002 -1.447095e-001 -1.147811e-001 -6.019371e-002 2.646928e-001 2.217873e-001 -1.313588e-001 8.210777e-002 4.925473e-002 -2.048871e-001 -1.191065e-001 8.150869e-002 1.232740e-001 1.576827e-001 1.856554e-001 
<VARIANCE> 36
2.605328e+000 4.199712e+001 1.025490e+001 1.803681e+001 7.604026e+000 1.165721e+001 1.325157e+001 1.528166e+001 1.360958e+001 1.510344e+001 1.519306e+001 9.628577e+000 1.649813e-001 1.970148e+000 1.045281e+000 1.728283e+000 5.434341e-001 1.430270e+000 1.689178e+000 1.030438e+000 1.334461e+000 1.734816e+000 1.413554e+000 9.208920e-001 5.000000e-002 1.721660e-001 1.533909e-001 3.153996e-001 1.096021e-001 3.108291e-001 2.491237e-001 2.469589e-001 2.826614e-001 3.344757e-001 3.036013e-001 1.726936e-001 
<GCONST> 7.780008e+001
<STATE> 8
<MEAN> 36
-6.900366e+000 -3.273851e+001 -1.071094e+001 -8.730302e+000 9.289495e+000 8.178142e+000 7.709535e+000 1.321290e+001 -9.262354e+000 1.560860e+000 -1.766831e+000 -2.760155e+000 -1.086881e-001 -1.625341e-001 8.867938e-002 -7.993721e-002 1.291388e-001 1.521610e-001 -3.006680e-001 -7.800984e-002 -1.186044e-001 -1.785876e-001 2.005275e-001 1.843962e-001 2.504928e-002 6.989326e-002 -4.112625e-002 1.015718e-001 -7.347548e-002 -3.729657e-002 -8.245941e-003 -2.682657e-002 8.737374e-002 -5.771756e-003 -1.142716e-002 -3.935212e-002 
<VARIANCE> 36
2.131070e+000 5.477417e+000 9.083398e+000 5.364655e+000 7.102328e+000 8.905763e+000 1.566086e+001 1.258269e+001 1.005205e+001 1.447373e+001 1.260693e+001 1.162008e+001 1.105375e-001 3.294199e-001 4.479043e-001 4.561353e-001 7.874537e-001 7.765365e-001 7.180941e-001 9.898428e-001 1.099299e+000 9.571619e-001 1.082902e+000 9.273783e-001 5.000000e-002 5.763417e-002 9.120375e-002 1.141677e-001 1.207632e-001 1.709237e-001 1.540776e-001 2.286410e-001 1.756356e-001 2.016507e-001 1.956140e-001 1.635579e-001 
<GCONST> 6.180251e+001
<STATE> 9
<MEAN> 36
-7.501876e+000 -3.226824e+001 -1.026112e+001 -7.365371e+000 8.576689e+000 8.783957e+000 4.608208e+000 1.232757e+001 -7.889686e+000 9.563989e-001 7.337558e-001 -3.529654e+000 1.727226e-001 2.280897e-001 -1.562460e-001 8.982383e-001 3.120878e-001 6.537193e-001 -9.080314e-001 -5.006738e-001 4.424695e-001 -5.445353e-001 -1.074917e-001 3.137015e-002 2.290908e-002 7.902377e-002 -9.296363e-002 -7.462232e-002 6.994791e-002 2.208591e-001 2.277539e-001 2.800846e-002 -2.012847e-001 -2.364139e-001 -3.550660e-001 1.699780e-002 
<VARIANCE> 36
1.481874e+000 3.871429e+000 9.545722e+000 4.091837e+000 5.766982e+000 4.034236e+000 1.259957e+001 8.812064e+000 8.063036e+000 9.995588e+000 1.553636e+001 7.512605e+000 6.270455e-002 3.833914e-001 2.940847e-001 3.084747e-001 1.157054e-001 3.600401e-001 4.150307e-001 1.742273e+000 9.831544e-001 8.425087e-001 9.419431e-001 7.575225e-001 5.000000e-002 8.276946e-002 7.296228e-002 9.745992e-002 9.134912e-002 9.098238e-002 1.311141e-001 3.154615e-001 1.271566e-001 8.944233e-002 3.057562e-001 1.106318e-001 
<GCONST> 5.215306e+001
<STATE> 10
<MEAN> 36
-6.903479e+000 -3.277868e+001 -1.075386e+001 -6.220810e+000 8.231641e+000 9.773944e+000 3.434510e+000 1.252635e+001 -6.747153e+000 -1.252732e+000 -1.365116e+000 -3.334143e+000 4.833871e-002 3.731672e-001 -5.549630e-001 2.360697e-001 1.814061e-001 9.833611e-001 5.636459e-001 -1.225847e-001 -1.488883e-001 -9.282564e-001 -5.696725e-001 -8.080531e-002 4.666939e-002 3.402225e-001 -9.409964e-002 -1.151699e-001 -5.041423e-002 9.964639e-002 5.785009e-001 -8.683945e-003 -1.957564e-001 -4.050855e-002 -6.769658e-002 -7.628602e-002 
<VARIANCE> 36
1.209609e+000 1.301740e+000 9.066577e+000 4.214614e+000 6.332848e+000 1.227585e+001 2.897005e+001 1.046484e+001 1.644192e+001 5.683255e+000 8.765164e+000 9.130394e+000 5.614367e-002 6.618653e-001 1.002490e-001 4.492218e-001 5.838315e-001 4.611887e-001 3.701564e-001 1.082582e+000 9.360760e-001 5.212876e-001 2.770544e-001 4.995531e-001 5.000000e-002 1.130276e-001 5.000000e-002 1.436846e-001 9.535053e-002 2.116497e-001 1.956033e-001 2.940830e-001 2.098815e-001 1.202891e-001 1.856266e-001 2.741724e-001 
<GCONST> 5.440624e+001
<STATE> 11
<MEAN> 36
-7.236557e+000 -3.051388e+001 -1.182456e+001 -5.463436e+000 8.811260e+000 1.291299e+001 5.981121e+000 1.010775e+001 -8.018272e+000 -1.599062e+000 -1.197998e+000 -3.323991e+000 1.184798e-001 9.781886e-001 -2.616706e-001 6.257504e-001 -7.990517e-002 2.130790e-001 5.651035e-001 -2.357246e-001 1.440368e-001 -3.839335e-001 -4.101646e-001 -2.768353e-001 1.301135e-002 2.277382e-001 4.731854e-002 9.389130e-002 -2.578343e-002 -1.107613e-001 2.790005e-003 -4.157339e-002 2.239829e-002 -2.313699e-002 4.430037e-003 -8.661557e-002 
<VARIANCE> 36
1.725700e+000 8.997480e+000 8.109921e+000 7.619243e+000 7.253891e+000 6.522563e+000 5.421942e+000 9.107882e+000 1.660185e+001 6.173368e+000 1.128223e+001 7.702480e+000 1.159799e-001 5.494972e-001 2.730013e-001 7.048250e-001 3.893954e-001 6.864639e-001 7.311308e-001 1.018321e+000 1.079969e+000 8.528038e-001 1.109095e+000 5.303047e-001 5.000000e-002 7.409644e-002 5.404463e-002 1.272717e-001 5.000000e-002 1.285887e-001 1.458037e-001 2.490574e-001 1.889507e-001 1.881851e-001 1.577695e-001 6.048193e-002 
<GCONST> 5.632368e+001
<STATE> 12
<MEAN> 36
-6.659001e+000 -1.827595e+001 -1.092402e+001 -9.842357e-001 8.156014e+000 1.256301e+001 8.768469e+000 7.616568e+000 -6.237131e+000 -4.359480e+000 -4.572830e+000 -5.596127e+000 1.629490e-002 2.114322e+000 9.191236e-001 4.184321e-001 1.331121e-001 2.295594e-001 2.274840e-001 -2.141243e-001 2.405784e-001 -5.410025e-002 -1.731264e-001 -5.191832e-002 8.070807e-002 -2.849702e-002 1.428436e-001 -2.667861e-002 1.041007e-001 5.723838e-002 -1.287245e-003 1.130531e-001 1.449749e-002 1.137766e-001 1.769418e-002 1.054025e-001 
<VARIANCE> 36
1.209210e+000 3.827493e+001 1.850399e+001 5.942761e+000 1.131515e+001 9.991180e+000 1.088261e+001 1.505067e+001 1.150221e+001 1.300253e+001 1.082412e+001 1.208476e+001 1.413688e-001 8.570260e-001 1.138193e+000 6.350084e-001 1.046367e+000 8.930231e-001 1.042770e+000 1.642010e+000 9.702723e-001 1.072922e+000 6.436196e-001 1.442544e+000 6.269639e-002 1.673453e-001 2.223143e-001 1.355656e-001 2.757437e-001 1.792746e-001 2.173996e-001 3.146320e-001 2.159804e-001 2.221427e-001 1.585570e-001 2.756033e-001 
<GCONST> 7.249089e+001
<STATE> 13
<MEAN> 36
-4.609605e+000 -7.368453e+000 -4.142640e+000 1.562960e+000 1.094060e+001 1.524228e+001 1.082109e+001 9.476099e+000 -3.956132e+000 -3.054249e+000 -4.543003e+000 -4.069613e+000 1.557655e+000 1.358428e+000 4.005686e-001 6.389684e-001 9.938147e-001 4.089214e-001 -8.125497e-002 2.425830e-001 3.144528e-001 -3.556159e-001 -1.212622e+000 -1.231555e+000 3.064914e-001 -3.291362e-001 -4.949181e-001 -1.632491e-001 -2.949539e-002 -1.953933e-001 -2.899559e-001 -1.721315e-001 -6.761803e-002 -4.673270e-001 -6.830977e-001 -7.961719e-001 
<VARIANCE> 36
4.356361e+000 5.950880e+000 2.286463e+000 7.506540e+000 7.600980e+000 7.440007e+000 1.183712e+001 1.193569e+001 1.358049e+001 7.551901e+000 8.017363e+000 9.352413e+000 4.364770e-001 4.316398e-001 7.787921e-001 9.355312e-001 1.122714e+000 1.091684e+000 1.424614e+000 9.099044e-001 9.256791e-001 1.673425e+000 2.000148e+000 1.931250e+000 7.336271e-002 6.885419e-002 7.468110e-002 1.484431e-001 1.646773e-001 1.306921e-001 1.933940e-001 1.255395e-001 1.629816e-001 1.101152e-001 1.289816e-001 2.127153e-001 
<GCONST> 6.549801e+001
<STATE> 14
<MEAN> 36
6.568089e-001 -4.022266e+000 -5.515736e+000 1.059826e-002 1.157486e+001 1.380811e+001 8.598415e+000 8.973308e+000 -4.247554e+000 -8.613456e+000 -1.330777e+001 -1.270318e+001 4.188255e-001 6.521898e-001 -8.050806e-002 -4.448828e-001 -3.823638e-001 -4.763364e-001 -4.098917e-001 -3.083741e-001 2.202540e-001 -5.667701e-001 -9.058777e-001 -5.228206e-001 -2.406131e-001 2.708750e-004 6.244807e-002 -4.792163e-002 -1.920471e-001 -3.799578e-002 -5.293031e-002 -1.316582e-001 5.989751e-003 2.046376e-001 3.488092e-001 3.568090e-001 
<VARIANCE> 36
4.827189e+000 9.765690e+000 1.025408e+001 1.378745e+001 1.138715e+001 1.519452e+001 1.506851e+001 9.765947e+000 1.676326e+001 1.089238e+001 1.041639e+001 9.776208e+000 7.270165e-001 4.354915e-001 8.848904e-001 9.877188e-001 7.892331e-001 9.974134e-001 1.344248e+000 8.787127e-001 1.360360e+000 1.178366e+000 1.682340e+000 2.227866e+000 9.211854e-002 9.544664e-002 1.588890e-001 2.969583e-001 1.384429e-001 2.232706e-001 2.713531e-001 1.427644e-001 2.962774e-001 1.792862e-001 2.202039e-001 2.369320e-001 
<GCONST> 7.497573e+001
<STATE> 15
<MEAN> 36
1.961922e+000 -1.878878e+000 -6.355874e+000 -9.510447e-001 9.817562e+000 1.298867e+001 5.611734e+000 4.674770e+000 -3.092985e+000 -8.312120e+000 -1.424141e+001 -1.122232e+001 2.041498e-001 5.217223e-001 -3.277143e-001 -2.413176e-002 -6.246200e-001 -2.349735e-001 -4.509822e-001 -7.776668e-001 3.430583e-002 -9.267386e-003 -1.506003e-002 3.896636e-001 -8.115235e-002 5.262702e-002 6.686363e-002 7.570144e-002 -6.367059e-002 -1.448145e-001 1.658915e-001 3.498933e-001 -4.041089e-002 1.409626e-002 2.022365e-001 -1.570628e-001 
<VARIANCE> 36
4.254979e+000 7.636098e+000 1.133472e+001 7.062845e+000 1.124288e+001 4.141257e+000 1.718419e+001 5.908517e+000 1.659745e+001 3.770627e+000 8.074043e+000 9.920266e+000 1.215443e-001 2.113019e-001 4.217666e-001 8.373441e-001 7.538303e-001 4.711384e-001 7.116639e-001 5.408134e-001 1.879046e+000 5.263704e-001 9.152869e-001 8.980928e-001 5.000000e-002 5.379096e-002 7.825260e-002 2.002088e-001 9.486492e-002 8.640368e-002 1.352414e-001 1.171086e-001 2.129148e-001 1.330119e-001 1.195092e-001 1.273916e-001 
<GCONST> 5.733536e+001
<STATE> 16
<MEAN> 36
1.036086e+000 4.652899e-001 -6.494351e+000 -8.575097e-001 8.280885e+000 1.086353e+001 6.001002e+000 5.413114e+000 -4.210364e+000 -9.587602e+000 -1.342312e+001 -1.219131e+001 -2.787530e-001 1.016361e+000 5.324234e-001 -1.986275e-001 -9.145557e-001 -9.939148e-001 -4.763855e-001 8.287006e-001 6.072821e-001 6.930995e-001 1.092125e+000 -3.816148e-001 -1.773938e-001 5.741420e-002 3.287785e-001 4.030877e-002 -6.237455e-002 -1.265342e-001 -4.710621e-002 2.799625e-001 3.854216e-001 3.623076e-001 3.401037e-001 3.343997e-002 
<VARIANCE> 36
5.598874e+000 3.866472e+000 1.215219e+001 4.075426e+000 8.972740e+000 8.307999e+000 1.608229e+001 1.132373e+001 1.593312e+001 1.217019e+001 1.301690e+001 1.492895e+001 1.141222e-001 3.096593e-001 2.998937e-001 9.753006e-001 8.070730e-001 2.386561e-001 7.886391e-001 1.183929e+000 2.623280e+000 1.272735e+000 6.870732e-001 5.341598e-001 5.000000e-002 5.179611e-002 5.516521e-002 7.821157e-002 1.636781e-001 7.761225e-002 1.204940e-001 2.746589e-001 3.798544e-001 2.266910e-001 1.293115e-001 2.311814e-001 
<GCONST> 6.197094e+001
<STATE> 17
<MEAN> 36
1.365729e+000 2.875352e+000 -3.514818e+000 -2.884461e+000 4.072554e+000 8.711772e+000 5.608623e+000 7.754390e+000 7.041881e-001 -5.964492e+000 -1.111406e+001 -1.095148e+001 -5.216026e-001 7.670364e-001 8.165930e-001 -1.631885e-001 -6.734205e-001 -5.762959e-001 -1.406572e-001 -1.424479e-001 7.600944e-001 7.671661e-001 1.181121e+000 6.611109e-001 -1.518362e-001 -1.526132e-001 1.183262e-001 1.348954e-001 2.325058e-001 6.383385e-002 2.234205e-002 -9.107107e-002 4.643881e-002 1.388491e-001 6.099051e-002 1.949365e-001 
<VARIANCE> 36
4.302717e+000 4.413630e+000 7.318406e+000 1.191117e+001 1.004622e+001 8.614500e+000 1.773866e+001 8.826394e+000 7.666795e+000 7.973523e+000 1.990022e+001 1.897173e+001 2.553656e-001 2.695532e-001 9.170894e-001 7.467929e-001 1.546941e+000 1.001198e+000 4.942565e-001 9.557100e-001 1.019252e+000 1.373858e+000 1.484630e+000 1.187341e+000 5.295646e-002 5.000000e-002 1.733873e-001 2.501921e-001 3.723666e-001 2.092938e-001 1.968976e-001 2.183012e-001 2.141133e-001 1.890255e-001 1.888441e-001 1.982749e-001 
<GCONST> 6.941002e+001
<STATE> 18
<MEAN> 36
-1.800451e+000 4.732102e+000 -2.964897e-001 -2.059708e+000 3.916084e+000 5.923276e+000 2.702333e+000 6.691827e+000 3.126652e+000 -3.156600e+000 -6.929702e+000 -9.984987e+000 -1.119199e+000 1.485744e-001 1.085316e+000 1.426454e+000 4.118395e-001 -2.866262e-001 7.641872e-002 1.604020e-001 6.248285e-001 1.320912e+000 1.107593e+000 7.521743e-001 -5.793460e-002 -2.645543e-001 -3.618218e-001 3.470328e-001 2.718933e-001 4.809525e-001 5.312418e-001 -2.094699e-002 -4.154244e-001 -2.798722e-001 -1.810974e-001 3.580565e-001 
<VARIANCE> 36
2.325857e+000 2.830140e+000 6.851741e+000 1.437925e+001 9.015911e+000 4.196557e+000 1.194529e+001 8.173398e+000 9.824252e+000 7.923296e+000 6.630281e+000 7.949914e+000 3.311388e-001 2.280221e-001 1.033811e+000 8.503764e-001 8.396297e-001 8.909286e-001 2.450862e+000 1.138913e+000 6.847504e-001 1.418341e+000 9.313622e-001 1.027023e+000 5.000000e-002 5.448727e-002 9.208214e-002 1.684453e-001 2.076853e-001 5.000000e-002 3.355712e-001 1.966107e-001 1.512970e-001 1.655647e-001 1.273075e-001 2.589641e-001 
<GCONST> 6.266566e+001
<STATE> 19
<MEAN> 36
-4.592561e+000 3.889924e+000 3.428978e-001 2.721695e+000 5.576356e+000 7.532289e+000 5.724638e+000 7.276027e+000 2.181734e+000 -1.020054e+000 -3.856668e+000 -5.796764e+000 -8.287624e-001 -2.574165e-001 -1.972344e-001 5.818789e-001 3.614360e-001 6.020057e-001 9.886095e-001 5.653212e-002 1.645741e-001 7.918492e-001 1.040370e+000 1.639948e+000 1.493962e-001 -5.348123e-002 -2.689987e-001 -3.811916e-001 -5.133780e-002 1.164700e-001 1.494124e-001 1.017785e-004 1.842399e-002 -1.091988e-001 -1.190220e-001 4.678366e-002 
<VARIANCE> 36
2.085498e+000 2.183284e+000 2.810051e+000 4.520168e+000 5.730951e+000 7.519356e+000 7.303616e+000 1.238153e+001 8.454328e+000 8.596512e+000 6.631003e+000 1.089433e+001 1.352796e-001 1.509628e-001 2.859133e-001 7.109101e-001 5.745695e-001 7.861433e-001 1.429513e+000 1.054065e+000 5.904685e-001 7.164738e-001 6.026167e-001 6.169438e-001 5.000000e-002 5.000000e-002 1.189399e-001 7.873731e-002 1.388537e-001 1.501019e-001 2.460090e-001 1.985904e-001 1.365149e-001 3.013586e-001 1.708129e-001 2.076984e-001 
<GCONST> 5.525471e+001
<STATE> 20
<MEAN> 36
-6.281794e+000 3.605494e+000 -9.609085e-001 1.162089e+000 5.004110e+000 1.017818e+001 9.788120e+000 8.178326e+000 4.053248e+000 1.065239e+000 -1.277599e+000 -7.305806e-001 -3.568308e-001 -9.991986e-002 -3.449989e-002 -1.665668e-001 1.215552e-001 4.222012e-001 4.759880e-001 -1.216798e-001 -7.624581e-002 2.177185e-002 5.504003e-001 8.387670e-001 1.389896e-001 6.565783e-002 1.228716e-001 3.704603e-002 -9.038452e-002 -2.116798e-001 -2.827247e-001 -1.184098e-001 -1.551042e-001 -2.974446e-001 -2.483799e-001 -4.251394e-001 
<VARIANCE> 36
5.736225e-001 2.955125e+000 3.456903e+000 2.185195e+000 1.297467e+001 5.948900e+000 9.285140e+000 6.449909e+000 1.407376e+001 9.955789e+000 1.083480e+001 1.197584e+001 1.118342e-001 1.606091e-001 2.301062e-001 2.867751e-001 6.038180e-001 5.773109e-001 7.390160e-001 5.056346e-001 9.463375e-001 1.163669e+000 1.396888e+000 2.424275e+000 5.000000e-002 5.177901e-002 5.000000e-002 9.725464e-002 1.302894e-001 1.101849e-001 1.576787e-001 8.607031e-002 2.096102e-001 1.714949e-001 2.808641e-001 3.556252e-001 
<GCONST> 5.404489e+001
<STATE> 21
<MEAN> 36
-7.665661e+000 3.646989e+000 4.908921e-001 2.783323e+000 5.251557e+000 9.447961e+000 8.643246e+000 7.089414e+000 3.104084e+000 -5.556142e-002 -7.463197e-001 -6.857738e-004 -1.991621e-001 -2.907969e-003 1.023307e-001 1.209920e-001 -1.853760e-001 -1.988401e-001 -1.702013e-001 -2.966411e-002 9.191332e-002 5.816430e-002 1.863007e-001 1.974032e-001 4.950970e-003 -3.466090e-003 -4.331443e-003 -5.266884e-003 -4.587486e-002 -6.965697e-002 -5.703506e-002 2.626448e-002 4.666159e-002 6.368810e-002 8.168943e-003 -2.406618e-002 
<VARIANCE> 36
1.950891e+000 1.351130e+000 3.328756e+000 5.991423e+000 5.305489e+000 6.813040e+000 8.957416e+000 8.783287e+000 7.999426e+000 9.802329e+000 6.592942e+000 6.686100e+000 5.831699e-002 1.285628e-001 2.046066e-001 5.135079e-001 5.698928e-001 8.074038e-001 8.999851e-001 7.409019e-001 1.035058e+000 1.071386e+000 6.514766e-001 6.635409e-001 5.000000e-002 5.000000e-002 5.000000e-002 9.820603e-002 1.078251e-001 1.582877e-001 1.872470e-001 1.336846e-001 1.827312e-001 2.091424e-001 1.204816e-001 1.348224e-001 
<GCONST> 5.071294e+001
<STATE> 22
<MEAN> 36
-9.597878e+000 3.490275e+000 1.043908e+000 3.218548e+000 1.778088e+000 5.824117e+000 6.459122e+000 8.502634e+000 5.332381e+000 2.982672e+000 1.564503e+000 1.322822e+000 -3.011437e-001 -8.737186e-002 1.630106e-001 -5.935081e-002 -3.125092e-001 -2.371017e-001 -1.057837e-001 2.098401e-001 2.567392e-001 5.781372e-001 -9.618547e-002 -5.772920e-002 -1.349471e-002 -5.331682e-002 -3.346769e-002 -4.435757e-002 2.252659e-001 2.519896e-001 1.145688e-001 -2.951910e-001 -3.110663e-001 -2.046592e-001 -1.441637e-001 4.479177e-003 
<VARIANCE> 36
1.319265e+000 1.096838e+000 2.713767e+000 2.252189e+000 4.491705e+000 4.887673e+000 4.211239e+000 5.587569e+000 8.128284e+000 7.827879e+000 7.877253e+000 1.000806e+001 5.000000e-002 1.902604e-001 1.936313e-001 3.174145e-001 7.138467e-001 8.103293e-001 7.229466e-001 5.025282e-001 5.318551e-001 6.925813e-001 4.530864e-001 6.127045e-001 5.000000e-002 5.000000e-002 5.000000e-002 7.303428e-002 6.889627e-002 9.622756e-002 1.471471e-001 1.911122e-001 1.908747e-001 1.657853e-001 9.697813e-002 1.937090e-001 
<GCONST> 4.420706e+001
<STATE> 23
<MEAN> 36
-1.147932e+001 1.525269e+000 1.049366e-001 2.626523e+000 1.931954e+000 3.962153e+000 3.667696e+000 3.876874e+000 1.825385e+000 1.392355e+000 7.534149e-001 1.243854e+000 -1.439432e-001 -1.323479e-001 -6.130655e-002 -3.987813e-002 -8.168682e-002 -2.374556e-001 -2.553074e-001 -3.268721e-001 -1.936554e-001 -1.660905e-001 2.939554e-002 8.734046e-002 1.042814e-002 1.687469e-002 -3.802836e-003 1.052605e-002 4.079305e-003 -1.410026e-002 -3.734352e-002 -1.153186e-002 3.034328e-004 -2.024069e-002 8.329862e-003 2.683966e-003 
<VARIANCE> 36
1.639666e+000 1.908003e+000 3.219062e+000 3.932315e+000 6.134274e+000 9.793629e+000 9.152781e+000 9.302799e+000 9.987803e+000 7.752062e+000 7.448804e+000 8.590961e+000 1.248484e-001 1.235161e-001 2.957623e-001 4.318577e-001 6.069365e-001 9.029902e-001 7.923162e-001 1.041146e+000 1.208849e+000 7.059088e-001 8.040387e-001 9.805897e-001 5.000000e-002 5.000000e-002 6.063424e-002 7.378636e-002 1.190730e-001 1.972628e-001 1.597378e-001 1.976074e-001 2.327527e-001 1.580638e-001 1.671237e-001 1.904183e-001 
<GCONST> 5.411250e+001
<TRANSP> 25
0.000000e+000 1.000000e+000 0.000000e+000 0.000000e+000 0.000000e+000 0.000000e+000 0.000000e+000 0.000000e+000 0.000000e+000 0.000000e+000 0.000000e+000 0.000000e+000 0.000000e+000 0.000000e+000 0.000000e+000 0.000000e+000 0.000000e+000 0.000000e+000 0.000000e+000 0.000000e+000 0.000000e+000 0.000000e+000 0.000000e+000 0.000000e+000 0.000000e+000 
0.000000e+000 8.988522e-001 1.011479e-001 0.000000e+000 0.000000e+000 0.000000e+000 0.000000e+000 0.000000e+000 0.000000e+000 0.000000e+000 0.000000e+000 0.000000e+000 0.000000e+000 0.000000e+000 0.000000e+000 0.000000e+000 0.000000e+000 0.000000e+000 0.000000e+000 0.000000e+000 0.000000e+000 0.000000e+000 0.000000e+000 0.000000e+000 0.000000e+000 
0.000000e+000 0.000000e+000 6.255596e-001 3.744403e-001 0.000000e+000 0.000000e+000 0.000000e+000 0.000000e+000 0.000000e+000 0.000000e+000 0.000000e+000 0.000000e+000 0.000000e+000 0.000000e+000 0.000000e+000 0.000000e+000 0.000000e+000 0.000000e+000 0.000000e+000 0.000000e+000 0.000000e+000 0.000000e+000 0.000000e+000 0.000000e+000 0.000000e+000 
0.000000e+000 0.000000e+000 0.000000e+000 1.293991e-017 1.000000e+000 0.000000e+000 0.000000e+000 0.000000e+000 0.000000e+000 0.000000e+000 0.000000e+000 0.000000e+000 0.000000e+000 0.000000e+000 0.000000e+000 0.000000e+000 0.000000e+000 0.000000e+000 0.000000e+000 0.000000e+000 0.000000e+000 0.000000e+000 0.000000e+000 0.000000e+000 0.000000e+000 
0.000000e+000 0.000000e+000 0.000000e+000 0.000000e+000 8.754788e-001 1.245211e-001 0.000000e+000 0.000000e+000 0.000000e+000 0.000000e+000 0.000000e+000 0.000000e+000 0.000000e+000 0.000000e+000 0.000000e+000 0.000000e+000 0.000000e+000 0.000000e+000 0.000000e+000 0.000000e+000 0.000000e+000 0.000000e+000 0.000000e+000 0.000000e+000 0.000000e+000 
0.000000e+000 0.000000e+000 0.000000e+000 0.000000e+000 0.000000e+000 8.227044e-001 1.772957e-001 0.000000e+000 0.000000e+000 0.000000e+000 0.000000e+000 0.000000e+000 0.000000e+000 0.000000e+000 0.000000e+000 0.000000e+000 0.000000e+000 0.000000e+000 0.000000e+000 0.000000e+000 0.000000e+000 0.000000e+000 0.000000e+000 0.000000e+000 0.000000e+000 
0.000000e+000 0.000000e+000 0.000000e+000 0.000000e+000 0.000000e+000 0.000000e+000 8.422171e-001 1.577829e-001 0.000000e+000 0.000000e+000 0.000000e+000 0.000000e+000 0.000000e+000 0.000000e+000 0.000000e+000 0.000000e+000 0.000000e+000 0.000000e+000 0.000000e+000 0.000000e+000 0.000000e+000 0.000000e+000 0.000000e+000 0.000000e+000 0.000000e+000 
0.000000e+000 0.000000e+000 0.000000e+000 0.000000e+000 0.000000e+000 0.000000e+000 0.000000e+000 8.903143e-001 1.096858e-001 0.000000e+000 0.000000e+000 0.000000e+000 0.000000e+000 0.000000e+000 0.000000e+000 0.000000e+000 0.000000e+000 0.000000e+000 0.000000e+000 0.000000e+000 0.000000e+000 0.000000e+000 0.000000e+000 0.000000e+000 0.000000e+000 
0.000000e+000 0.000000e+000 0.000000e+000 0.000000e+000 0.000000e+000 0.000000e+000 0.000000e+000 0.000000e+000 9.278966e-001 7.210336e-002 0.000000e+000 0.000000e+000 0.000000e+000 0.000000e+000 0.000000e+000 0.000000e+000 0.000000e+000 0.000000e+000 0.000000e+000 0.000000e+000 0.000000e+000 0.000000e+000 0.000000e+000 0.000000e+000 0.000000e+000 
0.000000e+000 0.000000e+000 0.000000e+000 0.000000e+000 0.000000e+000 0.000000e+000 0.000000e+000 0.000000e+000 0.000000e+000 4.716363e-001 5.283637e-001 0.000000e+000 0.000000e+000 0.000000e+000 0.000000e+000 0.000000e+000 0.000000e+000 0.000000e+000 0.000000e+000 0.000000e+000 0.000000e+000 0.000000e+000 0.000000e+000 0.000000e+000 0.000000e+000 
0.000000e+000 0.000000e+000 0.000000e+000 0.000000e+000 0.000000e+000 0.000000e+000 0.000000e+000 0.000000e+000 0.000000e+000 0.000000e+000 1.252614e-009 1.000000e+000 0.000000e+000 0.000000e+000 0.000000e+000 0.000000e+000 0.000000e+000 0.000000e+000 0.000000e+000 0.000000e+000 0.000000e+000 0.000000e+000 0.000000e+000 0.000000e+000 0.000000e+000 
0.000000e+000 0.000000e+000 0.000000e+000 0.000000e+000 0.000000e+000 0.000000e+000 0.000000e+000 0.000000e+000 0.000000e+000 0.000000e+000 0.000000e+000 8.046724e-001 1.953275e-001 0.000000e+000 0.000000e+000 0.000000e+000 0.000000e+000 0.000000e+000 0.000000e+000 0.000000e+000 0.000000e+000 0.000000e+000 0.000000e+000 0.000000e+000 0.000000e+000 
0.000000e+000 0.000000e+000 0.000000e+000 0.000000e+000 0.000000e+000 0.000000e+000 0.000000e+000 0.000000e+000 0.000000e+000 0.000000e+000 0.000000e+000 0.000000e+000 8.738492e-001 1.261508e-001 0.000000e+000 0.000000e+000 0.000000e+000 0.000000e+000 0.000000e+000 0.000000e+000 0.000000e+000 0.000000e+000 0.000000e+000 0.000000e+000 0.000000e+000 
0.000000e+000 0.000000e+000 0.000000e+000 0.000000e+000 0.000000e+000 0.000000e+000 0.000000e+000 0.000000e+000 0.000000e+000 0.000000e+000 0.000000e+000 0.000000e+000 0.000000e+000 6.569698e-001 3.430302e-001 0.000000e+000 0.000000e+000 0.000000e+000 0.000000e+000 0.000000e+000 0.000000e+000 0.000000e+000 0.000000e+000 0.000000e+000 0.000000e+000 
0.000000e+000 0.000000e+000 0.000000e+000 0.000000e+000 0.000000e+000 0.000000e+000 0.000000e+000 0.000000e+000 0.000000e+000 0.000000e+000 0.000000e+000 0.000000e+000 0.000000e+000 0.000000e+000 8.469854e-001 1.530146e-001 0.000000e+000 0.000000e+000 0.000000e+000 0.000000e+000 0.000000e+000 0.000000e+000 0.000000e+000 0.000000e+000 0.000000e+000 
0.000000e+000 0.000000e+000 0.000000e+000 0.000000e+000 0.000000e+000 0.000000e+000 0.000000e+000 0.000000e+000 0.000000e+000 0.000000e+000 0.000000e+000 0.000000e+000 0.000000e+000 0.000000e+000 0.000000e+000 5.616068e-001 4.383932e-001 0.000000e+000 0.000000e+000 0.000000e+000 0.000000e+000 0.000000e+000 0.000000e+000 0.000000e+000 0.000000e+000 
0.000000e+000 0.000000e+000 0.000000e+000 0.000000e+000 0.000000e+000 0.000000e+000 0.000000e+000 0.000000e+000 0.000000e+000 0.000000e+000 0.000000e+000 0.000000e+000 0.000000e+000 0.000000e+000 0.000000e+000 0.000000e+000 5.726538e-001 4.273462e-001 0.000000e+000 0.000000e+000 0.000000e+000 0.000000e+000 0.000000e+000 0.000000e+000 0.000000e+000 
0.000000e+000 0.000000e+000 0.000000e+000 0.000000e+000 0.000000e+000 0.000000e+000 0.000000e+000 0.000000e+000 0.000000e+000 0.000000e+000 0.000000e+000 0.000000e+000 0.000000e+000 0.000000e+000 0.000000e+000 0.000000e+000 0.000000e+000 6.863964e-001 3.136036e-001 0.000000e+000 0.000000e+000 0.000000e+000 0.000000e+000 0.000000e+000 0.000000e+000 
0.000000e+000 0.000000e+000 0.000000e+000 0.000000e+000 0.000000e+000 0.000000e+000 0.000000e+000 0.000000e+000 0.000000e+000 0.000000e+000 0.000000e+000 0.000000e+000 0.000000e+000 0.000000e+000 0.000000e+000 0.000000e+000 0.000000e+000 0.000000e+000 4.758645e-001 5.241355e-001 0.000000e+000 0.000000e+000 0.000000e+000 0.000000e+000 0.000000e+000 
0.000000e+000 0.000000e+000 0.000000e+000 0.000000e+000 0.000000e+000 0.000000e+000 0.000000e+000 0.000000e+000 0.000000e+000 0.000000e+000 0.000000e+000 0.000000e+000 0.000000e+000 0.000000e+000 0.000000e+000 0.000000e+000 0.000000e+000 0.000000e+000 0.000000e+000 6.681365e-001 3.318635e-001 0.000000e+000 0.000000e+000 0.000000e+000 0.000000e+000 
0.000000e+000 0.000000e+000 0.000000e+000 0.000000e+000 0.000000e+000 0.000000e+000 0.000000e+000 0.000000e+000 0.000000e+000 0.000000e+000 0.000000e+000 0.000000e+000 0.000000e+000 0.000000e+000 0.000000e+000 0.000000e+000 0.000000e+000 0.000000e+000 0.000000e+000 0.000000e+000 5.927728e-001 4.072272e-001 0.000000e+000 0.000000e+000 0.000000e+000 
0.000000e+000 0.000000e+000 0.000000e+000 0.000000e+000 0.000000e+000 0.000000e+000 0.000000e+000 0.000000e+000 0.000000e+000 0.000000e+000 0.000000e+000 0.000000e+000 0.000000e+000 0.000000e+000 0.000000e+000 0.000000e+000 0.000000e+000 0.000000e+000 0.000000e+000 0.000000e+000 0.000000e+000 9.209566e-001 7.904339e-002 0.000000e+000 0.000000e+000 
0.000000e+000 0.000000e+000 0.000000e+000 0.000000e+000 0.000000e+000 0.000000e+000 0.000000e+000 0.000000e+000 0.000000e+000 0.000000e+000 0.000000e+000 0.000000e+000 0.000000e+000 0.000000e+000 0.000000e+000 0.000000e+000 0.000000e+000 0.000000e+000 0.000000e+000 0.000000e+000 0.000000e+000 0.000000e+000 6.538114e-001 3.461887e-001 0.000000e+000 
0.000000e+000 0.000000e+000 0.000000e+000 0.000000e+000 0.000000e+000 0.000000e+000 0.000000e+000 0.000000e+000 0.000000e+000 0.000000e+000 0.000000e+000 0.000000e+000 0.000000e+000 0.000000e+000 0.000000e+000 0.000000e+000 0.000000e+000 0.000000e+000 0.000000e+000 0.000000e+000 0.000000e+000 0.000000e+000 0.000000e+000 9.062379e-001 9.376207e-002 
0.000000e+000 0.000000e+000 0.000000e+000 0.000000e+000 0.000000e+000 0.000000e+000 0.000000e+000 0.000000e+000 0.000000e+000 0.000000e+000 0.000000e+000 0.000000e+000 0.000000e+000 0.000000e+000 0.000000e+000 0.000000e+000 0.000000e+000 0.000000e+000 0.000000e+000 0.000000e+000 0.000000e+000 0.000000e+000 0.000000e+000 0.000000e+000 0.000000e+000 
