<HMMNAME> S
<HMMSTATES> 25
<STATE> 1
<MEAN> 36
-1.054497e+001 -2.884811e+000 -4.822356e+000 1.604788e+000 2.891649e+000 2.946424e+000 1.738973e+000 3.161573e+000 1.177292e+000 6.181845e-001 6.798954e-001 4.347523e-001 -1.176869e-001 2.388096e-001 1.481784e-001 -1.189480e-001 -1.738415e-001 -1.296170e-001 -6.678656e-002 1.078649e-002 -2.267699e-002 -3.306536e-002 -7.612537e-003 -7.846690e-002 -1.273695e-002 1.446747e-003 2.636822e-002 3.201934e-002 3.045633e-002 2.670372e-002 -9.366513e-003 -2.139497e-002 1.718272e-002 4.418738e-002 3.165379e-002 9.073239e-003 
<VARIANCE> 36
3.277822e+000 4.252389e+001 3.872144e+001 1.784442e+001 3.514351e+001 2.229894e+001 1.409451e+001 2.529379e+001 3.556823e+001 1.396584e+001 1.131706e+001 1.565220e+001 1.585401e-001 7.021651e-001 6.487920e-001 9.085796e-001 9.930860e-001 1.196529e+000 1.146779e+000 1.106887e+000 1.931938e+000 1.035278e+000 8.867958e-001 9.711312e-001 5.000000e-002 1.012516e-001 1.102329e-001 1.797335e-001 1.525799e-001 2.130716e-001 2.392027e-001 2.136473e-001 3.645503e-001 2.353882e-001 1.920382e-001 1.750682e-001 
<GCONST> 7.833949e+001
<STATE> 2
<MEAN> 36
-1.236684e+001 2.016545e-001 -9.638102e-001 2.254310e+000 1.317086e+000 2.319126e+000 1.294842e+000 1.739991e+000 7.913194e-001 9.344629e-001 1.169191e+000 1.307004e+000 -3.716558e-002 4.248471e-002 8.703588e-002 2.664748e-002 -2.241703e-002 -5.213804e-002 -7.469530e-002 -9.378472e-002 -5.451813e-002 2.305979e-002 4.637763e-002 4.007611e-002 9.156260e-003 1.187608e-002 1.671913e-002 6.482935e-003 -6.372869e-003 -1.980371e-002 -4.490402e-003 6.293521e-003 1.437354e-002 1.246567e-002 -6.422012e-003 9.289044e-003 
<VARIANCE> 36
9.050327e-001 2.204128e+000 3.493931e+000 3.863451e+000 6.193300e+000 6.595358e+000 8.016546e+000 8.338794e+000 9.968230e+000 9.495943e+000 7.792866e+000 8.349747e+000 1.007876e-001 2.359010e-001 3.255852e-001 3.703583e-001 6.466132e-001 6.724853e-001 7.535512e-001 8.410011e-001 9.878720e-001 1.108911e+000 8.665176e-001 8.607026e-001 5.000000e-002 5.000000e-002 6.340754e-002 7.810840e-002 1.399009e-001 1.306306e-001 1.462961e-001 1.645508e-001 1.906667e-001 2.415344e-001 1.706690e-001 1.766062e-001 
<GCONST> 5.314118e+001
<STATE> 3
<MEAN> 36
-1.201717e+001 1.329228e+000 5.688375e-001 3.061903e+000 7.908174e-001 7.509399e-001 -5.694030e-001 -1.651343e-001 -1.325599e-001 1.222051e+000 2.153348e+000 1.998545e+000 -1.253395e-001 -1.996721e-001 -2.057525e-001 -1.537266e-001 -5.603989e-002 -2.651803e-002 1.658833e-001 3.284393e-001 2.339631e-001 1.194794e-001 -1.014682e-001 -1.398960e-001 -4.027587e-002 -1.082427e-001 -1.697461e-001 -1.291295e-001 2.755279e-002 1.643814e-001 2.490981e-001 2.729980e-001 1.398842e-001 -1.213050e-003 -6.855565e-002 -5.791811e-002 
<VARIANCE> 36
1.050215e+000 1.664862e+000 2.201234e+000 4.151487e+000 4.867254e+000 5.801304e+000 5.564590e+000 6.795259e+000 8.960853e+000 1.024226e+001 1.079000e+001 9.924401e+000 1.158964e-001 2.540136e-001 4.702930e-001 5.787407e-001 6.500958e-001 5.847278e-001 8.398674e-001 1.075978e+000 1.093452e+000 1.283341e+000 9.268867e-001 1.073956e+000 5.000000e-002 5.269813e-002 8.181043e-002 9.437263e-002 1.068396e-001 1.095927e-001 1.425721e-001 2.012131e-001 2.036900e-001 2.215890e-001 2.046133e-001 2.257976e-001 
<GCONST> 5.456572e+001
<STATE> 4
<MEAN> 36
-1.255388e+001 -2.464731e-001 -1.750497e+000 1.137382e+000 6.845366e-001 2.291109e+000 2.606739e+000 4.240584e+000 2.762497e+000 1.949225e+000 1.057310e+000 7.097147e-001 3.149417e-003 2.811942e-003 1.205147e-002 -2.047479e-002 -4.747939e-003 1.346583e-001 2.131796e-001 2.480438e-001 1.763937e-001 -9.683168e-003 -9.381479e-002 -1.189177e-001 4.362920e-002 1.184307e-001 1.480391e-001 9.493830e-002 -2.848344e-002 -8.391481e-002 -1.820850e-001 -3.344631e-001 -2.248287e-001 -9.316483e-002 -3.719897e-003 2.392502e-002 
<VARIANCE> 36
1.490546e+000 1.860020e+000 4.741424e+000 8.252914e+000 7.815020e+000 7.615462e+000 6.661400e+000 1.054312e+001 1.159116e+001 1.032057e+001 1.008499e+001 1.080894e+001 1.145409e-001 2.897505e-001 6.070213e-001 9.327375e-001 6.143572e-001 9.244260e-001 9.817044e-001 1.616162e+000 1.229585e+000 1.020511e+000 1.137718e+000 1.009078e+000 5.000000e-002 5.425868e-002 1.272016e-001 1.999963e-001 1.397736e-001 1.874497e-001 1.944789e-001 3.190852e-001 2.892639e-001 2.453593e-001 2.255420e-001 2.234833e-001 
<GCONST> 6.331455e+001
<STATE> 5
<MEAN> 36
-1.251361e+001 5.347301e-001 -3.637352e-001 2.273207e+000 8.907408e-001 1.791216e+000 9.636930e-001 1.328085e+000 4.518518e-001 7.019910e-001 6.869802e-001 9.986449e-001 -2.750833e-002 -2.886863e-002 -3.858412e-002 -4.128387e-002 -5.351826e-002 -3.470723e-002 -6.638956e-002 -1.223957e-001 -7.383406e-002 2.363537e-002 4.535852e-002 5.456300e-002 -1.252401e-002 -3.394787e-002 -3.869745e-002 8.269506e-004 1.345513e-002 4.931703e-003 1.877895e-002 6.579791e-002 6.823859e-002 5.153803e-002 3.417697e-002 2.995250e-002 
<VARIANCE> 36
7.119731e-001 1.463048e+000 2.507439e+000 3.185701e+000 4.948815e+000 7.485288e+000 7.877740e+000 8.821137e+000 9.876514e+000 9.496367e+000 8.415986e+000 7.791603e+000 1.095084e-001 2.247761e-001 3.092048e-001 3.275043e-001 5.694232e-001 8.006801e-001 9.577435e-001 1.139393e+000 1.345739e+000 1.205087e+000 9.863623e-001 9.300054e-001 5.000000e-002 5.000000e-002 5.395198e-002 6.683627e-002 1.169677e-001 1.681540e-001 2.041873e-001 2.293481e-001 2.684331e-001 2.468103e-001 2.037608e-001 1.807212e-001 
<GCONST> 5.394202e+001
<STATE> 6
<MEAN> 36
-1.331320e+001 -8.452946e-001 -1.965228e+000 1.256850e+000 3.125337e-001 1.784070e+000 1.847398e+000 2.765210e+000 2.730196e+000 3.333722e+000 2.459912e+000 2.395470e+000 5.462177e-002 5.746916e-002 6.152763e-002 2.660318e-001 1.797748e-001 4.460707e-002 7.127433e-002 2.833046e-001 3.709936e-001 1.564528e-001 -6.486592e-002 2.015507e-001 1.209577e-001 2.294201e-001 2.463365e-001 1.712901e-001 1.168872e-001 4.261461e-002 -1.024337e-001 -1.956444e-001 -3.201111e-001 -3.950748e-001 -3.053264e-001 -2.538650e-001 
<VARIANCE> 36
7.143501e-001 1.142176e+000 2.325595e+000 3.367936e+000 4.329134e+000 7.737102e+000 7.957830e+000 6.469711e+000 9.048112e+000 7.963026e+000 8.563876e+000 7.731748e+000 8.033948e-002 1.816821e-001 2.740133e-001 3.493770e-001 4.604410e-001 7.496186e-001 1.105902e+000 1.035376e+000 1.091807e+000 1.139005e+000 7.418740e-001 7.663643e-001 5.000000e-002 5.000000e-002 5.000000e-002 7.391298e-002 1.029952e-001 1.674182e-001 2.477958e-001 1.589247e-001 1.733713e-001 2.060102e-001 1.599020e-001 1.510508e-001 
<GCONST> 5.015079e+001
<STATE> 7
<MEAN> 36
-1.259699e+001 6.219307e-001 -3.410362e-001 2.491746e+000 8.742731e-001 1.721974e+000 6.664498e-001 1.111868e+000 3.679431e-001 8.687049e-001 7.548829e-001 9.443883e-001 1.243613e-002 4.625628e-002 8.719392e-002 1.232161e-001 1.367667e-001 5.677946e-002 -6.263793e-002 -1.685773e-001 -2.072315e-001 -1.665205e-001 -9.481193e-002 -1.057319e-001 -8.928865e-003 -2.054577e-002 -1.370762e-002 -2.574371e-002 -1.025894e-002 1.457632e-002 6.659648e-003 -1.325381e-002 -2.115306e-002 -1.190745e-002 -2.364719e-003 4.668734e-003 
<VARIANCE> 36
7.311412e-001 1.387285e+000 2.275227e+000 4.064908e+000 5.099198e+000 5.769176e+000 7.934837e+000 7.947357e+000 8.366266e+000 7.569028e+000 7.853829e+000 8.252188e+000 1.036701e-001 1.825556e-001 3.004605e-001 5.072944e-001 6.366026e-001 7.103832e-001 1.015771e+000 9.445843e-001 9.049173e-001 9.074772e-001 9.653005e-001 9.362919e-001 5.000000e-002 5.000000e-002 5.912269e-002 9.695910e-002 1.263838e-001 1.382416e-001 2.209468e-001 1.970495e-001 1.625476e-001 1.635712e-001 1.824806e-001 1.894843e-001 
<GCONST> 5.194007e+001
<STATE> 8
<MEAN> 36
-1.271234e+001 5.751749e-001 3.652239e-001 4.181781e+000 3.133641e+000 2.924290e+000 1.308716e-001 -7.537022e-001 -2.096794e+000 -1.258036e+000 -6.363739e-001 2.843228e-001 3.241911e-002 7.439449e-003 -6.216266e-002 -2.561952e-001 -3.607569e-001 4.446461e-002 4.484930e-002 6.810583e-002 -1.784864e-001 -3.476780e-001 -2.804429e-001 -9.898829e-002 -1.672880e-002 -7.265189e-002 -2.031092e-001 -3.301751e-001 -4.039380e-001 -1.580482e-001 2.228373e-001 4.152382e-001 4.414241e-001 4.435688e-001 3.065798e-001 1.499107e-001 
<VARIANCE> 36
7.712834e-001 1.145128e+000 2.081250e+000 3.595896e+000 4.824178e+000 5.298905e+000 7.289590e+000 1.065609e+001 5.404347e+000 7.117855e+000 8.993447e+000 7.926037e+000 9.217266e-002 1.818474e-001 3.479731e-001 5.143291e-001 7.749959e-001 4.704199e-001 9.029400e-001 1.266792e+000 9.884851e-001 9.409346e-001 1.079152e+000 8.149630e-001 5.000000e-002 5.000000e-002 5.231314e-002 8.035266e-002 1.173736e-001 1.158650e-001 1.838492e-001 2.392370e-001 1.376012e-001 1.482859e-001 2.042024e-001 1.232106e-001 
<GCONST> 5.021811e+001
<STATE> 9
<MEAN> 36
-1.261014e+001 4.411509e-001 -7.278765e-001 1.904115e+000 2.178745e-001 2.432265e+000 1.330440e+000 1.456728e+000 1.238240e-001 8.361212e-002 2.712996e-001 6.615026e-001 -7.230456e-002 -1.655112e-001 -4.207149e-001 -6.532199e-001 -7.229475e-001 -2.282686e-001 5.309669e-001 8.841316e-001 8.958302e-001 8.590515e-001 5.935682e-001 3.273306e-001 -6.464451e-003 2.994685e-004 5.132885e-002 1.197322e-001 1.515827e-001 -8.804434e-002 -5.506961e-002 -1.685498e-003 1.199484e-001 1.497880e-001 9.944605e-002 5.144954e-002 
<VARIANCE> 36
5.988091e-001 1.333704e+000 1.951183e+000 3.393553e+000 3.874434e+000 3.343903e+000 8.403172e+000 8.534760e+000 8.840913e+000 7.419287e+000 7.575752e+000 6.835409e+000 8.744616e-002 1.722692e-001 2.632987e-001 4.723610e-001 5.414489e-001 6.672685e-001 9.323973e-001 1.230178e+000 6.675125e-001 8.231069e-001 7.206840e-001 5.502829e-001 5.000000e-002 5.000000e-002 5.826681e-002 9.505014e-002 9.774508e-002 6.944948e-002 2.089826e-001 2.057696e-001 1.775590e-001 1.997150e-001 2.265834e-001 1.527132e-001 
<GCONST> 4.807958e+001
<STATE> 10
<MEAN> 36
-1.287366e+001 2.586691e-003 -1.314962e+000 9.332687e-001 -5.201755e-001 1.568893e+000 2.324929e+000 3.310453e+000 2.695756e+000 3.166720e+000 2.155355e+000 1.718738e+000 8.895897e-002 5.654895e-002 1.359763e-001 1.384034e-001 1.389268e-001 -2.521295e-001 -2.280683e-002 1.379641e-001 2.443109e-001 1.752675e-001 1.378060e-001 9.069767e-002 4.486725e-002 7.549187e-002 1.530008e-001 2.954864e-001 3.182287e-001 8.885633e-002 -2.425107e-001 -4.164806e-001 -4.319324e-001 -4.527494e-001 -2.656871e-001 -1.650216e-001 
<VARIANCE> 36
6.388861e-001 1.295017e+000 2.249154e+000 3.206440e+000 3.302719e+000 7.500027e+000 7.817529e+000 9.273710e+000 6.639266e+000 6.934620e+000 7.948750e+000 7.721262e+000 6.637931e-002 1.668939e-001 2.126748e-001 4.112969e-001 4.306919e-001 4.205846e-001 9.826129e-001 8.961643e-001 1.098722e+000 1.289877e+000 1.255337e+000 8.896610e-001 5.000000e-002 5.000000e-002 5.095491e-002 8.412901e-002 8.876126e-002 1.280162e-001 1.453399e-001 1.847260e-001 1.237577e-001 1.692151e-001 1.674151e-001 1.576099e-001 
<GCONST> 4.803425e+001
<STATE> 11
<MEAN> 36
-1.266098e+001 2.797524e-001 -6.022608e-001 2.268025e+000 8.271187e-001 1.848073e+000 9.303390e-001 1.575068e+000 9.376568e-001 9.442195e-001 9.830375e-001 1.230970e+000 -5.140004e-004 5.181890e-003 2.785319e-002 3.402680e-002 4.839852e-002 1.177653e-002 -4.334761e-002 -3.903013e-002 -3.879696e-002 -4.122969e-002 -1.065811e-002 4.730705e-003 -1.462979e-003 -9.781546e-004 2.609742e-003 -5.568318e-003 -8.564043e-003 4.855543e-004 -7.417197e-004 6.542783e-003 2.561636e-003 -4.962525e-004 -2.566098e-003 -5.157313e-003 
<VARIANCE> 36
7.263952e-001 1.514049e+000 2.412032e+000 3.587176e+000 4.879977e+000 6.203690e+000 7.922911e+000 8.125607e+000 8.168260e+000 9.114802e+000 8.036158e+000 7.646531e+000 9.598009e-002 1.937550e-001 2.756917e-001 4.223023e-001 5.137107e-001 6.460803e-001 8.295609e-001 8.661424e-001 8.978568e-001 1.064856e+000 9.518896e-001 8.552761e-001 5.000000e-002 5.000000e-002 5.724754e-002 8.405131e-002 1.027535e-001 1.295020e-001 1.697048e-001 1.691206e-001 1.797414e-001 2.167114e-001 2.027338e-001 1.721340e-001 
<GCONST> 5.080140e+001
<STATE> 12
<MEAN> 36
-1.240711e+001 1.142026e+000 6.298883e-001 3.177711e+000 1.418404e+000 1.490477e+000 -5.899147e-001 3.486376e-002 -2.709173e-001 -1.932468e-001 8.873531e-001 1.318905e+000 -2.231182e-002 -1.502474e-001 -1.239982e-001 -1.057683e-001 -2.690252e-001 -1.768379e-001 1.168766e-001 2.426586e-001 -3.271058e-002 -2.230169e-001 -2.749659e-001 -3.921633e-001 -6.304378e-002 -2.458538e-001 -2.377466e-001 -1.722911e-001 -3.672628e-002 1.079581e-002 2.269726e-001 3.741634e-001 2.045005e-001 2.166028e-001 4.533419e-002 -5.258415e-002 
<VARIANCE> 36
6.634861e-001 1.443682e+000 2.695433e+000 3.691067e+000 4.355404e+000 8.053322e+000 7.225718e+000 9.172471e+000 1.136418e+001 8.806249e+000 6.700790e+000 9.727423e+000 1.152959e-001 3.131735e-001 5.065747e-001 4.646807e-001 7.148604e-001 8.848745e-001 1.109481e+000 1.124635e+000 1.557551e+000 1.135306e+000 1.042536e+000 9.027766e-001 5.000000e-002 6.171532e-002 8.647328e-002 1.014870e-001 1.412308e-001 1.615709e-001 1.951722e-001 2.035579e-001 3.250223e-001 2.228613e-001 1.782596e-001 1.658062e-001 
<GCONST> 5.678840e+001
<STATE> 13
<MEAN> 36
-1.282399e+001 -4.800112e-001 -9.926121e-001 2.016660e+000 6.385745e-001 1.736289e+000 1.635408e+000 3.102374e+000 1.132677e+000 8.010279e-001 4.044837e-001 -1.122709e-001 -7.638927e-002 -4.948458e-001 -2.727582e-001 -3.530494e-001 1.881464e-001 5.466921e-002 -1.049415e-001 4.558904e-001 3.206370e-001 5.749307e-001 3.723650e-001 -1.129194e-002 2.850066e-002 2.189465e-002 7.922032e-002 4.897684e-003 9.109365e-002 2.495826e-002 -2.000273e-001 -1.607981e-001 -6.141665e-002 2.384731e-002 1.470796e-001 1.272718e-001 
<VARIANCE> 36
8.479980e-001 1.625511e+000 2.459250e+000 3.450348e+000 6.532156e+000 7.868667e+000 7.774848e+000 8.750975e+000 1.389203e+001 1.070920e+001 9.804817e+000 8.185575e+000 1.909752e-001 6.231569e-001 8.138245e-001 5.628622e-001 8.020135e-001 7.902818e-001 1.437247e+000 1.399021e+000 1.727818e+000 1.273657e+000 1.267004e+000 9.024719e-001 5.000000e-002 7.514544e-002 1.065699e-001 8.828784e-002 1.542532e-001 1.469502e-001 2.304883e-001 2.072434e-001 3.402850e-001 2.655870e-001 2.771399e-001 1.848668e-001 
<GCONST> 6.197266e+001
<STATE> 14
<MEAN> 36
-1.275476e+001 -3.158760e+000 -1.059886e+000 6.549540e-001 1.888800e+000 3.707457e-001 -9.560342e-001 6.233804e+000 1.297828e+000 1.132116e+000 1.928630e+000 4.439370e-002 1.689324e-002 1.082076e-001 5.542732e-002 3.827954e-002 -7.517273e-003 -2.496706e-003 -3.623398e-002 1.585700e-002 1.543802e-001 2.053286e-002 -3.571686e-002 4.514241e-002 9.577703e-003 2.771408e-001 1.060730e-001 1.222815e-001 -1.038173e-001 2.703563e-002 1.161024e-001 -2.502117e-001 -8.326620e-002 -1.040145e-001 -8.523880e-002 9.625316e-003 
<VARIANCE> 36
3.700297e+000 1.449481e+001 2.199555e+001 1.878150e+001 1.129874e+001 2.167697e+001 1.576730e+001 2.984822e+001 3.356447e+001 3.089783e+001 2.208449e+001 1.634114e+001 2.833909e-001 1.941326e+000 1.330059e+000 1.333110e+000 9.805811e-001 1.636330e+000 1.145381e+000 2.769372e+000 2.238000e+000 2.047323e+000 1.892959e+000 1.140453e+000 6.638848e-002 3.993920e-001 3.193902e-001 2.934718e-001 2.316627e-001 3.779590e-001 2.462298e-001 5.756917e-001 5.324989e-001 4.754608e-001 4.302639e-001 2.274269e-001 
<GCONST> 9.046687e+001
<STATE> 15
<MEAN> 36
-1.273190e+001 1.054787e-001 -1.547690e-001 2.412790e+000 1.138240e+000 1.550909e+000 4.842532e-001 1.869026e+000 1.257347e+000 1.449606e+000 1.657108e+000 1.289627e+000 6.134549e-002 4.169392e-001 2.860812e-001 2.723843e-001 -1.091778e-001 1.219629e-002 3.735772e-002 -4.864932e-001 -5.387115e-001 -6.030140e-001 -1.873381e-001 -2.982750e-002 -2.181986e-003 -1.263030e-001 -8.586248e-002 -4.211912e-002 2.597019e-002 -1.596730e-002 2.702032e-002 1.485832e-001 -6.491864e-002 -1.084350e-001 -7.746208e-002 -6.115388e-002 
<VARIANCE> 36
7.484934e-001 1.971957e+000 3.689047e+000 5.778814e+000 7.116623e+000 7.187087e+000 8.477651e+000 1.235859e+001 1.259894e+001 1.203355e+001 7.796735e+000 8.459901e+000 1.322082e-001 3.586222e-001 5.889770e-001 6.421508e-001 1.191805e+000 1.098218e+000 9.883619e-001 1.593550e+000 1.909405e+000 1.402712e+000 8.969041e-001 9.877249e-001 5.000000e-002 8.281551e-002 1.216078e-001 1.269969e-001 2.415881e-001 1.836436e-001 2.141512e-001 3.094422e-001 4.212752e-001 2.883098e-001 1.577433e-001 2.088911e-001 
<GCONST> 6.396795e+001
<STATE> 16
<MEAN> 36
-1.274473e+001 2.374278e-001 -4.312628e-001 2.362219e+000 1.041321e+000 1.945625e+000 9.280519e-001 1.807477e+000 5.660112e-001 6.685297e-001 6.945686e-001 8.125912e-001 -1.256953e-002 -1.441239e-002 -2.330644e-002 -1.531851e-002 -1.832849e-002 7.681214e-003 2.327462e-002 1.187486e-002 4.477299e-002 5.798893e-002 3.108720e-002 2.116916e-002 -1.860877e-003 -8.550390e-003 -3.680142e-003 -1.144846e-002 -7.761669e-003 -5.648082e-003 -5.423021e-005 1.620564e-002 2.386520e-002 2.934278e-002 2.284565e-002 1.653299e-002 
<VARIANCE> 36
8.445786e-001 1.586311e+000 2.608601e+000 4.026478e+000 5.378095e+000 7.739684e+000 7.893486e+000 9.588099e+000 9.397388e+000 8.976375e+000 8.301127e+000 8.170892e+000 1.113556e-001 2.020556e-001 3.269755e-001 4.464672e-001 6.023528e-001 7.876337e-001 9.176601e-001 1.043193e+000 1.120240e+000 1.032640e+000 9.161777e-001 9.775167e-001 5.000000e-002 5.000000e-002 7.050865e-002 9.044018e-002 1.222495e-001 1.632861e-001 1.958013e-001 2.187288e-001 2.353074e-001 2.176194e-001 1.887541e-001 2.088969e-001 
<GCONST> 5.472646e+001
<STATE> 17
<MEAN> 36
-1.317455e+001 -4.159217e-001 -9.893705e-001 1.340841e+000 -2.234169e-001 1.694076e+000 1.695275e+000 3.401198e+000 2.488179e+000 3.163380e+000 3.462159e+000 2.442416e+000 1.507072e-001 1.120794e-001 8.561682e-002 -3.219005e-002 -2.138648e-003 3.542863e-002 2.917993e-002 1.447900e-001 -5.208644e-002 6.905151e-002 1.374380e-001 2.103651e-001 1.032029e-001 1.232256e-001 8.963432e-002 1.654400e-001 2.220075e-001 7.583133e-002 -1.843479e-001 -2.936249e-001 -3.660391e-001 -3.583783e-001 -4.214427e-001 -2.718308e-001 
<VARIANCE> 36
8.774578e-001 1.174580e+000 2.351245e+000 3.695724e+000 4.644091e+000 6.278634e+000 7.705403e+000 7.986300e+000 1.028688e+001 7.714111e+000 5.473871e+000 7.431035e+000 7.860760e-002 1.544356e-001 2.699123e-001 3.005280e-001 6.245825e-001 8.298468e-001 9.633650e-001 9.625090e-001 1.017288e+000 9.367372e-001 1.178252e+000 1.111549e+000 5.000000e-002 5.000000e-002 5.024534e-002 5.347286e-002 1.084022e-001 1.601807e-001 1.864841e-001 1.640804e-001 2.183932e-001 1.481746e-001 1.430148e-001 1.712107e-001 
<GCONST> 4.990201e+001
<STATE> 18
<MEAN> 36
-1.243266e+001 6.547205e-001 -1.661355e-001 2.483367e+000 1.033194e+000 1.666710e+000 4.714962e-001 1.611225e+000 5.612884e-001 8.382584e-001 8.203005e-001 1.059956e+000 7.722349e-002 2.237359e-002 -2.000289e-002 1.095520e-001 1.988303e-001 6.212067e-002 -8.965444e-002 -2.221538e-001 -2.505778e-001 -3.078231e-001 -3.434966e-001 -2.368393e-001 -2.260501e-002 -7.750814e-002 -7.428665e-002 -3.393169e-002 1.663374e-002 6.171714e-002 6.059094e-002 -1.449430e-003 2.667389e-002 3.041746e-002 2.618604e-002 1.364354e-002 
<VARIANCE> 36
6.100374e-001 1.388836e+000 2.347467e+000 3.471167e+000 5.804051e+000 5.939162e+000 7.065358e+000 8.292564e+000 7.480821e+000 7.983830e+000 8.377926e+000 8.139073e+000 1.031318e-001 1.711980e-001 2.839967e-001 3.618786e-001 6.580573e-001 7.759058e-001 9.220477e-001 1.060480e+000 1.006129e+000 7.913365e-001 1.067077e+000 8.922646e-001 5.000000e-002 5.000000e-002 5.641194e-002 8.130412e-002 1.217108e-001 1.548853e-001 1.661487e-001 1.785141e-001 1.435698e-001 1.263540e-001 2.150053e-001 1.739289e-001 
<GCONST> 5.057378e+001
<STATE> 19
<MEAN> 36
-1.224995e+001 -9.779085e-002 -1.486381e+000 1.804540e+000 1.630725e+000 2.846573e+000 1.198336e+000 7.661143e-001 -9.684323e-001 -6.353037e-001 -7.493839e-001 -1.765204e-001 -4.658160e-002 -3.777789e-001 -4.146252e-001 -2.022241e-001 9.744119e-002 2.333844e-001 1.670901e-001 -1.128704e-001 1.164573e-002 2.444185e-001 2.600314e-001 2.507149e-001 -7.900744e-003 -6.554698e-002 2.086901e-002 8.073730e-002 2.743465e-002 -7.766631e-002 -4.259731e-002 1.362921e-001 2.063511e-001 1.905131e-001 2.996487e-001 2.521136e-001 
<VARIANCE> 36
8.471428e-001 1.465109e+000 2.988086e+000 2.989306e+000 6.530767e+000 6.586469e+000 1.064966e+001 9.674922e+000 1.111001e+001 8.629152e+000 6.809781e+000 7.425592e+000 9.615934e-002 2.023756e-001 3.957383e-001 5.012506e-001 4.949368e-001 7.257030e-001 7.907935e-001 7.001279e-001 1.162994e+000 1.062152e+000 1.014887e+000 9.147641e-001 5.000000e-002 5.000000e-002 7.379655e-002 9.149264e-002 1.050483e-001 1.449070e-001 2.147940e-001 1.601030e-001 2.778617e-001 1.981841e-001 1.696035e-001 1.492203e-001 
<GCONST> 5.329674e+001
<STATE> 20
<MEAN> 36
-1.265324e+001 -6.270097e-001 -9.372111e-001 2.189971e+000 1.928014e+000 2.613773e+000 1.353488e+000 2.116426e+000 1.319455e+000 1.919628e+000 2.169853e+000 2.338152e+000 1.208048e-001 -1.716970e-001 -4.007767e-002 1.570120e-001 2.980191e-001 1.914967e-002 -8.261252e-002 1.614966e-001 1.585559e-001 9.162926e-002 3.215833e-001 3.416042e-001 1.057073e-001 -1.183747e-003 -4.709586e-002 1.821338e-002 4.697722e-002 -4.410084e-002 -1.285791e-001 -4.456686e-002 -1.089837e-001 -1.940607e-001 -8.906450e-002 -1.319311e-001 
<VARIANCE> 36
9.070271e-001 2.258118e+000 6.875814e+000 7.166519e+000 6.267263e+000 7.275158e+000 1.124174e+001 1.092418e+001 1.137070e+001 1.262244e+001 1.051781e+001 1.014201e+001 1.472380e-001 3.853901e-001 6.515229e-001 8.036403e-001 9.029739e-001 8.788709e-001 1.479296e+000 1.325438e+000 1.501563e+000 1.663430e+000 1.074686e+000 1.232356e+000 5.000000e-002 5.755728e-002 1.203133e-001 1.333288e-001 1.686901e-001 1.624655e-001 3.225002e-001 2.509428e-001 2.800351e-001 3.227618e-001 2.057227e-001 2.537451e-001 
<GCONST> 6.571608e+001
<STATE> 21
<MEAN> 36
-1.157727e+001 -2.047417e+000 -2.428267e+000 2.925785e+000 3.563361e+000 2.442943e+000 -8.971512e-002 2.002680e+000 4.019511e-001 -5.688567e-002 1.406170e+000 1.498017e+000 3.055001e-001 -5.112681e-001 -5.807051e-001 1.171110e-001 5.048180e-001 2.245446e-001 -1.828385e-001 -1.701422e-001 -2.691424e-001 -2.385697e-001 9.096207e-002 -3.677926e-002 5.008347e-002 -1.770691e-001 -1.705219e-001 -4.470434e-002 6.843349e-002 7.205772e-002 5.522852e-002 3.554945e-002 -5.117633e-002 2.016478e-002 1.446873e-002 -4.743005e-002 
<VARIANCE> 36
2.468752e+000 9.271582e+000 1.171057e+001 1.677957e+001 1.332906e+001 1.606315e+001 1.342258e+001 2.801587e+001 1.452272e+001 1.374163e+001 1.521673e+001 9.800937e+000 2.646059e-001 1.180387e+000 1.301538e+000 1.059244e+000 1.321433e+000 1.390846e+000 1.292016e+000 1.834854e+000 1.562415e+000 1.204436e+000 1.079723e+000 1.005725e+000 5.523323e-002 2.196493e-001 1.999758e-001 1.910525e-001 2.055376e-001 2.570188e-001 2.109916e-001 3.266054e-001 2.940460e-001 2.020553e-001 2.144682e-001 1.846370e-001 
<GCONST> 7.817143e+001
<STATE> 22
<MEAN> 36
-9.007712e+000 -1.310591e+001 -9.602354e+000 5.595236e+000 9.647101e+000 7.917562e+000 1.944896e+000 1.251925e+000 -1.215947e+000 1.943927e-001 1.113047e+000 1.474441e+000 3.784602e-001 -1.424563e+000 -6.363923e-001 5.706988e-002 3.683625e-001 2.635548e-001 1.302389e-001 4.043376e-001 -1.956766e-001 -2.094427e-001 -6.382489e-003 -1.645390e-001 -1.822575e-003 2.908230e-002 1.060925e-001 -3.917184e-002 -8.105267e-002 -7.085553e-002 -8.351624e-003 4.556332e-002 -2.449706e-002 -2.376649e-002 -2.782460e-002 -3.364881e-002 
<VARIANCE> 36
7.154115e+000 1.214460e+002 3.985170e+001 2.726424e+001 4.163760e+001 4.377601e+001 1.988902e+001 2.099255e+001 2.852705e+001 2.262727e+001 4.687984e+001 1.240199e+001 3.101345e-001 1.824320e+000 1.724954e+000 1.086628e+000 1.443054e+000 1.407584e+000 1.391478e+000 1.732521e+000 1.670593e+000 1.335905e+000 1.345830e+000 9.760601e-001 5.388608e-002 1.746846e-001 1.770593e-001 1.696935e-001 2.126014e-001 2.329768e-001 2.301914e-001 2.967009e-001 3.332097e-001 2.506256e-001 2.085908e-001 2.257926e-001 
<GCONST> 8.962420e+001
<STATE> 23
<MEAN> 36
-1.127099e+001 -4.015407e+000 -2.938993e+000 3.800645e+000 2.202653e+000 4.350616e+000 -1.845502e+000 -3.748082e-001 -2.636835e+000 -2.006464e+000 2.358736e+000 9.572562e-001 3.023797e-001 -3.452755e-001 -1.850254e-002 1.007035e-001 2.132106e-001 1.710889e-001 -9.494829e-002 -3.250002e-002 -9.048459e-002 7.370698e-002 5.598082e-002 -4.310575e-002 1.891434e-004 5.793916e-002 3.181614e-002 -1.446388e-002 1.533154e-002 2.012379e-002 4.605772e-002 2.078581e-002 4.867270e-003 5.523324e-002 -3.451186e-002 -1.221582e-002 
<VARIANCE> 36
6.442038e+001 1.229045e+002 7.790929e+001 2.737432e+001 7.454961e+001 3.571456e+001 6.422780e+001 1.311003e+002 4.802474e+001 3.034742e+001 2.144059e+001 1.332991e+001 1.195282e+000 2.529774e+000 2.306844e+000 1.192925e+000 1.357284e+000 1.463696e+000 2.154955e+000 2.862397e+000 1.846136e+000 1.653366e+000 1.118719e+000 1.456465e+000 1.415166e-001 2.919491e-001 3.849529e-001 1.984874e-001 2.186079e-001 3.015907e-001 4.022293e-001 4.227584e-001 3.002740e-001 3.384161e-001 2.134569e-001 2.722533e-001 
<GCONST> 1.035186e+002
<TRANSP> 25
0.000000e+000 1.000000e+000 0.000000e+000 0.000000e+000 0.000000e+000 0.000000e+000 0.000000e+000 0.000000e+000 0.000000e+000 0.000000e+000 0.000000e+000 0.000000e+000 0.000000e+000 0.000000e+000 0.000000e+000 0.000000e+000 0.000000e+000 0.000000e+000 0.000000e+000 0.000000e+000 0.000000e+000 0.000000e+000 0.000000e+000 0.000000e+000 0.000000e+000 
0.000000e+000 6.900823e-001 3.099177e-001 0.000000e+000 0.000000e+000 0.000000e+000 0.000000e+000 0.000000e+000 0.000000e+000 0.000000e+000 0.000000e+000 0.000000e+000 0.000000e+000 0.000000e+000 0.000000e+000 0.000000e+000 0.000000e+000 0.000000e+000 0.000000e+000 0.000000e+000 0.000000e+000 0.000000e+000 0.000000e+000 0.000000e+000 0.000000e+000 
0.000000e+000 0.000000e+000 9.116593e-001 8.834067e-002 0.000000e+000 0.000000e+000 0.000000e+000 0.000000e+000 0.000000e+000 0.000000e+000 0.000000e+000 0.000000e+000 0.000000e+000 0.000000e+000 0.000000e+000 0.000000e+000 0.000000e+000 0.000000e+000 0.000000e+000 0.000000e+000 0.000000e+000 0.000000e+000 0.000000e+000 0.000000e+000 0.000000e+000 
0.000000e+000 0.000000e+000 0.000000e+000 6.755321e-001 3.244680e-001 0.000000e+000 0.000000e+000 0.000000e+000 0.000000e+000 0.000000e+000 0.000000e+000 0.000000e+000 0.000000e+000 0.000000e+000 0.000000e+000 0.000000e+000 0.000000e+000 0.000000e+000 0.000000e+000 0.000000e+000 0.000000e+000 0.000000e+000 0.000000e+000 0.000000e+000 0.000000e+000 
0.000000e+000 0.000000e+000 0.000000e+000 0.000000e+000 7.344891e-001 2.655109e-001 0.000000e+000 0.000000e+000 0.000000e+000 0.000000e+000 0.000000e+000 0.000000e+000 0.000000e+000 0.000000e+000 0.000000e+000 0.000000e+000 0.000000e+000 0.000000e+000 0.000000e+000 0.000000e+000 0.000000e+000 0.000000e+000 0.000000e+000 0.000000e+000 0.000000e+000 
0.000000e+000 0.000000e+000 0.000000e+000 0.000000e+000 0.000000e+000 9.132232e-001 8.677688e-002 0.000000e+000 0.000000e+000 0.000000e+000 0.000000e+000 0.000000e+000 0.000000e+000 0.000000e+000 0.000000e+000 0.000000e+000 0.000000e+000 0.000000e+000 0.000000e+000 0.000000e+000 0.000000e+000 0.000000e+000 0.000000e+000 0.000000e+000 0.000000e+000 
0.000000e+000 0.000000e+000 0.000000e+000 0.000000e+000 0.000000e+000 0.000000e+000 4.724299e-001 5.275702e-001 0.000000e+000 0.000000e+000 0.000000e+000 0.000000e+000 0.000000e+000 0.000000e+000 0.000000e+000 0.000000e+000 0.000000e+000 0.000000e+000 0.000000e+000 0.000000e+000 0.000000e+000 0.000000e+000 0.000000e+000 0.000000e+000 0.000000e+000 
0.000000e+000 0.000000e+000 0.000000e+000 0.000000e+000 0.000000e+000 0.000000e+000 0.000000e+000 8.903509e-001 1.096491e-001 0.000000e+000 0.000000e+000 0.000000e+000 0.000000e+000 0.000000e+000 0.000000e+000 0.000000e+000 0.000000e+000 0.000000e+000 0.000000e+000 0.000000e+000 0.000000e+000 0.000000e+000 0.000000e+000 0.000000e+000 0.000000e+000 
0.000000e+000 0.000000e+000 0.000000e+000 0.000000e+000 0.000000e+000 0.000000e+000 0.000000e+000 0.000000e+000 4.444243e-001 5.555758e-001 0.000000e+000 0.000000e+000 0.000000e+000 0.000000e+000 0.000000e+000 0.000000e+000 0.000000e+000 0.000000e+000 0.000000e+000 0.000000e+000 0.000000e+000 0.000000e+000 0.000000e+000 0.000000e+000 0.000000e+000 
0.000000e+000 0.000000e+000 0.000000e+000 0.000000e+000 0.000000e+000 0.000000e+000 0.000000e+000 0.000000e+000 0.000000e+000 4.171857e-001 5.828143e-001 0.000000e+000 0.000000e+000 0.000000e+000 0.000000e+000 0.000000e+000 0.000000e+000 0.000000e+000 0.000000e+000 0.000000e+000 0.000000e+000 0.000000e+000 0.000000e+000 0.000000e+000 0.000000e+000 
0.000000e+000 0.000000e+000 0.000000e+000 0.000000e+000 0.000000e+000 0.000000e+000 0.000000e+000 0.000000e+000 0.000000e+000 0.000000e+000 4.307185e-001 5.692816e-001 0.000000e+000 0.000000e+000 0.000000e+000 0.000000e+000 0.000000e+000 0.000000e+000 0.000000e+000 0.000000e+000 0.000000e+000 0.000000e+000 0.000000e+000 0.000000e+000 0.000000e+000 
0.000000e+000 0.000000e+000 0.000000e+000 0.000000e+000 0.000000e+000 0.000000e+000 0.000000e+000 0.000000e+000 0.000000e+000 0.000000e+000 0.000000e+000 9.562820e-001 4.371781e-002 0.000000e+000 0.000000e+000 0.000000e+000 0.000000e+000 0.000000e+000 0.000000e+000 0.000000e+000 0.000000e+000 0.000000e+000 0.000000e+000 0.000000e+000 0.000000e+000 
0.000000e+000 0.000000e+000 0.000000e+000 0.000000e+000 0.000000e+000 0.000000e+000 0.000000e+000 0.000000e+000 0.000000e+000 0.000000e+000 0.000000e+000 0.000000e+000 5.264543e-001 4.735457e-001 0.000000e+000 0.000000e+000 0.000000e+000 0.000000e+000 0.000000e+000 0.000000e+000 0.000000e+000 0.000000e+000 0.000000e+000 0.000000e+000 0.000000e+000 
0.000000e+000 0.000000e+000 0.000000e+000 0.000000e+000 0.000000e+000 0.000000e+000 0.000000e+000 0.000000e+000 0.000000e+000 0.000000e+000 0.000000e+000 0.000000e+000 0.000000e+000 6.492892e-001 3.507109e-001 0.000000e+000 0.000000e+000 0.000000e+000 0.000000e+000 0.000000e+000 0.000000e+000 0.000000e+000 0.000000e+000 0.000000e+000 0.000000e+000 
0.000000e+000 0.000000e+000 0.000000e+000 0.000000e+000 0.000000e+000 0.000000e+000 0.000000e+000 0.000000e+000 0.000000e+000 0.000000e+000 0.000000e+000 0.000000e+000 0.000000e+000 0.000000e+000 7.024423e-001 2.975577e-001 0.000000e+000 0.000000e+000 0.000000e+000 0.000000e+000 0.000000e+000 0.000000e+000 0.000000e+000 0.000000e+000 0.000000e+000 
0.000000e+000 0.000000e+000 0.000000e+000 0.000000e+000 0.000000e+000 0.000000e+000 0.000000e+000 0.000000e+000 0.000000e+000 0.000000e+000 0.000000e+000 0.000000e+000 0.000000e+000 0.000000e+000 0.000000e+000 6.706195e-001 3.293805e-001 0.000000e+000 0.000000e+000 0.000000e+000 0.000000e+000 0.000000e+000 0.000000e+000 0.000000e+000 0.000000e+000 
0.000000e+000 0.000000e+000 0.000000e+000 0.000000e+000 0.000000e+000 0.000000e+000 0.000000e+000 0.000000e+000 0.000000e+000 0.000000e+000 0.000000e+000 0.000000e+000 0.000000e+000 0.000000e+000 0.000000e+000 0.000000e+000 9.591474e-001 4.085259e-002 0.000000e+000 0.000000e+000 0.000000e+000 0.000000e+000 0.000000e+000 0.000000e+000 0.000000e+000 
0.000000e+000 0.000000e+000 0.000000e+000 0.000000e+000 0.000000e+000 0.000000e+000 0.000000e+000 0.000000e+000 0.000000e+000 0.000000e+000 0.000000e+000 0.000000e+000 0.000000e+000 0.000000e+000 0.000000e+000 0.000000e+000 0.000000e+000 4.579029e-001 5.420971e-001 0.000000e+000 0.000000e+000 0.000000e+000 0.000000e+000 0.000000e+000 0.000000e+000 
0.000000e+000 0.000000e+000 0.000000e+000 0.000000e+000 0.000000e+000 0.000000e+000 0.000000e+000 0.000000e+000 0.000000e+000 0.000000e+000 0.000000e+000 0.000000e+000 0.000000e+000 0.000000e+000 0.000000e+000 0.000000e+000 0.000000e+000 0.000000e+000 7.916938e-001 2.083062e-001 0.000000e+000 0.000000e+000 0.000000e+000 0.000000e+000 0.000000e+000 
0.000000e+000 0.000000e+000 0.000000e+000 0.000000e+000 0.000000e+000 0.000000e+000 0.000000e+000 0.000000e+000 0.000000e+000 0.000000e+000 0.000000e+000 0.000000e+000 0.000000e+000 0.000000e+000 0.000000e+000 0.000000e+000 0.000000e+000 0.000000e+000 0.000000e+000 5.409051e-001 4.590949e-001 0.000000e+000 0.000000e+000 0.000000e+000 0.000000e+000 
0.000000e+000 0.000000e+000 0.000000e+000 0.000000e+000 0.000000e+000 0.000000e+000 0.000000e+000 0.000000e+000 0.000000e+000 0.000000e+000 0.000000e+000 0.000000e+000 0.000000e+000 0.000000e+000 0.000000e+000 0.000000e+000 0.000000e+000 0.000000e+000 0.000000e+000 0.000000e+000 6.019691e-001 3.980309e-001 0.000000e+000 0.000000e+000 0.000000e+000 
0.000000e+000 0.000000e+000 0.000000e+000 0.000000e+000 0.000000e+000 0.000000e+000 0.000000e+000 0.000000e+000 0.000000e+000 0.000000e+000 0.000000e+000 0.000000e+000 0.000000e+000 0.000000e+000 0.000000e+000 0.000000e+000 0.000000e+000 0.000000e+000 0.000000e+000 0.000000e+000 0.000000e+000 6.669140e-001 3.330860e-001 0.000000e+000 0.000000e+000 
0.000000e+000 0.000000e+000 0.000000e+000 0.000000e+000 0.000000e+000 0.000000e+000 0.000000e+000 0.000000e+000 0.000000e+000 0.000000e+000 0.000000e+000 0.000000e+000 0.000000e+000 0.000000e+000 0.000000e+000 0.000000e+000 0.000000e+000 0.000000e+000 0.000000e+000 0.000000e+000 0.000000e+000 0.000000e+000 7.298510e-001 2.701490e-001 0.000000e+000 
0.000000e+000 0.000000e+000 0.000000e+000 0.000000e+000 0.000000e+000 0.000000e+000 0.000000e+000 0.000000e+000 0.000000e+000 0.000000e+000 0.000000e+000 0.000000e+000 0.000000e+000 0.000000e+000 0.000000e+000 0.000000e+000 0.000000e+000 0.000000e+000 0.000000e+000 0.000000e+000 0.000000e+000 0.000000e+000 0.000000e+000 7.054621e-001 2.945379e-001 
0.000000e+000 0.000000e+000 0.000000e+000 0.000000e+000 0.000000e+000 0.000000e+000 0.000000e+000 0.000000e+000 0.000000e+000 0.000000e+000 0.000000e+000 0.000000e+000 0.000000e+000 0.000000e+000 0.000000e+000 0.000000e+000 0.000000e+000 0.000000e+000 0.000000e+000 0.000000e+000 0.000000e+000 0.000000e+000 0.000000e+000 0.000000e+000 0.000000e+000 
