<HMMNAME> sil
<HMMSTATES> 5
<STATE> 1
<MEAN> 36
6.898487e+000 -9.612557e+000 -9.015981e+000 2.756615e+001 -1.855918e+001 5.889694e+000 1.128583e+001 -8.088441e+000 2.030738e-001 8.300333e+000 -3.094856e+000 -2.320002e+000 -1.662573e-002 1.446038e-003 1.455863e-002 2.433874e-002 1.235965e-002 1.656617e-002 4.317391e-003 1.128527e-002 1.290778e-002 -2.032316e-002 -1.245147e-002 1.128501e-002 8.091570e-003 -1.839941e-003 -7.212634e-003 -1.146368e-002 6.324383e-003 -8.472027e-003 -1.159883e-002 -1.336028e-003 2.123620e-004 6.291174e-003 1.387030e-003 -5.082529e-003 
<VARIANCE> 36
8.375784e-001 2.047186e+000 2.807776e+000 5.551403e+000 6.274299e+000 7.510399e+000 8.636724e+000 9.482217e+000 1.031842e+001 9.148235e+000 9.568563e+000 8.048040e+000 1.232131e-001 2.648913e-001 3.079391e-001 7.282000e-001 7.453205e-001 9.830199e-001 1.047725e+000 1.162002e+000 1.294947e+000 1.096416e+000 1.182305e+000 9.238249e-001 5.000000e-002 5.642734e-002 6.172568e-002 1.568131e-001 1.573620e-001 2.134288e-001 2.275726e-001 2.504421e-001 2.699775e-001 2.368267e-001 2.572223e-001 1.918645e-001 
<GCONST> 5.948060e+001
<STATE> 2
<MEAN> 36
6.842822e+000 -9.451161e+000 -8.828147e+000 2.759906e+001 -1.875079e+001 5.981989e+000 1.116622e+001 -8.415032e+000 2.388921e-001 8.099791e+000 -3.266621e+000 -2.362561e+000 3.210962e-004 4.929924e-003 8.854156e-003 6.680415e-003 1.067335e-002 9.821725e-003 5.728621e-004 4.051559e-003 9.629360e-005 -8.456696e-003 -1.168816e-002 -7.576900e-004 2.305928e-003 -4.720159e-003 -1.109666e-003 -4.043366e-003 1.851404e-003 -9.746668e-004 -4.758613e-003 4.462920e-004 -1.089063e-003 1.100031e-004 -6.467717e-004 -3.471250e-004 
<VARIANCE> 36
7.440332e-001 1.509972e+000 2.827077e+000 3.855381e+000 5.616269e+000 5.540688e+000 7.088314e+000 8.751820e+000 8.267444e+000 8.056302e+000 8.136167e+000 7.691181e+000 1.043473e-001 2.083671e-001 3.611210e-001 4.406832e-001 6.697466e-001 6.541142e-001 8.125213e-001 1.029235e+000 8.948730e-001 8.787938e-001 9.130675e-001 8.755000e-001 5.000000e-002 5.000000e-002 7.740674e-002 9.351855e-002 1.409587e-001 1.359823e-001 1.693593e-001 2.174480e-001 1.776579e-001 1.782472e-001 1.891356e-001 1.760529e-001 
<GCONST> 5.240411e+001
<STATE> 3
<MEAN> 36
7.508692e+000 -1.215582e+001 -8.624803e+000 2.706409e+001 -1.935075e+001 4.973220e+000 1.045961e+001 -7.269366e+000 1.967708e+000 9.452703e+000 -3.944434e+000 -2.163414e+000 2.491799e-001 -8.652966e-002 -8.186614e-002 -2.242964e-001 -2.448378e-002 -3.090043e-001 -3.332839e-001 2.796339e-002 -4.277861e-002 -2.266427e-002 -3.993742e-002 3.168527e-003 7.403818e-002 -5.215809e-002 -6.130025e-002 -5.940806e-002 -1.935178e-002 -1.075271e-001 -7.460296e-002 -7.293971e-003 -4.314606e-002 -2.663170e-002 2.942105e-003 2.551770e-002 
<VARIANCE> 36
5.588536e+000 4.077535e+001 1.240022e+001 2.409503e+001 2.355082e+001 2.299825e+001 2.391510e+001 2.122984e+001 1.667693e+001 1.507714e+001 1.490803e+001 1.002627e+001 8.193096e-001 4.189837e+000 1.410439e+000 2.743144e+000 2.179778e+000 3.318452e+000 3.229078e+000 2.422009e+000 1.613596e+000 1.357812e+000 1.999140e+000 1.330403e+000 1.219031e-001 8.402285e-001 2.183543e-001 4.886738e-001 4.158201e-001 6.464799e-001 5.598064e-001 5.281290e-001 3.379054e-001 2.778950e-001 3.968254e-001 2.561352e-001 
<GCONST> 9.703492e+001
<TRANSP> 5
0.000000e+000 1.000000e+000 0.000000e+000 0.000000e+000 0.000000e+000 
0.000000e+000 9.841891e-001 1.581089e-002 0.000000e+000 0.000000e+000 
0.000000e+000 0.000000e+000 9.924706e-001 7.529414e-003 0.000000e+000 
0.000000e+000 0.000000e+000 0.000000e+000 9.524735e-001 4.752638e-002 
0.000000e+000 0.000000e+000 0.000000e+000 0.000000e+000 0.000000e+000 
