<HMMNAME> A
<HMMSTATES> 5
<STATE> 1
<MEAN> 36
1.762649e+001 -1.392847e+001 -1.383942e+001 2.016947e+001 -1.596902e+001 -9.905175e+000 -5.134628e+000 -7.681255e+000 -2.855206e+000 7.399067e+000 -8.238388e-001 4.476231e+000 4.814900e-001 8.629685e-002 1.626846e-001 -4.174543e-002 1.178967e-001 -6.462903e-001 -4.558581e-001 -5.446076e-002 -3.909536e-001 -2.267559e-002 1.875572e-001 2.207929e-001 -1.764506e-001 1.113277e-001 1.670010e-001 2.813250e-002 1.130470e-001 1.094572e-001 4.803329e-002 5.353965e-002 6.511756e-002 -1.767835e-002 -6.320512e-002 -6.697656e-002 
<VARIANCE> 36
1.315883e+001 1.165238e+001 1.814350e+001 1.716615e+001 2.476221e+001 1.474844e+001 1.391317e+001 1.644290e+001 2.022563e+001 1.080695e+001 8.027588e+000 8.193834e+000 1.567541e+000 9.727882e-001 2.106527e+000 1.558281e+000 2.969842e+000 2.716760e+000 2.156765e+000 1.469138e+000 1.570453e+000 1.281682e+000 7.966689e-001 1.208887e+000 2.725432e-001 1.780408e-001 4.407706e-001 2.650804e-001 6.250988e-001 6.251223e-001 4.525365e-001 3.214543e-001 3.412360e-001 2.506149e-001 1.876284e-001 2.852259e-001 
<GCONST> 8.993085e+001
<STATE> 2
<MEAN> 36
1.768336e+001 -1.087995e+001 -9.915142e+000 2.166504e+001 -1.569946e+001 -1.254796e+001 -8.229105e+000 -9.361010e+000 -2.516692e+000 8.480608e+000 1.072128e+000 5.429405e+000 -2.497697e-001 1.582320e-001 1.775136e-001 4.314172e-001 -1.774144e-001 3.875814e-001 1.977428e-001 -2.588965e-001 2.830992e-001 3.975054e-001 2.047711e-001 -6.653642e-002 -2.911379e-002 -2.634313e-002 -5.898220e-002 2.805464e-002 -7.992299e-002 1.942392e-001 1.980579e-001 9.822052e-003 2.539192e-002 2.766358e-002 -1.684096e-002 -7.941164e-002 
<VARIANCE> 36
4.440116e+000 6.482864e+000 8.467108e+000 2.507862e+001 2.256065e+001 1.265058e+001 1.716950e+001 1.662431e+001 9.199373e+000 1.670478e+001 7.172688e+000 7.384919e+000 5.212543e-001 4.365869e-001 6.852746e-001 3.048739e+000 2.338226e+000 1.483234e+000 2.086397e+000 1.351788e+000 8.008423e-001 1.009861e+000 7.374540e-001 7.080293e-001 1.082950e-001 6.290883e-002 1.319472e-001 7.462631e-001 6.033278e-001 2.081100e-001 4.214770e-001 3.159156e-001 1.723123e-001 1.815229e-001 1.713820e-001 1.524714e-001 
<GCONST> 7.736129e+001
<STATE> 3
<MEAN> 36
1.078180e+001 -1.006100e+001 -9.830871e+000 2.560789e+001 -2.024719e+001 -2.406826e-002 3.675384e+000 -1.052289e+001 1.710128e+000 1.309182e+001 1.792246e+000 2.104877e+000 -5.097751e-001 -1.681618e-002 -1.203770e-001 -1.296964e-001 -2.771519e-001 9.477153e-001 1.099390e+000 2.524379e-002 -6.921327e-002 -2.786646e-001 -4.292274e-001 -4.167274e-001 4.214521e-002 1.345612e-002 3.211764e-002 -7.745416e-003 2.917903e-003 -1.090304e-001 -7.595186e-002 1.184074e-002 -3.167920e-002 -6.457203e-002 -6.686768e-002 2.432062e-002 
<VARIANCE> 36
4.280797e+000 3.057745e+000 1.381596e+001 1.000534e+001 1.020639e+001 1.337610e+001 1.955382e+001 1.622748e+001 1.410879e+001 1.203176e+001 1.025827e+001 1.310646e+001 3.230006e-001 3.427095e-001 1.648536e+000 1.005806e+000 1.731247e+000 1.527446e+000 2.223462e+000 1.786503e+000 1.559842e+000 1.138539e+000 1.218665e+000 1.691164e+000 6.330187e-002 7.034493e-002 3.479401e-001 1.856985e-001 3.208952e-001 2.976581e-001 4.706771e-001 3.675740e-001 2.434084e-001 2.216693e-001 2.720130e-001 3.442109e-001 
<GCONST> 7.878581e+001
<TRANSP> 5
0.000000e+000 1.000000e+000 0.000000e+000 0.000000e+000 0.000000e+000 
0.000000e+000 9.131170e-001 8.688293e-002 0.000000e+000 0.000000e+000 
0.000000e+000 0.000000e+000 9.393698e-001 6.063018e-002 0.000000e+000 
0.000000e+000 0.000000e+000 0.000000e+000 9.206146e-001 7.938540e-002 
0.000000e+000 0.000000e+000 0.000000e+000 0.000000e+000 0.000000e+000 
