<HMMNAME> 0
<HMMSTATES> 25
<STATE> 1
<MEAN> 36
-1.045628e+001 1.798754e+001 5.510953e+000 2.236507e+000 2.919144e+000 -1.521833e+001 1.425311e+000 -1.103918e+001 -2.294714e+000 5.175423e+000 -8.100760e-001 -3.898316e+000 -3.454674e-001 1.543708e-001 -1.589385e-001 9.395290e-002 -1.138584e-001 -6.946371e-002 -7.909334e-002 -9.154848e-002 2.503673e-001 -8.656717e-002 -2.542354e-002 5.552654e-002 5.643814e-002 -8.664733e-002 -4.820719e-003 -2.723787e-003 -7.700644e-002 5.446976e-002 -3.825644e-003 4.127798e-002 2.157231e-002 -1.875459e-003 -2.896400e-002 1.794585e-003 
<VARIANCE> 36
4.624465e+001 6.603697e+001 4.578922e+001 1.201146e+002 1.244914e+002 9.432149e+001 6.093791e+001 7.804203e+001 5.639117e+001 6.467608e+001 4.645714e+001 6.278678e+001 7.992561e-001 1.010404e+000 9.715879e-001 1.237973e+000 1.839516e+000 2.214536e+000 2.613272e+000 2.296630e+000 2.893539e+000 2.469552e+000 2.119777e+000 1.829847e+000 6.353397e-002 9.576940e-002 1.462640e-001 1.929317e-001 3.081636e-001 3.508082e-001 4.384647e-001 3.930233e-001 4.603650e-001 4.204122e-001 3.889472e-001 3.370656e-001 
<GCONST> 1.069811e+002
<STATE> 2
<MEAN> 36
-1.805125e+001 1.268027e+001 -1.337296e+000 9.457941e+000 -4.776288e+000 5.105998e-001 5.086580e-001 7.633307e-001 1.666571e+000 -1.584033e+000 8.607029e-001 3.040351e+000 -4.294316e-002 -1.835985e-001 9.003736e-002 -8.061847e-002 -1.832839e-001 -2.404744e-001 -4.378897e-002 -4.267529e-002 6.370239e-002 5.231894e-003 -6.613063e-002 1.321979e-001 9.612370e-002 -8.773202e-002 2.856812e-002 -4.241407e-002 -2.028794e-002 -1.395680e-001 -5.892706e-002 -3.828430e-002 -4.388554e-003 2.964198e-002 -1.209728e-002 2.669352e-002 
<VARIANCE> 36
2.110744e+001 1.539428e+001 2.181363e+001 3.046791e+001 3.366965e+001 7.934381e+001 3.656503e+001 4.043263e+001 2.583750e+001 3.248795e+001 2.711636e+001 2.505757e+001 5.020949e-001 7.914968e-001 8.344916e-001 1.385464e+000 1.672421e+000 2.454329e+000 2.126884e+000 1.975615e+000 1.992152e+000 2.120197e+000 2.099537e+000 1.901797e+000 5.741010e-002 1.335064e-001 1.485087e-001 2.802649e-001 3.295138e-001 4.061045e-001 4.002778e-001 3.942845e-001 4.172324e-001 4.241693e-001 4.036236e-001 3.748377e-001 
<GCONST> 9.625666e+001
<STATE> 3
<MEAN> 36
-1.279460e+001 7.896670e+000 2.532443e+000 5.979741e+000 -6.657857e+000 -1.312606e+001 -1.149422e+000 -3.885646e+000 3.282178e+000 -4.223313e-001 -3.228652e+000 4.582868e+000 1.407937e+000 -1.565225e+000 -4.779234e-002 -6.039896e-001 -9.687498e-001 -1.349678e+000 -5.481178e-001 -3.252991e-002 4.526026e-001 4.406645e-001 -5.177183e-001 3.747575e-001 3.475055e-002 -1.532107e-001 -1.009939e-001 -9.890551e-002 -2.630799e-002 1.665795e-001 9.776973e-002 -1.273507e-002 1.700811e-002 9.893447e-002 -3.345072e-002 4.230621e-002 
<VARIANCE> 36
2.650304e+001 3.621348e+001 2.022278e+001 4.641462e+001 6.345012e+001 6.265006e+001 3.643006e+001 7.746267e+001 3.889506e+001 3.952452e+001 3.735081e+001 4.832171e+001 6.716838e-001 1.591908e+000 1.303950e+000 2.053143e+000 1.703277e+000 3.290612e+000 2.550717e+000 2.443896e+000 2.289767e+000 2.422756e+000 2.102083e+000 2.474926e+000 1.205571e-001 1.913109e-001 1.719860e-001 3.395048e-001 3.198149e-001 4.637220e-001 5.332838e-001 3.856179e-001 4.799461e-001 4.116292e-001 4.386868e-001 4.016050e-001 
<GCONST> 1.054534e+002
<STATE> 4
<MEAN> 36
-3.059322e+000 2.568905e+000 5.438535e+000 -3.768155e+000 -3.183390e+000 -1.703284e+001 -6.169298e+000 -1.298394e+001 9.633528e+000 9.853422e+000 -1.227450e+000 -4.508407e+000 7.303941e-001 -1.684866e+000 -7.735431e-002 -2.847134e-001 -7.834788e-001 2.925300e-001 -2.421938e-001 4.216266e-001 5.044634e-001 -3.273961e-001 -8.694622e-002 1.633968e-002 -1.093876e-001 5.739029e-002 1.107530e-002 -7.026076e-002 7.812586e-002 8.639893e-002 9.030083e-002 1.589816e-001 -1.015574e-001 -1.650830e-001 9.900043e-003 4.494049e-002 
<VARIANCE> 36
1.780280e+001 5.682191e+001 1.479266e+001 4.803267e+001 5.022423e+001 6.165434e+001 3.794889e+001 4.822887e+001 4.402480e+001 5.388001e+001 1.804073e+001 5.879700e+001 2.884456e-001 8.751003e-001 5.346618e-001 1.169152e+000 8.890134e-001 1.578294e+000 2.316913e+000 1.734935e+000 1.895247e+000 2.245540e+000 1.350813e+000 1.577872e+000 5.000000e-002 6.291403e-002 8.564281e-002 1.346952e-001 1.814260e-001 2.172867e-001 2.700386e-001 2.397714e-001 2.692173e-001 2.721310e-001 1.953741e-001 2.012536e-001 
<GCONST> 8.998137e+001
<STATE> 5
<MEAN> 36
-5.830131e+000 -6.822235e+000 9.724976e-002 7.552409e-001 -1.300894e+001 -1.506079e+001 6.110559e-001 -1.553697e+000 2.382999e+000 1.211272e+000 -5.914323e+000 7.502196e+000 2.266742e-001 -1.390443e+000 -1.516923e-002 -1.146670e+000 4.944712e-002 5.296492e-002 6.183627e-001 7.990582e-001 -8.567706e-002 1.984644e-001 -4.698999e-001 2.206503e-001 -1.236505e-001 1.744965e-001 5.712156e-002 2.476039e-002 1.270110e-001 1.527369e-001 4.254653e-002 -4.008960e-003 2.747800e-002 3.900550e-002 3.646309e-002 -1.369515e-001 
<VARIANCE> 36
2.815618e+001 2.448450e+001 1.442585e+001 7.251191e+001 1.949082e+001 2.605336e+001 3.582641e+001 3.093161e+001 3.983428e+001 3.002491e+001 1.587265e+001 7.648038e+001 3.466668e-001 5.732386e-001 5.674778e-001 8.012949e-001 9.629210e-001 1.069757e+000 1.211489e+000 1.289495e+000 1.536037e+000 1.702456e+000 1.034535e+000 1.921440e+000 6.791704e-002 9.722054e-002 1.063726e-001 1.409033e-001 1.406641e-001 2.014078e-001 2.430525e-001 2.194935e-001 2.123949e-001 3.187523e-001 1.598417e-001 3.151703e-001 
<GCONST> 8.540493e+001
<STATE> 6
<MEAN> 36
-3.321361e+000 -1.231316e+000 3.012090e+000 -1.338291e+000 -9.646704e+000 -1.208169e+001 -4.654099e+000 7.763238e+000 1.208391e+001 3.585394e+000 -1.265270e+001 4.683248e+000 1.148533e-001 -4.922160e-001 1.111464e-001 -2.862972e-001 1.597514e-001 3.651582e-001 3.802000e-001 3.303527e-001 -1.506315e-001 1.314895e-001 -1.215340e-001 -2.453718e-001 -2.604053e-002 5.841051e-002 -2.241566e-002 7.221806e-002 5.654509e-002 -1.304765e-002 2.500197e-002 -5.235713e-002 -2.548187e-002 -2.047826e-002 7.762093e-002 -5.887300e-002 
<VARIANCE> 36
1.175140e+001 3.647866e+001 1.422925e+001 2.744021e+001 2.291814e+001 2.553872e+001 3.816845e+001 6.417243e+001 5.736491e+001 2.940321e+001 4.340735e+001 5.061971e+001 1.473851e-001 3.940935e-001 5.115849e-001 1.086766e+000 1.285456e+000 1.205335e+000 1.131858e+000 1.930722e+000 2.034072e+000 1.863209e+000 1.253042e+000 1.224163e+000 5.000000e-002 6.430256e-002 7.900358e-002 2.037172e-001 2.487580e-001 2.107896e-001 2.049744e-001 3.384064e-001 3.761618e-001 3.493008e-001 2.353248e-001 1.943948e-001 
<GCONST> 8.643976e+001
<STATE> 7
<MEAN> 36
-1.040819e+001 -1.461798e+001 4.300151e-001 -1.143186e+001 -8.616970e+000 -1.272592e+001 1.087974e+001 1.920459e+000 6.130135e+000 -1.708755e+000 -3.686744e+000 6.644613e+000 9.245193e-004 -2.499099e-001 7.887847e-002 -2.982688e-001 1.996327e-001 8.369779e-002 4.036935e-001 3.424191e-002 4.885115e-003 -3.727273e-002 7.887897e-002 -9.724276e-002 4.804154e-003 4.100871e-002 1.066969e-002 4.052464e-002 -7.600769e-003 -4.949925e-003 -6.841942e-002 -1.605238e-002 -1.121208e-002 -2.511645e-003 7.129584e-003 1.782181e-002 
<VARIANCE> 36
1.420962e+001 1.856757e+001 9.507905e+000 2.339895e+001 1.628770e+001 2.081272e+001 4.557446e+001 2.598312e+001 2.266276e+001 2.546475e+001 2.393337e+001 1.929329e+001 9.317831e-002 2.767902e-001 2.831875e-001 4.828766e-001 4.425704e-001 6.764469e-001 7.314652e-001 8.291672e-001 8.560248e-001 5.871778e-001 6.690771e-001 5.654964e-001 5.000000e-002 5.000000e-002 5.000000e-002 7.263854e-002 7.302652e-002 9.937243e-002 1.344764e-001 1.360364e-001 1.355986e-001 8.930527e-002 1.236863e-001 1.041877e-001 
<GCONST> 6.422449e+001
<STATE> 8
<MEAN> 36
-7.932630e+000 -1.809448e+001 2.555537e+000 -1.425998e+001 -8.469161e+000 -8.623637e+000 8.587682e+000 6.700631e+000 2.297436e-001 3.784231e+000 -8.162634e+000 9.039825e+000 1.093705e-001 -1.441933e-001 3.920366e-002 -5.331387e-002 -1.274241e-001 1.756212e-001 -1.292875e-001 2.411138e-001 3.677072e-002 -8.224593e-002 1.203471e-001 -1.061894e-001 1.754998e-002 1.697852e-002 -4.434571e-003 8.009783e-002 -9.891376e-002 3.351074e-002 -1.056992e-001 -1.942861e-002 6.374547e-002 -5.916127e-002 4.434845e-002 -3.623417e-002 
<VARIANCE> 36
9.095914e+000 1.470504e+001 9.643184e+000 2.398939e+001 1.667691e+001 2.757659e+001 3.641973e+001 2.823083e+001 2.969774e+001 1.842516e+001 2.137421e+001 2.415362e+001 7.956883e-002 2.457394e-001 2.019536e-001 4.371367e-001 6.843275e-001 6.739841e-001 1.133789e+000 7.837567e-001 7.931149e-001 7.095437e-001 6.304803e-001 5.222337e-001 5.000000e-002 5.000000e-002 5.000000e-002 5.499614e-002 8.774262e-002 1.072750e-001 1.317838e-001 1.443666e-001 1.370588e-001 1.191950e-001 1.022598e-001 1.023375e-001 
<GCONST> 6.399229e+001
<STATE> 9
<MEAN> 36
4.110290e-001 -1.296913e+001 7.747592e-002 3.995621e+000 -8.852160e+000 -1.280674e+001 6.687558e+000 -6.414319e-001 -4.374883e+000 1.412735e+000 -1.276062e+001 2.875240e-001 8.093783e-002 -8.094319e-002 -1.497300e-002 -1.278727e-002 2.175080e-002 2.342769e-001 -2.528763e-001 5.525030e-002 6.852636e-002 -2.598216e-002 -2.175228e-002 -2.646236e-001 -6.809043e-003 2.391086e-002 1.915168e-002 1.822211e-002 -1.997328e-002 6.386346e-003 -4.295010e-002 1.231037e-002 5.334020e-002 4.487254e-002 3.918266e-002 4.633546e-002 
<VARIANCE> 36
1.041268e+001 1.476820e+001 1.694242e+001 5.333111e+001 1.983319e+001 3.491554e+001 3.852549e+001 3.493198e+001 6.118758e+001 6.596816e+001 4.292727e+001 5.204755e+001 1.956010e-001 3.374672e-001 4.940121e-001 6.216437e-001 1.221768e+000 9.708938e-001 1.582721e+000 1.512777e+000 1.961077e+000 1.943481e+000 1.624934e+000 1.297181e+000 5.000000e-002 5.109712e-002 6.952376e-002 9.419840e-002 1.683484e-001 1.484653e-001 2.341567e-001 2.542407e-001 3.450252e-001 2.452022e-001 1.975297e-001 2.098052e-001 
<GCONST> 8.383233e+001
<STATE> 10
<MEAN> 36
2.686808e+000 -1.446090e+001 7.868889e+000 -8.095559e+000 -8.924319e+000 -6.541661e+000 -9.221713e+000 -3.250996e+000 1.127185e+001 6.010289e-001 3.141742e+000 -7.203402e+000 1.596209e-001 -2.318236e-001 1.438630e-001 7.753142e-002 -1.949344e-001 4.012571e-001 -4.218535e-001 9.605795e-002 6.313599e-003 -1.275947e-001 3.244855e-001 -7.241385e-002 -1.205655e-002 4.804007e-002 2.740255e-002 2.476010e-002 2.487121e-002 -1.842727e-002 1.624766e-002 -5.894332e-002 3.910465e-003 3.867968e-002 -4.081327e-002 4.689324e-002 
<VARIANCE> 36
1.273704e+001 1.797943e+001 2.309000e+001 1.784293e+001 1.598939e+001 1.570439e+001 5.299012e+001 5.139802e+001 4.305295e+001 2.714656e+001 3.376614e+001 4.550166e+001 1.011617e-001 2.379782e-001 3.869342e-001 4.534630e-001 7.212133e-001 7.202116e-001 1.024645e+000 1.213447e+000 1.644145e+000 1.128693e+000 8.642448e-001 8.908764e-001 5.000000e-002 5.000000e-002 6.604645e-002 7.369908e-002 9.979111e-002 1.243524e-001 1.667206e-001 1.653787e-001 1.972276e-001 1.513808e-001 1.556561e-001 1.652604e-001 
<GCONST> 7.343886e+001
<STATE> 11
<MEAN> 36
4.124599e+000 -1.484143e+001 7.610694e+000 -6.065154e+000 -1.085475e+001 -1.820540e+000 -1.210726e+001 -5.467978e+000 8.742152e+000 2.158725e+000 4.138864e+000 -7.384408e+000 -7.547010e-003 8.999473e-002 4.638067e-002 1.270537e-001 -5.610028e-002 1.309264e-001 1.167747e-001 -3.135643e-001 -1.854941e-002 2.270773e-001 -9.430017e-002 3.204722e-001 5.641811e-003 4.121214e-002 -5.085375e-004 2.654822e-002 5.927367e-002 -3.930610e-002 1.039268e-001 1.604995e-002 -4.259823e-002 6.909415e-002 -4.734579e-002 5.313570e-002 
<VARIANCE> 36
2.734354e+001 2.353709e+001 3.982244e+001 2.638928e+001 4.633142e+001 3.626405e+001 6.367274e+001 5.403200e+001 3.713639e+001 3.359040e+001 5.546082e+001 6.070378e+001 5.360022e-001 6.235926e-001 8.671663e-001 1.277073e+000 1.962071e+000 1.746824e+000 2.401129e+000 2.404097e+000 2.390414e+000 1.855688e+000 1.866078e+000 1.922509e+000 8.784822e-002 1.308639e-001 1.307358e-001 1.793321e-001 3.373821e-001 3.059862e-001 3.724169e-001 3.670010e-001 3.179407e-001 3.653540e-001 3.535092e-001 3.612273e-001 
<GCONST> 9.847621e+001
<STATE> 12
<MEAN> 36
-7.151844e+000 -1.075519e+001 7.504154e+000 -9.387399e-001 -9.565576e+000 -3.534744e+000 1.433032e+000 5.857580e+000 8.579469e+000 1.755687e+000 -3.634795e+000 3.742867e+000 5.647340e-002 3.079321e-001 4.926565e-002 7.705419e-001 2.419442e-001 3.247522e-001 -2.173026e-001 -3.954701e-001 1.047605e-001 1.121494e-001 -6.137362e-002 -1.228106e-001 1.417112e-001 -1.472766e-001 -2.022298e-001 -1.431770e-001 -9.750053e-002 -6.398038e-002 -3.545773e-002 -6.825581e-002 8.753925e-003 -1.979434e-002 -3.902205e-002 -2.709020e-002 
<VARIANCE> 36
2.403503e+001 2.782533e+001 2.469045e+001 5.856890e+001 4.330737e+001 3.871739e+001 3.291341e+001 4.548871e+001 3.645624e+001 4.369750e+001 4.685604e+001 4.049817e+001 1.674875e+000 3.159431e+000 2.682359e+000 2.817765e+000 3.877515e+000 2.407157e+000 2.787750e+000 2.277651e+000 3.478446e+000 2.368068e+000 2.760524e+000 2.277306e+000 2.284376e-001 5.323279e-001 4.195689e-001 5.165954e-001 8.583415e-001 4.356915e-001 5.496616e-001 4.314710e-001 8.044847e-001 4.242755e-001 4.957415e-001 4.595390e-001 
<GCONST> 1.127085e+002
<STATE> 13
<MEAN> 36
1.609508e+000 -1.001738e+001 1.197867e+000 1.696018e+000 -5.213262e+000 -8.100971e+000 -8.124136e-001 -3.538961e+000 1.529340e+000 5.398147e+000 -9.142203e+000 -1.544170e+000 4.258423e-001 -1.799430e-001 -5.023697e-001 -3.641062e-001 -2.608038e-001 7.163417e-002 -4.961327e-002 -1.932408e-001 1.450597e-001 3.040410e-001 3.292723e-001 5.501617e-002 -7.518592e-002 -1.105965e-001 3.089655e-002 -2.691981e-002 1.835656e-002 1.282560e-001 6.329521e-002 6.023087e-002 4.662169e-003 -2.350722e-002 9.805071e-002 -3.910666e-002 
<VARIANCE> 36
1.583361e+001 2.251548e+001 2.213745e+001 3.256679e+001 3.590194e+001 4.962948e+001 3.683690e+001 4.399673e+001 9.273753e+001 4.442641e+001 5.301250e+001 4.662869e+001 7.431874e-001 1.471484e+000 1.502990e+000 1.742640e+000 2.294924e+000 1.891103e+000 2.167320e+000 2.035635e+000 3.021261e+000 2.644550e+000 2.059359e+000 2.251477e+000 1.220010e-001 1.710526e-001 2.092492e-001 2.579600e-001 3.389453e-001 3.726945e-001 4.374093e-001 3.745375e-001 5.301937e-001 4.479949e-001 3.539377e-001 4.338130e-001 
<GCONST> 1.032716e+002
<STATE> 14
<MEAN> 36
-2.327836e+000 -1.811057e+001 1.511209e+000 -2.819391e+000 -1.570015e+001 -2.982530e+000 -2.407884e+000 2.197731e+000 1.209218e+001 1.816096e+000 -4.086446e+000 5.090514e+000 4.700122e-001 -1.081436e+000 -6.816942e-001 -3.749003e-001 -3.341331e-001 8.814312e-001 -5.426886e-001 -2.574002e-002 3.726992e-001 -2.888654e-001 1.604046e-001 -1.856073e-001 -1.480094e-001 2.472782e-001 6.715629e-002 -6.596889e-002 4.468809e-001 1.331283e-001 4.485422e-002 1.016800e-001 -2.389448e-001 -1.328460e-001 8.251501e-002 -1.907219e-001 
<VARIANCE> 36
2.066293e+001 2.936644e+001 1.781779e+001 1.949957e+001 4.151483e+001 3.133537e+001 3.263699e+001 5.130818e+001 4.512594e+001 5.748647e+001 3.644115e+001 4.187024e+001 1.855185e-001 1.010370e+000 6.156689e-001 5.423489e-001 1.331317e+000 9.548307e-001 1.525821e+000 1.541434e+000 2.147761e+000 1.017140e+000 1.327990e+000 1.126297e+000 5.000000e-002 1.132369e-001 1.039725e-001 1.270059e-001 1.537710e-001 2.103080e-001 2.355822e-001 2.604177e-001 3.108349e-001 2.694747e-001 1.688185e-001 2.045964e-001 
<GCONST> 8.614655e+001
<STATE> 15
<MEAN> 36
-3.044502e+000 -2.093717e+001 -4.109542e+000 -7.644654e+000 -7.520184e+000 5.186881e+000 -5.225086e+000 3.053121e+000 1.046894e+001 1.474740e+000 -4.104429e+000 1.632350e+000 4.724757e-002 2.046427e-001 -4.610727e-001 -4.665370e-001 9.796003e-001 4.814111e-001 -1.639998e-001 -3.575649e-001 -2.495690e-001 3.524979e-001 7.774222e-002 -3.599933e-001 -9.292295e-003 5.834682e-002 1.639584e-002 6.589712e-003 -6.957067e-003 -4.770706e-002 2.908485e-002 -5.590312e-002 4.462394e-003 2.004209e-002 -1.154319e-003 2.839081e-002 
<VARIANCE> 36
8.687516e+000 2.379476e+001 1.933559e+001 1.923594e+001 4.982085e+001 3.775479e+001 2.269832e+001 3.895671e+001 3.593846e+001 3.381577e+001 1.979036e+001 1.798877e+001 8.459879e-002 3.114157e-001 2.986598e-001 4.462385e-001 6.629958e-001 6.157841e-001 8.817200e-001 8.957185e-001 8.124973e-001 8.651272e-001 7.484424e-001 7.220795e-001 5.000000e-002 5.000000e-002 5.073357e-002 7.386856e-002 9.965505e-002 1.074862e-001 1.331077e-001 1.282217e-001 1.214971e-001 1.237871e-001 1.277763e-001 1.013109e-001 
<GCONST> 6.823483e+001
<STATE> 16
<MEAN> 36
8.243145e+000 -1.528308e+001 2.533429e+000 -1.177443e+001 -7.443706e+000 7.423069e+000 -7.966245e+000 -7.277341e+000 4.875875e+000 -2.392624e-001 1.103432e+001 -1.947453e+000 7.108479e-002 1.405077e-001 -1.995288e-001 -1.784706e-001 2.202207e-001 4.536501e-001 3.177641e-001 2.595338e-002 -2.385214e-001 -3.519996e-001 1.739775e-001 8.625293e-002 -1.308471e-002 2.563255e-002 2.954241e-003 3.476024e-002 -4.569390e-003 -2.369982e-002 1.681659e-002 2.132099e-003 -1.463754e-002 -2.097866e-002 -5.053732e-002 9.875392e-003 
<VARIANCE> 36
1.447286e+001 1.213249e+001 2.698184e+001 3.204269e+001 2.926165e+001 4.425195e+001 4.210365e+001 3.809738e+001 4.127478e+001 6.085031e+001 5.386115e+001 1.747105e+001 1.798610e-001 2.480290e-001 4.257830e-001 6.554256e-001 9.055543e-001 9.215789e-001 1.090447e+000 1.291585e+000 1.616956e+000 1.576867e+000 1.074246e+000 9.393216e-001 5.000000e-002 5.000000e-002 6.267076e-002 8.846475e-002 1.558260e-001 1.413319e-001 1.828629e-001 1.824146e-001 2.433242e-001 2.500392e-001 1.753267e-001 1.452731e-001 
<GCONST> 7.916419e+001
<STATE> 17
<MEAN> 36
6.925921e+000 -8.425854e+000 2.033285e-001 -8.637082e+000 -5.370789e+000 1.287578e+001 -5.589281e-001 -5.760200e+000 2.403288e+000 -5.653257e+000 6.918621e+000 -3.125830e+000 -1.905951e-001 3.041488e-001 -1.486207e-001 4.818338e-002 5.927569e-002 -1.932591e-001 1.664814e-001 5.196503e-003 -5.568192e-002 8.664495e-002 -2.539143e-001 -1.450675e-002 -1.277443e-002 -3.135597e-003 1.241642e-003 -7.841084e-003 -1.711053e-002 -1.669925e-002 -2.112120e-002 1.687767e-002 -1.651515e-002 3.297829e-002 2.435440e-002 -1.494650e-003 
<VARIANCE> 36
1.752020e+001 3.369841e+001 2.347190e+001 4.185022e+001 3.729924e+001 4.686841e+001 3.473426e+001 3.904528e+001 3.910047e+001 7.966558e+001 5.411795e+001 3.072511e+001 1.913660e-001 4.968091e-001 9.009613e-001 1.185076e+000 1.600294e+000 1.846509e+000 1.765580e+000 2.185769e+000 2.081172e+000 2.192284e+000 1.852123e+000 1.642283e+000 5.000000e-002 9.141706e-002 1.517352e-001 1.956633e-001 2.872184e-001 3.580559e-001 3.314957e-001 3.840427e-001 3.824010e-001 4.116275e-001 3.260056e-001 3.022675e-001 
<GCONST> 9.494291e+001
<STATE> 18
<MEAN> 36
-1.420596e+000 -1.040346e+001 -1.163939e+001 -1.286644e+001 3.237479e+000 8.572255e+000 -6.263276e+000 -3.719116e+000 7.375038e+000 3.932623e+000 -3.164536e+000 -1.065656e+000 -1.108829e-002 6.903424e-001 -2.952566e-002 9.847117e-002 2.119851e-001 1.372281e-001 7.137603e-002 -2.395048e-002 -3.050252e-001 -2.360473e-001 2.147375e-001 -1.381011e-001 -1.421616e-002 2.494787e-002 7.466857e-002 3.600312e-002 -7.414695e-002 -3.948281e-002 5.538864e-002 3.335056e-002 -4.655698e-002 -1.311962e-002 3.698699e-002 4.047680e-003 
<VARIANCE> 36
7.552238e+000 2.754905e+001 2.485807e+001 3.710774e+001 2.587553e+001 4.100686e+001 2.824344e+001 2.494285e+001 2.491537e+001 3.974466e+001 3.569432e+001 2.420559e+001 1.374836e-001 3.263069e-001 8.123629e-001 8.291739e-001 9.716493e-001 1.047351e+000 1.370603e+000 1.476424e+000 1.353296e+000 1.330009e+000 1.280714e+000 1.344186e+000 5.000000e-002 5.000000e-002 1.317065e-001 1.445496e-001 1.684354e-001 1.838409e-001 2.463443e-001 3.125259e-001 2.672387e-001 2.350921e-001 2.472262e-001 2.795187e-001 
<GCONST> 8.243513e+001
<STATE> 19
<MEAN> 36
4.318081e+000 -6.492798e+000 -3.455598e+000 -3.471511e+000 2.346726e+000 -6.191442e-001 4.075969e+000 -8.074379e+000 -7.600627e+000 2.237968e+000 -6.647783e-001 -4.390382e+000 -1.174001e-001 2.405189e-001 5.354690e-002 1.974220e-002 4.566667e-003 1.020123e-001 5.425846e-002 -4.899770e-002 -5.817275e-002 -2.197203e-001 1.794686e-001 -4.710456e-002 -1.728857e-002 2.944862e-003 -4.737542e-003 1.151926e-002 4.397830e-004 -1.147158e-002 -2.462364e-002 3.432976e-002 5.678877e-002 1.154429e-002 -1.761820e-002 3.082007e-004 
<VARIANCE> 36
1.186381e+001 2.272684e+001 2.374452e+001 2.579758e+001 3.338355e+001 5.932745e+001 3.483135e+001 4.541326e+001 6.806667e+001 7.772261e+001 3.951961e+001 3.415736e+001 3.650787e-001 7.725938e-001 1.072614e+000 1.570092e+000 1.647603e+000 2.278154e+000 2.204943e+000 2.862851e+000 3.037087e+000 2.877157e+000 2.741977e+000 2.271173e+000 6.435268e-002 1.607395e-001 2.095206e-001 2.737894e-001 3.060486e-001 4.267756e-001 4.067436e-001 5.791201e-001 6.192205e-001 5.790201e-001 5.505871e-001 4.627133e-001 
<GCONST> 1.020305e+002
<STATE> 20
<MEAN> 36
-1.078703e+000 2.038455e+000 -5.810847e+000 -9.958833e+000 -3.143781e+000 7.707846e+000 -1.315847e+000 -6.961405e+000 -2.998663e+000 -3.065336e+000 6.192011e+000 -1.405547e+000 -4.313816e-001 3.785434e-001 -9.368468e-003 3.027688e-001 -1.049378e-001 -2.352324e-001 1.132505e-001 3.196537e-001 -2.142103e-001 1.027430e-002 -1.042814e-001 1.380863e-001 -3.046921e-002 -5.798735e-003 5.687761e-002 1.350685e-001 1.582445e-001 1.258224e-002 -3.953337e-002 -5.933939e-003 7.281539e-002 -5.226195e-002 -1.445163e-001 -4.023876e-002 
<VARIANCE> 36
2.391057e+001 3.444426e+001 2.860695e+001 4.126386e+001 3.679573e+001 3.429179e+001 3.383391e+001 4.666038e+001 4.999686e+001 6.625205e+001 3.422755e+001 2.326578e+001 1.071872e+000 9.389433e-001 1.606230e+000 2.378269e+000 1.826245e+000 1.585388e+000 1.656065e+000 2.318359e+000 2.068441e+000 2.169347e+000 1.773581e+000 1.641884e+000 1.511305e-001 1.596278e-001 2.719247e-001 4.194948e-001 3.558480e-001 1.910475e-001 3.444831e-001 3.492678e-001 3.818371e-001 3.880669e-001 3.567844e-001 2.984409e-001 
<GCONST> 1.007154e+002
<STATE> 21
<MEAN> 36
-1.706930e+000 1.208751e+000 -5.716806e+000 -5.390498e+000 5.300886e-001 5.849259e+000 -8.726603e-001 -3.311772e+000 1.924558e+000 1.403652e+000 4.633635e-001 -3.004209e+000 -4.466904e-001 3.392521e-001 5.873798e-001 8.328147e-001 5.807766e-001 -3.026412e-002 2.328162e-002 5.425866e-002 -1.032183e-001 -1.309897e-001 -1.662470e-001 -2.674535e-002 -2.521225e-002 -1.110084e-001 6.149292e-003 5.066992e-002 5.825843e-002 5.491934e-002 1.698157e-002 2.729053e-002 -4.339826e-002 -7.542356e-002 4.067842e-002 6.163090e-002 
<VARIANCE> 36
1.071692e+001 1.742142e+001 2.358797e+001 2.285121e+001 2.565888e+001 3.131831e+001 3.564219e+001 4.143033e+001 3.280071e+001 3.229656e+001 3.889432e+001 2.204747e+001 1.938135e-001 4.568180e-001 6.937266e-001 1.178917e+000 1.526291e+000 1.301012e+000 1.921705e+000 2.572802e+000 2.722111e+000 2.784424e+000 2.430836e+000 1.768226e+000 5.000000e-002 8.539287e-002 1.173428e-001 1.777124e-001 2.615686e-001 2.776342e-001 3.771417e-001 5.366001e-001 4.176078e-001 4.535356e-001 4.588648e-001 3.450966e-001 
<GCONST> 9.147795e+001
<STATE> 22
<MEAN> 36
-5.251677e+000 -3.130766e+000 1.731258e+000 -3.729314e+000 1.182025e+000 -5.671665e-001 1.498304e+000 -6.393522e+000 -1.635797e+000 -4.205267e+000 2.184322e+000 -5.861479e+000 -3.122605e-001 -4.990554e-002 4.289420e-003 8.189872e-002 -3.751540e-002 -2.268034e-001 2.049716e-002 2.496154e-001 -4.425350e-002 -5.529889e-002 1.979669e-002 1.049157e-001 2.399778e-002 -1.757772e-002 -7.128909e-002 -7.914710e-002 -1.080381e-001 -9.697021e-003 6.741871e-002 4.506168e-002 6.114977e-002 4.630825e-002 4.178097e-002 4.342361e-002 
<VARIANCE> 36
1.450780e+001 1.987996e+001 3.778817e+001 5.461243e+001 4.150122e+001 5.499147e+001 6.436449e+001 7.649017e+001 7.175547e+001 6.435923e+001 4.987826e+001 4.047387e+001 2.339951e-001 6.222291e-001 1.326818e+000 1.449382e+000 1.617790e+000 1.939395e+000 2.211853e+000 2.824331e+000 2.645057e+000 2.820119e+000 2.744814e+000 1.605408e+000 5.000000e-002 9.910666e-002 2.506567e-001 2.783606e-001 3.365739e-001 3.980143e-001 4.308891e-001 5.937019e-001 5.238362e-001 5.423383e-001 5.256603e-001 3.273326e-001 
<GCONST> 1.025764e+002
<STATE> 23
<MEAN> 36
-8.191142e+000 2.782646e+000 -2.834704e+000 1.035459e+000 2.444552e+000 6.623164e+000 2.078967e+000 8.886252e-001 1.210506e+000 5.135377e-001 1.415351e+000 1.049599e+000 -1.904255e-001 1.777860e-001 1.573449e-001 1.791203e-001 -2.641689e-001 -1.940226e-001 2.387841e-001 2.416113e-001 1.437567e-001 1.029456e-001 -1.124794e-002 1.026783e-001 1.802277e-002 1.010958e-002 1.921246e-002 -4.572880e-002 -2.729291e-002 -7.294097e-003 -6.256357e-002 -4.807825e-002 6.241915e-003 1.949932e-002 -2.700972e-002 -9.428735e-003 
<VARIANCE> 36
1.480290e+001 1.386924e+001 2.010781e+001 2.606930e+001 3.438241e+001 3.101820e+001 2.771765e+001 2.582521e+001 2.275950e+001 2.625126e+001 1.939337e+001 1.869837e+001 2.600917e-001 4.226881e-001 6.828968e-001 9.978887e-001 1.533186e+000 2.050090e+000 2.454465e+000 2.189092e+000 2.031399e+000 2.455458e+000 1.801581e+000 1.606354e+000 5.000000e-002 9.353403e-002 1.379540e-001 1.784724e-001 2.913112e-001 4.075482e-001 4.011219e-001 4.188723e-001 3.819611e-001 5.008624e-001 3.382084e-001 3.240992e-001 
<GCONST> 8.963786e+001
<TRANSP> 25
0.000000e+000 1.000000e+000 0.000000e+000 0.000000e+000 0.000000e+000 0.000000e+000 0.000000e+000 0.000000e+000 0.000000e+000 0.000000e+000 0.000000e+000 0.000000e+000 0.000000e+000 0.000000e+000 0.000000e+000 0.000000e+000 0.000000e+000 0.000000e+000 0.000000e+000 0.000000e+000 0.000000e+000 0.000000e+000 0.000000e+000 0.000000e+000 0.000000e+000 
0.000000e+000 8.800946e-001 1.199053e-001 0.000000e+000 0.000000e+000 0.000000e+000 0.000000e+000 0.000000e+000 0.000000e+000 0.000000e+000 0.000000e+000 0.000000e+000 0.000000e+000 0.000000e+000 0.000000e+000 0.000000e+000 0.000000e+000 0.000000e+000 0.000000e+000 0.000000e+000 0.000000e+000 0.000000e+000 0.000000e+000 0.000000e+000 0.000000e+000 
0.000000e+000 0.000000e+000 8.805851e-001 1.194149e-001 0.000000e+000 0.000000e+000 0.000000e+000 0.000000e+000 0.000000e+000 0.000000e+000 0.000000e+000 0.000000e+000 0.000000e+000 0.000000e+000 0.000000e+000 0.000000e+000 0.000000e+000 0.000000e+000 0.000000e+000 0.000000e+000 0.000000e+000 0.000000e+000 0.000000e+000 0.000000e+000 0.000000e+000 
0.000000e+000 0.000000e+000 0.000000e+000 7.516382e-001 2.483618e-001 0.000000e+000 0.000000e+000 0.000000e+000 0.000000e+000 0.000000e+000 0.000000e+000 0.000000e+000 0.000000e+000 0.000000e+000 0.000000e+000 0.000000e+000 0.000000e+000 0.000000e+000 0.000000e+000 0.000000e+000 0.000000e+000 0.000000e+000 0.000000e+000 0.000000e+000 0.000000e+000 
0.000000e+000 0.000000e+000 0.000000e+000 0.000000e+000 7.753475e-001 2.246525e-001 0.000000e+000 0.000000e+000 0.000000e+000 0.000000e+000 0.000000e+000 0.000000e+000 0.000000e+000 0.000000e+000 0.000000e+000 0.000000e+000 0.000000e+000 0.000000e+000 0.000000e+000 0.000000e+000 0.000000e+000 0.000000e+000 0.000000e+000 0.000000e+000 0.000000e+000 
0.000000e+000 0.000000e+000 0.000000e+000 0.000000e+000 0.000000e+000 7.422857e-001 2.577143e-001 0.000000e+000 0.000000e+000 0.000000e+000 0.000000e+000 0.000000e+000 0.000000e+000 0.000000e+000 0.000000e+000 0.000000e+000 0.000000e+000 0.000000e+000 0.000000e+000 0.000000e+000 0.000000e+000 0.000000e+000 0.000000e+000 0.000000e+000 0.000000e+000 
0.000000e+000 0.000000e+000 0.000000e+000 0.000000e+000 0.000000e+000 0.000000e+000 7.333244e-001 2.666757e-001 0.000000e+000 0.000000e+000 0.000000e+000 0.000000e+000 0.000000e+000 0.000000e+000 0.000000e+000 0.000000e+000 0.000000e+000 0.000000e+000 0.000000e+000 0.000000e+000 0.000000e+000 0.000000e+000 0.000000e+000 0.000000e+000 0.000000e+000 
0.000000e+000 0.000000e+000 0.000000e+000 0.000000e+000 0.000000e+000 0.000000e+000 0.000000e+000 8.637578e-001 1.362422e-001 0.000000e+000 0.000000e+000 0.000000e+000 0.000000e+000 0.000000e+000 0.000000e+000 0.000000e+000 0.000000e+000 0.000000e+000 0.000000e+000 0.000000e+000 0.000000e+000 0.000000e+000 0.000000e+000 0.000000e+000 0.000000e+000 
0.000000e+000 0.000000e+000 0.000000e+000 0.000000e+000 0.000000e+000 0.000000e+000 0.000000e+000 0.000000e+000 8.703642e-001 1.296359e-001 0.000000e+000 0.000000e+000 0.000000e+000 0.000000e+000 0.000000e+000 0.000000e+000 0.000000e+000 0.000000e+000 0.000000e+000 0.000000e+000 0.000000e+000 0.000000e+000 0.000000e+000 0.000000e+000 0.000000e+000 
0.000000e+000 0.000000e+000 0.000000e+000 0.000000e+000 0.000000e+000 0.000000e+000 0.000000e+000 0.000000e+000 0.000000e+000 8.243417e-001 1.756583e-001 0.000000e+000 0.000000e+000 0.000000e+000 0.000000e+000 0.000000e+000 0.000000e+000 0.000000e+000 0.000000e+000 0.000000e+000 0.000000e+000 0.000000e+000 0.000000e+000 0.000000e+000 0.000000e+000 
0.000000e+000 0.000000e+000 0.000000e+000 0.000000e+000 0.000000e+000 0.000000e+000 0.000000e+000 0.000000e+000 0.000000e+000 0.000000e+000 8.657859e-001 1.342142e-001 0.000000e+000 0.000000e+000 0.000000e+000 0.000000e+000 0.000000e+000 0.000000e+000 0.000000e+000 0.000000e+000 0.000000e+000 0.000000e+000 0.000000e+000 0.000000e+000 0.000000e+000 
0.000000e+000 0.000000e+000 0.000000e+000 0.000000e+000 0.000000e+000 0.000000e+000 0.000000e+000 0.000000e+000 0.000000e+000 0.000000e+000 0.000000e+000 8.011075e-001 1.988925e-001 0.000000e+000 0.000000e+000 0.000000e+000 0.000000e+000 0.000000e+000 0.000000e+000 0.000000e+000 0.000000e+000 0.000000e+000 0.000000e+000 0.000000e+000 0.000000e+000 
0.000000e+000 0.000000e+000 0.000000e+000 0.000000e+000 0.000000e+000 0.000000e+000 0.000000e+000 0.000000e+000 0.000000e+000 0.000000e+000 0.000000e+000 0.000000e+000 8.347004e-001 1.652997e-001 0.000000e+000 0.000000e+000 0.000000e+000 0.000000e+000 0.000000e+000 0.000000e+000 0.000000e+000 0.000000e+000 0.000000e+000 0.000000e+000 0.000000e+000 
0.000000e+000 0.000000e+000 0.000000e+000 0.000000e+000 0.000000e+000 0.000000e+000 0.000000e+000 0.000000e+000 0.000000e+000 0.000000e+000 0.000000e+000 0.000000e+000 0.000000e+000 7.328026e-001 2.671974e-001 0.000000e+000 0.000000e+000 0.000000e+000 0.000000e+000 0.000000e+000 0.000000e+000 0.000000e+000 0.000000e+000 0.000000e+000 0.000000e+000 
0.000000e+000 0.000000e+000 0.000000e+000 0.000000e+000 0.000000e+000 0.000000e+000 0.000000e+000 0.000000e+000 0.000000e+000 0.000000e+000 0.000000e+000 0.000000e+000 0.000000e+000 0.000000e+000 6.545606e-001 3.454394e-001 0.000000e+000 0.000000e+000 0.000000e+000 0.000000e+000 0.000000e+000 0.000000e+000 0.000000e+000 0.000000e+000 0.000000e+000 
0.000000e+000 0.000000e+000 0.000000e+000 0.000000e+000 0.000000e+000 0.000000e+000 0.000000e+000 0.000000e+000 0.000000e+000 0.000000e+000 0.000000e+000 0.000000e+000 0.000000e+000 0.000000e+000 0.000000e+000 8.709398e-001 1.290601e-001 0.000000e+000 0.000000e+000 0.000000e+000 0.000000e+000 0.000000e+000 0.000000e+000 0.000000e+000 0.000000e+000 
0.000000e+000 0.000000e+000 0.000000e+000 0.000000e+000 0.000000e+000 0.000000e+000 0.000000e+000 0.000000e+000 0.000000e+000 0.000000e+000 0.000000e+000 0.000000e+000 0.000000e+000 0.000000e+000 0.000000e+000 0.000000e+000 8.889617e-001 1.110384e-001 0.000000e+000 0.000000e+000 0.000000e+000 0.000000e+000 0.000000e+000 0.000000e+000 0.000000e+000 
0.000000e+000 0.000000e+000 0.000000e+000 0.000000e+000 0.000000e+000 0.000000e+000 0.000000e+000 0.000000e+000 0.000000e+000 0.000000e+000 0.000000e+000 0.000000e+000 0.000000e+000 0.000000e+000 0.000000e+000 0.000000e+000 0.000000e+000 8.907791e-001 1.092208e-001 0.000000e+000 0.000000e+000 0.000000e+000 0.000000e+000 0.000000e+000 0.000000e+000 
0.000000e+000 0.000000e+000 0.000000e+000 0.000000e+000 0.000000e+000 0.000000e+000 0.000000e+000 0.000000e+000 0.000000e+000 0.000000e+000 0.000000e+000 0.000000e+000 0.000000e+000 0.000000e+000 0.000000e+000 0.000000e+000 0.000000e+000 0.000000e+000 8.759621e-001 1.240380e-001 0.000000e+000 0.000000e+000 0.000000e+000 0.000000e+000 0.000000e+000 
0.000000e+000 0.000000e+000 0.000000e+000 0.000000e+000 0.000000e+000 0.000000e+000 0.000000e+000 0.000000e+000 0.000000e+000 0.000000e+000 0.000000e+000 0.000000e+000 0.000000e+000 0.000000e+000 0.000000e+000 0.000000e+000 0.000000e+000 0.000000e+000 0.000000e+000 8.740035e-001 1.259965e-001 0.000000e+000 0.000000e+000 0.000000e+000 0.000000e+000 
0.000000e+000 0.000000e+000 0.000000e+000 0.000000e+000 0.000000e+000 0.000000e+000 0.000000e+000 0.000000e+000 0.000000e+000 0.000000e+000 0.000000e+000 0.000000e+000 0.000000e+000 0.000000e+000 0.000000e+000 0.000000e+000 0.000000e+000 0.000000e+000 0.000000e+000 0.000000e+000 7.437408e-001 2.562592e-001 0.000000e+000 0.000000e+000 0.000000e+000 
0.000000e+000 0.000000e+000 0.000000e+000 0.000000e+000 0.000000e+000 0.000000e+000 0.000000e+000 0.000000e+000 0.000000e+000 0.000000e+000 0.000000e+000 0.000000e+000 0.000000e+000 0.000000e+000 0.000000e+000 0.000000e+000 0.000000e+000 0.000000e+000 0.000000e+000 0.000000e+000 0.000000e+000 7.807271e-001 2.192729e-001 0.000000e+000 0.000000e+000 
0.000000e+000 0.000000e+000 0.000000e+000 0.000000e+000 0.000000e+000 0.000000e+000 0.000000e+000 0.000000e+000 0.000000e+000 0.000000e+000 0.000000e+000 0.000000e+000 0.000000e+000 0.000000e+000 0.000000e+000 0.000000e+000 0.000000e+000 0.000000e+000 0.000000e+000 0.000000e+000 0.000000e+000 0.000000e+000 8.453066e-001 1.546934e-001 0.000000e+000 
0.000000e+000 0.000000e+000 0.000000e+000 0.000000e+000 0.000000e+000 0.000000e+000 0.000000e+000 0.000000e+000 0.000000e+000 0.000000e+000 0.000000e+000 0.000000e+000 0.000000e+000 0.000000e+000 0.000000e+000 0.000000e+000 0.000000e+000 0.000000e+000 0.000000e+000 0.000000e+000 0.000000e+000 0.000000e+000 0.000000e+000 8.570429e-001 1.429571e-001 
0.000000e+000 0.000000e+000 0.000000e+000 0.000000e+000 0.000000e+000 0.000000e+000 0.000000e+000 0.000000e+000 0.000000e+000 0.000000e+000 0.000000e+000 0.000000e+000 0.000000e+000 0.000000e+000 0.000000e+000 0.000000e+000 0.000000e+000 0.000000e+000 0.000000e+000 0.000000e+000 0.000000e+000 0.000000e+000 0.000000e+000 0.000000e+000 0.000000e+000 
