<HMMNAME> 1
<HMMSTATES> 25
<STATE> 1
<MEAN> 36
-8.630658e+000 -5.252641e+000 -4.884395e+000 6.891548e+000 1.865176e+001 9.938170e+000 -1.933260e+000 2.374454e+000 -2.090628e+000 -5.774134e-001 1.077474e+000 1.632849e+000 3.714434e-001 -3.716613e-001 -4.337846e-001 1.282968e-001 1.215847e+000 5.979882e-001 -1.714873e-001 2.876970e-002 -4.421472e-001 -3.060115e-001 -2.521462e-001 -8.994342e-003 7.503280e-003 -2.158458e-002 -4.508423e-002 -5.658059e-002 -2.299943e-003 1.834080e-002 2.400722e-002 4.075756e-002 4.449830e-003 -7.303908e-002 -6.480035e-002 -3.759360e-002 
<VARIANCE> 36
7.997818e+000 2.615180e+001 1.801982e+001 1.778943e+001 9.484575e+001 3.494660e+001 3.840533e+001 2.081228e+001 3.575875e+001 1.823622e+001 1.916393e+001 1.352634e+001 1.622029e-001 3.714675e-001 6.365146e-001 8.288675e-001 1.679855e+000 1.530210e+000 1.616789e+000 1.183213e+000 1.344556e+000 1.113727e+000 9.919998e-001 8.657778e-001 5.000000e-002 5.000000e-002 8.892346e-002 1.643671e-001 2.192759e-001 1.639562e-001 2.848645e-001 2.272415e-001 2.443799e-001 2.054836e-001 1.689709e-001 1.956347e-001 
<GCONST> 7.981904e+001
<STATE> 2
<MEAN> 36
-4.155743e+000 -8.666082e+000 -9.212440e+000 6.057713e+000 2.862946e+001 1.773954e+001 -2.600780e+000 2.301686e+000 -5.524245e+000 -6.467513e+000 -2.362918e+000 8.832582e-001 4.355870e-001 -1.880428e-001 -2.683768e-001 -4.546415e-001 2.817874e-001 -1.073905e-001 -1.127553e-001 4.623209e-001 -5.519450e-001 -8.878764e-001 -2.568729e-001 -2.853248e-001 8.348749e-003 7.098094e-002 3.873533e-002 -7.984667e-002 -1.850579e-001 -1.228900e-001 5.098171e-002 4.187381e-002 -3.428996e-003 5.959398e-003 5.965879e-003 -6.013193e-002 
<VARIANCE> 36
5.369617e+000 3.148644e+001 1.477658e+001 1.458239e+001 2.158859e+001 6.285080e+001 7.863374e+001 2.648215e+001 4.215833e+001 2.464289e+001 3.984093e+001 2.246043e+001 9.878422e-002 1.932335e-001 3.734188e-001 6.174102e-001 9.009478e-001 1.078246e+000 5.815514e-001 1.007457e+000 9.517179e-001 7.010884e-001 5.435624e-001 7.739551e-001 5.000000e-002 5.000000e-002 6.520477e-002 8.373505e-002 1.498828e-001 1.782068e-001 1.320986e-001 1.426177e-001 1.650246e-001 1.296792e-001 1.063191e-001 1.230651e-001 
<GCONST> 7.102653e+001
<STATE> 3
<MEAN> 36
-1.604915e+000 -1.226764e+001 -1.294532e+001 6.129930e-001 2.816207e+001 9.206726e+000 -5.560169e+000 5.573722e+000 -1.568497e+001 -1.238400e+001 -2.689038e+000 -4.455950e-001 4.465393e-001 -4.198460e-002 -3.498682e-001 -7.096320e-001 -6.844149e-001 -7.218020e-001 5.683578e-002 7.128301e-002 -6.155195e-001 -5.329227e-001 -7.576009e-001 -4.382484e-001 -2.330544e-002 3.214317e-002 4.101999e-002 -9.952601e-004 -8.319921e-002 -2.739781e-002 -2.290497e-003 -5.407167e-002 6.631783e-002 1.084897e-001 -2.466587e-002 -1.425705e-002 
<VARIANCE> 36
3.548576e+000 1.367871e+001 1.293615e+001 3.561496e+001 1.915100e+001 4.098259e+001 3.433217e+001 2.171587e+001 3.653694e+001 1.901344e+001 3.093338e+001 2.379991e+001 7.392199e-002 1.551287e-001 2.416550e-001 3.395888e-001 6.843536e-001 6.743575e-001 5.896620e-001 7.359196e-001 9.303102e-001 8.275159e-001 6.109766e-001 7.490056e-001 5.000000e-002 5.000000e-002 5.000000e-002 7.313467e-002 1.248448e-001 9.673346e-002 1.017089e-001 1.462948e-001 1.640433e-001 1.611624e-001 1.294232e-001 1.314772e-001 
<GCONST> 6.505002e+001
<STATE> 4
<MEAN> 36
2.578228e+000 -1.134184e+001 -1.761368e+001 -2.560463e+000 2.178648e+001 6.462649e+000 -6.468026e+000 6.000757e+000 -1.278084e+001 -1.721911e+001 -8.004504e+000 -2.405253e+000 1.796600e-001 1.208018e-001 -4.534356e-002 -5.863439e-001 -4.161369e-001 -5.907495e-001 -2.270424e-001 2.766859e-001 -7.316455e-002 -8.466795e-002 -2.727394e-001 -4.532180e-001 -3.071070e-002 2.172220e-002 4.188781e-002 3.229067e-002 2.910277e-002 3.868461e-002 6.625526e-003 -1.773068e-002 3.493799e-002 3.762951e-002 3.649912e-002 3.541470e-002 
<VARIANCE> 36
2.669608e+000 9.239193e+000 6.847904e+000 1.568641e+001 1.171389e+001 3.105692e+001 2.058603e+001 1.961710e+001 2.803009e+001 1.237252e+001 1.431878e+001 2.564922e+001 5.092817e-002 8.626634e-002 2.267161e-001 4.352221e-001 2.553133e-001 4.438255e-001 5.882531e-001 3.736144e-001 5.937143e-001 6.749742e-001 4.697496e-001 4.459663e-001 5.000000e-002 5.000000e-002 5.000000e-002 5.798869e-002 5.002534e-002 9.578594e-002 1.140218e-001 8.138649e-002 8.929831e-002 1.169158e-001 8.343657e-002 7.330826e-002 
<GCONST> 5.227002e+001
<STATE> 5
<MEAN> 36
1.619836e+000 -1.133355e+001 -1.316118e+001 -8.595685e+000 1.905023e+001 -3.005132e+000 -6.326817e+000 9.266080e+000 -2.078808e+001 -1.259663e+001 -7.515578e+000 -5.840761e+000 2.147443e-002 2.021524e-001 1.749927e-001 -1.560436e-001 -4.705263e-001 -7.240438e-002 1.309080e-001 3.754375e-003 2.685895e-001 2.191583e-001 -6.828785e-002 -2.020198e-001 -2.920533e-002 3.091201e-002 2.465074e-002 5.947828e-002 1.948271e-002 9.454222e-002 4.440596e-002 -1.760156e-003 8.271812e-002 2.754981e-002 1.127747e-002 -2.594632e-002 
<VARIANCE> 36
6.696226e+000 6.104287e+000 1.111589e+001 2.100871e+001 2.967905e+001 3.312332e+001 2.687152e+001 1.338739e+001 5.371633e+001 3.816659e+001 1.383339e+001 1.680016e+001 5.263816e-002 1.669019e-001 2.042988e-001 4.580444e-001 3.205594e-001 7.365334e-001 6.106560e-001 6.852227e-001 8.799134e-001 5.673044e-001 5.196712e-001 4.383310e-001 5.000000e-002 5.000000e-002 5.000000e-002 5.360982e-002 5.622902e-002 9.199706e-002 9.173933e-002 1.141214e-001 1.257406e-001 1.010351e-001 9.312450e-002 7.863850e-002 
<GCONST> 5.856578e+001
<STATE> 6
<MEAN> 36
1.915992e+000 -3.942456e+000 -1.138105e+001 -4.052226e+000 1.576683e+001 7.537477e+000 -4.041630e-001 5.336502e+000 -6.438873e+000 -9.444951e+000 -1.283810e+001 -9.346068e+000 -1.327416e-001 3.315690e-001 3.754388e-001 -1.541946e-001 -4.815700e-001 -1.764464e-001 2.226482e-001 2.878459e-001 3.069523e-001 4.134980e-001 -1.339654e-002 -3.040362e-001 -6.922268e-002 1.527496e-002 6.789026e-002 4.419741e-002 -1.525954e-002 5.741210e-002 7.588771e-002 8.151949e-002 -2.366482e-002 5.007656e-002 6.471088e-002 5.893941e-002 
<VARIANCE> 36
8.799509e+000 1.664137e+001 1.861458e+001 3.685429e+001 2.118857e+001 6.878160e+001 2.995951e+001 1.701725e+001 7.472295e+001 2.559218e+001 1.916065e+001 1.956764e+001 9.256908e-002 1.398281e-001 4.437667e-001 4.217445e-001 6.343671e-001 1.029084e+000 5.610487e-001 5.365056e-001 6.638462e-001 5.926500e-001 1.119035e+000 8.591906e-001 5.000000e-002 5.000000e-002 6.788078e-002 5.000000e-002 1.019533e-001 1.168882e-001 7.486770e-002 9.255379e-002 1.388687e-001 1.169218e-001 2.058568e-001 1.405275e-001 
<GCONST> 6.731779e+001
<STATE> 7
<MEAN> 36
1.787872e-001 -6.594954e+000 -1.080894e+001 -6.546216e+000 1.458348e+001 2.226159e+000 -2.431292e+000 9.965695e+000 -1.116651e+001 -9.627739e+000 -9.297860e+000 -8.263805e+000 -8.251974e-001 6.324191e-001 4.479306e-001 4.061956e-001 -6.249551e-001 5.663261e-001 1.106648e+000 9.369209e-002 1.155905e+000 1.093072e+000 1.830532e-001 2.469540e-001 -1.988605e-001 8.839065e-003 -3.113973e-002 4.525644e-002 -1.826952e-001 -2.937970e-002 8.143168e-002 -2.283555e-001 1.400579e-001 1.142129e-001 1.290725e-001 2.677168e-001 
<VARIANCE> 36
5.645994e+000 7.600631e+000 1.328899e+001 2.539619e+001 2.156472e+001 2.773995e+001 2.399338e+001 1.843156e+001 6.851671e+001 4.283579e+001 1.327013e+001 2.393162e+001 2.117152e-001 1.472530e-001 2.181616e-001 3.046705e-001 6.212161e-001 6.198205e-001 7.641654e-001 8.192399e-001 1.202588e+000 5.968514e-001 5.843737e-001 1.077629e+000 5.000000e-002 5.000000e-002 5.000000e-002 9.027005e-002 1.012369e-001 1.207019e-001 8.446504e-002 1.294016e-001 2.046056e-001 1.475809e-001 1.551290e-001 1.813403e-001 
<GCONST> 6.619519e+001
<STATE> 8
<MEAN> 36
-2.969848e+000 -1.432009e+000 -6.480711e+000 -3.421676e+000 1.115632e+001 5.723868e+000 2.734942e+000 8.757936e+000 -3.615422e+000 -3.896546e+000 -6.930585e+000 -6.365806e+000 -8.068191e-001 2.754764e-001 4.035872e-001 4.932713e-001 -8.866563e-001 3.447807e-002 2.831600e-001 -4.788359e-001 5.207223e-001 3.469683e-001 7.574928e-001 7.876773e-001 3.603242e-002 -6.508980e-002 1.725602e-002 4.024440e-002 3.157658e-002 -3.059193e-002 -1.406185e-001 -6.963890e-002 -1.257236e-001 -1.361756e-001 3.411771e-002 3.469580e-002 
<VARIANCE> 36
1.103600e+001 2.041503e+001 2.424839e+001 2.309814e+001 2.227664e+001 2.279475e+001 1.210697e+001 1.825809e+001 4.703101e+001 3.892267e+001 2.396766e+001 2.784640e+001 4.282431e-001 3.293185e-001 5.115266e-001 1.557941e+000 8.927680e-001 1.273820e+000 1.118991e+000 1.700941e+000 2.170490e+000 1.165818e+000 1.315346e+000 1.116298e+000 5.000000e-002 5.811316e-002 9.029095e-002 2.395640e-001 1.651800e-001 1.777629e-001 2.064804e-001 3.338156e-001 4.082779e-001 2.247839e-001 2.102673e-001 2.225858e-001 
<GCONST> 8.212456e+001
<STATE> 9
<MEAN> 36
-8.368870e+000 -2.395853e+000 -5.527985e+000 -1.084893e+000 6.077025e+000 4.631220e+000 2.818066e+000 5.331495e+000 -3.194076e+000 -3.870982e+000 -4.015229e+000 -2.009401e+000 -3.292679e-001 1.260040e-001 4.290119e-001 1.626012e-001 -3.441802e-001 -8.237691e-002 -2.028891e-002 -1.053875e-001 2.797650e-001 3.076674e-001 2.839043e-001 1.657410e-001 7.613307e-002 -5.139846e-002 -3.161663e-002 -9.207473e-002 6.031960e-002 -4.317852e-002 -2.303238e-002 8.165575e-002 -5.507703e-002 1.980237e-004 -3.954881e-002 -6.371281e-002 
<VARIANCE> 36
2.660878e+000 2.937768e+000 8.493450e+000 6.267754e+000 9.869278e+000 8.717196e+000 1.174643e+001 1.170625e+001 1.418687e+001 1.966494e+001 1.187591e+001 1.147834e+001 1.324854e-001 2.296626e-001 3.417306e-001 5.116058e-001 6.989675e-001 7.228078e-001 8.856873e-001 9.650265e-001 1.155598e+000 1.434950e+000 1.242979e+000 1.060108e+000 5.000000e-002 5.000000e-002 6.852638e-002 8.945448e-002 1.422443e-001 1.578970e-001 1.754758e-001 1.756511e-001 1.782487e-001 3.108362e-001 2.472089e-001 2.096534e-001 
<GCONST> 6.261016e+001
<STATE> 10
<MEAN> 36
-9.465654e+000 -1.135779e+000 -2.103921e+000 -1.509199e-001 4.739870e+000 3.720594e+000 2.029721e+000 5.495646e+000 -1.064887e+000 -2.992333e-001 -9.992525e-001 -1.038136e+000 1.063725e-001 -8.382472e-001 -1.400569e-002 -7.175621e-001 2.184493e-001 -3.402267e-001 -4.074686e-001 3.611419e-001 -4.613243e-001 1.082605e-001 2.862622e-001 2.386671e-003 9.350997e-002 -2.355337e-001 -1.632874e-002 -2.085231e-001 2.122214e-001 -8.734888e-002 -1.115412e-001 1.470650e-001 -1.602702e-001 -6.569231e-003 -7.232837e-002 -8.595318e-002 
<VARIANCE> 36
1.923571e+000 6.083739e+000 5.587655e+000 1.382900e+001 9.269599e+000 1.068185e+001 1.176012e+001 1.226407e+001 1.566539e+001 1.629593e+001 9.324602e+000 1.061014e+001 2.192517e-001 1.035176e+000 3.580302e-001 1.516861e+000 8.694685e-001 1.631954e+000 1.636182e+000 1.074654e+000 1.449137e+000 1.499470e+000 9.252937e-001 1.132462e+000 5.000000e-002 1.617752e-001 9.556355e-002 1.637433e-001 1.525218e-001 2.519851e-001 3.129829e-001 2.319890e-001 2.471361e-001 2.835576e-001 2.156864e-001 2.668633e-001 
<GCONST> 7.194855e+001
<STATE> 11
<MEAN> 36
-8.394177e+000 -6.904964e+000 -1.489672e+000 -4.340163e+000 8.136720e+000 1.763375e+000 4.664220e-001 8.881905e+000 -5.594474e+000 -1.464804e+000 -1.407578e+000 -2.383284e+000 7.310644e-001 5.036329e-001 8.710629e-002 2.421515e-001 7.873353e-001 3.310683e-001 8.137815e-002 4.404697e-001 -1.606261e-001 -4.693168e-001 -7.653167e-001 -6.849350e-001 3.219932e-001 4.094890e-001 -3.237982e-001 2.357970e-001 1.700054e-002 1.087656e-001 3.858028e-002 -3.510253e-002 1.387480e-001 -3.330572e-001 -2.888780e-001 -1.567102e-001 
<VARIANCE> 36
5.382721e+000 2.049005e+001 1.769062e+001 3.966621e+001 2.849490e+001 3.487370e+001 2.409118e+001 1.913153e+001 2.411935e+001 1.892376e+001 1.874014e+001 1.307526e+001 8.530622e-001 2.822942e+000 1.954361e+000 1.968876e+000 1.950978e+000 2.690392e+000 1.934056e+000 1.540558e+000 2.530375e+000 2.335411e+000 1.326297e+000 1.599226e+000 1.344077e-001 5.522184e-001 3.733968e-001 5.404734e-001 3.221069e-001 7.134327e-001 5.064744e-001 2.823765e-001 5.057126e-001 4.057522e-001 2.422074e-001 3.648986e-001 
<GCONST> 9.795800e+001
<STATE> 12
<MEAN> 36
-1.804046e+000 -4.003472e+000 -6.358883e+000 -5.132348e+000 1.144535e+001 3.177868e+000 -5.063460e-001 1.037474e+001 -6.979442e+000 -6.819893e+000 -7.108922e+000 -6.381942e+000 1.816724e+000 -4.749109e-001 -1.676833e+000 -7.047077e-001 7.681197e-001 -7.723907e-001 -1.132969e+000 3.412190e-001 -8.182631e-001 -1.382282e+000 -8.907376e-001 -3.877242e-001 -3.139011e-001 -3.367545e-001 1.659317e-001 -1.127444e-001 -1.976669e-001 -2.031286e-001 -1.828412e-001 -2.474587e-001 -1.207194e-001 2.233240e-001 2.988930e-001 2.327129e-001 
<VARIANCE> 36
8.603852e+000 1.377796e+001 2.894488e+001 3.540288e+001 1.940881e+001 1.618197e+001 2.566705e+001 1.286584e+001 3.615979e+001 2.705791e+001 1.491477e+001 1.358116e+001 7.336027e-001 6.415905e-001 1.023196e+000 1.291246e+000 1.418203e+000 1.895609e+000 1.209548e+000 1.614673e+000 2.803496e+000 1.148633e+000 1.870377e+000 1.750007e+000 1.093911e-001 1.349026e-001 1.869197e-001 2.023016e-001 2.631690e-001 2.865917e-001 2.200789e-001 2.747167e-001 3.687227e-001 2.324604e-001 1.892660e-001 2.228076e-001 
<GCONST> 8.665154e+001
<STATE> 13
<MEAN> 36
1.609000e+000 -7.776523e+000 -1.064370e+001 -7.872553e+000 1.162613e+001 -1.022329e+000 -5.154826e+000 9.969048e+000 -1.084806e+001 -1.094672e+001 -7.982931e+000 -5.814797e+000 3.346810e-001 -3.233702e-001 -4.724070e-001 -4.592122e-001 9.378305e-003 -6.170140e-001 -8.227390e-001 -2.157542e-001 -3.620927e-001 -4.864284e-001 -1.006316e-001 -6.410275e-002 -1.608730e-001 8.474113e-002 1.418918e-001 4.164832e-003 -3.428735e-002 5.665960e-002 6.636062e-002 1.567389e-002 6.320469e-002 1.263664e-001 1.030622e-001 5.016491e-002 
<VARIANCE> 36
5.532079e+000 1.287594e+001 2.116970e+001 6.335746e+001 2.180710e+001 2.317803e+001 2.508047e+001 1.920756e+001 4.964753e+001 2.636023e+001 1.851970e+001 1.468514e+001 6.862026e-002 1.654117e-001 2.115798e-001 4.870643e-001 3.213315e-001 7.510067e-001 5.228196e-001 6.979136e-001 1.013866e+000 5.195976e-001 7.206126e-001 4.272399e-001 5.000000e-002 5.000000e-002 5.000000e-002 1.138382e-001 7.637212e-002 1.320514e-001 1.029416e-001 1.459951e-001 2.020697e-001 1.037342e-001 1.630864e-001 1.127138e-001 
<GCONST> 6.400029e+001
<STATE> 14
<MEAN> 36
4.493105e-001 -7.983875e+000 -1.058220e+001 -1.499498e+001 1.474109e+001 -4.656455e+000 -1.138920e+001 9.359369e+000 -1.274973e+001 -7.246584e+000 -9.195587e+000 -6.278705e+000 -4.500854e-002 7.727884e-002 7.333480e-002 -2.288525e-001 -1.381810e-001 2.753159e-003 -1.716456e-001 -1.496482e-001 1.336569e-001 2.451513e-001 2.962259e-002 1.577727e-002 -2.600585e-002 4.667432e-002 4.192017e-002 4.454684e-002 -5.750544e-002 7.519647e-002 8.360540e-002 -6.481787e-002 5.418918e-002 5.850093e-002 -2.569744e-002 -1.532851e-002 
<VARIANCE> 36
4.297644e+000 1.354679e+001 1.393215e+001 3.767445e+001 1.260724e+001 2.251366e+001 2.588690e+001 1.750067e+001 2.160455e+001 2.746190e+001 2.159851e+001 1.123939e+001 5.000000e-002 1.804425e-001 2.203109e-001 4.081193e-001 5.912893e-001 6.428350e-001 7.687936e-001 1.031761e+000 9.357633e-001 7.475319e-001 4.994119e-001 7.119006e-001 5.000000e-002 5.000000e-002 5.000000e-002 7.784220e-002 1.089510e-001 1.053974e-001 1.392113e-001 1.933910e-001 1.568509e-001 1.493479e-001 9.787390e-002 1.211793e-001 
<GCONST> 6.261517e+001
<STATE> 15
<MEAN> 36
3.768234e+000 -6.529369e+000 -1.445728e+001 -4.327559e+000 8.809041e+000 -5.111219e+000 -7.526845e+000 6.988666e+000 -7.518593e+000 -1.229835e+001 -7.656877e+000 -4.799889e+000 -7.820442e-002 3.326950e-001 1.433758e-001 1.676336e-002 -3.322664e-001 9.855504e-003 8.619079e-002 -2.690486e-001 2.088112e-001 2.862710e-001 2.413461e-002 1.359106e-002 -3.471732e-002 3.782545e-002 5.709369e-002 2.598111e-002 -3.773056e-002 4.674981e-002 6.690704e-002 3.081782e-002 5.081517e-002 2.968552e-002 2.126457e-002 -8.962157e-003 
<VARIANCE> 36
3.355002e+000 8.775786e+000 1.100494e+001 1.824241e+001 1.097575e+001 2.469527e+001 8.442433e+000 1.555419e+001 1.833626e+001 2.062315e+001 1.029609e+001 1.174749e+001 7.005191e-002 1.121277e-001 2.502183e-001 2.384059e-001 3.044167e-001 5.929427e-001 5.575465e-001 6.500629e-001 5.166208e-001 3.882091e-001 3.957132e-001 5.749401e-001 5.000000e-002 5.000000e-002 5.000000e-002 5.000000e-002 5.106488e-002 1.018820e-001 9.257198e-002 1.089219e-001 9.976630e-002 6.769125e-002 6.397593e-002 1.143978e-001 
<GCONST> 5.082528e+001
<STATE> 16
<MEAN> 36
-7.566170e-001 -4.501523e+000 -6.745533e+000 -1.494995e+001 6.793313e+000 4.913158e-002 -6.968802e+000 6.469832e+000 -8.610018e+000 -4.686948e+000 -8.522518e+000 -7.830156e+000 -4.128090e-001 4.737847e-001 4.029404e-001 5.760759e-001 -5.615174e-001 2.221798e-001 8.442751e-001 2.714863e-001 7.342945e-001 3.386030e-001 3.025923e-001 1.141725e-002 -5.426935e-002 -1.550471e-002 -1.538171e-004 1.965407e-001 -5.113089e-002 -1.847504e-004 1.875903e-001 1.444018e-001 1.692135e-001 -7.425585e-002 7.058871e-003 1.519188e-001 
<VARIANCE> 36
4.303661e+000 1.789528e+001 1.042867e+001 4.925776e+001 2.737061e+001 2.439360e+001 2.260888e+001 2.882089e+001 3.355878e+001 1.857202e+001 1.587103e+001 1.208636e+001 7.173934e-002 2.667978e-001 3.004448e-001 7.435460e-001 8.401285e-001 9.123770e-001 1.103256e+000 7.892612e-001 1.062816e+000 6.164054e-001 7.038935e-001 9.337507e-001 5.000000e-002 5.052808e-002 5.780625e-002 8.219883e-002 1.807395e-001 1.794147e-001 1.542845e-001 1.519380e-001 1.927597e-001 1.136493e-001 1.380050e-001 1.616252e-001 
<GCONST> 6.858613e+001
<STATE> 17
<MEAN> 36
-2.335773e+000 5.114900e-001 -5.141413e+000 -3.945052e+000 2.542996e+000 7.334074e-002 -6.287436e-001 7.455367e+000 3.238204e-001 -4.770134e+000 -6.783967e+000 -4.962813e+000 -4.257394e-001 2.337352e-001 2.769584e-001 6.341291e-001 -4.129820e-001 6.314014e-001 1.132857e+000 4.581795e-001 7.902374e-001 1.451878e-001 1.961954e-001 4.167970e-001 4.099365e-002 -7.350719e-002 -8.501915e-002 -8.979007e-002 1.808203e-001 8.989271e-002 -6.349726e-002 -7.878274e-002 -2.065254e-001 4.703045e-002 9.459675e-002 -9.275455e-003 
<VARIANCE> 36
9.245770e+000 9.636711e+000 1.396882e+001 1.957173e+001 1.392976e+001 1.899398e+001 1.887671e+001 2.821861e+001 2.241673e+001 2.378633e+001 1.595863e+001 1.220968e+001 3.854504e-001 2.756365e-001 5.981977e-001 1.192211e+000 1.006787e+000 1.204062e+000 1.342683e+000 1.340003e+000 1.309700e+000 1.272390e+000 1.166301e+000 8.834195e-001 5.052734e-002 5.000000e-002 8.280566e-002 1.251503e-001 1.411278e-001 1.947125e-001 1.883043e-001 2.487281e-001 2.112904e-001 1.819650e-001 2.564058e-001 1.600609e-001 
<GCONST> 7.475425e+001
<STATE> 18
<MEAN> 36
-2.315168e+000 7.223336e-001 -3.589931e+000 -1.238673e+000 6.053279e+000 2.736948e+000 1.354297e+000 7.526700e+000 5.133847e-001 -2.731900e+000 -4.184525e+000 -3.301207e+000 -2.500701e-001 1.519498e-001 2.264842e-001 4.294273e-001 -1.596559e-001 1.565499e-001 3.721148e-001 -1.851686e-001 3.327355e-001 2.826743e-001 1.279446e-001 2.047525e-001 -6.145336e-003 5.896857e-002 5.955755e-002 -1.029203e-001 -7.779550e-002 -9.890748e-002 -8.277723e-002 1.406867e-002 1.121271e-002 3.089592e-002 2.705602e-003 -6.833065e-002 
<VARIANCE> 36
5.345169e+000 1.693639e+001 2.261151e+001 1.381883e+001 1.001547e+001 1.280191e+001 1.544278e+001 2.182950e+001 1.454609e+001 4.959472e+001 1.176075e+001 8.593351e+000 1.343331e-001 2.126483e-001 5.121222e-001 6.183148e-001 7.667677e-001 1.135659e+000 8.083392e-001 1.186051e+000 7.822356e-001 1.044280e+000 1.171393e+000 6.099870e-001 5.000000e-002 5.000000e-002 7.963606e-002 1.286539e-001 1.714361e-001 1.975733e-001 2.118245e-001 2.507774e-001 1.686350e-001 2.020447e-001 2.251472e-001 1.442254e-001 
<GCONST> 6.916101e+001
<STATE> 19
<MEAN> 36
-5.092604e+000 1.563164e+000 -3.663814e+000 -1.501171e+000 2.315099e+000 3.533671e+000 5.129602e+000 9.475104e+000 2.742925e+000 -2.994519e+000 -4.512073e+000 -2.972916e+000 -2.161124e-001 2.044553e-001 3.686551e-001 2.636581e-001 -9.257936e-002 -2.422824e-002 7.016009e-002 -1.882773e-001 1.082000e-001 1.680850e-001 1.532365e-001 1.740078e-002 -1.437500e-003 -2.625189e-002 1.965004e-002 5.390107e-002 5.353394e-002 -4.900755e-002 -9.435510e-002 -8.900425e-002 -9.495777e-002 -4.797166e-002 -5.562775e-003 2.724646e-002 
<VARIANCE> 36
3.445477e+000 5.263218e+000 5.395585e+000 1.108898e+001 7.286593e+000 1.001304e+001 1.273394e+001 1.208199e+001 9.714952e+000 1.156107e+001 1.044436e+001 9.705376e+000 6.230776e-002 1.682786e-001 2.998770e-001 3.756886e-001 5.701604e-001 7.793166e-001 8.586906e-001 9.443298e-001 8.129968e-001 9.157694e-001 9.340794e-001 7.140929e-001 5.000000e-002 5.000000e-002 6.296661e-002 6.801143e-002 1.108778e-001 1.711980e-001 1.879788e-001 1.984728e-001 1.601520e-001 1.764052e-001 1.900929e-001 1.406954e-001 
<GCONST> 5.747145e+001
<STATE> 20
<MEAN> 36
-7.197055e+000 4.151060e+000 2.324501e+000 4.331792e+000 5.300495e+000 6.275476e+000 6.240038e+000 7.309963e+000 4.672112e+000 2.864380e+000 1.358848e+000 -3.515797e-001 -2.951412e-001 -1.551705e-002 2.012973e-001 2.606910e-001 1.505415e-001 1.803175e-001 -6.369048e-002 -2.997706e-001 -2.389910e-001 -9.530581e-002 2.606920e-001 3.213697e-001 1.590522e-002 -2.153330e-002 -2.238227e-002 -3.469064e-002 -8.373052e-004 -1.085069e-002 -7.317609e-002 -2.206559e-002 -2.755658e-002 -2.625638e-002 -1.300550e-001 -6.906471e-002 
<VARIANCE> 36
3.221094e+000 5.169265e+000 1.078185e+001 1.113584e+001 1.020324e+001 1.003384e+001 1.029567e+001 1.119778e+001 9.350405e+000 1.924042e+001 1.613269e+001 1.312548e+001 7.611341e-002 1.821217e-001 3.748887e-001 3.286128e-001 6.598887e-001 6.533251e-001 8.524734e-001 1.496155e+000 9.415198e-001 8.225263e-001 1.288517e+000 1.368873e+000 5.000000e-002 5.000000e-002 6.486404e-002 5.349271e-002 1.384148e-001 1.029266e-001 1.277006e-001 2.529383e-001 1.577099e-001 1.971819e-001 1.905514e-001 2.607259e-001 
<GCONST> 6.121737e+001
<STATE> 21
<MEAN> 36
-7.393260e+000 3.862526e+000 1.797486e+000 3.621500e+000 2.991216e+000 2.603612e+000 1.788899e+000 2.926940e+000 -4.529189e-001 -3.051269e+000 -3.903897e+000 -2.571024e+000 -3.466815e-001 -1.080015e-001 2.198995e-001 2.081703e-001 2.375771e-004 1.322358e-001 -1.857420e-001 -2.374827e-001 2.940108e-002 1.374230e-001 -4.465703e-002 6.539910e-002 5.159682e-003 -4.649001e-002 -1.036394e-001 -1.165832e-001 -6.062885e-002 4.877185e-002 1.283020e-001 1.809075e-001 1.666901e-001 1.650677e-001 1.139099e-001 -1.240342e-002 
<VARIANCE> 36
3.533455e+000 5.902665e+000 6.557493e+000 7.582228e+000 8.885273e+000 1.301057e+001 1.434386e+001 1.255800e+001 9.652767e+000 1.461875e+001 1.187624e+001 1.056157e+001 1.233942e-001 2.079423e-001 3.558831e-001 7.158275e-001 5.778768e-001 8.529261e-001 1.041380e+000 1.079665e+000 1.140956e+000 1.277763e+000 1.170598e+000 6.048890e-001 5.000000e-002 5.000000e-002 6.711411e-002 1.648706e-001 1.007250e-001 1.717115e-001 1.838350e-001 1.960770e-001 2.094096e-001 2.258065e-001 2.666335e-001 1.042797e-001 
<GCONST> 6.273421e+001
<STATE> 22
<MEAN> 36
-9.636387e+000 2.487026e+000 1.431540e+000 3.629093e+000 3.237632e+000 4.850808e+000 3.675537e+000 4.094265e+000 2.435255e+000 1.773580e+000 1.055689e+000 2.964811e-001 -1.992702e-001 -1.213418e-001 -1.503616e-001 -1.879136e-001 -1.193416e-001 -4.460337e-002 3.227544e-002 1.003191e-001 3.683057e-002 2.336435e-001 2.904927e-001 1.230253e-001 -3.945425e-003 1.598472e-003 -1.515980e-002 -1.542462e-003 -1.055179e-002 -1.009993e-001 -5.550451e-002 -8.283239e-004 -1.628160e-002 -4.822502e-002 -5.861902e-002 -3.417044e-002 
<VARIANCE> 36
1.144392e+000 4.540015e+000 4.535383e+000 1.037643e+001 8.778263e+000 7.128866e+000 8.509752e+000 1.049373e+001 9.932476e+000 1.184003e+001 1.433982e+001 1.118106e+001 8.183325e-002 3.149631e-001 3.319294e-001 3.361962e-001 6.160145e-001 8.885664e-001 8.714577e-001 1.147268e+000 1.063643e+000 1.059832e+000 9.660738e-001 7.165009e-001 5.000000e-002 6.554031e-002 6.908845e-002 6.957584e-002 1.134598e-001 1.661277e-001 1.367674e-001 2.386107e-001 2.339190e-001 2.345186e-001 1.994840e-001 1.542394e-001 
<GCONST> 5.859712e+001
<STATE> 23
<MEAN> 36
-1.172969e+001 4.719783e-001 -3.056657e-001 2.293360e+000 1.831334e+000 2.981872e+000 2.729106e+000 3.967998e+000 2.174907e+000 1.466388e+000 7.158784e-001 -2.016224e-001 -1.019937e-001 -1.189168e-001 -9.560957e-002 -1.928713e-002 -3.956121e-002 -1.380466e-001 -9.870749e-002 -1.654418e-001 5.158287e-003 1.105518e-001 1.263702e-001 3.424723e-002 2.828788e-002 7.854040e-003 -2.802672e-003 1.044204e-002 6.467065e-003 3.302889e-002 -1.333060e-002 -3.237360e-002 -7.651300e-003 -2.950555e-002 -1.225185e-002 1.145878e-003 
<VARIANCE> 36
1.507070e+000 1.557424e+000 3.878469e+000 5.800674e+000 5.826441e+000 8.465147e+000 9.473503e+000 1.176272e+001 9.597567e+000 1.154051e+001 1.195620e+001 1.097850e+001 1.195583e-001 1.820882e-001 3.219013e-001 6.572957e-001 6.317764e-001 1.015752e+000 1.104347e+000 9.851150e-001 1.019543e+000 1.054449e+000 1.218376e+000 9.948812e-001 5.000000e-002 5.000000e-002 6.462142e-002 1.211496e-001 1.142098e-001 2.035914e-001 2.413146e-001 2.245071e-001 2.082345e-001 2.005996e-001 2.318471e-001 2.139294e-001 
<GCONST> 5.915402e+001
<TRANSP> 25
0.000000e+000 1.000000e+000 0.000000e+000 0.000000e+000 0.000000e+000 0.000000e+000 0.000000e+000 0.000000e+000 0.000000e+000 0.000000e+000 0.000000e+000 0.000000e+000 0.000000e+000 0.000000e+000 0.000000e+000 0.000000e+000 0.000000e+000 0.000000e+000 0.000000e+000 0.000000e+000 0.000000e+000 0.000000e+000 0.000000e+000 0.000000e+000 0.000000e+000 
0.000000e+000 8.011744e-001 1.988256e-001 0.000000e+000 0.000000e+000 0.000000e+000 0.000000e+000 0.000000e+000 0.000000e+000 0.000000e+000 0.000000e+000 0.000000e+000 0.000000e+000 0.000000e+000 0.000000e+000 0.000000e+000 0.000000e+000 0.000000e+000 0.000000e+000 0.000000e+000 0.000000e+000 0.000000e+000 0.000000e+000 0.000000e+000 0.000000e+000 
0.000000e+000 0.000000e+000 8.102726e-001 1.897274e-001 0.000000e+000 0.000000e+000 0.000000e+000 0.000000e+000 0.000000e+000 0.000000e+000 0.000000e+000 0.000000e+000 0.000000e+000 0.000000e+000 0.000000e+000 0.000000e+000 0.000000e+000 0.000000e+000 0.000000e+000 0.000000e+000 0.000000e+000 0.000000e+000 0.000000e+000 0.000000e+000 0.000000e+000 
0.000000e+000 0.000000e+000 0.000000e+000 8.312332e-001 1.687668e-001 0.000000e+000 0.000000e+000 0.000000e+000 0.000000e+000 0.000000e+000 0.000000e+000 0.000000e+000 0.000000e+000 0.000000e+000 0.000000e+000 0.000000e+000 0.000000e+000 0.000000e+000 0.000000e+000 0.000000e+000 0.000000e+000 0.000000e+000 0.000000e+000 0.000000e+000 0.000000e+000 
0.000000e+000 0.000000e+000 0.000000e+000 0.000000e+000 8.553387e-001 1.446613e-001 0.000000e+000 0.000000e+000 0.000000e+000 0.000000e+000 0.000000e+000 0.000000e+000 0.000000e+000 0.000000e+000 0.000000e+000 0.000000e+000 0.000000e+000 0.000000e+000 0.000000e+000 0.000000e+000 0.000000e+000 0.000000e+000 0.000000e+000 0.000000e+000 0.000000e+000 
0.000000e+000 0.000000e+000 0.000000e+000 0.000000e+000 0.000000e+000 8.950595e-001 1.049405e-001 0.000000e+000 0.000000e+000 0.000000e+000 0.000000e+000 0.000000e+000 0.000000e+000 0.000000e+000 0.000000e+000 0.000000e+000 0.000000e+000 0.000000e+000 0.000000e+000 0.000000e+000 0.000000e+000 0.000000e+000 0.000000e+000 0.000000e+000 0.000000e+000 
0.000000e+000 0.000000e+000 0.000000e+000 0.000000e+000 0.000000e+000 0.000000e+000 7.464624e-001 2.535376e-001 0.000000e+000 0.000000e+000 0.000000e+000 0.000000e+000 0.000000e+000 0.000000e+000 0.000000e+000 0.000000e+000 0.000000e+000 0.000000e+000 0.000000e+000 0.000000e+000 0.000000e+000 0.000000e+000 0.000000e+000 0.000000e+000 0.000000e+000 
0.000000e+000 0.000000e+000 0.000000e+000 0.000000e+000 0.000000e+000 0.000000e+000 0.000000e+000 7.084880e-001 2.915120e-001 0.000000e+000 0.000000e+000 0.000000e+000 0.000000e+000 0.000000e+000 0.000000e+000 0.000000e+000 0.000000e+000 0.000000e+000 0.000000e+000 0.000000e+000 0.000000e+000 0.000000e+000 0.000000e+000 0.000000e+000 0.000000e+000 
0.000000e+000 0.000000e+000 0.000000e+000 0.000000e+000 0.000000e+000 0.000000e+000 0.000000e+000 0.000000e+000 8.318064e-001 1.681937e-001 0.000000e+000 0.000000e+000 0.000000e+000 0.000000e+000 0.000000e+000 0.000000e+000 0.000000e+000 0.000000e+000 0.000000e+000 0.000000e+000 0.000000e+000 0.000000e+000 0.000000e+000 0.000000e+000 0.000000e+000 
0.000000e+000 0.000000e+000 0.000000e+000 0.000000e+000 0.000000e+000 0.000000e+000 0.000000e+000 0.000000e+000 0.000000e+000 8.923813e-001 1.076187e-001 0.000000e+000 0.000000e+000 0.000000e+000 0.000000e+000 0.000000e+000 0.000000e+000 0.000000e+000 0.000000e+000 0.000000e+000 0.000000e+000 0.000000e+000 0.000000e+000 0.000000e+000 0.000000e+000 
0.000000e+000 0.000000e+000 0.000000e+000 0.000000e+000 0.000000e+000 0.000000e+000 0.000000e+000 0.000000e+000 0.000000e+000 0.000000e+000 8.009740e-001 1.990261e-001 0.000000e+000 0.000000e+000 0.000000e+000 0.000000e+000 0.000000e+000 0.000000e+000 0.000000e+000 0.000000e+000 0.000000e+000 0.000000e+000 0.000000e+000 0.000000e+000 0.000000e+000 
0.000000e+000 0.000000e+000 0.000000e+000 0.000000e+000 0.000000e+000 0.000000e+000 0.000000e+000 0.000000e+000 0.000000e+000 0.000000e+000 0.000000e+000 7.960902e-001 2.039099e-001 0.000000e+000 0.000000e+000 0.000000e+000 0.000000e+000 0.000000e+000 0.000000e+000 0.000000e+000 0.000000e+000 0.000000e+000 0.000000e+000 0.000000e+000 0.000000e+000 
0.000000e+000 0.000000e+000 0.000000e+000 0.000000e+000 0.000000e+000 0.000000e+000 0.000000e+000 0.000000e+000 0.000000e+000 0.000000e+000 0.000000e+000 0.000000e+000 6.717300e-001 3.282699e-001 0.000000e+000 0.000000e+000 0.000000e+000 0.000000e+000 0.000000e+000 0.000000e+000 0.000000e+000 0.000000e+000 0.000000e+000 0.000000e+000 0.000000e+000 
0.000000e+000 0.000000e+000 0.000000e+000 0.000000e+000 0.000000e+000 0.000000e+000 0.000000e+000 0.000000e+000 0.000000e+000 0.000000e+000 0.000000e+000 0.000000e+000 0.000000e+000 7.892396e-001 2.107604e-001 0.000000e+000 0.000000e+000 0.000000e+000 0.000000e+000 0.000000e+000 0.000000e+000 0.000000e+000 0.000000e+000 0.000000e+000 0.000000e+000 
0.000000e+000 0.000000e+000 0.000000e+000 0.000000e+000 0.000000e+000 0.000000e+000 0.000000e+000 0.000000e+000 0.000000e+000 0.000000e+000 0.000000e+000 0.000000e+000 0.000000e+000 0.000000e+000 8.475427e-001 1.524574e-001 0.000000e+000 0.000000e+000 0.000000e+000 0.000000e+000 0.000000e+000 0.000000e+000 0.000000e+000 0.000000e+000 0.000000e+000 
0.000000e+000 0.000000e+000 0.000000e+000 0.000000e+000 0.000000e+000 0.000000e+000 0.000000e+000 0.000000e+000 0.000000e+000 0.000000e+000 0.000000e+000 0.000000e+000 0.000000e+000 0.000000e+000 0.000000e+000 8.790806e-001 1.209195e-001 0.000000e+000 0.000000e+000 0.000000e+000 0.000000e+000 0.000000e+000 0.000000e+000 0.000000e+000 0.000000e+000 
0.000000e+000 0.000000e+000 0.000000e+000 0.000000e+000 0.000000e+000 0.000000e+000 0.000000e+000 0.000000e+000 0.000000e+000 0.000000e+000 0.000000e+000 0.000000e+000 0.000000e+000 0.000000e+000 0.000000e+000 0.000000e+000 7.845918e-001 2.154082e-001 0.000000e+000 0.000000e+000 0.000000e+000 0.000000e+000 0.000000e+000 0.000000e+000 0.000000e+000 
0.000000e+000 0.000000e+000 0.000000e+000 0.000000e+000 0.000000e+000 0.000000e+000 0.000000e+000 0.000000e+000 0.000000e+000 0.000000e+000 0.000000e+000 0.000000e+000 0.000000e+000 0.000000e+000 0.000000e+000 0.000000e+000 0.000000e+000 7.873642e-001 2.126357e-001 0.000000e+000 0.000000e+000 0.000000e+000 0.000000e+000 0.000000e+000 0.000000e+000 
0.000000e+000 0.000000e+000 0.000000e+000 0.000000e+000 0.000000e+000 0.000000e+000 0.000000e+000 0.000000e+000 0.000000e+000 0.000000e+000 0.000000e+000 0.000000e+000 0.000000e+000 0.000000e+000 0.000000e+000 0.000000e+000 0.000000e+000 0.000000e+000 7.305876e-001 2.694124e-001 0.000000e+000 0.000000e+000 0.000000e+000 0.000000e+000 0.000000e+000 
0.000000e+000 0.000000e+000 0.000000e+000 0.000000e+000 0.000000e+000 0.000000e+000 0.000000e+000 0.000000e+000 0.000000e+000 0.000000e+000 0.000000e+000 0.000000e+000 0.000000e+000 0.000000e+000 0.000000e+000 0.000000e+000 0.000000e+000 0.000000e+000 0.000000e+000 8.904703e-001 1.095297e-001 0.000000e+000 0.000000e+000 0.000000e+000 0.000000e+000 
0.000000e+000 0.000000e+000 0.000000e+000 0.000000e+000 0.000000e+000 0.000000e+000 0.000000e+000 0.000000e+000 0.000000e+000 0.000000e+000 0.000000e+000 0.000000e+000 0.000000e+000 0.000000e+000 0.000000e+000 0.000000e+000 0.000000e+000 0.000000e+000 0.000000e+000 0.000000e+000 7.646732e-001 2.353269e-001 0.000000e+000 0.000000e+000 0.000000e+000 
0.000000e+000 0.000000e+000 0.000000e+000 0.000000e+000 0.000000e+000 0.000000e+000 0.000000e+000 0.000000e+000 0.000000e+000 0.000000e+000 0.000000e+000 0.000000e+000 0.000000e+000 0.000000e+000 0.000000e+000 0.000000e+000 0.000000e+000 0.000000e+000 0.000000e+000 0.000000e+000 0.000000e+000 8.008155e-001 1.991845e-001 0.000000e+000 0.000000e+000 
0.000000e+000 0.000000e+000 0.000000e+000 0.000000e+000 0.000000e+000 0.000000e+000 0.000000e+000 0.000000e+000 0.000000e+000 0.000000e+000 0.000000e+000 0.000000e+000 0.000000e+000 0.000000e+000 0.000000e+000 0.000000e+000 0.000000e+000 0.000000e+000 0.000000e+000 0.000000e+000 0.000000e+000 0.000000e+000 8.057081e-001 1.942918e-001 0.000000e+000 
0.000000e+000 0.000000e+000 0.000000e+000 0.000000e+000 0.000000e+000 0.000000e+000 0.000000e+000 0.000000e+000 0.000000e+000 0.000000e+000 0.000000e+000 0.000000e+000 0.000000e+000 0.000000e+000 0.000000e+000 0.000000e+000 0.000000e+000 0.000000e+000 0.000000e+000 0.000000e+000 0.000000e+000 0.000000e+000 0.000000e+000 8.850366e-001 1.149635e-001 
0.000000e+000 0.000000e+000 0.000000e+000 0.000000e+000 0.000000e+000 0.000000e+000 0.000000e+000 0.000000e+000 0.000000e+000 0.000000e+000 0.000000e+000 0.000000e+000 0.000000e+000 0.000000e+000 0.000000e+000 0.000000e+000 0.000000e+000 0.000000e+000 0.000000e+000 0.000000e+000 0.000000e+000 0.000000e+000 0.000000e+000 0.000000e+000 0.000000e+000 
