<HMMNAME> 1
<HMMSTATES> 25
<STATE> 1
<MEAN> 36
-5.039297e+000 1.059953e+000 1.616575e+001 -5.455473e+000 -6.481416e+000 -2.886998e+000 -5.024879e+000 -5.292699e+000 -4.013839e+000 -5.483508e-001 3.432707e+000 1.281262e+000 1.213559e-001 -2.529006e-002 8.999712e-001 -5.693427e-001 -9.669837e-001 -2.417451e-001 -2.999166e-001 -1.231707e-001 -9.113182e-002 4.025616e-002 1.410261e-001 1.972425e-001 -4.370459e-002 -7.155616e-002 -6.039283e-002 2.042454e-002 4.435200e-002 -4.607628e-002 9.449823e-002 4.887123e-002 -1.588145e-002 -1.493330e-003 -4.141395e-002 3.891246e-002 
<VARIANCE> 36
6.796874e+001 1.711784e+002 9.560207e+001 8.038268e+001 9.010095e+001 5.995081e+001 8.902547e+001 6.380670e+001 5.813772e+001 7.915553e+001 4.504517e+001 3.775325e+001 4.165591e-001 1.140354e+000 2.141845e+000 2.125799e+000 2.918164e+000 2.590942e+000 3.247653e+000 2.608365e+000 2.812656e+000 2.738137e+000 2.299580e+000 2.034960e+000 5.882693e-002 1.265275e-001 2.726131e-001 3.441302e-001 5.346186e-001 4.350839e-001 4.966228e-001 4.468700e-001 4.609072e-001 5.003264e-001 4.491748e-001 3.061403e-001 
<GCONST> 1.124184e+002
<STATE> 2
<MEAN> 36
-3.327976e+000 4.276963e+000 2.259306e+001 1.809932e+000 -1.837123e+001 -1.333847e+001 5.687303e+000 -1.366780e+001 -4.746988e+000 -6.459188e+000 5.647063e+000 5.285897e+000 -5.465996e-003 -5.022207e-001 -3.247586e-001 -4.953106e-002 -3.098730e-001 -1.402565e-001 1.250702e-001 3.745334e-001 9.890021e-002 1.524835e-001 -2.072905e-001 1.547297e-001 1.777925e-002 -2.026704e-002 -4.776844e-002 -1.665924e-003 3.456463e-002 3.602296e-002 -4.359493e-002 7.885175e-002 2.532395e-002 2.316078e-002 8.366415e-004 -5.668460e-002 
<VARIANCE> 36
1.369444e+001 4.403519e+001 5.125947e+001 6.066849e+001 6.538409e+001 5.346166e+001 1.151419e+002 1.091994e+002 5.647470e+001 9.284621e+001 3.816734e+001 8.154108e+001 2.211497e-001 6.963990e-001 1.272051e+000 8.439478e-001 1.376296e+000 1.362852e+000 2.324775e+000 2.170734e+000 1.643102e+000 1.646668e+000 1.626511e+000 1.621540e+000 5.000000e-002 6.559522e-002 1.646759e-001 1.323909e-001 1.888754e-001 2.171030e-001 3.175615e-001 3.316495e-001 2.658798e-001 2.515299e-001 2.367296e-001 2.382121e-001 
<GCONST> 9.665640e+001
<STATE> 3
<MEAN> 36
3.523795e+000 -8.376926e+000 2.768662e+001 -6.306960e+000 -2.461699e+001 -9.295758e+000 -1.283328e+001 5.243898e+000 2.820762e+000 -7.442663e+000 7.279785e+000 4.390919e+000 1.215848e-001 -7.198012e-001 -4.834494e-001 -5.725367e-003 1.091230e-001 -2.932205e-001 6.299053e-002 2.224278e-001 3.608684e-001 3.253339e-001 -3.420264e-001 -1.674706e-001 6.790713e-003 2.935086e-002 -7.253795e-002 3.350238e-002 6.939342e-002 2.614092e-002 1.058746e-002 -3.718958e-002 2.265878e-002 1.233078e-002 -2.591106e-002 -5.195479e-002 
<VARIANCE> 36
3.151898e+001 3.703999e+001 4.736961e+001 3.705486e+001 4.775767e+001 5.264315e+001 7.290979e+001 4.619320e+001 5.186500e+001 6.645363e+001 5.837903e+001 2.428450e+001 1.584257e-001 3.852044e-001 1.105118e+000 6.866370e-001 1.017416e+000 9.306141e-001 1.103855e+000 1.289063e+000 1.336563e+000 1.110110e+000 1.119667e+000 1.080198e+000 5.000000e-002 5.000000e-002 1.293800e-001 1.097800e-001 1.164991e-001 1.393742e-001 1.444135e-001 1.710277e-001 1.883100e-001 1.368272e-001 1.771352e-001 1.484626e-001 
<GCONST> 8.449640e+001
<STATE> 4
<MEAN> 36
-1.142231e+001 -5.594864e+000 2.199650e+001 -1.913556e+001 -1.566281e+001 -6.792363e+000 2.986267e-001 -7.658787e+000 8.463171e-002 8.049064e+000 -1.233605e+000 4.738713e+000 5.799908e-002 -8.286283e-001 -5.348881e-001 -1.333488e-001 -2.496233e-001 -2.959431e-001 9.779214e-001 5.320952e-001 -4.595699e-002 -1.965317e-001 1.366971e-001 -3.994634e-001 8.641210e-003 1.857473e-002 -6.810879e-002 6.441999e-002 4.002453e-002 4.843252e-002 6.342817e-003 7.621149e-002 9.903753e-003 -5.134895e-002 2.959249e-002 1.300415e-002 
<VARIANCE> 36
3.710984e+001 3.042354e+001 2.283623e+001 5.851777e+001 3.090366e+001 3.390458e+001 7.694067e+001 6.047753e+001 4.480320e+001 5.048135e+001 2.256879e+001 2.350351e+001 1.024444e-001 1.969235e-001 4.989902e-001 6.186707e-001 1.054271e+000 8.801601e-001 1.071902e+000 1.304736e+000 9.165052e-001 9.528184e-001 8.665976e-001 8.376937e-001 5.000000e-002 5.000000e-002 6.785111e-002 8.922643e-002 1.321114e-001 1.191607e-001 1.513949e-001 1.527073e-001 1.607739e-001 1.496288e-001 1.560744e-001 1.306726e-001 
<GCONST> 7.787698e+001
<STATE> 5
<MEAN> 36
-1.095884e+001 -1.468807e+001 1.187999e+001 -1.732539e+001 -1.424877e+001 -1.027307e+001 1.049582e+001 2.190806e+000 1.525999e+000 3.304632e+000 4.031177e-001 4.552183e+000 1.454909e-001 -1.182906e-001 -4.462126e-001 3.577711e-001 1.026252e-001 -2.782078e-001 -1.404801e-001 3.607917e-001 2.315768e-001 -3.181662e-001 6.009364e-002 2.636162e-001 -2.958972e-003 7.951785e-002 4.132447e-002 4.821189e-002 -1.273808e-002 -1.718788e-002 -8.969006e-002 -6.024419e-002 -1.123293e-002 -1.074553e-002 -2.717741e-002 1.824952e-002 
<VARIANCE> 36
1.973088e+001 1.127745e+001 2.501824e+001 3.826510e+001 1.786150e+001 2.666364e+001 5.273785e+001 3.954520e+001 3.412375e+001 2.871386e+001 1.506481e+001 1.803537e+001 9.376587e-002 3.911038e-001 3.103297e-001 4.401231e-001 4.919403e-001 5.883600e-001 7.582117e-001 6.883616e-001 8.892376e-001 6.676114e-001 5.109934e-001 4.672063e-001 5.000000e-002 5.000000e-002 5.000000e-002 6.805212e-002 7.175744e-002 8.591897e-002 1.163410e-001 1.090477e-001 1.628413e-001 1.050535e-001 8.260696e-002 7.644873e-002 
<GCONST> 6.532929e+001
<STATE> 6
<MEAN> 36
5.582276e+000 -1.388568e+001 1.619594e+001 -5.410818e+000 -1.491225e+001 -7.444531e+000 -1.589694e+001 4.088651e+000 9.441046e+000 -1.157680e+000 1.981696e+000 -5.815884e+000 -4.931793e-002 3.403800e-001 -2.175709e-001 1.767311e-001 3.582411e-001 9.271395e-002 -3.683372e-002 -2.709399e-001 1.434332e-001 1.422658e-001 -1.007599e-001 -2.858221e-001 -1.124980e-002 5.871899e-002 3.447045e-002 4.918216e-002 1.454729e-002 -1.849036e-002 2.932284e-002 -2.034929e-002 -3.376090e-002 -4.646995e-003 8.344128e-003 3.990624e-002 
<VARIANCE> 36
2.428653e+001 2.164820e+001 2.070465e+001 2.627492e+001 3.522362e+001 5.406834e+001 8.199419e+001 4.379650e+001 4.510766e+001 3.866936e+001 4.875466e+001 3.941763e+001 1.912717e-001 4.316435e-001 7.279267e-001 8.846639e-001 9.909958e-001 1.397096e+000 1.553215e+000 1.961897e+000 1.810559e+000 1.642833e+000 1.209926e+000 1.358957e+000 5.000000e-002 6.415490e-002 9.641156e-002 1.266181e-001 1.726052e-001 2.337201e-001 2.281494e-001 3.233692e-001 2.692016e-001 2.673253e-001 1.987413e-001 2.140017e-001 
<GCONST> 8.782916e+001
<STATE> 7
<MEAN> 36
-1.212039e+000 -1.161303e+001 7.957309e+000 2.470391e+000 -1.629300e+001 -1.185620e+001 5.982322e+000 -3.663667e+000 -1.294493e+000 -2.422497e+000 -4.724931e+000 4.005659e+000 3.258289e-002 7.653022e-002 -1.503250e-001 1.553646e-001 5.095650e-001 -8.731140e-002 -2.737639e-001 7.355982e-002 -2.151496e-002 3.075125e-002 -4.385722e-001 -4.064563e-002 -3.233053e-003 6.126003e-002 4.682817e-002 1.981549e-002 6.148119e-002 5.067774e-002 2.866203e-003 8.697598e-004 1.964290e-003 -1.261888e-003 3.506162e-003 -3.899838e-002 
<VARIANCE> 36
1.416968e+001 1.014713e+001 2.222570e+001 4.305841e+001 2.800659e+001 2.402977e+001 5.319231e+001 4.783688e+001 4.880273e+001 2.934959e+001 4.521806e+001 5.404400e+001 1.852327e-001 5.303061e-001 6.102264e-001 9.985847e-001 1.088743e+000 1.286346e+000 1.365650e+000 1.259898e+000 1.486980e+000 1.375757e+000 1.472306e+000 1.342944e+000 5.000000e-002 5.006382e-002 7.650766e-002 1.450888e-001 1.877442e-001 2.376959e-001 1.994765e-001 1.940793e-001 2.274659e-001 2.292973e-001 2.115071e-001 1.994446e-001 
<GCONST> 8.390748e+001
<STATE> 8
<MEAN> 36
-7.369592e+000 -4.672974e+000 9.219480e+000 -3.637702e+000 -1.022732e+001 -9.884227e+000 2.741207e+000 5.153222e+000 2.780101e+000 2.011128e+000 -1.607726e+000 5.518416e+000 -1.432397e-002 8.505051e-001 -1.495769e-001 8.830753e-001 7.993512e-001 9.235534e-001 -1.001884e-001 -8.659794e-002 -8.028301e-002 -7.796412e-003 -6.242833e-002 -3.969863e-001 -1.387555e-002 -4.230584e-002 -1.858305e-002 -4.348899e-002 6.753333e-002 9.648005e-002 7.737693e-002 -3.579227e-002 -4.436067e-002 -3.839152e-002 4.610996e-002 -6.477187e-002 
<VARIANCE> 36
2.690245e+001 1.658414e+001 1.612708e+001 3.909690e+001 2.347253e+001 4.397780e+001 7.979617e+001 5.085265e+001 3.942861e+001 2.708096e+001 3.659517e+001 3.635135e+001 2.193274e-001 5.373910e-001 7.835436e-001 2.021347e+000 1.529738e+000 2.962916e+000 2.255435e+000 2.569386e+000 2.498392e+000 1.977536e+000 1.924137e+000 2.462060e+000 5.000000e-002 7.921576e-002 1.317585e-001 3.066998e-001 2.539391e-001 6.032674e-001 4.551778e-001 4.325276e-001 4.685519e-001 3.719121e-001 3.623657e-001 4.939815e-001 
<GCONST> 9.715928e+001
<STATE> 9
<MEAN> 36
2.047839e+000 -3.655202e+000 1.399775e+001 1.218828e+000 -6.543314e+000 -6.488952e+000 -8.692700e+000 -1.327109e+000 6.329471e+000 -2.459872e+000 3.515349e-001 -5.637689e+000 -1.770934e-001 3.868979e-001 -8.151869e-002 1.236888e-001 6.961532e-001 -5.639174e-003 4.056568e-001 -4.006370e-001 -2.105060e-001 -2.561852e-001 1.699465e-002 1.834980e-001 -1.520576e-002 -8.435010e-002 -6.720007e-002 -1.394335e-001 -7.897510e-002 -9.278749e-002 4.394504e-002 -4.668698e-002 1.490022e-002 9.039269e-002 9.831066e-002 1.187756e-001 
<VARIANCE> 36
2.917911e+001 1.542943e+001 4.091277e+001 2.197497e+001 3.134384e+001 4.441144e+001 5.391341e+001 4.903174e+001 6.537515e+001 4.388575e+001 6.035247e+001 3.970969e+001 2.362983e-001 4.226672e-001 8.750204e-001 1.488617e+000 1.574892e+000 2.533410e+000 2.453667e+000 2.362583e+000 1.901815e+000 2.028635e+000 2.098894e+000 1.910434e+000 5.000000e-002 7.159760e-002 1.440599e-001 2.506616e-001 2.778756e-001 4.634604e-001 5.669622e-001 4.364571e-001 3.400596e-001 3.967484e-001 3.481827e-001 3.562199e-001 
<GCONST> 9.728700e+001
<STATE> 10
<MEAN> 36
-5.004451e+000 -3.627926e+000 7.693104e+000 2.743850e+000 -5.742918e+000 -6.739982e+000 3.824182e+000 -1.020132e-001 1.510528e-001 -1.804649e+000 -2.917385e+000 3.517632e+000 -1.260811e-001 -2.464084e-002 -1.587992e-002 -5.172553e-002 -1.998083e-002 -7.587636e-002 8.377925e-002 -1.968174e-001 -3.469137e-003 3.437755e-002 3.032676e-001 1.700191e-001 4.181760e-002 -4.542704e-002 2.502738e-002 -6.464329e-002 -1.493070e-001 -1.462177e-001 -1.119680e-001 -1.501577e-002 9.518047e-002 6.912846e-002 -3.357932e-002 4.027888e-002 
<VARIANCE> 36
3.397607e+001 3.375242e+001 2.023805e+001 1.959366e+001 3.584502e+001 4.926620e+001 4.293336e+001 4.530307e+001 4.176228e+001 3.820762e+001 4.438392e+001 2.729839e+001 5.217081e-001 8.886562e-001 1.078526e+000 1.308198e+000 2.349472e+000 2.426423e+000 2.796909e+000 2.795755e+000 2.511830e+000 2.426442e+000 2.442435e+000 2.015252e+000 1.117812e-001 1.871541e-001 2.180816e-001 2.633488e-001 5.299805e-001 4.857240e-001 5.454237e-001 5.329854e-001 5.005023e-001 5.184965e-001 5.000179e-001 3.911032e-001 
<GCONST> 1.031917e+002
<STATE> 11
<MEAN> 36
-6.329268e+000 -7.815756e-001 8.268838e+000 -1.700434e+000 -5.365971e+000 -1.025995e+001 -7.395625e-001 -1.723379e+000 5.247556e+000 8.707017e-001 5.671726e-001 4.639416e+000 1.006237e+000 -7.722683e-001 1.574440e-001 -1.154574e+000 -1.595572e+000 -1.972380e+000 -1.233683e+000 1.823283e-001 9.313053e-001 8.046957e-001 -6.934350e-001 5.131002e-001 9.554827e-002 -4.283115e-001 1.135535e-002 -2.286507e-001 -1.919339e-001 -2.214654e-002 -3.406391e-002 2.514277e-001 1.419789e-001 9.659998e-002 -2.712879e-001 -5.407457e-002 
<VARIANCE> 36
5.332788e+001 2.492629e+001 2.486393e+001 2.538940e+001 4.136960e+001 4.017043e+001 6.536205e+001 4.801389e+001 5.325660e+001 3.780950e+001 6.729451e+001 6.617543e+001 1.076963e+000 2.887734e+000 1.289956e+000 2.601515e+000 1.570357e+000 3.870870e+000 3.421812e+000 2.500402e+000 2.758806e+000 3.526534e+000 3.408579e+000 3.599482e+000 3.200896e-001 3.997664e-001 2.614917e-001 3.815166e-001 4.008728e-001 7.713568e-001 6.322251e-001 4.751064e-001 4.360782e-001 4.685286e-001 5.739623e-001 5.463605e-001 
<GCONST> 1.128736e+002
<STATE> 12
<MEAN> 36
2.251106e+000 -7.962860e+000 9.191825e+000 -3.045307e+000 -1.337609e+001 -1.589665e+001 -5.592356e+000 -2.812591e+000 9.724944e+000 3.359725e+000 -6.177974e+000 1.575846e+000 1.282494e-001 -1.184092e+000 -2.922025e-001 -9.112478e-001 -3.902365e-001 1.617137e-001 9.624009e-002 2.849817e-001 3.442093e-001 7.651700e-003 -4.079351e-001 -1.007326e-001 -1.268981e-001 1.720139e-001 -4.013726e-002 1.493439e-001 3.677427e-001 5.138171e-001 2.779010e-001 1.331506e-001 -3.136381e-001 -3.017907e-001 1.791461e-001 -2.210463e-001 
<VARIANCE> 36
7.332699e+001 1.724066e+001 2.755989e+001 4.613650e+001 3.259380e+001 6.609120e+001 1.142090e+002 5.347047e+001 8.734117e+001 3.215800e+001 1.056113e+002 1.715518e+002 3.894223e-001 1.221345e+000 8.229290e-001 1.583161e+000 1.830173e+000 2.829860e+000 1.935791e+000 1.887381e+000 2.302848e+000 2.473414e+000 1.754949e+000 2.291345e+000 5.901765e-002 1.490495e-001 1.178682e-001 2.129864e-001 2.388689e-001 4.141305e-001 2.723078e-001 3.547878e-001 3.024177e-001 4.601969e-001 2.744652e-001 4.873372e-001 
<GCONST> 1.031319e+002
<STATE> 13
<MEAN> 36
5.711565e+000 -1.410251e+001 1.136114e+001 -8.998191e+000 -9.239364e+000 -4.847885e+000 -1.259791e+001 -4.751689e-004 1.264118e+001 4.997246e-001 1.168553e+000 -7.548353e+000 4.939619e-002 -3.626747e-001 -1.681717e-001 -1.281177e-001 1.991677e-001 5.314948e-001 3.392920e-001 5.217069e-001 -3.384871e-001 -2.525147e-001 1.608906e-002 -8.655095e-002 -1.853719e-002 9.227410e-002 -2.073796e-002 7.972712e-002 5.673042e-002 -1.899489e-002 3.322832e-002 -5.206720e-002 -3.749587e-002 -1.184728e-002 3.400284e-002 2.855159e-002 
<VARIANCE> 36
2.410580e+001 2.097177e+001 1.762520e+001 2.174362e+001 1.636654e+001 4.078798e+001 8.741972e+001 4.685905e+001 6.011660e+001 3.866731e+001 4.051707e+001 5.932694e+001 1.541372e-001 3.337622e-001 4.823628e-001 6.589342e-001 7.688397e-001 8.541389e-001 1.299629e+000 1.093089e+000 1.734710e+000 1.404202e+000 1.155146e+000 1.201107e+000 5.000000e-002 5.000000e-002 7.856235e-002 1.174681e-001 1.358332e-001 1.701507e-001 2.145228e-001 1.430744e-001 2.260363e-001 1.944458e-001 1.728049e-001 2.037978e-001 
<GCONST> 8.133138e+001
<STATE> 14
<MEAN> 36
-8.849619e+000 -1.565435e+001 4.481190e+000 -1.285568e+001 -7.523376e+000 -1.068484e+001 7.553740e+000 6.464077e+000 3.229121e+000 -1.515294e+000 -3.681623e+000 9.568861e+000 9.057384e-002 2.826458e-002 -2.012010e-001 1.938345e-001 2.014957e-001 2.482008e-001 -6.649225e-002 1.605501e-001 1.278774e-002 -1.838208e-001 -1.375250e-001 -8.463593e-002 1.796858e-002 7.662243e-002 1.316787e-002 8.872840e-002 -1.330195e-002 -2.680296e-002 -5.081375e-002 -2.559357e-002 -8.866100e-003 -2.498989e-002 -1.186451e-002 9.127542e-003 
<VARIANCE> 36
1.642153e+001 1.550113e+001 1.509513e+001 2.770069e+001 2.762140e+001 3.938215e+001 3.414452e+001 2.851583e+001 2.007365e+001 1.536693e+001 1.683060e+001 2.959182e+001 1.143116e-001 3.914600e-001 2.906089e-001 6.110945e-001 6.144583e-001 6.529716e-001 8.423981e-001 9.068126e-001 8.445112e-001 7.793404e-001 7.176288e-001 7.015830e-001 5.000000e-002 5.000000e-002 5.000000e-002 8.307069e-002 1.039129e-001 1.123042e-001 1.135809e-001 1.642731e-001 1.408538e-001 1.406717e-001 1.268884e-001 1.290341e-001 
<GCONST> 6.849116e+001
<STATE> 15
<MEAN> 36
8.671277e+000 -1.414529e+001 1.140177e+001 -4.195263e+000 -8.091333e+000 5.374230e+000 -7.700034e+000 -3.535568e+000 -1.051686e+000 -5.934250e-001 5.019385e+000 -6.860138e+000 -1.435968e-004 2.522449e-001 -5.857375e-002 3.247971e-001 5.750697e-002 1.677616e-001 2.279832e-001 -3.667861e-001 -3.265792e-001 -1.069244e-001 1.492741e-001 4.555139e-002 -1.752229e-002 2.189922e-002 8.260048e-003 3.534684e-002 2.837900e-002 -2.913030e-002 3.503159e-002 -1.010924e-002 -1.244658e-002 3.538345e-003 -2.594298e-002 -4.693013e-003 
<VARIANCE> 36
1.804672e+001 1.587169e+001 2.134811e+001 2.463253e+001 1.847660e+001 5.081097e+001 5.052590e+001 6.630816e+001 5.564815e+001 5.030147e+001 4.818217e+001 4.071775e+001 1.459570e-001 3.313838e-001 6.185661e-001 9.174525e-001 1.057977e+000 1.196860e+000 1.500146e+000 1.469414e+000 1.504078e+000 1.450434e+000 1.659987e+000 1.336888e+000 5.000000e-002 5.611112e-002 8.085424e-002 1.489420e-001 1.671527e-001 2.037232e-001 2.844441e-001 2.140349e-001 2.400938e-001 2.469792e-001 2.535052e-001 1.906810e-001 
<GCONST> 8.524570e+001
<STATE> 16
<MEAN> 36
-1.675020e+000 -4.012011e+000 2.162251e+000 -3.146183e+000 -4.905170e+000 -8.424293e+000 -2.586371e+000 6.535870e+000 8.047714e+000 -2.000554e+000 -9.886584e+000 4.128200e+000 -7.154014e-002 7.927668e-001 5.344217e-002 1.163843e+000 5.553145e-001 9.442757e-002 2.282169e-001 -2.243530e-001 -7.440708e-001 -7.387701e-002 -3.172572e-002 -5.918121e-001 -2.342083e-002 4.502226e-002 9.334822e-002 5.529029e-002 -2.879312e-002 6.303772e-002 4.817922e-002 -1.435978e-001 -2.331754e-001 1.693145e-002 1.186583e-003 -4.939776e-002 
<VARIANCE> 36
2.806909e+001 4.521529e+001 2.300039e+001 2.333328e+001 2.477153e+001 5.263785e+001 7.358317e+001 5.630404e+001 7.037011e+001 3.773888e+001 9.897633e+001 6.868108e+001 2.254694e-001 1.017231e+000 6.583518e-001 1.424241e+000 1.294775e+000 1.940136e+000 1.184427e+000 1.972335e+000 2.167058e+000 1.461126e+000 2.011256e+000 1.598697e+000 5.000000e-002 1.028584e-001 9.481866e-002 1.849926e-001 2.562654e-001 3.511647e-001 1.970084e-001 2.652943e-001 3.336049e-001 2.992930e-001 3.351269e-001 2.826259e-001 
<GCONST> 9.502559e+001
<STATE> 17
<MEAN> 36
1.667037e+000 -6.940491e+000 4.845446e+000 5.773768e+000 -5.691866e+000 -1.118684e+001 4.028138e+000 -1.147716e+000 -3.307808e+000 -3.123741e+000 -5.506422e+000 1.398694e+000 6.131726e-002 4.186172e-001 1.952229e-001 3.068260e-001 3.298239e-001 2.567878e-001 7.173712e-002 -4.906091e-001 -8.140946e-001 -3.045710e-001 -1.149763e-001 -2.251952e-001 8.348800e-003 -4.474920e-002 4.689416e-002 -1.133700e-001 -9.540683e-002 8.031089e-003 -5.057140e-002 -5.928209e-002 1.052924e-001 -1.251060e-002 1.509509e-002 1.032373e-001 
<VARIANCE> 36
3.514224e+001 2.335786e+001 1.746123e+001 3.131630e+001 4.410272e+001 5.225398e+001 4.227753e+001 7.858983e+001 5.942465e+001 3.537640e+001 4.249078e+001 4.297695e+001 3.272376e-001 8.019835e-001 9.943773e-001 1.499306e+000 2.309416e+000 1.878895e+000 2.470904e+000 2.672120e+000 3.571893e+000 2.162278e+000 2.427211e+000 2.008274e+000 6.298196e-002 1.680295e-001 1.600694e-001 2.816472e-001 5.117759e-001 4.090531e-001 4.137710e-001 4.612884e-001 6.790276e-001 4.106633e-001 3.936160e-001 3.958034e-001 
<GCONST> 1.022309e+002
<STATE> 18
<MEAN> 36
5.985289e+000 -4.894820e+000 9.380872e+000 5.549850e+000 -6.174988e+000 2.991487e+000 7.934555e-002 -1.036363e+001 -3.370756e+000 -7.580017e+000 6.444309e+000 -1.651615e+000 -8.643617e-002 2.780632e-001 4.368892e-002 1.784130e-001 -6.412670e-002 -8.457884e-002 1.472650e-001 -1.277575e-001 -1.343477e-001 5.057139e-002 -1.746145e-001 2.096428e-001 -1.349192e-002 -6.357589e-003 -1.449269e-002 -4.065785e-002 -1.274946e-002 -6.152935e-002 -4.241273e-002 6.033245e-002 8.360339e-002 3.350066e-002 -2.515583e-002 -7.535803e-003 
<VARIANCE> 36
2.384756e+001 1.548107e+001 2.068202e+001 2.153458e+001 1.678116e+001 5.066689e+001 2.375998e+001 3.947789e+001 8.409794e+001 3.910188e+001 6.885114e+001 3.831563e+001 1.523285e-001 3.253339e-001 5.968054e-001 7.628717e-001 1.242872e+000 1.444297e+000 1.392353e+000 1.628473e+000 1.855332e+000 1.639382e+000 1.708992e+000 1.351054e+000 5.000000e-002 5.484035e-002 1.030475e-001 1.415821e-001 2.210690e-001 2.359693e-001 2.605648e-001 2.446228e-001 3.414374e-001 2.758730e-001 2.979703e-001 2.482333e-001 
<GCONST> 8.650110e+001
<STATE> 19
<MEAN> 36
-4.573520e+000 4.295675e-001 4.549441e+000 3.465647e+000 -4.217830e+000 -8.623386e+000 1.291722e+000 1.714732e+000 -5.725376e+000 -9.947986e+000 -8.491614e+000 4.108492e+000 -4.819719e-003 4.455583e-001 -3.661263e-002 6.181713e-002 8.243586e-002 1.887786e-001 -1.298783e-001 -1.002154e-001 -1.174991e-001 -2.764831e-002 1.403843e-001 -8.959046e-002 -9.737868e-003 -2.260473e-002 -2.934537e-002 -3.916534e-002 1.183830e-002 2.832639e-002 -6.063824e-003 2.125732e-002 7.216023e-002 1.254258e-001 5.626830e-002 -8.083836e-002 
<VARIANCE> 36
1.160530e+001 1.854878e+001 1.097898e+001 1.749004e+001 1.794428e+001 2.849027e+001 2.802504e+001 3.909621e+001 2.979546e+001 3.613253e+001 3.528603e+001 3.209294e+001 1.544329e-001 2.754772e-001 6.315557e-001 8.621347e-001 1.179261e+000 1.567107e+000 1.780098e+000 1.946275e+000 1.860797e+000 2.223087e+000 1.535118e+000 1.630494e+000 5.000000e-002 5.202489e-002 1.172050e-001 1.576455e-001 2.239922e-001 2.879162e-001 3.684755e-001 3.986746e-001 3.606245e-001 3.808598e-001 2.933350e-001 3.359843e-001 
<GCONST> 8.556700e+001
<STATE> 20
<MEAN> 36
3.096893e+000 9.509377e-001 7.134490e+000 2.944278e+000 -5.401223e+000 -2.227882e+000 1.351193e+000 -1.063880e+001 -2.813024e+000 2.499909e+000 -9.996629e-001 -1.499445e+000 -2.363538e-001 3.634203e-001 2.566099e-002 -4.919483e-002 -5.204231e-003 -4.217898e-002 -1.936859e-001 -2.076903e-001 7.655504e-002 1.774019e-001 2.760648e-001 -2.154475e-001 7.715743e-003 -3.443577e-002 -1.543805e-002 1.954469e-002 2.832020e-002 7.916257e-003 1.073100e-002 1.517661e-002 -1.148097e-001 -9.856216e-002 4.269615e-002 2.570698e-002 
<VARIANCE> 36
2.266081e+001 4.426545e+001 5.815691e+001 3.910872e+001 3.324565e+001 8.076509e+001 6.646728e+001 7.009448e+001 4.688771e+001 9.151165e+001 6.797892e+001 3.549456e+001 2.153218e-001 5.262928e-001 1.069407e+000 1.710089e+000 1.379220e+000 1.998081e+000 2.865943e+000 3.418007e+000 3.802439e+000 2.524995e+000 2.493113e+000 2.410250e+000 5.000000e-002 9.802586e-002 1.807476e-001 3.376239e-001 2.465011e-001 4.358764e-001 5.434546e-001 7.236457e-001 6.709243e-001 4.684445e-001 4.985730e-001 4.210118e-001 
<GCONST> 1.050783e+002
<STATE> 21
<MEAN> 36
-1.050355e+000 2.111841e+000 1.204790e+001 8.719387e+000 -1.821285e+000 -4.662711e+000 -2.946981e+000 -1.349900e+001 -1.060268e+001 -5.245561e+000 -1.431808e+000 -4.279276e+000 -2.795623e-001 2.404009e-002 -1.563093e-001 -2.778751e-002 2.447639e-001 2.494650e-002 -1.421026e-001 1.570146e-002 -5.260129e-002 -1.026635e-001 -9.854932e-003 -9.072834e-002 -1.265897e-002 -3.361233e-002 -6.586537e-002 -4.606316e-002 -5.014920e-003 1.232095e-002 2.975733e-002 7.616718e-002 9.190657e-002 2.412323e-002 -4.007598e-003 3.806003e-002 
<VARIANCE> 36
1.628311e+001 1.994844e+001 2.634039e+001 3.418978e+001 4.479953e+001 4.256608e+001 4.361054e+001 4.807209e+001 4.025303e+001 3.225365e+001 3.558690e+001 3.231506e+001 2.748434e-001 6.868706e-001 1.136747e+000 1.129129e+000 1.751105e+000 1.818744e+000 2.326572e+000 2.266838e+000 2.821974e+000 2.313797e+000 2.089294e+000 1.699216e+000 5.363501e-002 1.221986e-001 2.281639e-001 2.077527e-001 3.883046e-001 3.507349e-001 4.606255e-001 4.324760e-001 6.086828e-001 4.245957e-001 3.455571e-001 3.494813e-001 
<GCONST> 9.756359e+001
<STATE> 22
<MEAN> 36
-4.548915e+000 -1.134207e+000 2.016297e+000 1.008443e+000 -1.820617e+000 -4.712369e+000 -4.068323e-001 -4.044963e+000 -1.801544e+000 -2.972855e+000 -1.962341e+000 -4.895010e+000 -1.632522e-001 3.096232e-003 -5.082765e-001 -3.255970e-001 6.839103e-002 1.988898e-001 1.726034e-001 5.828586e-001 4.182858e-001 1.833593e-002 -4.355521e-002 3.033637e-002 -2.859525e-003 4.832522e-002 1.233498e-001 1.397054e-001 6.243357e-002 3.687978e-002 -3.199734e-002 -1.058878e-001 -1.305442e-001 -3.799461e-002 -1.108553e-002 -4.936978e-002 
<VARIANCE> 36
1.892919e+001 3.248521e+001 3.863643e+001 3.383993e+001 4.204863e+001 2.453865e+001 5.227626e+001 8.731228e+001 4.884453e+001 4.915889e+001 3.676580e+001 5.795649e+001 3.130074e-001 9.610818e-001 1.844738e+000 1.707515e+000 2.484451e+000 2.114434e+000 2.854598e+000 3.260632e+000 3.229333e+000 2.103464e+000 2.499982e+000 1.806606e+000 5.340891e-002 1.743478e-001 3.459294e-001 2.596287e-001 3.777712e-001 2.921131e-001 5.553396e-001 5.846422e-001 5.707023e-001 3.905692e-001 6.397930e-001 4.194740e-001 
<GCONST> 1.046015e+002
<STATE> 23
<MEAN> 36
-8.130587e+000 4.682666e+000 2.696879e+000 4.527771e+000 9.637978e-001 -8.228541e-001 1.543472e+000 1.769611e+000 -6.597004e-001 -2.057431e+000 -1.440439e+000 2.099575e-001 -2.088165e-001 -6.338069e-003 -2.168346e-003 1.147103e-001 2.393874e-001 2.020825e-001 6.980069e-002 1.108405e-001 2.037925e-001 2.300027e-001 1.946880e-001 -3.390461e-002 1.437168e-002 -6.247885e-003 1.001008e-002 -1.058444e-002 -1.124992e-002 -5.217827e-003 -1.694816e-002 -4.338407e-003 1.277714e-003 -8.686241e-003 2.301723e-003 1.277712e-002 
<VARIANCE> 36
1.088662e+001 2.134489e+001 1.568690e+001 1.720040e+001 2.477564e+001 2.583873e+001 3.202059e+001 3.958604e+001 3.082327e+001 2.812746e+001 3.167024e+001 3.166867e+001 2.150038e-001 4.366497e-001 7.274140e-001 1.097734e+000 1.754206e+000 2.049918e+000 2.033861e+000 2.172650e+000 2.109188e+000 2.058168e+000 2.151371e+000 1.753925e+000 5.000000e-002 8.319084e-002 1.393329e-001 2.249750e-001 3.532618e-001 4.404527e-001 4.136662e-001 4.254728e-001 4.015592e-001 4.029150e-001 4.052338e-001 3.254334e-001 
<GCONST> 9.107297e+001
<TRANSP> 25
0.000000e+000 1.000000e+000 0.000000e+000 0.000000e+000 0.000000e+000 0.000000e+000 0.000000e+000 0.000000e+000 0.000000e+000 0.000000e+000 0.000000e+000 0.000000e+000 0.000000e+000 0.000000e+000 0.000000e+000 0.000000e+000 0.000000e+000 0.000000e+000 0.000000e+000 0.000000e+000 0.000000e+000 0.000000e+000 0.000000e+000 0.000000e+000 0.000000e+000 
0.000000e+000 8.032129e-001 1.967871e-001 0.000000e+000 0.000000e+000 0.000000e+000 0.000000e+000 0.000000e+000 0.000000e+000 0.000000e+000 0.000000e+000 0.000000e+000 0.000000e+000 0.000000e+000 0.000000e+000 0.000000e+000 0.000000e+000 0.000000e+000 0.000000e+000 0.000000e+000 0.000000e+000 0.000000e+000 0.000000e+000 0.000000e+000 0.000000e+000 
0.000000e+000 0.000000e+000 8.528529e-001 1.471471e-001 0.000000e+000 0.000000e+000 0.000000e+000 0.000000e+000 0.000000e+000 0.000000e+000 0.000000e+000 0.000000e+000 0.000000e+000 0.000000e+000 0.000000e+000 0.000000e+000 0.000000e+000 0.000000e+000 0.000000e+000 0.000000e+000 0.000000e+000 0.000000e+000 0.000000e+000 0.000000e+000 0.000000e+000 
0.000000e+000 0.000000e+000 0.000000e+000 8.532934e-001 1.467066e-001 0.000000e+000 0.000000e+000 0.000000e+000 0.000000e+000 0.000000e+000 0.000000e+000 0.000000e+000 0.000000e+000 0.000000e+000 0.000000e+000 0.000000e+000 0.000000e+000 0.000000e+000 0.000000e+000 0.000000e+000 0.000000e+000 0.000000e+000 0.000000e+000 0.000000e+000 0.000000e+000 
0.000000e+000 0.000000e+000 0.000000e+000 0.000000e+000 8.108109e-001 1.891892e-001 0.000000e+000 0.000000e+000 0.000000e+000 0.000000e+000 0.000000e+000 0.000000e+000 0.000000e+000 0.000000e+000 0.000000e+000 0.000000e+000 0.000000e+000 0.000000e+000 0.000000e+000 0.000000e+000 0.000000e+000 0.000000e+000 0.000000e+000 0.000000e+000 0.000000e+000 
0.000000e+000 0.000000e+000 0.000000e+000 0.000000e+000 0.000000e+000 8.810679e-001 1.189320e-001 0.000000e+000 0.000000e+000 0.000000e+000 0.000000e+000 0.000000e+000 0.000000e+000 0.000000e+000 0.000000e+000 0.000000e+000 0.000000e+000 0.000000e+000 0.000000e+000 0.000000e+000 0.000000e+000 0.000000e+000 0.000000e+000 0.000000e+000 0.000000e+000 
0.000000e+000 0.000000e+000 0.000000e+000 0.000000e+000 0.000000e+000 0.000000e+000 8.733850e-001 1.266150e-001 0.000000e+000 0.000000e+000 0.000000e+000 0.000000e+000 0.000000e+000 0.000000e+000 0.000000e+000 0.000000e+000 0.000000e+000 0.000000e+000 0.000000e+000 0.000000e+000 0.000000e+000 0.000000e+000 0.000000e+000 0.000000e+000 0.000000e+000 
0.000000e+000 0.000000e+000 0.000000e+000 0.000000e+000 0.000000e+000 0.000000e+000 0.000000e+000 8.108109e-001 1.891892e-001 0.000000e+000 0.000000e+000 0.000000e+000 0.000000e+000 0.000000e+000 0.000000e+000 0.000000e+000 0.000000e+000 0.000000e+000 0.000000e+000 0.000000e+000 0.000000e+000 0.000000e+000 0.000000e+000 0.000000e+000 0.000000e+000 
0.000000e+000 0.000000e+000 0.000000e+000 0.000000e+000 0.000000e+000 0.000000e+000 0.000000e+000 0.000000e+000 8.310345e-001 1.689655e-001 0.000000e+000 0.000000e+000 0.000000e+000 0.000000e+000 0.000000e+000 0.000000e+000 0.000000e+000 0.000000e+000 0.000000e+000 0.000000e+000 0.000000e+000 0.000000e+000 0.000000e+000 0.000000e+000 0.000000e+000 
0.000000e+000 0.000000e+000 0.000000e+000 0.000000e+000 0.000000e+000 0.000000e+000 0.000000e+000 0.000000e+000 0.000000e+000 7.831859e-001 2.168142e-001 0.000000e+000 0.000000e+000 0.000000e+000 0.000000e+000 0.000000e+000 0.000000e+000 0.000000e+000 0.000000e+000 0.000000e+000 0.000000e+000 0.000000e+000 0.000000e+000 0.000000e+000 0.000000e+000 
0.000000e+000 0.000000e+000 0.000000e+000 0.000000e+000 0.000000e+000 0.000000e+000 0.000000e+000 0.000000e+000 0.000000e+000 0.000000e+000 9.002036e-001 9.979633e-002 0.000000e+000 0.000000e+000 0.000000e+000 0.000000e+000 0.000000e+000 0.000000e+000 0.000000e+000 0.000000e+000 0.000000e+000 0.000000e+000 0.000000e+000 0.000000e+000 0.000000e+000 
0.000000e+000 0.000000e+000 0.000000e+000 0.000000e+000 0.000000e+000 0.000000e+000 0.000000e+000 0.000000e+000 0.000000e+000 0.000000e+000 0.000000e+000 6.937500e-001 3.062500e-001 0.000000e+000 0.000000e+000 0.000000e+000 0.000000e+000 0.000000e+000 0.000000e+000 0.000000e+000 0.000000e+000 0.000000e+000 0.000000e+000 0.000000e+000 0.000000e+000 
0.000000e+000 0.000000e+000 0.000000e+000 0.000000e+000 0.000000e+000 0.000000e+000 0.000000e+000 0.000000e+000 0.000000e+000 0.000000e+000 0.000000e+000 0.000000e+000 7.365592e-001 2.634408e-001 0.000000e+000 0.000000e+000 0.000000e+000 0.000000e+000 0.000000e+000 0.000000e+000 0.000000e+000 0.000000e+000 0.000000e+000 0.000000e+000 0.000000e+000 
0.000000e+000 0.000000e+000 0.000000e+000 0.000000e+000 0.000000e+000 0.000000e+000 0.000000e+000 0.000000e+000 0.000000e+000 0.000000e+000 0.000000e+000 0.000000e+000 0.000000e+000 8.496932e-001 1.503067e-001 0.000000e+000 0.000000e+000 0.000000e+000 0.000000e+000 0.000000e+000 0.000000e+000 0.000000e+000 0.000000e+000 0.000000e+000 0.000000e+000 
0.000000e+000 0.000000e+000 0.000000e+000 0.000000e+000 0.000000e+000 0.000000e+000 0.000000e+000 0.000000e+000 0.000000e+000 0.000000e+000 0.000000e+000 0.000000e+000 0.000000e+000 0.000000e+000 9.029703e-001 9.702970e-002 0.000000e+000 0.000000e+000 0.000000e+000 0.000000e+000 0.000000e+000 0.000000e+000 0.000000e+000 0.000000e+000 0.000000e+000 
0.000000e+000 0.000000e+000 0.000000e+000 0.000000e+000 0.000000e+000 0.000000e+000 0.000000e+000 0.000000e+000 0.000000e+000 0.000000e+000 0.000000e+000 0.000000e+000 0.000000e+000 0.000000e+000 0.000000e+000 8.891402e-001 1.108597e-001 0.000000e+000 0.000000e+000 0.000000e+000 0.000000e+000 0.000000e+000 0.000000e+000 0.000000e+000 0.000000e+000 
0.000000e+000 0.000000e+000 0.000000e+000 0.000000e+000 0.000000e+000 0.000000e+000 0.000000e+000 0.000000e+000 0.000000e+000 0.000000e+000 0.000000e+000 0.000000e+000 0.000000e+000 0.000000e+000 0.000000e+000 0.000000e+000 7.030303e-001 2.969697e-001 0.000000e+000 0.000000e+000 0.000000e+000 0.000000e+000 0.000000e+000 0.000000e+000 0.000000e+000 
0.000000e+000 0.000000e+000 0.000000e+000 0.000000e+000 0.000000e+000 0.000000e+000 0.000000e+000 0.000000e+000 0.000000e+000 0.000000e+000 0.000000e+000 0.000000e+000 0.000000e+000 0.000000e+000 0.000000e+000 0.000000e+000 0.000000e+000 8.024194e-001 1.975807e-001 0.000000e+000 0.000000e+000 0.000000e+000 0.000000e+000 0.000000e+000 0.000000e+000 
0.000000e+000 0.000000e+000 0.000000e+000 0.000000e+000 0.000000e+000 0.000000e+000 0.000000e+000 0.000000e+000 0.000000e+000 0.000000e+000 0.000000e+000 0.000000e+000 0.000000e+000 0.000000e+000 0.000000e+000 0.000000e+000 0.000000e+000 0.000000e+000 8.893906e-001 1.106095e-001 0.000000e+000 0.000000e+000 0.000000e+000 0.000000e+000 0.000000e+000 
0.000000e+000 0.000000e+000 0.000000e+000 0.000000e+000 0.000000e+000 0.000000e+000 0.000000e+000 0.000000e+000 0.000000e+000 0.000000e+000 0.000000e+000 0.000000e+000 0.000000e+000 0.000000e+000 0.000000e+000 0.000000e+000 0.000000e+000 0.000000e+000 0.000000e+000 8.510638e-001 1.489362e-001 0.000000e+000 0.000000e+000 0.000000e+000 0.000000e+000 
0.000000e+000 0.000000e+000 0.000000e+000 0.000000e+000 0.000000e+000 0.000000e+000 0.000000e+000 0.000000e+000 0.000000e+000 0.000000e+000 0.000000e+000 0.000000e+000 0.000000e+000 0.000000e+000 0.000000e+000 0.000000e+000 0.000000e+000 0.000000e+000 0.000000e+000 0.000000e+000 8.150944e-001 1.849057e-001 0.000000e+000 0.000000e+000 0.000000e+000 
0.000000e+000 0.000000e+000 0.000000e+000 0.000000e+000 0.000000e+000 0.000000e+000 0.000000e+000 0.000000e+000 0.000000e+000 0.000000e+000 0.000000e+000 0.000000e+000 0.000000e+000 0.000000e+000 0.000000e+000 0.000000e+000 0.000000e+000 0.000000e+000 0.000000e+000 0.000000e+000 0.000000e+000 8.918323e-001 1.081678e-001 0.000000e+000 0.000000e+000 
0.000000e+000 0.000000e+000 0.000000e+000 0.000000e+000 0.000000e+000 0.000000e+000 0.000000e+000 0.000000e+000 0.000000e+000 0.000000e+000 0.000000e+000 0.000000e+000 0.000000e+000 0.000000e+000 0.000000e+000 0.000000e+000 0.000000e+000 0.000000e+000 0.000000e+000 0.000000e+000 0.000000e+000 0.000000e+000 7.048193e-001 2.951807e-001 0.000000e+000 
0.000000e+000 0.000000e+000 0.000000e+000 0.000000e+000 0.000000e+000 0.000000e+000 0.000000e+000 0.000000e+000 0.000000e+000 0.000000e+000 0.000000e+000 0.000000e+000 0.000000e+000 0.000000e+000 0.000000e+000 0.000000e+000 0.000000e+000 0.000000e+000 0.000000e+000 0.000000e+000 0.000000e+000 0.000000e+000 0.000000e+000 8.891402e-001 1.108597e-001 
0.000000e+000 0.000000e+000 0.000000e+000 0.000000e+000 0.000000e+000 0.000000e+000 0.000000e+000 0.000000e+000 0.000000e+000 0.000000e+000 0.000000e+000 0.000000e+000 0.000000e+000 0.000000e+000 0.000000e+000 0.000000e+000 0.000000e+000 0.000000e+000 0.000000e+000 0.000000e+000 0.000000e+000 0.000000e+000 0.000000e+000 0.000000e+000 0.000000e+000 
