<HMMNAME> 3
<HMMSTATES> 25
<STATE> 1
<MEAN> 36
-1.940110e+001 1.918769e+000 5.807693e+000 -1.940633e+000 1.328325e+000 6.128279e-001 5.727854e+000 -3.399659e+000 2.057780e+000 -3.163045e+000 3.500810e+000 1.523486e+000 -8.561695e-001 -2.614916e-002 3.516996e-001 -5.796972e-002 4.732989e-002 -9.050050e-002 3.523539e-001 -2.129801e-001 -1.523659e-001 -1.090360e-002 1.373705e-001 -5.428353e-002 -1.182236e-002 3.315140e-002 -2.614306e-002 5.227622e-003 -3.124776e-002 -2.639115e-002 1.606074e-002 -2.628350e-002 -2.133100e-002 3.745174e-002 8.569783e-003 -1.300895e-002 
<VARIANCE> 36
3.867122e+001 6.462729e+001 5.720767e+001 4.692588e+001 3.419618e+001 6.425781e+001 7.764979e+001 5.948232e+001 4.775396e+001 9.721931e+001 3.326878e+001 2.441905e+001 9.188354e-001 2.170398e+000 1.303206e+000 1.589206e+000 2.226298e+000 2.938199e+000 2.886936e+000 3.249514e+000 2.723215e+000 2.558275e+000 2.307364e+000 1.737815e+000 1.162932e-001 3.945036e-001 2.584458e-001 2.896433e-001 4.409025e-001 4.349956e-001 4.957647e-001 5.237758e-001 5.308384e-001 4.950034e-001 4.417660e-001 3.651231e-001 
<GCONST> 1.101889e+002
<STATE> 2
<MEAN> 36
-2.987393e+001 -1.144379e+000 7.101474e+000 -6.985072e+000 -5.064846e+000 -6.518088e+000 3.669411e+000 -7.314208e+000 5.036362e+000 -8.340364e+000 4.047922e+000 4.881513e-001 -2.947759e-001 -2.744773e-001 4.053378e-001 1.029820e-001 1.886901e-002 -5.186192e-002 5.457215e-001 -2.409263e-001 4.224197e-001 8.572354e-002 -9.589657e-002 -3.403782e-002 6.122580e-002 -4.048334e-003 1.947654e-002 -2.046022e-002 2.104881e-003 1.588205e-002 -2.115786e-002 3.688754e-002 -3.525825e-002 2.575686e-002 -1.158896e-002 1.718519e-002 
<VARIANCE> 36
1.331061e+001 3.748042e+001 3.424825e+001 3.968751e+001 5.122485e+001 5.785738e+001 4.304458e+001 5.852542e+001 9.918186e+001 4.202510e+001 3.225280e+001 3.003371e+001 5.512671e-001 8.870667e-001 1.089624e+000 1.666199e+000 2.372119e+000 2.998978e+000 2.783530e+000 3.113362e+000 3.515752e+000 2.134672e+000 2.969848e+000 2.472214e+000 9.286195e-002 1.524503e-001 2.267140e-001 2.807442e-001 3.897630e-001 5.974222e-001 4.815129e-001 6.268631e-001 5.823234e-001 4.407810e-001 6.165015e-001 4.962834e-001 
<GCONST> 1.064280e+002
<STATE> 3
<MEAN> 36
-2.972494e+001 7.465718e+000 7.880659e+000 -6.455526e-001 2.271167e+000 3.289434e-001 7.400980e+000 3.493429e+000 -1.789730e+000 1.791817e+000 5.198086e+000 3.201972e+000 -3.471683e-001 2.511486e-002 4.318074e-001 -3.900912e-001 -7.061954e-002 3.417108e-001 -4.869756e-001 4.032487e-001 -9.957378e-003 -2.825287e-001 5.602521e-002 6.224339e-003 3.479897e-002 -3.764510e-002 2.031567e-002 -1.833820e-002 -1.483124e-002 6.555947e-002 -7.432919e-002 -4.510609e-002 1.221424e-001 -4.938695e-002 -2.003234e-002 2.082251e-003 
<VARIANCE> 36
6.193805e+000 2.363322e+001 1.384358e+001 1.561016e+001 2.168551e+001 2.734695e+001 3.039467e+001 4.016606e+001 3.059721e+001 3.391551e+001 2.376093e+001 2.124047e+001 2.697305e-001 4.085206e-001 7.004733e-001 1.074601e+000 1.577025e+000 2.190830e+000 1.786124e+000 1.980928e+000 2.522699e+000 2.131472e+000 1.982111e+000 2.066758e+000 5.504083e-002 9.628044e-002 1.447144e-001 2.012788e-001 3.057145e-001 4.108003e-001 3.378291e-001 3.891577e-001 4.534994e-001 3.382584e-001 3.617913e-001 4.418013e-001 
<GCONST> 8.970469e+001
<STATE> 4
<MEAN> 36
-3.153676e+001 6.577076e+000 1.341930e+001 -4.963652e+000 -9.085604e-001 7.026733e+000 -4.271210e-001 5.479325e+000 2.883341e+000 -4.068542e+000 5.061349e+000 5.005399e+000 8.040227e-002 -1.187501e-001 1.488034e-001 -3.397892e-002 -1.034210e-001 1.067128e-002 -6.265143e-002 -9.844431e-003 1.329218e-001 -1.321018e-001 -1.104747e-001 7.552922e-002 3.370482e-002 -2.027004e-002 -1.529284e-002 3.285478e-002 -4.841592e-003 -7.061133e-002 3.613319e-003 9.004997e-003 -2.328283e-002 1.453060e-002 -1.476057e-002 1.827124e-002 
<VARIANCE> 36
4.045108e+000 1.254757e+001 1.076662e+001 1.533483e+001 1.413413e+001 2.401568e+001 2.184084e+001 3.028769e+001 2.069663e+001 2.108358e+001 2.131188e+001 2.032996e+001 2.885603e-001 3.812063e-001 7.281074e-001 9.936622e-001 1.000755e+000 1.487881e+000 1.417733e+000 1.706102e+000 1.584309e+000 1.842276e+000 1.682046e+000 1.880646e+000 5.043206e-002 7.802099e-002 1.405705e-001 2.080866e-001 2.041561e-001 2.937304e-001 2.683299e-001 3.450976e-001 3.122065e-001 3.846133e-001 3.546068e-001 4.120077e-001 
<GCONST> 8.233582e+001
<STATE> 5
<MEAN> 36
-3.172806e+001 -7.906394e+000 1.556775e+001 -1.735106e+000 -1.671863e+000 -7.740170e+000 6.730936e+000 -6.952574e+000 7.869446e+000 -3.094857e+000 -2.623342e+000 3.562052e-001 1.536400e-001 -1.491540e-001 6.317234e-002 8.943399e-002 -1.159109e-002 -5.583874e-002 -1.266292e-001 -5.807864e-002 1.608283e-001 2.030813e-001 -1.404235e-001 -1.582767e-001 6.178302e-002 1.846746e-002 -2.379526e-002 -1.282362e-002 -1.332977e-002 3.859305e-003 -3.967216e-002 5.505345e-003 -4.227302e-003 -8.201092e-003 5.748878e-002 3.304507e-003 
<VARIANCE> 36
1.019556e+001 1.952596e+001 1.414526e+001 1.451253e+001 1.548414e+001 2.982503e+001 2.632860e+001 3.213181e+001 2.391857e+001 5.057341e+001 3.709786e+001 2.349924e+001 6.707819e-001 5.347481e-001 6.742155e-001 1.024934e+000 1.081209e+000 1.523026e+000 1.671543e+000 1.568637e+000 1.918099e+000 1.760310e+000 2.044557e+000 1.923954e+000 1.161828e-001 9.500441e-002 1.428883e-001 2.027503e-001 2.201777e-001 2.855255e-001 3.356205e-001 3.191867e-001 4.014646e-001 3.327104e-001 4.422800e-001 3.906898e-001 
<GCONST> 8.936304e+001
<STATE> 6
<MEAN> 36
-2.705400e+001 -1.958452e-001 1.530124e+001 -6.247796e+000 -5.243172e+000 1.774990e+000 2.401876e+000 -3.723324e+000 8.905227e+000 -4.428512e+000 2.572880e+000 3.862967e+000 8.747009e-001 -3.552921e-001 -1.033769e-001 1.831916e-001 -4.308559e-001 -6.399806e-001 -2.133227e-001 -1.098788e-001 2.573107e-001 2.479691e-001 3.128264e-001 2.302674e-001 1.762959e-001 1.036093e-001 -2.624469e-002 9.153062e-002 -1.230637e-002 -1.300236e-001 -1.888818e-002 -1.964692e-001 -9.254814e-002 7.682335e-002 -3.192862e-002 -1.571291e-001 
<VARIANCE> 36
1.470453e+001 2.357818e+001 1.404021e+001 1.833205e+001 2.183835e+001 6.049928e+001 7.855226e+001 1.708564e+002 5.515851e+001 3.300453e+001 2.126410e+001 4.736026e+001 6.005562e-001 4.231343e-001 8.841656e-001 1.062121e+000 1.254583e+000 2.352847e+000 2.156623e+000 1.993782e+000 2.314346e+000 1.968927e+000 2.038137e+000 1.934843e+000 1.239707e-001 1.047967e-001 1.649676e-001 1.635244e-001 2.216607e-001 4.708663e-001 4.406771e-001 3.216242e-001 4.498772e-001 3.849856e-001 3.739926e-001 4.493752e-001 
<GCONST> 9.696547e+001
<STATE> 7
<MEAN> 36
-2.424014e+001 -5.015789e+000 1.524153e+001 -1.327634e+000 -3.026528e+000 -6.160641e+000 3.433769e+000 -8.103411e+000 9.337355e+000 -1.944052e+000 -4.021779e-001 -9.566708e-002 2.398079e+000 1.115494e+000 3.200394e-001 7.242491e-001 1.545983e-001 -7.786093e-001 -8.418343e-001 -4.938515e-001 -2.444061e-001 -4.236793e-002 -3.005334e-002 -2.780601e-001 6.068191e-001 1.394730e-001 -7.212312e-003 2.058278e-002 -2.461703e-001 -4.162168e-001 -2.715695e-001 -8.616841e-003 1.626064e-002 2.307323e-002 -1.578235e-001 -5.656302e-003 
<VARIANCE> 36
1.559318e+001 3.240683e+001 1.502748e+001 2.518390e+001 3.473568e+001 4.357963e+001 3.238083e+001 1.219796e+002 6.335533e+001 3.080471e+001 6.217353e+001 4.101489e+001 1.401582e+000 1.250113e+000 1.036406e+000 1.645709e+000 2.649920e+000 3.170792e+000 2.710539e+000 2.542195e+000 2.677582e+000 1.920866e+000 2.332351e+000 2.451179e+000 1.311430e-001 2.212530e-001 1.802459e-001 3.910365e-001 5.649769e-001 5.437546e-001 5.963030e-001 6.397791e-001 5.654477e-001 3.991880e-001 4.935588e-001 3.814032e-001 
<GCONST> 1.063889e+002
<STATE> 8
<MEAN> 36
-1.701487e+001 1.669818e+000 1.653080e+001 -5.459152e-001 -4.186046e+000 -6.076965e+000 -1.144421e+000 -5.160131e+000 6.674844e+000 -3.447845e+000 1.598995e+000 5.951068e-001 3.580089e+000 2.999515e-001 -3.049096e-001 1.390890e-001 -1.786762e+000 -2.770073e+000 -1.993327e+000 -4.963345e-001 9.191390e-002 5.056441e-001 -5.194036e-001 -3.319061e-001 -3.613061e-003 -8.603264e-001 -3.306387e-001 -3.478053e-001 -6.288827e-001 -5.097113e-001 -2.770527e-001 7.568398e-002 2.931457e-001 3.408980e-001 -7.818500e-002 4.486843e-001 
<VARIANCE> 36
1.392953e+001 1.800418e+001 1.833591e+001 3.191961e+001 2.661595e+001 6.260424e+001 4.443140e+001 1.250590e+002 5.169951e+001 3.232017e+001 7.233724e+001 4.445990e+001 1.263907e+000 3.034853e+000 1.113314e+000 1.210793e+000 1.509153e+000 2.675038e+000 2.043054e+000 2.705919e+000 3.046735e+000 2.311390e+000 2.493666e+000 2.126731e+000 1.067353e-001 1.023486e-001 1.770137e-001 3.875628e-001 2.824852e-001 8.387675e-001 4.548323e-001 4.788939e-001 4.125945e-001 4.762486e-001 6.805441e-001 4.157495e-001 
<GCONST> 1.049172e+002
<STATE> 9
<MEAN> 36
-1.061814e+001 8.354515e-001 1.500363e+001 -1.599457e+000 -8.204328e+000 -1.386518e+001 -4.214918e+000 -7.368602e+000 8.032632e+000 -1.472414e+000 6.527407e-001 9.382195e-002 2.937735e+000 -1.558733e+000 -9.205857e-001 -2.650072e-001 -2.212937e+000 -3.011657e+000 -2.034007e+000 -4.227945e-001 6.995775e-001 8.894575e-001 -4.074343e-001 6.974685e-001 -7.072103e-001 -7.565847e-001 -1.506089e-001 -1.542457e-001 1.265185e-001 5.447373e-001 3.313662e-001 1.183105e-001 1.002029e-001 -8.691076e-002 1.278856e-001 3.899419e-001 
<VARIANCE> 36
1.701532e+001 2.039785e+001 2.468725e+001 1.590921e+001 2.465091e+001 5.751744e+001 2.554783e+001 1.116462e+002 5.948225e+001 3.248411e+001 4.271013e+001 3.300102e+001 7.307541e-001 1.844672e+000 7.453174e-001 2.016063e+000 1.879848e+000 3.100919e+000 1.841985e+000 2.582514e+000 3.366619e+000 1.794084e+000 2.931927e+000 1.496866e+000 9.122235e-002 1.430542e-001 1.457146e-001 2.369860e-001 2.208938e-001 3.948654e-001 2.662367e-001 2.788062e-001 3.338399e-001 4.692902e-001 3.395367e-001 4.716114e-001 
<GCONST> 9.889212e+001
<STATE> 10
<MEAN> 36
-5.511180e+000 -4.088608e+000 1.343368e+001 -1.690212e+000 -9.412075e+000 -1.799680e+001 -4.891572e+000 -1.206096e+001 1.509439e+001 -6.483934e-001 3.619667e+000 -2.641392e-001 1.081784e+000 -1.487726e+000 -6.229776e-001 -2.016087e-001 -5.236488e-001 -3.504763e-001 -5.003369e-001 6.907899e-002 3.682722e-001 1.353275e-001 -7.038594e-002 9.132373e-001 -4.506107e-001 2.890812e-002 1.268089e-001 -1.315812e-001 3.116517e-001 5.947495e-001 3.482795e-001 1.241062e-001 -1.715864e-001 -1.623034e-001 8.878708e-002 3.484548e-002 
<VARIANCE> 36
2.229922e+001 1.359358e+001 1.870393e+001 2.039376e+001 2.731749e+001 3.730908e+001 2.615394e+001 1.009416e+002 1.039509e+002 2.618068e+001 5.782176e+001 3.112736e+001 5.331819e-001 1.627791e+000 6.168013e-001 1.291189e+000 2.172881e+000 3.050647e+000 1.950693e+000 1.293976e+000 1.754199e+000 1.841909e+000 2.004259e+000 1.712297e+000 1.591316e-001 9.033631e-002 9.402487e-002 1.344444e-001 2.929889e-001 4.965860e-001 2.903042e-001 2.624902e-001 3.101989e-001 2.320112e-001 2.326561e-001 3.220080e-001 
<GCONST> 9.454741e+001
<STATE> 11
<MEAN> 36
-9.436857e+000 -7.872156e+000 1.131244e+001 -4.576576e+000 -1.279034e+001 -1.347531e+001 -8.167426e+000 -1.597576e+000 6.910698e+000 -3.799511e-001 -1.324492e-001 8.499331e+000 5.793233e-001 -1.388159e+000 -1.112106e-001 -5.827054e-001 -2.545288e-001 -5.014158e-002 -2.996058e-001 -8.807044e-003 -2.619146e-001 8.637836e-002 1.093908e-002 6.809072e-001 -3.446491e-001 4.139697e-001 2.198301e-001 5.007545e-002 5.161061e-001 4.502659e-001 2.314121e-001 2.147774e-001 -1.795858e-001 -2.147902e-001 1.190377e-001 -4.596051e-001 
<VARIANCE> 36
1.406548e+001 1.334421e+001 1.033330e+001 2.681456e+001 2.557102e+001 2.251754e+001 1.910316e+001 7.518711e+001 5.179225e+001 2.249572e+001 2.703490e+001 4.144106e+001 2.064597e-001 1.053523e+000 3.837022e-001 1.074735e+000 1.274716e+000 1.645028e+000 8.585035e-001 1.255169e+000 1.596060e+000 1.625195e+000 9.990084e-001 2.171931e+000 5.000000e-002 1.588593e-001 6.685155e-002 2.347549e-001 3.000352e-001 4.910202e-001 1.817110e-001 2.694377e-001 2.500689e-001 3.465569e-001 2.602121e-001 2.125299e-001 
<GCONST> 8.559938e+001
<STATE> 12
<MEAN> 36
-2.090617e+000 -8.144059e+000 1.430051e+001 -1.660919e+000 -1.519186e+001 -1.448984e+001 -7.529033e+000 -4.701047e+000 1.329586e+001 -3.164075e+000 -2.822997e+000 4.365190e+000 3.736787e-001 -4.478954e-001 -7.384619e-002 7.692088e-002 -2.626681e-001 2.608361e-001 1.893072e-002 5.035648e-001 -1.926890e-001 -3.436931e-001 1.445387e-001 -7.026772e-002 -7.150840e-002 1.040256e-001 9.723694e-003 1.886736e-002 5.265930e-002 -1.160991e-002 5.955708e-002 7.656106e-002 -2.411839e-002 1.860970e-002 -4.402937e-004 -9.638101e-002 
<VARIANCE> 36
3.928984e+001 2.214453e+001 1.955341e+001 2.844760e+001 5.301595e+001 3.403273e+001 3.308277e+001 7.066794e+001 9.144951e+001 2.344390e+001 3.856084e+001 4.054290e+001 1.582630e-001 3.512718e-001 4.620959e-001 6.328999e-001 9.122526e-001 1.053836e+000 1.309192e+000 1.212434e+000 1.225463e+000 1.301122e+000 1.069744e+000 1.008952e+000 5.000000e-002 6.216997e-002 7.644195e-002 1.339690e-001 1.362438e-001 1.971096e-001 2.242731e-001 2.571331e-001 1.399488e-001 1.877857e-001 1.727728e-001 1.782585e-001 
<GCONST> 8.243509e+001
<STATE> 13
<MEAN> 36
6.167846e-002 -1.012929e+001 1.400404e+001 -2.303509e+000 -1.049494e+001 -1.289185e+001 -1.224429e+001 -6.673308e+000 1.497322e+001 -6.957964e+000 1.031075e+001 -3.354304e+000 1.935308e-001 -2.186139e-001 9.925980e-002 -1.145031e-001 -1.910648e-001 1.580740e-001 -7.406503e-002 5.230923e-001 -8.729136e-002 -2.617069e-001 7.717618e-002 -1.274986e-001 -1.623371e-002 3.602346e-002 -4.131507e-003 -1.067390e-002 -4.819328e-003 5.676739e-003 5.913248e-002 2.393085e-002 -1.909324e-002 1.803122e-002 -4.982013e-002 9.762062e-003 
<VARIANCE> 36
1.171116e+001 8.601401e+000 1.142103e+001 1.344842e+001 1.498744e+001 1.729985e+001 2.329177e+001 4.279733e+001 4.403649e+001 3.621894e+001 3.640537e+001 3.329826e+001 1.029338e-001 2.315661e-001 3.271665e-001 5.487857e-001 5.858955e-001 6.593780e-001 1.049139e+000 1.172926e+000 1.393303e+000 1.265729e+000 1.011445e+000 8.645911e-001 5.000000e-002 5.000000e-002 5.000000e-002 7.038921e-002 8.292835e-002 1.141793e-001 1.531391e-001 1.836291e-001 2.175610e-001 1.790129e-001 1.666744e-001 1.573698e-001 
<GCONST> 7.022503e+001
<STATE> 14
<MEAN> 36
3.776936e+000 -1.150109e+001 1.407948e+001 -3.828609e+000 -1.348235e+001 -2.694990e+000 -7.307476e+000 3.937851e+000 9.495716e+000 -1.008736e+001 5.781210e+000 -2.067310e+000 -4.833086e-002 1.223301e-001 -1.371196e-001 -7.692957e-002 2.866055e-001 3.458882e-001 3.503569e-001 2.280591e-001 -3.491350e-001 9.285563e-002 -2.452781e-001 1.196784e-001 -3.172729e-002 1.733896e-002 1.051592e-002 2.220851e-002 2.339459e-002 -4.228896e-002 -6.899612e-005 -6.503516e-002 9.292639e-003 4.834208e-002 -3.998447e-003 1.954629e-002 
<VARIANCE> 36
2.469883e+001 2.161242e+001 1.141851e+001 2.059128e+001 3.200876e+001 5.200039e+001 2.579976e+001 4.132651e+001 4.771117e+001 3.476817e+001 3.894550e+001 3.707484e+001 1.808297e-001 3.397610e-001 5.153574e-001 9.010389e-001 9.698841e-001 1.378512e+000 1.191442e+000 1.290072e+000 1.954220e+000 1.719913e+000 1.281379e+000 1.331934e+000 5.000000e-002 5.000000e-002 7.945150e-002 1.415431e-001 1.407936e-001 1.964350e-001 1.903334e-001 2.112191e-001 3.300483e-001 3.091337e-001 2.187406e-001 2.421654e-001 
<GCONST> 8.339065e+001
<STATE> 15
<MEAN> 36
-1.029611e+001 -1.444502e+001 1.125709e+001 -1.257595e+001 -8.874953e+000 -1.455654e+001 1.201274e+000 5.270852e+000 -1.356352e+000 2.123216e+000 -3.534524e+000 8.502699e+000 2.976610e-002 8.528394e-002 -5.599737e-002 -7.690238e-002 1.231247e-001 -2.760563e-002 4.736143e-001 -6.873930e-002 -5.833356e-002 1.388174e-001 -1.082200e-001 -1.933320e-002 1.065836e-002 4.571611e-002 -1.045068e-002 4.387001e-002 -2.445908e-002 2.869070e-002 -1.508672e-002 -4.367418e-002 2.772405e-002 -1.757544e-002 6.806074e-003 -7.680725e-006 
<VARIANCE> 36
9.741313e+000 1.254220e+001 7.720569e+000 2.302911e+001 1.447713e+001 3.852541e+001 4.508277e+001 2.545909e+001 2.341849e+001 2.182235e+001 2.943360e+001 3.507482e+001 9.388915e-002 2.582554e-001 2.587719e-001 4.736672e-001 5.305488e-001 6.721896e-001 6.393791e-001 6.596220e-001 7.394076e-001 7.079795e-001 5.995484e-001 6.696786e-001 5.000000e-002 5.000000e-002 5.000000e-002 6.799054e-002 8.083171e-002 9.559706e-002 1.033651e-001 1.095076e-001 1.208228e-001 1.122391e-001 1.011787e-001 1.259109e-001 
<GCONST> 6.373910e+001
<STATE> 16
<MEAN> 36
-1.628764e+000 -6.109708e+000 9.996182e+000 -3.446102e+000 -6.277776e+000 -4.202110e+000 -1.176489e+000 7.148861e-001 5.109881e+000 -7.333965e+000 1.497913e+000 -6.594771e-001 -1.966073e-001 2.496965e-001 -1.963937e-001 6.131303e-002 -8.165217e-002 -8.836567e-002 -7.329980e-002 -1.166567e-001 -1.645871e-001 -6.734469e-002 -1.912581e-001 5.807581e-002 -1.048615e-002 -5.369959e-003 -9.807002e-003 1.100738e-002 -2.247236e-002 -6.044393e-002 -3.879426e-002 1.195979e-002 -4.260769e-002 -1.491938e-002 1.717955e-002 1.429693e-002 
<VARIANCE> 36
1.658911e+001 1.619721e+001 1.311694e+001 3.153272e+001 4.256114e+001 4.625525e+001 4.397511e+001 2.910739e+001 3.343622e+001 3.583714e+001 3.698616e+001 3.698281e+001 2.450821e-001 4.877601e-001 7.005033e-001 5.815988e-001 1.269034e+000 1.949662e+000 1.851128e+000 1.688608e+000 1.988780e+000 1.777801e+000 1.864112e+000 1.428530e+000 5.000000e-002 7.074069e-002 1.140458e-001 1.103136e-001 2.065650e-001 3.610668e-001 3.226975e-001 2.469183e-001 3.638378e-001 3.282687e-001 3.309006e-001 2.183226e-001 
<GCONST> 8.819904e+001
<STATE> 17
<MEAN> 36
-1.585767e+000 -9.939751e+000 1.141509e+001 3.860146e+000 -1.269062e+001 -1.626156e+001 5.678391e-001 -7.758700e+000 1.096185e+000 -1.954045e+000 -2.496320e+000 2.741446e+000 8.969584e-002 6.716866e-002 -4.525414e-002 1.184972e-001 -2.164445e-001 -3.706889e-002 -8.207749e-002 1.920245e-002 -2.013412e-001 1.315516e-001 4.687598e-002 1.610003e-001 -1.576079e-002 1.964568e-002 -2.719118e-003 -1.078991e-002 4.521741e-002 3.014144e-002 -9.103494e-003 3.764026e-002 -6.535690e-003 7.749795e-003 3.339179e-002 -9.735478e-003 
<VARIANCE> 36
1.091521e+001 1.083084e+001 1.229598e+001 4.441472e+001 2.006195e+001 3.971709e+001 2.832098e+001 4.158957e+001 4.524838e+001 5.769208e+001 1.825568e+001 4.171016e+001 2.142662e-001 5.716976e-001 6.221895e-001 8.377327e-001 1.249699e+000 1.546198e+000 1.434210e+000 1.286633e+000 2.137224e+000 1.994598e+000 1.459913e+000 1.337834e+000 5.000000e-002 6.401908e-002 8.811050e-002 1.248678e-001 2.483762e-001 2.844941e-001 2.720209e-001 2.850207e-001 3.456293e-001 3.846053e-001 2.809763e-001 2.413123e-001 
<GCONST> 8.596308e+001
<STATE> 18
<MEAN> 36
-8.332196e+000 -5.280076e+000 8.013642e+000 -7.960719e+000 -8.294862e+000 -1.160818e+001 7.280088e+000 3.147735e+000 -8.643984e-002 1.111051e+000 -4.763827e+000 8.286145e+000 -6.339377e-002 5.717964e-001 6.510619e-002 5.789111e-001 1.716654e-001 5.114794e-001 5.319140e-002 -8.443335e-002 -2.129338e-001 -2.835584e-001 4.200117e-002 -1.911078e-001 -1.021071e-002 -4.479238e-002 5.833897e-002 9.619734e-002 9.049023e-002 9.165447e-002 -9.504510e-002 -3.406398e-002 -1.846682e-002 -8.998907e-002 -5.306009e-003 -2.744238e-002 
<VARIANCE> 36
1.698509e+001 1.561838e+001 1.957464e+001 3.070561e+001 3.716125e+001 4.632782e+001 6.733157e+001 3.019186e+001 2.633038e+001 3.723227e+001 3.132328e+001 2.530937e+001 1.429359e-001 5.115690e-001 9.712613e-001 1.403968e+000 1.607774e+000 2.198245e+000 2.280456e+000 2.033488e+000 1.688650e+000 1.668996e+000 1.661017e+000 1.550916e+000 5.000000e-002 8.298544e-002 1.975753e-001 2.275002e-001 2.858127e-001 3.699282e-001 4.152341e-001 4.189194e-001 3.095724e-001 2.797112e-001 3.077623e-001 3.116303e-001 
<GCONST> 9.187441e+001
<STATE> 19
<MEAN> 36
-1.396549e+000 -8.502913e+000 1.133706e+001 7.325980e+000 -1.176574e+001 -1.297807e+001 -1.827453e+000 -7.571976e+000 -3.466226e+000 -2.474040e+000 -2.819036e+000 1.878049e+000 -8.656258e-002 9.306789e-002 -2.500926e-002 1.719012e-001 3.207805e-001 2.211704e-001 -1.288819e-001 -1.098423e-001 -9.422003e-002 -2.142500e-001 -7.429259e-002 -1.518479e-001 -1.959627e-002 -9.443954e-003 -1.440653e-002 -3.421433e-002 -1.015764e-003 7.088953e-003 1.824662e-003 -7.104878e-003 4.693927e-002 1.504733e-002 -1.566334e-002 6.429583e-003 
<VARIANCE> 36
1.074188e+001 1.523152e+001 1.721036e+001 3.169459e+001 3.503019e+001 4.410272e+001 3.847565e+001 3.976341e+001 5.211198e+001 4.292144e+001 2.692869e+001 2.954376e+001 3.279824e-001 7.023715e-001 9.927736e-001 1.688101e+000 2.138560e+000 2.644544e+000 2.318014e+000 2.416738e+000 2.556341e+000 2.406586e+000 2.537164e+000 1.996186e+000 6.723782e-002 1.450949e-001 1.950353e-001 3.444900e-001 3.979508e-001 5.192664e-001 4.417151e-001 4.723606e-001 5.457891e-001 4.618030e-001 5.442540e-001 4.188909e-001 
<GCONST> 9.924273e+001
<STATE> 20
<MEAN> 36
-6.488883e+000 -3.084850e+000 9.180058e+000 9.673819e-003 -7.284857e+000 -8.330838e+000 -3.254485e+000 -4.566869e+000 -7.179253e-001 -7.372966e+000 1.539345e+000 -1.715915e-001 -2.760401e-001 1.010927e-001 -3.338492e-002 1.339962e-002 1.443310e-001 3.198638e-001 -9.448111e-003 3.534560e-002 2.372050e-001 1.827768e-001 1.559938e-001 -1.276293e-001 -1.409889e-002 -6.158172e-002 -6.529927e-002 -3.639181e-002 -6.503433e-002 -2.499370e-002 1.364071e-001 1.177678e-001 9.581320e-002 1.055683e-001 9.976100e-003 3.298388e-002 
<VARIANCE> 36
2.076441e+001 2.286297e+001 1.535117e+001 4.020640e+001 6.064051e+001 7.582944e+001 4.348976e+001 6.665830e+001 3.787172e+001 3.473210e+001 4.596984e+001 3.740852e+001 2.797771e-001 6.899939e-001 1.107670e+000 1.551630e+000 1.869359e+000 2.287247e+000 2.618967e+000 1.967802e+000 2.817565e+000 2.865237e+000 2.118091e+000 1.891887e+000 5.000000e-002 1.324386e-001 1.880214e-001 2.749860e-001 3.977707e-001 4.287355e-001 4.135470e-001 3.862766e-001 5.402005e-001 5.977555e-001 4.240302e-001 3.006714e-001 
<GCONST> 1.004822e+002
<STATE> 21
<MEAN> 36
-1.969191e+000 -6.885903e+000 9.904081e+000 -1.698674e+000 -1.583294e+001 -7.548357e-001 -6.712911e+000 2.595540e+000 9.766447e+000 -5.639970e+000 -6.275589e+000 3.591595e+000 -3.249252e-001 1.875566e-001 -3.706864e-001 1.081053e-002 -1.189830e-001 1.792162e-001 4.078399e-001 1.943767e-001 1.675362e-001 1.725159e-001 -1.094552e-001 1.541690e-001 4.305269e-003 3.795824e-002 -4.606548e-002 -1.850884e-002 1.250333e-001 -2.073372e-002 2.519165e-002 -2.167288e-003 -1.359697e-001 7.149201e-002 9.898838e-002 -2.168217e-002 
<VARIANCE> 36
3.691158e+001 5.087474e+001 5.403861e+001 5.144496e+001 1.062621e+002 6.324020e+001 7.654824e+001 6.494496e+001 1.048836e+002 2.768276e+001 6.502593e+001 3.969313e+001 7.334000e-001 8.084582e-001 1.456902e+000 1.633950e+000 2.270177e+000 2.596496e+000 2.157389e+000 2.750977e+000 2.477948e+000 2.257162e+000 2.947545e+000 1.828340e+000 1.241356e-001 1.389988e-001 2.641786e-001 2.876999e-001 3.714038e-001 5.235396e-001 4.430856e-001 4.927824e-001 4.151512e-001 3.641164e-001 6.275726e-001 3.395874e-001 
<GCONST> 1.088598e+002
<STATE> 22
<MEAN> 36
-9.610146e+000 8.091982e-001 6.317540e+000 2.624148e+000 -3.295641e+000 -7.404433e-001 4.277285e+000 3.604217e+000 1.680381e+000 6.915556e-002 -1.389827e+000 4.949193e+000 -8.315082e-002 2.612271e-001 -4.529529e-001 1.955913e-001 5.058040e-001 2.159626e-001 1.147315e-002 1.377943e-001 -6.227836e-002 1.969033e-001 3.833532e-001 -2.332801e-001 1.614625e-002 1.014994e-002 1.526800e-002 -5.281527e-002 -2.379738e-002 -5.141213e-002 -5.838530e-002 -6.937697e-002 -2.804335e-002 -4.414658e-002 -2.121401e-002 -2.284713e-002 
<VARIANCE> 36
1.056677e+001 1.956705e+001 2.253818e+001 2.161658e+001 3.119197e+001 3.541728e+001 3.399777e+001 2.975248e+001 2.906861e+001 2.782760e+001 3.049075e+001 2.986485e+001 2.182473e-001 4.750296e-001 9.147617e-001 1.324171e+000 1.812908e+000 2.596074e+000 2.436948e+000 2.545188e+000 2.897811e+000 2.497615e+000 2.414811e+000 1.745427e+000 5.000000e-002 9.661115e-002 1.742049e-001 2.387228e-001 3.503496e-001 4.884722e-001 4.844039e-001 4.416942e-001 5.853148e-001 4.811350e-001 4.738574e-001 3.840184e-001 
<GCONST> 9.504601e+001
<STATE> 23
<MEAN> 36
-1.183195e+001 -2.688063e+000 6.411936e+000 -2.052495e+000 -9.136036e-001 -1.408954e+000 1.317271e+000 -5.108975e+000 3.593414e+000 -4.773211e+000 4.442856e+000 -1.352170e+000 -3.034370e-001 1.171797e-001 -3.271814e-001 -1.689010e-002 2.662549e-001 1.037022e-001 -1.437868e-001 -3.767292e-002 1.018889e-003 -1.352091e-003 -5.440334e-002 8.589643e-002 1.213091e-002 2.120351e-002 2.277360e-002 7.751560e-003 -5.717093e-002 -2.116818e-002 -2.484901e-002 1.899695e-002 6.154096e-002 8.093738e-003 -4.682849e-002 3.133290e-002 
<VARIANCE> 36
4.279500e+001 4.221181e+001 7.329946e+001 4.737036e+001 5.880602e+001 8.811106e+001 8.050918e+001 6.143730e+001 6.981797e+001 6.663448e+001 4.728631e+001 3.425958e+001 4.778656e-001 7.252463e-001 1.819216e+000 2.277646e+000 1.723869e+000 2.266172e+000 2.320794e+000 2.738400e+000 2.651072e+000 2.799200e+000 2.891753e+000 2.250490e+000 5.856664e-002 1.138423e-001 2.968740e-001 3.866724e-001 3.597301e-001 3.998122e-001 4.665907e-001 5.281246e-001 5.531639e-001 6.003144e-001 5.549016e-001 4.345160e-001 
<GCONST> 1.091210e+002
<TRANSP> 25
0.000000e+000 1.000000e+000 0.000000e+000 0.000000e+000 0.000000e+000 0.000000e+000 0.000000e+000 0.000000e+000 0.000000e+000 0.000000e+000 0.000000e+000 0.000000e+000 0.000000e+000 0.000000e+000 0.000000e+000 0.000000e+000 0.000000e+000 0.000000e+000 0.000000e+000 0.000000e+000 0.000000e+000 0.000000e+000 0.000000e+000 0.000000e+000 0.000000e+000 
0.000000e+000 7.872149e-001 2.127851e-001 0.000000e+000 0.000000e+000 0.000000e+000 0.000000e+000 0.000000e+000 0.000000e+000 0.000000e+000 0.000000e+000 0.000000e+000 0.000000e+000 0.000000e+000 0.000000e+000 0.000000e+000 0.000000e+000 0.000000e+000 0.000000e+000 0.000000e+000 0.000000e+000 0.000000e+000 0.000000e+000 0.000000e+000 0.000000e+000 
0.000000e+000 0.000000e+000 7.824387e-001 2.175614e-001 0.000000e+000 0.000000e+000 0.000000e+000 0.000000e+000 0.000000e+000 0.000000e+000 0.000000e+000 0.000000e+000 0.000000e+000 0.000000e+000 0.000000e+000 0.000000e+000 0.000000e+000 0.000000e+000 0.000000e+000 0.000000e+000 0.000000e+000 0.000000e+000 0.000000e+000 0.000000e+000 0.000000e+000 
0.000000e+000 0.000000e+000 0.000000e+000 8.348661e-001 1.651339e-001 0.000000e+000 0.000000e+000 0.000000e+000 0.000000e+000 0.000000e+000 0.000000e+000 0.000000e+000 0.000000e+000 0.000000e+000 0.000000e+000 0.000000e+000 0.000000e+000 0.000000e+000 0.000000e+000 0.000000e+000 0.000000e+000 0.000000e+000 0.000000e+000 0.000000e+000 0.000000e+000 
0.000000e+000 0.000000e+000 0.000000e+000 0.000000e+000 9.313451e-001 6.865493e-002 0.000000e+000 0.000000e+000 0.000000e+000 0.000000e+000 0.000000e+000 0.000000e+000 0.000000e+000 0.000000e+000 0.000000e+000 0.000000e+000 0.000000e+000 0.000000e+000 0.000000e+000 0.000000e+000 0.000000e+000 0.000000e+000 0.000000e+000 0.000000e+000 0.000000e+000 
0.000000e+000 0.000000e+000 0.000000e+000 0.000000e+000 0.000000e+000 8.997017e-001 1.002984e-001 0.000000e+000 0.000000e+000 0.000000e+000 0.000000e+000 0.000000e+000 0.000000e+000 0.000000e+000 0.000000e+000 0.000000e+000 0.000000e+000 0.000000e+000 0.000000e+000 0.000000e+000 0.000000e+000 0.000000e+000 0.000000e+000 0.000000e+000 0.000000e+000 
0.000000e+000 0.000000e+000 0.000000e+000 0.000000e+000 0.000000e+000 0.000000e+000 7.130816e-001 2.869185e-001 0.000000e+000 0.000000e+000 0.000000e+000 0.000000e+000 0.000000e+000 0.000000e+000 0.000000e+000 0.000000e+000 0.000000e+000 0.000000e+000 0.000000e+000 0.000000e+000 0.000000e+000 0.000000e+000 0.000000e+000 0.000000e+000 0.000000e+000 
0.000000e+000 0.000000e+000 0.000000e+000 0.000000e+000 0.000000e+000 0.000000e+000 0.000000e+000 6.134983e-001 3.865016e-001 0.000000e+000 0.000000e+000 0.000000e+000 0.000000e+000 0.000000e+000 0.000000e+000 0.000000e+000 0.000000e+000 0.000000e+000 0.000000e+000 0.000000e+000 0.000000e+000 0.000000e+000 0.000000e+000 0.000000e+000 0.000000e+000 
0.000000e+000 0.000000e+000 0.000000e+000 0.000000e+000 0.000000e+000 0.000000e+000 0.000000e+000 0.000000e+000 2.746371e-001 7.253629e-001 0.000000e+000 0.000000e+000 0.000000e+000 0.000000e+000 0.000000e+000 0.000000e+000 0.000000e+000 0.000000e+000 0.000000e+000 0.000000e+000 0.000000e+000 0.000000e+000 0.000000e+000 0.000000e+000 0.000000e+000 
0.000000e+000 0.000000e+000 0.000000e+000 0.000000e+000 0.000000e+000 0.000000e+000 0.000000e+000 0.000000e+000 0.000000e+000 2.586011e-001 7.413989e-001 0.000000e+000 0.000000e+000 0.000000e+000 0.000000e+000 0.000000e+000 0.000000e+000 0.000000e+000 0.000000e+000 0.000000e+000 0.000000e+000 0.000000e+000 0.000000e+000 0.000000e+000 0.000000e+000 
0.000000e+000 0.000000e+000 0.000000e+000 0.000000e+000 0.000000e+000 0.000000e+000 0.000000e+000 0.000000e+000 0.000000e+000 0.000000e+000 5.318593e-001 4.681406e-001 0.000000e+000 0.000000e+000 0.000000e+000 0.000000e+000 0.000000e+000 0.000000e+000 0.000000e+000 0.000000e+000 0.000000e+000 0.000000e+000 0.000000e+000 0.000000e+000 0.000000e+000 
0.000000e+000 0.000000e+000 0.000000e+000 0.000000e+000 0.000000e+000 0.000000e+000 0.000000e+000 0.000000e+000 0.000000e+000 0.000000e+000 0.000000e+000 4.725078e-001 5.274922e-001 0.000000e+000 0.000000e+000 0.000000e+000 0.000000e+000 0.000000e+000 0.000000e+000 0.000000e+000 0.000000e+000 0.000000e+000 0.000000e+000 0.000000e+000 0.000000e+000 
0.000000e+000 0.000000e+000 0.000000e+000 0.000000e+000 0.000000e+000 0.000000e+000 0.000000e+000 0.000000e+000 0.000000e+000 0.000000e+000 0.000000e+000 0.000000e+000 7.090204e-001 2.909796e-001 0.000000e+000 0.000000e+000 0.000000e+000 0.000000e+000 0.000000e+000 0.000000e+000 0.000000e+000 0.000000e+000 0.000000e+000 0.000000e+000 0.000000e+000 
0.000000e+000 0.000000e+000 0.000000e+000 0.000000e+000 0.000000e+000 0.000000e+000 0.000000e+000 0.000000e+000 0.000000e+000 0.000000e+000 0.000000e+000 0.000000e+000 0.000000e+000 8.730882e-001 1.269118e-001 0.000000e+000 0.000000e+000 0.000000e+000 0.000000e+000 0.000000e+000 0.000000e+000 0.000000e+000 0.000000e+000 0.000000e+000 0.000000e+000 
0.000000e+000 0.000000e+000 0.000000e+000 0.000000e+000 0.000000e+000 0.000000e+000 0.000000e+000 0.000000e+000 0.000000e+000 0.000000e+000 0.000000e+000 0.000000e+000 0.000000e+000 0.000000e+000 8.656343e-001 1.343656e-001 0.000000e+000 0.000000e+000 0.000000e+000 0.000000e+000 0.000000e+000 0.000000e+000 0.000000e+000 0.000000e+000 0.000000e+000 
0.000000e+000 0.000000e+000 0.000000e+000 0.000000e+000 0.000000e+000 0.000000e+000 0.000000e+000 0.000000e+000 0.000000e+000 0.000000e+000 0.000000e+000 0.000000e+000 0.000000e+000 0.000000e+000 0.000000e+000 9.251434e-001 7.485651e-002 0.000000e+000 0.000000e+000 0.000000e+000 0.000000e+000 0.000000e+000 0.000000e+000 0.000000e+000 0.000000e+000 
0.000000e+000 0.000000e+000 0.000000e+000 0.000000e+000 0.000000e+000 0.000000e+000 0.000000e+000 0.000000e+000 0.000000e+000 0.000000e+000 0.000000e+000 0.000000e+000 0.000000e+000 0.000000e+000 0.000000e+000 0.000000e+000 7.701992e-001 2.298008e-001 0.000000e+000 0.000000e+000 0.000000e+000 0.000000e+000 0.000000e+000 0.000000e+000 0.000000e+000 
0.000000e+000 0.000000e+000 0.000000e+000 0.000000e+000 0.000000e+000 0.000000e+000 0.000000e+000 0.000000e+000 0.000000e+000 0.000000e+000 0.000000e+000 0.000000e+000 0.000000e+000 0.000000e+000 0.000000e+000 0.000000e+000 0.000000e+000 7.720372e-001 2.279628e-001 0.000000e+000 0.000000e+000 0.000000e+000 0.000000e+000 0.000000e+000 0.000000e+000 
0.000000e+000 0.000000e+000 0.000000e+000 0.000000e+000 0.000000e+000 0.000000e+000 0.000000e+000 0.000000e+000 0.000000e+000 0.000000e+000 0.000000e+000 0.000000e+000 0.000000e+000 0.000000e+000 0.000000e+000 0.000000e+000 0.000000e+000 0.000000e+000 8.112659e-001 1.887342e-001 0.000000e+000 0.000000e+000 0.000000e+000 0.000000e+000 0.000000e+000 
0.000000e+000 0.000000e+000 0.000000e+000 0.000000e+000 0.000000e+000 0.000000e+000 0.000000e+000 0.000000e+000 0.000000e+000 0.000000e+000 0.000000e+000 0.000000e+000 0.000000e+000 0.000000e+000 0.000000e+000 0.000000e+000 0.000000e+000 0.000000e+000 0.000000e+000 8.703506e-001 1.296494e-001 0.000000e+000 0.000000e+000 0.000000e+000 0.000000e+000 
0.000000e+000 0.000000e+000 0.000000e+000 0.000000e+000 0.000000e+000 0.000000e+000 0.000000e+000 0.000000e+000 0.000000e+000 0.000000e+000 0.000000e+000 0.000000e+000 0.000000e+000 0.000000e+000 0.000000e+000 0.000000e+000 0.000000e+000 0.000000e+000 0.000000e+000 0.000000e+000 7.784353e-001 2.215647e-001 0.000000e+000 0.000000e+000 0.000000e+000 
0.000000e+000 0.000000e+000 0.000000e+000 0.000000e+000 0.000000e+000 0.000000e+000 0.000000e+000 0.000000e+000 0.000000e+000 0.000000e+000 0.000000e+000 0.000000e+000 0.000000e+000 0.000000e+000 0.000000e+000 0.000000e+000 0.000000e+000 0.000000e+000 0.000000e+000 0.000000e+000 0.000000e+000 7.181962e-001 2.818037e-001 0.000000e+000 0.000000e+000 
0.000000e+000 0.000000e+000 0.000000e+000 0.000000e+000 0.000000e+000 0.000000e+000 0.000000e+000 0.000000e+000 0.000000e+000 0.000000e+000 0.000000e+000 0.000000e+000 0.000000e+000 0.000000e+000 0.000000e+000 0.000000e+000 0.000000e+000 0.000000e+000 0.000000e+000 0.000000e+000 0.000000e+000 0.000000e+000 8.581102e-001 1.418898e-001 0.000000e+000 
0.000000e+000 0.000000e+000 0.000000e+000 0.000000e+000 0.000000e+000 0.000000e+000 0.000000e+000 0.000000e+000 0.000000e+000 0.000000e+000 0.000000e+000 0.000000e+000 0.000000e+000 0.000000e+000 0.000000e+000 0.000000e+000 0.000000e+000 0.000000e+000 0.000000e+000 0.000000e+000 0.000000e+000 0.000000e+000 0.000000e+000 8.133964e-001 1.866037e-001 
0.000000e+000 0.000000e+000 0.000000e+000 0.000000e+000 0.000000e+000 0.000000e+000 0.000000e+000 0.000000e+000 0.000000e+000 0.000000e+000 0.000000e+000 0.000000e+000 0.000000e+000 0.000000e+000 0.000000e+000 0.000000e+000 0.000000e+000 0.000000e+000 0.000000e+000 0.000000e+000 0.000000e+000 0.000000e+000 0.000000e+000 0.000000e+000 0.000000e+000 
