<HMMNAME> 4
<HMMSTATES> 25
<STATE> 1
<MEAN> 36
-2.678577e+001 -3.309519e+000 1.109680e+001 -2.942050e+000 -1.229487e+000 -3.195855e+000 2.354218e+000 -3.604725e+000 3.088853e+000 -4.371746e+000 1.749646e+000 1.889079e+000 -4.319807e-001 3.212286e-001 -7.030983e-002 -2.689289e-001 3.212677e-001 2.516583e-001 -2.848190e-001 1.348430e-001 3.811441e-002 -1.151498e-001 1.566504e-002 -2.881392e-002 7.931448e-002 2.375922e-002 -2.616876e-002 -1.228736e-002 9.708712e-003 2.485414e-003 -4.369878e-002 6.158352e-003 -2.898032e-002 8.510671e-003 -1.095268e-002 -2.482835e-002 
<VARIANCE> 36
3.198586e+001 4.314135e+001 4.137029e+001 3.231087e+001 4.836404e+001 1.159536e+002 5.253782e+001 6.170033e+001 6.165363e+001 6.130026e+001 4.223773e+001 2.966731e+001 1.049858e+000 2.067663e+000 1.635136e+000 2.068872e+000 2.255013e+000 2.734537e+000 2.612992e+000 2.876257e+000 3.214098e+000 2.595595e+000 2.317858e+000 2.344588e+000 1.048261e-001 3.707867e-001 2.887671e-001 3.435116e-001 4.327690e-001 4.533324e-001 4.881063e-001 5.355706e-001 6.234982e-001 4.822914e-001 4.251851e-001 4.733207e-001 
<GCONST> 1.109884e+002
<STATE> 2
<MEAN> 36
-3.075154e+001 2.574185e+000 9.577136e+000 -9.491879e+000 -4.911196e+000 6.234235e+000 -4.701699e+000 -7.037857e+000 5.356490e+000 -4.780751e+000 5.039964e+000 -2.245910e+000 2.339879e-001 -1.314387e-002 -3.386672e-001 3.467768e-002 1.782750e-001 -3.587560e-002 -2.219210e-001 1.455119e-001 -6.765132e-002 3.007547e-002 -4.367634e-002 -8.155792e-002 6.805556e-002 -4.704676e-002 -1.839513e-002 4.335147e-002 -2.240281e-002 -9.690020e-002 3.800657e-002 -1.586129e-002 -3.202766e-002 2.662775e-002 -1.690817e-002 1.132901e-002 
<VARIANCE> 36
1.309266e+001 2.412347e+001 3.349328e+001 2.006585e+001 5.058038e+001 4.846973e+001 4.953586e+001 4.972480e+001 4.488297e+001 3.508940e+001 3.428010e+001 3.871925e+001 5.113020e-001 5.909041e-001 8.346451e-001 9.192278e-001 1.558058e+000 1.874006e+000 1.936386e+000 2.035786e+000 1.885159e+000 1.799164e+000 1.977836e+000 2.033579e+000 7.694428e-002 9.458026e-002 1.527943e-001 1.858125e-001 3.240565e-001 3.698192e-001 3.728621e-001 3.962847e-001 3.495442e-001 3.665380e-001 3.691787e-001 4.145095e-001 
<GCONST> 9.573992e+001
<STATE> 3
<MEAN> 36
-1.981670e+001 7.178388e+000 5.511126e+000 -8.735693e-001 4.828198e+000 1.673679e+000 3.651818e+000 3.712501e+000 2.673734e+000 1.000278e+000 2.006884e+000 2.977084e+000 5.208501e-001 -2.932316e-001 -2.957405e-001 1.244609e-001 -1.328232e-001 -3.173392e-001 9.646043e-002 -1.382022e-001 2.436461e-002 1.401482e-001 2.938263e-002 5.260009e-002 -4.571568e-002 -7.803848e-002 2.668156e-002 -6.736562e-002 -3.184548e-002 -5.266702e-002 -9.916987e-003 -5.007346e-002 1.746696e-002 8.669038e-003 1.850054e-002 5.704863e-003 
<VARIANCE> 36
3.522001e+001 1.902985e+001 1.255611e+001 1.827108e+001 2.277821e+001 2.332464e+001 3.035033e+001 3.424872e+001 2.946379e+001 2.791733e+001 2.203223e+001 1.862052e+001 6.764012e-001 8.176720e-001 9.191849e-001 1.550184e+000 1.634504e+000 2.162867e+000 2.266457e+000 2.552867e+000 2.364303e+000 2.272380e+000 1.966388e+000 1.743784e+000 9.892702e-002 1.192474e-001 1.856244e-001 2.931745e-001 3.202095e-001 3.830257e-001 4.301804e-001 5.217472e-001 4.820815e-001 4.731768e-001 3.773562e-001 3.687001e-001 
<GCONST> 9.535753e+001
<STATE> 4
<MEAN> 36
-1.901533e+001 -1.621244e+000 5.000449e+000 -9.248072e+000 -4.284519e+000 -7.334712e+000 -8.118220e+000 -9.632946e+000 -9.948656e-001 -2.392955e+000 5.064337e+000 -2.876618e+000 1.239108e+000 -3.168139e-001 -6.965779e-002 -2.199213e-001 -2.161590e-001 -1.222027e+000 1.533138e-001 1.749380e-001 -1.632190e-001 5.147246e-001 -2.909628e-001 -1.549532e-001 1.467749e-001 1.387412e-001 7.503908e-002 2.147110e-001 1.058082e-001 2.645158e-001 1.305627e-001 2.102088e-001 2.171962e-001 1.422469e-002 -4.894008e-002 -3.652355e-002 
<VARIANCE> 36
3.435261e+001 5.259589e+001 2.880811e+001 4.186078e+001 3.785527e+001 8.046189e+001 7.531077e+001 9.425461e+001 9.436867e+001 7.076314e+001 6.031363e+001 3.574169e+001 1.525822e+000 1.578271e+000 1.949583e+000 2.340009e+000 3.169697e+000 4.667880e+000 3.376754e+000 4.066149e+000 4.724040e+000 3.197114e+000 2.824070e+000 2.537048e+000 1.706514e-001 2.587449e-001 3.701049e-001 5.080619e-001 6.267673e-001 9.075631e-001 6.318211e-001 7.260859e-001 8.397413e-001 6.444418e-001 5.079463e-001 4.535641e-001 
<GCONST> 1.183076e+002
<STATE> 5
<MEAN> 36
-1.513767e+001 -3.493921e+000 3.761515e+000 -4.585510e+000 -5.199675e-001 -6.825816e+000 9.204713e-001 -1.417983e+000 3.363709e+000 7.001452e-001 2.153124e+000 1.475429e+000 1.722463e+000 6.882508e-001 5.793226e-001 1.006935e+000 2.169420e-002 -2.928345e-001 -2.117078e-001 3.205109e-001 5.167665e-001 -1.020335e-001 -1.012806e+000 -6.296396e-001 6.925910e-001 1.284174e-001 2.035078e-001 -6.751555e-003 -5.394979e-001 -2.463173e-001 -4.891104e-001 3.918858e-003 -6.301116e-003 8.722304e-002 -3.405741e-001 -2.204101e-001 
<VARIANCE> 36
1.310977e+001 2.221545e+001 2.039701e+001 2.600520e+001 4.343094e+001 5.721657e+001 6.610240e+001 4.593055e+001 3.372263e+001 4.430714e+001 5.532331e+001 5.095693e+001 2.905369e+000 2.268609e+000 1.921644e+000 3.305656e+000 4.596957e+000 5.639758e+000 2.872869e+000 3.619864e+000 3.799582e+000 3.614329e+000 3.358907e+000 2.944259e+000 1.944032e-001 5.755463e-001 3.700269e-001 6.428600e-001 7.835526e-001 1.004811e+000 4.882486e-001 5.617315e-001 6.587863e-001 7.013685e-001 8.221120e-001 5.562773e-001 
<GCONST> 1.167306e+002
<STATE> 6
<MEAN> 36
-5.071533e+000 7.791696e-001 7.102121e+000 -2.296853e+000 -3.565176e+000 -8.556012e+000 -5.667284e+000 -2.096074e+000 4.786479e+000 1.197583e+000 -9.680550e-001 -5.002551e+000 2.991498e+000 -1.070826e+000 6.188171e-001 -4.107137e-001 -2.281619e+000 -1.574792e+000 -1.322142e+000 3.430594e-001 1.006235e+000 1.027563e+000 -7.489133e-001 -4.181307e-001 -4.560859e-001 -9.074500e-001 -2.147093e-001 -7.219854e-001 -5.818005e-001 -3.243396e-001 -7.734859e-002 -5.134988e-002 4.475534e-002 2.375885e-001 1.958344e-001 4.386870e-001 
<VARIANCE> 36
2.829025e+001 2.320578e+001 1.832533e+001 2.177401e+001 4.162240e+001 3.816352e+001 7.302931e+001 3.220517e+001 4.636495e+001 3.496665e+001 4.418163e+001 5.538684e+001 1.438971e+000 2.049131e+000 1.622669e+000 4.009617e+000 3.202978e+000 3.349723e+000 2.670816e+000 2.536059e+000 3.757800e+000 3.166345e+000 4.596053e+000 3.498860e+000 2.369515e-001 2.641501e-001 2.302672e-001 3.615239e-001 6.247101e-001 5.379830e-001 5.342660e-001 5.271730e-001 4.259941e-001 5.730405e-001 4.886598e-001 4.544068e-001 
<GCONST> 1.109311e+002
<STATE> 7
<MEAN> 36
-2.474344e+000 -7.238520e+000 6.775910e+000 -7.194194e+000 -1.095353e+001 -1.453947e+001 -5.209489e+000 -1.614206e+000 7.050594e+000 4.369320e+000 -2.096411e+000 -1.903118e+000 6.597388e-001 -2.387224e+000 -5.079871e-002 -1.150753e+000 -1.677619e+000 -6.476714e-001 -2.530156e-001 6.937158e-001 6.981795e-001 6.555100e-001 -2.853244e-001 6.720714e-001 -6.059711e-001 1.486067e-001 -1.707678e-001 2.261397e-001 6.767779e-001 7.370810e-001 4.366562e-001 1.062506e-001 -2.215187e-001 -4.570533e-001 3.007338e-001 -1.570912e-002 
<VARIANCE> 36
4.556639e+001 2.553665e+001 2.027174e+001 4.813416e+001 2.465032e+001 5.035579e+001 1.125589e+002 3.734121e+001 6.992163e+001 2.631734e+001 5.372868e+001 1.243400e+002 6.210134e-001 1.078256e+000 8.241890e-001 2.639827e+000 2.105921e+000 2.930519e+000 2.747194e+000 1.668054e+000 2.207061e+000 2.686931e+000 3.060394e+000 2.541324e+000 1.430007e-001 2.664453e-001 1.788580e-001 3.525735e-001 2.609918e-001 3.404961e-001 3.926083e-001 2.694857e-001 4.217473e-001 3.916892e-001 5.136060e-001 5.383427e-001 
<GCONST> 1.056637e+002
<STATE> 8
<MEAN> 36
-2.762616e+000 -5.419387e+000 4.404166e+000 -2.844701e+000 -1.238569e+001 -1.132982e+001 -2.270207e+000 7.389615e+000 6.355898e+000 3.638233e+000 -7.994373e+000 1.819351e+000 9.681272e-002 -5.045864e-001 -2.926174e-002 -1.115579e-001 -1.577455e-001 3.980102e-001 4.145182e-001 2.671600e-001 6.162591e-002 -5.335824e-002 1.058397e-001 -7.521916e-002 -3.560081e-002 1.417312e-001 4.813391e-002 1.135202e-001 1.663174e-001 1.070512e-001 5.921864e-002 -5.547246e-002 -5.095806e-002 -9.513349e-002 5.002680e-002 -8.528048e-002 
<VARIANCE> 36
2.210180e+001 3.999117e+001 1.826054e+001 5.376489e+001 2.648285e+001 2.946665e+001 7.544588e+001 6.166041e+001 6.369563e+001 3.427333e+001 4.891953e+001 5.318465e+001 2.243711e-001 8.331478e-001 7.412132e-001 1.197469e+000 1.137860e+000 1.239010e+000 1.175951e+000 1.630016e+000 1.621325e+000 1.585178e+000 1.105578e+000 1.327562e+000 5.000000e-002 1.567811e-001 1.192784e-001 2.537528e-001 2.706340e-001 2.596146e-001 2.279790e-001 2.638789e-001 2.693501e-001 2.835407e-001 2.140155e-001 2.472545e-001 
<GCONST> 9.169619e+001
<STATE> 9
<MEAN> 36
5.296132e+000 -1.641055e+001 1.032933e+001 -7.606195e+000 -1.453964e+001 -5.027802e+000 -1.377725e+001 2.076733e+000 1.277124e+001 -5.548856e-001 5.088449e+000 -8.837554e+000 1.029142e-001 -3.024924e-001 9.417314e-002 2.685027e-002 -9.050571e-002 1.212132e-001 3.446438e-002 1.582616e-001 -1.139025e-001 -2.452939e-001 7.204056e-002 1.482611e-001 -1.890480e-002 5.887378e-002 1.090850e-002 9.026509e-003 2.286441e-002 -2.477247e-002 -1.749459e-002 -2.732648e-002 -1.685111e-002 2.690493e-002 -1.073438e-002 1.224890e-002 
<VARIANCE> 36
1.328220e+001 1.860221e+001 1.267036e+001 1.565035e+001 2.093898e+001 2.382183e+001 3.910870e+001 3.280013e+001 3.690680e+001 3.100315e+001 2.833657e+001 3.762479e+001 1.471100e-001 3.692330e-001 3.243580e-001 4.232830e-001 5.095871e-001 6.449397e-001 8.090004e-001 1.024255e+000 1.124170e+000 1.165954e+000 8.010546e-001 9.311522e-001 5.000000e-002 5.000000e-002 5.000000e-002 6.276101e-002 8.258270e-002 8.930341e-002 1.389387e-001 1.325026e-001 1.485095e-001 1.757793e-001 1.281232e-001 1.602358e-001 
<GCONST> 6.993281e+001
<STATE> 10
<MEAN> 36
-9.479069e+000 -1.707068e+001 3.899520e+000 -1.568142e+001 -1.048192e+001 -1.091264e+001 1.112270e+001 3.857701e+000 2.692159e+000 1.171051e+000 -3.516645e+000 7.314330e+000 2.535990e-002 -2.084253e-002 1.159593e-001 2.925924e-002 -1.242293e-001 1.458636e-001 5.199814e-003 8.534831e-002 -2.108066e-002 8.379730e-002 9.807550e-002 2.375951e-002 6.153114e-003 2.875515e-002 2.859552e-002 3.638344e-002 -4.219796e-002 6.796211e-003 -7.177691e-002 -1.862058e-003 1.432134e-003 -1.307964e-002 1.990577e-002 -4.910436e-003 
<VARIANCE> 36
1.511467e+001 1.291757e+001 1.166691e+001 1.993641e+001 1.379135e+001 2.383046e+001 5.440721e+001 2.415140e+001 3.949172e+001 4.180133e+001 3.212136e+001 2.394374e+001 8.483997e-002 2.546265e-001 2.629529e-001 3.588818e-001 5.986586e-001 6.344137e-001 8.320352e-001 7.866379e-001 7.423715e-001 7.494997e-001 6.259495e-001 4.551939e-001 5.000000e-002 5.000000e-002 5.000000e-002 6.420398e-002 8.772273e-002 9.782576e-002 1.164620e-001 1.196111e-001 1.427239e-001 1.392043e-001 1.108325e-001 8.174573e-002 
<GCONST> 6.510069e+001
<STATE> 11
<MEAN> 36
4.219577e+000 -1.583216e+001 1.437750e+001 -5.902460e+000 -1.387609e+001 -5.136962e+000 -1.317963e+001 1.993967e+000 6.842152e+000 -3.780461e-001 2.213101e+000 -4.517199e+000 -1.453560e-001 1.822635e-001 3.337222e-001 3.705831e-001 1.267158e-001 1.724815e-001 -5.093034e-002 -1.079387e-001 -1.228076e-001 -1.163243e-001 -3.312241e-001 -1.034281e-001 -4.541288e-002 3.895205e-002 -5.171233e-002 5.440959e-004 5.583894e-002 -6.035731e-002 9.007312e-002 3.022056e-002 2.808258e-002 6.127067e-004 -1.111116e-001 -1.216717e-002 
<VARIANCE> 36
2.316852e+001 1.276074e+001 1.830034e+001 2.914486e+001 2.012800e+001 3.168631e+001 7.464901e+001 2.920215e+001 4.147436e+001 3.437607e+001 5.598099e+001 6.262185e+001 2.904443e-001 3.521948e-001 5.717963e-001 8.555335e-001 1.468732e+000 1.817977e+000 2.339723e+000 1.399098e+000 2.162764e+000 1.509077e+000 1.725649e+000 1.737343e+000 5.000000e-002 6.278093e-002 8.414975e-002 1.429648e-001 2.110011e-001 3.243057e-001 3.515131e-001 2.486190e-001 3.779242e-001 2.609473e-001 2.722749e-001 2.806112e-001 
<GCONST> 8.896377e+001
<STATE> 12
<MEAN> 36
1.020187e-001 -1.277303e+001 3.898046e+000 2.258987e+000 -8.453288e+000 -1.144352e+001 5.116170e+000 -1.736247e+000 -1.502551e+000 3.546197e-002 -1.159917e+001 3.720326e+000 -9.236775e-004 1.202577e-001 9.069757e-002 -1.970193e-002 1.422311e-002 -1.029737e-001 -1.205060e-001 -4.762487e-002 2.867175e-002 -9.189057e-002 3.374910e-002 -1.352668e-002 1.570698e-003 1.131237e-002 8.953358e-003 -1.190190e-002 -6.524980e-003 -1.970487e-002 -1.573917e-002 1.886115e-002 1.332982e-002 7.196828e-003 4.171944e-002 1.395874e-002 
<VARIANCE> 36
7.412875e+000 1.662508e+001 1.939017e+001 2.611967e+001 2.956351e+001 3.207430e+001 4.143891e+001 3.927618e+001 5.700435e+001 6.339818e+001 5.303674e+001 4.877660e+001 3.366784e-001 4.812670e-001 7.038259e-001 9.514565e-001 1.592568e+000 1.820671e+000 1.783493e+000 1.853935e+000 2.170309e+000 2.032912e+000 2.132844e+000 1.961364e+000 5.863898e-002 8.425647e-002 1.188036e-001 1.734208e-001 3.018032e-001 3.311822e-001 3.012646e-001 3.428576e-001 3.871220e-001 3.470610e-001 3.701541e-001 3.443322e-001 
<GCONST> 9.262722e+001
<STATE> 13
<MEAN> 36
2.615639e+000 -1.292523e+001 1.642311e+001 -5.650236e+000 -1.092344e+001 -9.891707e+000 -1.205559e+001 9.911014e-001 7.197331e+000 4.700984e-001 6.943890e-001 -5.600245e+000 9.196884e-002 1.475827e-001 3.262509e-001 5.725963e-002 -3.104955e-001 -2.120990e-001 -4.141828e-001 1.458613e-001 4.423503e-003 -1.472838e-001 2.368607e-001 3.951740e-001 5.069386e-002 -2.011376e-002 2.242827e-002 5.028799e-002 -3.125716e-002 4.456429e-002 3.596837e-002 -8.931201e-003 -1.249494e-002 -5.840236e-002 2.340966e-002 9.516748e-002 
<VARIANCE> 36
1.764982e+001 1.644159e+001 2.792677e+001 2.792995e+001 4.180366e+001 6.146386e+001 7.068278e+001 3.541664e+001 4.255479e+001 3.940709e+001 4.185314e+001 5.454741e+001 4.688113e-001 7.146710e-001 1.105189e+000 1.941501e+000 1.965227e+000 2.204191e+000 3.306705e+000 1.748246e+000 2.321589e+000 2.396076e+000 2.509944e+000 2.051319e+000 8.309123e-002 1.226338e-001 1.917417e-001 3.501881e-001 4.228374e-001 4.119611e-001 6.119357e-001 3.032322e-001 4.433020e-001 4.278932e-001 4.505271e-001 3.124784e-001 
<GCONST> 1.012313e+002
<STATE> 14
<MEAN> 36
5.801966e+000 -1.613485e+001 1.988781e+001 -4.001528e+000 -1.805871e+001 -6.153241e+000 -1.478522e+001 6.915945e+000 7.486705e+000 -6.181400e+000 5.412317e+000 -4.846980e-001 6.274333e-002 5.219260e-002 3.716040e-003 3.184727e-002 -6.443408e-002 1.932660e-001 3.740486e-001 2.837999e-001 -1.453161e-001 -2.165540e-001 -3.860677e-002 1.192253e-001 -1.768627e-002 2.680077e-002 -3.641775e-002 -5.390534e-003 6.452899e-002 4.013803e-002 5.593199e-002 -1.367741e-002 -3.015534e-002 3.306404e-003 -8.794780e-003 -1.839070e-002 
<VARIANCE> 36
1.109878e+001 1.606050e+001 1.680728e+001 1.653825e+001 2.290884e+001 3.642435e+001 5.044968e+001 3.695706e+001 2.170394e+001 2.799242e+001 2.979843e+001 2.261507e+001 1.971114e-001 4.083608e-001 6.060276e-001 7.236403e-001 7.689034e-001 1.046243e+000 1.334525e+000 1.264157e+000 1.355870e+000 1.260787e+000 9.628421e-001 1.169963e+000 5.000000e-002 5.833955e-002 9.623784e-002 1.198749e-001 1.356054e-001 1.638970e-001 2.193543e-001 2.177332e-001 2.174691e-001 2.143528e-001 1.631038e-001 1.950025e-001 
<GCONST> 7.810958e+001
<STATE> 15
<MEAN> 36
-5.896109e+000 -6.575177e+000 1.211437e+001 -2.680389e+000 -1.320705e+001 -4.556081e+000 1.106935e-001 6.047184e+000 5.307549e+000 -1.544371e+000 -1.875926e+000 5.492119e+000 9.249343e-002 3.853322e-002 3.003947e-001 2.150666e-001 -4.499805e-002 2.216187e-001 -3.586174e-001 -2.411284e-001 -2.917644e-001 -3.309432e-001 1.630356e-001 1.978973e-001 5.180537e-002 -2.060103e-001 7.292933e-003 -1.760448e-001 -1.927166e-001 -1.113580e-001 -7.860000e-002 -6.588829e-002 -9.191025e-002 3.943974e-002 1.002247e-002 -1.112457e-002 
<VARIANCE> 36
3.446400e+001 2.943815e+001 2.760812e+001 3.450514e+001 4.870660e+001 5.870723e+001 4.146404e+001 4.020909e+001 3.902243e+001 4.801837e+001 4.477702e+001 3.677952e+001 1.299563e+000 2.545226e+000 1.986174e+000 2.967570e+000 4.960593e+000 3.525386e+000 3.213140e+000 3.327721e+000 2.847818e+000 2.821334e+000 2.272507e+000 2.177608e+000 1.981186e-001 3.927380e-001 4.010597e-001 5.529617e-001 7.876209e-001 5.331929e-001 6.292420e-001 6.291001e-001 5.137729e-001 5.716221e-001 4.583221e-001 4.350484e-001 
<GCONST> 1.134571e+002
<STATE> 16
<MEAN> 36
3.562385e+000 -1.115716e+001 1.447759e+001 -3.044812e+000 -1.540990e+001 1.282192e+000 -4.283644e+000 8.198906e+000 1.608967e+000 -1.114536e+001 2.644060e+000 6.185393e-001 -2.374464e-001 1.873664e-001 -2.345602e-001 2.191518e-002 -6.164569e-002 -1.426867e-001 6.403269e-002 -1.895781e-001 6.253811e-003 3.791436e-002 -6.751919e-002 3.832849e-002 -2.065760e-002 1.099802e-002 -1.907861e-002 5.338125e-003 6.590090e-003 -5.253975e-002 -2.733435e-003 -9.318933e-003 5.300120e-002 4.777569e-002 -1.774292e-002 -1.447858e-002 
<VARIANCE> 36
1.418243e+001 2.275782e+001 1.677172e+001 2.554120e+001 6.448554e+001 4.195962e+001 3.423285e+001 6.770659e+001 3.765210e+001 4.361955e+001 2.579554e+001 2.752109e+001 2.038702e-001 5.962562e-001 8.179463e-001 1.256805e+000 1.648389e+000 2.117562e+000 1.854258e+000 2.212228e+000 2.277545e+000 2.322520e+000 1.944389e+000 1.876062e+000 5.000000e-002 1.066691e-001 1.502748e-001 2.455884e-001 2.732464e-001 3.741881e-001 3.438919e-001 3.901088e-001 4.341790e-001 4.622975e-001 3.717451e-001 3.353748e-001 
<GCONST> 9.465256e+001
<STATE> 17
<MEAN> 36
-6.938354e+000 -1.295183e+001 1.210017e+001 -1.062452e+001 -1.727325e+001 -9.136566e+000 1.863361e+000 4.829631e+000 -4.053358e-001 1.592029e+000 1.092524e-001 7.792305e+000 -1.393151e-002 1.511510e-001 -1.248082e-001 -2.224574e-001 3.475359e-002 -1.951293e-001 4.208368e-001 -1.354249e-001 -8.355638e-002 2.401474e-001 -7.555577e-002 -6.380577e-002 -2.193776e-003 8.339793e-002 -2.862761e-002 7.131635e-002 5.445335e-002 2.034174e-002 8.666330e-003 -2.142181e-002 5.550817e-002 -1.868277e-003 -2.062099e-002 -3.427047e-002 
<VARIANCE> 36
1.138236e+001 1.320073e+001 1.175422e+001 4.182773e+001 3.417268e+001 3.693694e+001 3.400032e+001 3.312040e+001 2.996704e+001 2.914271e+001 2.102607e+001 2.583821e+001 1.050792e-001 2.949006e-001 4.118640e-001 5.918180e-001 7.801151e-001 8.608276e-001 8.612237e-001 9.560100e-001 1.115366e+000 1.216104e+000 9.435733e-001 8.220111e-001 5.000000e-002 5.840883e-002 6.086543e-002 8.407982e-002 1.299610e-001 1.251868e-001 1.566302e-001 1.703637e-001 2.068131e-001 2.289891e-001 1.716589e-001 1.585191e-001 
<GCONST> 7.367578e+001
<STATE> 18
<MEAN> 36
-5.201346e+000 -6.525484e+000 8.180787e+000 -1.008984e+001 -1.725685e+001 -8.906559e+000 7.501070e+000 -1.371056e-001 6.793978e-001 -2.156744e+000 -2.195961e+000 5.687343e+000 -7.407618e-002 4.852214e-001 -1.124578e-001 3.361049e-001 1.669561e-001 2.284013e-001 -6.236538e-003 -4.913129e-002 -2.051462e-002 -2.010069e-001 -5.763397e-002 -1.992942e-001 -1.415271e-002 3.693722e-002 7.214925e-002 5.022382e-002 7.915806e-002 2.270445e-002 -5.156693e-002 2.306855e-002 -7.283473e-002 -1.956777e-002 3.950600e-002 -3.490315e-002 
<VARIANCE> 36
1.115940e+001 2.170960e+001 1.870076e+001 3.989273e+001 5.401392e+001 3.902633e+001 5.906091e+001 3.757416e+001 2.787191e+001 3.791864e+001 3.367605e+001 2.501151e+001 2.350353e-001 4.341113e-001 8.804492e-001 1.133241e+000 1.586495e+000 1.911913e+000 1.635412e+000 1.318217e+000 1.880101e+000 1.692651e+000 1.795737e+000 1.597515e+000 5.000000e-002 7.568343e-002 1.441018e-001 1.882690e-001 3.318952e-001 3.387419e-001 2.689308e-001 2.533974e-001 3.566133e-001 2.915229e-001 3.253510e-001 2.987516e-001 
<GCONST> 9.048018e+001
<STATE> 19
<MEAN> 36
8.538519e-001 -2.418626e+000 1.445683e+001 1.014969e+000 -2.083837e+001 -1.276061e+001 -2.754198e+000 6.157345e+000 4.324598e+000 -3.243647e+000 -7.848576e-001 3.278499e-001 -1.495363e-001 4.714986e-001 3.286864e-002 2.866573e-001 5.791136e-001 8.985477e-002 2.234666e-001 -2.771451e-001 -3.361576e-001 1.413724e-001 -1.141281e-002 -2.172508e-001 -1.964758e-002 -1.880271e-002 1.979836e-002 1.907102e-002 6.977472e-002 1.088746e-001 3.879255e-002 -9.121102e-002 -8.676783e-002 -8.929508e-002 -6.691606e-002 -7.596088e-003 
<VARIANCE> 36
3.256168e+001 2.350165e+001 3.061277e+001 3.394655e+001 7.347528e+001 7.289730e+001 6.690003e+001 4.153743e+001 9.652742e+001 5.597355e+001 2.462488e+001 3.320282e+001 2.009072e-001 5.582307e-001 6.597729e-001 1.091226e+000 1.378701e+000 1.554958e+000 1.790799e+000 1.915873e+000 2.055346e+000 1.895165e+000 1.620413e+000 1.490963e+000 5.000000e-002 8.687268e-002 1.229778e-001 1.416519e-001 2.008399e-001 2.283811e-001 3.143525e-001 3.306451e-001 3.871898e-001 4.259437e-001 2.579997e-001 2.636992e-001 
<GCONST> 9.396257e+001
<STATE> 20
<MEAN> 36
-1.191857e-001 -1.154138e+000 1.197054e+001 1.621640e+000 -5.415801e+000 -1.097764e+001 -1.101808e+000 -1.821264e+000 -3.311155e+000 -3.575357e+000 -1.368021e+000 -2.190120e+000 -2.335380e-001 1.702870e-001 -8.901290e-003 1.513982e-001 4.894815e-001 1.923586e-001 4.465069e-002 -1.902690e-001 -2.139788e-001 -1.835654e-001 -3.734849e-002 -1.949834e-001 -2.649265e-002 -4.340915e-002 -3.752178e-002 -2.012509e-002 -3.104252e-002 1.141947e-002 7.558927e-003 2.957849e-002 3.940959e-002 4.064998e-002 2.527288e-002 5.736827e-002 
<VARIANCE> 36
1.273251e+001 2.687014e+001 1.932368e+001 3.574545e+001 6.363938e+001 7.582753e+001 7.346945e+001 4.095689e+001 5.965315e+001 5.592029e+001 4.392527e+001 4.038404e+001 2.206843e-001 4.891273e-001 8.260702e-001 1.333896e+000 1.816385e+000 1.946249e+000 2.174868e+000 2.165966e+000 2.911677e+000 2.446525e+000 2.068089e+000 2.262009e+000 5.000000e-002 8.816422e-002 1.473127e-001 2.805369e-001 3.136316e-001 3.450380e-001 3.599566e-001 3.439963e-001 5.572050e-001 4.449907e-001 3.995126e-001 4.400521e-001 
<GCONST> 9.875473e+001
<STATE> 21
<MEAN> 36
-5.418991e+000 -2.790964e+000 1.040808e+001 1.611269e+000 -4.406801e+000 -8.197829e+000 -1.285458e+000 -3.497406e+000 -1.874682e+000 -7.577436e+000 -2.946651e+000 1.014212e-001 -4.259761e-001 7.697311e-002 -3.137628e-001 -6.728505e-003 3.207528e-001 3.452123e-001 -1.584378e-001 -2.716422e-001 -8.197230e-002 1.268953e-001 6.470572e-002 -8.781439e-002 2.527219e-002 -2.012712e-003 -6.115769e-002 -8.310066e-002 -2.966153e-002 3.738480e-003 -1.690744e-002 7.012116e-002 9.147758e-002 1.038920e-001 8.579057e-002 -2.385888e-002 
<VARIANCE> 36
1.295492e+001 1.760599e+001 3.669181e+001 5.499051e+001 6.755812e+001 8.114627e+001 9.741159e+001 7.210046e+001 6.883681e+001 6.523430e+001 3.954340e+001 4.026920e+001 7.307749e-001 8.287028e-001 1.715982e+000 2.490839e+000 2.249287e+000 2.233316e+000 3.354042e+000 3.144288e+000 3.317910e+000 2.749840e+000 2.123324e+000 1.682482e+000 1.096893e-001 1.569167e-001 3.553519e-001 4.205900e-001 3.958815e-001 4.194335e-001 6.615824e-001 6.641560e-001 7.594343e-001 5.428926e-001 4.114416e-001 3.371835e-001 
<GCONST> 1.094150e+002
<STATE> 22
<MEAN> 36
-8.236029e+000 -2.632095e+000 5.802409e+000 -2.719848e+000 -2.923182e+000 -3.952160e+000 -2.242791e-001 -2.317888e+000 -4.489412e-001 -3.027281e+000 1.264852e-001 -2.796023e+000 -2.074459e-001 -5.337541e-002 -3.881948e-001 2.001767e-002 2.491037e-001 8.964647e-002 3.264638e-002 9.564143e-002 1.916936e-001 3.606101e-001 1.420023e-001 6.208549e-003 1.592244e-002 -1.346758e-002 -2.781994e-003 3.883230e-002 -9.180456e-004 -4.791434e-003 2.256025e-002 5.043317e-002 3.846410e-002 -5.194399e-002 -6.970913e-002 -4.978237e-003 
<VARIANCE> 36
2.393661e+001 2.842978e+001 5.612314e+001 4.415537e+001 6.287064e+001 4.242597e+001 5.174460e+001 3.518103e+001 7.126972e+001 7.381724e+001 3.124556e+001 3.618788e+001 2.762018e-001 6.279730e-001 1.160348e+000 1.806135e+000 1.997879e+000 2.294551e+000 2.579219e+000 2.125598e+000 3.403567e+000 3.257493e+000 2.563189e+000 2.074262e+000 5.254812e-002 1.049181e-001 1.984446e-001 3.204357e-001 4.302532e-001 4.438320e-001 5.267060e-001 4.193558e-001 6.716805e-001 6.052981e-001 5.059526e-001 4.371349e-001 
<GCONST> 1.042542e+002
<STATE> 23
<MEAN> 36
-9.886229e+000 2.281276e+000 4.960018e+000 2.917315e+000 -3.780480e+000 1.314728e+000 5.114545e+000 2.975070e+000 8.435862e-001 3.463828e-001 1.007279e+000 2.588683e+000 -6.292662e-002 1.876158e-001 -4.025067e-001 1.059701e-001 4.878203e-001 2.399762e-001 -8.505559e-002 1.534587e-001 1.754746e-001 8.862156e-002 2.200842e-003 -5.744917e-002 4.733509e-003 -1.113767e-002 2.668941e-002 -1.082896e-002 -1.546776e-002 -7.438517e-003 -1.551420e-003 -2.554910e-002 -4.394170e-002 -1.756843e-002 -3.549000e-002 -2.714816e-002 
<VARIANCE> 36
8.227657e+000 1.289315e+001 3.006825e+001 1.914607e+001 3.592733e+001 2.647465e+001 3.579214e+001 3.441156e+001 3.228778e+001 3.477514e+001 1.925295e+001 2.386130e+001 2.474982e-001 4.883879e-001 8.982579e-001 1.292415e+000 1.648512e+000 2.082575e+000 2.610527e+000 1.926335e+000 2.411875e+000 2.253953e+000 1.826958e+000 1.903449e+000 5.000000e-002 8.000964e-002 1.454126e-001 2.637846e-001 3.078978e-001 4.142555e-001 5.252070e-001 3.742808e-001 4.965635e-001 4.714829e-001 3.846552e-001 3.576828e-001 
<GCONST> 9.223138e+001
<TRANSP> 25
0.000000e+000 1.000000e+000 0.000000e+000 0.000000e+000 0.000000e+000 0.000000e+000 0.000000e+000 0.000000e+000 0.000000e+000 0.000000e+000 0.000000e+000 0.000000e+000 0.000000e+000 0.000000e+000 0.000000e+000 0.000000e+000 0.000000e+000 0.000000e+000 0.000000e+000 0.000000e+000 0.000000e+000 0.000000e+000 0.000000e+000 0.000000e+000 0.000000e+000 
0.000000e+000 8.605114e-001 1.394886e-001 0.000000e+000 0.000000e+000 0.000000e+000 0.000000e+000 0.000000e+000 0.000000e+000 0.000000e+000 0.000000e+000 0.000000e+000 0.000000e+000 0.000000e+000 0.000000e+000 0.000000e+000 0.000000e+000 0.000000e+000 0.000000e+000 0.000000e+000 0.000000e+000 0.000000e+000 0.000000e+000 0.000000e+000 0.000000e+000 
0.000000e+000 0.000000e+000 8.961194e-001 1.038806e-001 0.000000e+000 0.000000e+000 0.000000e+000 0.000000e+000 0.000000e+000 0.000000e+000 0.000000e+000 0.000000e+000 0.000000e+000 0.000000e+000 0.000000e+000 0.000000e+000 0.000000e+000 0.000000e+000 0.000000e+000 0.000000e+000 0.000000e+000 0.000000e+000 0.000000e+000 0.000000e+000 0.000000e+000 
0.000000e+000 0.000000e+000 0.000000e+000 9.115407e-001 8.845931e-002 0.000000e+000 0.000000e+000 0.000000e+000 0.000000e+000 0.000000e+000 0.000000e+000 0.000000e+000 0.000000e+000 0.000000e+000 0.000000e+000 0.000000e+000 0.000000e+000 0.000000e+000 0.000000e+000 0.000000e+000 0.000000e+000 0.000000e+000 0.000000e+000 0.000000e+000 0.000000e+000 
0.000000e+000 0.000000e+000 0.000000e+000 0.000000e+000 7.934232e-001 2.065767e-001 0.000000e+000 0.000000e+000 0.000000e+000 0.000000e+000 0.000000e+000 0.000000e+000 0.000000e+000 0.000000e+000 0.000000e+000 0.000000e+000 0.000000e+000 0.000000e+000 0.000000e+000 0.000000e+000 0.000000e+000 0.000000e+000 0.000000e+000 0.000000e+000 0.000000e+000 
0.000000e+000 0.000000e+000 0.000000e+000 0.000000e+000 0.000000e+000 6.192841e-001 3.807159e-001 0.000000e+000 0.000000e+000 0.000000e+000 0.000000e+000 0.000000e+000 0.000000e+000 0.000000e+000 0.000000e+000 0.000000e+000 0.000000e+000 0.000000e+000 0.000000e+000 0.000000e+000 0.000000e+000 0.000000e+000 0.000000e+000 0.000000e+000 0.000000e+000 
0.000000e+000 0.000000e+000 0.000000e+000 0.000000e+000 0.000000e+000 0.000000e+000 5.595918e-001 4.404083e-001 0.000000e+000 0.000000e+000 0.000000e+000 0.000000e+000 0.000000e+000 0.000000e+000 0.000000e+000 0.000000e+000 0.000000e+000 0.000000e+000 0.000000e+000 0.000000e+000 0.000000e+000 0.000000e+000 0.000000e+000 0.000000e+000 0.000000e+000 
0.000000e+000 0.000000e+000 0.000000e+000 0.000000e+000 0.000000e+000 0.000000e+000 0.000000e+000 5.704779e-001 4.295221e-001 0.000000e+000 0.000000e+000 0.000000e+000 0.000000e+000 0.000000e+000 0.000000e+000 0.000000e+000 0.000000e+000 0.000000e+000 0.000000e+000 0.000000e+000 0.000000e+000 0.000000e+000 0.000000e+000 0.000000e+000 0.000000e+000 
0.000000e+000 0.000000e+000 0.000000e+000 0.000000e+000 0.000000e+000 0.000000e+000 0.000000e+000 0.000000e+000 7.542589e-001 2.457411e-001 0.000000e+000 0.000000e+000 0.000000e+000 0.000000e+000 0.000000e+000 0.000000e+000 0.000000e+000 0.000000e+000 0.000000e+000 0.000000e+000 0.000000e+000 0.000000e+000 0.000000e+000 0.000000e+000 0.000000e+000 
0.000000e+000 0.000000e+000 0.000000e+000 0.000000e+000 0.000000e+000 0.000000e+000 0.000000e+000 0.000000e+000 0.000000e+000 9.211679e-001 7.883211e-002 0.000000e+000 0.000000e+000 0.000000e+000 0.000000e+000 0.000000e+000 0.000000e+000 0.000000e+000 0.000000e+000 0.000000e+000 0.000000e+000 0.000000e+000 0.000000e+000 0.000000e+000 0.000000e+000 
0.000000e+000 0.000000e+000 0.000000e+000 0.000000e+000 0.000000e+000 0.000000e+000 0.000000e+000 0.000000e+000 0.000000e+000 0.000000e+000 9.123603e-001 8.763976e-002 0.000000e+000 0.000000e+000 0.000000e+000 0.000000e+000 0.000000e+000 0.000000e+000 0.000000e+000 0.000000e+000 0.000000e+000 0.000000e+000 0.000000e+000 0.000000e+000 0.000000e+000 
0.000000e+000 0.000000e+000 0.000000e+000 0.000000e+000 0.000000e+000 0.000000e+000 0.000000e+000 0.000000e+000 0.000000e+000 0.000000e+000 0.000000e+000 7.969895e-001 2.030104e-001 0.000000e+000 0.000000e+000 0.000000e+000 0.000000e+000 0.000000e+000 0.000000e+000 0.000000e+000 0.000000e+000 0.000000e+000 0.000000e+000 0.000000e+000 0.000000e+000 
0.000000e+000 0.000000e+000 0.000000e+000 0.000000e+000 0.000000e+000 0.000000e+000 0.000000e+000 0.000000e+000 0.000000e+000 0.000000e+000 0.000000e+000 0.000000e+000 9.122513e-001 8.774879e-002 0.000000e+000 0.000000e+000 0.000000e+000 0.000000e+000 0.000000e+000 0.000000e+000 0.000000e+000 0.000000e+000 0.000000e+000 0.000000e+000 0.000000e+000 
0.000000e+000 0.000000e+000 0.000000e+000 0.000000e+000 0.000000e+000 0.000000e+000 0.000000e+000 0.000000e+000 0.000000e+000 0.000000e+000 0.000000e+000 0.000000e+000 0.000000e+000 7.902166e-001 2.097834e-001 0.000000e+000 0.000000e+000 0.000000e+000 0.000000e+000 0.000000e+000 0.000000e+000 0.000000e+000 0.000000e+000 0.000000e+000 0.000000e+000 
0.000000e+000 0.000000e+000 0.000000e+000 0.000000e+000 0.000000e+000 0.000000e+000 0.000000e+000 0.000000e+000 0.000000e+000 0.000000e+000 0.000000e+000 0.000000e+000 0.000000e+000 0.000000e+000 9.230453e-001 7.695458e-002 0.000000e+000 0.000000e+000 0.000000e+000 0.000000e+000 0.000000e+000 0.000000e+000 0.000000e+000 0.000000e+000 0.000000e+000 
0.000000e+000 0.000000e+000 0.000000e+000 0.000000e+000 0.000000e+000 0.000000e+000 0.000000e+000 0.000000e+000 0.000000e+000 0.000000e+000 0.000000e+000 0.000000e+000 0.000000e+000 0.000000e+000 0.000000e+000 7.830233e-001 2.169767e-001 0.000000e+000 0.000000e+000 0.000000e+000 0.000000e+000 0.000000e+000 0.000000e+000 0.000000e+000 0.000000e+000 
0.000000e+000 0.000000e+000 0.000000e+000 0.000000e+000 0.000000e+000 0.000000e+000 0.000000e+000 0.000000e+000 0.000000e+000 0.000000e+000 0.000000e+000 0.000000e+000 0.000000e+000 0.000000e+000 0.000000e+000 0.000000e+000 9.063152e-001 9.368478e-002 0.000000e+000 0.000000e+000 0.000000e+000 0.000000e+000 0.000000e+000 0.000000e+000 0.000000e+000 
0.000000e+000 0.000000e+000 0.000000e+000 0.000000e+000 0.000000e+000 0.000000e+000 0.000000e+000 0.000000e+000 0.000000e+000 0.000000e+000 0.000000e+000 0.000000e+000 0.000000e+000 0.000000e+000 0.000000e+000 0.000000e+000 0.000000e+000 8.581501e-001 1.418499e-001 0.000000e+000 0.000000e+000 0.000000e+000 0.000000e+000 0.000000e+000 0.000000e+000 
0.000000e+000 0.000000e+000 0.000000e+000 0.000000e+000 0.000000e+000 0.000000e+000 0.000000e+000 0.000000e+000 0.000000e+000 0.000000e+000 0.000000e+000 0.000000e+000 0.000000e+000 0.000000e+000 0.000000e+000 0.000000e+000 0.000000e+000 0.000000e+000 8.299429e-001 1.700570e-001 0.000000e+000 0.000000e+000 0.000000e+000 0.000000e+000 0.000000e+000 
0.000000e+000 0.000000e+000 0.000000e+000 0.000000e+000 0.000000e+000 0.000000e+000 0.000000e+000 0.000000e+000 0.000000e+000 0.000000e+000 0.000000e+000 0.000000e+000 0.000000e+000 0.000000e+000 0.000000e+000 0.000000e+000 0.000000e+000 0.000000e+000 0.000000e+000 7.724168e-001 2.275832e-001 0.000000e+000 0.000000e+000 0.000000e+000 0.000000e+000 
0.000000e+000 0.000000e+000 0.000000e+000 0.000000e+000 0.000000e+000 0.000000e+000 0.000000e+000 0.000000e+000 0.000000e+000 0.000000e+000 0.000000e+000 0.000000e+000 0.000000e+000 0.000000e+000 0.000000e+000 0.000000e+000 0.000000e+000 0.000000e+000 0.000000e+000 0.000000e+000 8.617724e-001 1.382276e-001 0.000000e+000 0.000000e+000 0.000000e+000 
0.000000e+000 0.000000e+000 0.000000e+000 0.000000e+000 0.000000e+000 0.000000e+000 0.000000e+000 0.000000e+000 0.000000e+000 0.000000e+000 0.000000e+000 0.000000e+000 0.000000e+000 0.000000e+000 0.000000e+000 0.000000e+000 0.000000e+000 0.000000e+000 0.000000e+000 0.000000e+000 0.000000e+000 7.863777e-001 2.136223e-001 0.000000e+000 0.000000e+000 
0.000000e+000 0.000000e+000 0.000000e+000 0.000000e+000 0.000000e+000 0.000000e+000 0.000000e+000 0.000000e+000 0.000000e+000 0.000000e+000 0.000000e+000 0.000000e+000 0.000000e+000 0.000000e+000 0.000000e+000 0.000000e+000 0.000000e+000 0.000000e+000 0.000000e+000 0.000000e+000 0.000000e+000 0.000000e+000 8.434335e-001 1.565665e-001 0.000000e+000 
0.000000e+000 0.000000e+000 0.000000e+000 0.000000e+000 0.000000e+000 0.000000e+000 0.000000e+000 0.000000e+000 0.000000e+000 0.000000e+000 0.000000e+000 0.000000e+000 0.000000e+000 0.000000e+000 0.000000e+000 0.000000e+000 0.000000e+000 0.000000e+000 0.000000e+000 0.000000e+000 0.000000e+000 0.000000e+000 0.000000e+000 8.620987e-001 1.379013e-001 
0.000000e+000 0.000000e+000 0.000000e+000 0.000000e+000 0.000000e+000 0.000000e+000 0.000000e+000 0.000000e+000 0.000000e+000 0.000000e+000 0.000000e+000 0.000000e+000 0.000000e+000 0.000000e+000 0.000000e+000 0.000000e+000 0.000000e+000 0.000000e+000 0.000000e+000 0.000000e+000 0.000000e+000 0.000000e+000 0.000000e+000 0.000000e+000 0.000000e+000 
