<HMMNAME> 4
<HMMSTATES> 5
<STATE> 1
<MEAN> 36
-1.295840e+001 -3.083600e+000 4.441934e-001 2.158330e+000 2.570447e+000 1.465744e+000 1.774792e+000 3.035571e+000 1.339840e+000 6.356936e-001 7.938833e-001 1.156175e+000 3.514869e-002 7.188040e-002 -2.515700e-002 -1.509421e-002 -2.788954e-002 1.081675e-002 1.928965e-002 1.443553e-002 2.097711e-003 -3.759522e-002 -3.768118e-003 -3.652387e-003 1.526304e-002 1.087308e-002 -1.169248e-002 -4.069898e-003 8.213774e-003 5.109492e-003 -7.006967e-004 -2.717927e-003 -2.536972e-003 -1.108987e-002 -7.104827e-003 -3.832642e-003 
<VARIANCE> 36
2.204317e+000 3.039298e+001 6.640811e+000 6.559212e+000 1.091691e+001 9.656885e+000 1.004419e+001 1.405447e+001 1.187604e+001 1.252618e+001 1.050809e+001 9.315056e+000 1.718966e-001 7.034288e-001 4.639229e-001 6.351490e-001 7.294613e-001 8.579496e-001 9.537993e-001 1.200916e+000 1.116411e+000 1.261201e+000 1.116823e+000 1.040429e+000 5.000000e-002 1.071231e-001 9.497416e-002 1.306482e-001 1.516531e-001 1.640264e-001 1.981281e-001 2.477124e-001 2.180885e-001 2.565722e-001 2.286215e-001 2.197751e-001 
<GCONST> 6.796002e+001
<STATE> 2
<MEAN> 36
-1.648648e+000 -3.898261e+000 -8.802211e+000 -3.750845e+000 6.714829e+000 2.350960e+000 -1.634380e+000 2.140911e+000 -7.823047e+000 -1.182782e+001 -5.618681e+000 -2.525145e+000 3.416520e-002 8.764580e-002 -3.989819e-002 2.142690e-002 -1.038377e-002 1.658826e-002 1.714332e-003 -1.148876e-001 -3.645167e-002 4.999603e-003 -4.317512e-003 -2.093509e-002 -3.331417e-002 -1.823820e-002 1.989981e-002 2.618577e-003 -2.616150e-002 -1.358735e-002 1.015042e-002 7.808724e-003 1.270453e-002 4.891875e-002 2.664698e-002 2.360939e-003 
<VARIANCE> 36
1.071055e+001 1.004606e+001 1.346994e+001 1.500776e+001 1.077146e+001 2.746201e+001 1.749587e+001 1.298370e+001 1.757135e+001 2.454200e+001 9.417047e+000 1.032495e+001 5.449214e-001 3.187355e-001 7.057102e-001 6.866717e-001 6.968212e-001 8.441556e-001 8.133242e-001 7.211677e-001 8.625245e-001 1.340927e+000 8.196117e-001 6.602435e-001 6.197447e-002 7.296448e-002 1.009947e-001 1.170035e-001 1.246124e-001 1.501124e-001 1.404181e-001 1.280503e-001 1.412462e-001 1.957782e-001 1.319001e-001 1.274334e-001 
<GCONST> 6.839407e+001
<STATE> 3
<MEAN> 36
-1.260945e+001 -5.911032e+000 5.309849e-001 1.680081e+000 4.804305e+000 1.218081e+000 1.084481e+000 3.642934e+000 -3.012703e-001 1.055486e+000 2.918916e-001 -5.623172e-002 -1.162685e-001 -1.492125e-001 8.938073e-002 3.884161e-002 2.138331e-002 -9.647833e-002 -6.276106e-002 1.067583e-001 9.724697e-002 7.232203e-002 2.420888e-003 5.802784e-002 4.353881e-003 9.542789e-003 -4.072774e-003 5.113334e-003 -1.766238e-003 -2.295485e-003 -2.088214e-003 -5.324107e-003 1.211537e-003 -1.601982e-002 2.823540e-003 1.219643e-002 
<VARIANCE> 36
7.289390e+000 6.069969e+001 1.427035e+001 1.271623e+001 2.185230e+001 2.037779e+001 1.441049e+001 2.472972e+001 1.697701e+001 1.790512e+001 1.176732e+001 1.216254e+001 3.564168e-001 1.398035e+000 1.214149e+000 1.110360e+000 1.131508e+000 1.289624e+000 1.321369e+000 1.672522e+000 1.555537e+000 1.421738e+000 1.178816e+000 1.465390e+000 6.278121e-002 1.514782e-001 2.309683e-001 2.206408e-001 1.759539e-001 2.303602e-001 2.779408e-001 2.968054e-001 3.169962e-001 2.795666e-001 2.541846e-001 3.091822e-001 
<GCONST> 8.392603e+001
<TRANSP> 5
0.000000e+000 1.000000e+000 0.000000e+000 0.000000e+000 0.000000e+000 
0.000000e+000 9.875847e-001 1.241531e-002 0.000000e+000 0.000000e+000 
0.000000e+000 0.000000e+000 9.727093e-001 2.729074e-002 0.000000e+000 
0.000000e+000 0.000000e+000 0.000000e+000 9.707572e-001 2.924279e-002 
0.000000e+000 0.000000e+000 0.000000e+000 0.000000e+000 0.000000e+000 
