<HMMNAME> 4
<HMMSTATES> 25
<STATE> 1
<MEAN> 36
-1.033608e+001 -1.672839e+001 -7.404119e+000 -1.368461e+000 8.626005e+000 5.742566e+000 -5.896894e-001 3.124214e+000 -5.353333e+000 2.377982e+000 4.800467e+000 4.471438e-001 -1.331348e-001 -1.912667e+000 1.893721e-001 -2.091945e-001 9.112919e-001 -6.606016e-002 -5.624037e-001 4.474282e-001 -4.211040e-001 3.798962e-001 4.728747e-002 -1.618872e-001 -9.554462e-002 2.413829e-002 1.867895e-001 1.072695e-001 6.414070e-002 -1.113963e-001 -3.216077e-002 5.962527e-002 7.723260e-002 3.406850e-002 -9.841217e-002 -1.754949e-002 
<VARIANCE> 36
1.212711e+001 8.712934e+001 6.560313e+001 3.081880e+001 2.552506e+001 2.446491e+001 2.938526e+001 2.416145e+001 3.252557e+001 1.732152e+001 2.098274e+001 1.708265e+001 1.082252e+000 2.447138e+000 4.039493e+000 2.824243e+000 1.512311e+000 1.964039e+000 1.618278e+000 1.316003e+000 2.094856e+000 1.775138e+000 1.749392e+000 1.396291e+000 1.690251e-001 3.396894e-001 6.481746e-001 5.377268e-001 2.321068e-001 2.750754e-001 3.071728e-001 2.126609e-001 4.760952e-001 3.112094e-001 3.054736e-001 2.504589e-001 
<GCONST> 9.954454e+001
<STATE> 2
<MEAN> 36
-1.143375e+001 -3.192478e+001 -3.806784e+000 -2.320431e+000 1.452898e+001 4.385520e+000 -4.851905e+000 7.892372e+000 -7.685544e+000 5.752150e+000 4.342638e+000 -2.866516e+000 -4.148469e-001 4.079175e-003 9.636629e-001 2.435319e-001 6.440525e-002 -4.537034e-001 -2.611862e-001 7.550933e-002 4.334704e-001 3.342077e-001 -5.781424e-001 -1.495237e-001 3.345011e-002 2.863624e-001 -9.638487e-002 2.447544e-002 -1.682245e-001 1.116332e-002 1.701975e-001 -2.841951e-002 -9.994697e-003 -1.333198e-001 3.499122e-002 1.123364e-001 
<VARIANCE> 36
1.414997e+001 2.031597e+001 4.278686e+001 1.493711e+001 1.726973e+001 1.156212e+001 2.206621e+001 2.499794e+001 3.884515e+001 2.999217e+001 2.571639e+001 1.389394e+001 2.092132e-001 1.803720e+000 6.585785e-001 9.714449e-001 1.139781e+000 1.204154e+000 1.233617e+000 1.687075e+000 2.043866e+000 1.623205e+000 1.120909e+000 9.219365e-001 5.000000e-002 1.441510e-001 1.503812e-001 1.979253e-001 1.786367e-001 1.774056e-001 2.021651e-001 2.252318e-001 4.226401e-001 3.362999e-001 1.937883e-001 1.834054e-001 
<GCONST> 8.341777e+001
<STATE> 3
<MEAN> 36
-1.739782e+001 -2.530387e+001 7.648625e+000 1.321035e+000 1.303068e+001 -2.264344e+000 -3.738521e+000 1.053710e+001 -4.108967e+000 4.458280e+000 -2.013243e+000 4.229394e-001 1.269230e-001 1.143153e+000 -1.275199e-001 5.345872e-001 -7.439685e-001 -7.965655e-002 1.569956e-001 3.288485e-002 3.510443e-001 -4.284277e-001 2.902693e-001 1.803906e-001 9.940359e-002 1.541156e-001 -1.962202e-001 -6.634769e-003 -7.722863e-002 1.379507e-001 -2.009510e-002 -1.723502e-001 3.161516e-002 7.765660e-004 6.655390e-002 -6.189277e-002 
<VARIANCE> 36
3.459299e+000 1.782098e+001 1.631228e+001 1.567021e+001 2.064650e+001 1.939376e+001 1.488227e+001 1.793219e+001 2.026340e+001 1.964247e+001 1.479100e+001 1.873160e+001 4.199661e-001 1.792088e+000 1.635065e+000 1.211815e+000 1.114054e+000 1.381293e+000 1.269381e+000 2.095994e+000 1.921505e+000 1.531344e+000 1.112378e+000 1.339601e+000 5.874431e-002 1.527238e-001 2.102459e-001 2.473119e-001 1.935364e-001 2.074020e-001 2.186371e-001 3.033545e-001 3.880285e-001 4.117455e-001 2.735966e-001 2.649138e-001 
<GCONST> 8.424869e+001
<STATE> 4
<MEAN> 36
-1.376341e+001 -1.067841e+001 1.345416e+000 3.871181e+000 5.408093e+000 1.387790e+000 -1.741085e+000 5.227684e+000 -7.185488e-002 2.533838e+000 1.161192e+000 -1.770529e-001 1.645009e-001 7.641454e-001 -1.850212e-001 -1.741745e-001 -2.841621e-001 4.868573e-002 2.402097e-001 -1.263231e-001 8.024448e-002 -1.890283e-001 -3.308783e-002 7.711139e-002 3.945566e-003 -1.300860e-001 5.633880e-002 -7.600222e-002 4.677220e-002 -2.881968e-002 -3.787495e-002 5.195627e-002 -4.980072e-002 -1.233674e-002 -3.281112e-002 -5.949097e-003 
<VARIANCE> 36
1.886290e+000 1.301631e+001 8.402250e+000 4.745105e+000 7.908171e+000 1.070586e+001 1.233807e+001 1.142297e+001 1.335860e+001 1.250600e+001 1.606926e+001 1.154347e+001 1.278216e-001 4.477079e-001 4.015245e-001 5.388823e-001 7.953218e-001 6.925984e-001 9.256489e-001 9.845907e-001 1.112091e+000 1.493016e+000 1.349658e+000 9.385127e-001 5.000000e-002 8.412834e-002 8.244562e-002 1.056627e-001 1.805645e-001 1.427493e-001 1.889109e-001 2.050396e-001 2.063829e-001 2.955497e-001 2.653139e-001 2.045162e-001 
<GCONST> 6.560673e+001
<STATE> 5
<MEAN> 36
-1.100778e+001 -6.122330e+000 -1.107900e-001 4.657615e-001 2.825258e+000 1.407571e+000 -8.953535e-001 5.103326e+000 -1.308609e+000 -1.015917e+000 -1.474906e-001 -2.392750e-001 7.117957e-001 -8.743826e-001 -3.667734e-001 -1.170210e+000 1.721892e-001 -5.864281e-001 -5.863174e-001 5.444757e-001 -6.875652e-001 -7.343508e-001 -1.927343e-001 2.823841e-003 8.015317e-002 -5.831848e-001 -2.149243e-003 -2.606573e-001 2.456872e-001 -2.065169e-001 -1.464919e-001 2.943742e-001 -1.449188e-001 -1.953070e-002 8.593434e-002 2.501992e-002 
<VARIANCE> 36
2.067724e+000 2.532601e+000 5.464872e+000 7.729147e+000 6.164172e+000 8.771734e+000 1.003146e+001 9.530094e+000 1.252251e+001 9.080870e+000 8.887594e+000 1.119346e+001 1.831210e-001 2.031894e+000 7.171632e-001 1.951549e+000 1.254323e+000 1.290167e+000 1.321227e+000 1.887752e+000 1.718139e+000 1.181999e+000 1.200869e+000 1.635213e+000 5.000000e-002 1.343214e-001 1.390980e-001 2.516753e-001 1.860234e-001 2.336508e-001 2.426417e-001 3.447747e-001 2.659536e-001 2.547204e-001 2.172088e-001 2.541797e-001 
<GCONST> 7.201194e+001
<STATE> 6
<MEAN> 36
-7.540260e+000 -1.495561e+001 -9.552547e-001 -6.456290e+000 5.736646e+000 -2.588722e+000 -3.959603e+000 1.084500e+001 -4.801527e+000 -4.287451e+000 -3.477182e-001 -2.113311e-001 5.109513e-001 -1.092095e-001 5.376329e-001 -2.170436e-001 3.694889e-001 3.626661e-001 2.103061e-001 9.536318e-001 -5.114679e-001 -3.357644e-001 4.206447e-002 -5.704798e-001 6.100698e-002 1.048350e+000 5.649014e-002 7.286463e-001 -5.391700e-002 6.075094e-001 2.874963e-001 -3.071484e-001 3.195733e-001 3.648084e-002 -1.060240e-001 -1.936051e-001 
<VARIANCE> 36
8.297370e+000 1.480483e+001 2.093407e+001 2.857619e+001 2.298722e+001 2.013974e+001 1.818725e+001 3.110544e+001 6.142979e+001 1.753961e+001 3.262140e+001 2.495618e+001 5.923934e-001 5.835012e+000 1.180614e+000 4.334914e+000 1.501318e+000 3.009322e+000 1.728904e+000 2.308160e+000 3.309681e+000 1.985597e+000 2.172040e+000 1.812338e+000 2.047768e-001 3.714694e-001 3.689270e-001 5.374774e-001 3.933065e-001 3.918814e-001 3.415413e-001 5.341445e-001 6.439486e-001 4.872243e-001 5.065434e-001 4.450967e-001 
<GCONST> 1.021324e+002
<STATE> 7
<MEAN> 36
-4.938109e+000 -6.637417e+000 1.140910e+000 -1.776844e+000 7.526042e+000 3.304636e+000 -1.440447e+000 9.642308e+000 -2.898257e+000 -2.777648e+000 -1.075305e+000 -3.467787e+000 1.869281e+000 1.037446e+000 -6.585301e-001 2.734740e-001 6.984977e-001 5.830266e-001 -6.801579e-002 -1.251767e-001 -4.856719e-001 -1.253694e+000 -9.310034e-001 -1.101479e+000 3.175386e-001 -5.066867e-001 -4.528598e-001 -5.295717e-001 1.130588e-001 -5.015118e-001 -3.409682e-001 -6.638888e-002 -3.469418e-001 -3.838155e-001 -3.806181e-001 -8.722543e-002 
<VARIANCE> 36
1.925296e+001 1.273726e+001 1.781387e+001 3.498991e+001 1.518323e+001 1.768955e+001 1.786070e+001 2.485192e+001 4.827078e+001 3.157989e+001 2.381337e+001 2.128427e+001 1.316519e+000 1.707347e+000 1.660401e+000 2.056852e+000 1.697511e+000 1.855149e+000 1.511255e+000 2.086588e+000 2.186520e+000 3.235749e+000 2.316525e+000 2.395685e+000 2.353954e-001 3.059356e-001 3.117452e-001 3.978693e-001 1.843944e-001 2.157049e-001 1.839037e-001 2.970040e-001 2.592335e-001 3.093264e-001 4.835114e-001 4.128704e-001 
<GCONST> 9.636652e+001
<STATE> 8
<MEAN> 36
1.473459e+000 -9.695522e+000 -4.188630e+000 -5.919112e+000 9.731521e+000 3.214700e-001 -4.256722e+000 1.144901e+001 -9.493498e+000 -1.197763e+001 -5.663138e+000 -6.525034e+000 1.695297e+000 -4.501677e-001 -1.806405e+000 -1.023044e+000 8.282036e-001 -9.393679e-001 -1.077884e+000 3.318146e-002 -1.175290e+000 -1.489175e+000 -1.564062e+000 -7.542482e-001 -5.515332e-001 -8.809585e-002 1.805881e-002 -9.119655e-003 -3.061894e-001 -2.578119e-001 3.404797e-003 -4.396611e-002 4.000793e-002 6.557662e-001 3.517399e-001 2.038643e-001 
<VARIANCE> 36
6.013099e+000 1.245064e+001 1.534426e+001 1.862371e+001 8.395752e+000 2.149633e+001 2.573444e+001 2.078566e+001 3.423946e+001 3.633687e+001 1.601259e+001 1.747957e+001 8.177103e-001 7.610206e-001 8.518041e-001 1.041026e+000 9.139914e-001 7.703986e-001 1.334989e+000 1.213964e+000 1.128580e+000 1.938300e+000 1.350914e+000 8.484896e-001 7.113810e-002 2.279881e-001 2.073566e-001 2.134429e-001 2.290999e-001 2.339309e-001 2.738831e-001 2.941298e-001 2.228273e-001 2.716518e-001 2.158822e-001 2.517638e-001 
<GCONST> 8.242826e+001
<STATE> 9
<MEAN> 36
4.007356e+000 -9.724132e+000 -8.438525e+000 -8.663176e+000 9.752942e+000 -9.330883e-001 -8.660509e+000 1.091840e+001 -9.878962e+000 -1.382776e+001 -6.900023e+000 -6.781209e+000 3.644447e-001 1.523083e-001 -7.133557e-001 -4.416284e-001 -1.359509e-001 -4.599897e-001 -5.182674e-001 -4.827170e-001 -4.312082e-001 6.041493e-002 -1.214231e-001 -2.677195e-001 -1.600993e-001 3.766943e-002 1.940822e-001 1.396043e-001 -1.135041e-001 7.470741e-002 8.552176e-002 -6.684008e-002 1.050751e-001 7.780409e-002 1.618332e-001 1.398610e-001 
<VARIANCE> 36
2.882811e+000 7.626430e+000 1.228612e+001 1.954362e+001 8.405144e+000 2.380551e+001 2.426739e+001 2.062380e+001 2.414392e+001 2.670493e+001 1.297452e+001 9.420910e+000 1.103186e-001 4.485110e-001 5.935011e-001 7.905300e-001 5.909214e-001 5.587080e-001 9.237794e-001 6.841388e-001 9.685284e-001 1.014947e+000 7.969832e-001 5.436419e-001 5.000000e-002 1.204123e-001 1.068751e-001 1.955114e-001 1.518838e-001 1.305281e-001 1.833459e-001 1.297110e-001 1.745891e-001 2.926834e-001 1.776676e-001 1.223163e-001 
<GCONST> 6.789725e+001
<STATE> 10
<MEAN> 36
1.439661e+000 -1.007758e+001 -9.984077e+000 -9.082027e+000 1.149868e+001 -4.637377e+000 -6.984703e+000 9.073968e+000 -1.920125e+001 -1.192542e+001 -5.219617e+000 -8.028220e+000 -7.390192e-003 -6.172465e-002 -7.788978e-002 -2.827877e-002 3.985275e-002 -2.277733e-002 -7.355415e-002 2.924141e-002 4.105492e-002 -1.760258e-001 -2.479415e-003 2.041510e-001 -2.477656e-002 6.430601e-004 5.505021e-002 1.741266e-002 -1.976219e-002 5.243277e-002 1.707103e-002 1.785896e-002 8.239105e-002 -3.828120e-002 -7.508606e-003 1.833638e-002 
<VARIANCE> 36
2.333003e+000 4.794621e+000 1.692005e+001 2.500310e+001 1.677315e+001 1.364241e+001 4.935898e+001 3.264184e+001 3.501019e+001 2.935601e+001 1.194621e+001 1.166420e+001 5.476256e-002 1.869984e-001 2.459998e-001 3.801319e-001 4.907636e-001 4.990383e-001 6.208282e-001 6.847912e-001 7.025953e-001 5.980585e-001 7.297029e-001 5.214930e-001 5.000000e-002 5.000000e-002 6.070530e-002 7.760823e-002 1.048103e-001 9.267083e-002 1.230065e-001 1.299018e-001 1.248453e-001 1.005589e-001 1.423021e-001 1.030495e-001 
<GCONST> 5.954885e+001
<STATE> 11
<MEAN> 36
5.543001e+000 -8.795837e+000 -1.343358e+001 -9.146073e+000 7.970536e+000 -2.799383e+000 -1.140255e+001 6.651955e+000 -1.181988e+001 -1.800131e+001 -6.478792e+000 -4.765102e+000 -4.765087e-002 9.288019e-002 -7.410643e-002 6.136189e-002 3.120523e-002 1.282591e-001 5.540346e-002 -6.816690e-002 -2.455242e-002 -1.334033e-001 -2.855225e-002 1.973047e-002 -1.473077e-002 1.273725e-002 1.381099e-002 -8.637079e-003 2.821416e-002 5.252633e-002 4.008204e-002 5.046418e-003 -6.178936e-003 4.525263e-002 3.549378e-003 -4.528682e-002 
<VARIANCE> 36
2.887320e+000 6.142213e+000 1.047395e+001 1.438693e+001 1.023431e+001 1.682624e+001 2.259003e+001 1.860897e+001 2.082129e+001 1.888217e+001 1.341182e+001 7.780910e+000 5.000000e-002 8.847591e-002 1.736997e-001 2.901709e-001 3.693659e-001 3.833561e-001 5.817133e-001 4.975152e-001 3.853328e-001 4.968762e-001 4.467957e-001 3.253676e-001 5.000000e-002 5.000000e-002 5.000000e-002 5.458162e-002 5.266924e-002 7.881908e-002 9.878862e-002 9.409084e-002 6.677451e-002 1.005356e-001 8.810076e-002 6.768312e-002 
<GCONST> 4.849775e+001
<STATE> 12
<MEAN> 36
1.753728e+000 -7.104908e+000 -1.027092e+001 -1.060072e+001 1.276778e+001 2.556364e+000 -8.208337e+000 7.829608e+000 -1.265089e+001 -1.504493e+001 -7.143439e+000 -6.838049e+000 -1.293636e-001 5.481815e-001 -6.652883e-002 -2.831925e-001 1.955976e-001 1.286709e+000 4.523918e-001 -8.542868e-001 4.151493e-001 9.552744e-001 -7.429817e-002 -8.271008e-001 -7.095900e-002 3.926810e-002 -1.355903e-002 6.439416e-002 -6.649371e-002 8.711189e-002 1.161007e-001 -7.825566e-002 1.107619e-001 1.814690e-001 5.306541e-002 9.838264e-003 
<VARIANCE> 36
6.896570e+000 1.189811e+001 2.420120e+001 2.185075e+001 1.387740e+001 2.026154e+001 2.480520e+001 2.588451e+001 2.162418e+001 2.550730e+001 1.443040e+001 1.556381e+001 7.640178e-002 2.183924e-001 2.976115e-001 3.486564e-001 6.581100e-001 8.457820e-001 5.956664e-001 7.491001e-001 8.250452e-001 9.416706e-001 6.791558e-001 5.605752e-001 5.000000e-002 5.000000e-002 5.000000e-002 1.029523e-001 1.740842e-001 1.471503e-001 1.314310e-001 1.757396e-001 1.411121e-001 1.444190e-001 1.347573e-001 1.276065e-001 
<GCONST> 6.505304e+001
<STATE> 13
<MEAN> 36
1.483579e+000 -4.896882e-001 -2.615672e+000 -3.349533e+000 5.419538e+000 8.677704e+000 4.046628e+000 4.986291e+000 -4.073051e+000 -4.661732e+000 -7.518495e+000 -1.033335e+001 -1.461425e-001 1.690391e-001 -1.079711e-001 -7.791388e-003 4.610793e-002 4.125458e-001 3.448450e-001 -1.169407e-001 1.507371e-002 8.086352e-003 1.472987e-001 3.740359e-002 -4.181417e-002 -4.608547e-002 -1.475975e-002 7.758803e-002 7.629483e-003 -6.433770e-002 -2.300509e-002 5.872730e-003 -1.774154e-004 -9.747374e-003 7.301360e-002 1.294844e-001 
<VARIANCE> 36
3.008560e+000 1.514438e+001 2.752910e+001 2.454162e+001 2.212126e+001 1.949925e+001 4.021650e+001 2.039805e+001 2.754522e+001 2.527707e+001 1.302270e+001 2.668434e+001 1.468311e-001 3.085043e-001 5.930676e-001 7.728487e-001 9.088200e-001 1.162651e+000 1.160953e+000 1.039554e+000 1.397298e+000 1.159516e+000 1.071663e+000 1.216835e+000 5.000000e-002 5.535898e-002 1.320392e-001 1.680061e-001 2.030627e-001 2.615708e-001 2.606587e-001 1.995030e-001 2.371218e-001 1.609429e-001 2.158493e-001 2.844083e-001 
<GCONST> 7.714171e+001
<STATE> 14
<MEAN> 36
-1.049751e+000 -3.544196e+000 -9.519782e+000 -4.879032e+000 1.025713e+001 8.981541e+000 -2.303400e-001 3.411739e+000 -6.776522e+000 -8.280397e+000 -5.384591e+000 -7.609142e+000 -9.886030e-001 -8.990067e-002 8.117110e-002 9.098475e-001 -4.369174e-001 -1.489776e-001 3.056345e-001 -4.587342e-001 6.309734e-001 8.839710e-001 6.814028e-001 1.028255e+000 5.372506e-002 -8.842302e-002 -1.129458e-002 -1.072710e-001 4.713310e-002 -2.083386e-001 -1.828932e-001 1.032550e-001 3.436756e-002 1.197120e-002 -2.920472e-003 5.899739e-002 
<VARIANCE> 36
9.214801e+000 1.132490e+001 2.419993e+001 2.306971e+001 1.571856e+001 2.469762e+001 3.591119e+001 3.163476e+001 2.015610e+001 2.252962e+001 2.044222e+001 1.705535e+001 6.073105e-001 8.617587e-001 1.171178e+000 1.411429e+000 2.408174e+000 1.649492e+000 2.494106e+000 2.266433e+000 2.357731e+000 1.534118e+000 1.454421e+000 1.339755e+000 1.713604e-001 1.634238e-001 1.703283e-001 3.221361e-001 5.022635e-001 3.803953e-001 3.302296e-001 4.188328e-001 3.498798e-001 2.875910e-001 2.658937e-001 3.082525e-001 
<GCONST> 9.211535e+001
<STATE> 15
<MEAN> 36
-3.483641e+000 -4.828276e+000 -1.038769e+001 -4.012876e+000 1.109427e+001 1.185628e+001 1.369579e+000 5.897856e-001 -3.865364e+000 -9.420256e-001 -4.898825e-001 -4.391346e+000 3.204174e-001 3.196924e-001 3.866730e-002 -3.757262e-001 3.928023e-001 6.622635e-001 5.602124e-001 4.239457e-001 4.016130e-001 4.418995e-001 5.721973e-002 -4.864707e-001 3.731114e-001 1.816362e-001 -7.925734e-003 -2.629849e-001 1.124250e-001 2.456066e-001 1.129480e-001 1.147121e-001 -3.356162e-001 -3.810048e-001 -2.341767e-001 -3.108998e-001 
<VARIANCE> 36
6.421362e+000 1.913813e+001 2.188520e+001 2.200313e+001 2.344296e+001 4.281362e+001 3.261718e+001 2.375460e+001 2.215728e+001 2.104487e+001 2.048501e+001 1.815708e+001 1.061100e+000 3.558708e+000 3.631803e+000 2.383150e+000 2.758902e+000 1.525843e+000 2.156837e+000 1.834569e+000 2.260967e+000 1.914660e+000 1.006893e+000 1.808995e+000 2.303855e-001 6.198410e-001 7.270393e-001 5.730768e-001 6.956471e-001 3.420893e-001 3.703544e-001 3.789640e-001 5.110793e-001 3.664065e-001 2.085196e-001 3.733007e-001 
<GCONST> 1.006948e+002
<STATE> 16
<MEAN> 36
-2.616632e-001 -2.246201e+000 -1.162172e+001 -8.378173e+000 1.138694e+001 1.227350e+001 1.701630e+000 3.852489e+000 -5.529530e+000 -4.802682e+000 -4.360267e+000 -9.264452e+000 8.712849e-001 8.043226e-002 -7.018419e-001 -8.910392e-001 7.056699e-001 7.423151e-001 -2.056904e-001 -8.061197e-002 -5.333192e-001 -4.405543e-001 -5.819922e-001 -5.499697e-001 -1.115917e-001 -1.602026e-001 -5.723568e-002 1.071639e-001 1.084885e-003 -1.611338e-001 -1.852626e-001 -9.915448e-002 3.708403e-002 -1.812236e-002 -5.842143e-002 9.107623e-002 
<VARIANCE> 36
8.886401e+000 7.455962e+000 1.650906e+001 1.723061e+001 1.473239e+001 3.719014e+001 3.078979e+001 1.996132e+001 1.305650e+001 1.394742e+001 9.907164e+000 1.786123e+001 3.665028e-001 3.374529e-001 3.863210e-001 8.651697e-001 8.244584e-001 9.122761e-001 9.407929e-001 1.117754e+000 1.413779e+000 1.034794e+000 9.677634e-001 1.408176e+000 6.977487e-002 6.935401e-002 1.278270e-001 1.409779e-001 1.553963e-001 1.559249e-001 1.935095e-001 1.811967e-001 2.192881e-001 1.602935e-001 1.032441e-001 2.592159e-001 
<GCONST> 7.299780e+001
<STATE> 17
<MEAN> 36
1.407527e+000 -2.909202e+000 -1.484650e+001 -8.714650e+000 1.382121e+001 1.117604e+001 -1.709127e+000 1.320625e+000 -7.626299e+000 -7.912880e+000 -8.253291e+000 -8.780971e+000 1.560984e-002 -5.621350e-002 9.225147e-002 2.403120e-001 9.074482e-002 -2.477820e-001 -1.384367e-001 1.820515e-001 -1.621562e-001 -4.610988e-001 -2.234815e-001 1.488767e-001 -5.706193e-002 9.914249e-003 7.381404e-002 8.808969e-002 -7.244987e-002 -6.470280e-002 4.288492e-002 6.413954e-002 2.384089e-002 -4.046132e-002 2.524454e-002 4.464994e-002 
<VARIANCE> 36
6.595835e+000 3.801212e+000 7.266149e+000 1.800109e+001 1.041009e+001 1.439492e+001 2.036025e+001 1.163194e+001 2.057990e+001 1.228430e+001 1.033182e+001 1.125383e+001 6.220397e-002 1.341965e-001 2.307748e-001 2.811939e-001 4.472769e-001 4.610712e-001 7.990994e-001 5.620187e-001 6.119394e-001 5.741496e-001 6.144825e-001 4.708204e-001 5.000000e-002 5.000000e-002 5.000000e-002 6.360662e-002 1.009000e-001 8.259210e-002 1.497207e-001 1.218807e-001 1.380846e-001 1.067150e-001 1.152991e-001 8.421007e-002 
<GCONST> 5.345267e+001
<STATE> 18
<MEAN> 36
2.356005e-001 9.820546e-001 -7.139158e+000 -3.410222e+000 1.384214e+001 1.813903e+001 5.144841e+000 3.454787e+000 -5.552441e+000 -9.879563e+000 -7.941700e+000 -9.591137e+000 -2.367249e-001 1.701275e-002 1.199895e-001 3.022535e-001 -2.102155e-002 -1.339562e-001 1.638935e-002 1.148108e-001 -2.290184e-002 -3.549714e-001 -8.960473e-002 3.490778e-001 -1.390606e-002 -2.943704e-002 -2.635670e-002 1.648299e-002 -9.995404e-003 -2.813020e-002 1.569998e-002 -3.699744e-002 -1.336688e-002 3.168290e-002 3.223892e-002 6.618213e-002 
<VARIANCE> 36
4.884893e+000 7.958559e+000 1.489349e+001 1.393006e+001 1.523798e+001 4.025526e+001 4.998607e+001 3.211618e+001 3.464941e+001 1.741489e+001 1.237086e+001 2.023869e+001 1.042594e-001 1.911836e-001 5.296607e-001 5.914181e-001 4.864757e-001 1.011766e+000 8.929957e-001 8.517744e-001 1.427217e+000 9.248382e-001 1.068258e+000 1.127193e+000 5.000000e-002 5.000000e-002 9.554016e-002 1.082867e-001 9.060210e-002 1.985745e-001 1.650896e-001 1.638090e-001 2.890334e-001 1.376275e-001 2.331750e-001 2.185164e-001 
<GCONST> 7.089725e+001
<STATE> 19
<MEAN> 36
-3.591450e+000 -6.741403e+000 -1.084889e+001 -9.430688e+000 2.012472e+001 9.529676e+000 -7.102960e+000 8.642097e+000 -7.536777e+000 -8.339568e+000 -6.531734e+000 -4.856194e+000 -2.030585e-001 -1.602921e-001 3.098319e-002 4.401698e-001 -1.149721e-001 -1.808575e-001 2.793130e-001 -1.752060e-002 -1.741406e-002 -1.433078e-001 6.247889e-002 3.693626e-001 -8.819743e-003 1.374584e-002 7.366314e-003 1.309703e-002 -8.499252e-002 2.363507e-002 5.622015e-002 -6.012300e-002 -2.344173e-003 1.952958e-002 3.064670e-002 -9.832785e-004 
<VARIANCE> 36
1.202414e+001 9.861128e+000 6.212923e+000 3.494059e+001 2.599115e+001 2.700687e+001 4.625628e+001 2.234334e+001 2.133873e+001 1.972572e+001 1.768750e+001 1.819747e+001 9.937780e-002 1.580313e-001 2.483591e-001 6.793794e-001 1.000183e+000 1.034658e+000 8.725306e-001 8.379568e-001 9.443800e-001 1.164573e+000 1.094971e+000 9.328674e-001 5.000000e-002 5.000000e-002 5.000000e-002 1.257517e-001 1.185655e-001 1.905990e-001 9.977169e-002 1.175808e-001 1.697121e-001 2.069355e-001 1.804483e-001 1.341030e-001 
<GCONST> 6.916827e+001
<STATE> 20
<MEAN> 36
2.941181e+000 -4.708584e+000 -1.303631e+001 7.741179e-001 1.195613e+001 2.541133e+000 -8.669044e-001 5.090671e+000 -1.168948e+001 -1.779797e+001 -7.631550e+000 -1.278198e+000 -1.785596e-001 9.021547e-002 1.724186e-001 2.508428e-001 -2.234078e-001 7.457745e-002 3.772866e-001 -1.648484e-001 -1.008370e-001 3.833941e-002 1.325046e-001 1.869408e-001 -3.717340e-002 5.237730e-002 4.837703e-002 -4.499074e-002 7.524865e-003 7.839275e-002 1.732227e-003 -7.046891e-002 2.260895e-002 9.892220e-002 4.645828e-002 -3.395681e-002 
<VARIANCE> 36
7.822862e+000 1.010906e+001 8.189611e+000 1.410551e+001 1.144481e+001 3.787579e+001 2.198258e+001 1.704380e+001 2.148348e+001 1.254968e+001 1.575899e+001 9.374132e+000 9.519043e-002 4.224176e-001 3.949656e-001 6.562817e-001 8.238394e-001 1.321294e+000 7.893629e-001 8.620086e-001 7.500576e-001 7.925160e-001 8.304122e-001 7.478712e-001 5.000000e-002 5.718254e-002 7.350906e-002 1.065582e-001 1.288318e-001 2.126643e-001 1.346707e-001 1.612743e-001 1.389179e-001 1.372674e-001 1.694385e-001 1.541512e-001 
<GCONST> 6.627497e+001
<STATE> 21
<MEAN> 36
-4.174047e+000 9.749256e-003 -6.087839e+000 1.223085e+000 9.464914e+000 1.089830e+001 5.427091e+000 1.775130e-001 -8.886624e+000 -1.045655e+001 -5.536096e+000 -2.331902e+000 -6.320858e-001 8.453025e-002 4.432972e-001 5.615534e-002 -4.025927e-001 -3.412804e-002 9.371003e-002 -6.905327e-002 5.089371e-001 7.918386e-001 4.869928e-001 1.959818e-001 -1.418875e-002 -6.048023e-002 -6.273427e-002 -3.733732e-002 -4.154816e-002 -1.265859e-001 -6.617445e-002 1.426699e-001 1.273926e-001 5.760430e-002 1.452289e-002 -8.464613e-003 
<VARIANCE> 36
6.075179e+000 7.744899e+000 1.090076e+001 1.141048e+001 9.846468e+000 2.595747e+001 1.949231e+001 2.288670e+001 2.354646e+001 1.651264e+001 1.645318e+001 1.723035e+001 7.275696e-002 4.758538e-001 4.570671e-001 6.241708e-001 7.048471e-001 8.754539e-001 1.104808e+000 1.405447e+000 1.386064e+000 1.083822e+000 1.476497e+000 1.334932e+000 5.000000e-002 7.263618e-002 6.428857e-002 1.291243e-001 1.295475e-001 1.735649e-001 2.554098e-001 2.418267e-001 2.492642e-001 2.199102e-001 2.815827e-001 2.633852e-001 
<GCONST> 7.202389e+001
<STATE> 22
<MEAN> 36
-8.740673e+000 -2.121058e+000 -6.457904e+000 -7.628016e-001 6.786608e+000 9.602778e+000 5.521217e+000 2.877787e+000 -3.232372e+000 -4.303236e+000 -1.996029e+000 -4.299997e-001 -3.824330e-001 1.748755e-001 4.062904e-001 1.660672e-001 -6.038239e-001 -7.639658e-001 -4.042280e-001 -1.180509e-001 3.514139e-001 4.366179e-001 2.074306e-001 1.198418e-001 3.448209e-002 3.901030e-002 8.041834e-002 6.656601e-002 3.988376e-002 -4.847626e-002 -8.066521e-002 -3.748830e-002 -5.956168e-002 -7.984027e-002 -9.544761e-002 -5.628005e-002 
<VARIANCE> 36
2.557534e+000 5.383523e+000 7.383186e+000 6.958469e+000 1.034637e+001 1.813843e+001 1.844346e+001 1.191743e+001 1.314429e+001 1.500559e+001 1.418946e+001 1.202899e+001 1.021111e-001 3.102549e-001 6.322262e-001 4.872970e-001 5.457470e-001 1.058258e+000 1.416528e+000 1.105143e+000 1.490289e+000 1.364231e+000 1.046313e+000 1.092309e+000 5.000000e-002 5.067700e-002 1.074600e-001 7.326380e-002 1.217946e-001 2.263480e-001 2.940717e-001 2.221252e-001 2.743741e-001 2.751821e-001 2.291049e-001 2.208124e-001 
<GCONST> 6.718014e+001
<STATE> 23
<MEAN> 36
-1.123209e+001 -2.070387e-001 -1.808071e+000 1.775592e+000 2.748755e+000 4.294906e+000 2.711484e+000 2.019360e+000 -1.234565e+000 -1.533804e+000 -8.663042e-001 1.920640e-001 -1.716195e-001 3.140070e-002 1.901350e-001 7.777697e-002 -1.671440e-001 -1.811249e-001 -1.365207e-001 -4.782938e-002 1.759724e-001 2.342829e-001 8.844956e-002 5.824547e-002 2.356924e-002 -2.154389e-002 -5.241761e-002 -1.833592e-002 1.776267e-002 6.536162e-002 5.216248e-002 5.650625e-003 -2.457876e-002 -3.912186e-002 2.204405e-002 3.903735e-002 
<VARIANCE> 36
1.980098e+000 1.905112e+000 3.565880e+000 3.945976e+000 5.823090e+000 8.174785e+000 9.064030e+000 9.273511e+000 1.103456e+001 1.324075e+001 9.053310e+000 8.735422e+000 1.028996e-001 1.613864e-001 2.960012e-001 4.859550e-001 6.638368e-001 8.153008e-001 1.067844e+000 1.054951e+000 1.041406e+000 1.323920e+000 1.021068e+000 9.089812e-001 5.000000e-002 5.000000e-002 6.011467e-002 9.769325e-002 1.317338e-001 1.657590e-001 2.515039e-001 2.283266e-001 2.003459e-001 2.816387e-001 2.115795e-001 1.944235e-001 
<GCONST> 5.762333e+001
<TRANSP> 25
0.000000e+000 1.000000e+000 0.000000e+000 0.000000e+000 0.000000e+000 0.000000e+000 0.000000e+000 0.000000e+000 0.000000e+000 0.000000e+000 0.000000e+000 0.000000e+000 0.000000e+000 0.000000e+000 0.000000e+000 0.000000e+000 0.000000e+000 0.000000e+000 0.000000e+000 0.000000e+000 0.000000e+000 0.000000e+000 0.000000e+000 0.000000e+000 0.000000e+000 
0.000000e+000 7.724739e-001 2.275262e-001 0.000000e+000 0.000000e+000 0.000000e+000 0.000000e+000 0.000000e+000 0.000000e+000 0.000000e+000 0.000000e+000 0.000000e+000 0.000000e+000 0.000000e+000 0.000000e+000 0.000000e+000 0.000000e+000 0.000000e+000 0.000000e+000 0.000000e+000 0.000000e+000 0.000000e+000 0.000000e+000 0.000000e+000 0.000000e+000 
0.000000e+000 0.000000e+000 8.415438e-001 1.584563e-001 0.000000e+000 0.000000e+000 0.000000e+000 0.000000e+000 0.000000e+000 0.000000e+000 0.000000e+000 0.000000e+000 0.000000e+000 0.000000e+000 0.000000e+000 0.000000e+000 0.000000e+000 0.000000e+000 0.000000e+000 0.000000e+000 0.000000e+000 0.000000e+000 0.000000e+000 0.000000e+000 0.000000e+000 
0.000000e+000 0.000000e+000 0.000000e+000 8.670386e-001 1.329614e-001 0.000000e+000 0.000000e+000 0.000000e+000 0.000000e+000 0.000000e+000 0.000000e+000 0.000000e+000 0.000000e+000 0.000000e+000 0.000000e+000 0.000000e+000 0.000000e+000 0.000000e+000 0.000000e+000 0.000000e+000 0.000000e+000 0.000000e+000 0.000000e+000 0.000000e+000 0.000000e+000 
0.000000e+000 0.000000e+000 0.000000e+000 0.000000e+000 9.318127e-001 6.818736e-002 0.000000e+000 0.000000e+000 0.000000e+000 0.000000e+000 0.000000e+000 0.000000e+000 0.000000e+000 0.000000e+000 0.000000e+000 0.000000e+000 0.000000e+000 0.000000e+000 0.000000e+000 0.000000e+000 0.000000e+000 0.000000e+000 0.000000e+000 0.000000e+000 0.000000e+000 
0.000000e+000 0.000000e+000 0.000000e+000 0.000000e+000 0.000000e+000 7.773637e-001 2.226362e-001 0.000000e+000 0.000000e+000 0.000000e+000 0.000000e+000 0.000000e+000 0.000000e+000 0.000000e+000 0.000000e+000 0.000000e+000 0.000000e+000 0.000000e+000 0.000000e+000 0.000000e+000 0.000000e+000 0.000000e+000 0.000000e+000 0.000000e+000 0.000000e+000 
0.000000e+000 0.000000e+000 0.000000e+000 0.000000e+000 0.000000e+000 0.000000e+000 7.415960e-001 2.584040e-001 0.000000e+000 0.000000e+000 0.000000e+000 0.000000e+000 0.000000e+000 0.000000e+000 0.000000e+000 0.000000e+000 0.000000e+000 0.000000e+000 0.000000e+000 0.000000e+000 0.000000e+000 0.000000e+000 0.000000e+000 0.000000e+000 0.000000e+000 
0.000000e+000 0.000000e+000 0.000000e+000 0.000000e+000 0.000000e+000 0.000000e+000 0.000000e+000 6.803312e-001 3.196689e-001 0.000000e+000 0.000000e+000 0.000000e+000 0.000000e+000 0.000000e+000 0.000000e+000 0.000000e+000 0.000000e+000 0.000000e+000 0.000000e+000 0.000000e+000 0.000000e+000 0.000000e+000 0.000000e+000 0.000000e+000 0.000000e+000 
0.000000e+000 0.000000e+000 0.000000e+000 0.000000e+000 0.000000e+000 0.000000e+000 0.000000e+000 0.000000e+000 5.391232e-001 4.608768e-001 0.000000e+000 0.000000e+000 0.000000e+000 0.000000e+000 0.000000e+000 0.000000e+000 0.000000e+000 0.000000e+000 0.000000e+000 0.000000e+000 0.000000e+000 0.000000e+000 0.000000e+000 0.000000e+000 0.000000e+000 
0.000000e+000 0.000000e+000 0.000000e+000 0.000000e+000 0.000000e+000 0.000000e+000 0.000000e+000 0.000000e+000 0.000000e+000 7.363630e-001 2.636370e-001 0.000000e+000 0.000000e+000 0.000000e+000 0.000000e+000 0.000000e+000 0.000000e+000 0.000000e+000 0.000000e+000 0.000000e+000 0.000000e+000 0.000000e+000 0.000000e+000 0.000000e+000 0.000000e+000 
0.000000e+000 0.000000e+000 0.000000e+000 0.000000e+000 0.000000e+000 0.000000e+000 0.000000e+000 0.000000e+000 0.000000e+000 0.000000e+000 8.766467e-001 1.233533e-001 0.000000e+000 0.000000e+000 0.000000e+000 0.000000e+000 0.000000e+000 0.000000e+000 0.000000e+000 0.000000e+000 0.000000e+000 0.000000e+000 0.000000e+000 0.000000e+000 0.000000e+000 
0.000000e+000 0.000000e+000 0.000000e+000 0.000000e+000 0.000000e+000 0.000000e+000 0.000000e+000 0.000000e+000 0.000000e+000 0.000000e+000 0.000000e+000 9.340422e-001 6.595788e-002 0.000000e+000 0.000000e+000 0.000000e+000 0.000000e+000 0.000000e+000 0.000000e+000 0.000000e+000 0.000000e+000 0.000000e+000 0.000000e+000 0.000000e+000 0.000000e+000 
0.000000e+000 0.000000e+000 0.000000e+000 0.000000e+000 0.000000e+000 0.000000e+000 0.000000e+000 0.000000e+000 0.000000e+000 0.000000e+000 0.000000e+000 0.000000e+000 7.958714e-001 2.041285e-001 0.000000e+000 0.000000e+000 0.000000e+000 0.000000e+000 0.000000e+000 0.000000e+000 0.000000e+000 0.000000e+000 0.000000e+000 0.000000e+000 0.000000e+000 
0.000000e+000 0.000000e+000 0.000000e+000 0.000000e+000 0.000000e+000 0.000000e+000 0.000000e+000 0.000000e+000 0.000000e+000 0.000000e+000 0.000000e+000 0.000000e+000 0.000000e+000 8.574440e-001 1.425560e-001 0.000000e+000 0.000000e+000 0.000000e+000 0.000000e+000 0.000000e+000 0.000000e+000 0.000000e+000 0.000000e+000 0.000000e+000 0.000000e+000 
0.000000e+000 0.000000e+000 0.000000e+000 0.000000e+000 0.000000e+000 0.000000e+000 0.000000e+000 0.000000e+000 0.000000e+000 0.000000e+000 0.000000e+000 0.000000e+000 0.000000e+000 0.000000e+000 7.708839e-001 2.291161e-001 0.000000e+000 0.000000e+000 0.000000e+000 0.000000e+000 0.000000e+000 0.000000e+000 0.000000e+000 0.000000e+000 0.000000e+000 
0.000000e+000 0.000000e+000 0.000000e+000 0.000000e+000 0.000000e+000 0.000000e+000 0.000000e+000 0.000000e+000 0.000000e+000 0.000000e+000 0.000000e+000 0.000000e+000 0.000000e+000 0.000000e+000 0.000000e+000 7.286822e-001 2.713178e-001 0.000000e+000 0.000000e+000 0.000000e+000 0.000000e+000 0.000000e+000 0.000000e+000 0.000000e+000 0.000000e+000 
0.000000e+000 0.000000e+000 0.000000e+000 0.000000e+000 0.000000e+000 0.000000e+000 0.000000e+000 0.000000e+000 0.000000e+000 0.000000e+000 0.000000e+000 0.000000e+000 0.000000e+000 0.000000e+000 0.000000e+000 0.000000e+000 7.328239e-001 2.671760e-001 0.000000e+000 0.000000e+000 0.000000e+000 0.000000e+000 0.000000e+000 0.000000e+000 0.000000e+000 
0.000000e+000 0.000000e+000 0.000000e+000 0.000000e+000 0.000000e+000 0.000000e+000 0.000000e+000 0.000000e+000 0.000000e+000 0.000000e+000 0.000000e+000 0.000000e+000 0.000000e+000 0.000000e+000 0.000000e+000 0.000000e+000 0.000000e+000 8.763494e-001 1.236509e-001 0.000000e+000 0.000000e+000 0.000000e+000 0.000000e+000 0.000000e+000 0.000000e+000 
0.000000e+000 0.000000e+000 0.000000e+000 0.000000e+000 0.000000e+000 0.000000e+000 0.000000e+000 0.000000e+000 0.000000e+000 0.000000e+000 0.000000e+000 0.000000e+000 0.000000e+000 0.000000e+000 0.000000e+000 0.000000e+000 0.000000e+000 0.000000e+000 8.454626e-001 1.545374e-001 0.000000e+000 0.000000e+000 0.000000e+000 0.000000e+000 0.000000e+000 
0.000000e+000 0.000000e+000 0.000000e+000 0.000000e+000 0.000000e+000 0.000000e+000 0.000000e+000 0.000000e+000 0.000000e+000 0.000000e+000 0.000000e+000 0.000000e+000 0.000000e+000 0.000000e+000 0.000000e+000 0.000000e+000 0.000000e+000 0.000000e+000 0.000000e+000 7.922176e-001 2.077824e-001 0.000000e+000 0.000000e+000 0.000000e+000 0.000000e+000 
0.000000e+000 0.000000e+000 0.000000e+000 0.000000e+000 0.000000e+000 0.000000e+000 0.000000e+000 0.000000e+000 0.000000e+000 0.000000e+000 0.000000e+000 0.000000e+000 0.000000e+000 0.000000e+000 0.000000e+000 0.000000e+000 0.000000e+000 0.000000e+000 0.000000e+000 0.000000e+000 8.998152e-001 1.001848e-001 0.000000e+000 0.000000e+000 0.000000e+000 
0.000000e+000 0.000000e+000 0.000000e+000 0.000000e+000 0.000000e+000 0.000000e+000 0.000000e+000 0.000000e+000 0.000000e+000 0.000000e+000 0.000000e+000 0.000000e+000 0.000000e+000 0.000000e+000 0.000000e+000 0.000000e+000 0.000000e+000 0.000000e+000 0.000000e+000 0.000000e+000 0.000000e+000 8.522223e-001 1.477778e-001 0.000000e+000 0.000000e+000 
0.000000e+000 0.000000e+000 0.000000e+000 0.000000e+000 0.000000e+000 0.000000e+000 0.000000e+000 0.000000e+000 0.000000e+000 0.000000e+000 0.000000e+000 0.000000e+000 0.000000e+000 0.000000e+000 0.000000e+000 0.000000e+000 0.000000e+000 0.000000e+000 0.000000e+000 0.000000e+000 0.000000e+000 0.000000e+000 8.417312e-001 1.582688e-001 0.000000e+000 
0.000000e+000 0.000000e+000 0.000000e+000 0.000000e+000 0.000000e+000 0.000000e+000 0.000000e+000 0.000000e+000 0.000000e+000 0.000000e+000 0.000000e+000 0.000000e+000 0.000000e+000 0.000000e+000 0.000000e+000 0.000000e+000 0.000000e+000 0.000000e+000 0.000000e+000 0.000000e+000 0.000000e+000 0.000000e+000 0.000000e+000 8.985552e-001 1.014449e-001 
0.000000e+000 0.000000e+000 0.000000e+000 0.000000e+000 0.000000e+000 0.000000e+000 0.000000e+000 0.000000e+000 0.000000e+000 0.000000e+000 0.000000e+000 0.000000e+000 0.000000e+000 0.000000e+000 0.000000e+000 0.000000e+000 0.000000e+000 0.000000e+000 0.000000e+000 0.000000e+000 0.000000e+000 0.000000e+000 0.000000e+000 0.000000e+000 0.000000e+000 
