<HMMNAME> 5
<HMMSTATES> 25
<STATE> 1
<MEAN> 36
-1.137389e+001 -3.538195e+000 2.079827e+001 -1.035022e+000 -8.512935e+000 -3.039903e+000 -1.480910e+000 -1.063891e+000 -3.340042e-001 2.510575e+000 -1.034529e+000 2.581068e+000 4.019336e-001 3.038149e-001 1.015198e+000 -9.301899e-001 -8.184324e-001 -3.350676e-001 -5.008386e-001 -3.206496e-001 -2.040824e-001 1.957871e-001 -1.455373e-001 1.583573e-001 -3.773165e-004 -2.128259e-002 -6.771952e-002 -1.400789e-001 -6.783068e-002 -3.507149e-002 1.964662e-002 -4.045263e-003 -1.336542e-002 2.737437e-002 7.245481e-002 4.493709e-002 
<VARIANCE> 36
4.164808e+001 3.768461e+001 6.685119e+001 7.632571e+001 7.984616e+001 6.107914e+001 5.770285e+001 7.422733e+001 5.130534e+001 4.322565e+001 4.570100e+001 2.719360e+001 1.431866e+000 2.463309e+000 2.650120e+000 3.878331e+000 3.739709e+000 5.290672e+000 3.675070e+000 3.456605e+000 3.624556e+000 3.415483e+000 2.747013e+000 1.979217e+000 2.033400e-001 3.962981e-001 4.668480e-001 5.748168e-001 6.710620e-001 1.106387e+000 7.201108e-001 5.637964e-001 7.527648e-001 5.545507e-001 5.014512e-001 3.672409e-001 
<GCONST> 1.194715e+002
<STATE> 2
<MEAN> 36
-1.118517e+001 -2.207573e+000 2.596845e+001 -1.778102e+001 -1.465960e+001 -8.996098e+000 -4.771634e+000 -7.725087e+000 -1.591410e+000 9.344150e+000 -1.480783e+000 6.992565e+000 2.651782e-002 -3.967017e-001 -4.991845e-001 -5.276013e-001 -2.678114e-001 7.642128e-002 4.203418e-001 3.590049e-002 -1.986989e-001 -7.984414e-002 3.142962e-001 1.229778e-001 -1.014145e-002 -6.007801e-002 -8.351320e-002 1.822198e-001 1.405085e-001 2.059805e-001 1.534983e-001 5.883005e-002 -4.777772e-002 -1.040782e-001 -7.779199e-002 -1.302088e-001 
<VARIANCE> 36
3.823361e+001 2.114788e+001 2.489840e+001 7.498414e+001 5.095264e+001 2.241034e+001 3.543471e+001 6.205169e+001 4.080644e+001 7.518947e+001 2.891731e+001 2.724833e+001 1.517723e-001 4.710349e-001 5.704785e-001 1.110583e+000 1.118791e+000 2.123726e+000 1.765764e+000 1.519226e+000 1.384589e+000 1.907556e+000 1.317364e+000 1.384264e+000 5.000000e-002 5.329851e-002 1.293080e-001 2.101377e-001 1.998594e-001 2.711612e-001 2.941817e-001 2.524244e-001 2.207408e-001 3.507524e-001 2.184987e-001 1.931385e-001 
<GCONST> 8.938262e+001
<STATE> 3
<MEAN> 36
2.192643e+000 -9.665982e+000 2.798250e+001 -9.098757e+000 -2.671441e+001 -4.978526e+000 -4.832440e+000 3.174988e+000 -2.497817e+000 -8.977325e+000 8.333639e+000 7.868376e+000 7.727147e-002 -4.487913e-001 -5.852168e-001 -2.943182e-001 2.660960e-001 4.690251e-001 2.602855e-001 6.647570e-002 -2.884679e-001 1.166307e-001 4.978438e-002 -7.578627e-002 -4.431520e-003 3.332918e-002 1.745993e-002 4.199125e-002 9.443781e-002 -3.272555e-002 -3.866958e-002 -5.830851e-002 3.118041e-002 1.038337e-001 -7.635674e-002 -7.267727e-002 
<VARIANCE> 36
3.920608e+001 2.628340e+001 3.789717e+001 5.996169e+001 7.108391e+001 5.992177e+001 6.549812e+001 6.147218e+001 6.084331e+001 8.175769e+001 5.197622e+001 2.187389e+001 2.109109e-001 4.919250e-001 6.326484e-001 6.297929e-001 1.040025e+000 1.256906e+000 1.299152e+000 1.366064e+000 1.351072e+000 1.330443e+000 1.157631e+000 6.315336e-001 5.000000e-002 7.313532e-002 9.536001e-002 9.933165e-002 1.259209e-001 1.725399e-001 1.577940e-001 1.728163e-001 1.731052e-001 2.369133e-001 1.325130e-001 1.337689e-001 
<GCONST> 8.603595e+001
<STATE> 4
<MEAN> 36
3.420547e+000 -1.609890e+001 2.173630e+001 -9.364476e+000 -2.046174e+001 -5.280954e+000 -6.780080e+000 6.165570e+000 2.604115e+000 -5.174123e+000 4.142003e+000 3.286840e+000 5.205974e-002 -1.049084e-001 -3.210976e-001 -2.430572e-002 2.997988e-001 4.261344e-001 2.972803e-001 1.115361e-001 -1.121185e-001 -1.208045e-001 -1.210682e-001 -1.603602e-001 -3.144450e-004 3.713803e-002 2.463384e-002 7.495964e-003 -1.888398e-002 -4.018742e-003 9.100038e-003 -2.040763e-002 -3.204442e-002 -7.055757e-003 2.600433e-002 1.587337e-002 
<VARIANCE> 36
2.187611e+001 2.418138e+001 1.864813e+001 2.676522e+001 2.989928e+001 3.630817e+001 4.939651e+001 4.942662e+001 4.705642e+001 7.536350e+001 6.380771e+001 3.422166e+001 1.507616e-001 3.138500e-001 4.531148e-001 5.411459e-001 7.664590e-001 9.023643e-001 1.078926e+000 1.550691e+000 1.082864e+000 1.180554e+000 1.008423e+000 1.059810e+000 5.000000e-002 5.000000e-002 6.474123e-002 8.962923e-002 1.187430e-001 1.485733e-001 1.683663e-001 2.146364e-001 1.728109e-001 1.862233e-001 1.496687e-001 1.650148e-001 
<GCONST> 7.966530e+001
<STATE> 5
<MEAN> 36
-1.315812e+001 -8.205216e+000 1.784347e+001 -2.171315e+001 -1.267375e+001 -2.181955e+000 7.759196e+000 -6.012638e+000 -3.205398e+000 7.505299e+000 -2.588700e+000 1.813892e+000 9.531605e-002 1.174145e-001 -2.340956e-001 1.769044e-001 9.547886e-002 1.000433e-001 2.169534e-001 -1.389780e-002 -1.736271e-001 -7.416443e-002 4.928754e-002 -1.792295e-001 1.912649e-002 3.830892e-002 5.699646e-003 2.123016e-002 -1.327665e-003 -1.830378e-002 -5.032405e-002 5.139988e-003 -2.013819e-002 -1.012084e-002 2.853361e-002 2.234174e-002 
<VARIANCE> 36
2.082664e+001 1.312692e+001 1.234615e+001 4.142567e+001 2.266690e+001 2.356103e+001 3.474105e+001 3.008411e+001 4.286393e+001 3.852177e+001 2.257029e+001 1.867999e+001 1.166473e-001 3.402634e-001 3.780854e-001 4.652396e-001 6.121331e-001 6.611643e-001 8.971327e-001 9.233147e-001 9.484541e-001 7.852868e-001 7.225991e-001 7.022212e-001 5.000000e-002 5.000000e-002 6.225274e-002 7.357363e-002 9.639948e-002 1.152817e-001 1.473579e-001 1.506788e-001 1.411605e-001 1.167271e-001 1.345348e-001 1.108959e-001 
<GCONST> 6.967158e+001
<STATE> 6
<MEAN> 36
7.622706e+000 -1.197310e+001 1.748122e+001 -8.462266e+000 -1.604802e+001 6.042492e+000 1.182631e-001 1.728236e+000 -8.994610e+000 -7.242030e+000 5.601834e+000 3.972633e+000 1.454221e-001 3.212844e-001 -1.560363e-001 1.634270e-001 1.022826e-001 1.856716e-001 7.796994e-002 -3.059160e-001 -1.935209e-001 -9.401716e-002 3.228392e-002 -7.982079e-002 -1.188398e-002 1.861783e-002 -2.508785e-002 1.205830e-002 1.522698e-002 -5.277872e-003 -1.240784e-002 9.445885e-003 3.436548e-002 6.306293e-003 -4.116161e-002 -2.388416e-002 
<VARIANCE> 36
2.742691e+001 2.540323e+001 1.628204e+001 2.755219e+001 2.074511e+001 3.405354e+001 5.076138e+001 5.852431e+001 4.410866e+001 3.759630e+001 5.151242e+001 2.429131e+001 1.949441e-001 3.820303e-001 5.251956e-001 1.011259e+000 1.065377e+000 1.570644e+000 1.569325e+000 2.252422e+000 1.794739e+000 1.703733e+000 1.584337e+000 1.321849e+000 5.000000e-002 6.644351e-002 9.247431e-002 1.856324e-001 1.828093e-001 2.791808e-001 2.901632e-001 3.834773e-001 3.044513e-001 3.230929e-001 2.773578e-001 2.515108e-001 
<GCONST> 8.839800e+001
<STATE> 7
<MEAN> 36
-4.849191e+000 3.184024e-001 1.910576e+001 -8.310434e+000 -1.713268e+001 -1.349506e+000 3.315873e+000 6.203755e-001 -9.160960e+000 5.654528e+000 2.203214e-001 -2.000940e+000 9.022654e-002 3.298485e-001 -4.084317e-001 5.026875e-001 5.940443e-001 5.427349e-001 -7.992630e-002 2.807868e-002 -2.453052e-002 -1.377233e-001 -1.274728e-001 -2.882815e-001 7.225852e-003 -2.188765e-002 -6.391466e-002 1.016251e-001 1.022183e-001 1.964462e-002 -3.038297e-002 -6.320128e-002 1.180799e-002 -6.811080e-002 -7.893541e-003 1.762924e-002 
<VARIANCE> 36
3.935829e+001 2.501656e+001 2.413534e+001 3.914827e+001 3.513786e+001 3.634334e+001 2.336158e+001 4.984437e+001 4.330316e+001 6.967186e+001 3.517197e+001 2.807592e+001 2.003802e-001 4.012135e-001 7.079478e-001 1.223888e+000 9.866255e-001 1.384213e+000 1.593035e+000 1.673717e+000 1.959967e+000 1.514505e+000 1.282947e+000 1.258512e+000 5.000000e-002 6.542374e-002 1.310463e-001 1.445708e-001 1.663042e-001 2.435662e-001 2.566139e-001 2.785271e-001 3.409153e-001 2.186894e-001 2.399723e-001 2.305062e-001 
<GCONST> 8.819719e+001
<STATE> 8
<MEAN> 36
6.095061e+000 -6.306120e+000 1.403175e+001 -6.862997e+000 -7.916425e+000 8.522223e+000 -6.217455e+000 -8.252833e+000 -5.432873e+000 -1.135383e+001 1.250142e+001 1.860408e+000 1.034891e-001 4.015672e-001 -3.616636e-001 4.220107e-001 4.610032e-001 -1.334775e-001 -8.762367e-002 -2.346380e-001 -7.319075e-003 -2.047996e-002 -3.139849e-001 9.474689e-002 -2.391153e-002 1.064138e-002 3.444745e-002 -2.635311e-003 -2.944865e-002 -8.227509e-002 5.592618e-002 2.167334e-002 -6.220513e-004 -2.947787e-005 -7.624209e-002 2.077440e-002 
<VARIANCE> 36
3.384617e+001 2.568269e+001 1.625985e+001 5.059317e+001 3.127865e+001 5.824655e+001 5.446915e+001 5.519221e+001 5.101520e+001 6.599652e+001 6.474047e+001 2.279899e+001 1.877778e-001 2.914894e-001 5.186344e-001 8.337515e-001 1.296888e+000 1.399776e+000 1.334198e+000 1.537832e+000 1.508875e+000 2.040552e+000 1.970718e+000 1.095141e+000 5.000000e-002 5.000000e-002 6.842947e-002 1.099222e-001 1.791439e-001 1.954337e-001 1.951316e-001 2.241560e-001 2.471331e-001 3.931920e-001 2.841843e-001 1.827738e-001 
<GCONST> 8.739192e+001
<STATE> 9
<MEAN> 36
-9.356295e-001 -7.114239e+000 1.253196e+001 1.895961e+000 -1.396847e+001 -1.780327e+000 4.609271e+000 -6.443468e+000 -1.448828e+001 1.290663e+000 -2.610656e+000 1.968729e+000 4.451385e-002 8.168491e-002 -1.623597e-001 1.307039e-001 2.630724e-001 -1.121979e-002 -6.949796e-002 -1.236467e-001 5.541735e-002 -7.369869e-002 -7.043492e-002 -1.041360e-002 -7.671404e-004 3.004455e-002 1.738049e-002 -4.339611e-002 -3.770925e-003 -4.158751e-002 -3.887875e-002 1.754280e-003 7.783280e-003 -3.747519e-002 3.477322e-002 1.201505e-002 
<VARIANCE> 36
1.948932e+001 2.021712e+001 1.393972e+001 3.347170e+001 4.290325e+001 2.979915e+001 2.867762e+001 4.354880e+001 5.957861e+001 4.978059e+001 5.282556e+001 2.496686e+001 3.248216e-001 7.523556e-001 9.629182e-001 1.204964e+000 1.492314e+000 1.185935e+000 1.638774e+000 2.083689e+000 1.894655e+000 2.202763e+000 1.891151e+000 1.266183e+000 6.066119e-002 1.257724e-001 1.602201e-001 2.194470e-001 2.410336e-001 1.920140e-001 3.066327e-001 4.062478e-001 3.798450e-001 4.042773e-001 3.062100e-001 2.275609e-001 
<GCONST> 9.267186e+001
<STATE> 10
<MEAN> 36
-5.060450e+000 4.699754e+000 8.730457e+000 -3.460424e+000 -5.973778e+000 3.571844e-002 2.606764e+000 -6.054497e+000 -9.459236e+000 -4.179702e-001 -2.605493e+000 -1.275225e+000 7.865417e-002 3.776808e-001 -2.808979e-001 4.238926e-001 2.121831e-001 -2.159806e-001 -1.929674e-001 -1.906025e-002 5.248714e-002 -3.437607e-001 -3.837316e-002 5.985645e-002 -5.699804e-002 -1.993167e-002 6.319317e-002 -5.815442e-002 -3.531440e-002 -3.828622e-003 -1.128962e-002 3.659920e-002 2.257873e-002 4.784188e-002 6.806135e-002 3.632940e-003 
<VARIANCE> 36
1.872846e+001 2.101753e+001 1.748375e+001 4.818167e+001 2.130564e+001 2.152487e+001 2.534434e+001 3.292125e+001 4.457275e+001 4.173760e+001 2.633161e+001 2.657655e+001 1.900568e-001 3.974275e-001 6.146328e-001 1.071808e+000 1.435197e+000 1.817275e+000 1.669245e+000 1.845026e+000 2.542941e+000 2.300262e+000 1.872622e+000 1.857782e+000 5.000000e-002 7.139812e-002 1.238311e-001 2.127829e-001 2.869315e-001 3.588491e-001 3.201980e-001 3.548129e-001 4.855677e-001 4.296980e-001 3.615821e-001 3.551818e-001 
<GCONST> 9.056602e+001
<STATE> 11
<MEAN> 36
-2.182347e-001 -1.259927e+000 1.343459e+001 5.305579e+000 -8.112404e+000 -4.654254e+000 -1.627764e+000 -1.380081e+001 -1.266918e+001 -4.429390e+000 1.321939e+000 1.488314e+000 -2.912134e-001 2.446317e-001 1.401376e-001 3.205851e-003 4.710520e-001 -7.585282e-002 -2.404361e-001 -6.325904e-002 9.299389e-003 -1.599739e-001 9.796319e-002 -1.800873e-001 -9.152167e-002 4.264966e-003 1.067887e-002 -8.759947e-002 6.357780e-002 7.623906e-002 2.123850e-002 1.233292e-001 2.909947e-002 7.023683e-003 1.068118e-002 -1.341154e-002 
<VARIANCE> 36
2.163954e+001 2.551941e+001 2.841218e+001 3.997298e+001 4.138375e+001 4.006270e+001 2.926927e+001 5.320897e+001 4.893394e+001 3.189099e+001 3.382731e+001 3.687030e+001 4.761629e-001 7.281419e-001 1.096784e+000 1.301678e+000 1.740044e+000 2.961342e+000 2.193508e+000 2.298851e+000 3.124291e+000 2.959812e+000 1.986480e+000 1.885301e+000 8.711728e-002 1.283144e-001 2.111233e-001 2.447376e-001 3.784705e-001 6.364408e-001 4.858255e-001 4.608313e-001 5.921778e-001 5.025273e-001 3.885965e-001 3.611989e-001 
<GCONST> 1.013048e+002
<STATE> 12
<MEAN> 36
-6.550612e-001 4.887118e-001 1.440841e+001 -8.609668e+000 -6.819686e+000 1.126319e+000 -3.482448e+000 8.272970e-001 -8.536858e+000 -8.613507e+000 3.184874e+000 2.166205e+000 -1.463193e+000 6.538132e-001 2.309815e-001 -8.397856e-001 7.132637e-001 -2.599180e-001 -4.505492e-001 5.244655e-001 -3.200141e-001 4.671204e-002 -8.650572e-002 -7.325712e-002 -7.536120e-002 4.530478e-002 4.294205e-002 5.345452e-002 2.379288e-002 9.308816e-002 -2.652479e-002 -1.125365e-001 4.019268e-002 8.836535e-003 -8.103086e-002 -1.148597e-002 
<VARIANCE> 36
3.579168e+001 3.449547e+001 2.755575e+001 5.809832e+001 9.280149e+001 5.625365e+001 6.919216e+001 7.964620e+001 5.187070e+001 4.319819e+001 4.458403e+001 2.850377e+001 6.385081e-001 8.570679e-001 1.269831e+000 2.455012e+000 1.561358e+000 2.991366e+000 2.509000e+000 3.220639e+000 3.300610e+000 2.492676e+000 2.197214e+000 2.242751e+000 8.354178e-002 1.292431e-001 2.463265e-001 3.978265e-001 2.504718e-001 5.136518e-001 4.024547e-001 5.816818e-001 5.333911e-001 5.279143e-001 4.133612e-001 5.141644e-001 
<GCONST> 1.073946e+002
<STATE> 13
<MEAN> 36
-8.806150e+000 7.071276e+000 1.707412e+001 -5.221216e+000 2.648180e+000 3.283714e+000 -1.411797e+001 -5.118192e+000 -1.406998e+001 -1.091575e+001 1.642200e+000 -1.966923e+000 -5.829472e-001 1.028276e-001 7.578752e-002 1.670510e-001 2.033470e-001 4.270514e-001 -8.026093e-002 -1.409003e-001 3.044946e-001 -7.729774e-002 -2.837557e-001 -2.677524e-002 2.012233e-002 -1.398919e-001 -7.141669e-002 1.689113e-002 -1.003465e-001 -1.234886e-002 9.226619e-002 -1.142005e-002 1.312159e-001 8.457191e-002 3.201903e-002 5.756185e-002 
<VARIANCE> 36
1.436269e+001 3.401779e+001 5.009089e+001 5.226226e+001 3.717769e+001 1.123476e+002 1.994715e+002 8.799794e+001 4.586545e+001 5.378635e+001 4.933221e+001 2.798737e+001 6.712276e-001 7.938724e-001 1.039077e+000 1.356917e+000 1.786300e+000 2.311952e+000 1.973744e+000 2.989693e+000 2.356866e+000 2.081516e+000 1.600539e+000 1.828218e+000 6.850087e-002 1.093169e-001 1.400843e-001 2.224596e-001 3.053084e-001 4.012790e-001 2.791639e-001 4.633203e-001 4.905869e-001 3.877176e-001 3.017317e-001 3.110201e-001 
<GCONST> 1.024146e+002
<STATE> 14
<MEAN> 36
-9.950116e+000 7.108437e+000 6.343742e+000 7.457003e-002 6.718042e-001 1.784059e+000 1.953461e+000 -3.243024e-001 -2.404354e+000 -8.280587e-001 -8.537786e-001 4.429469e-001 -7.745814e-001 -1.425290e-001 -1.533370e-001 -1.306071e-001 4.311949e-001 1.987573e-001 3.098589e-001 3.334009e-001 7.082940e-001 4.954351e-001 1.854517e-001 1.544648e-001 -9.398166e-002 -4.476117e-003 5.312327e-003 -7.232743e-002 -4.356547e-002 -3.000217e-002 -1.367918e-002 -1.173315e-001 -4.292964e-002 1.924975e-002 5.295481e-003 -7.417789e-003 
<VARIANCE> 36
7.388339e+000 8.178069e+000 2.829933e+001 3.733874e+001 2.654296e+001 2.533226e+001 4.006854e+001 3.727099e+001 3.373697e+001 3.459791e+001 2.313274e+001 1.916871e+001 8.019168e-001 6.601453e-001 9.029041e-001 1.591069e+000 1.635563e+000 1.904837e+000 2.753581e+000 2.927799e+000 2.241512e+000 2.508068e+000 2.216241e+000 2.015710e+000 6.939178e-002 1.291046e-001 1.847002e-001 2.872933e-001 2.991276e-001 3.301278e-001 4.496177e-001 5.331760e-001 3.283344e-001 4.578661e-001 3.686261e-001 3.570543e-001 
<GCONST> 9.506001e+001
<STATE> 15
<MEAN> 36
-1.739174e+001 4.793664e+000 1.628558e+001 -8.505751e+000 -1.636452e+000 1.396234e+000 -5.372178e+000 -5.020465e+000 -7.510781e+000 -5.329509e+000 -1.003030e+000 -4.100166e-001 -1.052852e+000 -9.464644e-003 4.316892e-001 1.736375e-001 -4.617018e-001 8.356827e-002 -4.454810e-002 -3.038381e-001 3.555019e-001 1.678264e-001 -1.030938e-001 -3.206661e-001 1.241564e-001 2.797215e-002 -1.891690e-002 1.578263e-001 -2.631439e-002 -4.401553e-002 1.613347e-001 -3.580610e-002 -5.044878e-002 -1.487695e-001 -1.743415e-002 -4.944348e-002 
<VARIANCE> 36
1.594276e+001 1.684826e+001 4.860701e+001 9.391253e+001 5.434556e+001 7.312298e+001 6.438898e+001 8.277023e+001 7.099055e+001 6.402003e+001 2.688548e+001 4.792417e+001 7.264199e-001 8.547379e-001 1.777820e+000 2.313718e+000 2.276376e+000 2.213687e+000 2.276364e+000 3.187645e+000 1.887701e+000 3.391097e+000 2.015536e+000 2.320751e+000 9.282470e-002 1.623230e-001 3.294675e-001 4.300521e-001 4.707592e-001 4.228375e-001 4.020297e-001 6.022069e-001 4.120435e-001 7.175316e-001 3.230714e-001 5.002964e-001 
<GCONST> 1.083476e+002
<STATE> 16
<MEAN> 36
-1.967666e+001 1.150188e+001 4.594075e+000 3.578489e-001 2.844425e+000 1.061825e+000 6.122241e+000 -1.945561e+000 9.469513e-001 4.588859e-001 6.106076e-001 7.511470e-001 -8.765479e-001 4.621431e-001 2.762353e-001 -1.716778e-001 -1.069441e-001 -4.784417e-002 2.898500e-001 -1.278822e-001 -9.276361e-003 -8.196836e-002 -1.554775e-001 -5.573184e-002 6.094605e-002 -1.082245e-001 8.706104e-002 -8.071331e-002 -1.477818e-001 -8.677706e-003 -2.385095e-002 6.348869e-002 -5.329826e-002 2.423916e-002 -1.535879e-002 1.943486e-002 
<VARIANCE> 36
1.571896e+001 3.308637e+001 8.538646e+001 5.470881e+001 6.180631e+001 5.073820e+001 8.110888e+001 4.774556e+001 4.147516e+001 4.584161e+001 2.566828e+001 2.035730e+001 7.602413e-001 1.227651e+000 1.149104e+000 1.311176e+000 2.098391e+000 2.467514e+000 2.419394e+000 2.368349e+000 2.151941e+000 2.462593e+000 2.269954e+000 1.560699e+000 9.933661e-002 1.765318e-001 1.520643e-001 2.278098e-001 3.460551e-001 5.309155e-001 4.898024e-001 4.693822e-001 4.129676e-001 5.218870e-001 4.925600e-001 2.802189e-001 
<GCONST> 1.035660e+002
<STATE> 17
<MEAN> 36
-2.639452e+001 9.640861e+000 1.059335e+001 -4.403746e+000 3.183946e+000 1.952055e+000 8.201386e+000 -7.185809e-001 2.750731e-001 4.920569e+000 1.287868e+000 7.627316e-001 9.263159e-002 -2.401730e-001 1.656387e-001 2.371495e-002 -9.560109e-002 3.473973e-003 1.134430e-001 4.607930e-002 -3.578972e-002 7.637101e-003 -6.974039e-003 -8.802574e-003 7.600595e-002 -1.496638e-002 -3.684761e-002 3.114187e-002 -9.751767e-003 -6.329672e-003 -1.822649e-002 1.580626e-003 -1.617175e-003 -2.431790e-002 -7.349145e-003 5.622474e-003 
<VARIANCE> 36
1.403683e+001 2.779446e+001 4.062626e+001 1.844649e+001 3.823987e+001 3.324152e+001 3.940638e+001 2.700877e+001 2.768777e+001 3.186657e+001 2.016922e+001 1.871802e+001 5.159890e-001 4.333233e-001 8.284878e-001 1.157911e+000 1.778656e+000 1.766129e+000 2.063241e+000 1.550620e+000 1.631598e+000 1.656511e+000 1.815962e+000 1.581341e+000 5.836225e-002 9.443199e-002 1.665702e-001 2.332528e-001 3.550174e-001 3.399345e-001 4.036260e-001 2.943530e-001 3.029818e-001 3.150546e-001 3.683074e-001 3.200696e-001 
<GCONST> 9.121969e+001
<STATE> 18
<MEAN> 36
-2.189265e+001 -5.073481e-001 1.759033e+001 -3.616174e+000 -6.065043e+000 2.634171e+000 -3.193932e+000 -1.340924e+001 -8.857460e+000 -5.499399e+000 -3.266480e+000 -6.660228e+000 3.151652e-002 -4.925486e-001 -2.719813e-001 -9.076500e-002 -2.091901e-001 -8.102543e-003 1.387221e-001 7.347024e-002 2.895403e-001 9.738756e-002 2.057106e-001 7.217079e-002 2.781348e-002 -8.595451e-003 -4.030514e-002 3.916802e-002 6.527007e-002 -1.403023e-002 -9.526733e-003 8.574856e-002 4.420055e-002 7.495525e-002 8.571834e-002 5.698001e-002 
<VARIANCE> 36
1.181677e+001 2.648470e+001 2.974613e+001 4.386037e+001 3.875131e+001 3.691499e+001 3.890441e+001 5.555291e+001 4.666350e+001 6.158767e+001 2.799340e+001 4.651004e+001 4.286767e-001 8.477887e-001 1.048365e+000 1.351074e+000 1.583803e+000 1.735633e+000 2.093421e+000 2.422983e+000 2.541109e+000 2.348776e+000 1.686169e+000 1.606789e+000 6.372862e-002 1.587896e-001 2.124446e-001 2.654004e-001 2.719289e-001 2.921205e-001 3.942955e-001 4.920693e-001 4.775175e-001 4.483871e-001 3.106078e-001 2.757689e-001 
<GCONST> 9.827667e+001
<STATE> 19
<MEAN> 36
-1.960484e+001 -2.159500e+000 1.982918e+001 -6.989460e+000 -1.243581e+001 -6.107224e-001 -1.187418e+000 -1.695673e+000 -2.700887e+000 -1.055263e+001 3.144560e+000 2.685154e+000 2.872634e-002 -2.317250e-001 -1.628875e-001 2.593449e-001 7.001444e-002 3.592451e-002 -4.948306e-002 -7.388042e-002 6.249917e-002 4.734388e-002 1.681151e-001 7.135543e-003 1.530130e-002 2.262148e-002 -1.880435e-002 -3.729093e-004 6.631392e-002 6.328017e-002 -1.861900e-002 -3.385623e-002 -1.602181e-002 1.412144e-002 -2.533135e-002 -5.339647e-002 
<VARIANCE> 36
7.909439e+000 3.315508e+001 3.771357e+001 2.666251e+001 5.540792e+001 6.402252e+001 5.717057e+001 5.590795e+001 4.137921e+001 5.135081e+001 3.671434e+001 2.795545e+001 2.660505e-001 7.660007e-001 1.110102e+000 1.518331e+000 1.683057e+000 3.089911e+000 2.047739e+000 2.936129e+000 2.764011e+000 2.279093e+000 2.248899e+000 1.864088e+000 5.000000e-002 1.527910e-001 2.123689e-001 2.928928e-001 3.459114e-001 6.276901e-001 3.652697e-001 5.357984e-001 5.741816e-001 4.705144e-001 4.770417e-001 3.913218e-001 
<GCONST> 1.013354e+002
<STATE> 20
<MEAN> 36
-1.889257e+001 -1.851021e+000 1.482148e+001 -2.869515e+000 -3.361799e+000 3.755891e+000 2.851459e+000 -3.224153e+000 -2.166929e+000 -2.744257e+000 2.138072e+000 -1.357953e+000 4.356285e-001 1.212387e-001 -3.797481e-001 4.124507e-001 4.026213e-001 2.912890e-001 7.981882e-003 2.391605e-002 -4.946203e-002 5.714283e-002 -2.141864e-001 -3.332689e-001 6.787466e-003 4.278632e-002 -3.843534e-002 -6.509006e-002 -4.349347e-002 -7.447988e-002 -1.097676e-001 -6.260793e-003 -1.867606e-002 -3.839729e-002 -8.665238e-002 -3.525433e-002 
<VARIANCE> 36
8.796556e+000 2.982744e+001 2.922512e+001 4.533877e+001 3.592864e+001 4.102771e+001 8.873198e+001 4.794492e+001 5.075530e+001 9.913614e+001 2.256537e+001 3.313331e+001 4.155450e-001 9.089510e-001 1.037279e+000 1.712623e+000 3.314030e+000 2.453838e+000 2.752853e+000 2.408853e+000 3.549981e+000 4.051166e+000 1.863289e+000 1.856738e+000 6.892749e-002 1.660061e-001 1.704652e-001 3.162079e-001 6.434669e-001 4.965678e-001 5.588779e-001 4.595671e-001 6.479525e-001 8.380350e-001 3.082390e-001 3.444933e-001 
<GCONST> 1.044658e+002
<STATE> 21
<MEAN> 36
-1.304320e+001 1.565344e-001 1.531715e+001 -3.452381e-001 9.663424e-001 1.020352e+001 -1.817048e+000 -8.046420e+000 -6.001469e+000 -9.927595e+000 -4.215545e+000 -6.051135e+000 2.385927e-001 -4.640672e-002 -4.463402e-001 -5.706607e-002 9.509474e-002 -6.662208e-002 -2.190277e-001 4.025853e-002 3.015983e-001 2.936527e-002 -7.491929e-002 -5.004925e-002 -4.033545e-002 -2.475992e-002 -4.148379e-002 -1.279016e-001 -4.220271e-002 -6.764710e-002 -1.722543e-002 3.426389e-002 6.632488e-002 2.816885e-002 6.423275e-002 9.601497e-002 
<VARIANCE> 36
2.349424e+001 3.009969e+001 4.618619e+001 2.224658e+001 4.230185e+001 8.677809e+001 4.802966e+001 4.141988e+001 4.520072e+001 9.292504e+001 5.130999e+001 3.791237e+001 2.311540e-001 6.017225e-001 1.372951e+000 1.329828e+000 1.369400e+000 1.944377e+000 2.548212e+000 2.481904e+000 1.978067e+000 2.558552e+000 2.010302e+000 2.069787e+000 5.000000e-002 9.854158e-002 2.529650e-001 2.675525e-001 2.630017e-001 2.931957e-001 4.466844e-001 5.435416e-001 3.922548e-001 5.053794e-001 4.038058e-001 4.115416e-001 
<GCONST> 1.004830e+002
<STATE> 22
<MEAN> 36
-1.817274e+001 -7.540609e+000 4.225577e+000 -8.339388e+000 -3.760721e+000 -3.026943e+000 2.422467e+000 -6.531680e+000 1.097305e+000 -2.846880e+000 1.472035e+000 -1.547404e+000 1.176139e-001 -1.452414e-001 -4.795655e-001 -2.141984e-001 1.324134e-001 -4.313589e-002 -1.122546e-001 1.377700e-001 2.287740e-001 -2.795043e-002 1.005981e-001 1.224967e-001 -1.414671e-002 4.131238e-002 5.123985e-002 4.976384e-002 8.370244e-002 5.538886e-002 1.877725e-002 5.429184e-002 -2.811091e-002 -4.842584e-002 1.050550e-002 -1.456721e-002 
<VARIANCE> 36
2.812390e+001 3.069091e+001 2.682658e+001 4.046824e+001 6.424384e+001 1.369931e+002 1.233715e+002 5.014245e+001 4.486745e+001 4.130652e+001 2.715222e+001 5.051475e+001 2.557088e-001 5.839825e-001 1.330938e+000 1.530842e+000 1.815129e+000 2.245099e+000 2.539708e+000 2.398161e+000 2.573502e+000 2.106008e+000 2.224205e+000 1.750554e+000 5.000000e-002 9.922347e-002 2.269549e-001 2.758780e-001 3.477888e-001 4.232025e-001 4.590251e-001 4.775722e-001 4.896241e-001 4.286542e-001 4.506636e-001 3.552829e-001 
<GCONST> 1.026426e+002
<STATE> 23
<MEAN> 36
-1.224743e+001 -1.170672e-001 3.718396e+000 2.378742e-001 9.074079e-001 2.020521e+000 2.739945e+000 1.405602e+000 4.867483e+000 -1.484727e-002 2.823918e-001 2.035959e+000 2.172386e-001 7.206039e-002 -2.426589e-001 1.593507e-001 1.331235e-001 8.695844e-002 -1.739594e-001 9.041667e-002 2.013131e-002 -5.996752e-002 -8.256871e-002 5.482264e-002 -1.398256e-002 -5.280756e-003 2.042919e-002 1.690871e-002 -4.892221e-002 -1.122182e-002 3.608710e-002 -2.164642e-002 -6.761663e-002 1.013226e-002 1.066631e-002 -2.383988e-002 
<VARIANCE> 36
1.428926e+001 8.708551e+001 3.121104e+001 3.030973e+001 3.939785e+001 3.655715e+001 4.109705e+001 3.714420e+001 7.994879e+001 4.107912e+001 1.846695e+001 2.229493e+001 2.784359e-001 6.553528e-001 8.111149e-001 1.521178e+000 1.626929e+000 1.931237e+000 1.830481e+000 2.225075e+000 2.515812e+000 1.704849e+000 1.449796e+000 1.369811e+000 5.287604e-002 1.090642e-001 1.459941e-001 2.858442e-001 3.058931e-001 2.802217e-001 3.585752e-001 4.557492e-001 5.158271e-001 3.468436e-001 2.854853e-001 2.338698e-001 
<GCONST> 9.503550e+001
<TRANSP> 25
0.000000e+000 1.000000e+000 0.000000e+000 0.000000e+000 0.000000e+000 0.000000e+000 0.000000e+000 0.000000e+000 0.000000e+000 0.000000e+000 0.000000e+000 0.000000e+000 0.000000e+000 0.000000e+000 0.000000e+000 0.000000e+000 0.000000e+000 0.000000e+000 0.000000e+000 0.000000e+000 0.000000e+000 0.000000e+000 0.000000e+000 0.000000e+000 0.000000e+000 
0.000000e+000 8.235325e-001 1.764676e-001 0.000000e+000 0.000000e+000 0.000000e+000 0.000000e+000 0.000000e+000 0.000000e+000 0.000000e+000 0.000000e+000 0.000000e+000 0.000000e+000 0.000000e+000 0.000000e+000 0.000000e+000 0.000000e+000 0.000000e+000 0.000000e+000 0.000000e+000 0.000000e+000 0.000000e+000 0.000000e+000 0.000000e+000 0.000000e+000 
0.000000e+000 0.000000e+000 7.587897e-001 2.412103e-001 0.000000e+000 0.000000e+000 0.000000e+000 0.000000e+000 0.000000e+000 0.000000e+000 0.000000e+000 0.000000e+000 0.000000e+000 0.000000e+000 0.000000e+000 0.000000e+000 0.000000e+000 0.000000e+000 0.000000e+000 0.000000e+000 0.000000e+000 0.000000e+000 0.000000e+000 0.000000e+000 0.000000e+000 
0.000000e+000 0.000000e+000 0.000000e+000 7.722674e-001 2.277326e-001 0.000000e+000 0.000000e+000 0.000000e+000 0.000000e+000 0.000000e+000 0.000000e+000 0.000000e+000 0.000000e+000 0.000000e+000 0.000000e+000 0.000000e+000 0.000000e+000 0.000000e+000 0.000000e+000 0.000000e+000 0.000000e+000 0.000000e+000 0.000000e+000 0.000000e+000 0.000000e+000 
0.000000e+000 0.000000e+000 0.000000e+000 0.000000e+000 8.740359e-001 1.259641e-001 0.000000e+000 0.000000e+000 0.000000e+000 0.000000e+000 0.000000e+000 0.000000e+000 0.000000e+000 0.000000e+000 0.000000e+000 0.000000e+000 0.000000e+000 0.000000e+000 0.000000e+000 0.000000e+000 0.000000e+000 0.000000e+000 0.000000e+000 0.000000e+000 0.000000e+000 
0.000000e+000 0.000000e+000 0.000000e+000 0.000000e+000 0.000000e+000 9.022578e-001 9.774214e-002 0.000000e+000 0.000000e+000 0.000000e+000 0.000000e+000 0.000000e+000 0.000000e+000 0.000000e+000 0.000000e+000 0.000000e+000 0.000000e+000 0.000000e+000 0.000000e+000 0.000000e+000 0.000000e+000 0.000000e+000 0.000000e+000 0.000000e+000 0.000000e+000 
0.000000e+000 0.000000e+000 0.000000e+000 0.000000e+000 0.000000e+000 0.000000e+000 8.887665e-001 1.112335e-001 0.000000e+000 0.000000e+000 0.000000e+000 0.000000e+000 0.000000e+000 0.000000e+000 0.000000e+000 0.000000e+000 0.000000e+000 0.000000e+000 0.000000e+000 0.000000e+000 0.000000e+000 0.000000e+000 0.000000e+000 0.000000e+000 0.000000e+000 
0.000000e+000 0.000000e+000 0.000000e+000 0.000000e+000 0.000000e+000 0.000000e+000 0.000000e+000 7.029134e-001 2.970866e-001 0.000000e+000 0.000000e+000 0.000000e+000 0.000000e+000 0.000000e+000 0.000000e+000 0.000000e+000 0.000000e+000 0.000000e+000 0.000000e+000 0.000000e+000 0.000000e+000 0.000000e+000 0.000000e+000 0.000000e+000 0.000000e+000 
0.000000e+000 0.000000e+000 0.000000e+000 0.000000e+000 0.000000e+000 0.000000e+000 0.000000e+000 0.000000e+000 8.080648e-001 1.919350e-001 0.000000e+000 0.000000e+000 0.000000e+000 0.000000e+000 0.000000e+000 0.000000e+000 0.000000e+000 0.000000e+000 0.000000e+000 0.000000e+000 0.000000e+000 0.000000e+000 0.000000e+000 0.000000e+000 0.000000e+000 
0.000000e+000 0.000000e+000 0.000000e+000 0.000000e+000 0.000000e+000 0.000000e+000 0.000000e+000 0.000000e+000 0.000000e+000 8.271855e-001 1.728144e-001 0.000000e+000 0.000000e+000 0.000000e+000 0.000000e+000 0.000000e+000 0.000000e+000 0.000000e+000 0.000000e+000 0.000000e+000 0.000000e+000 0.000000e+000 0.000000e+000 0.000000e+000 0.000000e+000 
0.000000e+000 0.000000e+000 0.000000e+000 0.000000e+000 0.000000e+000 0.000000e+000 0.000000e+000 0.000000e+000 0.000000e+000 0.000000e+000 8.566064e-001 1.433936e-001 0.000000e+000 0.000000e+000 0.000000e+000 0.000000e+000 0.000000e+000 0.000000e+000 0.000000e+000 0.000000e+000 0.000000e+000 0.000000e+000 0.000000e+000 0.000000e+000 0.000000e+000 
0.000000e+000 0.000000e+000 0.000000e+000 0.000000e+000 0.000000e+000 0.000000e+000 0.000000e+000 0.000000e+000 0.000000e+000 0.000000e+000 0.000000e+000 7.915668e-001 2.084332e-001 0.000000e+000 0.000000e+000 0.000000e+000 0.000000e+000 0.000000e+000 0.000000e+000 0.000000e+000 0.000000e+000 0.000000e+000 0.000000e+000 0.000000e+000 0.000000e+000 
0.000000e+000 0.000000e+000 0.000000e+000 0.000000e+000 0.000000e+000 0.000000e+000 0.000000e+000 0.000000e+000 0.000000e+000 0.000000e+000 0.000000e+000 0.000000e+000 7.835395e-001 2.164604e-001 0.000000e+000 0.000000e+000 0.000000e+000 0.000000e+000 0.000000e+000 0.000000e+000 0.000000e+000 0.000000e+000 0.000000e+000 0.000000e+000 0.000000e+000 
0.000000e+000 0.000000e+000 0.000000e+000 0.000000e+000 0.000000e+000 0.000000e+000 0.000000e+000 0.000000e+000 0.000000e+000 0.000000e+000 0.000000e+000 0.000000e+000 0.000000e+000 7.484729e-001 2.515271e-001 0.000000e+000 0.000000e+000 0.000000e+000 0.000000e+000 0.000000e+000 0.000000e+000 0.000000e+000 0.000000e+000 0.000000e+000 0.000000e+000 
0.000000e+000 0.000000e+000 0.000000e+000 0.000000e+000 0.000000e+000 0.000000e+000 0.000000e+000 0.000000e+000 0.000000e+000 0.000000e+000 0.000000e+000 0.000000e+000 0.000000e+000 0.000000e+000 7.919185e-001 2.080816e-001 0.000000e+000 0.000000e+000 0.000000e+000 0.000000e+000 0.000000e+000 0.000000e+000 0.000000e+000 0.000000e+000 0.000000e+000 
0.000000e+000 0.000000e+000 0.000000e+000 0.000000e+000 0.000000e+000 0.000000e+000 0.000000e+000 0.000000e+000 0.000000e+000 0.000000e+000 0.000000e+000 0.000000e+000 0.000000e+000 0.000000e+000 0.000000e+000 7.387562e-001 2.612438e-001 0.000000e+000 0.000000e+000 0.000000e+000 0.000000e+000 0.000000e+000 0.000000e+000 0.000000e+000 0.000000e+000 
0.000000e+000 0.000000e+000 0.000000e+000 0.000000e+000 0.000000e+000 0.000000e+000 0.000000e+000 0.000000e+000 0.000000e+000 0.000000e+000 0.000000e+000 0.000000e+000 0.000000e+000 0.000000e+000 0.000000e+000 0.000000e+000 7.499929e-001 2.500070e-001 0.000000e+000 0.000000e+000 0.000000e+000 0.000000e+000 0.000000e+000 0.000000e+000 0.000000e+000 
0.000000e+000 0.000000e+000 0.000000e+000 0.000000e+000 0.000000e+000 0.000000e+000 0.000000e+000 0.000000e+000 0.000000e+000 0.000000e+000 0.000000e+000 0.000000e+000 0.000000e+000 0.000000e+000 0.000000e+000 0.000000e+000 0.000000e+000 9.200552e-001 7.994482e-002 0.000000e+000 0.000000e+000 0.000000e+000 0.000000e+000 0.000000e+000 0.000000e+000 
0.000000e+000 0.000000e+000 0.000000e+000 0.000000e+000 0.000000e+000 0.000000e+000 0.000000e+000 0.000000e+000 0.000000e+000 0.000000e+000 0.000000e+000 0.000000e+000 0.000000e+000 0.000000e+000 0.000000e+000 0.000000e+000 0.000000e+000 0.000000e+000 8.345876e-001 1.654124e-001 0.000000e+000 0.000000e+000 0.000000e+000 0.000000e+000 0.000000e+000 
0.000000e+000 0.000000e+000 0.000000e+000 0.000000e+000 0.000000e+000 0.000000e+000 0.000000e+000 0.000000e+000 0.000000e+000 0.000000e+000 0.000000e+000 0.000000e+000 0.000000e+000 0.000000e+000 0.000000e+000 0.000000e+000 0.000000e+000 0.000000e+000 0.000000e+000 8.789853e-001 1.210147e-001 0.000000e+000 0.000000e+000 0.000000e+000 0.000000e+000 
0.000000e+000 0.000000e+000 0.000000e+000 0.000000e+000 0.000000e+000 0.000000e+000 0.000000e+000 0.000000e+000 0.000000e+000 0.000000e+000 0.000000e+000 0.000000e+000 0.000000e+000 0.000000e+000 0.000000e+000 0.000000e+000 0.000000e+000 0.000000e+000 0.000000e+000 0.000000e+000 7.841415e-001 2.158585e-001 0.000000e+000 0.000000e+000 0.000000e+000 
0.000000e+000 0.000000e+000 0.000000e+000 0.000000e+000 0.000000e+000 0.000000e+000 0.000000e+000 0.000000e+000 0.000000e+000 0.000000e+000 0.000000e+000 0.000000e+000 0.000000e+000 0.000000e+000 0.000000e+000 0.000000e+000 0.000000e+000 0.000000e+000 0.000000e+000 0.000000e+000 0.000000e+000 7.517519e-001 2.482481e-001 0.000000e+000 0.000000e+000 
0.000000e+000 0.000000e+000 0.000000e+000 0.000000e+000 0.000000e+000 0.000000e+000 0.000000e+000 0.000000e+000 0.000000e+000 0.000000e+000 0.000000e+000 0.000000e+000 0.000000e+000 0.000000e+000 0.000000e+000 0.000000e+000 0.000000e+000 0.000000e+000 0.000000e+000 0.000000e+000 0.000000e+000 0.000000e+000 8.210762e-001 1.789238e-001 0.000000e+000 
0.000000e+000 0.000000e+000 0.000000e+000 0.000000e+000 0.000000e+000 0.000000e+000 0.000000e+000 0.000000e+000 0.000000e+000 0.000000e+000 0.000000e+000 0.000000e+000 0.000000e+000 0.000000e+000 0.000000e+000 0.000000e+000 0.000000e+000 0.000000e+000 0.000000e+000 0.000000e+000 0.000000e+000 0.000000e+000 0.000000e+000 8.388614e-001 1.611386e-001 
0.000000e+000 0.000000e+000 0.000000e+000 0.000000e+000 0.000000e+000 0.000000e+000 0.000000e+000 0.000000e+000 0.000000e+000 0.000000e+000 0.000000e+000 0.000000e+000 0.000000e+000 0.000000e+000 0.000000e+000 0.000000e+000 0.000000e+000 0.000000e+000 0.000000e+000 0.000000e+000 0.000000e+000 0.000000e+000 0.000000e+000 0.000000e+000 0.000000e+000 
