<HMMNAME> 6
<HMMSTATES> 25
<STATE> 1
<MEAN> 36
-2.806141e+001 -7.091934e+000 1.742759e+001 -3.447790e+000 1.503557e+000 -2.183334e+000 2.305403e+000 -4.570540e+000 1.305058e+001 -3.006606e+000 -3.669032e+000 1.740417e+000 -1.992610e-001 1.172190e-002 3.611088e-002 -8.758572e-002 -2.611971e-002 -2.914802e-002 -7.606926e-002 -1.902472e-002 3.848810e-002 2.098463e-002 -1.097792e-001 5.660076e-004 6.337171e-002 3.402965e-002 -3.763756e-002 1.447484e-002 -3.167063e-002 6.216552e-003 3.210767e-002 7.843039e-003 -3.402351e-002 1.649871e-002 2.395324e-002 1.284469e-002 
<VARIANCE> 36
2.983396e+001 2.173249e+001 1.527452e+001 1.929325e+001 4.418477e+001 7.225488e+001 5.291738e+001 5.197076e+001 5.903134e+001 3.080866e+001 4.217784e+001 3.046015e+001 8.793136e-001 7.568440e-001 7.545792e-001 1.253808e+000 1.458024e+000 1.755094e+000 2.457177e+000 1.870334e+000 2.469773e+000 1.954477e+000 1.845387e+000 1.811235e+000 1.057886e-001 1.443317e-001 1.252237e-001 2.531853e-001 2.714823e-001 3.389612e-001 5.018361e-001 3.633794e-001 5.014683e-001 4.571775e-001 3.890410e-001 3.710075e-001 
<GCONST> 9.862996e+001
<STATE> 2
<MEAN> 36
-2.851911e+001 4.558485e+000 1.501145e+001 -4.786358e+000 -4.807683e-001 7.663342e+000 -1.794793e+000 6.921322e+000 5.149804e+000 -5.449094e+000 3.276103e+000 6.732057e+000 3.129396e-002 -5.193983e-002 -6.311306e-002 3.599227e-002 -1.946208e-002 -2.417971e-001 1.218381e-001 1.551434e-001 -1.428041e-001 -4.220657e-002 1.598995e-002 -1.072877e-002 9.349552e-002 -4.477638e-002 -4.255771e-002 1.827064e-002 -3.442237e-003 -2.819078e-002 5.424699e-003 2.699319e-002 2.108612e-002 2.914688e-003 -1.162910e-002 -3.841083e-002 
<VARIANCE> 36
1.114445e+001 1.904694e+001 1.313543e+001 1.362059e+001 1.849974e+001 3.610553e+001 2.630008e+001 5.183885e+001 3.538459e+001 2.595664e+001 2.363636e+001 2.729203e+001 6.297736e-001 5.373196e-001 5.730339e-001 1.110023e+000 1.191610e+000 1.676140e+000 1.942371e+000 2.321028e+000 1.701014e+000 2.189468e+000 2.059588e+000 1.721263e+000 6.134320e-002 9.182428e-002 1.173334e-001 2.322461e-001 2.341040e-001 3.059494e-001 3.740856e-001 4.482404e-001 3.254971e-001 4.283971e-001 3.893476e-001 3.640094e-001 
<GCONST> 8.983667e+001
<STATE> 3
<MEAN> 36
-2.943370e+001 -3.839784e+000 1.575860e+001 -6.918120e+000 -6.486391e+000 -7.473760e-001 5.544749e+000 -1.021823e+001 6.100790e+000 -4.076813e+000 3.185818e+000 -2.809173e+000 9.456435e-001 8.041233e-003 -4.784688e-001 -2.354366e-002 1.942081e-001 -1.031380e-001 -4.209401e-001 3.787969e-002 1.893273e-001 7.603597e-002 -1.494978e-001 -1.365187e-001 3.130913e-001 3.330067e-002 -8.320786e-002 5.143953e-002 2.940331e-002 -6.974756e-002 -7.918551e-002 3.021244e-002 6.892577e-002 -1.532291e-002 -3.476260e-002 2.041623e-003 
<VARIANCE> 36
2.875834e+001 1.663275e+001 1.475886e+001 1.705812e+001 2.995466e+001 7.145450e+001 4.421698e+001 9.238444e+001 4.123176e+001 2.410796e+001 3.088077e+001 3.141364e+001 2.200868e+000 8.728100e-001 9.549973e-001 1.154181e+000 1.362128e+000 1.840987e+000 1.657499e+000 1.584841e+000 2.336001e+000 1.949808e+000 2.005459e+000 1.979420e+000 2.497094e-001 1.536284e-001 1.525062e-001 2.265096e-001 2.833446e-001 3.760345e-001 3.182258e-001 2.782991e-001 4.723357e-001 3.335531e-001 4.145196e-001 3.970329e-001 
<GCONST> 9.821360e+001
<STATE> 4
<MEAN> 36
-1.770921e+001 -2.585358e+000 9.936982e+000 -2.746272e+000 -1.046132e+000 1.353177e+000 -6.770862e-002 5.739277e+000 8.105803e+000 -4.674730e+000 -1.149766e+000 2.704579e+000 2.397352e+000 -2.695879e-001 -1.129641e+000 2.058158e-001 -8.789035e-001 -6.615462e-001 -5.847644e-002 -2.468590e-001 -4.477550e-001 8.654841e-002 -4.680484e-001 -3.150077e-001 7.077592e-002 -2.265382e-001 -9.964735e-003 -2.617999e-001 -3.919803e-001 -2.895725e-001 -1.962028e-002 -6.091652e-002 -8.040903e-002 9.910398e-002 -4.111089e-002 3.437438e-002 
<VARIANCE> 36
2.329818e+001 1.343120e+001 1.822079e+001 2.107969e+001 2.264646e+001 2.905393e+001 2.799167e+001 8.975814e+001 7.108380e+001 3.229794e+001 4.189681e+001 2.842960e+001 1.903511e+000 2.154874e+000 1.187977e+000 2.178648e+000 2.324322e+000 2.644795e+000 2.751411e+000 3.261439e+000 3.809939e+000 2.056320e+000 2.378520e+000 1.848705e+000 9.906231e-002 2.917746e-001 2.660687e-001 4.946311e-001 4.162844e-001 4.797321e-001 5.292808e-001 6.327859e-001 6.990387e-001 5.077105e-001 5.636926e-001 3.622537e-001 
<GCONST> 1.060112e+002
<STATE> 5
<MEAN> 36
-6.368712e+000 -4.685074e+000 7.382429e+000 -5.987367e+000 -8.112947e+000 -7.723620e+000 -1.297664e+000 -4.027222e+000 7.343019e+000 -2.778662e+000 -1.186096e+000 -1.765328e+000 2.634532e+000 -1.921235e+000 -1.179994e+000 -7.886897e-001 -1.974778e+000 -1.670839e+000 -6.983154e-001 4.832490e-001 7.008701e-001 8.924142e-001 -3.896830e-001 1.800614e-001 -8.570937e-001 -4.944890e-001 2.952229e-002 -8.556568e-002 2.846408e-001 4.066765e-001 1.394269e-001 2.991628e-001 1.394681e-001 1.026197e-001 6.542716e-002 1.243334e-001 
<VARIANCE> 36
1.472833e+001 2.507062e+001 2.066680e+001 3.203730e+001 3.431495e+001 6.037143e+001 1.958885e+001 9.432204e+001 8.494453e+001 2.763869e+001 3.677651e+001 3.065014e+001 2.416488e+000 1.973683e+000 1.310581e+000 3.635658e+000 1.892028e+000 2.346056e+000 2.917605e+000 2.540150e+000 2.697076e+000 2.275757e+000 2.793170e+000 1.541533e+000 1.726889e-001 2.853048e-001 1.865955e-001 3.664568e-001 5.637181e-001 4.136424e-001 2.856229e-001 3.739783e-001 4.684155e-001 4.166565e-001 3.313227e-001 3.355966e-001 
<GCONST> 1.051921e+002
<STATE> 6
<MEAN> 36
-5.272371e+000 -1.064353e+001 3.507611e+000 -8.501060e+000 -1.048198e+001 -5.330829e+000 -9.678978e-001 4.268184e+000 8.005061e+000 -1.127345e+000 -3.651427e+000 4.778819e-001 3.476157e-001 -1.293691e+000 -3.766152e-001 -5.455626e-001 -1.420978e-001 -1.147063e-001 2.843517e-001 7.189570e-001 -7.793340e-002 5.146594e-001 7.093982e-002 9.852398e-002 -3.151372e-001 3.680174e-001 2.656326e-001 2.133030e-001 3.408647e-001 2.531656e-001 1.472917e-001 -1.450792e-001 -1.684883e-001 -1.147133e-001 1.381391e-001 -4.604024e-003 
<VARIANCE> 36
1.690178e+001 4.053066e+001 2.689824e+001 2.430682e+001 2.314907e+001 4.186905e+001 5.204659e+001 1.034838e+002 7.840557e+001 2.420822e+001 2.853471e+001 2.767095e+001 2.978732e-001 1.612378e+000 9.842315e-001 1.351396e+000 1.421627e+000 1.478374e+000 1.817701e+000 1.886677e+000 1.934565e+000 1.714130e+000 1.069094e+000 1.370383e+000 9.340641e-002 1.941557e-001 1.724988e-001 2.027743e-001 2.743544e-001 3.073822e-001 3.380549e-001 3.379554e-001 3.338214e-001 3.400474e-001 2.109158e-001 2.978396e-001 
<GCONST> 9.502308e+001
<STATE> 7
<MEAN> 36
1.820862e+000 -1.329589e+001 1.039712e+001 -6.173271e+000 -1.251459e+001 -7.667332e+000 -9.935304e+000 -2.342728e+000 1.535993e+001 -4.579791e+000 5.199317e+000 -6.655978e+000 3.562440e-002 -1.049709e-001 2.441451e-001 1.570510e-001 -5.980986e-002 3.079858e-002 -1.089155e-001 2.595964e-001 -2.806264e-001 -1.193276e-001 -2.305401e-002 6.830361e-002 -4.110767e-002 5.365264e-002 1.426469e-002 1.602279e-002 1.204614e-002 8.027591e-003 2.884588e-002 -3.754674e-002 -3.386297e-002 8.388480e-003 -1.796059e-002 1.068558e-002 
<VARIANCE> 36
1.257496e+001 1.630971e+001 3.429328e+001 1.797569e+001 2.463736e+001 2.303365e+001 4.337208e+001 4.445206e+001 5.233021e+001 3.412904e+001 3.602315e+001 2.671905e+001 1.737974e-001 3.720550e-001 5.146698e-001 6.627706e-001 8.480470e-001 8.100307e-001 1.027156e+000 1.330694e+000 1.724592e+000 1.377068e+000 1.230965e+000 1.046917e+000 5.000000e-002 5.000000e-002 6.784958e-002 9.887958e-002 1.324672e-001 1.410950e-001 1.635552e-001 1.923385e-001 2.404622e-001 2.150295e-001 2.100010e-001 1.685317e-001 
<GCONST> 7.867709e+001
<STATE> 8
<MEAN> 36
-9.187159e+000 -1.900785e+001 4.151591e+000 -1.434175e+001 -9.596763e+000 -7.211509e+000 8.615455e+000 6.349764e+000 1.348110e-001 1.808769e+000 -3.168250e+000 5.281058e+000 -4.912733e-002 2.097280e-001 2.649268e-001 -8.080192e-002 -1.210595e-001 -1.497464e-001 2.580594e-001 -2.812465e-001 -3.360416e-002 1.398708e-001 8.187934e-002 -6.418505e-002 -5.363819e-003 6.733435e-002 2.356877e-002 1.234725e-002 -1.871803e-002 1.697171e-002 -3.485578e-002 -3.757156e-002 1.678696e-002 -2.287671e-002 1.326227e-003 -3.567852e-002 
<VARIANCE> 36
8.733843e+000 2.000733e+001 1.778117e+001 2.361959e+001 1.883569e+001 2.333748e+001 4.540937e+001 3.884975e+001 2.153489e+001 1.982458e+001 1.865305e+001 1.713508e+001 1.035190e-001 3.789174e-001 3.600075e-001 4.704071e-001 7.374593e-001 7.044539e-001 8.946733e-001 8.528094e-001 7.621775e-001 7.896554e-001 6.665475e-001 6.713326e-001 5.000000e-002 5.000000e-002 5.713661e-002 8.615360e-002 1.209756e-001 1.264354e-001 1.358547e-001 1.392319e-001 1.262767e-001 1.519840e-001 1.246793e-001 1.409682e-001 
<GCONST> 6.805271e+001
<STATE> 9
<MEAN> 36
-1.947315e+000 -1.309667e+001 6.291551e+000 -1.000195e+000 -8.171979e+000 -1.252299e+001 2.520627e+000 2.368319e+000 -2.061486e+000 1.233802e+000 -7.235995e+000 1.313957e+000 -7.463818e-002 1.572174e-001 1.298363e-001 -3.322451e-002 1.871994e-002 2.078659e-002 1.840798e-002 3.928778e-002 -1.663659e-001 1.080082e-003 -7.913597e-002 -1.963967e-002 -2.796019e-002 5.102225e-002 8.374350e-003 -1.739595e-002 -6.008114e-003 -9.262416e-003 -2.416801e-002 -3.033973e-002 1.010486e-002 -2.885148e-002 2.380228e-002 -1.744946e-002 
<VARIANCE> 36
6.252341e+000 1.191526e+001 1.838350e+001 2.212983e+001 2.481430e+001 2.229513e+001 3.088075e+001 2.760611e+001 5.245618e+001 3.790249e+001 3.057543e+001 3.508105e+001 2.761004e-001 5.981855e-001 7.545300e-001 9.193181e-001 1.460761e+000 1.578871e+000 1.459928e+000 1.775972e+000 2.722445e+000 2.245935e+000 2.193739e+000 2.185210e+000 5.000000e-002 9.337440e-002 1.293510e-001 1.907695e-001 2.799692e-001 3.099445e-001 2.691569e-001 3.341869e-001 4.502476e-001 4.369567e-001 3.828432e-001 4.024137e-001 
<GCONST> 8.970126e+001
<STATE> 10
<MEAN> 36
-6.935682e+000 -4.230857e+000 1.347580e+001 -6.319513e+000 -1.447622e+001 -6.219368e+000 3.951314e+000 1.562839e+000 -1.855621e+000 3.201575e+000 7.066761e-001 3.177161e-001 -2.452608e-001 7.192969e-001 3.736024e-001 4.765955e-001 2.307117e-001 4.627965e-001 2.379492e-002 -5.477369e-001 -3.398706e-001 6.802309e-002 9.475681e-002 -1.183561e-001 -5.335916e-002 -2.634751e-002 -3.468464e-002 3.292339e-002 9.723709e-002 5.537609e-002 3.507118e-002 8.998996e-002 5.324109e-002 8.693342e-003 -6.572536e-002 3.895458e-004 
<VARIANCE> 36
2.008589e+001 2.789680e+001 2.481993e+001 6.027794e+001 2.856545e+001 3.872568e+001 6.641959e+001 5.015672e+001 4.739142e+001 2.918153e+001 3.199697e+001 3.338351e+001 2.236864e-001 5.458100e-001 7.535527e-001 1.325530e+000 1.449310e+000 1.742468e+000 1.733774e+000 1.784421e+000 2.144224e+000 1.842253e+000 1.887734e+000 1.460940e+000 5.000000e-002 8.562397e-002 1.456569e-001 2.254531e-001 2.521440e-001 3.394682e-001 3.573772e-001 3.523145e-001 4.072274e-001 3.359597e-001 3.586352e-001 2.503213e-001 
<GCONST> 9.366852e+001
<STATE> 11
<MEAN> 36
-1.064328e+001 -3.282108e+000 1.186099e+001 -3.613698e+000 -7.391216e+000 -3.908151e+000 3.778180e+000 -3.628400e-001 9.826797e-001 4.245408e-001 -1.406500e+000 -6.017900e-001 -1.165218e+000 4.605834e-001 -5.426925e-002 -1.073491e-001 6.125531e-001 -5.675634e-003 3.670152e-001 3.311933e-001 1.414684e-001 2.219103e-003 3.239340e-002 -1.331771e-001 -7.411344e-002 2.111854e-002 5.921913e-003 -9.025559e-002 -2.523066e-002 -1.589315e-001 -4.302509e-002 4.821460e-002 -1.739008e-002 -3.031631e-002 7.625706e-002 2.622246e-003 
<VARIANCE> 36
2.193318e+001 1.707665e+001 4.511842e+001 2.636838e+001 3.002325e+001 7.727904e+001 8.811916e+001 2.799858e+001 5.290534e+001 4.779160e+001 2.692768e+001 3.667531e+001 7.869646e-001 1.002844e+000 1.106839e+000 1.809191e+000 2.271380e+000 2.654315e+000 2.598794e+000 2.390948e+000 2.797444e+000 3.233323e+000 2.745353e+000 1.739069e+000 8.348507e-002 1.435286e-001 1.795083e-001 3.342595e-001 3.575629e-001 4.390267e-001 5.024734e-001 4.292632e-001 5.237116e-001 6.595476e-001 4.750106e-001 3.009177e-001 
<GCONST> 1.036765e+002
<STATE> 12
<MEAN> 36
-1.666319e+001 3.774631e-001 1.302881e+001 -5.874767e+000 -5.844822e+000 -1.023532e+001 -6.395121e+000 -4.497826e-001 4.923283e+000 -3.682125e+000 -2.152049e-001 -5.819218e+000 -4.069299e-001 2.705864e-001 1.517710e-002 -1.562790e-001 1.255175e-001 2.739013e-002 -1.374682e-001 2.304525e-002 -1.066981e-001 -2.631455e-002 5.750134e-002 -1.375793e-001 3.259159e-002 -2.881882e-002 -1.944857e-002 -2.006981e-002 -7.240247e-003 5.563994e-002 1.773118e-002 1.181821e-003 -2.263592e-002 4.360625e-002 3.221332e-002 3.801712e-002 
<VARIANCE> 36
1.393921e+001 1.395491e+001 2.248775e+001 2.094252e+001 3.658939e+001 4.063888e+001 6.202651e+001 3.831545e+001 6.062367e+001 3.043627e+001 2.399657e+001 3.109760e+001 4.754692e-001 7.803528e-001 9.316350e-001 1.598819e+000 1.698920e+000 2.099327e+000 2.219657e+000 2.351097e+000 2.538832e+000 2.531904e+000 2.047276e+000 2.065210e+000 5.000000e-002 1.340918e-001 1.750220e-001 3.155749e-001 3.256253e-001 3.844450e-001 4.198254e-001 4.623138e-001 4.900219e-001 4.959023e-001 4.342494e-001 4.279160e-001 
<GCONST> 9.771914e+001
<STATE> 13
<MEAN> 36
-2.101374e+001 3.596905e+000 1.440905e+001 -1.127801e+001 -6.037571e+000 -8.890928e+000 -8.004951e+000 6.445865e-001 2.590939e+000 -1.979304e+000 -1.705947e+000 -6.324738e+000 -4.019169e-001 1.214425e-001 1.030708e-001 -1.368651e-001 1.289293e-001 3.572313e-001 1.297362e-001 -1.747631e-001 -7.338152e-002 5.778479e-002 6.679070e-002 1.284601e-001 2.607270e-002 -3.405155e-002 9.292832e-003 8.834269e-002 3.820945e-004 7.072607e-002 1.730970e-002 -5.605023e-002 -9.547174e-003 1.376709e-002 1.332746e-002 5.148728e-002 
<VARIANCE> 36
1.361547e+001 1.261860e+001 2.295486e+001 2.345876e+001 3.923645e+001 5.372126e+001 8.766692e+001 3.673857e+001 3.869043e+001 2.921288e+001 3.601715e+001 3.603650e+001 5.107420e-001 6.274528e-001 9.538516e-001 1.098874e+000 1.434140e+000 2.060019e+000 2.225311e+000 1.962434e+000 2.055481e+000 1.862146e+000 1.718872e+000 1.312881e+000 5.582751e-002 8.118093e-002 1.917047e-001 1.992713e-001 2.666538e-001 3.510647e-001 3.893318e-001 3.569723e-001 3.793275e-001 3.218872e-001 2.730813e-001 2.421894e-001 
<GCONST> 9.332841e+001
<STATE> 14
<MEAN> 36
-2.657498e+001 -3.382355e-002 1.756080e+001 -3.304602e+000 -3.667198e+000 -4.576747e-001 7.389524e+000 9.612647e-001 1.169482e+000 6.103653e-001 2.231974e+000 -1.656355e-001 -5.224499e-001 2.670150e-001 -5.871632e-002 -7.730257e-002 2.475727e-001 3.405769e-001 -9.979738e-002 -5.725257e-002 5.761222e-003 1.459530e-001 2.589972e-001 1.666697e-001 1.134170e-001 2.310531e-002 -1.209083e-002 1.534655e-002 8.169867e-003 3.687651e-002 -4.981780e-002 1.416578e-004 -1.167882e-002 -1.105651e-002 -5.246977e-002 -6.058673e-002 
<VARIANCE> 36
2.385401e+001 1.250866e+001 2.521836e+001 1.987604e+001 1.675869e+001 2.272885e+001 5.554611e+001 2.357092e+001 2.257256e+001 3.474874e+001 2.325558e+001 1.875362e+001 6.994486e-001 6.783111e-001 7.400245e-001 1.182237e+000 1.414112e+000 1.647661e+000 1.564374e+000 2.103896e+000 2.189943e+000 1.853691e+000 2.060764e+000 1.370766e+000 5.676218e-002 1.345171e-001 1.462684e-001 2.243228e-001 2.502598e-001 2.971949e-001 3.030818e-001 4.208066e-001 4.241127e-001 3.620321e-001 4.419526e-001 2.940948e-001 
<GCONST> 9.067492e+001
<STATE> 15
<MEAN> 36
-2.706033e+001 9.416036e+000 1.026871e+001 -5.255578e+000 2.279449e+000 1.828268e+000 8.968727e+000 -2.053881e-002 -1.386746e+000 7.366374e+000 1.052584e+000 5.017553e-001 -1.195884e-001 3.026035e-001 -2.167908e-001 1.531409e-001 2.134778e-001 1.229092e-001 -1.168308e-001 -4.568789e-003 1.238277e-001 -6.261573e-002 -5.280351e-003 -5.745749e-003 6.833496e-002 -3.584816e-002 -2.380619e-002 2.590692e-002 9.530946e-003 -4.205769e-002 -2.833989e-002 1.880827e-002 3.472917e-002 -3.923943e-002 -1.687352e-002 -6.829229e-003 
<VARIANCE> 36
5.951367e+000 1.408707e+001 1.577310e+001 1.297321e+001 2.435367e+001 2.213117e+001 4.444918e+001 2.656126e+001 2.295757e+001 2.540466e+001 1.806319e+001 2.166286e+001 3.178147e-001 4.097431e-001 7.251647e-001 9.710466e-001 1.651082e+000 1.737387e+000 2.123391e+000 1.745220e+000 2.199445e+000 2.381973e+000 1.805896e+000 1.853053e+000 5.000000e-002 8.143017e-002 1.456251e-001 2.017082e-001 3.419480e-001 3.343734e-001 4.138549e-001 3.545692e-001 4.267972e-001 4.812874e-001 3.776472e-001 3.676181e-001 
<GCONST> 8.777733e+001
<STATE> 16
<MEAN> 36
-2.283005e+001 3.510371e+000 1.363861e+001 -3.470563e+000 -1.546452e-001 3.474086e+000 1.112989e+000 1.796776e+000 3.981583e+000 -2.472507e+000 2.436367e+000 -4.239818e-001 6.178584e-001 -5.152094e-003 -5.452184e-001 1.775842e-001 4.234618e-001 -2.115239e-002 -3.201772e-001 2.358598e-001 8.509737e-002 -2.064882e-001 -9.067810e-002 7.837324e-003 -1.538582e-002 -9.212062e-002 2.888206e-002 -1.112817e-001 -8.846052e-002 -8.366484e-002 3.370341e-002 -8.839066e-002 -3.057650e-002 5.013972e-003 -4.797088e-002 2.124963e-002 
<VARIANCE> 36
1.742168e+001 2.753989e+001 4.108477e+001 2.325376e+001 2.843479e+001 4.878008e+001 5.189603e+001 2.650832e+001 2.359089e+001 2.847557e+001 2.377993e+001 3.549335e+001 6.502140e-001 7.664282e-001 1.309664e+000 1.479840e+000 1.656099e+000 1.807629e+000 2.370718e+000 2.170931e+000 1.984640e+000 1.957262e+000 1.779227e+000 1.965824e+000 9.230060e-002 1.408307e-001 2.483663e-001 2.103113e-001 2.930623e-001 3.805772e-001 4.698330e-001 3.170926e-001 4.080150e-001 3.924822e-001 3.378466e-001 4.188307e-001 
<GCONST> 9.703842e+001
<STATE> 17
<MEAN> 36
-2.028468e+001 1.163299e+001 2.467068e+000 2.164381e-001 6.340798e+000 -4.362536e-001 7.926368e+000 5.909253e-001 3.251443e+000 2.599469e+000 1.192457e+000 2.183352e+000 8.142549e-002 -7.179921e-002 3.534691e-002 -7.714837e-002 6.378653e-002 -6.954759e-002 -8.128296e-003 2.917001e-002 -2.226026e-002 -2.085391e-003 -4.203515e-002 4.617897e-002 -3.057792e-002 -1.510437e-002 4.584050e-002 -2.691619e-002 -2.776000e-002 1.899648e-002 3.530159e-003 -9.400881e-003 -1.463963e-002 1.688831e-002 6.733623e-003 -1.275410e-002 
<VARIANCE> 36
1.923130e+001 1.516287e+001 1.704473e+001 2.392152e+001 2.420004e+001 2.818436e+001 3.394323e+001 2.831635e+001 2.325062e+001 2.226784e+001 1.992098e+001 1.921894e+001 8.834292e-001 7.467318e-001 8.609822e-001 1.315187e+000 1.762867e+000 2.232765e+000 2.095040e+000 2.164240e+000 1.969006e+000 1.997956e+000 1.915688e+000 1.784927e+000 8.987362e-002 1.236204e-001 1.562214e-001 2.640396e-001 3.695363e-001 4.384425e-001 3.826575e-001 4.288319e-001 4.066333e-001 4.265553e-001 3.871775e-001 3.656463e-001 
<GCONST> 9.360703e+001
<STATE> 18
<MEAN> 36
-2.360736e+001 1.919590e+000 8.748479e+000 -7.691097e+000 -1.036578e+000 -3.651955e+000 -5.928979e+000 -2.306856e+000 -5.937061e-001 -4.095408e+000 -8.070090e-002 -7.893502e+000 -2.757716e-001 -3.685472e-001 3.264819e-002 -2.618041e-001 -9.586630e-002 3.531015e-001 8.241836e-002 -4.183350e-002 -8.288170e-004 2.008293e-001 1.786860e-001 -1.647878e-001 -3.547433e-002 -2.085434e-002 1.198892e-002 2.523874e-002 -1.898721e-002 9.054720e-002 1.072347e-001 -8.579191e-003 -1.494178e-002 6.975502e-002 8.712681e-002 2.446332e-002 
<VARIANCE> 36
2.884277e+001 3.577034e+001 3.076735e+001 3.839603e+001 5.155980e+001 3.217547e+001 5.489020e+001 7.912375e+001 3.562022e+001 4.543611e+001 2.775027e+001 4.087437e+001 5.164555e-001 9.296082e-001 1.424368e+000 1.308005e+000 2.119542e+000 1.378424e+000 2.346149e+000 2.819999e+000 3.294692e+000 2.824320e+000 2.167523e+000 1.550910e+000 7.383524e-002 1.609012e-001 2.166231e-001 2.738595e-001 3.918172e-001 2.947741e-001 4.045961e-001 5.232338e-001 6.331527e-001 5.919477e-001 4.175265e-001 3.320074e-001 
<GCONST> 1.027572e+002
<STATE> 19
<MEAN> 36
-2.421430e+001 -4.017338e+000 1.050723e+001 -1.260318e+001 -5.318246e+000 3.638584e+000 -1.283081e+000 1.300979e+000 2.759497e-001 -6.233226e+000 1.674968e+000 -2.515485e+000 -1.442912e-001 -2.343695e-001 1.462674e-001 9.470248e-002 -8.450669e-002 4.038018e-001 4.439310e-001 -2.162074e-001 -2.484948e-001 1.699189e-001 1.122736e-001 -9.416872e-002 6.664178e-002 7.547793e-002 1.179664e-003 1.441292e-001 2.762395e-003 -7.208076e-002 4.202456e-002 -2.360451e-002 -6.122627e-002 -2.933224e-002 -4.716480e-002 -8.451763e-003 
<VARIANCE> 36
1.990571e+001 4.897590e+001 7.788352e+001 6.351029e+001 7.110746e+001 5.356989e+001 1.051900e+002 1.156517e+002 6.788531e+001 8.649323e+001 4.896996e+001 3.846366e+001 7.034343e-001 7.657485e-001 1.277294e+000 1.752247e+000 1.639249e+000 3.281584e+000 3.130236e+000 2.905452e+000 3.587698e+000 3.471678e+000 2.753990e+000 2.168402e+000 9.075633e-002 1.205106e-001 2.262381e-001 3.426130e-001 3.453912e-001 4.935727e-001 5.445752e-001 5.465332e-001 7.062352e-001 6.197510e-001 4.840456e-001 4.329693e-001 
<GCONST> 1.113662e+002
<STATE> 20
<MEAN> 36
-2.668760e+001 -1.178927e+000 1.378324e+001 -6.557319e+000 -1.591586e+000 3.300830e+000 3.530989e+000 -3.293601e+000 -6.099133e-001 1.921083e+000 3.887316e+000 -3.932913e+000 3.545143e-001 -2.215396e-001 3.723825e-002 3.104207e-001 -1.549244e-001 -8.740765e-002 2.159795e-001 -7.249368e-002 -3.050959e-001 9.965331e-003 1.400539e-001 7.385647e-002 7.567382e-002 2.847131e-002 -1.061460e-001 2.050898e-002 2.434741e-002 -6.144757e-002 -1.393105e-001 1.968178e-002 -7.578888e-003 -9.973444e-002 -5.057775e-002 2.068466e-002 
<VARIANCE> 36
1.554686e+001 4.156662e+001 3.101713e+001 1.982378e+001 6.194399e+001 2.624624e+001 4.738124e+001 5.339637e+001 3.236809e+001 3.761491e+001 2.401908e+001 4.153773e+001 4.498618e-001 5.925522e-001 8.379503e-001 1.165901e+000 1.847328e+000 1.487258e+000 2.026820e+000 2.393796e+000 2.701397e+000 2.019106e+000 1.769471e+000 1.614989e+000 6.001427e-002 1.032210e-001 1.358618e-001 2.091946e-001 3.633477e-001 2.759352e-001 3.610731e-001 4.447659e-001 5.177442e-001 3.794049e-001 3.988011e-001 3.212736e-001 
<GCONST> 9.583120e+001
<STATE> 21
<MEAN> 36
-2.017004e+001 -5.301404e+000 9.387429e+000 -7.066215e+000 -2.339197e+000 6.529726e-001 -2.052962e+000 -6.833434e+000 -2.678935e+000 -4.011230e+000 3.635696e+000 -6.124207e+000 2.891376e-001 -4.987394e-002 -3.570440e-001 1.215856e-001 2.598133e-001 -4.996724e-002 -1.323775e-001 1.793798e-001 1.426562e-001 -1.261796e-001 -1.249348e-001 3.302889e-002 -4.136122e-004 3.901215e-003 -2.474444e-002 4.923162e-004 2.633938e-002 4.937145e-002 3.383456e-002 3.372810e-002 6.576656e-002 2.656456e-002 -4.124308e-002 -9.747989e-003 
<VARIANCE> 36
1.799484e+001 3.054217e+001 4.873613e+001 4.394096e+001 5.019407e+001 4.259088e+001 5.295609e+001 5.828861e+001 5.558777e+001 4.860443e+001 3.376403e+001 4.117505e+001 3.954633e-001 5.773859e-001 1.151387e+000 1.584587e+000 1.965438e+000 2.296085e+000 2.627634e+000 2.502497e+000 2.680748e+000 3.034455e+000 2.869004e+000 2.113986e+000 5.286499e-002 1.125044e-001 2.173124e-001 3.046755e-001 4.042694e-001 4.668723e-001 5.224252e-001 5.091674e-001 5.490620e-001 5.779127e-001 5.960968e-001 4.245971e-001 
<GCONST> 1.040435e+002
<STATE> 22
<MEAN> 36
-1.516958e+001 4.247203e+000 1.112641e+001 -5.713346e-001 6.216538e+000 4.536316e+000 -4.997117e+000 4.271396e+000 -4.388144e+000 -1.090886e+000 5.919044e-001 -6.771058e+000 4.015800e-001 7.363019e-002 -4.750741e-001 4.875413e-001 -5.576868e-002 1.051066e-001 -6.984706e-002 -1.679783e-001 1.118705e-001 -1.204837e-001 -1.373729e-001 1.336704e-001 -6.686579e-002 -3.437507e-002 -1.020708e-001 -1.165568e-001 -6.972180e-002 -2.113585e-002 -5.990332e-002 -5.507250e-002 1.452881e-001 8.073102e-002 5.590753e-002 4.158582e-002 
<VARIANCE> 36
3.436773e+001 9.063261e+001 4.814879e+001 5.793066e+001 6.322987e+001 4.141397e+001 1.629097e+002 7.358463e+001 5.424217e+001 3.878169e+001 2.078474e+001 6.187401e+001 5.473024e-001 1.046078e+000 1.845583e+000 1.700128e+000 1.747267e+000 2.209035e+000 2.781014e+000 3.054952e+000 2.841903e+000 2.196309e+000 2.130138e+000 2.063365e+000 5.989909e-002 2.037664e-001 2.269002e-001 3.327509e-001 2.017916e-001 4.254585e-001 5.352149e-001 6.357537e-001 6.031137e-001 4.945584e-001 4.198990e-001 4.358331e-001 
<GCONST> 1.081710e+002
<STATE> 23
<MEAN> 36
-1.343338e+001 5.482772e+000 4.304388e+000 1.857509e+000 3.688375e+000 2.823939e+000 4.895365e+000 3.439092e+000 1.932063e+000 1.998635e+000 1.258069e+000 1.526747e+000 2.372015e-001 -5.253155e-002 -2.284868e-001 1.786866e-001 -2.594393e-002 1.766666e-001 -1.515238e-001 -2.593843e-002 4.141268e-002 -3.512789e-002 -5.957544e-003 -4.528540e-002 -3.496549e-002 -1.030919e-002 3.406570e-002 -1.458570e-002 8.531639e-003 2.449316e-003 3.451980e-003 -5.269302e-003 -2.525321e-002 6.739774e-003 3.619778e-002 -1.180924e-002 
<VARIANCE> 36
1.063760e+001 1.698917e+001 1.586174e+001 2.138646e+001 2.165842e+001 2.147662e+001 2.857754e+001 2.597595e+001 2.159572e+001 2.546284e+001 2.052370e+001 1.783347e+001 2.731499e-001 5.135623e-001 8.841075e-001 1.319222e+000 1.901180e+000 1.850031e+000 2.210035e+000 2.023375e+000 2.190597e+000 2.393324e+000 1.997357e+000 1.493068e+000 5.564056e-002 1.022162e-001 1.672017e-001 2.554212e-001 3.757847e-001 3.421883e-001 4.017963e-001 3.985406e-001 4.112877e-001 4.860947e-001 4.108024e-001 2.971730e-001 
<GCONST> 8.992776e+001
<TRANSP> 25
0.000000e+000 1.000000e+000 0.000000e+000 0.000000e+000 0.000000e+000 0.000000e+000 0.000000e+000 0.000000e+000 0.000000e+000 0.000000e+000 0.000000e+000 0.000000e+000 0.000000e+000 0.000000e+000 0.000000e+000 0.000000e+000 0.000000e+000 0.000000e+000 0.000000e+000 0.000000e+000 0.000000e+000 0.000000e+000 0.000000e+000 0.000000e+000 0.000000e+000 
0.000000e+000 8.783542e-001 1.216458e-001 0.000000e+000 0.000000e+000 0.000000e+000 0.000000e+000 0.000000e+000 0.000000e+000 0.000000e+000 0.000000e+000 0.000000e+000 0.000000e+000 0.000000e+000 0.000000e+000 0.000000e+000 0.000000e+000 0.000000e+000 0.000000e+000 0.000000e+000 0.000000e+000 0.000000e+000 0.000000e+000 0.000000e+000 0.000000e+000 
0.000000e+000 0.000000e+000 8.955453e-001 1.044547e-001 0.000000e+000 0.000000e+000 0.000000e+000 0.000000e+000 0.000000e+000 0.000000e+000 0.000000e+000 0.000000e+000 0.000000e+000 0.000000e+000 0.000000e+000 0.000000e+000 0.000000e+000 0.000000e+000 0.000000e+000 0.000000e+000 0.000000e+000 0.000000e+000 0.000000e+000 0.000000e+000 0.000000e+000 
0.000000e+000 0.000000e+000 0.000000e+000 8.162163e-001 1.837838e-001 0.000000e+000 0.000000e+000 0.000000e+000 0.000000e+000 0.000000e+000 0.000000e+000 0.000000e+000 0.000000e+000 0.000000e+000 0.000000e+000 0.000000e+000 0.000000e+000 0.000000e+000 0.000000e+000 0.000000e+000 0.000000e+000 0.000000e+000 0.000000e+000 0.000000e+000 0.000000e+000 
0.000000e+000 0.000000e+000 0.000000e+000 0.000000e+000 7.481482e-001 2.518518e-001 0.000000e+000 0.000000e+000 0.000000e+000 0.000000e+000 0.000000e+000 0.000000e+000 0.000000e+000 0.000000e+000 0.000000e+000 0.000000e+000 0.000000e+000 0.000000e+000 0.000000e+000 0.000000e+000 0.000000e+000 0.000000e+000 0.000000e+000 0.000000e+000 0.000000e+000 
0.000000e+000 0.000000e+000 0.000000e+000 0.000000e+000 0.000000e+000 5.526316e-001 4.473684e-001 0.000000e+000 0.000000e+000 0.000000e+000 0.000000e+000 0.000000e+000 0.000000e+000 0.000000e+000 0.000000e+000 0.000000e+000 0.000000e+000 0.000000e+000 0.000000e+000 0.000000e+000 0.000000e+000 0.000000e+000 0.000000e+000 0.000000e+000 0.000000e+000 
0.000000e+000 0.000000e+000 0.000000e+000 0.000000e+000 0.000000e+000 0.000000e+000 6.777251e-001 3.222749e-001 0.000000e+000 0.000000e+000 0.000000e+000 0.000000e+000 0.000000e+000 0.000000e+000 0.000000e+000 0.000000e+000 0.000000e+000 0.000000e+000 0.000000e+000 0.000000e+000 0.000000e+000 0.000000e+000 0.000000e+000 0.000000e+000 0.000000e+000 
0.000000e+000 0.000000e+000 0.000000e+000 0.000000e+000 0.000000e+000 0.000000e+000 0.000000e+000 9.072306e-001 9.276945e-002 0.000000e+000 0.000000e+000 0.000000e+000 0.000000e+000 0.000000e+000 0.000000e+000 0.000000e+000 0.000000e+000 0.000000e+000 0.000000e+000 0.000000e+000 0.000000e+000 0.000000e+000 0.000000e+000 0.000000e+000 0.000000e+000 
0.000000e+000 0.000000e+000 0.000000e+000 0.000000e+000 0.000000e+000 0.000000e+000 0.000000e+000 0.000000e+000 9.069768e-001 9.302324e-002 0.000000e+000 0.000000e+000 0.000000e+000 0.000000e+000 0.000000e+000 0.000000e+000 0.000000e+000 0.000000e+000 0.000000e+000 0.000000e+000 0.000000e+000 0.000000e+000 0.000000e+000 0.000000e+000 0.000000e+000 
0.000000e+000 0.000000e+000 0.000000e+000 0.000000e+000 0.000000e+000 0.000000e+000 0.000000e+000 0.000000e+000 0.000000e+000 8.815331e-001 1.184669e-001 0.000000e+000 0.000000e+000 0.000000e+000 0.000000e+000 0.000000e+000 0.000000e+000 0.000000e+000 0.000000e+000 0.000000e+000 0.000000e+000 0.000000e+000 0.000000e+000 0.000000e+000 0.000000e+000 
0.000000e+000 0.000000e+000 0.000000e+000 0.000000e+000 0.000000e+000 0.000000e+000 0.000000e+000 0.000000e+000 0.000000e+000 0.000000e+000 8.637275e-001 1.362725e-001 0.000000e+000 0.000000e+000 0.000000e+000 0.000000e+000 0.000000e+000 0.000000e+000 0.000000e+000 0.000000e+000 0.000000e+000 0.000000e+000 0.000000e+000 0.000000e+000 0.000000e+000 
0.000000e+000 0.000000e+000 0.000000e+000 0.000000e+000 0.000000e+000 0.000000e+000 0.000000e+000 0.000000e+000 0.000000e+000 0.000000e+000 0.000000e+000 8.528138e-001 1.471861e-001 0.000000e+000 0.000000e+000 0.000000e+000 0.000000e+000 0.000000e+000 0.000000e+000 0.000000e+000 0.000000e+000 0.000000e+000 0.000000e+000 0.000000e+000 0.000000e+000 
0.000000e+000 0.000000e+000 0.000000e+000 0.000000e+000 0.000000e+000 0.000000e+000 0.000000e+000 0.000000e+000 0.000000e+000 0.000000e+000 0.000000e+000 0.000000e+000 8.948996e-001 1.051005e-001 0.000000e+000 0.000000e+000 0.000000e+000 0.000000e+000 0.000000e+000 0.000000e+000 0.000000e+000 0.000000e+000 0.000000e+000 0.000000e+000 0.000000e+000 
0.000000e+000 0.000000e+000 0.000000e+000 0.000000e+000 0.000000e+000 0.000000e+000 0.000000e+000 0.000000e+000 0.000000e+000 0.000000e+000 0.000000e+000 0.000000e+000 0.000000e+000 8.229167e-001 1.770833e-001 0.000000e+000 0.000000e+000 0.000000e+000 0.000000e+000 0.000000e+000 0.000000e+000 0.000000e+000 0.000000e+000 0.000000e+000 0.000000e+000 
0.000000e+000 0.000000e+000 0.000000e+000 0.000000e+000 0.000000e+000 0.000000e+000 0.000000e+000 0.000000e+000 0.000000e+000 0.000000e+000 0.000000e+000 0.000000e+000 0.000000e+000 0.000000e+000 7.861635e-001 2.138365e-001 0.000000e+000 0.000000e+000 0.000000e+000 0.000000e+000 0.000000e+000 0.000000e+000 0.000000e+000 0.000000e+000 0.000000e+000 
0.000000e+000 0.000000e+000 0.000000e+000 0.000000e+000 0.000000e+000 0.000000e+000 0.000000e+000 0.000000e+000 0.000000e+000 0.000000e+000 0.000000e+000 0.000000e+000 0.000000e+000 0.000000e+000 0.000000e+000 9.171741e-001 8.282581e-002 0.000000e+000 0.000000e+000 0.000000e+000 0.000000e+000 0.000000e+000 0.000000e+000 0.000000e+000 0.000000e+000 
0.000000e+000 0.000000e+000 0.000000e+000 0.000000e+000 0.000000e+000 0.000000e+000 0.000000e+000 0.000000e+000 0.000000e+000 0.000000e+000 0.000000e+000 0.000000e+000 0.000000e+000 0.000000e+000 0.000000e+000 0.000000e+000 6.746411e-001 3.253588e-001 0.000000e+000 0.000000e+000 0.000000e+000 0.000000e+000 0.000000e+000 0.000000e+000 0.000000e+000 
0.000000e+000 0.000000e+000 0.000000e+000 0.000000e+000 0.000000e+000 0.000000e+000 0.000000e+000 0.000000e+000 0.000000e+000 0.000000e+000 0.000000e+000 0.000000e+000 0.000000e+000 0.000000e+000 0.000000e+000 0.000000e+000 0.000000e+000 9.313131e-001 6.868686e-002 0.000000e+000 0.000000e+000 0.000000e+000 0.000000e+000 0.000000e+000 0.000000e+000 
0.000000e+000 0.000000e+000 0.000000e+000 0.000000e+000 0.000000e+000 0.000000e+000 0.000000e+000 0.000000e+000 0.000000e+000 0.000000e+000 0.000000e+000 0.000000e+000 0.000000e+000 0.000000e+000 0.000000e+000 0.000000e+000 0.000000e+000 0.000000e+000 8.051576e-001 1.948424e-001 0.000000e+000 0.000000e+000 0.000000e+000 0.000000e+000 0.000000e+000 
0.000000e+000 0.000000e+000 0.000000e+000 0.000000e+000 0.000000e+000 0.000000e+000 0.000000e+000 0.000000e+000 0.000000e+000 0.000000e+000 0.000000e+000 0.000000e+000 0.000000e+000 0.000000e+000 0.000000e+000 0.000000e+000 0.000000e+000 0.000000e+000 0.000000e+000 7.785016e-001 2.214984e-001 0.000000e+000 0.000000e+000 0.000000e+000 0.000000e+000 
0.000000e+000 0.000000e+000 0.000000e+000 0.000000e+000 0.000000e+000 0.000000e+000 0.000000e+000 0.000000e+000 0.000000e+000 0.000000e+000 0.000000e+000 0.000000e+000 0.000000e+000 0.000000e+000 0.000000e+000 0.000000e+000 0.000000e+000 0.000000e+000 0.000000e+000 0.000000e+000 8.454546e-001 1.545455e-001 0.000000e+000 0.000000e+000 0.000000e+000 
0.000000e+000 0.000000e+000 0.000000e+000 0.000000e+000 0.000000e+000 0.000000e+000 0.000000e+000 0.000000e+000 0.000000e+000 0.000000e+000 0.000000e+000 0.000000e+000 0.000000e+000 0.000000e+000 0.000000e+000 0.000000e+000 0.000000e+000 0.000000e+000 0.000000e+000 0.000000e+000 0.000000e+000 8.716982e-001 1.283019e-001 0.000000e+000 0.000000e+000 
0.000000e+000 0.000000e+000 0.000000e+000 0.000000e+000 0.000000e+000 0.000000e+000 0.000000e+000 0.000000e+000 0.000000e+000 0.000000e+000 0.000000e+000 0.000000e+000 0.000000e+000 0.000000e+000 0.000000e+000 0.000000e+000 0.000000e+000 0.000000e+000 0.000000e+000 0.000000e+000 0.000000e+000 0.000000e+000 5.750000e-001 4.250000e-001 0.000000e+000 
0.000000e+000 0.000000e+000 0.000000e+000 0.000000e+000 0.000000e+000 0.000000e+000 0.000000e+000 0.000000e+000 0.000000e+000 0.000000e+000 0.000000e+000 0.000000e+000 0.000000e+000 0.000000e+000 0.000000e+000 0.000000e+000 0.000000e+000 0.000000e+000 0.000000e+000 0.000000e+000 0.000000e+000 0.000000e+000 0.000000e+000 8.794326e-001 1.205674e-001 
0.000000e+000 0.000000e+000 0.000000e+000 0.000000e+000 0.000000e+000 0.000000e+000 0.000000e+000 0.000000e+000 0.000000e+000 0.000000e+000 0.000000e+000 0.000000e+000 0.000000e+000 0.000000e+000 0.000000e+000 0.000000e+000 0.000000e+000 0.000000e+000 0.000000e+000 0.000000e+000 0.000000e+000 0.000000e+000 0.000000e+000 0.000000e+000 0.000000e+000 
