<HMMNAME> 7
<HMMSTATES> 5
<STATE> 1
<MEAN> 36
-7.209485e+000 -7.163932e+000 -2.569563e+000 -1.588563e+000 5.750186e+000 -5.783243e-001 -1.184471e+000 6.572711e+000 -4.234670e+000 -7.977900e+000 -3.188395e+000 6.423895e-004 5.855377e-002 1.338683e-001 -4.401029e-002 -2.721751e-002 -4.266613e-002 1.932608e-002 9.268147e-003 -3.292206e-002 5.576170e-002 2.442451e-002 -2.860536e-002 -3.581706e-002 -3.699220e-003 2.712678e-003 1.186795e-003 9.483278e-003 2.509117e-003 -3.624591e-004 3.915627e-003 6.883186e-003 3.874545e-003 1.119729e-002 1.410975e-002 1.023353e-002 
<VARIANCE> 36
3.888255e+001 4.885419e+001 3.995186e+001 1.904862e+001 1.722728e+001 2.169180e+001 1.929516e+001 2.251456e+001 2.091915e+001 3.666410e+001 2.534571e+001 1.794486e+001 4.453356e-001 4.652197e-001 5.765051e-001 8.115759e-001 6.489133e-001 9.019456e-001 1.013941e+000 1.186148e+000 1.113525e+000 1.271577e+000 1.095058e+000 6.679111e-001 5.000000e-002 7.042728e-002 7.907125e-002 1.576978e-001 1.133871e-001 1.551463e-001 1.895242e-001 2.201988e-001 2.010042e-001 1.843001e-001 1.946062e-001 1.174066e-001 
<GCONST> 7.813291e+001
<STATE> 2
<MEAN> 36
-1.203716e+001 -1.022889e-001 -6.947946e-002 2.071683e+000 1.740945e+000 2.310066e+000 2.522630e+000 2.609606e+000 1.853563e+000 1.166737e+000 1.048631e+000 5.783055e-001 -3.567405e-002 -4.388226e-002 -7.593326e-003 3.644294e-002 3.191650e-002 -9.072789e-003 -1.196927e-002 7.945717e-003 -8.466364e-003 -6.243129e-003 1.191998e-002 1.247541e-002 5.705804e-003 -4.902367e-003 -8.205389e-003 -2.025940e-003 1.718960e-003 -5.681705e-003 -7.307633e-003 -3.290152e-003 -9.763001e-003 -1.091115e-002 -3.990805e-003 -2.926051e-003 
<VARIANCE> 36
2.295980e+000 2.780817e+000 2.877368e+000 4.147641e+000 5.465466e+000 7.020444e+000 7.784735e+000 9.466777e+000 1.004732e+001 8.904262e+000 8.519429e+000 8.084081e+000 9.230215e-002 2.357071e-001 3.516431e-001 4.866242e-001 5.782123e-001 7.958377e-001 8.005075e-001 1.046107e+000 1.198124e+000 1.103379e+000 9.588360e-001 9.192986e-001 5.000000e-002 5.000000e-002 7.328856e-002 9.879383e-002 1.153359e-001 1.632151e-001 1.582762e-001 2.162897e-001 2.585478e-001 2.244936e-001 1.982823e-001 1.977202e-001 
<GCONST> 5.642406e+001
<STATE> 3
<MEAN> 36
-1.207810e+001 -1.253779e+001 1.102138e+000 6.712561e-001 7.549790e+000 5.772214e-001 7.818646e-002 7.250196e+000 -4.297491e+000 -5.766012e+000 -8.559422e-001 2.579301e+000 1.460552e-001 1.177602e-003 -8.606245e-002 -1.630427e-001 9.648806e-002 4.004401e-002 -1.054900e-001 2.595629e-003 -1.093490e-001 -1.781405e-001 -1.100092e-001 -1.030504e-002 9.854841e-004 1.974055e-002 2.589032e-003 -1.506932e-002 -1.313970e-002 6.620195e-003 5.363455e-003 -5.887229e-003 1.593860e-002 2.307247e-002 -7.874053e-003 -3.684173e-003 
<VARIANCE> 36
2.992429e+001 3.718762e+001 3.914864e+001 2.521648e+001 1.301945e+001 2.054596e+001 1.700150e+001 1.124685e+001 1.176965e+001 3.110576e+001 2.564164e+001 1.261751e+001 4.260987e-001 7.604514e-001 8.230793e-001 6.795547e-001 7.933358e-001 9.766139e-001 9.015301e-001 1.055895e+000 1.313491e+000 1.350557e+000 1.170834e+000 9.733461e-001 5.245082e-002 7.815430e-002 1.238020e-001 1.110927e-001 1.552383e-001 1.958993e-001 1.815503e-001 2.127208e-001 2.666432e-001 2.776052e-001 2.257118e-001 1.934214e-001 
<GCONST> 7.902419e+001
<TRANSP> 5
0.000000e+000 1.000000e+000 0.000000e+000 0.000000e+000 0.000000e+000 
0.000000e+000 9.827559e-001 1.724406e-002 0.000000e+000 0.000000e+000 
0.000000e+000 0.000000e+000 9.879917e-001 1.200833e-002 0.000000e+000 
0.000000e+000 0.000000e+000 0.000000e+000 9.715734e-001 2.842659e-002 
0.000000e+000 0.000000e+000 0.000000e+000 0.000000e+000 0.000000e+000 
