<HMMNAME> 7
<HMMSTATES> 25
<STATE> 1
<MEAN> 36
-1.054805e+001 -2.075227e+001 -8.422853e+000 5.790863e+000 9.340722e+000 5.986981e+000 9.211784e-001 4.596965e+000 -2.007644e+000 -1.858750e+000 -2.070599e+000 3.012388e-001 -1.197554e-001 -1.179407e+000 3.719935e-001 -2.385807e-001 5.120692e-002 2.817729e-001 -3.200069e-002 1.452559e-001 -3.209163e-001 -1.075571e-001 6.632347e-002 -6.831568e-002 -4.837733e-002 7.566886e-002 1.169179e-001 -6.174205e-002 8.811134e-003 1.753068e-003 3.753733e-003 8.111179e-003 4.168043e-002 4.974878e-002 4.270281e-002 2.198541e-002 
<VARIANCE> 36
7.480731e+000 8.725554e+001 5.883063e+001 3.887722e+001 1.115632e+001 3.425635e+001 2.157424e+001 3.842283e+001 2.513372e+001 1.650908e+001 1.413341e+001 1.436568e+001 2.564887e-001 9.985773e-001 1.622916e+000 1.121796e+000 8.020293e-001 9.272022e-001 9.861828e-001 1.103351e+000 1.380156e+000 1.291178e+000 1.239038e+000 1.242791e+000 5.251575e-002 1.067431e-001 3.207659e-001 1.687022e-001 1.452261e-001 1.694992e-001 2.099098e-001 2.167169e-001 2.993664e-001 2.623022e-001 2.299981e-001 2.949350e-001 
<GCONST> 8.429182e+001
<STATE> 2
<MEAN> 36
-1.412125e+001 -3.124230e+001 1.427356e+000 4.188214e+000 1.341118e+001 1.003432e+001 -7.681900e+000 2.753726e+000 -1.225338e+000 -1.185403e+000 -1.324390e+000 1.192253e+000 -5.222003e-002 -1.995575e-001 7.554125e-002 -2.804761e-001 1.329041e-001 1.669592e-001 1.703263e-001 2.095389e-001 -2.203949e-001 -3.470674e-002 -1.002067e-001 -4.219305e-002 3.395705e-002 9.323410e-002 -6.403570e-002 4.161455e-002 -5.419273e-002 -1.610586e-002 4.391547e-002 -5.735440e-004 -1.395245e-002 -3.299452e-002 3.282909e-003 -4.252681e-003 
<VARIANCE> 36
3.155675e+000 8.900721e+000 1.822995e+001 1.522980e+001 9.072766e+000 1.218239e+001 2.910528e+001 1.873128e+001 1.802246e+001 1.255775e+001 2.077990e+001 8.598049e+000 1.800365e-001 3.740720e-001 4.989417e-001 5.234916e-001 5.608876e-001 9.206938e-001 8.645020e-001 9.830486e-001 9.284930e-001 1.245098e+000 1.130257e+000 8.034180e-001 5.000000e-002 5.000000e-002 6.862466e-002 1.091375e-001 1.204494e-001 1.775531e-001 1.520572e-001 1.891130e-001 1.833489e-001 2.643278e-001 2.602423e-001 1.528026e-001 
<GCONST> 6.739240e+001
<STATE> 3
<MEAN> 36
-1.758972e+001 -2.815632e+001 9.043696e+000 -6.592337e-001 1.177981e+001 2.506501e-001 5.806373e-001 1.077628e+001 -9.218820e+000 -3.534774e+000 -8.319181e-001 4.779386e+000 1.278287e-001 5.810834e-002 -1.873366e-001 -8.476282e-002 1.294394e-001 1.442354e-001 5.211650e-002 -9.145655e-002 -8.053205e-002 -1.531571e-001 -1.441234e-001 -1.878474e-002 4.905232e-002 9.027588e-002 -4.513232e-002 1.990644e-002 -5.319043e-002 5.981558e-003 -1.242424e-002 1.286474e-003 3.387562e-002 -5.284539e-002 -1.513453e-002 -2.184204e-002 
<VARIANCE> 36
5.296425e+000 5.363406e+000 2.269147e+001 9.528368e+000 1.304217e+001 2.840265e+001 1.418468e+001 1.646460e+001 1.025702e+001 1.223522e+001 1.430557e+001 9.886531e+000 2.471092e-001 3.720216e-001 6.649592e-001 7.458906e-001 7.066467e-001 1.164454e+000 1.059544e+000 1.089738e+000 1.103119e+000 1.405809e+000 1.272024e+000 8.948586e-001 5.000000e-002 5.601802e-002 8.301526e-002 1.420243e-001 1.177701e-001 2.276550e-001 2.165656e-001 2.278614e-001 2.281314e-001 2.876588e-001 2.783715e-001 1.721802e-001 
<GCONST> 7.075980e+001
<STATE> 4
<MEAN> 36
-9.362071e+000 -2.974857e+001 -6.986675e+000 -1.033337e+000 9.727947e+000 1.203735e+001 1.993753e+000 6.722922e+000 -5.793961e+000 -4.502591e+000 -2.912414e+000 -1.682340e+000 2.552817e-001 1.186558e+000 -1.611643e-001 1.293627e-001 -6.750622e-002 1.431637e-002 1.504282e-001 -5.508937e-002 2.425815e-002 -1.855391e-001 -2.401999e-002 -1.573208e-001 4.413545e-003 1.624089e-001 9.139618e-002 -1.118329e-002 8.488913e-002 -3.569779e-003 -2.637786e-002 -4.080923e-002 -4.002742e-003 8.564772e-002 4.042223e-002 2.138372e-002 
<VARIANCE> 36
5.021694e+000 3.463649e+001 1.897141e+001 1.452686e+001 9.127972e+000 1.605446e+001 1.456592e+001 1.321941e+001 1.368122e+001 1.601102e+001 1.204384e+001 1.324847e+001 1.714453e-001 1.338080e+000 5.991428e-001 7.170449e-001 7.044685e-001 8.486803e-001 8.415026e-001 1.030258e+000 1.162472e+000 9.976026e-001 1.044390e+000 1.168187e+000 5.000000e-002 7.098727e-002 1.236056e-001 1.145835e-001 1.327522e-001 1.632023e-001 1.925988e-001 1.821235e-001 2.102160e-001 2.118776e-001 2.509700e-001 2.592552e-001 
<GCONST> 7.209929e+001
<STATE> 5
<MEAN> 36
-1.021900e+001 -1.655865e+001 -8.255203e-001 1.213820e-001 1.157739e+001 9.699074e+000 -8.443693e-001 7.464669e+000 -6.760580e+000 -7.746748e+000 -1.232355e+000 1.595192e-001 1.011208e+000 2.153307e+000 4.109490e-001 -7.666577e-001 6.199753e-001 7.655892e-001 -9.319582e-002 1.419381e-002 -1.394094e-001 -3.326622e-001 1.061142e-002 -6.526631e-002 3.854380e-001 -2.578748e-001 -1.275060e-001 -2.070507e-002 3.323774e-001 -4.813876e-002 1.026094e-001 3.326802e-002 -3.661579e-001 -2.087094e-001 -5.103520e-001 -1.227938e-001 
<VARIANCE> 36
3.186300e+000 8.691598e+000 2.400426e+001 1.826846e+001 7.977596e+000 2.066011e+001 2.487952e+001 3.397681e+001 2.083268e+001 2.985865e+001 1.105531e+001 1.198894e+001 6.858410e-001 4.846457e-001 1.070194e+000 1.636081e+000 8.188571e-001 1.173110e+000 1.852009e+000 1.124866e+000 1.854702e+000 1.831258e+000 1.835118e+000 1.212166e+000 6.156336e-002 1.002806e-001 2.621908e-001 3.205289e-001 1.440745e-001 3.242127e-001 2.140914e-001 2.673251e-001 2.473104e-001 2.627686e-001 2.863020e-001 1.970920e-001 
<GCONST> 8.181060e+001
<STATE> 6
<MEAN> 36
-5.113434e+000 -1.021867e+001 -2.548050e+000 8.992343e-001 1.304109e+001 1.445594e+001 5.562751e+000 7.428888e+000 -6.579623e+000 -7.031974e+000 -4.570473e+000 -2.845191e+000 1.757411e+000 9.339464e-001 -2.278092e-001 -9.340661e-002 9.668609e-001 -5.082403e-002 -1.000824e-001 9.138528e-003 -8.496953e-001 -9.948277e-001 -1.614433e+000 -1.315685e+000 1.147783e-001 -4.668169e-001 -4.775022e-001 -3.250974e-002 -1.377754e-001 -4.409570e-001 -3.883828e-001 -8.361405e-002 -1.613635e-002 -1.931844e-001 -2.300367e-001 -2.530818e-001 
<VARIANCE> 36
7.935986e+000 7.455371e+000 1.376483e+001 1.844906e+001 1.610073e+001 2.273325e+001 4.761584e+001 2.686582e+001 2.253949e+001 2.497926e+001 1.568113e+001 2.220418e+001 8.325031e-001 6.914180e-001 1.834727e+000 8.725527e-001 8.495650e-001 1.411163e+000 1.722149e+000 1.752952e+000 1.855711e+000 1.654568e+000 1.817355e+000 2.110151e+000 6.676396e-002 1.175499e-001 1.457739e-001 1.281129e-001 1.315161e-001 1.970560e-001 3.256613e-001 2.562313e-001 2.281529e-001 2.394928e-001 3.212188e-001 5.101432e-001 
<GCONST> 8.501410e+001
<STATE> 7
<MEAN> 36
-3.963362e-001 -1.200426e+001 -5.264036e+000 -1.831328e+000 1.738410e+001 7.973747e+000 -2.088266e+000 6.268692e+000 -1.201296e+001 -1.232721e+001 -9.317336e+000 -4.321741e+000 1.370569e+000 1.814547e-001 -1.409550e+000 -7.903738e-001 4.797888e-003 -1.377202e+000 -9.735673e-001 -1.827670e-001 -5.410928e-001 -5.581447e-001 -9.551790e-001 -3.897123e-001 -4.832611e-001 -3.834132e-003 1.986067e-001 -1.651681e-001 -5.064308e-001 -7.496846e-003 5.377645e-002 1.508280e-002 3.297800e-001 4.775000e-001 4.786338e-001 2.331023e-001 
<VARIANCE> 36
4.037975e+000 6.816096e+000 1.250045e+001 2.418038e+001 7.364786e+000 3.690664e+001 3.015231e+001 2.042390e+001 3.641188e+001 2.795445e+001 1.106572e+001 2.580006e+001 5.046874e-001 3.635602e-001 9.835070e-001 6.484527e-001 9.830407e-001 6.689688e-001 8.965849e-001 1.105047e+000 1.690998e+000 1.257035e+000 1.376419e+000 9.960612e-001 5.000000e-002 8.075875e-002 1.651598e-001 1.187209e-001 1.042185e-001 1.979876e-001 1.875379e-001 2.674218e-001 2.704842e-001 1.261224e-001 1.969550e-001 2.144632e-001 
<GCONST> 7.543366e+001
<STATE> 8
<MEAN> 36
1.828615e+000 -1.036597e+001 -8.540947e+000 -9.236583e+000 1.407574e+001 6.129363e-002 -7.527895e+000 7.123449e+000 -1.385250e+001 -1.258135e+001 -9.902045e+000 -3.778919e+000 1.526281e-001 1.882110e-001 -3.071322e-001 -2.749408e-001 -1.981555e-001 -5.690019e-001 -2.210699e-001 1.897800e-001 -3.688510e-002 -2.867594e-002 -1.107439e-001 -2.145383e-001 -4.765427e-002 -7.219274e-003 4.407344e-002 8.799377e-002 2.206737e-002 4.141829e-002 6.072225e-002 3.700601e-002 3.194596e-002 -1.711225e-002 3.508245e-002 2.357719e-002 
<VARIANCE> 36
3.189494e+000 8.625637e+000 1.357326e+001 2.688338e+001 1.338984e+001 2.665875e+001 2.502587e+001 2.580233e+001 2.686326e+001 3.401847e+001 1.376749e+001 1.746362e+001 7.255364e-002 1.443365e-001 2.424963e-001 5.826890e-001 5.781130e-001 5.650461e-001 5.469201e-001 6.227534e-001 7.240997e-001 7.803212e-001 5.130084e-001 5.713474e-001 5.000000e-002 5.000000e-002 5.000000e-002 7.411074e-002 9.870687e-002 9.221432e-002 9.320451e-002 1.160071e-001 1.238816e-001 1.447749e-001 8.398896e-002 1.135423e-001 
<GCONST> 6.002661e+001
<STATE> 9
<MEAN> 36
2.310045e+000 -7.738421e+000 -1.065820e+001 -6.401548e+000 1.311037e+001 -3.944182e+000 -6.234431e+000 9.887509e+000 -1.295225e+001 -1.234458e+001 -9.217439e+000 -6.647053e+000 -2.211736e-001 3.697339e-001 1.206089e-001 3.744986e-001 -1.870433e-001 1.623665e-001 4.953779e-001 2.657950e-001 5.526226e-001 2.541572e-001 2.075172e-001 -1.981651e-002 -1.029806e-001 3.520360e-002 4.505272e-002 1.343249e-002 -6.522202e-002 1.158528e-001 1.076277e-001 -6.578823e-002 8.694497e-002 1.454708e-001 6.581140e-002 7.393992e-002 
<VARIANCE> 36
3.219286e+000 6.476040e+000 7.437501e+000 2.115282e+001 8.051779e+000 3.148568e+001 2.514054e+001 2.886817e+001 5.070937e+001 4.944406e+001 9.159686e+000 1.970787e+001 1.122178e-001 1.137051e-001 2.146624e-001 4.190972e-001 3.504154e-001 5.329009e-001 5.255737e-001 6.519233e-001 8.803263e-001 5.348787e-001 6.996823e-001 5.274230e-001 5.000000e-002 5.000000e-002 5.000000e-002 6.016474e-002 7.938490e-002 7.911637e-002 1.052930e-001 1.544332e-001 1.331110e-001 1.120914e-001 1.387900e-001 8.251706e-002 
<GCONST> 5.847384e+001
<STATE> 10
<MEAN> 36
2.742504e+000 -2.797613e+000 -6.751873e+000 6.001822e-001 9.402040e+000 8.299356e+000 2.895297e+000 6.161815e+000 -2.442217e+000 -6.687604e+000 -1.214333e+001 -1.133257e+001 -2.910708e-001 4.574794e-001 1.506575e-001 1.123945e-001 -2.409412e-001 -1.935503e-001 5.569770e-002 -1.025069e-001 4.290733e-001 5.147547e-001 3.336783e-001 2.934053e-001 -1.166186e-001 -2.208476e-002 6.485870e-002 3.162124e-002 -1.107177e-002 4.922121e-002 2.390262e-002 -4.325384e-002 2.155462e-002 6.443233e-002 6.679562e-002 5.376963e-002 
<VARIANCE> 36
8.191525e+000 1.731464e+001 7.963645e+000 1.281449e+001 1.197388e+001 3.344416e+001 2.657447e+001 1.382402e+001 2.166678e+001 1.900621e+001 2.205763e+001 1.878424e+001 3.816109e-001 2.929213e-001 4.123843e-001 4.749860e-001 7.723031e-001 1.080208e+000 1.392466e+000 9.218634e-001 1.388263e+000 9.242553e-001 1.224628e+000 9.254743e-001 5.000000e-002 5.000000e-002 6.165840e-002 7.371385e-002 1.619867e-001 1.430330e-001 1.904161e-001 1.739474e-001 2.581005e-001 1.307454e-001 2.012485e-001 1.864693e-001 
<GCONST> 7.108212e+001
<STATE> 11
<MEAN> 36
-4.809406e+000 -2.486388e+000 -6.669039e+000 -1.499308e+000 7.589692e+000 2.767817e+000 1.249269e+000 7.703890e+000 -2.779232e+000 -5.441613e+000 -6.245714e+000 -4.284005e+000 -1.051656e+000 2.736727e-001 5.182417e-001 4.035600e-001 -8.252470e-001 4.339134e-001 4.006212e-001 -7.251358e-001 5.015254e-001 6.013387e-001 5.038068e-001 4.618483e-001 1.108754e-001 -6.363558e-002 -3.788991e-002 -3.162620e-002 8.218468e-002 -1.180179e-001 -1.918681e-001 -1.292516e-002 -1.502143e-001 -1.500360e-001 -1.189454e-002 3.309382e-002 
<VARIANCE> 36
5.185470e+000 8.713573e+000 1.194248e+001 1.781709e+001 1.413342e+001 2.112390e+001 1.731746e+001 2.227425e+001 3.096518e+001 2.947523e+001 1.175997e+001 1.444485e+001 4.258855e-001 3.093046e-001 4.074203e-001 8.005798e-001 9.359133e-001 8.143293e-001 1.637486e+000 1.344133e+000 1.467163e+000 1.812499e+000 1.211541e+000 8.839825e-001 5.335149e-002 5.000000e-002 8.425539e-002 1.512937e-001 1.847288e-001 1.147676e-001 2.872035e-001 2.907516e-001 2.665361e-001 3.115763e-001 2.008116e-001 1.513085e-001 
<GCONST> 7.474892e+001
<STATE> 12
<MEAN> 36
-8.689450e+000 -8.527081e-001 -2.992736e+000 1.869071e+000 4.788285e+000 3.958353e+000 2.546391e+000 5.327964e+000 -3.191023e-002 -2.464495e+000 -2.507467e+000 -6.925860e-001 -2.334243e-001 -1.755203e-002 1.955097e-001 9.871758e-002 -1.268421e-001 -9.021107e-002 -6.445778e-002 -4.478024e-002 8.670992e-002 1.154158e-001 2.225643e-001 2.733846e-001 7.056582e-002 -3.860595e-002 -2.555194e-002 -4.860197e-002 4.778939e-002 -4.292317e-003 -1.036052e-002 4.238915e-002 -9.336596e-003 -2.733382e-002 -6.026707e-002 -8.227300e-002 
<VARIANCE> 36
2.046333e+000 5.638604e+000 6.283335e+000 8.133609e+000 6.242218e+000 1.009102e+001 9.184539e+000 1.143642e+001 1.775799e+001 1.603123e+001 9.325446e+000 8.263445e+000 1.371553e-001 2.536968e-001 3.086850e-001 5.827925e-001 5.482959e-001 7.403316e-001 9.186181e-001 1.057178e+000 1.242766e+000 1.057596e+000 9.425727e-001 8.380085e-001 5.000000e-002 5.121961e-002 5.653415e-002 1.080267e-001 1.063453e-001 1.432251e-001 1.867105e-001 1.884364e-001 2.477315e-001 1.993551e-001 1.808871e-001 1.508425e-001 
<GCONST> 6.016270e+001
<STATE> 13
<MEAN> 36
-9.499053e+000 -1.767378e+000 -2.522879e+000 -1.899953e-001 4.957570e+000 3.619498e+000 5.930397e-001 3.559654e+000 -1.061717e+000 -1.241892e+000 -1.967020e+000 -1.479264e+000 2.583139e-001 -6.849915e-001 -2.077014e-001 -6.039367e-001 5.112272e-001 -2.265485e-001 -3.490039e-001 3.819444e-001 -2.066262e-001 -1.456190e-001 6.350841e-002 -2.452865e-001 1.605613e-001 -2.322195e-001 -1.125521e-001 -1.431639e-001 1.780835e-001 -2.107327e-001 -3.660598e-002 3.094077e-001 -2.003064e-001 -1.737452e-001 -5.658256e-002 -4.789242e-002 
<VARIANCE> 36
1.446778e+000 4.823841e+000 7.166584e+000 1.600526e+001 6.517897e+000 1.214402e+001 1.221425e+001 1.574341e+001 2.207514e+001 1.513793e+001 1.026405e+001 1.224302e+001 3.096727e-001 1.492071e+000 7.915883e-001 1.822851e+000 8.379810e-001 1.398727e+000 1.206639e+000 1.417474e+000 1.227358e+000 1.199679e+000 1.208177e+000 1.087285e+000 5.000000e-002 2.107544e-001 1.275017e-001 2.787086e-001 1.441638e-001 1.972262e-001 2.571416e-001 2.480965e-001 2.092149e-001 2.279562e-001 2.362002e-001 2.552817e-001 
<GCONST> 7.402060e+001
<STATE> 14
<MEAN> 36
-6.936920e+000 -6.686950e+000 -3.485207e+000 -1.971424e-001 8.650910e+000 3.212919e-001 9.434114e-001 1.033712e+001 -1.569657e+000 -3.322185e+000 -2.024002e+000 -1.765221e+000 1.032139e+000 5.133186e-001 -1.297412e-001 9.433096e-002 5.325589e-001 4.266947e-001 2.955854e-001 5.677812e-001 -2.287561e-001 -5.633069e-001 -6.371105e-001 -7.762403e-001 2.158492e-001 5.229523e-001 -8.171667e-002 1.574932e-001 -9.089995e-002 3.295385e-001 -3.564218e-002 -3.037646e-001 1.040109e-001 -1.807766e-001 -2.686770e-001 -1.857370e-001 
<VARIANCE> 36
7.388977e+000 2.848273e+001 8.906537e+000 2.974529e+001 2.429758e+001 3.326923e+001 2.417600e+001 2.952840e+001 5.224524e+001 1.967004e+001 1.757027e+001 1.409973e+001 5.215020e-001 4.400591e+000 1.188314e+000 1.741995e+000 1.404921e+000 3.267455e+000 1.838955e+000 2.821666e+000 2.742285e+000 1.325226e+000 1.429992e+000 1.934119e+000 9.936210e-002 7.674271e-001 2.318465e-001 3.699208e-001 2.642858e-001 5.579971e-001 4.787785e-001 4.508161e-001 5.695582e-001 3.044431e-001 2.321784e-001 2.982342e-001 
<GCONST> 9.694245e+001
<STATE> 15
<MEAN> 36
-1.173546e+000 -2.640051e+000 -6.124857e+000 -1.460788e+000 9.297584e+000 2.895828e+000 -7.252133e-001 9.725389e+000 -3.228569e+000 -8.559384e+000 -5.761879e+000 -5.028809e+000 1.563735e+000 -1.380458e-001 -1.183246e+000 -6.665433e-001 4.373075e-001 -4.180804e-001 -1.106307e+000 9.626864e-002 -5.529402e-001 -1.467016e+000 -1.120917e+000 -7.766833e-001 -2.585474e-001 -4.155130e-001 -6.666616e-003 -1.707381e-001 -9.493130e-002 -3.654553e-001 -2.493459e-001 -1.762501e-002 -2.382461e-002 1.505182e-001 1.186532e-001 2.073667e-001 
<VARIANCE> 36
6.278574e+000 1.318992e+001 1.722496e+001 3.740543e+001 1.394521e+001 3.540588e+001 1.452195e+001 3.813288e+001 2.562557e+001 3.100957e+001 1.012583e+001 1.888163e+001 6.071663e-001 7.668879e-001 8.757879e-001 8.954752e-001 1.160200e+000 1.258739e+000 1.197027e+000 2.091660e+000 1.518562e+000 1.289632e+000 7.479783e-001 6.288998e-001 8.448153e-002 1.354008e-001 1.816882e-001 1.630351e-001 1.835872e-001 2.959779e-001 2.144731e-001 3.404186e-001 2.976441e-001 1.941492e-001 1.326186e-001 1.903922e-001 
<GCONST> 8.165571e+001
<STATE> 16
<MEAN> 36
4.846424e-001 -1.290238e+000 -6.411396e+000 -4.263623e+000 9.757917e+000 2.758060e+000 -4.241840e+000 5.471673e+000 -2.868423e+000 -6.100011e+000 -8.762244e+000 -7.066413e+000 2.929434e-001 -2.729271e-001 -4.451289e-001 -3.543802e-001 7.942669e-002 -4.635273e-001 -8.155609e-001 -2.569548e-001 -1.809304e-001 -2.085543e-001 -1.636708e-001 2.889209e-001 -1.511519e-001 2.258952e-002 1.071212e-001 8.884278e-002 -1.798861e-002 4.424098e-003 9.476441e-002 -3.133905e-002 3.233216e-002 1.501826e-001 2.169487e-001 1.507002e-001 
<VARIANCE> 36
5.475163e+000 1.297474e+001 1.793437e+001 6.330681e+001 1.999080e+001 3.551119e+001 5.067313e+001 3.174775e+001 4.252651e+001 4.207949e+001 1.738163e+001 1.287671e+001 1.567449e-001 2.615868e-001 2.847007e-001 6.932492e-001 1.116871e+000 1.211114e+000 1.235929e+000 8.724573e-001 9.480971e-001 1.244953e+000 1.255632e+000 9.370905e-001 5.000000e-002 5.168586e-002 8.412155e-002 1.231278e-001 2.074693e-001 2.059306e-001 2.287780e-001 2.104828e-001 1.933611e-001 2.193389e-001 2.050102e-001 1.792250e-001 
<GCONST> 7.702068e+001
<STATE> 17
<MEAN> 36
2.789962e+000 -6.874653e+000 -1.231892e+001 -7.945415e+000 1.017462e+001 -4.659519e+000 -1.023310e+001 9.071209e+000 -7.934500e+000 -1.317276e+001 -7.823553e+000 -4.803698e+000 6.219944e-002 1.049560e-001 -1.412426e-001 -8.027709e-002 -2.108758e-001 -2.041916e-001 -1.531272e-001 -2.749340e-001 1.369171e-001 2.891429e-001 -2.560265e-003 -7.519896e-002 -2.468159e-002 5.620337e-002 3.210708e-002 3.101262e-002 -4.766652e-002 4.941336e-002 6.665392e-002 -2.033877e-002 6.245994e-002 6.187716e-002 1.559872e-002 -2.847071e-002 
<VARIANCE> 36
3.501229e+000 5.330485e+000 8.461287e+000 2.487207e+001 1.091316e+001 2.359657e+001 2.421381e+001 2.700031e+001 2.245635e+001 3.236598e+001 1.299692e+001 9.208130e+000 5.000000e-002 1.648121e-001 1.933538e-001 4.058622e-001 3.244078e-001 5.181728e-001 6.562544e-001 4.582248e-001 7.357081e-001 5.458310e-001 5.920186e-001 4.904543e-001 5.000000e-002 5.000000e-002 5.000000e-002 6.380990e-002 6.015777e-002 7.784075e-002 1.016424e-001 7.948163e-002 9.708822e-002 9.072536e-002 1.188978e-001 9.360239e-002 
<GCONST> 5.421752e+001
<STATE> 18
<MEAN> 36
1.447748e+000 -1.600747e+000 -1.117388e+001 -7.017849e+000 4.235966e+000 -3.053374e+000 -6.838330e+000 3.181297e+000 -2.279378e+000 -4.470390e+000 -6.729831e+000 -5.964980e+000 -3.506433e-001 5.219056e-001 5.072271e-001 2.310285e-001 -6.480362e-001 2.847898e-001 5.028719e-001 -3.574835e-001 5.304685e-001 7.462976e-001 6.434598e-001 1.018493e-001 -9.966679e-002 7.316044e-003 1.079254e-001 2.560345e-002 -5.502407e-002 7.896565e-002 1.538321e-001 5.640898e-002 4.242153e-002 5.510402e-002 9.918019e-002 9.968323e-002 
<VARIANCE> 36
7.583302e+000 5.293291e+000 1.108202e+001 2.139437e+001 1.782361e+001 2.896289e+001 2.825060e+001 2.713598e+001 2.102442e+001 2.794690e+001 1.333876e+001 1.997591e+001 1.216060e-001 2.596234e-001 2.101236e-001 6.229904e-001 6.099105e-001 7.325078e-001 1.002106e+000 8.010288e-001 9.212373e-001 7.850406e-001 8.207726e-001 6.180400e-001 5.000000e-002 5.000000e-002 5.000000e-002 1.101299e-001 1.215112e-001 1.474499e-001 1.691756e-001 1.493938e-001 1.625233e-001 1.167579e-001 1.328023e-001 1.340013e-001 
<GCONST> 6.577043e+001
<STATE> 19
<MEAN> 36
-1.653548e+000 2.169002e+000 -5.061829e+000 -2.413565e+000 2.633276e+000 1.607865e+000 -1.913774e+000 1.928897e+000 1.260908e+000 -3.039334e-001 -2.652351e+000 -4.349316e+000 -8.454369e-001 1.655022e-001 6.307410e-001 4.818101e-001 -2.531155e-001 6.258189e-001 1.289986e+000 7.095835e-001 6.007777e-001 4.383135e-001 5.902224e-001 6.547463e-001 3.415510e-003 -9.615112e-002 -6.641807e-002 1.857761e-002 1.740158e-001 2.461165e-002 5.599336e-002 2.193276e-001 -4.356546e-002 -1.037226e-001 -5.842385e-002 7.410313e-002 
<VARIANCE> 36
6.320531e+000 8.780963e+000 2.080990e+001 2.279412e+001 1.457222e+001 2.201999e+001 1.669079e+001 2.170149e+001 1.632530e+001 1.035116e+001 9.153721e+000 1.114648e+001 2.051825e-001 3.588536e-001 4.792106e-001 6.959724e-001 1.004296e+000 1.045596e+000 1.407292e+000 1.644937e+000 1.219139e+000 1.067238e+000 1.005508e+000 9.291224e-001 5.000000e-002 5.209532e-002 8.259601e-002 1.196623e-001 1.664629e-001 1.870221e-001 2.394985e-001 2.411104e-001 2.418950e-001 1.871879e-001 2.173212e-001 1.621184e-001 
<GCONST> 7.180775e+001
<STATE> 20
<MEAN> 36
-5.203205e+000 1.712499e+000 -3.876690e+000 -1.286409e+000 1.789217e+000 3.080527e+000 3.690986e+000 7.571856e+000 4.699231e+000 1.663999e+000 -1.313582e-001 -7.328737e-001 -2.465546e-001 1.647450e-001 3.792855e-001 3.010321e-001 3.417746e-002 1.927062e-001 2.641742e-001 5.185823e-002 3.600135e-002 1.530585e-001 1.845315e-001 9.336248e-002 2.018542e-002 5.424144e-003 2.013354e-002 3.047981e-002 2.342834e-002 -4.390538e-002 -1.057560e-001 -1.192623e-001 -6.490251e-002 -2.735552e-002 -2.699238e-002 -5.274358e-002 
<VARIANCE> 36
4.080662e+000 3.431517e+000 5.869013e+000 7.107652e+000 9.915840e+000 1.979882e+001 1.380877e+001 1.276100e+001 1.161004e+001 1.153207e+001 1.122167e+001 1.141470e+001 9.729523e-002 2.269417e-001 4.109750e-001 5.662317e-001 4.781407e-001 7.141376e-001 6.892722e-001 1.189846e+000 1.078700e+000 1.172150e+000 1.016177e+000 8.401991e-001 5.000000e-002 5.000000e-002 7.358235e-002 1.043216e-001 8.704404e-002 1.474276e-001 1.527626e-001 2.191858e-001 2.021913e-001 2.371014e-001 2.374134e-001 1.910039e-001 
<GCONST> 6.152277e+001
<STATE> 21
<MEAN> 36
-8.032078e+000 4.207655e+000 2.218142e+000 4.823055e+000 4.702914e+000 5.966158e+000 4.896851e+000 4.706779e+000 3.488423e+000 2.862585e+000 1.629370e+000 5.327457e-001 -2.851292e-001 -6.120767e-002 1.594630e-001 1.456143e-001 7.893014e-003 -1.072065e-002 3.036970e-002 -5.618094e-002 -1.950191e-002 -7.835035e-003 5.349300e-002 1.332658e-001 5.918670e-003 -5.581438e-002 -7.327284e-002 -6.619409e-002 -5.148796e-002 -2.741892e-002 6.961550e-004 5.634223e-002 2.676151e-002 -1.647955e-002 -1.262095e-002 3.166279e-003 
<VARIANCE> 36
2.975459e+000 1.756859e+000 3.534295e+000 4.462198e+000 6.768817e+000 1.173212e+001 1.158004e+001 1.055403e+001 1.281224e+001 1.070118e+001 9.356490e+000 8.386067e+000 9.624482e-002 1.694067e-001 3.499921e-001 4.150167e-001 5.890844e-001 1.079514e+000 9.277116e-001 1.046162e+000 1.175717e+000 9.951836e-001 9.588354e-001 6.870380e-001 5.000000e-002 5.000000e-002 6.767386e-002 8.891233e-002 1.112964e-001 1.986728e-001 1.813899e-001 2.131510e-001 2.229388e-001 2.038310e-001 1.829486e-001 1.260808e-001 
<GCONST> 5.722113e+001
<STATE> 22
<MEAN> 36
-1.005940e+001 1.601009e+000 -2.699910e-001 2.340856e+000 2.344887e+000 4.710156e+000 5.386678e+000 6.477118e+000 4.381206e+000 2.910403e+000 1.944074e+000 5.223676e-001 -2.433890e-001 -1.625089e-001 -2.860314e-002 1.368087e-003 -1.834883e-001 -2.063756e-002 5.755807e-002 8.027649e-003 -7.195936e-002 -1.153751e-001 -3.480394e-002 6.584191e-002 3.349819e-002 5.443611e-002 2.302248e-003 -1.279883e-002 1.522289e-002 -8.652346e-003 -1.251132e-001 -1.753083e-001 -1.762196e-001 -1.218933e-001 -8.044584e-002 2.065595e-002 
<VARIANCE> 36
1.695792e+000 1.849499e+000 5.637262e+000 9.308250e+000 9.763016e+000 1.132573e+001 9.892538e+000 9.980100e+000 1.047689e+001 1.066699e+001 1.201289e+001 1.046870e+001 7.136397e-002 1.814260e-001 2.521963e-001 5.440055e-001 5.806818e-001 7.485750e-001 1.449671e+000 1.177038e+000 1.241669e+000 9.130999e-001 1.162054e+000 1.010032e+000 5.000000e-002 5.000000e-002 5.000000e-002 9.847934e-002 1.304312e-001 1.496563e-001 2.646264e-001 2.488186e-001 2.354079e-001 1.380945e-001 2.887526e-001 2.409047e-001 
<GCONST> 5.971570e+001
<STATE> 23
<MEAN> 36
-1.179047e+001 4.932962e-001 -2.540328e-001 2.566530e+000 1.754431e+000 3.418381e+000 3.098466e+000 3.436793e+000 1.742935e+000 9.173695e-001 1.089175e+000 8.793820e-001 -8.546879e-002 -9.054962e-002 -7.565712e-002 -2.784905e-002 -2.151111e-002 -1.217136e-001 -1.864748e-001 -1.438141e-001 -4.003389e-002 -2.595207e-002 -5.522850e-002 1.664704e-002 5.263028e-003 -4.806024e-003 4.236346e-003 -1.168618e-003 9.166214e-003 -4.768290e-003 1.670830e-002 4.427581e-002 6.847811e-002 4.663066e-002 6.833315e-003 -1.302841e-002 
<VARIANCE> 36
1.456876e+000 2.600287e+000 3.674039e+000 4.408645e+000 7.360007e+000 8.168396e+000 9.170031e+000 1.004234e+001 1.024040e+001 1.102314e+001 8.694923e+000 8.252810e+000 9.511453e-002 2.671085e-001 3.301236e-001 4.972012e-001 7.208267e-001 7.681782e-001 1.025845e+000 1.154107e+000 1.214665e+000 1.146713e+000 9.669570e-001 8.954215e-001 5.000000e-002 5.593466e-002 6.190884e-002 1.022987e-001 1.492775e-001 1.470978e-001 2.085145e-001 2.188997e-001 2.425877e-001 2.258491e-001 1.938557e-001 1.796366e-001 
<GCONST> 5.807580e+001
<TRANSP> 25
0.000000e+000 1.000000e+000 0.000000e+000 0.000000e+000 0.000000e+000 0.000000e+000 0.000000e+000 0.000000e+000 0.000000e+000 0.000000e+000 0.000000e+000 0.000000e+000 0.000000e+000 0.000000e+000 0.000000e+000 0.000000e+000 0.000000e+000 0.000000e+000 0.000000e+000 0.000000e+000 0.000000e+000 0.000000e+000 0.000000e+000 0.000000e+000 0.000000e+000 
0.000000e+000 8.321500e-001 1.678500e-001 0.000000e+000 0.000000e+000 0.000000e+000 0.000000e+000 0.000000e+000 0.000000e+000 0.000000e+000 0.000000e+000 0.000000e+000 0.000000e+000 0.000000e+000 0.000000e+000 0.000000e+000 0.000000e+000 0.000000e+000 0.000000e+000 0.000000e+000 0.000000e+000 0.000000e+000 0.000000e+000 0.000000e+000 0.000000e+000 
0.000000e+000 0.000000e+000 8.753366e-001 1.246634e-001 0.000000e+000 0.000000e+000 0.000000e+000 0.000000e+000 0.000000e+000 0.000000e+000 0.000000e+000 0.000000e+000 0.000000e+000 0.000000e+000 0.000000e+000 0.000000e+000 0.000000e+000 0.000000e+000 0.000000e+000 0.000000e+000 0.000000e+000 0.000000e+000 0.000000e+000 0.000000e+000 0.000000e+000 
0.000000e+000 0.000000e+000 0.000000e+000 9.108768e-001 8.912310e-002 0.000000e+000 0.000000e+000 0.000000e+000 0.000000e+000 0.000000e+000 0.000000e+000 0.000000e+000 0.000000e+000 0.000000e+000 0.000000e+000 0.000000e+000 0.000000e+000 0.000000e+000 0.000000e+000 0.000000e+000 0.000000e+000 0.000000e+000 0.000000e+000 0.000000e+000 0.000000e+000 
0.000000e+000 0.000000e+000 0.000000e+000 0.000000e+000 8.783237e-001 1.216765e-001 0.000000e+000 0.000000e+000 0.000000e+000 0.000000e+000 0.000000e+000 0.000000e+000 0.000000e+000 0.000000e+000 0.000000e+000 0.000000e+000 0.000000e+000 0.000000e+000 0.000000e+000 0.000000e+000 0.000000e+000 0.000000e+000 0.000000e+000 0.000000e+000 0.000000e+000 
0.000000e+000 0.000000e+000 0.000000e+000 0.000000e+000 0.000000e+000 6.516709e-001 3.483291e-001 0.000000e+000 0.000000e+000 0.000000e+000 0.000000e+000 0.000000e+000 0.000000e+000 0.000000e+000 0.000000e+000 0.000000e+000 0.000000e+000 0.000000e+000 0.000000e+000 0.000000e+000 0.000000e+000 0.000000e+000 0.000000e+000 0.000000e+000 0.000000e+000 
0.000000e+000 0.000000e+000 0.000000e+000 0.000000e+000 0.000000e+000 0.000000e+000 6.046588e-001 3.953413e-001 0.000000e+000 0.000000e+000 0.000000e+000 0.000000e+000 0.000000e+000 0.000000e+000 0.000000e+000 0.000000e+000 0.000000e+000 0.000000e+000 0.000000e+000 0.000000e+000 0.000000e+000 0.000000e+000 0.000000e+000 0.000000e+000 0.000000e+000 
0.000000e+000 0.000000e+000 0.000000e+000 0.000000e+000 0.000000e+000 0.000000e+000 0.000000e+000 6.241289e-001 3.758710e-001 0.000000e+000 0.000000e+000 0.000000e+000 0.000000e+000 0.000000e+000 0.000000e+000 0.000000e+000 0.000000e+000 0.000000e+000 0.000000e+000 0.000000e+000 0.000000e+000 0.000000e+000 0.000000e+000 0.000000e+000 0.000000e+000 
0.000000e+000 0.000000e+000 0.000000e+000 0.000000e+000 0.000000e+000 0.000000e+000 0.000000e+000 0.000000e+000 9.095916e-001 9.040840e-002 0.000000e+000 0.000000e+000 0.000000e+000 0.000000e+000 0.000000e+000 0.000000e+000 0.000000e+000 0.000000e+000 0.000000e+000 0.000000e+000 0.000000e+000 0.000000e+000 0.000000e+000 0.000000e+000 0.000000e+000 
0.000000e+000 0.000000e+000 0.000000e+000 0.000000e+000 0.000000e+000 0.000000e+000 0.000000e+000 0.000000e+000 0.000000e+000 8.633367e-001 1.366634e-001 0.000000e+000 0.000000e+000 0.000000e+000 0.000000e+000 0.000000e+000 0.000000e+000 0.000000e+000 0.000000e+000 0.000000e+000 0.000000e+000 0.000000e+000 0.000000e+000 0.000000e+000 0.000000e+000 
0.000000e+000 0.000000e+000 0.000000e+000 0.000000e+000 0.000000e+000 0.000000e+000 0.000000e+000 0.000000e+000 0.000000e+000 0.000000e+000 8.447124e-001 1.552876e-001 0.000000e+000 0.000000e+000 0.000000e+000 0.000000e+000 0.000000e+000 0.000000e+000 0.000000e+000 0.000000e+000 0.000000e+000 0.000000e+000 0.000000e+000 0.000000e+000 0.000000e+000 
0.000000e+000 0.000000e+000 0.000000e+000 0.000000e+000 0.000000e+000 0.000000e+000 0.000000e+000 0.000000e+000 0.000000e+000 0.000000e+000 0.000000e+000 8.205603e-001 1.794398e-001 0.000000e+000 0.000000e+000 0.000000e+000 0.000000e+000 0.000000e+000 0.000000e+000 0.000000e+000 0.000000e+000 0.000000e+000 0.000000e+000 0.000000e+000 0.000000e+000 
0.000000e+000 0.000000e+000 0.000000e+000 0.000000e+000 0.000000e+000 0.000000e+000 0.000000e+000 0.000000e+000 0.000000e+000 0.000000e+000 0.000000e+000 0.000000e+000 9.076788e-001 9.232117e-002 0.000000e+000 0.000000e+000 0.000000e+000 0.000000e+000 0.000000e+000 0.000000e+000 0.000000e+000 0.000000e+000 0.000000e+000 0.000000e+000 0.000000e+000 
0.000000e+000 0.000000e+000 0.000000e+000 0.000000e+000 0.000000e+000 0.000000e+000 0.000000e+000 0.000000e+000 0.000000e+000 0.000000e+000 0.000000e+000 0.000000e+000 0.000000e+000 7.623797e-001 2.376203e-001 0.000000e+000 0.000000e+000 0.000000e+000 0.000000e+000 0.000000e+000 0.000000e+000 0.000000e+000 0.000000e+000 0.000000e+000 0.000000e+000 
0.000000e+000 0.000000e+000 0.000000e+000 0.000000e+000 0.000000e+000 0.000000e+000 0.000000e+000 0.000000e+000 0.000000e+000 0.000000e+000 0.000000e+000 0.000000e+000 0.000000e+000 0.000000e+000 7.473447e-001 2.526553e-001 0.000000e+000 0.000000e+000 0.000000e+000 0.000000e+000 0.000000e+000 0.000000e+000 0.000000e+000 0.000000e+000 0.000000e+000 
0.000000e+000 0.000000e+000 0.000000e+000 0.000000e+000 0.000000e+000 0.000000e+000 0.000000e+000 0.000000e+000 0.000000e+000 0.000000e+000 0.000000e+000 0.000000e+000 0.000000e+000 0.000000e+000 0.000000e+000 6.276695e-001 3.723305e-001 0.000000e+000 0.000000e+000 0.000000e+000 0.000000e+000 0.000000e+000 0.000000e+000 0.000000e+000 0.000000e+000 
0.000000e+000 0.000000e+000 0.000000e+000 0.000000e+000 0.000000e+000 0.000000e+000 0.000000e+000 0.000000e+000 0.000000e+000 0.000000e+000 0.000000e+000 0.000000e+000 0.000000e+000 0.000000e+000 0.000000e+000 0.000000e+000 7.703979e-001 2.296022e-001 0.000000e+000 0.000000e+000 0.000000e+000 0.000000e+000 0.000000e+000 0.000000e+000 0.000000e+000 
0.000000e+000 0.000000e+000 0.000000e+000 0.000000e+000 0.000000e+000 0.000000e+000 0.000000e+000 0.000000e+000 0.000000e+000 0.000000e+000 0.000000e+000 0.000000e+000 0.000000e+000 0.000000e+000 0.000000e+000 0.000000e+000 0.000000e+000 9.245705e-001 7.542950e-002 0.000000e+000 0.000000e+000 0.000000e+000 0.000000e+000 0.000000e+000 0.000000e+000 
0.000000e+000 0.000000e+000 0.000000e+000 0.000000e+000 0.000000e+000 0.000000e+000 0.000000e+000 0.000000e+000 0.000000e+000 0.000000e+000 0.000000e+000 0.000000e+000 0.000000e+000 0.000000e+000 0.000000e+000 0.000000e+000 0.000000e+000 0.000000e+000 8.210556e-001 1.789444e-001 0.000000e+000 0.000000e+000 0.000000e+000 0.000000e+000 0.000000e+000 
0.000000e+000 0.000000e+000 0.000000e+000 0.000000e+000 0.000000e+000 0.000000e+000 0.000000e+000 0.000000e+000 0.000000e+000 0.000000e+000 0.000000e+000 0.000000e+000 0.000000e+000 0.000000e+000 0.000000e+000 0.000000e+000 0.000000e+000 0.000000e+000 0.000000e+000 7.906317e-001 2.093683e-001 0.000000e+000 0.000000e+000 0.000000e+000 0.000000e+000 
0.000000e+000 0.000000e+000 0.000000e+000 0.000000e+000 0.000000e+000 0.000000e+000 0.000000e+000 0.000000e+000 0.000000e+000 0.000000e+000 0.000000e+000 0.000000e+000 0.000000e+000 0.000000e+000 0.000000e+000 0.000000e+000 0.000000e+000 0.000000e+000 0.000000e+000 0.000000e+000 9.111324e-001 8.886761e-002 0.000000e+000 0.000000e+000 0.000000e+000 
0.000000e+000 0.000000e+000 0.000000e+000 0.000000e+000 0.000000e+000 0.000000e+000 0.000000e+000 0.000000e+000 0.000000e+000 0.000000e+000 0.000000e+000 0.000000e+000 0.000000e+000 0.000000e+000 0.000000e+000 0.000000e+000 0.000000e+000 0.000000e+000 0.000000e+000 0.000000e+000 0.000000e+000 8.919218e-001 1.080782e-001 0.000000e+000 0.000000e+000 
0.000000e+000 0.000000e+000 0.000000e+000 0.000000e+000 0.000000e+000 0.000000e+000 0.000000e+000 0.000000e+000 0.000000e+000 0.000000e+000 0.000000e+000 0.000000e+000 0.000000e+000 0.000000e+000 0.000000e+000 0.000000e+000 0.000000e+000 0.000000e+000 0.000000e+000 0.000000e+000 0.000000e+000 0.000000e+000 7.448485e-001 2.551515e-001 0.000000e+000 
0.000000e+000 0.000000e+000 0.000000e+000 0.000000e+000 0.000000e+000 0.000000e+000 0.000000e+000 0.000000e+000 0.000000e+000 0.000000e+000 0.000000e+000 0.000000e+000 0.000000e+000 0.000000e+000 0.000000e+000 0.000000e+000 0.000000e+000 0.000000e+000 0.000000e+000 0.000000e+000 0.000000e+000 0.000000e+000 0.000000e+000 9.115396e-001 8.846043e-002 
0.000000e+000 0.000000e+000 0.000000e+000 0.000000e+000 0.000000e+000 0.000000e+000 0.000000e+000 0.000000e+000 0.000000e+000 0.000000e+000 0.000000e+000 0.000000e+000 0.000000e+000 0.000000e+000 0.000000e+000 0.000000e+000 0.000000e+000 0.000000e+000 0.000000e+000 0.000000e+000 0.000000e+000 0.000000e+000 0.000000e+000 0.000000e+000 0.000000e+000 
