<HMMNAME> 8
<HMMSTATES> 25
<STATE> 1
<MEAN> 36
-5.870520e+000 -5.487934e-001 -4.027746e+000 1.379783e+000 2.044343e+000 -7.046025e+000 -1.249858e+001 -5.668138e+000 -2.051376e+000 1.876971e+000 3.975806e+000 2.629763e+000 1.002237e+000 1.085071e-001 -2.340211e-001 4.860793e-002 2.270173e-001 -8.027025e-001 -1.417092e+000 -1.007231e+000 -7.239697e-001 -2.932042e-001 5.803123e-002 1.253082e-001 1.711074e-001 3.320095e-002 -5.516238e-002 -2.692589e-002 -2.613344e-002 -1.526669e-001 -2.221039e-001 -1.416503e-001 -1.006142e-001 -6.030087e-002 -3.596215e-003 9.968347e-003 
<VARIANCE> 36
2.729559e+001 1.689449e+001 2.182371e+001 1.238391e+001 9.278374e+000 5.461137e+001 8.564842e+001 4.594533e+001 2.729502e+001 3.087033e+001 2.132926e+001 1.571913e+001 1.334131e+000 6.599653e-001 1.056570e+000 6.862503e-001 8.415953e-001 2.997834e+000 4.549178e+000 2.764032e+000 1.682295e+000 1.189175e+000 1.350069e+000 1.304800e+000 1.545567e-001 9.139884e-002 1.330609e-001 1.417320e-001 1.801203e-001 5.047350e-001 7.088843e-001 3.209528e-001 2.911708e-001 2.368719e-001 2.909922e-001 2.440730e-001 
<GCONST> 9.179399e+001
<STATE> 2
<MEAN> 36
2.087290e+000 2.377583e+000 -3.745637e+000 3.336486e+000 4.378449e+000 -9.382231e+000 -2.093216e+001 -1.690111e+001 -1.133692e+001 -8.494859e-001 4.301681e+000 3.656726e+000 8.088315e-001 -7.834961e-002 -2.385196e-001 2.006077e-001 3.762915e-001 -4.032801e-001 -7.990981e-001 -2.312253e-001 -1.795690e-001 -1.474532e-001 7.584285e-002 2.856842e-002 -2.715109e-001 -6.576436e-002 4.387538e-002 2.145195e-002 5.630839e-003 1.793032e-001 3.961441e-001 3.923826e-001 2.277076e-001 2.130979e-002 -3.041123e-002 -5.380501e-002 
<VARIANCE> 36
1.160315e+001 2.666772e+001 3.641819e+001 2.609840e+001 1.549604e+001 8.776486e+001 6.949875e+001 5.018691e+001 5.651703e+001 3.239045e+001 1.616695e+001 1.655353e+001 9.845556e-001 1.265481e+000 1.278078e+000 6.463482e-001 1.153578e+000 2.077645e+000 3.479231e+000 2.582197e+000 1.847882e+000 1.713714e+000 1.037846e+000 9.508739e-001 1.978087e-001 2.565946e-001 2.473393e-001 1.507303e-001 2.447357e-001 4.495092e-001 6.442065e-001 5.575351e-001 3.870889e-001 3.445534e-001 2.094621e-001 1.897854e-001 
<GCONST> 9.672661e+001
<STATE> 3
<MEAN> 36
6.665902e+000 -2.738016e+000 -1.106554e+001 3.272363e+000 4.262198e+000 -1.911363e+001 -2.612181e+001 -1.187713e+001 -7.078484e+000 -3.842209e+000 2.797602e+000 7.230157e+000 -6.808547e-002 5.583338e-003 4.667051e-002 -2.642374e-002 3.183601e-002 8.998004e-002 3.116126e-001 5.290782e-001 1.636791e-001 -9.861470e-002 2.984296e-002 -1.512490e-001 -5.391783e-002 3.501809e-002 5.377189e-002 -4.989620e-002 -5.983377e-003 8.287868e-002 7.012019e-002 3.591071e-002 1.689024e-002 5.801406e-002 9.928324e-003 -5.424970e-002 
<VARIANCE> 36
2.677613e+000 7.496381e+000 1.056433e+001 1.723111e+001 7.458312e+000 3.414098e+001 2.315482e+001 4.099063e+001 2.379189e+001 2.079503e+001 9.701396e+000 2.058751e+001 8.742758e-002 2.142297e-001 2.452317e-001 3.910362e-001 4.346294e-001 5.911695e-001 6.573391e-001 8.436638e-001 5.565062e-001 6.323848e-001 5.830167e-001 5.816600e-001 5.000000e-002 5.000000e-002 5.000000e-002 6.150018e-002 8.388264e-002 1.124664e-001 1.141575e-001 1.321835e-001 9.776579e-002 9.379690e-002 9.954250e-002 8.524930e-002 
<GCONST> 5.777289e+001
<STATE> 4
<MEAN> 36
2.568639e+000 -1.107898e+000 -5.323390e+000 -9.108134e-001 4.904580e+000 -1.511886e+001 -2.502560e+001 -3.181204e+000 -3.647027e+000 -1.075408e+000 6.630250e+000 1.111783e+000 -4.579218e-001 1.178539e-001 5.417323e-001 -3.954633e-001 1.729253e-001 7.016929e-001 3.758130e-001 8.912519e-001 1.854697e-001 -5.739133e-002 1.689522e-001 -4.497421e-001 -4.977942e-002 -5.562595e-002 8.310266e-003 5.367482e-003 1.742073e-002 4.051112e-002 1.358383e-002 6.562295e-002 4.471533e-002 -3.382124e-002 1.257513e-002 9.174689e-003 
<VARIANCE> 36
3.849061e+000 9.664273e+000 2.065289e+001 1.556000e+001 1.221991e+001 3.391590e+001 5.638217e+001 4.656565e+001 2.265384e+001 2.124435e+001 2.105437e+001 1.514969e+001 1.578143e-001 3.134222e-001 5.329597e-001 6.704485e-001 6.671183e-001 1.186339e+000 9.740010e-001 1.446357e+000 9.950312e-001 1.124842e+000 8.492315e-001 8.079621e-001 5.000000e-002 6.432886e-002 9.227141e-002 1.144507e-001 1.166693e-001 2.166908e-001 1.702633e-001 3.070590e-001 1.646020e-001 2.113972e-001 1.689011e-001 1.559507e-001 
<GCONST> 7.328919e+001
<STATE> 5
<MEAN> 36
-6.644151e-001 6.637950e+000 2.954162e+000 5.021441e+000 4.609591e+000 -2.655729e+000 -1.107057e+001 -8.759501e+000 -6.684357e+000 3.541659e-001 3.679768e+000 3.148419e-001 -4.202317e-001 -4.384258e-001 -1.662421e-001 -4.205189e-001 -1.709853e-001 2.064275e-001 7.232413e-001 1.360538e+000 1.080815e+000 5.101607e-001 9.279012e-002 -1.602793e-001 -8.713127e-003 -1.483028e-001 -1.476936e-001 -6.285396e-002 3.490409e-002 7.173637e-002 7.561130e-002 3.176254e-002 9.800920e-003 2.548112e-002 8.932192e-003 3.078873e-002 
<VARIANCE> 36
6.120213e+000 2.167145e+001 2.298904e+001 2.337339e+001 1.331481e+001 2.721721e+001 4.967408e+001 8.127237e+001 5.898483e+001 3.306604e+001 3.029510e+001 1.415870e+001 2.286794e-001 5.986620e-001 9.944811e-001 7.353859e-001 1.006991e+000 1.154796e+000 1.511992e+000 1.557653e+000 1.221862e+000 1.089772e+000 8.813304e-001 1.095997e+000 5.000000e-002 5.609401e-002 6.847082e-002 1.445959e-001 2.053182e-001 2.092551e-001 3.088512e-001 2.155730e-001 2.088466e-001 2.282131e-001 1.669284e-001 1.644839e-001 
<GCONST> 8.114157e+001
<STATE> 6
<MEAN> 36
-2.930484e+000 -3.626462e+000 -4.286613e+000 -5.958607e+000 6.875358e+000 -4.830134e+000 -1.638607e+001 6.720614e+000 3.582438e-001 -1.031217e+000 7.417972e+000 -1.921021e+000 -5.988240e-001 -8.948122e-001 -5.598439e-001 -5.190780e-001 -2.052948e-001 1.108639e+000 1.478459e+000 6.232143e-001 1.850564e-001 1.488361e-001 -2.809682e-001 -5.006087e-002 3.561780e-002 -1.007084e-001 -7.322700e-002 9.706543e-002 -2.194033e-001 -1.478338e-001 1.267933e-001 -1.546248e-001 -4.780492e-002 4.726644e-002 -2.810521e-001 -3.215867e-002 
<VARIANCE> 36
3.143831e+000 7.807499e+000 1.100546e+001 2.111539e+001 1.415946e+001 2.711698e+001 5.993089e+001 3.189299e+001 3.033143e+001 2.940787e+001 1.773569e+001 1.583087e+001 1.626467e-001 3.383228e-001 1.074992e+000 7.886680e-001 1.697591e+000 1.437405e+000 1.426048e+000 1.831378e+000 1.820766e+000 1.417131e+000 1.430217e+000 1.244363e+000 5.000000e-002 6.520793e-002 1.515149e-001 1.502724e-001 2.449172e-001 3.064124e-001 1.945085e-001 3.886428e-001 3.637171e-001 2.970620e-001 2.465900e-001 2.732329e-001 
<GCONST> 8.145800e+001
<STATE> 7
<MEAN> 36
-5.234487e+000 -9.109135e+000 -8.382812e+000 -4.439752e+000 2.424109e+000 1.084605e+000 -2.809334e+000 6.611611e+000 2.077345e+000 1.418815e+000 3.356242e-001 -3.712662e+000 -3.632123e-001 -2.164059e+000 -2.769732e-001 4.015991e-001 6.414246e-002 3.921149e-001 1.070804e+000 3.042543e-001 -2.614378e-001 -2.951901e-001 -1.297873e+000 -5.218863e-001 -3.862176e-002 -3.340132e-001 1.905880e-001 5.614450e-002 2.536331e-001 -1.938018e-002 -1.808283e-001 1.554150e-002 -8.969157e-002 -8.241088e-002 -9.518180e-003 4.996231e-002 
<VARIANCE> 36
2.589353e+000 2.203619e+001 1.765655e+001 2.247671e+001 1.474280e+001 3.765945e+001 5.888928e+001 2.558604e+001 2.675104e+001 2.105946e+001 1.795844e+001 1.322138e+001 2.666367e-001 1.166842e+000 1.251848e+000 8.364161e-001 1.319065e+000 1.962702e+000 1.378988e+000 2.187471e+000 1.734511e+000 1.882966e+000 1.565935e+000 1.453597e+000 5.000000e-002 7.295994e-002 1.283274e-001 1.874555e-001 2.549362e-001 2.986279e-001 2.801267e-001 3.869099e-001 3.361544e-001 3.482467e-001 2.798316e-001 2.800259e-001 
<GCONST> 8.574219e+001
<STATE> 8
<MEAN> 36
-8.470840e+000 -2.351990e+001 -5.375599e+000 -3.687446e+000 6.453022e+000 1.930766e-001 -4.064036e-001 1.101114e+001 -2.192321e+000 -3.862603e-001 -4.727314e+000 -4.429924e+000 -7.706835e-001 -2.164516e+000 8.367661e-001 -5.342129e-001 8.665002e-001 2.412131e-001 4.131698e-001 4.373555e-001 -3.735790e-001 1.663275e-001 -8.114952e-001 1.890677e-001 2.623814e-002 4.255033e-001 6.282406e-002 -6.734324e-002 7.490442e-002 -5.648335e-003 -1.143486e-001 -1.577643e-001 2.577507e-002 9.086325e-002 2.269186e-001 1.489518e-001 
<VARIANCE> 36
1.020560e+001 1.960674e+001 5.012566e+001 1.565086e+001 1.408284e+001 7.986075e+001 7.782369e+001 2.154072e+001 2.379257e+001 1.608948e+001 1.750530e+001 1.064714e+001 1.850102e-001 9.630794e-001 6.403193e-001 1.016421e+000 8.562764e-001 1.145877e+000 1.676656e+000 1.171054e+000 1.346814e+000 1.368203e+000 1.743788e+000 9.387361e-001 5.000000e-002 7.660547e-002 1.135582e-001 2.068900e-001 1.388783e-001 2.789798e-001 2.254827e-001 2.215643e-001 2.559054e-001 2.794406e-001 2.850914e-001 1.895193e-001 
<GCONST> 8.223848e+001
<STATE> 9
<MEAN> 36
-1.282514e+001 -3.200249e+001 -5.034323e-001 -3.051555e+000 1.105363e+001 8.786331e+000 -3.216520e+000 5.935768e+000 7.720239e-001 6.304390e-001 -6.397766e+000 -2.319948e+000 -1.722525e-001 -2.438090e-001 2.277313e-001 2.273053e-001 2.893859e-001 7.895294e-002 -6.337634e-002 -4.063536e-002 -1.793786e-001 -8.883510e-002 3.362870e-002 1.367488e-001 4.312806e-002 1.100767e-001 -7.879576e-002 -8.786868e-004 -8.585855e-002 2.374921e-002 4.369472e-002 9.012604e-003 -3.710042e-002 -6.169773e-002 1.536536e-002 -7.306772e-004 
<VARIANCE> 36
3.711996e+000 6.648732e+000 1.376518e+001 1.333172e+001 1.176858e+001 3.514591e+001 1.941498e+001 2.224915e+001 1.278027e+001 1.401717e+001 1.225636e+001 1.045451e+001 1.280270e-001 3.393605e-001 5.605451e-001 4.825158e-001 5.138284e-001 7.784713e-001 1.096427e+000 1.094937e+000 9.006854e-001 1.185364e+000 8.886941e-001 8.825132e-001 5.000000e-002 6.329982e-002 8.190480e-002 8.618399e-002 1.035563e-001 1.557920e-001 2.426074e-001 2.212630e-001 1.865095e-001 2.358874e-001 1.724382e-001 1.834802e-001 
<GCONST> 6.702385e+001
<STATE> 10
<MEAN> 36
-1.651840e+001 -2.824188e+001 7.099682e+000 -3.760735e+000 1.354795e+001 -2.454334e+000 -5.321121e-001 1.083684e+001 -6.201932e+000 -1.638547e+000 -7.097472e+000 3.316816e+000 -6.619015e-002 -4.502216e-002 -5.490226e-002 9.718988e-002 5.942732e-002 3.722030e-001 2.213333e-001 -5.735366e-002 -1.801650e-001 -1.169126e-001 6.392097e-002 2.020482e-001 4.728697e-002 6.960920e-002 -7.577514e-002 3.601478e-002 -4.087119e-002 2.752126e-002 6.911403e-004 8.814833e-003 1.945719e-002 -4.248037e-002 -6.240890e-005 -5.049684e-002 
<VARIANCE> 36
5.353474e+000 3.953807e+000 1.660973e+001 6.812785e+000 8.189632e+000 2.505168e+001 2.025187e+001 1.124608e+001 1.234425e+001 1.108114e+001 1.259519e+001 1.297027e+001 1.807439e-001 2.837206e-001 7.021394e-001 4.825199e-001 5.989805e-001 9.732359e-001 1.279791e+000 7.951934e-001 8.440981e-001 9.132023e-001 1.089822e+000 8.285438e-001 5.000000e-002 5.000000e-002 9.138929e-002 8.735484e-002 1.249682e-001 1.946512e-001 2.436951e-001 1.585987e-001 1.665677e-001 1.815525e-001 2.269514e-001 1.547340e-001 
<GCONST> 6.513504e+001
<STATE> 11
<MEAN> 36
-7.746070e+000 -3.128585e+001 -1.016584e+001 -6.411557e+000 9.027538e+000 9.493748e+000 6.339704e+000 1.176843e+001 -8.179506e+000 -3.579135e-001 -2.101549e+000 -2.891033e+000 5.729062e-002 4.206027e-001 -1.986053e-001 3.196878e-001 -2.015198e-002 3.517920e-001 4.784410e-002 -1.846435e-001 8.686263e-002 -3.470187e-001 -6.400513e-002 -3.120268e-002 1.511135e-002 1.660795e-001 3.679478e-002 5.501442e-002 -2.939451e-003 -2.066827e-002 -2.154312e-002 -5.918159e-002 4.712890e-002 -1.737170e-002 -1.080309e-002 -2.913037e-002 
<VARIANCE> 36
7.605513e+000 1.044847e+001 2.584767e+001 1.314300e+001 1.191153e+001 1.357233e+001 1.855920e+001 1.425885e+001 1.350667e+001 1.423499e+001 1.461653e+001 1.414969e+001 1.263285e-001 7.871784e-001 4.646663e-001 7.099170e-001 6.500548e-001 7.855538e-001 9.238532e-001 1.143826e+000 1.126611e+000 1.027015e+000 1.077700e+000 8.990664e-001 5.000000e-002 7.911615e-002 9.537283e-002 1.316389e-001 1.233552e-001 1.555741e-001 1.727855e-001 2.571952e-001 2.089267e-001 1.898561e-001 2.017820e-001 1.573988e-001 
<GCONST> 7.004785e+001
<STATE> 12
<MEAN> 36
-1.177287e+001 -2.264358e+001 -3.116619e+000 7.452383e-001 1.144968e+001 9.313276e+000 -2.029965e-001 7.004399e+000 -4.459288e+000 -5.659162e+000 -5.090551e+000 -7.871593e-001 4.186860e-001 1.886737e+000 -1.969507e-001 -1.267485e-001 1.147522e-001 1.876797e-001 -2.787645e-001 -2.429984e-001 -2.333263e-001 -4.603073e-001 3.874350e-001 -3.629446e-001 3.320393e-002 7.783601e-002 2.228107e-001 -1.630883e-001 1.620421e-001 -7.343697e-002 -8.317031e-002 1.153417e-001 -7.753981e-002 8.054969e-002 1.756328e-002 -6.010416e-002 
<VARIANCE> 36
5.478138e+000 1.849061e+001 2.684287e+001 7.457653e+000 9.008124e+000 2.089300e+001 1.678692e+001 2.296279e+001 1.599831e+001 1.735178e+001 1.489376e+001 1.163955e+001 1.276512e-001 5.408157e-001 8.209051e-001 1.022091e+000 7.952580e-001 1.037228e+000 1.085204e+000 1.824304e+000 1.585011e+000 1.185343e+000 1.705934e+000 1.133449e+000 5.000000e-002 1.039741e-001 1.202520e-001 1.607741e-001 1.256511e-001 1.505951e-001 2.267045e-001 2.726103e-001 2.909806e-001 1.734266e-001 3.657027e-001 2.263822e-001 
<GCONST> 7.555172e+001
<STATE> 13
<MEAN> 36
-8.137509e+000 -1.305788e+001 -3.362860e+000 -6.410795e-001 1.202764e+001 1.110437e+001 2.886687e+000 8.016439e+000 -5.787068e+000 -5.706559e+000 -4.066043e+000 -3.671195e+000 1.114797e+000 1.661611e+000 4.832401e-001 6.017404e-002 5.779438e-001 1.255284e-001 8.533480e-002 2.898565e-001 -3.344468e-001 -5.157538e-001 -5.927792e-001 -4.912987e-001 3.008865e-001 -2.757753e-001 -3.006375e-001 7.007064e-003 3.278840e-003 -1.477518e-001 -6.587973e-002 -1.009441e-001 -1.325540e-001 -2.600104e-001 -3.334497e-001 -1.127214e-002 
<VARIANCE> 36
8.300574e+000 1.491884e+001 3.231199e+001 1.186866e+001 1.549881e+001 1.724735e+001 3.890983e+001 3.437686e+001 1.292000e+001 2.346591e+001 1.144131e+001 1.324104e+001 9.847857e-001 7.120509e-001 1.101441e+000 8.131873e-001 1.119552e+000 1.145795e+000 1.154729e+000 1.280775e+000 1.714141e+000 1.779752e+000 1.473557e+000 1.519262e+000 8.472792e-002 1.314908e-001 1.995581e-001 1.802132e-001 1.968223e-001 1.977413e-001 2.208593e-001 3.372712e-001 2.880851e-001 3.377300e-001 2.966247e-001 3.869699e-001 
<GCONST> 8.438990e+001
<STATE> 14
<MEAN> 36
-2.478873e+000 -1.049273e+001 -3.820661e+000 -1.824833e+000 1.584327e+001 9.078217e+000 -5.096894e-001 8.480086e+000 -9.612847e+000 -1.175683e+001 -9.088184e+000 -5.416977e+000 1.454212e+000 2.500205e-001 -1.300830e+000 -6.446102e-001 4.051539e-002 -6.473847e-001 -5.186758e-001 -4.105577e-001 -6.426062e-001 -1.340698e+000 -1.274291e+000 -3.576013e-001 -3.968147e-001 -1.680732e-001 -9.556406e-002 -1.501246e-001 -3.988938e-001 -1.084717e-001 4.918611e-002 -1.191119e-001 2.398744e-001 3.779873e-001 3.188260e-001 1.825219e-001 
<VARIANCE> 36
4.912979e+000 1.340010e+001 1.260049e+001 1.503731e+001 1.451945e+001 3.161844e+001 4.158823e+001 2.638043e+001 2.042456e+001 3.318873e+001 1.048237e+001 3.344376e+001 5.874067e-001 5.077925e-001 1.023129e+000 8.019352e-001 1.097311e+000 1.466966e+000 8.623644e-001 1.168227e+000 1.221517e+000 1.515214e+000 1.457433e+000 2.016330e+000 5.000000e-002 9.525928e-002 1.397415e-001 2.262337e-001 1.616101e-001 2.424570e-001 1.894003e-001 2.167545e-001 2.217779e-001 2.793457e-001 1.845708e-001 2.355253e-001 
<GCONST> 8.072220e+001
<STATE> 15
<MEAN> 36
-1.176776e-002 -9.753066e+000 -8.316265e+000 -5.695868e+000 1.387877e+001 2.659499e+000 -4.732821e+000 7.599004e+000 -1.029672e+001 -1.295271e+001 -9.385136e+000 -3.430555e+000 3.145597e-001 3.590328e-001 -5.584333e-001 -2.748008e-001 -4.268179e-001 -6.481833e-001 -3.353496e-001 -9.755188e-002 2.480642e-001 1.922729e-001 -1.612471e-002 -1.686685e-001 -6.694567e-002 1.633045e-002 5.688262e-002 5.187910e-002 -1.557399e-002 4.548714e-002 6.192935e-003 3.757185e-002 1.103679e-001 7.672725e-002 7.182260e-002 -5.377713e-003 
<VARIANCE> 36
3.479660e+000 9.770282e+000 9.988710e+000 1.424120e+001 8.540199e+000 2.870778e+001 1.701650e+001 3.559470e+001 1.646662e+001 2.734571e+001 1.143012e+001 2.006335e+001 7.451446e-002 2.019639e-001 3.487570e-001 5.325627e-001 5.697539e-001 6.433661e-001 6.873045e-001 7.897519e-001 8.042883e-001 7.743884e-001 8.458168e-001 6.468858e-001 5.000000e-002 5.000000e-002 6.903870e-002 7.657651e-002 9.077934e-002 1.472237e-001 1.372855e-001 1.519513e-001 1.326647e-001 1.696127e-001 1.734742e-001 1.358454e-001 
<GCONST> 6.256866e+001
<STATE> 16
<MEAN> 36
1.824356e+000 -5.418429e+000 -1.250679e+001 -6.275499e+000 9.213134e+000 -1.364158e+000 -7.070707e+000 5.960608e+000 -4.739433e+000 -8.349324e+000 -8.096222e+000 -5.330410e+000 1.346262e-002 5.714017e-001 -5.847807e-002 -9.084613e-002 -5.595166e-001 -6.599614e-002 7.013523e-002 -2.192647e-001 6.490666e-001 7.466479e-001 2.822066e-001 -1.192365e-001 -7.190618e-002 2.482256e-002 1.101323e-001 1.732805e-002 -3.779289e-002 6.059541e-002 7.976809e-002 -2.861977e-002 -4.930258e-003 8.404308e-002 7.814514e-002 6.185556e-002 
<VARIANCE> 36
4.827044e+000 7.237942e+000 1.025118e+001 1.714513e+001 1.433932e+001 2.681052e+001 1.726394e+001 2.696710e+001 1.485471e+001 3.557648e+001 1.073237e+001 2.124483e+001 7.091122e-002 1.345924e-001 2.629586e-001 4.048432e-001 4.599431e-001 5.785194e-001 5.546461e-001 6.216116e-001 6.494547e-001 6.968136e-001 6.061319e-001 6.691863e-001 5.000000e-002 5.000000e-002 5.000000e-002 7.676507e-002 8.185824e-002 9.189499e-002 9.866106e-002 1.029985e-001 1.150469e-001 1.309514e-001 1.194853e-001 1.615224e-001 
<GCONST> 5.852860e+001
<STATE> 17
<MEAN> 36
1.085729e+000 -4.025346e-001 -6.416634e+000 -3.094790e+000 7.392120e+000 8.222785e+000 3.413198e+000 6.155526e+000 -2.240705e+000 -7.200187e+000 -1.152402e+001 -1.025996e+001 -2.503464e-001 7.900695e-001 4.259888e-001 -1.370320e-001 -8.527705e-001 -4.602858e-001 -1.950582e-001 -1.719779e-001 6.396956e-001 6.092748e-001 6.438842e-001 2.443867e-001 -9.818672e-002 -2.913483e-002 1.229986e-001 1.142833e-001 -3.163360e-002 -5.187533e-002 5.154286e-002 1.101879e-001 1.037972e-001 1.248000e-001 1.972128e-001 8.685248e-002 
<VARIANCE> 36
4.813976e+000 8.793898e+000 2.045336e+001 1.920095e+001 1.528891e+001 3.493043e+001 4.364684e+001 1.683879e+001 1.846098e+001 1.657817e+001 2.366517e+001 2.026062e+001 2.009704e-001 2.927161e-001 6.638024e-001 9.056469e-001 9.065380e-001 8.571632e-001 1.109908e+000 1.187835e+000 1.664039e+000 1.184561e+000 1.242408e+000 1.239350e+000 5.000000e-002 5.685696e-002 1.422183e-001 1.976964e-001 1.803339e-001 1.530811e-001 2.164678e-001 2.333149e-001 3.007576e-001 1.868106e-001 1.583679e-001 1.894726e-001 
<GCONST> 7.605615e+001
<STATE> 18
<MEAN> 36
-9.885207e-001 -1.831721e-001 -8.728538e+000 -5.895519e+000 1.221620e+000 -2.400663e-001 -8.195065e-001 6.525393e+000 8.100080e-001 -2.223034e+000 -1.642348e+000 -1.909132e+000 -5.703736e-001 3.752016e-001 6.230496e-001 4.069617e-001 -6.046963e-001 5.731460e-002 8.002645e-001 2.347155e-001 6.181664e-001 6.006783e-001 6.342124e-001 5.108356e-001 -5.740836e-002 -9.031447e-002 1.931504e-002 1.024455e-001 1.706712e-001 4.067887e-002 5.633091e-002 7.795503e-002 -4.776731e-002 -5.537572e-002 -1.043877e-001 -6.965757e-003 
<VARIANCE> 36
4.083948e+000 5.711790e+000 8.423090e+000 1.506566e+001 1.369350e+001 1.273274e+001 3.185144e+001 2.780209e+001 1.043676e+001 1.839823e+001 1.645580e+001 4.351160e+001 1.910442e-001 1.811559e-001 5.765802e-001 4.498370e-001 7.029849e-001 5.491381e-001 1.372756e+000 1.096644e+000 7.408535e-001 9.793015e-001 1.037127e+000 8.597480e-001 5.000000e-002 5.000000e-002 6.541574e-002 8.207841e-002 1.317329e-001 9.946326e-002 2.145782e-001 1.678186e-001 1.483860e-001 1.816563e-001 1.569035e-001 1.612665e-001 
<GCONST> 6.607587e+001
<STATE> 19
<MEAN> 36
-4.179045e+000 1.944452e+000 -3.529003e+000 -5.201107e-001 3.439772e+000 3.617430e+000 2.239971e+000 5.781175e+000 2.899095e+000 -8.642933e-002 -2.578429e+000 -3.834279e+000 -7.663574e-001 -8.885628e-002 4.386555e-001 7.909258e-001 3.674527e-001 3.827018e-001 8.177971e-001 3.257010e-001 4.032020e-001 4.590043e-001 4.705607e-001 7.368316e-001 1.258603e-001 -5.193720e-002 -2.112780e-001 -1.702932e-001 7.184968e-002 1.186659e-001 5.519758e-002 3.382996e-002 -1.313573e-001 -1.694176e-001 -5.951609e-002 8.644361e-002 
<VARIANCE> 36
3.860370e+000 6.329078e+000 1.565404e+001 1.715469e+001 1.283278e+001 2.030120e+001 1.602693e+001 1.692656e+001 1.074599e+001 1.499056e+001 1.077932e+001 1.773917e+001 2.511139e-001 2.857988e-001 7.455623e-001 6.604778e-001 5.885869e-001 7.832050e-001 1.343349e+000 1.459873e+000 8.927643e-001 1.304432e+000 1.221915e+000 1.440188e+000 5.000000e-002 5.636375e-002 1.064257e-001 1.114879e-001 1.479924e-001 1.792658e-001 2.551152e-001 2.576906e-001 1.744704e-001 2.848425e-001 2.279031e-001 2.017727e-001 
<GCONST> 7.098901e+001
<STATE> 20
<MEAN> 36
-5.410917e+000 1.443631e+000 -4.475600e+000 -2.405453e+000 4.171285e-001 2.304925e+000 4.413515e+000 8.252997e+000 5.227598e+000 2.260591e+000 6.543300e-001 -6.317826e-001 -2.145301e-001 1.539297e-001 3.020742e-001 2.061019e-001 -1.379961e-002 2.227158e-001 2.616570e-001 -1.540191e-002 5.033658e-003 7.304478e-002 1.280098e-001 1.109042e-001 2.399996e-002 8.966442e-003 1.656863e-002 8.691207e-003 -3.895535e-004 -1.642856e-002 -7.017680e-002 -7.361948e-002 -7.170441e-002 -4.666631e-002 -6.568610e-002 -6.663533e-002 
<VARIANCE> 36
4.453729e+000 2.933745e+000 6.479264e+000 7.895551e+000 9.480803e+000 1.085216e+001 1.104010e+001 1.374044e+001 1.160329e+001 9.916760e+000 9.431090e+000 9.927803e+000 8.360651e-002 1.841363e-001 2.503535e-001 4.201262e-001 6.328615e-001 7.335354e-001 8.808913e-001 1.004284e+000 9.566750e-001 9.951496e-001 9.185406e-001 9.570429e-001 5.000000e-002 5.000000e-002 5.000000e-002 8.560789e-002 1.176908e-001 1.417094e-001 1.792101e-001 2.012763e-001 1.946383e-001 2.079500e-001 1.982108e-001 1.907749e-001 
<GCONST> 5.877184e+001
<STATE> 21
<MEAN> 36
-8.077350e+000 3.236373e+000 6.333040e-001 3.155569e+000 3.982157e+000 6.802735e+000 6.694285e+000 6.769207e+000 3.681481e+000 1.397649e+000 1.129621e-001 6.510365e-002 -2.595284e-001 -6.062033e-002 1.204474e-001 1.167864e-001 -5.771892e-002 -4.395744e-002 -1.033721e-001 -1.228699e-001 1.955056e-003 8.453038e-002 1.080186e-001 1.273978e-001 -4.269409e-003 -3.029333e-002 -3.339897e-002 -4.488482e-002 -2.786307e-002 -5.954408e-002 -7.289517e-002 -2.073842e-002 2.127691e-002 2.268890e-002 2.164746e-002 -9.462413e-003 
<VARIANCE> 36
2.952004e+000 1.787008e+000 5.245588e+000 6.745397e+000 8.121399e+000 1.241079e+001 1.161805e+001 8.711695e+000 1.144255e+001 1.193279e+001 9.590291e+000 8.099661e+000 7.531111e-002 1.346960e-001 2.488126e-001 5.516622e-001 6.695936e-001 8.377737e-001 8.181649e-001 8.148701e-001 1.243265e+000 1.148177e+000 9.221419e-001 7.659412e-001 5.000000e-002 5.000000e-002 5.000000e-002 1.074073e-001 1.219458e-001 1.680826e-001 1.689266e-001 1.636380e-001 2.607105e-001 2.257095e-001 1.830940e-001 1.674086e-001 
<GCONST> 5.732819e+001
<STATE> 22
<MEAN> 36
-9.564278e+000 -4.428946e+000 -2.687820e+000 -1.084134e+000 3.792939e+000 4.213989e+000 7.939737e-001 5.918132e+000 4.649380e+000 4.718701e+000 1.031725e+000 -1.087052e+000 -3.935118e-001 -6.369385e-001 9.357914e-002 -1.331521e-001 8.470814e-002 -1.539007e-001 -4.352759e-001 -1.926644e-002 1.100712e-003 1.442526e-001 2.951628e-003 -6.493218e-002 -3.049190e-002 -4.595903e-003 5.549860e-002 6.705979e-002 -1.837648e-002 -7.766041e-003 6.419060e-002 -8.422912e-003 -1.205141e-001 -1.985683e-001 -1.048436e-001 -5.833447e-002 
<VARIANCE> 36
7.236493e+000 1.245386e+002 1.809390e+001 1.537409e+001 3.728059e+001 1.399799e+001 2.901535e+001 1.855815e+001 1.241464e+001 1.993333e+001 1.866688e+001 2.258849e+001 1.955843e-001 9.109295e-001 6.499241e-001 1.056390e+000 9.928856e-001 1.160440e+000 1.289289e+000 1.467626e+000 1.527494e+000 1.291408e+000 1.450948e+000 1.031181e+000 5.000000e-002 7.704205e-002 8.953352e-002 2.083916e-001 1.547541e-001 2.277549e-001 2.391326e-001 2.649069e-001 2.849889e-001 2.589799e-001 3.726849e-001 1.918289e-001 
<GCONST> 8.156811e+001
<STATE> 23
<MEAN> 36
-1.162302e+001 5.036115e-001 -2.346292e-001 2.033355e+000 1.471747e+000 2.929545e+000 2.741306e+000 3.661193e+000 1.973565e+000 1.303175e+000 7.944656e-001 4.947897e-001 -1.218585e-001 -7.667757e-002 -2.047541e-002 3.971903e-003 -5.052718e-002 -1.020478e-001 -1.245114e-001 -1.882454e-001 -1.157653e-001 -1.658675e-001 -5.973643e-002 3.612065e-002 2.426866e-002 2.699812e-002 -3.870109e-003 9.920163e-004 2.091362e-002 3.679606e-002 2.649589e-002 4.406233e-003 2.377234e-002 3.580136e-002 -8.171289e-003 -4.396234e-003 
<VARIANCE> 36
2.283410e+000 5.691249e+000 4.670280e+000 5.400471e+000 6.571240e+000 7.677752e+000 8.299170e+000 1.174554e+001 9.631424e+000 1.129666e+001 8.899754e+000 9.847094e+000 1.091718e-001 2.052189e-001 3.692597e-001 5.250644e-001 5.545173e-001 7.891737e-001 8.266391e-001 1.156627e+000 9.661982e-001 1.084956e+000 9.698595e-001 9.094889e-001 5.000000e-002 5.000000e-002 7.155978e-002 1.074514e-001 1.069687e-001 1.657444e-001 1.610524e-001 2.407791e-001 1.937198e-001 2.235139e-001 1.835622e-001 1.765121e-001 
<GCONST> 5.851963e+001
<TRANSP> 25
0.000000e+000 1.000000e+000 0.000000e+000 0.000000e+000 0.000000e+000 0.000000e+000 0.000000e+000 0.000000e+000 0.000000e+000 0.000000e+000 0.000000e+000 0.000000e+000 0.000000e+000 0.000000e+000 0.000000e+000 0.000000e+000 0.000000e+000 0.000000e+000 0.000000e+000 0.000000e+000 0.000000e+000 0.000000e+000 0.000000e+000 0.000000e+000 0.000000e+000 
0.000000e+000 7.415159e-001 2.584841e-001 0.000000e+000 0.000000e+000 0.000000e+000 0.000000e+000 0.000000e+000 0.000000e+000 0.000000e+000 0.000000e+000 0.000000e+000 0.000000e+000 0.000000e+000 0.000000e+000 0.000000e+000 0.000000e+000 0.000000e+000 0.000000e+000 0.000000e+000 0.000000e+000 0.000000e+000 0.000000e+000 0.000000e+000 0.000000e+000 
0.000000e+000 0.000000e+000 7.294751e-001 2.705249e-001 0.000000e+000 0.000000e+000 0.000000e+000 0.000000e+000 0.000000e+000 0.000000e+000 0.000000e+000 0.000000e+000 0.000000e+000 0.000000e+000 0.000000e+000 0.000000e+000 0.000000e+000 0.000000e+000 0.000000e+000 0.000000e+000 0.000000e+000 0.000000e+000 0.000000e+000 0.000000e+000 0.000000e+000 
0.000000e+000 0.000000e+000 0.000000e+000 9.052435e-001 9.475641e-002 0.000000e+000 0.000000e+000 0.000000e+000 0.000000e+000 0.000000e+000 0.000000e+000 0.000000e+000 0.000000e+000 0.000000e+000 0.000000e+000 0.000000e+000 0.000000e+000 0.000000e+000 0.000000e+000 0.000000e+000 0.000000e+000 0.000000e+000 0.000000e+000 0.000000e+000 0.000000e+000 
0.000000e+000 0.000000e+000 0.000000e+000 0.000000e+000 8.659603e-001 1.340396e-001 0.000000e+000 0.000000e+000 0.000000e+000 0.000000e+000 0.000000e+000 0.000000e+000 0.000000e+000 0.000000e+000 0.000000e+000 0.000000e+000 0.000000e+000 0.000000e+000 0.000000e+000 0.000000e+000 0.000000e+000 0.000000e+000 0.000000e+000 0.000000e+000 0.000000e+000 
0.000000e+000 0.000000e+000 0.000000e+000 0.000000e+000 0.000000e+000 7.701554e-001 2.298446e-001 0.000000e+000 0.000000e+000 0.000000e+000 0.000000e+000 0.000000e+000 0.000000e+000 0.000000e+000 0.000000e+000 0.000000e+000 0.000000e+000 0.000000e+000 0.000000e+000 0.000000e+000 0.000000e+000 0.000000e+000 0.000000e+000 0.000000e+000 0.000000e+000 
0.000000e+000 0.000000e+000 0.000000e+000 0.000000e+000 0.000000e+000 0.000000e+000 8.002166e-001 1.997835e-001 0.000000e+000 0.000000e+000 0.000000e+000 0.000000e+000 0.000000e+000 0.000000e+000 0.000000e+000 0.000000e+000 0.000000e+000 0.000000e+000 0.000000e+000 0.000000e+000 0.000000e+000 0.000000e+000 0.000000e+000 0.000000e+000 0.000000e+000 
0.000000e+000 0.000000e+000 0.000000e+000 0.000000e+000 0.000000e+000 0.000000e+000 0.000000e+000 8.121547e-001 1.878453e-001 0.000000e+000 0.000000e+000 0.000000e+000 0.000000e+000 0.000000e+000 0.000000e+000 0.000000e+000 0.000000e+000 0.000000e+000 0.000000e+000 0.000000e+000 0.000000e+000 0.000000e+000 0.000000e+000 0.000000e+000 0.000000e+000 
0.000000e+000 0.000000e+000 0.000000e+000 0.000000e+000 0.000000e+000 0.000000e+000 0.000000e+000 0.000000e+000 7.967278e-001 2.032722e-001 0.000000e+000 0.000000e+000 0.000000e+000 0.000000e+000 0.000000e+000 0.000000e+000 0.000000e+000 0.000000e+000 0.000000e+000 0.000000e+000 0.000000e+000 0.000000e+000 0.000000e+000 0.000000e+000 0.000000e+000 
0.000000e+000 0.000000e+000 0.000000e+000 0.000000e+000 0.000000e+000 0.000000e+000 0.000000e+000 0.000000e+000 0.000000e+000 8.736012e-001 1.263988e-001 0.000000e+000 0.000000e+000 0.000000e+000 0.000000e+000 0.000000e+000 0.000000e+000 0.000000e+000 0.000000e+000 0.000000e+000 0.000000e+000 0.000000e+000 0.000000e+000 0.000000e+000 0.000000e+000 
0.000000e+000 0.000000e+000 0.000000e+000 0.000000e+000 0.000000e+000 0.000000e+000 0.000000e+000 0.000000e+000 0.000000e+000 0.000000e+000 9.107360e-001 8.926402e-002 0.000000e+000 0.000000e+000 0.000000e+000 0.000000e+000 0.000000e+000 0.000000e+000 0.000000e+000 0.000000e+000 0.000000e+000 0.000000e+000 0.000000e+000 0.000000e+000 0.000000e+000 
0.000000e+000 0.000000e+000 0.000000e+000 0.000000e+000 0.000000e+000 0.000000e+000 0.000000e+000 0.000000e+000 0.000000e+000 0.000000e+000 0.000000e+000 8.464575e-001 1.535425e-001 0.000000e+000 0.000000e+000 0.000000e+000 0.000000e+000 0.000000e+000 0.000000e+000 0.000000e+000 0.000000e+000 0.000000e+000 0.000000e+000 0.000000e+000 0.000000e+000 
0.000000e+000 0.000000e+000 0.000000e+000 0.000000e+000 0.000000e+000 0.000000e+000 0.000000e+000 0.000000e+000 0.000000e+000 0.000000e+000 0.000000e+000 0.000000e+000 7.941376e-001 2.058624e-001 0.000000e+000 0.000000e+000 0.000000e+000 0.000000e+000 0.000000e+000 0.000000e+000 0.000000e+000 0.000000e+000 0.000000e+000 0.000000e+000 0.000000e+000 
0.000000e+000 0.000000e+000 0.000000e+000 0.000000e+000 0.000000e+000 0.000000e+000 0.000000e+000 0.000000e+000 0.000000e+000 0.000000e+000 0.000000e+000 0.000000e+000 0.000000e+000 7.716660e-001 2.283341e-001 0.000000e+000 0.000000e+000 0.000000e+000 0.000000e+000 0.000000e+000 0.000000e+000 0.000000e+000 0.000000e+000 0.000000e+000 0.000000e+000 
0.000000e+000 0.000000e+000 0.000000e+000 0.000000e+000 0.000000e+000 0.000000e+000 0.000000e+000 0.000000e+000 0.000000e+000 0.000000e+000 0.000000e+000 0.000000e+000 0.000000e+000 0.000000e+000 6.207719e-001 3.792281e-001 0.000000e+000 0.000000e+000 0.000000e+000 0.000000e+000 0.000000e+000 0.000000e+000 0.000000e+000 0.000000e+000 0.000000e+000 
0.000000e+000 0.000000e+000 0.000000e+000 0.000000e+000 0.000000e+000 0.000000e+000 0.000000e+000 0.000000e+000 0.000000e+000 0.000000e+000 0.000000e+000 0.000000e+000 0.000000e+000 0.000000e+000 0.000000e+000 8.765872e-001 1.234128e-001 0.000000e+000 0.000000e+000 0.000000e+000 0.000000e+000 0.000000e+000 0.000000e+000 0.000000e+000 0.000000e+000 
0.000000e+000 0.000000e+000 0.000000e+000 0.000000e+000 0.000000e+000 0.000000e+000 0.000000e+000 0.000000e+000 0.000000e+000 0.000000e+000 0.000000e+000 0.000000e+000 0.000000e+000 0.000000e+000 0.000000e+000 0.000000e+000 8.607279e-001 1.392722e-001 0.000000e+000 0.000000e+000 0.000000e+000 0.000000e+000 0.000000e+000 0.000000e+000 0.000000e+000 
0.000000e+000 0.000000e+000 0.000000e+000 0.000000e+000 0.000000e+000 0.000000e+000 0.000000e+000 0.000000e+000 0.000000e+000 0.000000e+000 0.000000e+000 0.000000e+000 0.000000e+000 0.000000e+000 0.000000e+000 0.000000e+000 0.000000e+000 6.914003e-001 3.085997e-001 0.000000e+000 0.000000e+000 0.000000e+000 0.000000e+000 0.000000e+000 0.000000e+000 
0.000000e+000 0.000000e+000 0.000000e+000 0.000000e+000 0.000000e+000 0.000000e+000 0.000000e+000 0.000000e+000 0.000000e+000 0.000000e+000 0.000000e+000 0.000000e+000 0.000000e+000 0.000000e+000 0.000000e+000 0.000000e+000 0.000000e+000 0.000000e+000 7.969238e-001 2.030762e-001 0.000000e+000 0.000000e+000 0.000000e+000 0.000000e+000 0.000000e+000 
0.000000e+000 0.000000e+000 0.000000e+000 0.000000e+000 0.000000e+000 0.000000e+000 0.000000e+000 0.000000e+000 0.000000e+000 0.000000e+000 0.000000e+000 0.000000e+000 0.000000e+000 0.000000e+000 0.000000e+000 0.000000e+000 0.000000e+000 0.000000e+000 0.000000e+000 6.753086e-001 3.246914e-001 0.000000e+000 0.000000e+000 0.000000e+000 0.000000e+000 
0.000000e+000 0.000000e+000 0.000000e+000 0.000000e+000 0.000000e+000 0.000000e+000 0.000000e+000 0.000000e+000 0.000000e+000 0.000000e+000 0.000000e+000 0.000000e+000 0.000000e+000 0.000000e+000 0.000000e+000 0.000000e+000 0.000000e+000 0.000000e+000 0.000000e+000 0.000000e+000 8.805923e-001 1.194080e-001 0.000000e+000 0.000000e+000 0.000000e+000 
0.000000e+000 0.000000e+000 0.000000e+000 0.000000e+000 0.000000e+000 0.000000e+000 0.000000e+000 0.000000e+000 0.000000e+000 0.000000e+000 0.000000e+000 0.000000e+000 0.000000e+000 0.000000e+000 0.000000e+000 0.000000e+000 0.000000e+000 0.000000e+000 0.000000e+000 0.000000e+000 0.000000e+000 8.977669e-001 1.022331e-001 0.000000e+000 0.000000e+000 
0.000000e+000 0.000000e+000 0.000000e+000 0.000000e+000 0.000000e+000 0.000000e+000 0.000000e+000 0.000000e+000 0.000000e+000 0.000000e+000 0.000000e+000 0.000000e+000 0.000000e+000 0.000000e+000 0.000000e+000 0.000000e+000 0.000000e+000 0.000000e+000 0.000000e+000 0.000000e+000 0.000000e+000 0.000000e+000 5.297528e-001 4.702472e-001 0.000000e+000 
0.000000e+000 0.000000e+000 0.000000e+000 0.000000e+000 0.000000e+000 0.000000e+000 0.000000e+000 0.000000e+000 0.000000e+000 0.000000e+000 0.000000e+000 0.000000e+000 0.000000e+000 0.000000e+000 0.000000e+000 0.000000e+000 0.000000e+000 0.000000e+000 0.000000e+000 0.000000e+000 0.000000e+000 0.000000e+000 0.000000e+000 8.847514e-001 1.152486e-001 
0.000000e+000 0.000000e+000 0.000000e+000 0.000000e+000 0.000000e+000 0.000000e+000 0.000000e+000 0.000000e+000 0.000000e+000 0.000000e+000 0.000000e+000 0.000000e+000 0.000000e+000 0.000000e+000 0.000000e+000 0.000000e+000 0.000000e+000 0.000000e+000 0.000000e+000 0.000000e+000 0.000000e+000 0.000000e+000 0.000000e+000 0.000000e+000 0.000000e+000 
