<HMMNAME> 8
<HMMSTATES> 25
<STATE> 1
<MEAN> 36
-2.047940e+000 -1.839819e+000 -5.046208e+000 -1.557740e+001 2.199835e-002 1.301152e+001 2.796027e+000 -3.924500e+000 6.091855e-001 5.070217e-001 3.858149e+000 -4.434394e-001 3.795424e-001 -4.140802e-001 -2.850585e-001 -8.417553e-001 -4.539605e-003 4.953305e-002 -3.756851e-001 -3.961608e-001 5.000700e-003 1.574210e-001 2.644003e-002 -1.628242e-001 -3.179109e-002 1.765528e-003 4.425413e-002 8.803425e-002 4.199222e-002 -6.822792e-002 -7.313040e-003 2.259627e-002 -7.524831e-003 1.994831e-002 5.095434e-003 1.473116e-002 
<VARIANCE> 36
5.107803e+001 5.508820e+001 2.612181e+001 9.443014e+001 1.186264e+002 6.470300e+001 7.916789e+001 5.349379e+001 5.501742e+001 3.331107e+001 5.410677e+001 4.254060e+001 8.195053e-001 1.972132e+000 1.971981e+000 5.045921e+000 2.576685e+000 2.807217e+000 2.243515e+000 1.835160e+000 2.156103e+000 2.260307e+000 2.435982e+000 1.853712e+000 1.423285e-001 3.043796e-001 3.949986e-001 7.429567e-001 4.543108e-001 5.299036e-001 3.768689e-001 3.478710e-001 4.265335e-001 3.833292e-001 5.053447e-001 3.579014e-001 
<GCONST> 1.123894e+002
<STATE> 2
<MEAN> 36
8.630307e+000 -1.151427e+001 -5.055320e-001 -1.461942e+001 -7.120219e+000 1.033059e+001 2.655669e+000 -1.020140e+001 -8.637688e+000 3.236614e+000 9.179635e+000 -3.038010e+000 -1.820763e-001 -1.594110e-001 2.445915e-001 4.920042e-001 5.744422e-001 -5.743431e-001 -8.048698e-001 1.639637e-001 3.089619e-001 1.566563e-001 3.041585e-002 2.388288e-003 -3.025604e-002 5.959405e-002 3.834678e-002 4.433957e-002 6.586780e-003 -4.720531e-002 -3.782970e-004 8.308694e-002 6.269631e-002 -7.679364e-002 -5.815242e-002 6.320072e-003 
<VARIANCE> 36
2.778348e+001 3.509743e+001 2.882222e+001 5.379488e+001 7.571504e+001 3.791583e+001 2.190317e+002 5.332634e+001 1.496497e+002 6.631374e+001 1.387895e+002 4.979872e+001 2.633912e-001 5.630248e-001 8.528996e-001 9.847540e-001 1.243451e+000 1.571579e+000 2.201836e+000 1.702126e+000 1.618203e+000 2.174470e+000 1.879618e+000 1.292429e+000 5.000000e-002 8.715185e-002 1.237481e-001 1.649354e-001 2.014079e-001 2.100093e-001 2.941921e-001 2.407630e-001 2.256374e-001 3.276297e-001 2.521857e-001 1.983983e-001 
<GCONST> 9.708010e+001
<STATE> 3
<MEAN> 36
-4.672057e+000 -1.313351e+001 -8.136278e+000 -2.881447e+001 1.002183e+001 5.968522e+000 -5.022989e+000 -6.350522e+000 6.846290e+000 7.015135e+000 -3.557083e+000 3.582648e+000 -2.005772e-002 1.489907e-001 1.633432e-001 3.018574e-001 -9.854643e-002 -6.071043e-001 -1.860471e-001 4.271796e-002 2.464332e-001 1.142983e-001 -2.469340e-001 -1.628244e-001 -1.360216e-003 2.897834e-002 1.400205e-002 9.649225e-002 -3.601526e-002 -7.417327e-003 -1.207891e-002 4.298531e-002 1.590349e-002 -3.616493e-002 -5.212824e-002 -1.951947e-002 
<VARIANCE> 36
1.030722e+001 1.990635e+001 1.398584e+001 4.868690e+001 3.783953e+001 4.802001e+001 3.938231e+001 3.123419e+001 2.409963e+001 3.483261e+001 3.867014e+001 2.317405e+001 1.209565e-001 2.929578e-001 3.580427e-001 8.844130e-001 8.440866e-001 1.003410e+000 9.457539e-001 1.009351e+000 1.087215e+000 8.241036e-001 9.144835e-001 7.800646e-001 5.000000e-002 5.266957e-002 6.035521e-002 1.040206e-001 1.677402e-001 1.710949e-001 1.638783e-001 1.623481e-001 1.731485e-001 1.512144e-001 1.716325e-001 1.558498e-001 
<GCONST> 7.555983e+001
<STATE> 4
<MEAN> 36
-4.223378e+000 -9.129062e+000 -3.296664e+000 -1.614729e+001 6.493793e+000 -2.115650e+000 -8.939330e+000 -2.043008e+000 1.038819e+001 4.377649e+000 -8.073960e+000 1.604823e+000 -3.697111e-001 4.880944e-001 8.427421e-001 1.443501e+000 -3.613750e-001 -2.488196e-001 3.682045e-001 8.382601e-001 2.828529e-001 -9.346313e-001 -5.723272e-001 3.682875e-001 -1.135520e-001 -2.381104e-002 6.292863e-002 8.595627e-002 3.831094e-002 2.090432e-001 2.920093e-001 -3.937305e-002 -1.552467e-001 -3.716955e-002 9.751780e-002 4.475596e-002 
<VARIANCE> 36
2.133252e+001 2.483853e+001 2.422731e+001 3.952127e+001 4.596480e+001 3.417867e+001 3.654126e+001 4.119843e+001 5.104988e+001 3.654385e+001 7.977421e+001 2.898901e+001 3.028151e-001 7.317584e-001 1.094433e+000 1.442624e+000 1.663884e+000 2.399913e+000 2.265722e+000 1.791522e+000 1.879134e+000 2.528161e+000 2.175378e+000 1.370965e+000 5.000000e-002 1.267725e-001 1.701615e-001 2.492452e-001 2.849469e-001 4.087596e-001 3.597326e-001 3.185853e-001 4.010453e-001 4.682207e-001 3.789654e-001 2.863248e-001 
<GCONST> 9.720941e+001
<STATE> 5
<MEAN> 36
8.286561e-001 -6.608236e+000 4.017103e+000 -5.031819e+000 -7.095549e-001 2.631465e+000 -3.216756e+000 -4.628751e+000 -4.058434e-002 1.344800e+000 3.627381e+000 -3.978518e+000 -1.376109e+000 3.363978e-001 3.727399e-001 5.987911e-001 3.235370e-002 -1.969995e-002 7.084631e-001 2.940239e-002 1.783999e-002 -1.939412e-001 -6.537220e-001 -1.596278e-001 -1.758344e-001 -2.932526e-002 -8.223781e-002 -1.347244e-001 -1.115511e-001 1.446744e-002 -1.218595e-002 -9.317616e-002 -8.496758e-002 -1.376132e-002 1.629921e-001 7.971912e-002 
<VARIANCE> 36
2.899348e+001 4.977431e+001 3.506735e+001 2.939599e+001 5.670266e+001 3.737006e+001 7.886104e+001 5.050426e+001 9.116262e+001 3.258724e+001 9.076319e+001 4.305285e+001 6.159177e-001 1.308222e+000 1.569989e+000 2.042325e+000 3.005962e+000 2.734735e+000 3.147954e+000 2.641650e+000 3.269716e+000 3.508695e+000 3.373374e+000 2.630857e+000 5.963512e-002 1.470867e-001 2.339336e-001 2.003913e-001 5.268257e-001 4.310609e-001 6.296452e-001 3.488979e-001 5.844147e-001 5.377672e-001 6.033453e-001 4.974339e-001 
<GCONST> 1.092336e+002
<STATE> 6
<MEAN> 36
-1.122287e+001 -6.603168e+000 4.094607e+000 -1.946807e+000 4.894640e+000 1.684493e-001 -8.029388e-001 4.043771e+000 4.575605e+000 -1.928104e+000 -3.758082e+000 2.948420e+000 -1.434592e+000 2.512543e-001 6.532133e-001 6.694896e-001 -4.906580e-001 -3.449584e-001 9.794584e-001 4.610168e-001 -1.205202e+000 -1.857611e-001 1.699620e+000 2.472291e-001 -1.073884e-001 1.641132e-001 3.158517e-002 -3.293938e-001 -1.069757e-001 -1.904915e-001 -6.594848e-002 -1.182771e-002 -9.386964e-002 1.674608e-001 2.529912e-001 -6.295688e-002 
<VARIANCE> 36
1.030876e+001 1.646796e+001 2.359309e+001 4.909968e+001 3.376285e+001 2.966912e+001 3.910887e+001 5.738248e+001 4.420369e+001 3.811856e+001 5.113674e+001 4.594195e+001 4.802389e-001 1.127183e+000 1.320758e+000 2.946255e+000 2.808941e+000 3.583677e+000 2.543059e+000 3.343302e+000 3.440350e+000 2.168694e+000 2.889967e+000 2.766729e+000 6.577212e-002 1.235080e-001 2.562051e-001 3.928994e-001 4.412900e-001 6.536295e-001 5.102783e-001 6.292336e-001 5.757112e-001 4.191769e-001 6.217736e-001 4.306581e-001 
<GCONST> 1.052253e+002
<STATE> 7
<MEAN> 36
-1.605007e+001 -4.141710e+000 8.056759e+000 -7.425576e+000 -9.081937e+000 -1.226511e-001 -4.361004e+000 -8.624866e+000 2.221537e+000 2.754271e-001 4.880489e+000 -2.200067e+000 -6.417179e-001 1.139561e-001 2.401957e-001 2.570467e-002 -1.988991e-001 -2.121271e-001 1.520782e-001 8.320127e-002 -2.386307e-001 -2.536905e-001 8.362191e-002 3.336423e-002 6.920539e-002 -4.144968e-002 5.095224e-003 4.099438e-002 9.645582e-002 4.531665e-002 2.834908e-002 7.034304e-002 1.220661e-002 -2.544297e-002 -4.244253e-002 -1.589712e-002 
<VARIANCE> 36
1.249489e+001 1.144853e+001 2.032421e+001 3.490149e+001 3.968714e+001 3.386481e+001 3.517307e+001 5.467209e+001 3.115882e+001 4.599447e+001 2.646516e+001 3.420298e+001 7.222809e-001 8.517896e-001 1.350626e+000 1.450124e+000 1.624833e+000 1.990016e+000 1.861645e+000 2.596043e+000 2.637726e+000 2.276261e+000 2.459559e+000 2.126241e+000 5.058727e-002 1.215062e-001 2.490773e-001 2.644316e-001 3.160057e-001 3.332970e-001 2.934033e-001 4.871847e-001 4.450003e-001 4.062228e-001 3.739422e-001 4.033263e-001 
<GCONST> 9.730390e+001
<STATE> 8
<MEAN> 36
-1.989965e+001 6.036499e-001 7.790176e+000 -9.381819e+000 -2.884490e+000 5.395991e+000 7.830551e+000 -1.024718e+001 -7.323559e+000 -6.973586e+000 4.487468e+000 -6.004606e+000 -6.705551e-001 1.165345e-001 3.656586e-001 -5.226581e-002 1.119220e-002 -2.380302e-001 3.310040e-001 1.323233e-001 -1.400140e-001 -1.843528e-001 3.212780e-001 8.577314e-002 5.735998e-002 -4.981067e-002 -7.082793e-003 7.234878e-002 -2.244364e-002 -1.251702e-002 -2.555717e-002 2.792492e-002 1.007042e-001 7.660668e-002 -7.972839e-002 -3.948547e-004 
<VARIANCE> 36
1.440749e+001 1.583887e+001 2.602958e+001 2.957708e+001 3.699874e+001 5.166837e+001 3.759172e+001 7.806402e+001 4.115422e+001 3.914407e+001 2.127839e+001 4.713839e+001 9.239789e-001 9.146909e-001 9.667450e-001 1.324110e+000 2.047146e+000 2.077413e+000 1.898023e+000 2.510596e+000 2.907240e+000 2.855781e+000 2.202749e+000 2.436017e+000 6.994376e-002 1.357131e-001 1.631593e-001 2.569694e-001 4.542753e-001 3.723748e-001 3.378144e-001 4.762104e-001 6.099057e-001 5.622743e-001 4.266719e-001 5.522864e-001 
<GCONST> 1.010108e+002
<STATE> 9
<MEAN> 36
-2.427776e+001 -2.595798e+000 1.042804e+001 -1.072649e+000 1.740695e-001 -3.395597e+000 5.321851e+000 7.215126e+000 -2.889205e+000 -9.728649e-001 5.918487e+000 1.663017e+000 -1.306971e+000 4.854224e-001 6.614908e-001 1.830465e-001 -2.055526e-001 -8.558780e-002 2.818192e-001 2.108741e-001 -2.363720e-001 1.479484e-001 -3.522674e-002 -1.660532e-001 2.895274e-001 3.704074e-002 -8.952098e-002 -3.646673e-002 2.915833e-002 1.746471e-001 -2.589048e-001 -1.753917e-001 1.764861e-001 2.280171e-002 -2.562275e-001 4.627427e-002 
<VARIANCE> 36
1.421827e+001 1.874089e+001 2.926212e+001 3.434900e+001 5.050585e+001 3.025792e+001 3.759609e+001 6.109201e+001 3.782341e+001 3.029877e+001 2.727707e+001 2.488527e+001 1.001503e+000 8.000226e-001 7.892471e-001 1.538104e+000 1.821333e+000 1.606577e+000 2.597769e+000 2.185469e+000 2.557596e+000 2.077240e+000 1.978955e+000 1.620424e+000 5.491266e-002 9.790805e-002 1.602573e-001 3.497382e-001 4.033930e-001 3.499313e-001 3.695076e-001 3.881681e-001 4.956258e-001 4.304938e-001 5.838389e-001 3.544908e-001 
<GCONST> 9.778796e+001
<STATE> 10
<MEAN> 36
-2.906845e+001 6.072128e+000 1.013775e+001 -2.796882e+000 1.331884e+000 -4.942069e-001 8.161003e+000 4.436374e+000 -4.911644e+000 4.426987e+000 3.971101e+000 1.424478e+000 6.842358e-003 1.037682e-001 1.777565e-001 9.057130e-003 -2.217015e-001 9.856217e-002 1.619219e-001 -1.506307e-001 7.821614e-002 2.034480e-001 1.755446e-002 1.213491e-002 8.128197e-002 -4.306343e-002 -6.819973e-003 1.180762e-002 -3.110046e-002 -2.560940e-002 1.368039e-002 2.208085e-002 3.060344e-002 -4.423313e-004 1.354820e-002 9.498083e-003 
<VARIANCE> 36
7.377018e+000 1.717397e+001 2.239566e+001 1.211236e+001 2.205358e+001 2.304197e+001 3.494487e+001 3.927871e+001 2.314742e+001 2.885381e+001 2.085438e+001 2.037994e+001 3.290972e-001 4.901322e-001 6.830435e-001 1.142182e+000 1.330188e+000 1.397922e+000 1.806206e+000 1.916065e+000 2.037232e+000 2.120952e+000 2.096480e+000 2.135485e+000 5.000000e-002 7.361720e-002 1.334741e-001 2.182642e-001 2.362453e-001 2.791902e-001 3.485724e-001 3.862809e-001 3.994987e-001 4.352145e-001 4.294195e-001 4.266333e-001 
<GCONST> 8.806043e+001
<STATE> 11
<MEAN> 36
-2.797592e+001 -5.117649e+000 1.759400e+001 2.865759e+000 -5.536412e+000 -3.948125e+000 8.964166e+000 1.960340e+000 2.924301e+000 -1.154607e+000 3.816645e+000 -8.775174e-003 3.651626e-001 6.440583e-002 4.137824e-002 -1.662644e-001 -2.672446e-001 7.747582e-002 -1.682785e-002 6.259724e-002 1.311847e-001 2.496199e-001 -6.892762e-002 1.263264e-001 1.578548e-001 7.686741e-002 -7.097536e-002 -7.384917e-002 -6.266389e-002 -4.108782e-002 -8.157095e-002 -1.794163e-002 -6.358756e-003 3.580215e-002 -2.633448e-003 -6.058249e-003 
<VARIANCE> 36
1.411400e+001 1.797445e+001 1.195868e+001 2.355536e+001 1.780589e+001 2.192445e+001 2.633086e+001 2.720694e+001 2.586174e+001 2.826644e+001 2.030885e+001 1.466757e+001 7.996712e-001 5.299207e-001 7.230276e-001 1.394059e+000 1.669404e+000 1.588051e+000 1.797511e+000 2.429528e+000 2.279313e+000 2.278323e+000 2.258926e+000 1.418810e+000 7.284694e-002 1.007890e-001 1.548813e-001 3.166008e-001 3.740363e-001 3.723589e-001 3.448764e-001 3.849384e-001 4.139290e-001 4.648340e-001 4.191230e-001 2.789994e-001 
<GCONST> 9.086927e+001
<STATE> 12
<MEAN> 36
-1.903465e+001 2.054041e-001 1.333706e+001 -3.670061e+000 -8.455248e+000 -1.323935e+000 5.612768e+000 1.223232e+000 -2.578829e-001 2.313022e+000 4.217251e+000 1.142729e+000 1.749512e+000 3.984165e-001 7.652544e-002 1.835205e-001 -6.351304e-001 -6.861030e-001 -7.495803e-001 -2.819834e-001 1.474193e-001 -3.750710e-001 -6.756837e-001 -2.396509e-001 1.886267e-001 -2.530787e-002 1.389876e-001 4.652566e-003 -1.484016e-001 -4.274885e-001 -1.319776e-001 -3.913568e-002 -9.523782e-002 -2.560676e-001 -2.404674e-001 -4.625080e-002 
<VARIANCE> 36
1.405345e+001 2.323776e+001 1.712060e+001 2.511669e+001 3.393117e+001 3.812069e+001 5.927714e+001 4.814039e+001 3.447821e+001 4.836694e+001 2.381719e+001 2.575386e+001 7.633336e-001 1.198386e+000 1.538122e+000 2.129707e+000 2.372859e+000 4.245055e+000 2.388661e+000 2.693511e+000 2.945517e+000 2.475371e+000 2.787237e+000 2.439207e+000 1.538098e-001 1.732873e-001 2.083166e-001 3.924657e-001 5.225926e-001 6.172452e-001 5.146713e-001 6.701138e-001 5.512855e-001 5.095264e-001 5.537555e-001 4.622576e-001 
<GCONST> 1.051906e+002
<STATE> 13
<MEAN> 36
-1.013388e+001 1.998299e+000 1.432898e+001 -3.616999e+000 -1.233437e+001 -8.641272e+000 1.661357e+000 -9.269968e-001 -4.802842e-002 -1.636514e+000 -1.158263e-001 -8.606642e-002 1.973794e+000 -1.098968e+000 -2.823959e-002 -1.184379e+000 -2.170298e+000 -2.494792e+000 -6.206307e-001 7.286711e-001 3.789406e-001 -5.895067e-001 -6.302320e-001 8.363078e-001 -4.743751e-001 -6.237860e-001 -2.995983e-001 -3.307137e-001 2.130128e-002 3.275638e-001 3.551965e-001 2.694189e-001 1.223749e-001 2.049416e-001 3.064001e-001 3.361365e-001 
<VARIANCE> 36
2.299490e+001 2.087879e+001 2.185499e+001 3.731298e+001 3.260508e+001 3.896874e+001 5.988214e+001 3.996813e+001 5.839657e+001 3.553743e+001 3.043077e+001 2.490581e+001 1.277895e+000 1.833460e+000 1.445393e+000 3.248034e+000 2.572822e+000 2.625421e+000 2.828683e+000 3.884367e+000 3.763233e+000 2.488138e+000 2.887200e+000 1.970827e+000 1.189147e-001 2.061787e-001 2.317009e-001 4.359912e-001 6.875566e-001 7.802774e-001 5.043961e-001 4.621829e-001 4.623704e-001 4.221272e-001 3.449137e-001 3.273051e-001 
<GCONST> 1.070230e+002
<STATE> 14
<MEAN> 36
-6.764443e+000 -2.940807e+000 1.215611e+001 -5.564933e+000 -1.664215e+001 -1.248291e+001 2.988082e+000 4.968289e+000 6.888205e-001 -2.533572e+000 6.056185e-001 2.181200e+000 4.497692e-001 -8.940499e-001 -6.264806e-001 -1.711706e-001 -1.028891e-002 9.401399e-002 3.769027e-001 5.863928e-001 2.994614e-001 -1.092744e-001 -3.180181e-001 1.866160e-001 -1.277835e-001 1.349373e-001 -1.578532e-002 1.873724e-001 3.672824e-001 3.356716e-001 2.473965e-002 -1.266148e-001 -3.359344e-002 -2.865832e-002 -6.804636e-003 -1.695020e-001 
<VARIANCE> 36
2.366920e+001 1.976898e+001 1.726042e+001 3.995841e+001 2.952070e+001 3.917773e+001 5.815490e+001 6.412089e+001 7.238628e+001 4.635982e+001 3.265815e+001 2.947898e+001 2.026854e-001 8.738467e-001 7.680874e-001 1.484419e+000 1.714051e+000 1.691473e+000 1.494108e+000 1.868906e+000 1.629478e+000 1.605278e+000 1.715314e+000 1.786444e+000 7.818823e-002 1.033999e-001 1.323249e-001 3.163676e-001 3.635963e-001 3.605542e-001 3.482251e-001 3.490874e-001 3.603400e-001 3.218755e-001 4.049033e-001 3.462566e-001 
<GCONST> 9.543707e+001
<STATE> 15
<MEAN> 36
-9.791960e+000 -1.088792e+001 8.126436e+000 -1.273513e+001 -9.794979e+000 -1.114624e+001 7.378313e+000 4.863091e+000 -8.537727e-001 -2.880387e-001 -5.743868e+000 7.328218e+000 2.653591e-001 -4.954759e-001 -2.898296e-001 1.029350e-001 6.220989e-001 8.806628e-002 -3.417166e-001 4.084699e-001 1.988493e-001 -2.877736e-001 -2.105458e-001 2.540845e-002 -5.227561e-004 9.925899e-002 -2.394977e-003 8.732251e-002 1.671832e-002 -8.333512e-003 -9.764406e-002 -3.618515e-002 2.862087e-002 -1.991825e-002 -1.553667e-002 -7.620212e-002 
<VARIANCE> 36
1.085284e+001 1.381551e+001 1.208245e+001 1.774493e+001 2.491221e+001 3.549827e+001 3.096749e+001 3.868455e+001 2.229604e+001 1.857011e+001 3.165184e+001 2.373483e+001 1.079511e-001 2.893166e-001 2.952317e-001 5.129213e-001 6.839318e-001 7.752281e-001 9.385946e-001 1.026379e+000 7.914433e-001 8.725040e-001 8.446186e-001 8.261537e-001 5.000000e-002 5.000000e-002 5.664279e-002 8.100796e-002 1.197984e-001 1.577284e-001 1.415356e-001 2.140829e-001 1.438629e-001 1.780549e-001 1.668482e-001 1.679340e-001 
<GCONST> 7.022618e+001
<STATE> 16
<MEAN> 36
-6.099842e+000 -1.177901e+001 4.328244e+000 -6.684202e+000 -6.137726e+000 -7.828613e+000 -1.388610e+000 9.455852e+000 5.356897e+000 -3.448179e+000 -5.500908e+000 4.174341e+000 3.389273e-001 3.936402e-001 -4.913639e-001 1.007694e+000 5.724763e-001 3.086386e-001 -8.272468e-001 -4.140910e-001 5.242248e-001 -8.768338e-002 -1.142208e-001 -5.891181e-001 -4.979492e-002 1.844719e-001 3.916513e-002 1.345497e-001 5.862060e-002 3.219595e-002 4.045430e-002 -1.997871e-001 -1.478676e-001 6.692702e-002 6.080477e-002 -7.818606e-002 
<VARIANCE> 36
7.767157e+000 1.460062e+001 1.780748e+001 2.358763e+001 3.244853e+001 3.298868e+001 2.963445e+001 3.731111e+001 3.615467e+001 1.959699e+001 2.956337e+001 2.124509e+001 1.115622e-001 5.029296e-001 4.902156e-001 7.886617e-001 7.559548e-001 1.007612e+000 1.497078e+000 1.678010e+000 1.679002e+000 1.404490e+000 9.525374e-001 1.355501e+000 5.000000e-002 5.934072e-002 9.573326e-002 1.454671e-001 1.099786e-001 2.043685e-001 2.973704e-001 2.991575e-001 2.705811e-001 2.501832e-001 2.252846e-001 2.205369e-001 
<GCONST> 7.985245e+001
<STATE> 17
<MEAN> 36
4.398365e+000 -1.273460e+001 9.815097e+000 6.608613e-001 -1.072292e+001 2.991795e+000 -5.053548e+000 -2.818603e+000 8.345480e+000 -9.718177e+000 7.084749e+000 -2.052929e+000 1.452782e-001 2.497597e-002 -1.349932e-001 3.270451e-001 2.541860e-001 2.954803e-001 -1.327044e-002 -3.408526e-001 -3.311019e-001 2.093679e-002 2.522768e-001 -9.709114e-002 -2.075882e-002 3.049035e-002 2.446786e-002 7.414639e-003 -5.907461e-003 -2.481101e-002 1.685802e-002 -7.962252e-003 -3.198296e-002 3.984258e-002 -2.487659e-002 2.840892e-002 
<VARIANCE> 36
1.514123e+001 3.146135e+001 1.217986e+001 3.283923e+001 2.472861e+001 4.267929e+001 2.744507e+001 5.645350e+001 5.688954e+001 3.675721e+001 6.660248e+001 1.757839e+001 1.355977e-001 4.163231e-001 4.263317e-001 8.362612e-001 7.352598e-001 9.431794e-001 1.025508e+000 1.419625e+000 1.609937e+000 1.080431e+000 1.414606e+000 9.494775e-001 5.000000e-002 5.000000e-002 6.734887e-002 9.814462e-002 1.121807e-001 1.413555e-001 1.702100e-001 1.691535e-001 2.468841e-001 1.581802e-001 2.247388e-001 1.654872e-001 
<GCONST> 7.905474e+001
<STATE> 18
<MEAN> 36
6.509227e+000 -1.023790e+001 6.855962e+000 4.023351e+000 -1.089718e+001 7.679935e+000 -3.926902e+000 -7.838437e+000 3.131011e-001 -2.375440e+000 4.712093e+000 -2.150983e+000 -1.624594e-001 4.693880e-001 -1.234983e-001 1.604104e-001 1.036322e-001 -9.624756e-002 2.083581e-001 -1.462750e-001 -2.772599e-001 5.423659e-002 -2.553674e-001 -6.392756e-002 -1.897786e-002 1.218397e-002 3.806264e-002 -3.221141e-002 3.410372e-003 -6.298365e-002 2.444299e-002 1.186879e-002 -5.111064e-002 -1.658103e-002 4.939487e-003 1.120856e-002 
<VARIANCE> 36
3.376590e+001 5.086445e+001 3.389738e+001 2.360495e+001 7.055930e+001 6.295385e+001 4.230632e+001 5.384419e+001 3.160215e+001 4.291632e+001 4.058851e+001 2.033418e+001 2.703849e-001 7.190838e-001 8.098330e-001 1.299319e+000 1.617596e+000 1.806842e+000 2.129786e+000 1.957680e+000 2.214697e+000 1.655287e+000 1.650639e+000 1.455497e+000 5.000000e-002 1.095925e-001 1.621312e-001 2.131699e-001 2.752526e-001 3.000045e-001 3.769090e-001 3.193552e-001 4.113997e-001 2.968507e-001 2.884524e-001 2.772167e-001 
<GCONST> 9.563239e+001
<STATE> 19
<MEAN> 36
-1.491678e+000 -1.580626e+000 9.942209e+000 3.932015e+000 -1.279145e+000 -1.027490e+001 -2.271619e-001 -5.812278e+000 -5.961497e+000 -5.963559e+000 -2.066729e+000 -1.311988e+000 -1.206709e-001 3.131250e-001 2.443185e-001 3.084962e-001 3.496408e-001 3.144528e-002 -9.932381e-002 -4.094362e-001 -4.795510e-001 1.173481e-001 -5.229223e-002 -1.344944e-001 2.337005e-004 -6.377877e-002 -3.564841e-003 -4.964338e-002 -6.834590e-002 5.782160e-002 9.649956e-003 3.212902e-002 4.549439e-002 -9.804546e-003 2.187358e-002 8.880690e-003 
<VARIANCE> 36
9.449624e+000 2.401900e+001 3.637397e+001 2.829358e+001 4.612842e+001 3.880276e+001 3.649417e+001 6.968249e+001 6.098873e+001 5.721431e+001 4.519198e+001 2.588579e+001 3.324554e-001 7.024432e-001 9.953291e-001 1.513973e+000 1.879686e+000 2.167014e+000 1.945635e+000 2.685754e+000 3.224531e+000 2.427833e+000 2.539228e+000 1.586442e+000 5.097234e-002 1.147279e-001 1.764248e-001 3.167736e-001 3.582644e-001 3.934427e-001 3.702369e-001 4.630650e-001 5.805626e-001 4.392960e-001 5.224328e-001 3.239949e-001 
<GCONST> 9.965125e+001
<STATE> 20
<MEAN> 36
-5.264318e+000 5.454371e-001 4.320158e+000 6.145635e+000 -1.132899e+000 -7.229388e+000 -4.122559e+000 -2.564103e+000 -3.134739e+000 -3.663269e+000 -6.761299e+000 -2.395239e+000 -3.097028e-002 4.067912e-001 -1.612656e-002 1.112033e-001 -6.069162e-002 2.255786e-001 5.834234e-002 -2.197033e-001 -2.558596e-001 -2.939375e-002 2.437649e-001 3.514019e-003 -1.476155e-003 -3.017449e-002 -2.909506e-002 -6.164480e-002 -1.132041e-002 2.265371e-002 -8.093902e-003 5.330506e-002 4.580164e-002 3.411503e-002 8.828798e-002 5.865716e-002 
<VARIANCE> 36
4.246311e+000 2.855797e+001 1.382682e+001 1.716282e+001 2.018798e+001 2.278000e+001 3.114663e+001 3.297582e+001 3.007507e+001 4.059228e+001 3.118601e+001 2.137192e+001 1.594559e-001 3.765318e-001 6.612311e-001 1.064217e+000 1.238075e+000 1.329610e+000 1.930215e+000 1.777224e+000 1.872306e+000 2.154732e+000 1.913707e+000 1.821113e+000 5.000000e-002 6.689117e-002 1.223206e-001 1.879326e-001 2.612318e-001 2.708746e-001 3.910209e-001 3.282472e-001 4.083725e-001 4.418764e-001 3.415494e-001 3.144029e-001 
<GCONST> 8.619771e+001
<STATE> 21
<MEAN> 36
-3.235315e+000 5.225221e+000 9.567076e+000 8.497355e+000 -2.834457e+000 -2.236307e+000 3.253416e+000 -7.420462e+000 -8.943500e+000 -5.053901e+000 2.527924e+000 -3.196878e+000 -2.543902e-001 1.014455e-001 -8.290320e-002 2.290064e-003 2.326262e-001 2.651975e-002 -9.192914e-002 1.028138e-002 1.177429e-001 2.096373e-001 1.913139e-002 -1.976061e-001 -1.588547e-002 -3.459060e-002 -3.515640e-002 -4.544057e-003 3.846303e-002 -1.567623e-002 -2.415791e-002 5.815151e-002 8.464706e-002 -1.126843e-002 -5.443516e-002 -4.906235e-002 
<VARIANCE> 36
1.383787e+001 3.010070e+001 2.593645e+001 2.964195e+001 3.630458e+001 4.657109e+001 6.373714e+001 4.601606e+001 4.349412e+001 4.835593e+001 3.525158e+001 4.745488e+001 1.934643e-001 6.229133e-001 7.610970e-001 1.390566e+000 1.548409e+000 1.625305e+000 1.652962e+000 2.111180e+000 2.570164e+000 2.451189e+000 2.188372e+000 1.582310e+000 5.000000e-002 1.052041e-001 1.645819e-001 2.640215e-001 3.023115e-001 3.011731e-001 3.148565e-001 4.024077e-001 4.754432e-001 4.115934e-001 3.923048e-001 3.289034e-001 
<GCONST> 9.600169e+001
<STATE> 22
<MEAN> 36
-1.101227e+001 -1.542819e+000 5.225013e+000 -1.459890e-001 -6.872437e-001 -1.805726e+000 -2.404850e+000 -7.154074e+000 -3.729821e+000 -6.167945e+000 7.813851e-001 -5.826487e+000 -3.085732e-001 1.063185e-002 -2.387896e-001 -1.714996e-001 -7.439161e-003 8.616158e-002 -8.729208e-002 1.061992e-001 2.324340e-001 -8.140474e-002 -5.054502e-002 -1.777593e-002 8.642491e-003 1.550002e-002 1.127182e-002 3.973958e-002 2.123531e-002 3.489659e-002 2.243428e-002 1.254099e-002 -2.222435e-002 -1.790750e-002 -2.864700e-002 4.179582e-002 
<VARIANCE> 36
5.428830e+001 7.054446e+001 4.361821e+001 3.939732e+001 6.379068e+001 5.409739e+001 3.882365e+001 8.877354e+001 4.625148e+001 6.325249e+001 3.942721e+001 5.630975e+001 4.205477e-001 7.004461e-001 1.332798e+000 1.493172e+000 2.212629e+000 2.319069e+000 2.132937e+000 3.351167e+000 2.839208e+000 2.795719e+000 2.481036e+000 2.570855e+000 5.363082e-002 1.189212e-001 2.297618e-001 2.839493e-001 3.756312e-001 4.619951e-001 4.683034e-001 6.521593e-001 5.074180e-001 5.330350e-001 4.816385e-001 5.273064e-001 
<GCONST> 1.074338e+002
<STATE> 23
<MEAN> 36
-8.310636e+000 4.118170e+000 2.788163e+000 5.634611e+000 1.311445e+000 -1.033512e-002 7.202319e-002 1.936460e+000 6.047646e-001 -8.048716e-001 -7.529283e-001 1.149449e+000 -1.438466e-001 3.298571e-002 -1.056055e-001 -2.955917e-002 1.539558e-001 2.877633e-001 3.143613e-001 3.139223e-001 1.946236e-001 1.319079e-001 1.156571e-001 1.541126e-001 1.095829e-002 -1.228228e-003 1.212542e-002 -2.336190e-002 -6.141495e-002 -1.804012e-002 -4.813062e-004 -1.856340e-002 -2.954575e-002 -1.323357e-002 3.113064e-003 -8.402599e-003 
<VARIANCE> 36
7.740314e+000 1.303485e+001 1.025741e+001 1.788762e+001 2.140427e+001 2.842810e+001 3.572217e+001 3.375509e+001 2.538766e+001 2.882725e+001 2.334471e+001 2.300097e+001 2.055446e-001 4.488139e-001 6.506423e-001 1.261178e+000 1.662404e+000 2.384660e+000 2.575046e+000 2.571126e+000 2.151060e+000 2.024098e+000 2.155648e+000 1.608981e+000 5.000000e-002 8.731342e-002 1.197424e-001 2.459392e-001 3.662622e-001 4.683210e-001 4.520262e-001 4.801748e-001 4.312644e-001 4.262779e-001 4.548511e-001 2.984806e-001 
<GCONST> 8.983822e+001
<TRANSP> 25
0.000000e+000 1.000000e+000 0.000000e+000 0.000000e+000 0.000000e+000 0.000000e+000 0.000000e+000 0.000000e+000 0.000000e+000 0.000000e+000 0.000000e+000 0.000000e+000 0.000000e+000 0.000000e+000 0.000000e+000 0.000000e+000 0.000000e+000 0.000000e+000 0.000000e+000 0.000000e+000 0.000000e+000 0.000000e+000 0.000000e+000 0.000000e+000 0.000000e+000 
0.000000e+000 8.436658e-001 1.563342e-001 0.000000e+000 0.000000e+000 0.000000e+000 0.000000e+000 0.000000e+000 0.000000e+000 0.000000e+000 0.000000e+000 0.000000e+000 0.000000e+000 0.000000e+000 0.000000e+000 0.000000e+000 0.000000e+000 0.000000e+000 0.000000e+000 0.000000e+000 0.000000e+000 0.000000e+000 0.000000e+000 0.000000e+000 0.000000e+000 
0.000000e+000 0.000000e+000 8.550000e-001 1.450000e-001 0.000000e+000 0.000000e+000 0.000000e+000 0.000000e+000 0.000000e+000 0.000000e+000 0.000000e+000 0.000000e+000 0.000000e+000 0.000000e+000 0.000000e+000 0.000000e+000 0.000000e+000 0.000000e+000 0.000000e+000 0.000000e+000 0.000000e+000 0.000000e+000 0.000000e+000 0.000000e+000 0.000000e+000 
0.000000e+000 0.000000e+000 0.000000e+000 8.960573e-001 1.039426e-001 0.000000e+000 0.000000e+000 0.000000e+000 0.000000e+000 0.000000e+000 0.000000e+000 0.000000e+000 0.000000e+000 0.000000e+000 0.000000e+000 0.000000e+000 0.000000e+000 0.000000e+000 0.000000e+000 0.000000e+000 0.000000e+000 0.000000e+000 0.000000e+000 0.000000e+000 0.000000e+000 
0.000000e+000 0.000000e+000 0.000000e+000 0.000000e+000 7.613169e-001 2.386831e-001 0.000000e+000 0.000000e+000 0.000000e+000 0.000000e+000 0.000000e+000 0.000000e+000 0.000000e+000 0.000000e+000 0.000000e+000 0.000000e+000 0.000000e+000 0.000000e+000 0.000000e+000 0.000000e+000 0.000000e+000 0.000000e+000 0.000000e+000 0.000000e+000 0.000000e+000 
0.000000e+000 0.000000e+000 0.000000e+000 0.000000e+000 0.000000e+000 7.859778e-001 2.140221e-001 0.000000e+000 0.000000e+000 0.000000e+000 0.000000e+000 0.000000e+000 0.000000e+000 0.000000e+000 0.000000e+000 0.000000e+000 0.000000e+000 0.000000e+000 0.000000e+000 0.000000e+000 0.000000e+000 0.000000e+000 0.000000e+000 0.000000e+000 0.000000e+000 
0.000000e+000 0.000000e+000 0.000000e+000 0.000000e+000 0.000000e+000 0.000000e+000 7.433629e-001 2.566371e-001 0.000000e+000 0.000000e+000 0.000000e+000 0.000000e+000 0.000000e+000 0.000000e+000 0.000000e+000 0.000000e+000 0.000000e+000 0.000000e+000 0.000000e+000 0.000000e+000 0.000000e+000 0.000000e+000 0.000000e+000 0.000000e+000 0.000000e+000 
0.000000e+000 0.000000e+000 0.000000e+000 0.000000e+000 0.000000e+000 0.000000e+000 0.000000e+000 8.553616e-001 1.446384e-001 0.000000e+000 0.000000e+000 0.000000e+000 0.000000e+000 0.000000e+000 0.000000e+000 0.000000e+000 0.000000e+000 0.000000e+000 0.000000e+000 0.000000e+000 0.000000e+000 0.000000e+000 0.000000e+000 0.000000e+000 0.000000e+000 
0.000000e+000 0.000000e+000 0.000000e+000 0.000000e+000 0.000000e+000 0.000000e+000 0.000000e+000 0.000000e+000 7.661290e-001 2.338710e-001 0.000000e+000 0.000000e+000 0.000000e+000 0.000000e+000 0.000000e+000 0.000000e+000 0.000000e+000 0.000000e+000 0.000000e+000 0.000000e+000 0.000000e+000 0.000000e+000 0.000000e+000 0.000000e+000 0.000000e+000 
0.000000e+000 0.000000e+000 0.000000e+000 0.000000e+000 0.000000e+000 0.000000e+000 0.000000e+000 0.000000e+000 0.000000e+000 6.759777e-001 3.240223e-001 0.000000e+000 0.000000e+000 0.000000e+000 0.000000e+000 0.000000e+000 0.000000e+000 0.000000e+000 0.000000e+000 0.000000e+000 0.000000e+000 0.000000e+000 0.000000e+000 0.000000e+000 0.000000e+000 
0.000000e+000 0.000000e+000 0.000000e+000 0.000000e+000 0.000000e+000 0.000000e+000 0.000000e+000 0.000000e+000 0.000000e+000 0.000000e+000 9.216216e-001 7.837838e-002 0.000000e+000 0.000000e+000 0.000000e+000 0.000000e+000 0.000000e+000 0.000000e+000 0.000000e+000 0.000000e+000 0.000000e+000 0.000000e+000 0.000000e+000 0.000000e+000 0.000000e+000 
0.000000e+000 0.000000e+000 0.000000e+000 0.000000e+000 0.000000e+000 0.000000e+000 0.000000e+000 0.000000e+000 0.000000e+000 0.000000e+000 0.000000e+000 8.135048e-001 1.864952e-001 0.000000e+000 0.000000e+000 0.000000e+000 0.000000e+000 0.000000e+000 0.000000e+000 0.000000e+000 0.000000e+000 0.000000e+000 0.000000e+000 0.000000e+000 0.000000e+000 
0.000000e+000 0.000000e+000 0.000000e+000 0.000000e+000 0.000000e+000 0.000000e+000 0.000000e+000 0.000000e+000 0.000000e+000 0.000000e+000 0.000000e+000 0.000000e+000 7.786260e-001 2.213741e-001 0.000000e+000 0.000000e+000 0.000000e+000 0.000000e+000 0.000000e+000 0.000000e+000 0.000000e+000 0.000000e+000 0.000000e+000 0.000000e+000 0.000000e+000 
0.000000e+000 0.000000e+000 0.000000e+000 0.000000e+000 0.000000e+000 0.000000e+000 0.000000e+000 0.000000e+000 0.000000e+000 0.000000e+000 0.000000e+000 0.000000e+000 0.000000e+000 6.329114e-001 3.670886e-001 0.000000e+000 0.000000e+000 0.000000e+000 0.000000e+000 0.000000e+000 0.000000e+000 0.000000e+000 0.000000e+000 0.000000e+000 0.000000e+000 
0.000000e+000 0.000000e+000 0.000000e+000 0.000000e+000 0.000000e+000 0.000000e+000 0.000000e+000 0.000000e+000 0.000000e+000 0.000000e+000 0.000000e+000 0.000000e+000 0.000000e+000 0.000000e+000 8.027211e-001 1.972789e-001 0.000000e+000 0.000000e+000 0.000000e+000 0.000000e+000 0.000000e+000 0.000000e+000 0.000000e+000 0.000000e+000 0.000000e+000 
0.000000e+000 0.000000e+000 0.000000e+000 0.000000e+000 0.000000e+000 0.000000e+000 0.000000e+000 0.000000e+000 0.000000e+000 0.000000e+000 0.000000e+000 0.000000e+000 0.000000e+000 0.000000e+000 0.000000e+000 8.622328e-001 1.377672e-001 0.000000e+000 0.000000e+000 0.000000e+000 0.000000e+000 0.000000e+000 0.000000e+000 0.000000e+000 0.000000e+000 
0.000000e+000 0.000000e+000 0.000000e+000 0.000000e+000 0.000000e+000 0.000000e+000 0.000000e+000 0.000000e+000 0.000000e+000 0.000000e+000 0.000000e+000 0.000000e+000 0.000000e+000 0.000000e+000 0.000000e+000 0.000000e+000 7.661290e-001 2.338710e-001 0.000000e+000 0.000000e+000 0.000000e+000 0.000000e+000 0.000000e+000 0.000000e+000 0.000000e+000 
0.000000e+000 0.000000e+000 0.000000e+000 0.000000e+000 0.000000e+000 0.000000e+000 0.000000e+000 0.000000e+000 0.000000e+000 0.000000e+000 0.000000e+000 0.000000e+000 0.000000e+000 0.000000e+000 0.000000e+000 0.000000e+000 0.000000e+000 9.036545e-001 9.634551e-002 0.000000e+000 0.000000e+000 0.000000e+000 0.000000e+000 0.000000e+000 0.000000e+000 
0.000000e+000 0.000000e+000 0.000000e+000 0.000000e+000 0.000000e+000 0.000000e+000 0.000000e+000 0.000000e+000 0.000000e+000 0.000000e+000 0.000000e+000 0.000000e+000 0.000000e+000 0.000000e+000 0.000000e+000 0.000000e+000 0.000000e+000 0.000000e+000 8.690744e-001 1.309255e-001 0.000000e+000 0.000000e+000 0.000000e+000 0.000000e+000 0.000000e+000 
0.000000e+000 0.000000e+000 0.000000e+000 0.000000e+000 0.000000e+000 0.000000e+000 0.000000e+000 0.000000e+000 0.000000e+000 0.000000e+000 0.000000e+000 0.000000e+000 0.000000e+000 0.000000e+000 0.000000e+000 0.000000e+000 0.000000e+000 0.000000e+000 0.000000e+000 8.612440e-001 1.387560e-001 0.000000e+000 0.000000e+000 0.000000e+000 0.000000e+000 
0.000000e+000 0.000000e+000 0.000000e+000 0.000000e+000 0.000000e+000 0.000000e+000 0.000000e+000 0.000000e+000 0.000000e+000 0.000000e+000 0.000000e+000 0.000000e+000 0.000000e+000 0.000000e+000 0.000000e+000 0.000000e+000 0.000000e+000 0.000000e+000 0.000000e+000 0.000000e+000 8.903591e-001 1.096408e-001 0.000000e+000 0.000000e+000 0.000000e+000 
0.000000e+000 0.000000e+000 0.000000e+000 0.000000e+000 0.000000e+000 0.000000e+000 0.000000e+000 0.000000e+000 0.000000e+000 0.000000e+000 0.000000e+000 0.000000e+000 0.000000e+000 0.000000e+000 0.000000e+000 0.000000e+000 0.000000e+000 0.000000e+000 0.000000e+000 0.000000e+000 0.000000e+000 8.453333e-001 1.546667e-001 0.000000e+000 0.000000e+000 
0.000000e+000 0.000000e+000 0.000000e+000 0.000000e+000 0.000000e+000 0.000000e+000 0.000000e+000 0.000000e+000 0.000000e+000 0.000000e+000 0.000000e+000 0.000000e+000 0.000000e+000 0.000000e+000 0.000000e+000 0.000000e+000 0.000000e+000 0.000000e+000 0.000000e+000 0.000000e+000 0.000000e+000 0.000000e+000 8.366198e-001 1.633803e-001 0.000000e+000 
0.000000e+000 0.000000e+000 0.000000e+000 0.000000e+000 0.000000e+000 0.000000e+000 0.000000e+000 0.000000e+000 0.000000e+000 0.000000e+000 0.000000e+000 0.000000e+000 0.000000e+000 0.000000e+000 0.000000e+000 0.000000e+000 0.000000e+000 0.000000e+000 0.000000e+000 0.000000e+000 0.000000e+000 0.000000e+000 0.000000e+000 8.804124e-001 1.195876e-001 
0.000000e+000 0.000000e+000 0.000000e+000 0.000000e+000 0.000000e+000 0.000000e+000 0.000000e+000 0.000000e+000 0.000000e+000 0.000000e+000 0.000000e+000 0.000000e+000 0.000000e+000 0.000000e+000 0.000000e+000 0.000000e+000 0.000000e+000 0.000000e+000 0.000000e+000 0.000000e+000 0.000000e+000 0.000000e+000 0.000000e+000 0.000000e+000 0.000000e+000 
