<HMMNAME> 8
<HMMSTATES> 25
<STATE> 1
<MEAN> 36
-3.678829e+000 -3.777350e+000 -5.003434e+000 -1.440635e+001 2.474020e+000 1.173122e+001 2.162215e+000 -3.316054e+000 1.423488e+000 6.432995e-001 2.539197e+000 2.697200e-001 4.966983e-001 -5.842731e-001 -3.527216e-001 -1.335135e+000 -1.855631e-001 1.953220e-001 -3.378494e-001 -4.740064e-001 2.182145e-002 6.641555e-002 -5.679865e-002 -1.527181e-001 -2.660258e-002 3.616976e-003 5.060875e-002 5.051132e-002 2.679614e-002 -6.747622e-002 -1.511608e-003 2.660722e-002 -9.452003e-004 1.902792e-002 2.605962e-002 1.835797e-002 
<VARIANCE> 36
5.239762e+001 5.127049e+001 2.800201e+001 1.017466e+002 1.158089e+002 6.336168e+001 9.055443e+001 5.610225e+001 5.953237e+001 3.325066e+001 5.331573e+001 4.242457e+001 9.196761e-001 2.314454e+000 2.290033e+000 4.915587e+000 2.753659e+000 2.965210e+000 2.538563e+000 2.008331e+000 2.376893e+000 2.338052e+000 2.465454e+000 2.059766e+000 1.739545e-001 3.709536e-001 4.645228e-001 8.756370e-001 5.085061e-001 5.735010e-001 4.197222e-001 3.825492e-001 4.712336e-001 3.851460e-001 5.161035e-001 4.020068e-001 
<GCONST> 1.150273e+002
<STATE> 2
<MEAN> 36
7.396598e+000 -7.815508e+000 -2.064255e+000 -1.682086e+001 -7.239815e+000 1.197502e+001 5.852723e+000 -9.932854e+000 -9.557668e+000 3.290843e+000 7.576019e+000 -3.009012e+000 -1.258536e-001 -9.584331e-002 7.895738e-002 5.420054e-001 6.158390e-001 -5.333378e-001 -7.824323e-001 4.928465e-002 2.409042e-001 2.460687e-001 1.940862e-001 1.411992e-002 -2.432417e-002 4.887066e-002 2.309904e-002 9.796470e-002 3.406573e-002 -5.953992e-002 -4.981523e-002 5.893800e-002 9.107033e-002 -5.060954e-002 -5.725795e-002 -4.939377e-004 
<VARIANCE> 36
2.728843e+001 6.551950e+001 2.761095e+001 4.959538e+001 7.477514e+001 4.801508e+001 1.505631e+002 5.602032e+001 1.227941e+002 6.313278e+001 1.187032e+002 5.046113e+001 2.343393e-001 5.303688e-001 7.844325e-001 1.122077e+000 1.293431e+000 1.723271e+000 2.009860e+000 1.623933e+000 1.505662e+000 2.062939e+000 1.845786e+000 1.225900e+000 5.000000e-002 8.016094e-002 1.247608e-001 1.859896e-001 2.186846e-001 2.469268e-001 2.717723e-001 2.473640e-001 2.215219e-001 3.358048e-001 2.943012e-001 1.884052e-001 
<GCONST> 9.708364e+001
<STATE> 3
<MEAN> 36
-4.618635e+000 -1.324008e+001 -8.276055e+000 -2.905075e+001 9.802725e+000 6.177042e+000 -4.870385e+000 -6.468939e+000 6.742069e+000 7.354592e+000 -3.620761e+000 3.589812e+000 -1.216573e-002 1.453375e-001 1.555917e-001 3.057752e-001 -8.643657e-002 -6.092603e-001 -2.103700e-001 2.649331e-002 2.623806e-001 1.242844e-001 -2.245305e-001 -1.713378e-001 2.396335e-003 2.710897e-002 2.762538e-002 9.262556e-002 -4.277132e-002 -1.041215e-002 -1.446107e-002 4.960873e-002 1.359644e-002 -4.890516e-002 -4.519726e-002 -1.808408e-002 
<VARIANCE> 36
1.103084e+001 1.904036e+001 1.039553e+001 4.490084e+001 3.659354e+001 4.878116e+001 3.794046e+001 3.184433e+001 2.363328e+001 2.953392e+001 4.118591e+001 2.288104e+001 1.191428e-001 2.968418e-001 3.681636e-001 9.022081e-001 8.575162e-001 9.952248e-001 9.573506e-001 9.797464e-001 1.072294e+000 7.946271e-001 9.308524e-001 7.880398e-001 5.000000e-002 5.366525e-002 6.494511e-002 1.015224e-001 1.629444e-001 1.743131e-001 1.594129e-001 1.602783e-001 1.686472e-001 1.518388e-001 1.626476e-001 1.564086e-001 
<GCONST> 7.499364e+001
<STATE> 4
<MEAN> 36
-4.093639e+000 -8.964954e+000 -3.882597e+000 -1.646805e+001 7.125107e+000 -1.891846e+000 -9.024455e+000 -2.448140e+000 1.052145e+001 3.876718e+000 -7.289246e+000 1.709276e+000 -3.149420e-001 4.618085e-001 8.288465e-001 1.420814e+000 -3.477030e-001 -2.868620e-001 2.031890e-001 7.884417e-001 3.568266e-001 -8.744134e-001 -5.149235e-001 3.420716e-001 -1.031511e-001 -3.129147e-002 7.857269e-002 7.630777e-002 1.534833e-002 1.924996e-001 2.839169e-001 -1.504505e-002 -1.826573e-001 -4.218075e-002 8.993471e-002 4.419672e-002 
<VARIANCE> 36
2.571814e+001 2.470021e+001 2.020444e+001 3.644712e+001 5.363770e+001 3.833416e+001 3.733245e+001 4.189008e+001 4.880472e+001 4.459507e+001 9.481754e+001 2.730844e+001 3.013693e-001 7.088778e-001 1.040240e+000 1.364727e+000 1.606316e+000 2.300339e+000 2.265214e+000 1.846762e+000 1.973748e+000 2.453382e+000 2.107462e+000 1.423274e+000 5.000000e-002 1.191222e-001 1.669775e-001 2.321005e-001 2.652592e-001 3.992006e-001 3.583416e-001 3.073996e-001 3.722076e-001 4.607721e-001 3.709912e-001 2.882321e-001 
<GCONST> 9.714458e+001
<STATE> 5
<MEAN> 36
2.918762e+000 -8.430009e+000 4.467326e+000 -5.287116e+000 -2.172931e+000 3.452335e+000 -5.951528e+000 -4.616637e+000 1.197000e+000 8.164026e-001 6.477767e+000 -3.646276e+000 -1.156846e+000 2.832960e-001 4.873135e-001 6.219720e-001 1.555464e-001 -1.346414e-001 5.659370e-001 1.860635e-001 -2.875570e-002 -1.587759e-001 -7.490412e-001 -1.784270e-001 -1.801740e-001 -8.186049e-003 -8.781615e-002 -1.155847e-001 -8.101570e-002 4.181152e-002 7.259357e-002 -7.055226e-002 -9.171930e-002 -7.311631e-003 8.612342e-002 5.486503e-002 
<VARIANCE> 36
3.732669e+001 6.269050e+001 3.277330e+001 2.538896e+001 5.940087e+001 3.745733e+001 9.602695e+001 4.226885e+001 8.208879e+001 3.387627e+001 1.097612e+002 4.032419e+001 6.134977e-001 1.201308e+000 1.450769e+000 1.850937e+000 2.616941e+000 2.426749e+000 3.093075e+000 2.331033e+000 2.925608e+000 3.400008e+000 3.086738e+000 2.402846e+000 5.711189e-002 1.384513e-001 1.963779e-001 2.059271e-001 4.578164e-001 3.624750e-001 5.628623e-001 3.234235e-001 5.541192e-001 5.044458e-001 5.553873e-001 4.337539e-001 
<GCONST> 1.075495e+002
<STATE> 6
<MEAN> 36
-1.044754e+001 -6.560035e+000 3.778121e+000 -1.960893e+000 5.047835e+000 2.587522e-001 -1.008084e+000 3.789486e+000 4.674991e+000 -1.944076e+000 -4.150892e+000 2.459472e+000 -1.400897e+000 1.633366e-001 6.140875e-001 7.311886e-001 -5.038178e-001 -3.493047e-001 1.078350e+000 4.978054e-001 -1.186669e+000 -3.423422e-001 1.589018e+000 3.276166e-001 -1.166703e-001 1.616179e-001 2.512574e-002 -3.368292e-001 -1.156689e-001 -2.028514e-001 -8.875072e-002 -4.285072e-002 -7.175815e-002 1.930598e-001 2.805026e-001 -5.191106e-002 
<VARIANCE> 36
1.085269e+001 1.745191e+001 2.225841e+001 4.892865e+001 3.513381e+001 3.054668e+001 3.921481e+001 5.811262e+001 4.726797e+001 3.839067e+001 5.064277e+001 5.185759e+001 4.779166e-001 1.168974e+000 1.291222e+000 3.050128e+000 2.787025e+000 3.662326e+000 2.434707e+000 3.531299e+000 3.602701e+000 2.240307e+000 3.248618e+000 2.395961e+000 6.075751e-002 1.302816e-001 2.646281e-001 3.990522e-001 4.646824e-001 6.864119e-001 5.105231e-001 6.076605e-001 5.710464e-001 4.100508e-001 6.336798e-001 4.484927e-001 
<GCONST> 1.057808e+002
<STATE> 7
<MEAN> 36
-1.538558e+001 -4.387820e+000 7.663747e+000 -7.332493e+000 -9.128602e+000 -1.574935e-001 -4.966291e+000 -8.718836e+000 2.555254e+000 1.241712e+000 5.305789e+000 -2.018700e+000 -7.584652e-001 1.487492e-001 2.580311e-001 -3.212399e-002 -2.454943e-001 -2.153597e-001 1.868531e-001 6.301079e-002 -2.057976e-001 -2.404105e-001 6.621290e-002 7.296595e-002 6.535358e-002 -4.653153e-002 3.123036e-002 7.965631e-002 1.009279e-001 3.224745e-002 3.977129e-002 1.061436e-001 6.678588e-003 -3.581693e-002 -4.607310e-002 -5.267815e-002 
<VARIANCE> 36
1.360910e+001 1.131170e+001 1.925292e+001 3.642317e+001 4.147625e+001 3.381290e+001 3.420000e+001 5.667573e+001 3.192672e+001 3.997261e+001 2.614310e+001 3.731972e+001 8.067530e-001 8.294677e-001 1.220053e+000 1.405146e+000 1.613656e+000 2.123457e+000 1.946412e+000 2.650848e+000 2.526272e+000 2.333296e+000 2.365121e+000 2.280883e+000 5.426083e-002 1.216048e-001 2.261404e-001 2.542897e-001 2.997064e-001 3.392350e-001 3.187431e-001 4.969084e-001 4.474717e-001 4.119852e-001 3.810799e-001 4.111234e-001 
<GCONST> 9.752237e+001
<STATE> 8
<MEAN> 36
-1.931421e+001 3.835755e-001 7.547070e+000 -9.419802e+000 -3.148270e+000 5.281261e+000 7.109742e+000 -1.014583e+001 -6.648882e+000 -7.052743e+000 3.861693e+000 -5.858771e+000 -6.863238e-001 1.254241e-001 3.609406e-001 8.640131e-003 -4.528677e-003 -2.022862e-001 2.831383e-001 1.511850e-001 -8.198322e-002 -1.834563e-001 2.940781e-001 -4.888246e-003 5.925484e-002 -4.388632e-002 -8.477139e-003 4.560712e-002 -8.020939e-003 -5.836446e-003 -2.015420e-002 2.134433e-003 5.329292e-002 6.502908e-002 -5.181679e-002 7.304012e-003 
<VARIANCE> 36
1.585750e+001 1.496348e+001 2.572280e+001 2.882273e+001 3.713084e+001 4.859163e+001 3.911732e+001 7.104311e+001 4.410954e+001 3.865725e+001 2.269796e+001 4.561062e+001 8.804930e-001 9.510556e-001 1.279111e+000 1.379776e+000 2.084494e+000 2.097725e+000 1.875107e+000 2.482382e+000 2.894322e+000 2.906085e+000 2.244351e+000 2.417117e+000 6.565520e-002 1.401112e-001 2.129627e-001 2.622941e-001 4.683183e-001 3.645382e-001 3.381183e-001 4.739668e-001 5.892744e-001 5.551593e-001 3.951885e-001 5.112259e-001 
<GCONST> 1.013884e+002
<STATE> 9
<MEAN> 36
-2.426168e+001 -2.564303e+000 1.041857e+001 -6.819090e-001 5.742268e-001 -3.094274e+000 5.117185e+000 7.755359e+000 -2.875597e+000 -7.031490e-001 5.661552e+000 1.882111e+000 -1.363242e+000 4.994839e-001 6.812947e-001 1.687264e-001 -3.067962e-001 -1.142967e-001 4.541094e-001 2.778852e-001 -4.619896e-001 2.054901e-001 2.193640e-001 -2.339937e-001 2.671082e-001 1.972054e-002 -8.696812e-002 -5.350828e-002 8.072381e-003 1.476246e-001 -2.284270e-001 -1.869076e-001 1.590957e-001 1.448146e-002 -2.556632e-001 5.634885e-002 
<VARIANCE> 36
1.452997e+001 1.906198e+001 2.969387e+001 3.116774e+001 4.775529e+001 3.351692e+001 4.129968e+001 5.482615e+001 3.757100e+001 2.595654e+001 2.913181e+001 2.427411e+001 9.213284e-001 8.221771e-001 7.926364e-001 1.515097e+000 1.744085e+000 1.624765e+000 2.554563e+000 1.915077e+000 2.788085e+000 1.983806e+000 2.420042e+000 1.728126e+000 6.135096e-002 9.554995e-002 1.626281e-001 3.288238e-001 4.143211e-001 3.802092e-001 4.402141e-001 3.792530e-001 5.066000e-001 4.069133e-001 5.663815e-001 3.854016e-001 
<GCONST> 9.803350e+001
<STATE> 10
<MEAN> 36
-2.907319e+001 6.114212e+000 1.013854e+001 -2.832215e+000 1.276564e+000 -4.772313e-001 8.351032e+000 4.459898e+000 -4.913042e+000 4.472203e+000 4.015472e+000 1.363334e+000 2.257084e-002 9.195005e-002 1.972036e-001 1.447969e-002 -2.242649e-001 9.055349e-002 1.555568e-001 -1.797237e-001 7.962031e-002 1.986756e-001 -2.328495e-002 -5.823217e-003 8.133473e-002 -4.123954e-002 -1.149973e-002 7.351096e-003 -2.565743e-002 -2.156058e-002 -1.679119e-003 9.803873e-003 2.585923e-002 -9.370700e-003 2.197329e-003 2.100413e-002 
<VARIANCE> 36
7.175670e+000 1.716165e+001 2.236760e+001 1.199242e+001 2.241965e+001 2.262517e+001 3.395988e+001 3.661943e+001 2.263916e+001 2.924270e+001 2.050210e+001 2.036267e+001 3.502248e-001 4.963426e-001 6.667312e-001 1.157469e+000 1.340316e+000 1.400640e+000 1.787028e+000 1.907642e+000 1.987352e+000 2.150601e+000 2.021218e+000 2.062369e+000 5.000000e-002 7.573114e-002 1.359296e-001 2.181418e-001 2.342424e-001 2.774055e-001 3.378813e-001 3.901436e-001 4.009485e-001 4.381257e-001 4.338107e-001 4.282525e-001 
<GCONST> 8.790383e+001
<STATE> 11
<MEAN> 36
-2.791991e+001 -5.045552e+000 1.770421e+001 2.814499e+000 -5.682308e+000 -3.945893e+000 9.019925e+000 1.926010e+000 2.817700e+000 -8.790403e-001 3.838210e+000 -1.439920e-001 3.880360e-001 6.260715e-002 3.970453e-002 -1.901235e-001 -3.116101e-001 5.678029e-002 -6.859023e-002 -1.368230e-002 7.406485e-002 1.910050e-001 -1.342043e-001 1.225377e-001 1.401281e-001 7.253761e-002 -8.546131e-002 -8.419618e-002 -4.652481e-002 -2.710097e-002 -8.897370e-002 -1.091742e-002 2.121977e-003 2.256789e-002 1.637942e-002 2.031713e-002 
<VARIANCE> 36
1.363639e+001 1.851632e+001 1.032040e+001 2.334730e+001 1.772330e+001 2.205833e+001 2.507413e+001 3.000324e+001 2.708387e+001 3.076952e+001 2.004719e+001 1.439133e+001 8.358141e-001 5.120410e-001 7.453201e-001 1.411218e+000 1.739913e+000 1.599531e+000 1.774820e+000 2.545240e+000 2.379700e+000 2.205267e+000 2.203876e+000 1.499721e+000 6.485209e-002 1.035055e-001 1.470250e-001 3.191814e-001 3.655494e-001 3.497786e-001 3.307171e-001 3.790573e-001 4.079162e-001 4.739605e-001 4.285756e-001 2.568466e-001 
<GCONST> 9.070189e+001
<STATE> 12
<MEAN> 36
-1.923372e+001 -7.231299e-001 1.288289e+001 -4.347501e+000 -8.645967e+000 -1.523582e+000 4.612640e+000 -2.306449e-002 -1.400622e-002 1.388886e+000 4.234455e+000 1.288443e+000 1.476859e+000 3.488314e-001 -8.380606e-002 1.695285e-001 -3.969278e-001 -3.898634e-001 -6.595600e-001 -1.855676e-001 2.522358e-001 -2.697325e-001 -4.260158e-001 -1.406262e-001 1.984067e-001 4.935833e-002 1.718007e-001 6.443225e-002 -1.009148e-001 -3.666080e-001 -9.613949e-002 -7.616112e-003 -7.645164e-002 -2.208723e-001 -2.316847e-001 -1.197575e-001 
<VARIANCE> 36
1.075107e+001 2.444426e+001 1.743907e+001 2.625852e+001 3.322769e+001 3.626894e+001 6.317094e+001 5.895396e+001 3.317427e+001 5.276811e+001 2.554861e+001 2.618276e+001 7.674477e-001 1.045700e+000 1.263485e+000 1.817351e+000 2.215564e+000 3.447554e+000 2.291912e+000 2.836028e+000 2.870486e+000 2.423051e+000 3.110732e+000 2.596364e+000 1.590770e-001 1.403514e-001 1.915230e-001 3.839653e-001 5.168715e-001 6.233830e-001 4.855293e-001 6.501097e-001 5.618614e-001 5.146749e-001 5.765197e-001 4.546735e-001 
<GCONST> 1.044194e+002
<STATE> 13
<MEAN> 36
-1.058299e+001 2.442048e+000 1.493106e+001 -2.164572e+000 -1.113687e+001 -6.670714e+000 1.094858e+000 -1.165593e+000 6.127552e-001 -1.806540e+000 9.210189e-001 -9.581488e-001 2.275356e+000 -5.836661e-001 2.282272e-001 -7.302981e-001 -2.110413e+000 -2.630676e+000 -9.663886e-001 6.722891e-001 3.987910e-001 -6.299558e-001 -7.300711e-001 5.545383e-001 -3.577327e-001 -6.834331e-001 -3.128437e-001 -4.756159e-001 -1.813991e-001 6.193158e-002 2.663043e-001 2.373368e-001 1.111433e-001 1.421516e-001 2.215197e-001 3.666635e-001 
<VARIANCE> 36
2.636291e+001 1.873251e+001 1.834271e+001 2.517846e+001 3.261220e+001 4.760612e+001 5.358644e+001 3.897895e+001 5.635155e+001 3.574527e+001 2.421068e+001 2.086816e+001 1.075430e+000 1.998403e+000 1.776370e+000 3.694596e+000 2.914468e+000 3.226623e+000 2.548439e+000 3.664540e+000 3.694379e+000 2.661227e+000 2.906106e+000 2.018181e+000 1.862287e-001 1.535536e-001 2.316442e-001 2.864170e-001 6.669448e-001 8.748940e-001 5.325226e-001 5.130418e-001 4.450911e-001 4.281607e-001 3.281503e-001 3.429212e-001 
<GCONST> 1.065566e+002
<STATE> 14
<MEAN> 36
-8.369964e+000 -2.651957e+000 1.196004e+001 -7.414641e+000 -1.616974e+001 -1.246312e+001 4.204735e+000 4.160164e+000 -1.123215e+000 -1.993596e+000 2.804296e-002 3.094662e+000 4.829720e-001 -1.090997e+000 -6.305981e-001 -4.152996e-001 -1.592996e-001 -8.763316e-002 3.937277e-001 5.919726e-001 2.298983e-001 -1.223025e-001 -2.895649e-001 3.144352e-001 -1.602702e-001 1.309014e-001 -1.036809e-002 2.586635e-001 4.014132e-001 4.154009e-001 7.135912e-002 -6.792980e-002 3.859046e-003 2.930313e-002 5.240487e-002 -1.509344e-001 
<VARIANCE> 36
2.268987e+001 1.957422e+001 1.826495e+001 4.266252e+001 2.651991e+001 4.150008e+001 5.303010e+001 6.585513e+001 5.428415e+001 4.415462e+001 3.666248e+001 2.891346e+001 2.352539e-001 1.102623e+000 8.212465e-001 1.835589e+000 2.009184e+000 1.967498e+000 1.596040e+000 1.951958e+000 1.680979e+000 1.614837e+000 1.797523e+000 2.048376e+000 8.978227e-002 1.228078e-001 1.474225e-001 3.250198e-001 3.737123e-001 3.780219e-001 3.871766e-001 4.062070e-001 3.836476e-001 3.147090e-001 4.450995e-001 3.787512e-001 
<GCONST> 9.745472e+001
<STATE> 15
<MEAN> 36
1.294544e+000 -1.227483e+001 1.198936e+001 -4.139806e+000 -1.475928e+001 -2.728348e+000 -4.622538e+000 2.950814e+000 1.153063e+001 -6.649501e+000 8.009248e-001 -1.469615e-001 2.955302e-001 -4.872245e-001 -3.202829e-001 9.427165e-003 2.711588e-001 6.044025e-001 1.527511e-001 -1.136332e-001 -4.993778e-002 -2.387192e-001 7.984151e-002 -5.856227e-003 -2.753546e-002 8.480652e-002 -1.315954e-002 3.678720e-002 6.068089e-002 -1.905511e-002 -6.438056e-002 -5.846547e-002 -2.787337e-002 1.823859e-002 1.805937e-003 -1.971709e-002 
<VARIANCE> 36
2.570508e+001 3.451539e+001 9.510268e+000 1.765959e+001 1.910545e+001 4.834606e+001 4.536688e+001 3.478629e+001 6.048437e+001 3.196695e+001 1.769181e+001 2.009244e+001 1.264728e-001 2.361186e-001 3.555999e-001 5.161870e-001 7.301267e-001 7.990793e-001 9.065931e-001 1.455561e+000 1.257405e+000 1.021961e+000 8.782664e-001 9.514269e-001 5.000000e-002 5.000000e-002 5.831042e-002 8.354162e-002 1.204180e-001 1.368598e-001 1.438605e-001 1.769692e-001 1.962810e-001 1.970539e-001 1.484688e-001 1.622629e-001 
<GCONST> 7.424098e+001
<STATE> 16
<MEAN> 36
-8.720590e+000 -1.210907e+001 6.465921e+000 -1.146354e+001 -8.109472e+000 -9.866224e+000 4.850665e+000 6.817093e+000 1.147439e+000 -1.279679e+000 -5.878860e+000 6.833646e+000 2.846229e-001 -1.590869e-001 -3.479242e-001 4.125759e-001 5.732673e-001 1.207550e-001 -5.969112e-001 1.774334e-001 4.050102e-001 -2.032404e-001 -2.054966e-001 -1.122852e-001 -9.283107e-003 1.035669e-001 5.090274e-003 9.699878e-002 1.063265e-002 8.258280e-003 -4.044464e-002 -8.567643e-002 -2.590046e-002 -2.691003e-003 1.252029e-002 -7.834144e-002 
<VARIANCE> 36
1.169512e+001 1.178249e+001 1.349944e+001 2.006509e+001 2.609947e+001 4.100311e+001 4.319308e+001 4.148864e+001 2.992523e+001 2.014817e+001 3.324835e+001 2.251660e+001 1.009851e-001 4.311391e-001 3.430193e-001 6.971228e-001 6.093748e-001 8.219005e-001 1.091293e+000 1.208894e+000 1.010370e+000 9.822195e-001 8.427717e-001 8.911585e-001 5.000000e-002 5.000000e-002 6.053030e-002 8.987232e-002 1.054815e-001 1.608844e-001 1.931064e-001 2.241287e-001 1.732051e-001 1.913884e-001 1.669029e-001 1.738757e-001 
<GCONST> 7.353627e+001
<STATE> 17
<MEAN> 36
5.727795e+000 -1.210286e+001 8.972132e+000 3.378507e+000 -8.739944e+000 5.824568e+000 -5.176590e+000 -6.391100e+000 4.484282e+000 -8.706463e+000 1.000365e+001 -2.226379e+000 7.259753e-002 2.323852e-001 -2.968471e-002 3.787952e-001 2.204294e-001 1.442944e-001 -1.096288e-002 -2.912731e-001 -3.920316e-001 7.952920e-002 1.293424e-001 -1.048678e-001 -2.701151e-002 1.622433e-002 2.440134e-002 -6.696332e-004 -9.013058e-003 -1.540136e-002 4.561323e-002 -5.830144e-003 -3.329986e-002 1.126876e-002 -3.755871e-002 3.707683e-003 
<VARIANCE> 36
2.130334e+001 3.347496e+001 1.007328e+001 2.724856e+001 2.042145e+001 4.724034e+001 2.915219e+001 4.342690e+001 4.202121e+001 5.518612e+001 6.196466e+001 1.834553e+001 1.523984e-001 3.380718e-001 4.537206e-001 8.863420e-001 9.001591e-001 1.011591e+000 1.132890e+000 1.385019e+000 1.710493e+000 1.271053e+000 1.655782e+000 1.071900e+000 5.000000e-002 5.028511e-002 7.839806e-002 1.499422e-001 1.447566e-001 1.594219e-001 1.933197e-001 1.954458e-001 2.773677e-001 1.962775e-001 2.586822e-001 1.754441e-001 
<GCONST> 8.150162e+001
<STATE> 18
<MEAN> 36
5.122671e+000 -8.435986e+000 6.085790e+000 3.470351e+000 -1.150476e+001 6.874178e+000 -2.207043e+000 -7.059844e+000 -1.025684e+000 -2.153874e+000 3.652644e+000 -2.708956e+000 -1.964380e-001 4.801331e-001 -2.367205e-001 1.824153e-001 3.797667e-002 -2.397425e-001 1.781103e-001 -1.190709e-001 -1.944985e-001 8.441577e-002 -1.604753e-001 -1.962981e-001 -1.243515e-002 2.162685e-002 3.351259e-002 4.948473e-003 1.940777e-002 -9.783712e-002 -1.648117e-002 -8.061558e-003 -4.619152e-002 1.768629e-002 2.175388e-002 2.464445e-002 
<VARIANCE> 36
3.872985e+001 5.136292e+001 3.757416e+001 2.700873e+001 7.779412e+001 6.615897e+001 4.200624e+001 7.334264e+001 4.513118e+001 4.248390e+001 3.880672e+001 2.157449e+001 2.879089e-001 7.510601e-001 8.952480e-001 1.454152e+000 1.713747e+000 1.879991e+000 2.317396e+000 2.307464e+000 2.594283e+000 1.695728e+000 1.770307e+000 1.810695e+000 5.000000e-002 1.181053e-001 1.799835e-001 2.236358e-001 2.856305e-001 3.586136e-001 4.148511e-001 3.712971e-001 4.803329e-001 3.024840e-001 3.100558e-001 3.218965e-001 
<GCONST> 9.904745e+001
<STATE> 19
<MEAN> 36
-1.426052e+000 -2.170739e+000 9.545991e+000 3.350952e+000 -2.231245e+000 -1.103371e+001 1.161501e-001 -5.062191e+000 -5.090574e+000 -6.110651e+000 -2.142897e+000 -1.211064e+000 -7.726829e-002 3.414485e-001 1.243477e-001 3.943197e-001 4.072313e-001 1.434291e-004 -1.455943e-001 -3.974828e-001 -3.821726e-001 1.869979e-001 -6.665690e-002 -1.954248e-001 -1.652102e-002 -1.353154e-002 4.272877e-002 -2.442194e-002 -6.081946e-003 6.986613e-002 2.781842e-002 -3.143541e-003 -4.756830e-002 -6.787536e-003 2.555516e-002 4.706648e-002 
<VARIANCE> 36
8.881109e+000 2.461005e+001 3.949151e+001 2.631671e+001 5.192939e+001 3.200644e+001 3.503222e+001 8.341792e+001 6.837620e+001 5.590240e+001 4.418658e+001 2.589446e+001 3.403795e-001 8.145664e-001 1.057196e+000 1.585204e+000 1.899992e+000 2.137692e+000 1.997726e+000 2.645823e+000 2.888214e+000 2.252489e+000 2.520819e+000 1.474873e+000 5.039037e-002 1.269910e-001 1.805183e-001 2.724983e-001 3.456280e-001 3.905753e-001 3.595266e-001 4.417680e-001 5.409976e-001 4.106593e-001 5.274629e-001 3.094285e-001 
<GCONST> 9.944677e+001
<STATE> 20
<MEAN> 36
-5.256646e+000 2.272593e-001 4.334479e+000 6.006187e+000 -1.153911e+000 -7.399988e+000 -4.073711e+000 -2.158795e+000 -2.805113e+000 -3.487932e+000 -6.687901e+000 -2.260220e+000 -4.160039e-002 4.452819e-001 5.031614e-002 2.357997e-001 6.478907e-002 2.497880e-001 2.698404e-002 -3.205610e-001 -3.545598e-001 -8.828022e-002 1.906785e-001 -9.280300e-003 8.829727e-005 -4.130635e-002 -3.108674e-002 -8.707882e-002 -2.833309e-002 3.618912e-002 -1.971195e-003 7.692451e-002 6.733388e-002 1.344522e-002 6.327125e-002 4.859894e-002 
<VARIANCE> 36
4.279570e+000 2.973103e+001 1.420948e+001 1.803772e+001 2.008592e+001 2.206659e+001 3.014378e+001 3.453754e+001 3.052719e+001 3.891975e+001 3.111565e+001 2.161681e+001 1.636264e-001 4.108188e-001 7.048146e-001 1.166957e+000 1.281438e+000 1.470685e+000 1.835438e+000 1.927861e+000 2.183455e+000 2.134690e+000 1.974046e+000 1.826138e+000 5.000000e-002 6.989861e-002 1.288849e-001 2.070988e-001 2.577007e-001 2.700555e-001 3.838943e-001 3.367291e-001 4.246744e-001 4.229084e-001 3.604162e-001 3.133924e-001 
<GCONST> 8.712449e+001
<STATE> 21
<MEAN> 36
-3.497359e+000 5.159106e+000 9.592090e+000 8.705270e+000 -2.114537e+000 -2.727991e+000 2.876559e+000 -7.446165e+000 -8.718203e+000 -5.349788e+000 2.040547e+000 -3.102609e+000 -2.599384e-001 8.160639e-002 -8.763546e-002 -9.847563e-003 2.963788e-001 6.355772e-002 -1.178417e-001 -1.380053e-002 1.423649e-001 1.846793e-001 4.956024e-004 -1.387195e-001 -1.602562e-002 -3.393225e-002 -3.473731e-002 -1.894561e-002 -8.150373e-004 -4.229635e-002 -1.872382e-002 7.400863e-002 1.135540e-001 -1.749452e-003 -5.966382e-002 -5.324347e-002 
<VARIANCE> 36
1.312173e+001 3.115956e+001 2.606303e+001 2.800785e+001 3.600635e+001 4.103090e+001 6.563740e+001 4.723950e+001 4.340777e+001 4.941778e+001 3.344095e+001 4.652904e+001 1.860586e-001 6.276978e-001 7.577970e-001 1.375748e+000 1.621904e+000 1.524192e+000 1.729283e+000 2.101739e+000 2.498028e+000 2.609582e+000 2.275723e+000 1.641813e+000 5.000000e-002 1.040547e-001 1.543760e-001 2.628548e-001 3.194706e-001 2.811276e-001 3.310260e-001 3.910473e-001 4.642389e-001 4.538157e-001 3.949733e-001 3.287671e-001 
<GCONST> 9.589440e+001
<STATE> 22
<MEAN> 36
-1.120974e+001 -1.650556e+000 5.324860e+000 -1.151706e-001 -9.851156e-002 -1.863752e+000 -2.433790e+000 -7.202943e+000 -3.630859e+000 -6.564461e+000 4.318131e-001 -5.900644e+000 -3.073680e-001 2.442339e-002 -2.172639e-001 -2.020950e-001 -7.078407e-002 9.174794e-002 -4.889577e-002 1.407513e-001 2.133917e-001 -5.495268e-002 -3.546379e-002 -5.459292e-002 7.934451e-003 1.784336e-002 1.505367e-002 3.474650e-002 -1.645674e-003 2.644186e-002 4.514365e-002 -9.284180e-003 -3.728938e-002 5.617688e-003 -5.964974e-003 4.860532e-002 
<VARIANCE> 36
5.541108e+001 7.317729e+001 4.461866e+001 4.031854e+001 6.110630e+001 5.497236e+001 4.024486e+001 8.781478e+001 4.750088e+001 6.222675e+001 3.902730e+001 5.769246e+001 4.276757e-001 7.057727e-001 1.310682e+000 1.512596e+000 2.125637e+000 2.271788e+000 2.239378e+000 3.398545e+000 2.813126e+000 2.729614e+000 2.394480e+000 2.575151e+000 5.517383e-002 1.179666e-001 2.300737e-001 2.883453e-001 3.870979e-001 4.797297e-001 4.675326e-001 6.775033e-001 5.084522e-001 5.379026e-001 4.884270e-001 5.387955e-001 
<GCONST> 1.077027e+002
<STATE> 23
<MEAN> 36
-8.348005e+000 4.089855e+000 2.750328e+000 5.544439e+000 1.243617e+000 -7.076652e-002 1.118232e-001 2.017753e+000 6.417429e-001 -7.713133e-001 -6.977603e-001 1.264707e+000 -1.433609e-001 3.982017e-002 -9.616377e-002 -3.758013e-002 1.377921e-001 2.794087e-001 3.228300e-001 2.909610e-001 1.714363e-001 1.542164e-001 1.303048e-001 1.364199e-001 1.242031e-002 -6.482054e-003 7.525542e-003 -1.914488e-002 -4.783979e-002 -4.749534e-003 -1.273302e-002 -2.285648e-002 -3.156087e-002 -1.776824e-002 2.289258e-003 -1.542973e-002 
<VARIANCE> 36
7.653618e+000 1.321888e+001 1.013077e+001 1.778083e+001 2.133775e+001 2.863265e+001 3.552293e+001 3.374910e+001 2.611870e+001 2.875484e+001 2.287289e+001 2.259880e+001 2.070510e-001 4.489333e-001 6.505351e-001 1.253310e+000 1.661409e+000 2.347573e+000 2.580251e+000 2.551709e+000 2.154277e+000 2.049148e+000 2.184001e+000 1.563769e+000 5.000000e-002 8.825134e-002 1.213876e-001 2.471519e-001 3.619735e-001 4.606263e-001 4.637056e-001 4.765557e-001 4.337698e-001 4.278876e-001 4.481209e-001 2.923953e-001 
<GCONST> 8.977921e+001
<TRANSP> 25
0.000000e+000 1.000000e+000 0.000000e+000 0.000000e+000 0.000000e+000 0.000000e+000 0.000000e+000 0.000000e+000 0.000000e+000 0.000000e+000 0.000000e+000 0.000000e+000 0.000000e+000 0.000000e+000 0.000000e+000 0.000000e+000 0.000000e+000 0.000000e+000 0.000000e+000 0.000000e+000 0.000000e+000 0.000000e+000 0.000000e+000 0.000000e+000 0.000000e+000 
0.000000e+000 7.993383e-001 2.006617e-001 0.000000e+000 0.000000e+000 0.000000e+000 0.000000e+000 0.000000e+000 0.000000e+000 0.000000e+000 0.000000e+000 0.000000e+000 0.000000e+000 0.000000e+000 0.000000e+000 0.000000e+000 0.000000e+000 0.000000e+000 0.000000e+000 0.000000e+000 0.000000e+000 0.000000e+000 0.000000e+000 0.000000e+000 0.000000e+000 
0.000000e+000 0.000000e+000 8.613777e-001 1.386223e-001 0.000000e+000 0.000000e+000 0.000000e+000 0.000000e+000 0.000000e+000 0.000000e+000 0.000000e+000 0.000000e+000 0.000000e+000 0.000000e+000 0.000000e+000 0.000000e+000 0.000000e+000 0.000000e+000 0.000000e+000 0.000000e+000 0.000000e+000 0.000000e+000 0.000000e+000 0.000000e+000 0.000000e+000 
0.000000e+000 0.000000e+000 0.000000e+000 8.941313e-001 1.058687e-001 0.000000e+000 0.000000e+000 0.000000e+000 0.000000e+000 0.000000e+000 0.000000e+000 0.000000e+000 0.000000e+000 0.000000e+000 0.000000e+000 0.000000e+000 0.000000e+000 0.000000e+000 0.000000e+000 0.000000e+000 0.000000e+000 0.000000e+000 0.000000e+000 0.000000e+000 0.000000e+000 
0.000000e+000 0.000000e+000 0.000000e+000 0.000000e+000 7.670322e-001 2.329678e-001 0.000000e+000 0.000000e+000 0.000000e+000 0.000000e+000 0.000000e+000 0.000000e+000 0.000000e+000 0.000000e+000 0.000000e+000 0.000000e+000 0.000000e+000 0.000000e+000 0.000000e+000 0.000000e+000 0.000000e+000 0.000000e+000 0.000000e+000 0.000000e+000 0.000000e+000 
0.000000e+000 0.000000e+000 0.000000e+000 0.000000e+000 0.000000e+000 8.162841e-001 1.837159e-001 0.000000e+000 0.000000e+000 0.000000e+000 0.000000e+000 0.000000e+000 0.000000e+000 0.000000e+000 0.000000e+000 0.000000e+000 0.000000e+000 0.000000e+000 0.000000e+000 0.000000e+000 0.000000e+000 0.000000e+000 0.000000e+000 0.000000e+000 0.000000e+000 
0.000000e+000 0.000000e+000 0.000000e+000 0.000000e+000 0.000000e+000 0.000000e+000 7.361918e-001 2.638082e-001 0.000000e+000 0.000000e+000 0.000000e+000 0.000000e+000 0.000000e+000 0.000000e+000 0.000000e+000 0.000000e+000 0.000000e+000 0.000000e+000 0.000000e+000 0.000000e+000 0.000000e+000 0.000000e+000 0.000000e+000 0.000000e+000 0.000000e+000 
0.000000e+000 0.000000e+000 0.000000e+000 0.000000e+000 0.000000e+000 0.000000e+000 0.000000e+000 8.382154e-001 1.617847e-001 0.000000e+000 0.000000e+000 0.000000e+000 0.000000e+000 0.000000e+000 0.000000e+000 0.000000e+000 0.000000e+000 0.000000e+000 0.000000e+000 0.000000e+000 0.000000e+000 0.000000e+000 0.000000e+000 0.000000e+000 0.000000e+000 
0.000000e+000 0.000000e+000 0.000000e+000 0.000000e+000 0.000000e+000 0.000000e+000 0.000000e+000 0.000000e+000 7.895523e-001 2.104478e-001 0.000000e+000 0.000000e+000 0.000000e+000 0.000000e+000 0.000000e+000 0.000000e+000 0.000000e+000 0.000000e+000 0.000000e+000 0.000000e+000 0.000000e+000 0.000000e+000 0.000000e+000 0.000000e+000 0.000000e+000 
0.000000e+000 0.000000e+000 0.000000e+000 0.000000e+000 0.000000e+000 0.000000e+000 0.000000e+000 0.000000e+000 0.000000e+000 7.092957e-001 2.907043e-001 0.000000e+000 0.000000e+000 0.000000e+000 0.000000e+000 0.000000e+000 0.000000e+000 0.000000e+000 0.000000e+000 0.000000e+000 0.000000e+000 0.000000e+000 0.000000e+000 0.000000e+000 0.000000e+000 
0.000000e+000 0.000000e+000 0.000000e+000 0.000000e+000 0.000000e+000 0.000000e+000 0.000000e+000 0.000000e+000 0.000000e+000 0.000000e+000 9.215826e-001 7.841744e-002 0.000000e+000 0.000000e+000 0.000000e+000 0.000000e+000 0.000000e+000 0.000000e+000 0.000000e+000 0.000000e+000 0.000000e+000 0.000000e+000 0.000000e+000 0.000000e+000 0.000000e+000 
0.000000e+000 0.000000e+000 0.000000e+000 0.000000e+000 0.000000e+000 0.000000e+000 0.000000e+000 0.000000e+000 0.000000e+000 0.000000e+000 0.000000e+000 8.151182e-001 1.848817e-001 0.000000e+000 0.000000e+000 0.000000e+000 0.000000e+000 0.000000e+000 0.000000e+000 0.000000e+000 0.000000e+000 0.000000e+000 0.000000e+000 0.000000e+000 0.000000e+000 
0.000000e+000 0.000000e+000 0.000000e+000 0.000000e+000 0.000000e+000 0.000000e+000 0.000000e+000 0.000000e+000 0.000000e+000 0.000000e+000 0.000000e+000 0.000000e+000 7.734399e-001 2.265600e-001 0.000000e+000 0.000000e+000 0.000000e+000 0.000000e+000 0.000000e+000 0.000000e+000 0.000000e+000 0.000000e+000 0.000000e+000 0.000000e+000 0.000000e+000 
0.000000e+000 0.000000e+000 0.000000e+000 0.000000e+000 0.000000e+000 0.000000e+000 0.000000e+000 0.000000e+000 0.000000e+000 0.000000e+000 0.000000e+000 0.000000e+000 0.000000e+000 6.400340e-001 3.599659e-001 0.000000e+000 0.000000e+000 0.000000e+000 0.000000e+000 0.000000e+000 0.000000e+000 0.000000e+000 0.000000e+000 0.000000e+000 0.000000e+000 
0.000000e+000 0.000000e+000 0.000000e+000 0.000000e+000 0.000000e+000 0.000000e+000 0.000000e+000 0.000000e+000 0.000000e+000 0.000000e+000 0.000000e+000 0.000000e+000 0.000000e+000 0.000000e+000 7.983665e-001 2.016335e-001 0.000000e+000 0.000000e+000 0.000000e+000 0.000000e+000 0.000000e+000 0.000000e+000 0.000000e+000 0.000000e+000 0.000000e+000 
0.000000e+000 0.000000e+000 0.000000e+000 0.000000e+000 0.000000e+000 0.000000e+000 0.000000e+000 0.000000e+000 0.000000e+000 0.000000e+000 0.000000e+000 0.000000e+000 0.000000e+000 0.000000e+000 0.000000e+000 8.129894e-001 1.870105e-001 0.000000e+000 0.000000e+000 0.000000e+000 0.000000e+000 0.000000e+000 0.000000e+000 0.000000e+000 0.000000e+000 
0.000000e+000 0.000000e+000 0.000000e+000 0.000000e+000 0.000000e+000 0.000000e+000 0.000000e+000 0.000000e+000 0.000000e+000 0.000000e+000 0.000000e+000 0.000000e+000 0.000000e+000 0.000000e+000 0.000000e+000 0.000000e+000 8.945779e-001 1.054222e-001 0.000000e+000 0.000000e+000 0.000000e+000 0.000000e+000 0.000000e+000 0.000000e+000 0.000000e+000 
0.000000e+000 0.000000e+000 0.000000e+000 0.000000e+000 0.000000e+000 0.000000e+000 0.000000e+000 0.000000e+000 0.000000e+000 0.000000e+000 0.000000e+000 0.000000e+000 0.000000e+000 0.000000e+000 0.000000e+000 0.000000e+000 0.000000e+000 8.799973e-001 1.200025e-001 0.000000e+000 0.000000e+000 0.000000e+000 0.000000e+000 0.000000e+000 0.000000e+000 
0.000000e+000 0.000000e+000 0.000000e+000 0.000000e+000 0.000000e+000 0.000000e+000 0.000000e+000 0.000000e+000 0.000000e+000 0.000000e+000 0.000000e+000 0.000000e+000 0.000000e+000 0.000000e+000 0.000000e+000 0.000000e+000 0.000000e+000 0.000000e+000 8.432659e-001 1.567341e-001 0.000000e+000 0.000000e+000 0.000000e+000 0.000000e+000 0.000000e+000 
0.000000e+000 0.000000e+000 0.000000e+000 0.000000e+000 0.000000e+000 0.000000e+000 0.000000e+000 0.000000e+000 0.000000e+000 0.000000e+000 0.000000e+000 0.000000e+000 0.000000e+000 0.000000e+000 0.000000e+000 0.000000e+000 0.000000e+000 0.000000e+000 0.000000e+000 8.576447e-001 1.423554e-001 0.000000e+000 0.000000e+000 0.000000e+000 0.000000e+000 
0.000000e+000 0.000000e+000 0.000000e+000 0.000000e+000 0.000000e+000 0.000000e+000 0.000000e+000 0.000000e+000 0.000000e+000 0.000000e+000 0.000000e+000 0.000000e+000 0.000000e+000 0.000000e+000 0.000000e+000 0.000000e+000 0.000000e+000 0.000000e+000 0.000000e+000 0.000000e+000 8.997167e-001 1.002833e-001 0.000000e+000 0.000000e+000 0.000000e+000 
0.000000e+000 0.000000e+000 0.000000e+000 0.000000e+000 0.000000e+000 0.000000e+000 0.000000e+000 0.000000e+000 0.000000e+000 0.000000e+000 0.000000e+000 0.000000e+000 0.000000e+000 0.000000e+000 0.000000e+000 0.000000e+000 0.000000e+000 0.000000e+000 0.000000e+000 0.000000e+000 0.000000e+000 8.484027e-001 1.515973e-001 0.000000e+000 0.000000e+000 
0.000000e+000 0.000000e+000 0.000000e+000 0.000000e+000 0.000000e+000 0.000000e+000 0.000000e+000 0.000000e+000 0.000000e+000 0.000000e+000 0.000000e+000 0.000000e+000 0.000000e+000 0.000000e+000 0.000000e+000 0.000000e+000 0.000000e+000 0.000000e+000 0.000000e+000 0.000000e+000 0.000000e+000 0.000000e+000 8.303310e-001 1.696689e-001 0.000000e+000 
0.000000e+000 0.000000e+000 0.000000e+000 0.000000e+000 0.000000e+000 0.000000e+000 0.000000e+000 0.000000e+000 0.000000e+000 0.000000e+000 0.000000e+000 0.000000e+000 0.000000e+000 0.000000e+000 0.000000e+000 0.000000e+000 0.000000e+000 0.000000e+000 0.000000e+000 0.000000e+000 0.000000e+000 0.000000e+000 0.000000e+000 8.797976e-001 1.202025e-001 
0.000000e+000 0.000000e+000 0.000000e+000 0.000000e+000 0.000000e+000 0.000000e+000 0.000000e+000 0.000000e+000 0.000000e+000 0.000000e+000 0.000000e+000 0.000000e+000 0.000000e+000 0.000000e+000 0.000000e+000 0.000000e+000 0.000000e+000 0.000000e+000 0.000000e+000 0.000000e+000 0.000000e+000 0.000000e+000 0.000000e+000 0.000000e+000 0.000000e+000 
