<HMMNAME> 9
<HMMSTATES> 25
<STATE> 1
<MEAN> 36
-4.598891e+000 1.329824e+001 1.512379e+001 2.315836e-001 2.726102e+000 -5.747656e+000 -5.460127e+000 -7.691591e+000 -3.579494e+000 -5.524394e+000 4.128435e-001 -1.799721e+000 -1.045169e+000 5.457729e-003 4.397986e-001 -4.089179e-001 -1.027373e-001 8.979443e-002 2.507680e-001 1.726165e-001 1.189888e-001 -2.387907e-001 2.775496e-002 -1.524370e-001 -5.819961e-002 -3.498676e-002 8.939426e-003 3.781685e-002 -4.386831e-002 -1.645158e-002 5.720225e-002 1.435059e-002 3.381106e-002 8.132551e-003 3.266095e-002 2.110850e-002 
<VARIANCE> 36
9.111950e+001 6.393461e+001 5.732853e+001 7.084756e+001 4.371978e+001 5.582822e+001 5.963579e+001 8.189878e+001 6.303946e+001 5.425178e+001 3.739033e+001 3.204396e+001 1.760221e+000 1.107470e+000 1.632990e+000 1.907384e+000 2.242531e+000 2.418656e+000 2.426661e+000 2.896106e+000 2.454784e+000 2.787839e+000 2.428088e+000 1.908949e+000 1.571590e-001 1.596790e-001 2.480975e-001 3.074550e-001 3.593498e-001 3.771103e-001 3.776548e-001 5.539159e-001 4.419635e-001 4.781974e-001 4.078676e-001 3.669506e-001 
<GCONST> 1.102888e+002
<STATE> 2
<MEAN> 36
-2.341495e+001 1.123323e+001 8.723158e+000 -2.283367e+000 2.438911e+000 2.927417e-001 4.979716e+000 -3.452826e+000 2.053210e+000 3.286625e+000 -5.550146e-001 2.287253e+000 -1.736595e-001 -5.861583e-002 6.692251e-001 -2.695133e-001 -7.270601e-001 -3.153341e-001 1.826782e-003 -5.251501e-001 -2.155003e-001 2.281294e-001 5.698097e-002 8.555960e-002 2.135597e-001 -9.290913e-002 9.964624e-002 -1.247263e-002 -1.940093e-001 -1.626369e-001 -1.397300e-001 -5.523356e-002 -6.717422e-002 -7.245291e-004 2.616526e-003 -8.068645e-003 
<VARIANCE> 36
3.880524e+001 2.005121e+001 5.804883e+001 3.113261e+001 3.505255e+001 3.006132e+001 4.510997e+001 4.359747e+001 3.409478e+001 4.380933e+001 2.634651e+001 2.278229e+001 2.074034e+000 1.219565e+000 1.516094e+000 1.352177e+000 2.409797e+000 2.244329e+000 2.303117e+000 2.652725e+000 2.345752e+000 2.302470e+000 2.107865e+000 1.964421e+000 1.744984e-001 2.038990e-001 2.629881e-001 2.475271e-001 4.528877e-001 4.371206e-001 4.295900e-001 4.988376e-001 3.946337e-001 4.892495e-001 4.329946e-001 3.699111e-001 
<GCONST> 1.041175e+002
<STATE> 3
<MEAN> 36
-1.478219e+001 9.176044e+000 2.139792e+001 -4.504995e+000 -8.886062e+000 -9.928411e+000 -2.547050e+000 -8.738687e+000 -1.502961e+000 -1.208947e+000 2.498351e+000 8.243588e-001 1.270860e+000 -1.190344e+000 7.894067e-001 -2.950022e-001 -2.284698e+000 -1.687295e+000 -7.819593e-001 1.429387e-001 7.661105e-003 3.979037e-001 2.648121e-001 9.120249e-001 5.299742e-002 -1.198184e-001 -2.528844e-001 -2.703167e-002 1.389477e-001 1.090872e-001 1.337255e-002 1.732195e-001 -2.151637e-002 4.538785e-002 -3.879008e-002 1.590615e-001 
<VARIANCE> 36
4.069535e+001 3.073048e+001 3.159714e+001 3.091460e+001 4.767804e+001 6.091130e+001 7.767741e+001 5.280700e+001 6.660810e+001 1.033430e+002 6.165196e+001 3.574364e+001 1.091897e+000 9.379233e-001 1.912091e+000 2.475501e+000 2.086909e+000 2.336020e+000 2.295757e+000 3.072156e+000 2.921734e+000 2.697111e+000 2.525510e+000 2.045604e+000 2.366391e-001 1.298411e-001 2.303425e-001 2.722780e-001 3.724067e-001 4.173663e-001 3.175002e-001 4.625590e-001 4.763793e-001 4.753282e-001 4.627590e-001 4.085402e-001 
<GCONST> 1.086470e+002
<STATE> 4
<MEAN> 36
-6.839705e+000 3.255696e+000 2.361436e+001 -3.108585e+000 -1.563108e+001 -1.521414e+001 -9.000483e+000 -2.181617e+000 2.219490e+000 -4.483599e+000 1.944175e+000 4.963356e+000 7.931905e-001 -1.429925e+000 -3.106104e-001 -1.429291e-001 -8.061298e-001 -2.376924e-001 -4.321374e-001 2.482357e-001 3.129092e-001 2.549181e-002 1.603007e-001 3.420167e-001 -1.285503e-001 5.265501e-002 -7.818129e-002 -5.569740e-002 2.520648e-001 2.339041e-001 8.622313e-002 -3.021662e-002 1.131153e-002 1.448107e-002 8.811369e-002 -2.153377e-001 
<VARIANCE> 36
2.550822e+001 2.255162e+001 2.536026e+001 3.467480e+001 4.540459e+001 4.931545e+001 1.114400e+002 6.070170e+001 9.978440e+001 8.975264e+001 4.502038e+001 1.862289e+001 2.796369e-001 5.497967e-001 7.925329e-001 8.934571e-001 1.078788e+000 1.628856e+000 1.648826e+000 2.065301e+000 1.680481e+000 1.620864e+000 1.409231e+000 1.231357e+000 5.000000e-002 5.570967e-002 1.329487e-001 1.311343e-001 2.261226e-001 2.199110e-001 3.034329e-001 3.302147e-001 2.689062e-001 2.413574e-001 2.457785e-001 1.935511e-001 
<GCONST> 9.177217e+001
<STATE> 5
<MEAN> 36
-1.334641e+001 -5.580590e+000 1.972756e+001 -1.590862e+001 -1.469299e+001 -1.202953e+001 3.353774e-001 -9.426366e+000 -4.474075e+000 8.163063e+000 5.394817e-001 6.033594e+000 1.864021e-001 -3.764390e-001 -5.947131e-002 8.031130e-002 6.222212e-002 9.562243e-002 3.419982e-002 2.947560e-001 -5.733432e-002 -1.214586e-001 4.150873e-002 -8.510136e-002 -1.176938e-002 5.620170e-002 -1.579825e-002 9.280487e-002 1.649388e-002 4.534560e-002 2.281449e-002 1.046212e-002 2.502626e-002 -3.543015e-002 -7.344140e-003 -3.138188e-002 
<VARIANCE> 36
1.121015e+001 1.856628e+001 8.700797e+000 2.356820e+001 1.839203e+001 2.126441e+001 3.060628e+001 3.907613e+001 2.589643e+001 3.294662e+001 2.344442e+001 9.776187e+000 9.347953e-002 3.531198e-001 3.470629e-001 7.078349e-001 6.196468e-001 7.228260e-001 9.824563e-001 7.891074e-001 7.377563e-001 9.033588e-001 8.305872e-001 5.563550e-001 5.000000e-002 5.000000e-002 5.470438e-002 7.682100e-002 9.790979e-002 1.340591e-001 1.712083e-001 1.182354e-001 1.354930e-001 1.583111e-001 1.393469e-001 1.041484e-001 
<GCONST> 6.724260e+001
<STATE> 6
<MEAN> 36
1.900018e+000 -1.088158e+001 2.067293e+001 -4.264382e+000 -1.937353e+001 -1.304565e+001 -1.609840e+001 1.757347e+000 9.362817e+000 -6.590368e+000 5.775341e+000 1.497675e+000 2.609049e-001 -4.497987e-001 -1.958381e-001 1.894041e-001 -3.804261e-002 1.781866e-001 -1.736081e-002 1.257973e-001 -3.991670e-002 4.775596e-002 9.791610e-003 -1.893687e-001 -2.655717e-002 6.995037e-002 1.750329e-002 3.265174e-002 5.036967e-002 -1.177906e-002 4.781768e-002 -3.344655e-002 -3.469164e-002 6.053088e-003 -3.641902e-002 2.896278e-002 
<VARIANCE> 36
2.126067e+001 2.852699e+001 1.893817e+001 1.961876e+001 4.106798e+001 3.183615e+001 4.824306e+001 3.850237e+001 5.562581e+001 5.821498e+001 3.390160e+001 2.293379e+001 1.021297e-001 3.796300e-001 4.841261e-001 6.268164e-001 6.926574e-001 8.986076e-001 9.841329e-001 9.502031e-001 1.051085e+000 1.185951e+000 1.002466e+000 9.221884e-001 5.000000e-002 5.000000e-002 6.765347e-002 7.265477e-002 1.098142e-001 1.249790e-001 1.353234e-001 1.401032e-001 1.529885e-001 1.631835e-001 1.564984e-001 1.295631e-001 
<GCONST> 7.593915e+001
<STATE> 7
<MEAN> 36
3.115484e+000 -1.092434e+001 1.932693e+001 2.991468e+000 -1.522488e+001 -1.234042e+001 -1.591326e+001 -3.650393e-001 6.260399e+000 -9.063934e+000 7.158592e+000 -7.363613e-001 1.029917e-002 6.740629e-002 3.252472e-002 2.228515e-001 7.495871e-002 1.994950e-002 2.043479e-001 5.103999e-002 -5.076874e-002 -1.906244e-002 1.098369e-002 1.302238e-002 -1.352848e-002 8.929817e-003 2.413982e-003 -3.055022e-002 -1.578851e-003 2.919085e-003 2.997128e-002 1.297229e-002 2.960813e-002 -1.209297e-003 -2.970364e-002 1.247566e-002 
<VARIANCE> 36
2.047914e+001 2.035373e+001 1.736538e+001 2.640501e+001 2.473511e+001 4.900576e+001 4.998250e+001 3.219426e+001 3.422826e+001 5.591212e+001 3.010495e+001 2.426548e+001 2.420148e-001 4.115614e-001 7.105042e-001 1.152709e+000 1.128275e+000 1.481027e+000 1.708830e+000 1.884078e+000 1.734385e+000 1.622930e+000 1.693116e+000 1.316725e+000 5.000000e-002 5.596159e-002 1.123441e-001 1.626759e-001 1.861226e-001 2.636163e-001 2.813405e-001 3.441082e-001 2.993614e-001 2.839047e-001 2.984639e-001 2.306985e-001 
<GCONST> 8.759996e+001
<STATE> 8
<MEAN> 36
-8.730458e-001 -7.175790e+000 1.476266e+001 3.671123e+000 -1.801225e+001 -1.312916e+001 1.517393e+000 -4.941885e+000 -5.009167e+000 -1.945227e+000 2.834899e-001 4.321138e+000 4.267530e-002 7.138863e-002 5.033266e-002 -1.901873e-002 1.647598e-001 5.439508e-002 2.624406e-002 1.251015e-002 1.694409e-002 2.087429e-002 -1.077703e-001 1.039329e-002 -3.432016e-003 1.791617e-002 1.550634e-002 -2.297175e-002 4.299692e-003 5.032997e-003 -1.725909e-002 4.423082e-003 2.059540e-003 -1.455405e-002 8.179944e-003 -6.618386e-003 
<VARIANCE> 36
1.212623e+001 1.277683e+001 3.495760e+001 2.785411e+001 4.353534e+001 2.727503e+001 3.720359e+001 4.715426e+001 4.288140e+001 4.558840e+001 3.293634e+001 3.070496e+001 2.427427e-001 5.421322e-001 9.472116e-001 1.363822e+000 1.829055e+000 2.011673e+000 1.769785e+000 2.107966e+000 2.607031e+000 2.209036e+000 1.789442e+000 1.740653e+000 5.000000e-002 7.755772e-002 1.447446e-001 2.290835e-001 3.537226e-001 4.161317e-001 3.160391e-001 3.909416e-001 4.913087e-001 4.195253e-001 3.309012e-001 3.079730e-001 
<GCONST> 9.403950e+001
<STATE> 9
<MEAN> 36
-9.042015e+000 -6.639328e-001 1.538127e+001 -2.054546e-001 -1.140609e+001 -4.965483e+000 2.540519e+000 2.417941e-001 -4.372118e+000 3.801588e+000 1.862221e+000 1.789923e+000 4.063146e-002 1.088998e-001 7.230316e-002 -9.695065e-002 -1.598643e-001 1.763569e-001 5.286225e-002 -2.501554e-002 -2.240582e-002 3.948330e-002 1.309639e-002 -1.291462e-001 1.369106e-002 -5.858588e-002 3.127442e-002 -1.154540e-001 -6.324876e-002 -3.584307e-002 -2.702425e-002 -2.814391e-002 -2.174066e-002 5.633337e-003 8.866233e-003 1.630060e-002 
<VARIANCE> 36
2.003534e+001 1.553254e+001 2.440524e+001 2.620665e+001 4.064246e+001 4.947169e+001 3.658073e+001 5.154603e+001 3.849476e+001 3.524876e+001 2.558058e+001 2.737228e+001 3.328650e-001 6.876571e-001 1.077360e+000 1.822924e+000 2.272942e+000 2.198647e+000 2.363956e+000 2.678345e+000 1.998734e+000 2.406207e+000 2.300719e+000 2.154882e+000 5.000000e-002 9.623495e-002 1.518008e-001 2.720411e-001 3.038225e-001 3.747174e-001 4.631639e-001 5.369619e-001 3.827321e-001 4.873366e-001 4.968021e-001 4.376221e-001 
<GCONST> 9.781052e+001
<STATE> 10
<MEAN> 36
3.186924e+000 -8.241580e+000 2.442378e+001 -1.028998e+000 -2.006593e+001 -1.800275e+001 -8.621975e+000 1.695187e+000 8.483944e+000 -7.097013e+000 1.193767e+000 3.462734e+000 1.375654e-001 -2.450103e-001 -1.121486e-002 -6.458945e-001 -3.333633e-001 5.218776e-001 1.811209e-001 -1.233731e-003 -5.812263e-002 -2.810287e-001 1.207246e-001 1.927849e-001 -1.631831e-002 8.418923e-003 -7.412405e-002 -8.166804e-003 1.117441e-001 1.041234e-001 3.959838e-002 -3.350855e-002 -8.063245e-002 7.868074e-003 3.293991e-002 3.924437e-004 
<VARIANCE> 36
4.211879e+001 2.338473e+001 2.930434e+001 4.306874e+001 7.132216e+001 1.104519e+002 6.993762e+001 4.510830e+001 8.004326e+001 9.368193e+001 6.105706e+001 3.539368e+001 3.339565e-001 4.780174e-001 1.116046e+000 1.337058e+000 1.450997e+000 2.421753e+000 1.732696e+000 1.504987e+000 2.496567e+000 2.337235e+000 1.918579e+000 1.486406e+000 5.000000e-002 6.762162e-002 1.562954e-001 1.706847e-001 1.800598e-001 3.203584e-001 2.815990e-001 2.519899e-001 3.928689e-001 3.925976e-001 3.210912e-001 2.130805e-001 
<GCONST> 9.805512e+001
<STATE> 11
<MEAN> 36
6.002798e+000 -1.348369e+001 1.949576e+001 -7.759831e+000 -1.934570e+001 5.742268e-001 -6.466868e+000 5.834292e+000 1.857943e+000 -1.146020e+001 8.336057e+000 1.963487e+000 7.281358e-002 1.590655e-001 -2.186663e-001 -2.993474e-001 2.733576e-001 6.003240e-001 1.843174e-001 -2.185925e-001 -5.226679e-001 -4.241595e-002 2.594198e-001 -9.215399e-002 -3.571516e-003 4.393801e-002 -1.440909e-002 3.658245e-002 4.718998e-002 -3.312327e-002 -1.637868e-002 -6.699018e-002 -1.287874e-002 6.732836e-002 -1.222942e-002 -1.321537e-002 
<VARIANCE> 36
2.476116e+001 2.481148e+001 1.264947e+001 2.135037e+001 2.783170e+001 4.987634e+001 3.793999e+001 4.068439e+001 5.431526e+001 6.821177e+001 3.714849e+001 3.066877e+001 1.787647e-001 3.436868e-001 4.209407e-001 7.984056e-001 8.706514e-001 1.113672e+000 1.077755e+000 1.448612e+000 1.456445e+000 1.331235e+000 1.080696e+000 1.035723e+000 5.000000e-002 6.080065e-002 6.650330e-002 1.096677e-001 1.287557e-001 1.632244e-001 1.527362e-001 2.012402e-001 2.050164e-001 1.876492e-001 1.531210e-001 1.514644e-001 
<GCONST> 8.024212e+001
<STATE> 12
<MEAN> 36
-1.128763e+001 -3.890677e+000 1.908265e+001 -1.965276e+001 -1.356965e+001 -2.025848e+000 6.461089e+000 -7.220174e+000 -4.787453e+000 8.041166e+000 -1.165822e+000 3.340697e+000 -2.438796e-002 1.566171e-001 -1.991709e-001 -2.942830e-001 3.204422e-001 1.767173e-001 2.391201e-001 -1.612289e-001 3.220946e-002 -5.149992e-002 -1.346823e-001 -3.821985e-002 1.649239e-002 3.222525e-002 -2.853508e-002 1.054389e-001 2.027473e-002 1.290474e-002 -1.420582e-002 3.723338e-002 2.577657e-002 -4.235378e-002 1.445296e-003 -1.613487e-002 
<VARIANCE> 36
2.277520e+001 1.459624e+001 1.332611e+001 3.995355e+001 2.700806e+001 4.118275e+001 4.870091e+001 3.376136e+001 4.990741e+001 4.538074e+001 2.786290e+001 2.530352e+001 1.135780e-001 2.491808e-001 4.446544e-001 8.506783e-001 7.039606e-001 9.220406e-001 1.003450e+000 1.097771e+000 1.161583e+000 1.216326e+000 9.485323e-001 7.017817e-001 5.000000e-002 5.000000e-002 6.609088e-002 8.609265e-002 1.278672e-001 1.474394e-001 1.639015e-001 1.936714e-001 2.020939e-001 2.159425e-001 1.896634e-001 1.470050e-001 
<GCONST> 7.672297e+001
<STATE> 13
<MEAN> 36
6.907459e+000 -3.936015e+000 1.343541e+001 -7.100016e+000 -8.007956e+000 4.842261e+000 -4.376509e+000 -6.223250e+000 -5.354791e+000 -1.165035e+001 1.043226e+001 3.354135e+000 1.165183e-002 5.171527e-001 -2.101922e-001 2.046470e-001 3.648383e-001 -8.540689e-002 9.826642e-002 -3.247421e-001 -8.133842e-002 1.755880e-001 -2.550540e-001 1.327132e-001 -4.357012e-002 2.482085e-002 3.267836e-002 1.708137e-002 -6.776226e-003 -7.797822e-002 1.012681e-003 5.353015e-002 1.326465e-002 2.595536e-003 -5.679893e-002 -2.967128e-002 
<VARIANCE> 36
3.254650e+001 2.596773e+001 1.737056e+001 3.007710e+001 4.292165e+001 4.533123e+001 6.816344e+001 6.411483e+001 4.163975e+001 6.796149e+001 5.436955e+001 3.718711e+001 2.400491e-001 3.428397e-001 6.016078e-001 7.811531e-001 1.067230e+000 1.487344e+000 1.261221e+000 1.662323e+000 1.541866e+000 1.566138e+000 1.651580e+000 1.226569e+000 5.000000e-002 5.000000e-002 8.914937e-002 1.234960e-001 1.564717e-001 2.114660e-001 2.098971e-001 2.564095e-001 2.579582e-001 2.712194e-001 2.586245e-001 1.978168e-001 
<GCONST> 8.775101e+001
<STATE> 14
<MEAN> 36
-8.378020e+000 2.417934e+000 1.245304e+001 -1.254309e+001 -8.102292e+000 -1.730777e-001 6.178272e+000 -7.314111e+000 -4.923049e+000 1.110821e+000 -1.357602e+000 -1.861717e-001 2.296979e-001 4.696808e-001 -5.114088e-001 7.605536e-001 2.131168e-001 -1.031214e-001 -1.847627e-001 1.923731e-001 -3.212611e-001 -4.229515e-001 -8.123532e-002 -3.156589e-001 -9.658090e-003 -1.195284e-002 2.987865e-004 2.226992e-002 3.248275e-002 -4.237435e-002 -5.996170e-002 3.043571e-002 -1.740689e-002 -4.628113e-002 -8.766278e-003 1.980542e-002 
<VARIANCE> 36
3.280863e+001 1.035594e+001 1.589203e+001 4.408702e+001 3.640882e+001 2.889884e+001 3.778693e+001 3.491644e+001 3.407527e+001 3.735242e+001 3.202710e+001 2.957394e+001 2.454720e-001 3.716645e-001 6.776009e-001 1.206494e+000 1.461385e+000 1.771657e+000 1.877784e+000 1.826130e+000 1.533217e+000 1.767669e+000 1.429332e+000 1.322447e+000 5.000000e-002 6.029578e-002 1.067325e-001 1.883370e-001 2.596638e-001 3.442535e-001 3.456792e-001 3.634610e-001 2.729031e-001 3.310313e-001 2.481050e-001 2.546437e-001 
<GCONST> 8.854506e+001
<STATE> 15
<MEAN> 36
-5.321479e+000 7.344657e+000 7.835406e+000 -1.052614e+000 -5.085080e+000 -1.092398e+000 1.444412e+000 -4.387837e+000 -7.548037e+000 -2.476704e+000 -2.580058e+000 -1.563974e+000 -1.120712e-001 2.332763e-001 -1.897617e-001 4.754890e-001 5.431640e-001 -6.133665e-002 -3.105270e-001 4.447249e-002 1.768765e-001 -2.283651e-001 -8.241540e-002 1.014930e-001 -6.611537e-002 -5.038872e-002 3.849702e-002 -2.885375e-002 2.551058e-002 3.044051e-002 3.540496e-002 3.403425e-002 7.069979e-002 2.913955e-002 4.019451e-002 1.524457e-002 
<VARIANCE> 36
1.309845e+001 1.147175e+001 1.848767e+001 2.952712e+001 2.661686e+001 2.252422e+001 2.944163e+001 2.997165e+001 4.033826e+001 3.291541e+001 2.728405e+001 2.333488e+001 2.629223e-001 3.675702e-001 8.836928e-001 1.120424e+000 1.504553e+000 1.860475e+000 2.131059e+000 2.026994e+000 2.317382e+000 1.976656e+000 1.864103e+000 1.665941e+000 5.000000e-002 7.235904e-002 1.729639e-001 1.852780e-001 2.926198e-001 3.612239e-001 4.037361e-001 4.240173e-001 4.571008e-001 3.889774e-001 3.628728e-001 3.175299e-001 
<GCONST> 9.014301e+001
<STATE> 16
<MEAN> 36
1.026144e+000 3.048327e+000 1.624027e+001 2.271471e+000 -2.164295e+000 -5.816277e+000 -4.257169e+000 -1.034575e+001 -7.764591e+000 -6.922036e+000 7.158641e-001 1.943051e+000 -4.589378e-001 1.289353e-001 -7.916670e-002 -5.685846e-002 6.131808e-001 -9.927854e-002 -2.128874e-001 2.194952e-001 -1.532945e-001 7.388263e-003 -1.541795e-001 -2.798775e-001 -9.080391e-002 -6.381803e-003 -3.352314e-002 -1.587797e-001 1.021884e-003 4.713695e-002 3.062156e-002 8.364968e-002 -1.767869e-002 7.651660e-002 3.755907e-002 -2.426781e-002 
<VARIANCE> 36
1.728150e+001 2.254073e+001 3.262903e+001 4.385636e+001 6.302605e+001 3.761339e+001 4.901507e+001 5.742122e+001 4.957059e+001 3.952418e+001 3.147533e+001 4.442903e+001 7.103487e-001 6.900048e-001 1.068651e+000 1.775197e+000 1.658459e+000 2.270996e+000 2.168821e+000 3.147618e+000 3.374877e+000 2.782809e+000 2.445762e+000 1.696254e+000 7.794032e-002 1.253948e-001 1.904032e-001 2.467751e-001 2.954669e-001 3.792293e-001 4.460479e-001 5.823035e-001 5.867725e-001 4.802730e-001 4.054584e-001 3.004383e-001 
<GCONST> 1.021736e+002
<STATE> 17
<MEAN> 36
-8.420751e+000 6.457083e+000 1.624719e+001 -1.032159e+001 1.371093e+000 -2.471406e+000 -1.049788e+001 -3.837820e-001 -1.133627e+001 -8.215648e+000 1.260366e+000 -2.088412e+000 -1.236187e+000 2.712206e-001 1.593405e-001 -5.556825e-001 1.158616e-001 2.991777e-001 -9.552246e-002 2.380965e-001 2.146388e-001 1.083380e-001 -5.854911e-002 -2.553684e-001 3.815901e-002 -2.994209e-002 2.921061e-002 1.328859e-001 -1.294420e-001 7.584172e-002 1.035486e-001 -1.654104e-001 1.227202e-001 5.126782e-002 2.010951e-002 4.769413e-002 
<VARIANCE> 36
2.757140e+001 3.917367e+001 3.322753e+001 9.083017e+001 1.045071e+002 1.035251e+002 1.743291e+002 8.329485e+001 6.348828e+001 4.846893e+001 5.458570e+001 5.530341e+001 8.789209e-001 1.030203e+000 1.609246e+000 2.327882e+000 2.660268e+000 2.497324e+000 2.593623e+000 3.036566e+000 2.974299e+000 2.457053e+000 2.125891e+000 2.114953e+000 7.820016e-002 1.457231e-001 3.030953e-001 3.719772e-001 3.902919e-001 4.107420e-001 3.881031e-001 4.941259e-001 4.590944e-001 4.204060e-001 4.214891e-001 3.775249e-001 
<GCONST> 1.111262e+002
<STATE> 18
<MEAN> 36
-1.406250e+001 7.751965e+000 5.575004e+000 -1.653657e+000 2.928455e+000 -1.783399e-001 3.901250e+000 -7.317156e-001 -4.140486e-002 1.289820e-001 -1.720150e-001 1.156781e+000 -1.266076e+000 3.587332e-001 -4.066145e-002 -3.894399e-001 3.571693e-001 8.787941e-003 7.160017e-001 -2.024772e-001 4.450363e-001 5.869379e-001 3.350561e-001 2.359118e-001 -1.629605e-002 7.975876e-002 1.065548e-001 -5.897755e-003 -9.308133e-002 -1.770116e-002 -9.168169e-002 -1.569708e-001 -1.617376e-001 -1.119154e-001 2.363815e-003 -1.583513e-002 
<VARIANCE> 36
1.881146e+001 1.485831e+001 3.778738e+001 4.005490e+001 3.046305e+001 3.488689e+001 5.805666e+001 4.434560e+001 4.061645e+001 3.059302e+001 2.166679e+001 2.559737e+001 8.556804e-001 1.214869e+000 1.351052e+000 1.672833e+000 2.175981e+000 2.286291e+000 2.566083e+000 3.107367e+000 2.740208e+000 2.301863e+000 2.013368e+000 2.065500e+000 1.338230e-001 1.946194e-001 2.017556e-001 2.907916e-001 4.184585e-001 3.996715e-001 4.846694e-001 5.799506e-001 5.238261e-001 4.140725e-001 4.054212e-001 3.930892e-001 
<GCONST> 1.022797e+002
<STATE> 19
<MEAN> 36
-2.439156e+001 1.136569e+001 7.462595e+000 -3.858016e+000 4.713782e+000 6.112607e-001 8.955666e+000 -3.027039e+000 1.147671e+000 4.988621e+000 3.334612e-001 1.705626e+000 -1.581559e-001 -1.542333e-001 3.921005e-001 -3.707224e-002 -1.254151e-001 1.923003e-001 8.222150e-002 -2.225191e-002 -4.279574e-002 9.451252e-002 -2.055825e-002 -8.877314e-002 1.031567e-001 -7.384336e-002 -1.815626e-002 3.350050e-002 -4.459825e-002 -2.949830e-002 -2.253450e-002 3.847465e-002 1.925694e-003 -5.886919e-002 -6.847369e-003 -3.948599e-003 
<VARIANCE> 36
1.739311e+001 1.094643e+001 3.026291e+001 2.636539e+001 2.433715e+001 3.567865e+001 5.740339e+001 3.690067e+001 3.606264e+001 3.310163e+001 1.979826e+001 2.507753e+001 7.088264e-001 5.766346e-001 9.324380e-001 1.314884e+000 1.575273e+000 2.267984e+000 2.254303e+000 2.393533e+000 2.721287e+000 2.555815e+000 1.737663e+000 1.732003e+000 6.642718e-002 1.183846e-001 1.807753e-001 2.647689e-001 2.998953e-001 4.497719e-001 4.408150e-001 4.493479e-001 5.500063e-001 5.275106e-001 3.657565e-001 3.321666e-001 
<GCONST> 9.626863e+001
<STATE> 20
<MEAN> 36
-2.007955e+001 4.546057e+000 1.979211e+001 -7.614753e+000 -4.685075e+000 -1.249321e-001 -1.902727e+000 -1.048555e+001 -6.988389e+000 -8.436908e+000 6.320527e-001 -2.381922e+000 -2.102435e-001 -3.973230e-001 8.186617e-002 2.268035e-001 -3.190731e-001 2.721436e-002 1.118387e-001 -6.263739e-003 1.125205e-001 -5.391301e-002 -2.183719e-002 -4.428573e-002 4.664326e-002 -2.452975e-002 -7.268778e-002 7.936537e-003 5.858572e-002 -3.468766e-002 -8.575763e-003 7.336791e-002 3.776427e-002 3.337908e-002 4.629118e-003 3.316041e-002 
<VARIANCE> 36
1.388519e+001 3.010952e+001 2.704917e+001 5.218297e+001 7.369059e+001 6.171318e+001 5.706786e+001 8.065489e+001 4.155367e+001 6.381654e+001 3.853354e+001 7.535491e+001 4.988698e-001 7.926742e-001 1.293852e+000 1.449042e+000 2.222191e+000 2.561840e+000 2.387275e+000 3.025818e+000 2.364967e+000 2.449747e+000 2.233358e+000 2.305318e+000 5.961214e-002 1.464155e-001 2.450352e-001 2.562157e-001 3.665158e-001 4.550307e-001 4.783617e-001 6.322824e-001 4.698473e-001 4.901198e-001 4.657836e-001 4.624128e-001 
<GCONST> 1.054780e+002
<STATE> 21
<MEAN> 36
-2.248878e+001 1.214183e+000 2.079912e+001 -4.012334e+000 -5.697965e+000 1.318856e+000 4.589803e+000 -8.005774e-001 -6.380136e-001 -4.270484e+000 1.038195e+000 1.118140e+000 2.116685e-001 -1.862674e-001 -1.815844e-001 1.797256e-001 -1.935224e-002 4.609049e-002 -1.488377e-001 -1.220799e-002 1.828082e-001 1.632987e-001 6.495196e-002 -4.754044e-002 4.103103e-002 4.787418e-002 -6.329110e-002 -6.254692e-003 6.685278e-002 1.662949e-002 -8.140048e-002 -4.458049e-002 -5.479023e-002 -1.270452e-002 2.510409e-003 -3.217911e-002 
<VARIANCE> 36
2.502755e+001 3.058413e+001 4.473596e+001 3.535032e+001 3.793209e+001 3.217826e+001 6.004217e+001 3.805365e+001 3.782283e+001 7.527915e+001 2.833911e+001 2.901396e+001 3.263216e-001 6.293632e-001 9.536594e-001 1.287764e+000 1.683600e+000 2.097423e+000 1.675037e+000 2.168870e+000 2.117932e+000 2.548390e+000 2.009707e+000 1.733791e+000 5.000000e-002 9.776116e-002 1.668896e-001 2.489044e-001 3.287767e-001 4.102345e-001 2.931471e-001 4.079839e-001 3.779374e-001 5.434101e-001 3.672556e-001 3.681611e-001 
<GCONST> 9.757289e+001
<STATE> 22
<MEAN> 36
-1.732253e+001 -4.221977e+000 1.213413e+001 -5.439995e+000 -1.413157e+000 2.739788e+000 -4.313279e+000 -8.483722e+000 -2.676942e+000 -4.024558e+000 1.519538e+000 -5.893236e+000 1.219885e-001 -1.519213e-001 -4.804027e-001 1.703766e-001 1.851679e-001 -3.115417e-002 -1.594981e-002 1.653802e-001 1.733467e-001 1.161683e-001 1.875272e-002 4.228562e-002 1.570812e-003 2.304301e-002 4.079953e-003 9.299677e-003 -6.759054e-003 -6.270010e-003 4.032290e-002 1.208917e-002 -2.481343e-002 4.461905e-003 -1.911683e-002 2.482043e-002 
<VARIANCE> 36
1.523766e+001 3.481467e+001 4.175771e+001 3.970989e+001 4.208940e+001 4.225898e+001 8.711023e+001 5.174798e+001 4.888642e+001 5.614147e+001 3.576435e+001 4.356141e+001 3.262697e-001 1.040304e+000 1.404933e+000 1.611110e+000 2.154499e+000 2.050816e+000 3.097577e+000 2.404950e+000 2.802392e+000 2.653551e+000 2.567569e+000 2.315985e+000 5.115488e-002 1.804303e-001 2.674680e-001 2.993076e-001 4.328622e-001 4.240023e-001 5.508265e-001 4.350469e-001 5.553310e-001 4.847740e-001 5.342930e-001 4.647675e-001 
<GCONST> 1.049964e+002
<STATE> 23
<MEAN> 36
-1.437958e+001 5.006572e+000 5.410603e+000 1.482837e+000 1.874042e+000 2.061658e+000 5.203303e+000 2.334399e+000 1.646658e+000 2.905422e+000 1.190565e+000 2.371321e+000 3.616544e-001 1.572114e-002 -3.460818e-001 2.168512e-001 4.361201e-002 5.682525e-002 -2.156929e-001 7.846558e-002 -9.067341e-003 -1.595622e-001 1.755674e-002 8.866579e-002 -4.090276e-002 -2.031846e-002 4.894175e-002 -4.116853e-002 -3.800398e-002 3.591976e-002 2.481863e-002 -3.593519e-002 1.351025e-002 -5.673588e-003 -4.787892e-003 -3.636007e-002 
<VARIANCE> 36
1.003836e+001 1.673973e+001 2.391168e+001 2.050192e+001 2.501578e+001 2.677401e+001 4.219773e+001 3.463217e+001 2.881000e+001 2.896430e+001 1.985711e+001 2.198493e+001 3.184263e-001 5.537829e-001 9.343204e-001 1.278078e+000 1.687976e+000 1.948694e+000 1.968503e+000 2.284821e+000 2.146577e+000 2.226309e+000 1.809912e+000 1.756625e+000 5.276101e-002 1.048939e-001 1.791206e-001 2.582773e-001 3.398266e-001 3.766674e-001 3.845939e-001 4.710962e-001 4.410010e-001 4.841993e-001 3.610298e-001 3.513477e-001 
<GCONST> 9.229675e+001
<TRANSP> 25
0.000000e+000 1.000000e+000 0.000000e+000 0.000000e+000 0.000000e+000 0.000000e+000 0.000000e+000 0.000000e+000 0.000000e+000 0.000000e+000 0.000000e+000 0.000000e+000 0.000000e+000 0.000000e+000 0.000000e+000 0.000000e+000 0.000000e+000 0.000000e+000 0.000000e+000 0.000000e+000 0.000000e+000 0.000000e+000 0.000000e+000 0.000000e+000 0.000000e+000 
0.000000e+000 8.441878e-001 1.558121e-001 0.000000e+000 0.000000e+000 0.000000e+000 0.000000e+000 0.000000e+000 0.000000e+000 0.000000e+000 0.000000e+000 0.000000e+000 0.000000e+000 0.000000e+000 0.000000e+000 0.000000e+000 0.000000e+000 0.000000e+000 0.000000e+000 0.000000e+000 0.000000e+000 0.000000e+000 0.000000e+000 0.000000e+000 0.000000e+000 
0.000000e+000 0.000000e+000 8.587557e-001 1.412444e-001 0.000000e+000 0.000000e+000 0.000000e+000 0.000000e+000 0.000000e+000 0.000000e+000 0.000000e+000 0.000000e+000 0.000000e+000 0.000000e+000 0.000000e+000 0.000000e+000 0.000000e+000 0.000000e+000 0.000000e+000 0.000000e+000 0.000000e+000 0.000000e+000 0.000000e+000 0.000000e+000 0.000000e+000 
0.000000e+000 0.000000e+000 0.000000e+000 7.622514e-001 2.377486e-001 0.000000e+000 0.000000e+000 0.000000e+000 0.000000e+000 0.000000e+000 0.000000e+000 0.000000e+000 0.000000e+000 0.000000e+000 0.000000e+000 0.000000e+000 0.000000e+000 0.000000e+000 0.000000e+000 0.000000e+000 0.000000e+000 0.000000e+000 0.000000e+000 0.000000e+000 0.000000e+000 
0.000000e+000 0.000000e+000 0.000000e+000 0.000000e+000 7.499282e-001 2.500719e-001 0.000000e+000 0.000000e+000 0.000000e+000 0.000000e+000 0.000000e+000 0.000000e+000 0.000000e+000 0.000000e+000 0.000000e+000 0.000000e+000 0.000000e+000 0.000000e+000 0.000000e+000 0.000000e+000 0.000000e+000 0.000000e+000 0.000000e+000 0.000000e+000 0.000000e+000 
0.000000e+000 0.000000e+000 0.000000e+000 0.000000e+000 0.000000e+000 9.120745e-001 8.792559e-002 0.000000e+000 0.000000e+000 0.000000e+000 0.000000e+000 0.000000e+000 0.000000e+000 0.000000e+000 0.000000e+000 0.000000e+000 0.000000e+000 0.000000e+000 0.000000e+000 0.000000e+000 0.000000e+000 0.000000e+000 0.000000e+000 0.000000e+000 0.000000e+000 
0.000000e+000 0.000000e+000 0.000000e+000 0.000000e+000 0.000000e+000 0.000000e+000 8.756816e-001 1.243184e-001 0.000000e+000 0.000000e+000 0.000000e+000 0.000000e+000 0.000000e+000 0.000000e+000 0.000000e+000 0.000000e+000 0.000000e+000 0.000000e+000 0.000000e+000 0.000000e+000 0.000000e+000 0.000000e+000 0.000000e+000 0.000000e+000 0.000000e+000 
0.000000e+000 0.000000e+000 0.000000e+000 0.000000e+000 0.000000e+000 0.000000e+000 0.000000e+000 8.983010e-001 1.016990e-001 0.000000e+000 0.000000e+000 0.000000e+000 0.000000e+000 0.000000e+000 0.000000e+000 0.000000e+000 0.000000e+000 0.000000e+000 0.000000e+000 0.000000e+000 0.000000e+000 0.000000e+000 0.000000e+000 0.000000e+000 0.000000e+000 
0.000000e+000 0.000000e+000 0.000000e+000 0.000000e+000 0.000000e+000 0.000000e+000 0.000000e+000 0.000000e+000 9.066826e-001 9.331749e-002 0.000000e+000 0.000000e+000 0.000000e+000 0.000000e+000 0.000000e+000 0.000000e+000 0.000000e+000 0.000000e+000 0.000000e+000 0.000000e+000 0.000000e+000 0.000000e+000 0.000000e+000 0.000000e+000 0.000000e+000 
0.000000e+000 0.000000e+000 0.000000e+000 0.000000e+000 0.000000e+000 0.000000e+000 0.000000e+000 0.000000e+000 0.000000e+000 9.104073e-001 8.959269e-002 0.000000e+000 0.000000e+000 0.000000e+000 0.000000e+000 0.000000e+000 0.000000e+000 0.000000e+000 0.000000e+000 0.000000e+000 0.000000e+000 0.000000e+000 0.000000e+000 0.000000e+000 0.000000e+000 
0.000000e+000 0.000000e+000 0.000000e+000 0.000000e+000 0.000000e+000 0.000000e+000 0.000000e+000 0.000000e+000 0.000000e+000 0.000000e+000 7.946949e-001 2.053051e-001 0.000000e+000 0.000000e+000 0.000000e+000 0.000000e+000 0.000000e+000 0.000000e+000 0.000000e+000 0.000000e+000 0.000000e+000 0.000000e+000 0.000000e+000 0.000000e+000 0.000000e+000 
0.000000e+000 0.000000e+000 0.000000e+000 0.000000e+000 0.000000e+000 0.000000e+000 0.000000e+000 0.000000e+000 0.000000e+000 0.000000e+000 0.000000e+000 8.837038e-001 1.162962e-001 0.000000e+000 0.000000e+000 0.000000e+000 0.000000e+000 0.000000e+000 0.000000e+000 0.000000e+000 0.000000e+000 0.000000e+000 0.000000e+000 0.000000e+000 0.000000e+000 
0.000000e+000 0.000000e+000 0.000000e+000 0.000000e+000 0.000000e+000 0.000000e+000 0.000000e+000 0.000000e+000 0.000000e+000 0.000000e+000 0.000000e+000 0.000000e+000 8.952280e-001 1.047721e-001 0.000000e+000 0.000000e+000 0.000000e+000 0.000000e+000 0.000000e+000 0.000000e+000 0.000000e+000 0.000000e+000 0.000000e+000 0.000000e+000 0.000000e+000 
0.000000e+000 0.000000e+000 0.000000e+000 0.000000e+000 0.000000e+000 0.000000e+000 0.000000e+000 0.000000e+000 0.000000e+000 0.000000e+000 0.000000e+000 0.000000e+000 0.000000e+000 8.799479e-001 1.200522e-001 0.000000e+000 0.000000e+000 0.000000e+000 0.000000e+000 0.000000e+000 0.000000e+000 0.000000e+000 0.000000e+000 0.000000e+000 0.000000e+000 
0.000000e+000 0.000000e+000 0.000000e+000 0.000000e+000 0.000000e+000 0.000000e+000 0.000000e+000 0.000000e+000 0.000000e+000 0.000000e+000 0.000000e+000 0.000000e+000 0.000000e+000 0.000000e+000 8.190614e-001 1.809387e-001 0.000000e+000 0.000000e+000 0.000000e+000 0.000000e+000 0.000000e+000 0.000000e+000 0.000000e+000 0.000000e+000 0.000000e+000 
0.000000e+000 0.000000e+000 0.000000e+000 0.000000e+000 0.000000e+000 0.000000e+000 0.000000e+000 0.000000e+000 0.000000e+000 0.000000e+000 0.000000e+000 0.000000e+000 0.000000e+000 0.000000e+000 0.000000e+000 8.712250e-001 1.287750e-001 0.000000e+000 0.000000e+000 0.000000e+000 0.000000e+000 0.000000e+000 0.000000e+000 0.000000e+000 0.000000e+000 
0.000000e+000 0.000000e+000 0.000000e+000 0.000000e+000 0.000000e+000 0.000000e+000 0.000000e+000 0.000000e+000 0.000000e+000 0.000000e+000 0.000000e+000 0.000000e+000 0.000000e+000 0.000000e+000 0.000000e+000 0.000000e+000 8.505142e-001 1.494858e-001 0.000000e+000 0.000000e+000 0.000000e+000 0.000000e+000 0.000000e+000 0.000000e+000 0.000000e+000 
0.000000e+000 0.000000e+000 0.000000e+000 0.000000e+000 0.000000e+000 0.000000e+000 0.000000e+000 0.000000e+000 0.000000e+000 0.000000e+000 0.000000e+000 0.000000e+000 0.000000e+000 0.000000e+000 0.000000e+000 0.000000e+000 0.000000e+000 8.265065e-001 1.734935e-001 0.000000e+000 0.000000e+000 0.000000e+000 0.000000e+000 0.000000e+000 0.000000e+000 
0.000000e+000 0.000000e+000 0.000000e+000 0.000000e+000 0.000000e+000 0.000000e+000 0.000000e+000 0.000000e+000 0.000000e+000 0.000000e+000 0.000000e+000 0.000000e+000 0.000000e+000 0.000000e+000 0.000000e+000 0.000000e+000 0.000000e+000 0.000000e+000 7.984576e-001 2.015425e-001 0.000000e+000 0.000000e+000 0.000000e+000 0.000000e+000 0.000000e+000 
0.000000e+000 0.000000e+000 0.000000e+000 0.000000e+000 0.000000e+000 0.000000e+000 0.000000e+000 0.000000e+000 0.000000e+000 0.000000e+000 0.000000e+000 0.000000e+000 0.000000e+000 0.000000e+000 0.000000e+000 0.000000e+000 0.000000e+000 0.000000e+000 0.000000e+000 8.928940e-001 1.071060e-001 0.000000e+000 0.000000e+000 0.000000e+000 0.000000e+000 
0.000000e+000 0.000000e+000 0.000000e+000 0.000000e+000 0.000000e+000 0.000000e+000 0.000000e+000 0.000000e+000 0.000000e+000 0.000000e+000 0.000000e+000 0.000000e+000 0.000000e+000 0.000000e+000 0.000000e+000 0.000000e+000 0.000000e+000 0.000000e+000 0.000000e+000 0.000000e+000 8.926055e-001 1.073946e-001 0.000000e+000 0.000000e+000 0.000000e+000 
0.000000e+000 0.000000e+000 0.000000e+000 0.000000e+000 0.000000e+000 0.000000e+000 0.000000e+000 0.000000e+000 0.000000e+000 0.000000e+000 0.000000e+000 0.000000e+000 0.000000e+000 0.000000e+000 0.000000e+000 0.000000e+000 0.000000e+000 0.000000e+000 0.000000e+000 0.000000e+000 0.000000e+000 8.458178e-001 1.541822e-001 0.000000e+000 0.000000e+000 
0.000000e+000 0.000000e+000 0.000000e+000 0.000000e+000 0.000000e+000 0.000000e+000 0.000000e+000 0.000000e+000 0.000000e+000 0.000000e+000 0.000000e+000 0.000000e+000 0.000000e+000 0.000000e+000 0.000000e+000 0.000000e+000 0.000000e+000 0.000000e+000 0.000000e+000 0.000000e+000 0.000000e+000 0.000000e+000 8.816713e-001 1.183287e-001 0.000000e+000 
0.000000e+000 0.000000e+000 0.000000e+000 0.000000e+000 0.000000e+000 0.000000e+000 0.000000e+000 0.000000e+000 0.000000e+000 0.000000e+000 0.000000e+000 0.000000e+000 0.000000e+000 0.000000e+000 0.000000e+000 0.000000e+000 0.000000e+000 0.000000e+000 0.000000e+000 0.000000e+000 0.000000e+000 0.000000e+000 0.000000e+000 8.714729e-001 1.285271e-001 
0.000000e+000 0.000000e+000 0.000000e+000 0.000000e+000 0.000000e+000 0.000000e+000 0.000000e+000 0.000000e+000 0.000000e+000 0.000000e+000 0.000000e+000 0.000000e+000 0.000000e+000 0.000000e+000 0.000000e+000 0.000000e+000 0.000000e+000 0.000000e+000 0.000000e+000 0.000000e+000 0.000000e+000 0.000000e+000 0.000000e+000 0.000000e+000 0.000000e+000 
