<HMMNAME> 9
<HMMSTATES> 5
<STATE> 1
<MEAN> 36
-1.075138e+001 -7.061883e+000 -2.006145e+000 2.595968e+000 2.935770e+000 1.028738e-002 2.180722e+000 4.863597e+000 -1.694364e+000 -2.369713e+000 1.138275e+000 2.671068e+000 -6.554961e-002 1.607789e-001 8.721228e-003 4.238175e-002 -9.879683e-002 1.195584e-001 9.642248e-002 -5.756353e-002 1.078205e-001 1.734691e-002 6.880966e-004 -1.254375e-002 3.301872e-003 3.333690e-002 3.631169e-003 -9.067050e-003 4.551771e-003 -1.474760e-002 -5.007059e-004 -2.194741e-002 -1.300264e-002 -1.002676e-002 -3.123574e-002 -5.008555e-003 
<VARIANCE> 36
1.505110e+001 3.219400e+001 2.306210e+001 2.094351e+001 3.277613e+001 2.900292e+001 1.660947e+001 1.874053e+001 1.881481e+001 1.396669e+001 1.359487e+001 9.566148e+000 1.623047e-001 6.521134e-001 5.865216e-001 5.000515e-001 7.066971e-001 8.883205e-001 6.799150e-001 8.772252e-001 1.279167e+000 1.106637e+000 9.982847e-001 8.911153e-001 5.000000e-002 8.474964e-002 9.948522e-002 7.575527e-002 1.076820e-001 1.533519e-001 1.185360e-001 1.521452e-001 2.476632e-001 2.203697e-001 2.017704e-001 1.808679e-001 
<GCONST> 7.265001e+001
<STATE> 2
<MEAN> 36
-1.255926e+001 -5.837525e-001 -2.110845e-001 2.105284e+000 1.866840e+000 2.307780e+000 2.362732e+000 2.026204e+000 1.761526e+000 1.093045e+000 1.094993e+000 8.394336e-001 -1.083811e-002 -1.879641e-004 2.417855e-002 -1.162891e-003 1.396196e-002 7.925087e-004 3.286648e-003 1.836267e-002 -1.820701e-002 4.784324e-003 1.456124e-002 8.621266e-004 -1.513183e-003 -1.693433e-002 4.472358e-003 -5.894497e-003 1.940522e-003 -4.798691e-003 -5.607672e-003 2.070639e-002 -3.045134e-003 -3.560944e-003 1.193405e-002 1.501135e-003 
<VARIANCE> 36
8.691317e-001 2.179811e+000 3.131105e+000 4.197266e+000 5.461210e+000 6.671637e+000 8.454167e+000 9.208325e+000 9.324600e+000 9.406087e+000 8.564900e+000 8.652681e+000 1.121560e-001 2.361774e-001 4.021424e-001 4.933443e-001 6.098535e-001 7.620152e-001 9.139154e-001 1.169454e+000 9.971359e-001 1.067227e+000 1.019903e+000 1.045021e+000 5.000000e-002 5.148960e-002 8.213558e-002 1.032376e-001 1.260599e-001 1.566626e-001 1.902717e-001 2.434596e-001 2.023746e-001 2.169614e-001 2.147224e-001 2.224640e-001 
<GCONST> 5.638978e+001
<STATE> 3
<MEAN> 36
-8.419041e+000 -7.195542e+000 -3.201862e+000 1.339180e+000 1.066762e+001 5.627261e+000 1.266825e+000 3.815222e+000 -4.846810e+000 -6.405220e+000 -1.247008e+000 1.943214e+000 7.635567e-002 -9.706539e-003 -1.041775e-001 -2.293292e-002 6.880157e-002 6.389484e-002 4.665570e-003 -3.806417e-002 -2.513393e-002 -7.811444e-002 -6.754760e-002 1.058971e-003 -1.163649e-003 1.257372e-002 -9.145455e-004 2.611401e-003 -7.382650e-003 3.715132e-003 -8.078313e-004 -1.667562e-002 3.441866e-003 5.636392e-003 -6.895492e-003 -8.624512e-004 
<VARIANCE> 36
2.671606e+001 2.575374e+001 4.697724e+001 1.203487e+001 4.567930e+001 3.103009e+001 1.511129e+001 1.941945e+001 1.946481e+001 3.268176e+001 2.679936e+001 1.190670e+001 3.804639e-001 7.933191e-001 1.066541e+000 7.248478e-001 1.063043e+000 1.084470e+000 1.015024e+000 9.223767e-001 9.715347e-001 1.161408e+000 1.011450e+000 7.913560e-001 5.000000e-002 9.862935e-002 1.467517e-001 1.447027e-001 1.539924e-001 1.716308e-001 1.932427e-001 1.727963e-001 1.686824e-001 1.997336e-001 1.732292e-001 1.504886e-001 
<GCONST> 7.947888e+001
<TRANSP> 5
0.000000e+000 1.000000e+000 0.000000e+000 0.000000e+000 0.000000e+000 
0.000000e+000 9.348372e-001 6.516284e-002 0.000000e+000 0.000000e+000 
0.000000e+000 0.000000e+000 9.870591e-001 1.294090e-002 0.000000e+000 
0.000000e+000 0.000000e+000 0.000000e+000 9.879583e-001 1.204155e-002 
0.000000e+000 0.000000e+000 0.000000e+000 0.000000e+000 0.000000e+000 
