<HMMNAME> S
<HMMSTATES> 25
<STATE> 1
<MEAN> 36
-1.109363e+001 2.759204e+000 4.212115e+000 3.634130e+000 2.974359e+000 1.072811e+000 3.167003e+000 4.863459e+000 1.667585e+000 6.356877e-001 -3.154374e-001 2.585807e+000 5.971940e-002 7.706687e-002 -1.058202e-001 1.369154e-001 6.407504e-002 1.261552e-001 -4.334964e-002 1.290278e-001 1.047003e-001 3.101397e-002 4.143004e-002 7.252912e-002 5.310570e-003 2.427335e-002 -7.853035e-003 -3.315248e-002 -2.949002e-002 -5.266340e-004 -1.810511e-002 -3.201455e-002 -1.823067e-002 -1.729829e-002 4.191581e-002 2.694885e-002 
<VARIANCE> 36
1.715890e+001 1.707519e+001 2.670420e+001 3.260238e+001 3.708717e+001 3.972404e+001 3.918536e+001 3.674640e+001 3.369181e+001 3.549763e+001 2.859186e+001 2.262297e+001 3.782801e-001 7.373320e-001 8.910867e-001 1.560450e+000 2.063500e+000 2.125205e+000 2.364414e+000 2.374237e+000 2.500084e+000 2.154742e+000 2.505622e+000 1.847069e+000 5.906857e-002 1.382229e-001 1.512159e-001 3.063157e-001 3.987998e-001 3.733514e-001 4.254266e-001 4.560013e-001 5.026689e-001 4.270326e-001 4.938787e-001 3.552979e-001 
<GCONST> 9.750815e+001
<STATE> 2
<MEAN> 36
-1.024123e+001 4.360959e+000 2.267142e+000 3.729594e+000 2.282404e+000 3.037988e+000 3.783424e+000 4.347779e+000 1.750221e+000 1.169029e+000 1.347719e+000 2.932890e+000 -3.377393e-002 2.764788e-002 -1.569896e-002 1.478388e-002 -2.712544e-003 5.589201e-002 5.249825e-002 7.860540e-002 5.353402e-002 5.250997e-002 1.009803e-001 -8.247901e-003 -4.792552e-003 -3.624369e-003 1.585591e-002 2.761921e-002 2.674273e-002 2.382408e-003 1.193698e-002 1.330612e-002 1.910166e-002 -3.192110e-003 -2.009166e-002 -2.907676e-002 
<VARIANCE> 36
3.488228e+000 5.682360e+000 1.112037e+001 1.299721e+001 1.711068e+001 2.312769e+001 2.314325e+001 2.322868e+001 2.196408e+001 2.023499e+001 1.891656e+001 1.584055e+001 3.371614e-001 4.864867e-001 9.539960e-001 1.415675e+000 1.797546e+000 2.187398e+000 2.142372e+000 2.266682e+000 2.339659e+000 2.380588e+000 1.935759e+000 1.543829e+000 7.188844e-002 1.014813e-001 2.058916e-001 2.950467e-001 3.647938e-001 4.305372e-001 4.107712e-001 4.402563e-001 4.595664e-001 4.902355e-001 3.977072e-001 3.163610e-001 
<GCONST> 8.759932e+001
<STATE> 3
<MEAN> 36
-1.025893e+001 5.066144e+000 2.392329e+000 4.483219e+000 2.714505e+000 3.803593e+000 3.457208e+000 4.633105e+000 2.778745e+000 2.100670e+000 1.581671e+000 2.251944e+000 4.063940e-002 7.435191e-002 1.935871e-002 8.884546e-003 7.902973e-003 5.365446e-002 4.194042e-002 4.221819e-002 -6.204786e-003 -7.544992e-002 -8.971039e-002 -6.164113e-002 2.535933e-002 9.333624e-003 -1.626019e-002 -4.602385e-002 -5.664021e-002 -4.261844e-002 -1.070441e-002 -3.240692e-002 -4.000178e-002 -3.779716e-002 -2.215056e-002 1.503518e-002 
<VARIANCE> 36
1.500482e+000 3.160580e+000 5.255123e+000 8.891561e+000 1.351354e+001 1.910465e+001 2.194854e+001 2.428447e+001 2.072566e+001 1.947897e+001 1.855453e+001 1.784836e+001 1.991317e-001 3.335162e-001 5.400138e-001 9.815268e-001 1.428142e+000 2.041984e+000 2.350448e+000 2.677698e+000 2.203954e+000 2.371957e+000 2.196726e+000 2.227944e+000 5.000000e-002 6.438488e-002 1.077279e-001 2.058223e-001 2.943179e-001 4.303041e-001 4.850451e-001 5.652041e-001 4.573887e-001 4.942300e-001 4.499702e-001 4.691692e-001 
<GCONST> 8.205484e+001
<STATE> 4
<MEAN> 36
-8.876790e+000 6.375585e+000 2.312186e+000 3.071989e+000 9.866117e-001 2.682462e+000 3.489707e+000 4.001822e+000 1.152633e+000 -9.228794e-001 -9.934035e-001 1.685642e+000 2.417369e-001 2.459765e-002 -3.885708e-001 -6.420937e-001 -9.330750e-001 -8.232880e-001 -5.573823e-001 -6.541004e-001 -1.774228e-001 1.342632e-002 3.472629e-001 3.923146e-001 -2.292322e-001 -2.359624e-001 -1.504210e-002 2.244723e-001 2.531745e-001 1.761954e-001 -6.342485e-002 -7.799307e-002 1.750100e-001 4.921453e-001 4.441137e-001 1.812947e-001 
<VARIANCE> 36
1.321067e+000 3.239848e+000 6.523488e+000 7.086769e+000 1.283098e+001 1.416620e+001 1.578312e+001 1.269385e+001 1.734341e+001 1.484772e+001 1.562769e+001 1.475414e+001 1.230014e-001 3.502366e-001 5.347331e-001 9.187532e-001 1.247469e+000 1.553646e+000 2.199956e+000 2.309178e+000 2.092158e+000 1.707924e+000 1.935186e+000 1.459484e+000 5.000000e-002 5.621589e-002 1.236763e-001 1.671880e-001 2.607691e-001 2.659649e-001 3.800999e-001 2.928698e-001 3.734024e-001 3.258813e-001 3.678722e-001 3.056171e-001 
<GCONST> 7.478032e+001
<STATE> 5
<MEAN> 36
-9.943540e+000 5.060333e+000 1.642677e+000 3.922858e+000 2.308639e+000 4.014149e+000 3.834795e+000 4.114366e+000 2.060692e+000 1.696076e+000 1.622108e+000 2.504100e+000 -2.526813e-002 -3.053115e-002 1.012893e-002 3.302843e-002 2.263528e-002 1.861870e-002 -2.922240e-002 -2.317720e-003 2.230436e-002 6.892735e-002 5.043908e-002 2.276339e-003 -1.105877e-002 -8.721969e-004 2.076032e-002 2.760773e-002 2.496849e-002 1.112342e-002 -3.417931e-003 3.965469e-004 -6.366103e-004 2.200007e-004 -5.953433e-003 -1.974842e-003 
<VARIANCE> 36
1.594526e+000 3.125740e+000 6.107804e+000 1.006805e+001 1.350481e+001 1.742414e+001 1.973489e+001 1.851928e+001 1.790150e+001 1.671495e+001 1.631228e+001 1.329528e+001 2.185061e-001 3.613970e-001 6.598780e-001 1.221933e+000 1.549040e+000 1.774072e+000 1.992228e+000 1.787878e+000 1.910580e+000 1.765523e+000 1.861954e+000 1.367716e+000 5.000000e-002 7.451212e-002 1.411498e-001 2.717915e-001 3.238762e-001 3.397501e-001 3.718952e-001 3.499829e-001 3.819823e-001 3.441838e-001 3.781932e-001 2.682321e-001 
<GCONST> 7.859286e+001
<STATE> 6
<MEAN> 36
-1.027134e+001 4.713238e+000 2.051142e+000 3.539385e+000 8.414287e-001 2.141984e+000 1.526786e+000 3.112416e+000 2.857539e+000 3.656736e+000 2.989671e+000 3.019331e+000 -5.954228e-001 -3.167912e-001 3.715787e-001 1.033423e+000 1.235507e+000 9.245567e-001 2.801781e-001 -2.078125e-001 -2.318789e-002 3.147726e-001 3.794848e-001 1.205595e-001 4.506493e-002 1.073106e-001 2.482821e-002 8.814279e-002 2.563904e-001 2.672015e-001 3.490916e-001 1.331620e-001 -1.803460e-001 -4.013802e-001 -3.320307e-001 -1.379462e-001 
<VARIANCE> 36
1.334971e+000 2.636779e+000 5.945360e+000 9.366628e+000 1.175394e+001 1.453025e+001 1.940265e+001 2.213051e+001 2.080546e+001 1.887077e+001 1.842682e+001 1.464015e+001 1.656916e-001 3.123323e-001 5.738907e-001 1.099211e+000 1.524315e+000 2.067762e+000 2.799548e+000 2.245696e+000 2.504462e+000 2.304735e+000 2.260581e+000 1.623247e+000 5.000000e-002 6.320563e-002 1.076020e-001 1.814448e-001 3.169850e-001 3.804564e-001 3.902021e-001 3.956871e-001 4.692594e-001 3.791942e-001 4.697333e-001 3.012735e-001 
<GCONST> 7.947417e+001
<STATE> 7
<MEAN> 36
-1.148559e+001 4.165534e+000 3.030299e+000 6.774883e+000 5.607774e+000 6.013124e+000 3.842875e+000 4.048192e+000 2.959733e+000 2.917565e+000 2.399400e+000 2.425001e+000 1.289433e-002 2.519904e-001 2.846841e-001 5.911846e-001 6.884852e-001 3.506239e-001 2.164934e-001 -2.635844e-001 -7.150708e-001 -8.566347e-001 -5.804015e-001 -1.012544e-001 2.997024e-001 1.958212e-001 -1.649709e-001 -5.259962e-001 -5.999804e-001 -4.250842e-001 4.962066e-002 2.047940e-001 -4.951844e-002 -3.012803e-001 -3.040653e-001 -6.931858e-002 
<VARIANCE> 36
1.768944e+000 3.115189e+000 6.772842e+000 1.180859e+001 1.419024e+001 2.033116e+001 2.397081e+001 2.189132e+001 2.292245e+001 1.643958e+001 2.159044e+001 1.551278e+001 1.239015e-001 3.490274e-001 6.133250e-001 8.344931e-001 1.313353e+000 1.637969e+000 1.606201e+000 1.751971e+000 1.812059e+000 1.864355e+000 1.902748e+000 1.305426e+000 5.000000e-002 6.721249e-002 1.115200e-001 1.963209e-001 2.732901e-001 4.164416e-001 4.586395e-001 4.260380e-001 5.387182e-001 3.696582e-001 5.187819e-001 3.091661e-001 
<GCONST> 7.927554e+001
<STATE> 8
<MEAN> 36
-1.133472e+001 4.683673e+000 3.518842e+000 7.548906e+000 6.541369e+000 7.117741e+000 5.547372e+000 3.767270e+000 9.555002e-001 6.520716e-001 6.296055e-001 1.979982e+000 4.369903e-001 4.224485e-001 -1.047643e-001 -4.292798e-001 -2.699296e-001 9.001817e-002 7.929876e-001 5.454463e-001 -2.781338e-001 -1.068201e+000 -1.055115e+000 -3.397098e-001 1.871782e-001 3.321363e-002 -2.494868e-001 -6.173234e-001 -7.369718e-001 -5.565629e-001 -2.161453e-001 1.702404e-001 2.622178e-001 2.018983e-001 8.670375e-002 3.768658e-002 
<VARIANCE> 36
2.172719e+000 3.814568e+000 7.898185e+000 1.309995e+001 1.711887e+001 2.548738e+001 2.993152e+001 2.092146e+001 2.239464e+001 2.200197e+001 2.062699e+001 1.490549e+001 1.165074e-001 3.370106e-001 6.177794e-001 8.315667e-001 1.494675e+000 1.894125e+000 1.704079e+000 1.882407e+000 2.382547e+000 1.831384e+000 2.420934e+000 1.223599e+000 5.000000e-002 7.938642e-002 1.312406e-001 2.048887e-001 3.003676e-001 4.772837e-001 5.265448e-001 4.516578e-001 4.567058e-001 4.141162e-001 4.323991e-001 3.158615e-001 
<GCONST> 8.204590e+001
<STATE> 9
<MEAN> 36
-9.663699e+000 5.668551e+000 1.835162e+000 3.369918e+000 2.133709e+000 3.836286e+000 4.171834e+000 4.422216e+000 1.770344e+000 7.422904e-001 4.258792e-001 2.286807e+000 9.191423e-002 1.363812e-002 -2.073900e-001 -4.521106e-001 -5.628439e-001 -4.928748e-001 -1.714375e-001 1.636389e-001 2.292351e-001 2.251235e-001 1.446048e-001 1.245074e-001 -1.107297e-001 -1.189028e-001 2.820991e-002 1.498771e-001 1.507325e-001 7.097078e-002 -9.150941e-002 -3.454831e-002 1.151684e-001 2.275833e-001 1.812751e-001 -7.393826e-003 
<VARIANCE> 36
1.700577e+000 4.572678e+000 7.071353e+000 9.749012e+000 1.588975e+001 2.076264e+001 2.234935e+001 2.248502e+001 1.996512e+001 1.925971e+001 1.920788e+001 1.372276e+001 2.621578e-001 5.392789e-001 8.253146e-001 1.531965e+000 2.340106e+000 2.798040e+000 2.444196e+000 2.331342e+000 2.446433e+000 2.347326e+000 2.215190e+000 1.507490e+000 5.000000e-002 1.188176e-001 1.696665e-001 2.905705e-001 4.502884e-001 5.161882e-001 4.201270e-001 4.683586e-001 5.132889e-001 5.055166e-001 4.696129e-001 2.864612e-001 
<GCONST> 8.626822e+001
<STATE> 10
<MEAN> 36
-1.018802e+001 4.866925e+000 1.492570e+000 2.662640e+000 1.009670e-002 7.425966e-001 2.037410e+000 4.228765e+000 3.038123e+000 2.970715e+000 2.791055e+000 4.012808e+000 -6.032662e-001 -6.421793e-001 6.660738e-002 7.469351e-001 9.971185e-001 7.773182e-001 2.073819e-001 4.171420e-001 8.698288e-001 1.113494e+000 6.779589e-001 -3.376343e-001 6.802541e-003 7.066766e-002 1.607762e-001 3.344034e-001 4.847689e-001 5.162979e-001 1.889807e-001 -1.019406e-001 -2.406881e-001 -2.948837e-001 -2.789990e-001 -2.535828e-001 
<VARIANCE> 36
1.655447e+000 2.921259e+000 9.099235e+000 7.704172e+000 1.103500e+001 1.476833e+001 1.907417e+001 1.786886e+001 2.080642e+001 1.880306e+001 1.858963e+001 1.362424e+001 1.395640e-001 3.742227e-001 6.991482e-001 1.008826e+000 1.439639e+000 2.137836e+000 1.950326e+000 2.189625e+000 2.149363e+000 1.735212e+000 2.100030e+000 1.416456e+000 5.000000e-002 6.659814e-002 1.648258e-001 1.931281e-001 2.766423e-001 3.313750e-001 3.851617e-001 3.401134e-001 4.489489e-001 4.158905e-001 4.463969e-001 3.269252e-001 
<GCONST> 7.892245e+001
<STATE> 11
<MEAN> 36
-1.132789e+001 3.959221e+000 2.019353e+000 5.492362e+000 4.645346e+000 5.559644e+000 4.299788e+000 5.589558e+000 4.312930e+000 3.864897e+000 1.917118e+000 1.102872e+000 6.675773e-002 8.919361e-002 2.485433e-001 5.294614e-001 6.225615e-001 5.864264e-001 -8.811534e-002 -3.708310e-001 -3.963097e-001 -3.635192e-001 -3.727985e-001 -4.886456e-001 2.322119e-001 2.516744e-001 -5.552321e-003 -2.654969e-001 -3.589052e-001 -2.277396e-001 -5.072266e-003 -1.187820e-001 -3.528595e-001 -4.617913e-001 -2.021022e-001 1.784512e-001 
<VARIANCE> 36
1.763648e+000 3.149383e+000 7.333614e+000 1.047361e+001 1.340998e+001 2.210920e+001 2.476027e+001 2.201195e+001 2.028487e+001 1.725815e+001 1.631625e+001 1.439038e+001 2.006517e-001 3.885975e-001 7.445929e-001 9.008386e-001 1.274411e+000 1.524695e+000 1.909441e+000 1.929393e+000 2.092118e+000 2.228002e+000 2.199802e+000 1.536802e+000 5.000000e-002 7.203959e-002 1.489079e-001 2.281705e-001 3.192746e-001 4.230600e-001 4.587937e-001 4.018126e-001 4.304028e-001 3.647192e-001 3.983233e-001 3.040556e-001 
<GCONST> 8.064016e+001
<STATE> 12
<MEAN> 36
-1.007120e+001 5.186204e+000 2.154400e+000 4.452502e+000 2.401146e+000 3.720673e+000 3.820024e+000 4.494524e+000 2.331683e+000 1.840795e+000 1.528796e+000 2.239618e+000 1.844396e-002 3.368013e-002 5.650070e-003 -3.238717e-002 -3.261968e-002 -6.893392e-003 1.152300e-002 4.131314e-002 -7.818297e-003 -6.803478e-002 -4.261863e-002 8.944465e-003 2.073452e-003 1.473656e-003 -1.169843e-002 -2.237290e-002 -1.499208e-002 -1.506502e-002 -1.055334e-002 -4.153200e-003 1.063121e-002 1.224868e-002 5.809220e-003 9.893343e-003 
<VARIANCE> 36
1.687982e+000 3.065597e+000 5.958342e+000 8.379747e+000 1.253963e+001 1.643394e+001 2.039420e+001 2.079978e+001 1.887888e+001 1.910434e+001 1.689948e+001 1.512961e+001 2.278029e-001 3.588509e-001 6.633997e-001 8.930212e-001 1.349374e+000 1.651470e+000 2.088224e+000 2.249077e+000 2.083983e+000 2.234683e+000 1.957074e+000 1.674730e+000 5.000000e-002 7.164519e-002 1.393837e-001 1.816723e-001 2.677257e-001 3.107374e-001 3.981680e-001 4.589984e-001 4.192313e-001 4.629516e-001 4.068197e-001 3.455536e-001 
<GCONST> 7.947876e+001
<STATE> 13
<MEAN> 36
-9.091858e+000 6.544193e+000 2.190854e+000 3.080930e+000 1.585760e+000 3.473667e+000 3.033932e+000 4.892940e+000 1.974373e+000 -6.698541e-001 -1.380629e+000 1.414637e+000 2.876019e-001 1.045304e-001 -4.918162e-001 -9.311355e-001 -1.012007e+000 -8.920296e-001 -8.344602e-001 -8.856300e-001 -1.397368e-001 4.342537e-001 6.410965e-001 7.701610e-001 -2.320029e-001 -2.675691e-001 -9.571595e-003 2.618624e-001 1.892959e-001 1.316791e-001 9.546238e-002 -9.064731e-002 1.523777e-001 4.860552e-001 4.440331e-001 1.428850e-001 
<VARIANCE> 36
1.659491e+000 2.892067e+000 7.622454e+000 7.390697e+000 1.144269e+001 1.737971e+001 1.437000e+001 1.650377e+001 1.803780e+001 1.547778e+001 1.331064e+001 1.324836e+001 1.322748e-001 3.941567e-001 6.113949e-001 7.964945e-001 1.153159e+000 1.331869e+000 1.584392e+000 1.805579e+000 2.027812e+000 2.036233e+000 1.684698e+000 1.338996e+000 5.000000e-002 5.910053e-002 1.521802e-001 1.783367e-001 2.554971e-001 3.573637e-001 2.776945e-001 3.987689e-001 4.306029e-001 3.813478e-001 3.219254e-001 2.953245e-001 
<GCONST> 7.518247e+001
<STATE> 14
<MEAN> 36
-9.880074e+000 5.199499e+000 8.609592e-001 2.248566e+000 4.588822e-001 2.174340e+000 1.962292e+000 3.014872e+000 2.366965e+000 2.984940e+000 3.796525e+000 4.543101e+000 -5.433846e-001 -4.979249e-001 8.468882e-002 7.062758e-001 7.278805e-001 5.782666e-001 4.976038e-001 -2.403417e-002 3.062012e-001 8.640271e-001 7.296619e-001 1.878344e-001 -5.884481e-002 -3.226970e-003 2.336235e-001 3.907959e-001 3.930531e-001 2.936612e-001 2.868486e-001 2.558049e-001 -5.870926e-002 -2.487582e-001 -3.689986e-001 -3.914391e-001 
<VARIANCE> 36
1.428117e+000 3.089068e+000 7.082094e+000 8.244290e+000 8.936449e+000 1.154972e+001 1.504008e+001 1.931777e+001 1.780953e+001 1.603946e+001 1.311009e+001 1.116132e+001 1.140189e-001 2.720522e-001 7.419242e-001 1.005513e+000 1.217356e+000 1.964292e+000 1.696454e+000 1.985591e+000 2.035647e+000 1.664387e+000 1.837211e+000 1.562213e+000 5.000000e-002 7.435623e-002 1.284459e-001 1.899217e-001 2.188371e-001 2.592513e-001 2.987903e-001 3.630681e-001 3.688823e-001 3.731807e-001 3.329634e-001 2.672613e-001 
<GCONST> 7.445799e+001
<STATE> 15
<MEAN> 36
-1.020791e+001 5.164216e+000 2.109930e+000 4.521017e+000 2.739753e+000 4.080820e+000 3.701663e+000 4.232895e+000 2.378870e+000 2.087919e+000 1.603253e+000 2.161606e+000 2.664961e-002 3.236109e-002 2.136419e-002 7.465127e-003 1.550093e-002 3.781138e-002 4.514991e-002 1.471898e-002 -4.119185e-002 -7.385526e-002 -1.093810e-001 -7.682026e-002 2.139997e-002 1.331572e-002 -2.142250e-002 -6.192491e-002 -5.403707e-002 -2.688699e-002 -1.307560e-002 -4.623687e-003 -1.479931e-002 -2.286021e-002 -4.164691e-003 2.101257e-002 
<VARIANCE> 36
1.600560e+000 3.040912e+000 6.228098e+000 1.011718e+001 1.353264e+001 1.890712e+001 2.016428e+001 1.944712e+001 1.967816e+001 1.788044e+001 1.757378e+001 1.517318e+001 1.940657e-001 3.322010e-001 6.798922e-001 1.197957e+000 1.481595e+000 2.023956e+000 1.991490e+000 1.963453e+000 2.203917e+000 1.946292e+000 2.019297e+000 1.757079e+000 5.000000e-002 7.050176e-002 1.406725e-001 2.582183e-001 3.111115e-001 4.211631e-001 3.960796e-001 3.794747e-001 4.630744e-001 3.984102e-001 4.204588e-001 3.642665e-001 
<GCONST> 8.063536e+001
<STATE> 16
<MEAN> 36
-9.126730e+000 5.938850e+000 1.549297e+000 2.836086e+000 1.431761e+000 4.315312e+000 4.466945e+000 3.964975e+000 7.868603e-001 3.254881e-001 -2.875068e-001 1.655420e+000 5.106426e-002 -9.086016e-002 -3.680690e-001 -9.433048e-001 -8.203996e-001 -5.589065e-001 -3.267568e-001 -1.998641e-001 -2.381698e-002 1.708215e-001 5.193587e-001 5.541602e-001 -2.501006e-001 -1.718122e-001 1.339770e-001 2.986519e-001 2.380932e-001 -5.131488e-002 -1.818254e-001 5.762122e-002 3.493568e-001 3.022566e-001 3.574380e-001 1.266465e-001 
<VARIANCE> 36
1.831712e+000 2.665708e+000 5.546275e+000 8.755061e+000 1.057337e+001 1.518895e+001 1.449289e+001 1.644623e+001 1.535096e+001 1.481997e+001 1.460535e+001 1.565226e+001 2.269557e-001 3.990941e-001 5.711527e-001 9.275480e-001 1.252203e+000 1.934602e+000 2.128304e+000 1.898897e+000 2.295979e+000 2.021002e+000 1.547959e+000 1.506069e+000 5.000000e-002 7.314997e-002 1.234759e-001 2.111775e-001 2.599334e-001 3.118785e-001 2.903813e-001 3.646689e-001 3.740999e-001 3.882451e-001 2.979946e-001 3.541493e-001 
<GCONST> 7.647601e+001
<STATE> 17
<MEAN> 36
-1.022095e+001 4.837263e+000 9.999557e-001 1.347401e+000 2.561770e-001 2.569856e+000 3.025619e+000 3.860743e+000 2.864867e+000 2.922133e+000 2.928584e+000 4.054530e+000 -6.445820e-001 -4.978104e-001 2.923526e-001 5.797143e-001 7.193017e-001 3.316180e-001 1.637133e-001 5.275059e-001 9.401766e-001 6.112193e-001 8.210342e-001 3.245007e-001 -4.585412e-002 4.584303e-002 3.062036e-001 5.455299e-001 3.930682e-001 1.610277e-001 1.104470e-002 3.668720e-002 -1.766981e-002 -1.903310e-001 -2.607773e-001 -2.878969e-001 
<VARIANCE> 36
2.878594e+000 3.764326e+000 9.051215e+000 8.907189e+000 1.174017e+001 1.469562e+001 1.576947e+001 1.562953e+001 2.199938e+001 2.213926e+001 1.270373e+001 1.417180e+001 1.617487e-001 4.414903e-001 5.954218e-001 1.050076e+000 1.381898e+000 1.778635e+000 1.679979e+000 2.192574e+000 2.120870e+000 2.211243e+000 1.658481e+000 1.761039e+000 5.000000e-002 7.319275e-002 1.258935e-001 1.561738e-001 2.599488e-001 3.410802e-001 3.751370e-001 3.307986e-001 3.822052e-001 4.176979e-001 2.759737e-001 3.457756e-001 
<GCONST> 7.845359e+001
<STATE> 18
<MEAN> 36
-1.104050e+001 4.537832e+000 1.962322e+000 3.044921e+000 1.862960e+000 3.537971e+000 2.605829e+000 3.499541e+000 2.929990e+000 3.046498e+000 3.229510e+000 3.708453e+000 -3.679038e-001 -1.581666e-001 7.101430e-001 1.055409e+000 5.893348e-001 -1.987689e-001 -5.159705e-001 -1.682859e-001 1.698524e-001 -7.166734e-002 2.573955e-001 -3.362903e-003 1.743292e-001 1.632694e-001 1.070179e-001 1.154274e-001 2.064054e-002 3.289012e-002 5.625331e-002 -4.408718e-002 -2.358340e-001 -3.223249e-001 -4.501839e-001 -2.801126e-001 
<VARIANCE> 36
2.741210e+000 4.092471e+000 8.769403e+000 1.264734e+001 1.056909e+001 1.877944e+001 2.015294e+001 2.269171e+001 2.452407e+001 2.147905e+001 1.756809e+001 1.356491e+001 1.614383e-001 4.836639e-001 6.896640e-001 1.144416e+000 1.556087e+000 1.766171e+000 1.896563e+000 1.964104e+000 1.803078e+000 2.101590e+000 1.578047e+000 1.887101e+000 5.000000e-002 6.664715e-002 1.147364e-001 1.765272e-001 2.262299e-001 3.630098e-001 4.216255e-001 4.382998e-001 4.910553e-001 4.294928e-001 3.391220e-001 3.134494e-001 
<GCONST> 8.081964e+001
<STATE> 19
<MEAN> 36
-1.037397e+001 5.004698e+000 2.363858e+000 4.736395e+000 2.814406e+000 3.856226e+000 3.447873e+000 4.612648e+000 2.730637e+000 1.578560e+000 1.391297e+000 2.463393e+000 2.139458e-002 2.002103e-002 6.623982e-002 -3.766894e-002 -9.253940e-003 3.324099e-002 -1.276135e-002 -4.225305e-002 -5.764646e-002 -1.223194e-001 -1.871584e-001 -8.297411e-002 9.179917e-003 8.574725e-003 -7.022780e-003 -8.234664e-002 -4.306990e-002 -7.984275e-003 -1.839251e-002 -4.787074e-002 -3.783054e-002 -3.608232e-003 -2.493459e-002 3.589079e-003 
<VARIANCE> 36
2.260385e+000 4.423319e+000 7.951412e+000 1.088162e+001 1.559794e+001 2.038482e+001 2.277979e+001 2.224565e+001 2.097687e+001 2.130893e+001 1.721347e+001 1.701591e+001 2.571231e-001 4.826936e-001 8.899800e-001 1.158491e+000 1.771113e+000 2.089614e+000 2.461035e+000 2.352712e+000 2.251604e+000 2.433898e+000 2.015856e+000 1.805486e+000 5.230136e-002 9.917253e-002 1.830024e-001 2.438829e-001 3.790957e-001 4.144312e-001 4.734378e-001 4.900313e-001 4.477435e-001 4.945269e-001 4.022673e-001 3.639645e-001 
<GCONST> 8.558872e+001
<STATE> 20
<MEAN> 36
-1.041181e+001 5.057043e+000 3.739046e+000 3.737914e+000 2.387808e+000 4.016970e+000 2.739565e+000 2.733210e+000 1.464511e+000 1.956749e-002 -5.733016e-001 1.703801e+000 6.130113e-002 2.170090e-001 3.993518e-001 -5.968155e-001 -3.379867e-001 -3.536465e-001 -5.809158e-001 -8.622614e-001 -5.834618e-001 -2.178307e-001 -4.292544e-001 -4.435798e-002 -1.398401e-001 -1.072806e-001 3.822425e-003 -2.182551e-001 -1.132932e-001 -9.150854e-002 -6.366315e-002 -6.152758e-003 1.547295e-001 2.693491e-001 2.646283e-001 2.129052e-001 
<VARIANCE> 36
4.945763e+000 7.406991e+000 1.528610e+001 2.158831e+001 1.856912e+001 2.967725e+001 3.309500e+001 2.091747e+001 2.625359e+001 2.364236e+001 1.732574e+001 1.650859e+001 3.795074e-001 7.164369e-001 1.080504e+000 1.522209e+000 2.051636e+000 2.440871e+000 2.010434e+000 2.331384e+000 2.221226e+000 2.584603e+000 2.230294e+000 1.631508e+000 6.364996e-002 1.278086e-001 2.101971e-001 2.496155e-001 3.513353e-001 4.744827e-001 4.429803e-001 3.367819e-001 4.373483e-001 4.566381e-001 3.606517e-001 3.202558e-001 
<GCONST> 9.067013e+001
<STATE> 21
<MEAN> 36
-9.932509e+000 6.877480e+000 4.117741e+000 3.782470e+000 1.406819e+000 6.849812e-001 6.566756e-001 8.383294e-001 6.120983e-002 -6.775080e-001 -1.430919e+000 2.059631e+000 -2.299804e-001 -4.929265e-002 7.765927e-002 -2.991806e-001 -1.500152e-001 -1.145964e-001 -1.992276e-001 -1.729065e-001 1.051717e-001 2.317729e-001 1.911531e-001 2.261038e-001 -1.331863e-001 -1.099036e-001 -1.553129e-002 -3.133196e-002 6.438510e-002 1.212197e-001 7.922709e-002 9.487313e-002 1.499512e-001 1.056410e-001 1.295531e-001 4.224085e-002 
<VARIANCE> 36
9.282741e+000 1.005298e+001 1.366810e+001 2.153043e+001 2.288288e+001 3.704015e+001 3.333872e+001 3.052927e+001 3.417189e+001 3.008804e+001 2.278866e+001 2.610825e+001 6.062702e-001 6.921187e-001 1.232139e+000 1.720204e+000 1.872587e+000 2.707303e+000 2.706711e+000 2.420483e+000 2.381344e+000 2.329499e+000 2.201817e+000 2.048924e+000 1.002465e-001 1.304110e-001 2.067918e-001 2.844939e-001 3.395243e-001 4.632826e-001 4.220577e-001 4.298460e-001 4.919755e-001 4.922860e-001 4.682641e-001 4.128331e-001 
<GCONST> 9.619334e+001
<STATE> 22
<MEAN> 36
-1.385508e+001 5.806717e+000 2.331650e+000 4.260469e+000 -1.083615e-001 4.680114e+000 2.038161e+000 2.903730e+000 2.900841e+000 1.213984e+000 1.860624e+000 2.683909e+000 -6.987598e-001 -4.129844e-001 5.085166e-001 -3.312196e-001 5.477095e-002 1.203160e-001 -6.937566e-003 -4.432119e-002 2.242450e-001 4.041274e-002 1.234313e-002 1.334878e-001 -6.199391e-002 -5.323926e-002 1.145881e-001 -3.529710e-002 5.707308e-003 -8.549266e-002 1.637365e-002 1.109746e-002 -1.547702e-002 -8.837727e-002 -7.598367e-002 -1.225771e-002 
<VARIANCE> 36
1.221401e+001 2.924320e+001 4.185370e+001 4.089155e+001 3.744410e+001 2.950728e+001 3.611114e+001 3.025466e+001 2.348157e+001 2.606591e+001 2.441047e+001 1.944292e+001 7.682462e-001 1.399323e+000 1.762764e+000 1.734669e+000 2.076670e+000 2.522500e+000 2.244812e+000 2.299963e+000 2.397176e+000 2.512910e+000 2.314170e+000 1.871421e+000 8.920861e-002 2.075312e-001 2.139654e-001 3.028303e-001 3.572456e-001 4.202595e-001 4.088153e-001 4.399134e-001 3.921079e-001 5.057550e-001 4.578412e-001 3.759935e-001 
<GCONST> 1.001041e+002
<STATE> 23
<MEAN> 36
-1.736181e+001 2.289086e+000 1.007518e+001 -5.481377e+000 8.662939e-001 3.814160e+000 1.212817e+000 4.079375e-001 3.186715e+000 2.100476e+000 7.465554e-002 4.054547e+000 -3.986484e-001 -1.088032e-001 2.846966e-001 -6.864062e-001 -1.862446e-001 -2.173649e-001 -8.723015e-002 -2.233057e-001 5.281620e-002 1.299454e-001 -4.322863e-002 4.302863e-002 8.458721e-002 6.533212e-002 -8.530593e-002 6.164159e-002 -3.039700e-002 -1.326499e-002 1.123176e-002 2.039364e-002 -3.199555e-002 9.145516e-003 3.583709e-003 -4.151520e-002 
<VARIANCE> 36
6.106202e+001 5.510973e+001 9.764762e+001 8.226292e+001 7.063993e+001 9.285246e+001 6.377939e+001 5.886492e+001 5.608269e+001 4.424213e+001 3.403447e+001 3.081409e+001 1.059040e+000 1.748422e+000 1.846982e+000 2.685246e+000 2.188399e+000 2.997814e+000 2.460005e+000 2.610013e+000 2.319790e+000 2.394689e+000 2.282364e+000 1.948300e+000 1.117796e-001 3.067733e-001 2.731089e-001 4.227813e-001 3.982018e-001 5.206233e-001 4.148939e-001 4.700214e-001 4.462827e-001 4.592227e-001 4.424322e-001 3.744479e-001 
<GCONST> 1.121094e+002
<TRANSP> 25
0.000000e+000 1.000000e+000 0.000000e+000 0.000000e+000 0.000000e+000 0.000000e+000 0.000000e+000 0.000000e+000 0.000000e+000 0.000000e+000 0.000000e+000 0.000000e+000 0.000000e+000 0.000000e+000 0.000000e+000 0.000000e+000 0.000000e+000 0.000000e+000 0.000000e+000 0.000000e+000 0.000000e+000 0.000000e+000 0.000000e+000 0.000000e+000 0.000000e+000 
0.000000e+000 7.116142e-001 2.883858e-001 0.000000e+000 0.000000e+000 0.000000e+000 0.000000e+000 0.000000e+000 0.000000e+000 0.000000e+000 0.000000e+000 0.000000e+000 0.000000e+000 0.000000e+000 0.000000e+000 0.000000e+000 0.000000e+000 0.000000e+000 0.000000e+000 0.000000e+000 0.000000e+000 0.000000e+000 0.000000e+000 0.000000e+000 0.000000e+000 
0.000000e+000 0.000000e+000 8.849174e-001 1.150825e-001 0.000000e+000 0.000000e+000 0.000000e+000 0.000000e+000 0.000000e+000 0.000000e+000 0.000000e+000 0.000000e+000 0.000000e+000 0.000000e+000 0.000000e+000 0.000000e+000 0.000000e+000 0.000000e+000 0.000000e+000 0.000000e+000 0.000000e+000 0.000000e+000 0.000000e+000 0.000000e+000 0.000000e+000 
0.000000e+000 0.000000e+000 0.000000e+000 9.116138e-001 8.838614e-002 0.000000e+000 0.000000e+000 0.000000e+000 0.000000e+000 0.000000e+000 0.000000e+000 0.000000e+000 0.000000e+000 0.000000e+000 0.000000e+000 0.000000e+000 0.000000e+000 0.000000e+000 0.000000e+000 0.000000e+000 0.000000e+000 0.000000e+000 0.000000e+000 0.000000e+000 0.000000e+000 
0.000000e+000 0.000000e+000 0.000000e+000 0.000000e+000 3.122066e-001 6.877934e-001 0.000000e+000 0.000000e+000 0.000000e+000 0.000000e+000 0.000000e+000 0.000000e+000 0.000000e+000 0.000000e+000 0.000000e+000 0.000000e+000 0.000000e+000 0.000000e+000 0.000000e+000 0.000000e+000 0.000000e+000 0.000000e+000 0.000000e+000 0.000000e+000 0.000000e+000 
0.000000e+000 0.000000e+000 0.000000e+000 0.000000e+000 0.000000e+000 9.364563e-001 6.354370e-002 0.000000e+000 0.000000e+000 0.000000e+000 0.000000e+000 0.000000e+000 0.000000e+000 0.000000e+000 0.000000e+000 0.000000e+000 0.000000e+000 0.000000e+000 0.000000e+000 0.000000e+000 0.000000e+000 0.000000e+000 0.000000e+000 0.000000e+000 0.000000e+000 
0.000000e+000 0.000000e+000 0.000000e+000 0.000000e+000 0.000000e+000 0.000000e+000 3.430493e-001 6.569507e-001 0.000000e+000 0.000000e+000 0.000000e+000 0.000000e+000 0.000000e+000 0.000000e+000 0.000000e+000 0.000000e+000 0.000000e+000 0.000000e+000 0.000000e+000 0.000000e+000 0.000000e+000 0.000000e+000 0.000000e+000 0.000000e+000 0.000000e+000 
0.000000e+000 0.000000e+000 0.000000e+000 0.000000e+000 0.000000e+000 0.000000e+000 0.000000e+000 0.000000e+000 1.000000e+000 0.000000e+000 0.000000e+000 0.000000e+000 0.000000e+000 0.000000e+000 0.000000e+000 0.000000e+000 0.000000e+000 0.000000e+000 0.000000e+000 0.000000e+000 0.000000e+000 0.000000e+000 0.000000e+000 0.000000e+000 0.000000e+000 
0.000000e+000 0.000000e+000 0.000000e+000 0.000000e+000 0.000000e+000 0.000000e+000 0.000000e+000 0.000000e+000 0.000000e+000 1.000000e+000 0.000000e+000 0.000000e+000 0.000000e+000 0.000000e+000 0.000000e+000 0.000000e+000 0.000000e+000 0.000000e+000 0.000000e+000 0.000000e+000 0.000000e+000 0.000000e+000 0.000000e+000 0.000000e+000 0.000000e+000 
0.000000e+000 0.000000e+000 0.000000e+000 0.000000e+000 0.000000e+000 0.000000e+000 0.000000e+000 0.000000e+000 0.000000e+000 7.844003e-001 2.155997e-001 0.000000e+000 0.000000e+000 0.000000e+000 0.000000e+000 0.000000e+000 0.000000e+000 0.000000e+000 0.000000e+000 0.000000e+000 0.000000e+000 0.000000e+000 0.000000e+000 0.000000e+000 0.000000e+000 
0.000000e+000 0.000000e+000 0.000000e+000 0.000000e+000 0.000000e+000 0.000000e+000 0.000000e+000 0.000000e+000 0.000000e+000 0.000000e+000 0.000000e+000 1.000000e+000 0.000000e+000 0.000000e+000 0.000000e+000 0.000000e+000 0.000000e+000 0.000000e+000 0.000000e+000 0.000000e+000 0.000000e+000 0.000000e+000 0.000000e+000 0.000000e+000 0.000000e+000 
0.000000e+000 0.000000e+000 0.000000e+000 0.000000e+000 0.000000e+000 0.000000e+000 0.000000e+000 0.000000e+000 0.000000e+000 0.000000e+000 0.000000e+000 4.471698e-001 5.528302e-001 0.000000e+000 0.000000e+000 0.000000e+000 0.000000e+000 0.000000e+000 0.000000e+000 0.000000e+000 0.000000e+000 0.000000e+000 0.000000e+000 0.000000e+000 0.000000e+000 
0.000000e+000 0.000000e+000 0.000000e+000 0.000000e+000 0.000000e+000 0.000000e+000 0.000000e+000 0.000000e+000 0.000000e+000 0.000000e+000 0.000000e+000 0.000000e+000 9.554644e-001 4.453564e-002 0.000000e+000 0.000000e+000 0.000000e+000 0.000000e+000 0.000000e+000 0.000000e+000 0.000000e+000 0.000000e+000 0.000000e+000 0.000000e+000 0.000000e+000 
0.000000e+000 0.000000e+000 0.000000e+000 0.000000e+000 0.000000e+000 0.000000e+000 0.000000e+000 0.000000e+000 0.000000e+000 0.000000e+000 0.000000e+000 0.000000e+000 0.000000e+000 3.616558e-001 6.383442e-001 0.000000e+000 0.000000e+000 0.000000e+000 0.000000e+000 0.000000e+000 0.000000e+000 0.000000e+000 0.000000e+000 0.000000e+000 0.000000e+000 
0.000000e+000 0.000000e+000 0.000000e+000 0.000000e+000 0.000000e+000 0.000000e+000 0.000000e+000 0.000000e+000 0.000000e+000 0.000000e+000 0.000000e+000 0.000000e+000 0.000000e+000 0.000000e+000 4.266145e-001 5.733855e-001 0.000000e+000 0.000000e+000 0.000000e+000 0.000000e+000 0.000000e+000 0.000000e+000 0.000000e+000 0.000000e+000 0.000000e+000 
0.000000e+000 0.000000e+000 0.000000e+000 0.000000e+000 0.000000e+000 0.000000e+000 0.000000e+000 0.000000e+000 0.000000e+000 0.000000e+000 0.000000e+000 0.000000e+000 0.000000e+000 0.000000e+000 0.000000e+000 9.458410e-001 5.415896e-002 0.000000e+000 0.000000e+000 0.000000e+000 0.000000e+000 0.000000e+000 0.000000e+000 0.000000e+000 0.000000e+000 
0.000000e+000 0.000000e+000 0.000000e+000 0.000000e+000 0.000000e+000 0.000000e+000 0.000000e+000 0.000000e+000 0.000000e+000 0.000000e+000 0.000000e+000 0.000000e+000 0.000000e+000 0.000000e+000 0.000000e+000 0.000000e+000 4.450758e-001 5.549242e-001 0.000000e+000 0.000000e+000 0.000000e+000 0.000000e+000 0.000000e+000 0.000000e+000 0.000000e+000 
0.000000e+000 0.000000e+000 0.000000e+000 0.000000e+000 0.000000e+000 0.000000e+000 0.000000e+000 0.000000e+000 0.000000e+000 0.000000e+000 0.000000e+000 0.000000e+000 0.000000e+000 0.000000e+000 0.000000e+000 0.000000e+000 0.000000e+000 0.000000e+000 1.000000e+000 0.000000e+000 0.000000e+000 0.000000e+000 0.000000e+000 0.000000e+000 0.000000e+000 
0.000000e+000 0.000000e+000 0.000000e+000 0.000000e+000 0.000000e+000 0.000000e+000 0.000000e+000 0.000000e+000 0.000000e+000 0.000000e+000 0.000000e+000 0.000000e+000 0.000000e+000 0.000000e+000 0.000000e+000 0.000000e+000 0.000000e+000 0.000000e+000 0.000000e+000 1.000000e+000 0.000000e+000 0.000000e+000 0.000000e+000 0.000000e+000 0.000000e+000 
0.000000e+000 0.000000e+000 0.000000e+000 0.000000e+000 0.000000e+000 0.000000e+000 0.000000e+000 0.000000e+000 0.000000e+000 0.000000e+000 0.000000e+000 0.000000e+000 0.000000e+000 0.000000e+000 0.000000e+000 0.000000e+000 0.000000e+000 0.000000e+000 0.000000e+000 9.147016e-001 8.529840e-002 0.000000e+000 0.000000e+000 0.000000e+000 0.000000e+000 
0.000000e+000 0.000000e+000 0.000000e+000 0.000000e+000 0.000000e+000 0.000000e+000 0.000000e+000 0.000000e+000 0.000000e+000 0.000000e+000 0.000000e+000 0.000000e+000 0.000000e+000 0.000000e+000 0.000000e+000 0.000000e+000 0.000000e+000 0.000000e+000 0.000000e+000 0.000000e+000 0.000000e+000 1.000000e+000 0.000000e+000 0.000000e+000 0.000000e+000 
0.000000e+000 0.000000e+000 0.000000e+000 0.000000e+000 0.000000e+000 0.000000e+000 0.000000e+000 0.000000e+000 0.000000e+000 0.000000e+000 0.000000e+000 0.000000e+000 0.000000e+000 0.000000e+000 0.000000e+000 0.000000e+000 0.000000e+000 0.000000e+000 0.000000e+000 0.000000e+000 0.000000e+000 6.766005e-001 3.233995e-001 0.000000e+000 0.000000e+000 
0.000000e+000 0.000000e+000 0.000000e+000 0.000000e+000 0.000000e+000 0.000000e+000 0.000000e+000 0.000000e+000 0.000000e+000 0.000000e+000 0.000000e+000 0.000000e+000 0.000000e+000 0.000000e+000 0.000000e+000 0.000000e+000 0.000000e+000 0.000000e+000 0.000000e+000 0.000000e+000 0.000000e+000 0.000000e+000 6.790800e-001 3.209200e-001 0.000000e+000 
0.000000e+000 0.000000e+000 0.000000e+000 0.000000e+000 0.000000e+000 0.000000e+000 0.000000e+000 0.000000e+000 0.000000e+000 0.000000e+000 0.000000e+000 0.000000e+000 0.000000e+000 0.000000e+000 0.000000e+000 0.000000e+000 0.000000e+000 0.000000e+000 0.000000e+000 0.000000e+000 0.000000e+000 0.000000e+000 0.000000e+000 8.150252e-001 1.849747e-001 
0.000000e+000 0.000000e+000 0.000000e+000 0.000000e+000 0.000000e+000 0.000000e+000 0.000000e+000 0.000000e+000 0.000000e+000 0.000000e+000 0.000000e+000 0.000000e+000 0.000000e+000 0.000000e+000 0.000000e+000 0.000000e+000 0.000000e+000 0.000000e+000 0.000000e+000 0.000000e+000 0.000000e+000 0.000000e+000 0.000000e+000 0.000000e+000 0.000000e+000 
